solver_type L2R_L2LOSS_SVC_DUAL
nr_class 2
label 1 -1
nr_feature 5000
bias -1
w
0.077881421243608 
-0.7254858152536375 
0.04198018532422022 
0.07575492981251222 
-1.008401519917175 
-0.1417461375590799 
-0.9195871714381388 
0.1392662384165786 
0.0827975889360679 
-0.7974561058769896 
-0.4710473925533417 
-0.04364893596176615 
0.04021604287645165 
-0.2513517597636991 
-0.09406049175041374 
-0.7092787591668541 
-0.3091513452751302 
-0.1384069409841376 
0.1037537997165671 
0.08022507174288786 
0.2036457827968568 
0.9013957447039556 
-0.0252129985805958 
0.0170616950775293 
-0.03712024429497986 
-0.5391534780680467 
1.227379541408991 
-0.378201729557826 
-0.0130184056992362 
0.02355313349912439 
0.09084888670615379 
-0.09277047253170186 
0.3052917065253139 
-0.3706009019593262 
-0.2115565575634349 
0.2088622465478151 
0.2024690810039501 
0.1811881583690686 
-0.1374829891548293 
-0.06189686187320544 
0 
0.3426809002106569 
-0.3717016707755175 
0.1947485425921638 
0.03149773748321377 
0.03953256913610317 
0.2094090327944736 
-0.3057632776168508 
0.03801389655155293 
0.4718561609298373 
-0.4089779349833613 
-0.0006426121043937475 
0.3610092156379747 
-0.1055248693726587 
-0.04069165640004853 
-0.2407077597494549 
-0.6060927662585293 
0.5255485272608053 
0.2430498105973362 
0.1763703183309099 
0.004681107606765812 
-0.365730640194747 
-0.07910397017826645 
0.02051996551733378 
-0.5732994038262111 
-0.2740030884564853 
0.1867847774360079 
0.2175771996419728 
0.02965159240853266 
0.2793135625679213 
0.1337040451329213 
-0.7124274862046862 
0.1567683549790846 
-0.121474818668949 
0.1915658935654942 
-0.126967259747101 
-1.550442624476643 
-0.2286509161290088 
0.7014504012330079 
0.06156638417619217 
-0.1529440152918704 
0.179531498505731 
-0.06644961078574402 
0.1047719187918398 
-0.3612447918465185 
0.04752573799924714 
-0.6595348435107792 
-0.07163768049764432 
-0.3487066302175865 
-0.02054518717752314 
0.04309199536944444 
0.05102647088613941 
-0.05182607129817965 
-2.246326178627951 
-0.01823425755258982 
-0.1622868237943901 
-0.2336759711087762 
-0.5324200692630399 
-0.02426380587627114 
0.3871766387097896 
0.009718099716800087 
-0.3596567091290402 
-0.1027332329447525 
-0.03621050485805508 
-0.1525409340349799 
0.04320665424103248 
-0.2255050305751067 
-0.09062486063149454 
-0.02516017045725201 
0.0679335067172307 
-0.5316204549406868 
-0.8001872943712354 
-0.008468525763393494 
0.01239500183816114 
-0.549049900925813 
-0.06226954307978054 
-0.04860914371080978 
-0.148145317120125 
0.7508679875208715 
0.3731326156602439 
-0.06558746361382894 
-0.1918309720695861 
0.1953861282252378 
-0.1358634998289258 
-0.4656009036634993 
-0.1519474657837259 
0.01466946506650349 
-0.2012735336993106 
0 
0.01126683379881487 
0.08476907719894018 
-0.04276754845992924 
-0.2783436422636663 
-0.1577536566145191 
0.4032353198068011 
-0.624381474825539 
-0.06845145894369947 
0.02637553904662162 
-0.1529228903605682 
-0.8380361901575054 
-0.07388135998858696 
-0.02615195423102299 
-0.7611407122704763 
-0.1846790868594035 
0.006636000539774001 
-0.2550578004473193 
0.02800049741070968 
-0.005632948341447851 
-0.4763313816472644 
-0.4597700620400019 
0.03574655502261461 
0.05028681462304153 
-0.03130022099787039 
0.02269711005273948 
0.005716091409492649 
-0.7889226394883794 
-0.04254688565906741 
0.1180797917882672 
-0.1296517902862905 
0 
-0.2225132627668406 
0.2289648288287785 
-0.4391942644260426 
-0.416919570373784 
0.005984437632434628 
0.02818699494720123 
0.3576163627744425 
0 
0.2427926766066114 
0.407893140527424 
0.292427323505236 
0.144270499052693 
0.04858862000340734 
0.2050101681854441 
0.1518908633047362 
-1.444787603625444 
0.3153337732251543 
0.2740368497465212 
0.4628196824231853 
-1.864029731238758 
-0.5574283093392032 
0.1313442847834698 
0.2839473147691808 
0.01668628315071083 
-0.5929338350199335 
-0.008811060197794901 
0.5222817610965196 
0.2009389718667065 
-0.264559754975541 
0.07359591649885003 
0.08654829715600966 
0.04916370851074696 
-0.07247215547562873 
0.1896140269060355 
-0.1022565829104887 
0.02156816956147044 
-0.6402156074734736 
-0.0003009308990929815 
0.142070813483297 
0.3281288379373354 
-0.3540853123033847 
-1.83503827340636 
0 
-0.08760164923970193 
-0.001406508641007636 
-0.3119479538222703 
0.02662428562375127 
-0.6130670991210241 
-0.1089252408235663 
-0.174379581608295 
-0.329004621783768 
0.1782701210428153 
0.7327987519301524 
0.2796126328674965 
0.2515511554669367 
-0.02565699067583513 
-0.07703569651230247 
-0.2185357057617486 
-0.01530530637472239 
-0.09888267519317176 
-0.4764736960487335 
-0.1970675345673723 
0.02147356192536225 
0.001914799280261487 
0 
-0.1265715886738667 
-0.05117842754882834 
-0.6145335565313721 
0.09852043863951179 
-0.1609623337921622 
0.08992386560381753 
0.001108309245872944 
0.04032986131761026 
1.021556188763419 
-0.713252403889708 
-0.3540829244390407 
0.0476177419686342 
0.1556090419297556 
-0.01454384343986848 
0.01958244618637701 
-0.008556406222466211 
-0.02336155201780279 
0.08174684796027748 
1.618133012177664 
-0.001888384657307645 
0.08918066976795574 
0.008669415656304445 
-0.201185225987401 
-0.1236458295145331 
-0.005164729993909056 
-0.2766305988384329 
0.05674173891983545 
0.3666613923264619 
-1.404731951355129 
-0.01806677243496974 
-0.05016956041003896 
0.130449074113468 
-0.0956020576598187 
-0.06259646084228056 
-0.3089664865539497 
0.1526622429796221 
-0.6330534387233072 
-0.05207491809186508 
0.06127255868023056 
-0.01546815064491688 
-0.3585776598587784 
0.04156889521007476 
0.06443311430908159 
-0.1211525149764748 
-0.8111851994931596 
-0.3511673908020865 
0.04130446664098692 
0.8684423749990834 
0 
0.2408435179253417 
-0.2662910071917634 
0.09657688143921622 
0.3807999758304126 
-0.2676981544847714 
-0.3088995763775423 
0.1034549822851904 
0.00333612286530393 
-0.6594103436816396 
0.1798895243047159 
-0.6340287811079087 
0.6993472626991633 
0.1223571834297734 
0.3092705572277052 
-0.4839277202816348 
0.1400504589049139 
0.1107361222768964 
-0.1496723443970361 
0.006586209482506778 
0.5551795150649508 
0.09490728644314236 
-0.1974433289719079 
-0.01783813987393544 
0 
0.004639070580070497 
-0.1330448761553456 
0 
-0.4887993064187732 
-0.4298229178960179 
0.303371996729243 
-0.01626874228764034 
0.2464239135910156 
-0.629327581691161 
-1.022080131694593 
-0.4317268851759 
-0.08844966112881335 
0 
-0.2232402826574068 
0.137986878609286 
-1.827213055127686 
-0.05238235808926271 
1.341755460115333 
-0.8875895555851022 
-1.107421497272025 
0.5063508490696694 
-0.2473775117848906 
0.06439152725830968 
-0.1853029127278991 
0.1343899771841969 
0.1499297141063985 
0.004342768251572851 
-0.05536428351108515 
0.01955155800131443 
0.08615838077059092 
0.2149166606889674 
0.0952569901978943 
-0.4780088658660873 
-0.2277056685000454 
-0.3672151888006987 
0.2198592209374122 
0.02933386454347861 
0.007503348745787761 
-0.01580253353244031 
0.1543454917548334 
-0.07317889610612559 
0.5464529107650533 
-0.01792282015834992 
-1.19631440291082 
-0.2197667346349068 
-0.1342429292653954 
0.5063013097711594 
-0.9007838051143764 
-0.8718236161181185 
0.06505558765560181 
-0.2469704470569972 
-0.1045986130733894 
-0.1050996917931413 
-0.1285634082863152 
-0.1988663390652228 
-0.2714396347302655 
0.0886783654424816 
0.04663144297972232 
-0.2916115832641837 
0.1100184205286578 
0.001865445243743166 
-0.3870236221057587 
-0.284897427752292 
-0.9263477186882123 
0.4100499725087423 
1.251286169521419 
0.4581215528949351 
0.1658794572036534 
-0.01978411468956461 
-0.05742797696304481 
0.6950314176334041 
-0.06133684244307159 
-0.03032394829619904 
-0.007820113545423661 
0.04063309693045199 
-0.004035812638925119 
-2.251288005359862 
-0.166944112522405 
0.4127479484631781 
0.03006593029084368 
0.1375110802707201 
-0.1057036423669989 
-0.7763472670142864 
-0.03589378916530972 
-0.09005336968737498 
-0.006521173565408294 
-0.1623641897981583 
0.108340637894249 
0.09824793519771509 
0.5959617364470917 
-0.1557851073519141 
-2.130477819151242 
-0.3387160379293163 
0 
0.02606884205992808 
0.1254047602238601 
0.0789445910044734 
0.04954942852786694 
0.238254504182484 
-0.1172660988347416 
-0.09313394079587647 
0.02553119035424735 
-0.05853337398647657 
0.1968705964318021 
0.008169807000618491 
-0.8802556040224228 
0.533710587850555 
-0.8527410975386713 
-0.2198759294602382 
-0.1283016376266242 
-0.0984509618596139 
0.04711779581008633 
0.136982328788698 
-1.053023623023618 
0.7688215389269624 
1.050767479746366 
-0.9865584781868227 
0.0408977305764371 
-0.1787145719142039 
0.2249189292247222 
-0.013202863890199 
-0.2806860417148629 
0.1244409248002459 
-0.187653018875548 
-0.0008720317453975454 
0 
0.0125053494942859 
-0.380843851123335 
0.01447428720855343 
-0.08060355437511151 
0.6603354742036515 
0.08817236930154482 
0.336922568088069 
-0.9660742649467228 
-0.6890596466049396 
0.1317711792403642 
-0.006458378253453011 
0.8780521185405354 
1.075749757783736 
-0.03613547020860149 
0.2565488824112482 
0.003705770067891862 
-0.3536361088286643 
0.07809304387150363 
-1.092483045322018 
0.177919646041072 
0.199924921439612 
-0.02313915336809942 
0.03139705436142215 
-0.1285431555603479 
0.06234132740834535 
0 
-0.8186107877487905 
0 
0 
0.1835035880185438 
0.5766137698319466 
-0.002562578090840142 
0.1360741603218453 
0.964487449829732 
-0.942967538239106 
-0.08467464928298592 
0.3281069210526156 
0.03352900549466303 
0.0983201239006801 
0.4076190700429254 
0.1534421754763321 
-1.263761684474709 
0.02683366238362817 
-0.226469564879678 
0.002839489675691323 
-0.4584889643536326 
-0.3327841085772599 
0 
0.3646967119497639 
-0.07361685065287321 
-0.2425404133143066 
0.01523547941166517 
0.05237590527273867 
-0.2124350934459406 
0.01229897585554091 
0.05576095753075098 
-0.02736953566684584 
1.506429194015234 
0.3655403764429935 
-0.06228613000801442 
-0.1396553449305274 
0.3728568640450739 
0.09378237358197741 
-0.06763090305218297 
-0.06368671146741821 
0.008479843441405555 
0.3720792593912023 
-0.0242543547096544 
0.4069552052550362 
0.03103326685822687 
-0.0007735479958680131 
0.02061207627950136 
-0.009791394605168912 
-0.2220562781334457 
-0.04274509549896748 
0.5854023364865544 
-0.1310475035042483 
1.727034191886702 
0.04666125974535656 
0.1048163122624136 
0.07930773257534078 
-0.6243625493198082 
0.05087209779269121 
-0.07719282475316155 
0.05433435201726591 
-0.0003398357417386025 
0.1203605460477955 
0.03533129038363016 
0.05566714010500989 
-0.1033781373542515 
0.06322767159960302 
0.2614247902633598 
-1.454983318392072 
0.2551065744364697 
-0.0950860836546288 
0.3613260367738839 
0.079189556593598 
-0.09439327790970525 
-0.3773513747500821 
0.03616152538794834 
-0.1646306590258293 
0.03062685854133679 
-0.01384264090114456 
-0.06785319701859724 
-0.2922864479662848 
-0.2012128537900822 
0 
-0.00857004751712943 
0.2619358193093829 
-0.5327494030891716 
-0.1135215351881156 
0.1454329171626319 
-0.005236712820305259 
-0.178989217221752 
0.1321664215841017 
0.1560802747897345 
-0.2761051182487756 
0.3730642308037437 
-0.8957348543362582 
0.04621006534605512 
-0.2043931725106564 
0.00824544172526788 
0.007113515864179311 
0.1230107363374077 
-0.8114842135434567 
-0.0374827311916873 
0.9603280500270996 
0.1147668906994186 
0.01221691872677563 
-0.01100837239378884 
-0.1664388230290343 
0.0248679463564326 
0.03432064032208758 
0 
-0.001671297085932622 
0.3476722400728943 
-0.014952754027918 
-0.0955240430285848 
0.7036830668733872 
0.4587304460531231 
0.2088303340302646 
-0.002576969957659324 
-0.4272781819050113 
-0.03267516687733612 
0.001689475181854713 
-0.0304867659238344 
0 
0.007294923566517396 
0.003147383210519017 
-0.7331352265242321 
0 
0 
0.4146209342255541 
0.7332777625046238 
-0.04753822144075147 
-0.007068595234535791 
0.0624896141936257 
-0.008968902784515165 
-0.1527114610629538 
0.01356851668754065 
-0.003485187656997439 
0.442210853662838 
0.08112542293692052 
-0.428604879982053 
-0.3489558401288707 
0.05552082937289692 
-0.2207566511144039 
0.004745879126052373 
-0.01092850272756477 
-0.04663092918209366 
0.007481849605500199 
0.09356781737497878 
0.008064288218901585 
-0.07135528709663372 
-0.04321618946316726 
-0.3458500879669961 
-0.08194344860898722 
-0.4016130692462807 
-0.2296281676861468 
0 
0.441938900525744 
0.01237255417972419 
0.07984680720026963 
-0.3581793048470156 
0.1926421931983018 
-0.1937618940124499 
-0.01045682261253502 
0.04544723556873173 
-0.9947303736549319 
0.04909996358398749 
0.09856932337386226 
0.3173217122185009 
-0.9283129258762464 
-0.02594228136193434 
0.1528190827512214 
-0.2497015165396744 
-0.3274646559617803 
0 
0.06829000715181438 
-0.2788484167006018 
0.03592595435270553 
1.001608703799745 
-0.07822200865764781 
0.02133314102596924 
1.549324381402495 
0.04098362567078151 
0.02341751833106821 
-0.008542698064544068 
-0.01556653692306654 
0.0769612642107745 
0.0401772301960543 
-0.01530922545189036 
0.01232035723703594 
-0.271454082248566 
-0.08660073630645229 
1.249283812159444 
-0.1152713774474255 
0.3364323160268833 
0 
0.01375777614576194 
0 
0.1180654216038156 
0 
0.1794617448890437 
0 
0.006845039437692876 
-0.06636114350714543 
0.1447883264795964 
0 
0.006674627402908031 
0.002777711438298876 
-0.2462452290438178 
0.05701859239871535 
0.2323550401682477 
-0.1579534397118126 
-0.3723285814255149 
0.2101103373988652 
-1.140060458783404 
-0.3881850350052377 
-0.0326928628314058 
-0.004312138507770977 
-0.01434772287736351 
-1.184401672786483 
0 
0.328379922806064 
-0.01579748306859707 
0 
-0.06418820408845552 
-0.02322327901397939 
0.1428212848820325 
-0.287647685682606 
0.03782322415929518 
-0.06102279415673734 
0.01668113603131245 
-0.02167991996300741 
0.2763022049177416 
0.1055174713087575 
-0.03426838765094544 
-0.2005161996526941 
0.0207768735607637 
-0.20171425029759 
2.076494301618566 
-0.04144857095548154 
0 
-0.1391255608411588 
0.05267946154724796 
0.06069282447578361 
0.503394189153362 
-0.4237357966057164 
0.01294026663797714 
-0.001905886755199117 
0 
-0.1281302241199287 
0.1637444660379294 
-0.005286267058489228 
0.4165162094976566 
0.1474933908466079 
0.009611483448868021 
-0.5792239497350755 
0 
0.6041451912601907 
0.1084593130969295 
-0.02700698746635328 
0.2885249322685074 
0 
-0.06043581368118308 
-0.006764451710171869 
0.2408652775983781 
0.3786366817933948 
-0.01238287793794241 
0.04831129601859093 
-0.05399180737531802 
0.0327037990289859 
-0.08339721169699306 
-0.08434188102322156 
-0.5729855580556553 
0.1902921706325689 
-0.005181997513882512 
-0.1749952087364703 
-0.03448638086816704 
-0.03034589347014763 
0.002065022424168794 
-0.09327552723715531 
0.2623081909814842 
-0.04118696092433913 
0.1478206374077568 
-1.06174335399252 
-0.2627105952144465 
0.04160556203770834 
0.01516142325090517 
-0.2051183564334423 
-0.09645704644349595 
-0.8469622128031637 
0.1219652843047606 
0.2584868736730606 
0.06317032281556775 
0.1159962643151106 
0.104036832195961 
0 
0.01514480587129783 
-0.04096997502100031 
-0.04043321638695156 
0 
0.06184039319210249 
0.07711194636351029 
-0.2309657623568088 
0 
-0.04943397492442985 
-0.2544840125802925 
-0.5249175340187261 
0.353188110039574 
-0.6438358356929741 
-0.1466224780028751 
0.04201069637995405 
-0.07330262163969879 
0.006811183968911084 
0.04496813911161926 
1.034545937859744 
0.4052797158119338 
-0.3175967015131914 
-0.1120494980020735 
-0.180578925051131 
0.1946470287459782 
-0.04374722613865125 
0 
0.2168624246798079 
0 
0.0319253405557963 
0.04608171110540714 
-0.005187702804670909 
-0.1131615387546916 
-0.01270464425810745 
-0.0766951742207734 
0 
0.05566812830019032 
0.4292187332612476 
-0.0729401843340866 
0.1349328199608476 
0 
-0.1030586884029912 
0.06174534785331171 
0.2849847784875209 
0.3283550530280798 
-0.04519540413985264 
0 
0.1591147842859111 
0 
-0.03536981771584665 
0.4627902214239646 
-0.01849445114751605 
0.7720584786510682 
0.5477051785171192 
0 
-0.03269284441731649 
0.04384842623537637 
-0.01598356521044973 
0.07847436415837979 
1.347629957026597 
-0.001150926436581553 
0.02599690849134921 
-0.03455723642876482 
-0.03712685441751193 
0.1508050945749349 
0.769500967586401 
0.1346535644201559 
-0.02460937713305099 
-0.001568676933908207 
-1.114388330230459 
0.4532185626656923 
0 
0 
0 
0.6860595364616844 
0.08926084017835921 
-0.01754199671590011 
-0.009707038838380363 
-0.001701236665059992 
-0.005385414200707934 
0.01555241535075313 
0 
-0.4120877327815525 
-0.3860901748115253 
0 
-0.02251787502374366 
0.06142574213138576 
0 
-0.0002345338661677925 
-0.0776713062535902 
-0.05229967621385308 
-0.03320042755540141 
0.05258345704123431 
-0.2261621212461357 
0.09170997361758002 
-0.1240942002800768 
3.777645368786614 
0.01124918092650389 
0.01510471839340584 
-0.0731605850201531 
-0.3257713180822825 
0.05382584347660516 
-0.008101722038753858 
0.1197273893003333 
0.004171934076347597 
0.02803743730162513 
0.03236743220523712 
0.1650859256923791 
0.006364489168173922 
0.05239830068601425 
-0.1156677188279347 
-0.07653221239521976 
-0.1222714628705238 
0.03571088531954868 
0.1166654640321828 
0.02501756921931833 
0 
-0.2270527667416474 
-0.06690905535747318 
-0.02120471163189977 
0.2007493995049167 
0.1281015075293041 
0.1431184389964113 
0.001828403362345409 
0.04736416701824387 
-0.06359975583433226 
-0.3726390870306491 
-0.02193467433214955 
0.386428469018587 
0.02539917409237974 
0.07018645163687254 
-0.2145342223992364 
-0.1218894566953611 
0.08660844642691981 
0.07914552722311612 
-0.2399871061404686 
0.9952470321663661 
0.5792101173407485 
0.004113253302292341 
0.2451602815963525 
0.2733339256163206 
-0.2013049936538708 
0.4597527626129545 
-0.1353509050848972 
0.4000143700432419 
0.04152305294991045 
-0.24508224248353 
-0.0905639093430147 
0.02272895018360161 
-0.05623558763149707 
-0.3565198245775328 
0.02970198733536541 
0.0882973304200262 
-0.5065070900361591 
0.05757840172988082 
0.09236735703323629 
-0.5324103000485281 
0 
0.0565622642076294 
0.1471959339803121 
0.8288165304571729 
-0.1770808852809142 
0.05937822335687387 
0.1806879807562083 
-0.1595238396685492 
0.1449668891954875 
-0.04568600152342056 
0.05695949853911891 
0.01055057005218898 
-0.02912828853426003 
-0.1738680674643957 
0 
-0.03602507829933118 
-0.1656635308921306 
-0.05178822264347786 
-0.2215939731190236 
0.03585267540112833 
0.1599228065007104 
-0.03061934871592443 
-0.2975678353137214 
0.008066950912459491 
-0.08678933542805775 
-0.2391353255630874 
0.2401009293158989 
0.007441519712551676 
-0.006935951287583904 
0 
-0.3710335504760813 
0.05210111707384205 
0.02760524285746941 
-0.01221902493739527 
-0.04192479968312009 
0 
-0.120281005910723 
0.0005411283830193811 
-1.167179847545865 
0.007415856802584263 
0 
0.1439823772821062 
0.0406411510962336 
-0.05213711748329521 
0 
-0.2043317270564014 
-0.01565250914218253 
0.04957321781431923 
0.07673561781268319 
0.1524888919870698 
0.05850845157937536 
0.5184822544537593 
0.03672781921167402 
-0.0008006610585419457 
0.1253397740464932 
0.3083145558581861 
-0.1986197302194684 
-0.0841659022881677 
0.2856999288555508 
0 
-0.4326693626972403 
-0.04209961608478104 
-0.2171092770337251 
-0.02463569863664961 
-0.07641344303558079 
0.005540657098009623 
-0.006304414557150983 
0 
0.113158039292504 
0.8670649493318664 
-0.1065663810580474 
0 
0.1609518263863603 
-0.3745683377610022 
0 
0.2029612664096393 
0.07595504815211555 
0.1809303242243347 
-0.009220914530631759 
0.6784201339879867 
-0.1047193493614668 
-0.233150245971234 
0.007375001214038557 
0.009280590834875879 
-0.06318184348712039 
-0.03828265454482727 
-0.2553210139917751 
0.05737709394892348 
-0.2770189732966971 
-0.005599157439057079 
0.4309930927440209 
-0.2163583808304343 
0.05081691016516214 
0.3973709861832402 
-0.07592899188118131 
0 
0.1641907537420675 
-0.1316827355301398 
0.09929263981441018 
0.09779301117932743 
0.01413467699753289 
0 
0.198105287675711 
-0.01385539138225429 
0.09882425861980068 
0.2039620120174838 
-0.08999829763321394 
-0.8384745973697273 
0.06442195901791573 
0.02136593729639986 
0.06831532774312798 
0.03166985873545045 
0.04370742892674113 
0.05696231752030832 
0.1013925612801641 
0.4130319467477018 
-0.01436281917250887 
0.02172767231681916 
-0.0312151476664684 
0 
0.2225340627985043 
-0.03229639537738817 
0.1293018694192301 
-0.03562911551687192 
-0.997341659526816 
-0.04596447269401417 
-0.1590618562582064 
0.2503183951192215 
-0.0472219577961596 
-0.4134616124937066 
-0.002756815948902916 
0.05097135734282257 
0.00618863066157266 
0 
0 
-0.07274444213954402 
-0.06074743737444795 
-0.1990669456034891 
0.08860637207565111 
-0.01353176717316608 
-0.06644165079531998 
0.09197648022274364 
-0.04140859722517746 
0 
-0.01345813585194862 
0.1977922840394219 
-0.03774856221963806 
0.006121522499679616 
-0.01272912553133314 
0.8836771953153103 
-0.2558849601181534 
-0.006718449878555972 
0.001639715936490151 
-0.4828363458815137 
-0.4601681365669686 
0.1381785281426544 
-0.5328824272711776 
-0.01830296778370221 
-1.003202486277646 
-0.01675875481617939 
0.04121619308049373 
-0.06413770361764186 
0.1995304784593325 
0.2515880474035757 
-0.004393352528516155 
0.00217916121662795 
0.2246717185585849 
0.2305533328808696 
-1.639639055274223 
-0.4708050451433329 
0.2421990321615863 
0.01930400349367472 
-0.0708154939145202 
-0.08566351849917124 
0.6608135611638848 
0.06199409131591888 
0.2012377422256814 
0.172882826636564 
0.2974924965222837 
-0.006427194605135448 
-0.09359157706190997 
-0.01717274602422447 
0.3553471988461351 
0.2096795374623274 
0.09218309010096309 
0 
-0.01143807927446526 
0.01061029665677606 
0.2096735375756861 
-0.6769530513302817 
-0.01925711475761852 
0.3041386882557671 
0 
0.5519989277058931 
-0.3568306749465793 
0.2047180403762419 
0.08697689189957968 
0.4564202539090079 
1.176950123072768 
-0.07818527608370004 
-0.08606973929187693 
-0.01522272222419221 
-0.08007335947945395 
0.7659610552507892 
-0.0392488798031795 
0 
0.1296483499101814 
-0.06784552521702931 
0.09562401033272037 
0.106439665698779 
0.01141530735002514 
0.6940653128674342 
0.08092626673116171 
0.2657344239528788 
0.1011651340620635 
0.04378915100248411 
0.01702037682472202 
0.003678164610510082 
0 
0.05527988230547811 
-0.007486024940915134 
-0.06407457280409339 
-0.6870741158076243 
-0.217535877442118 
0.1492344930772296 
-0.003086738018605058 
-0.07032001692014676 
0.009615242626902238 
0.0118205916854446 
-0.02007890630877622 
-0.002375446562892904 
-0.03020269447068504 
0.0780061435624229 
-0.2348810485576266 
-0.0136334627393758 
0 
-0.006323951643192818 
0 
0.00750008290383253 
0.1600288278678417 
-0.02200041590413378 
-0.1245254821311057 
0.2504496896165935 
0.1509704714795692 
-0.482948564152485 
-0.2940603721962855 
0 
-0.09474752713358328 
0 
-1.061938839974082 
0 
-0.00347821169411105 
0.0002979336040921905 
0.3451230804377222 
0.9655737291392985 
0.01768449189387291 
-0.08827222461088033 
-0.5236340409332495 
0.2373029803622791 
0.02393956615945534 
-0.01755689545618182 
-0.004017649603600654 
-0.07669901796690495 
0.1139673612857476 
0.3131719926709768 
0.05327716593070195 
-0.5519428121818815 
0.003004021613125808 
-0.02325598153569725 
0 
-0.02358229411911385 
-0.3062820806090205 
-0.1428162245778836 
0 
-0.1909511831601862 
0 
-0.1873152732927684 
0 
-0.02159869136726637 
0.1613960544197563 
0.2921033565649617 
0.03001002541977854 
0.3088037597314544 
-0.2943019913577015 
0.1792566634820855 
-0.3750547292186776 
-0.03752957767614921 
0.02752773333329054 
0.3723849545186611 
-0.4250171543515258 
-0.2723441806141947 
0 
0.151979028604826 
0.1607340229755705 
0.1951815985760444 
-1.509110319831275 
0 
-0.1856468673271179 
0.1035170041145792 
-0.03989640646190355 
0.03262601864536486 
-0.6504547994946669 
0.01939085785152886 
0.0418985806803935 
-0.1555488760379337 
-0.1104729577917287 
-0.2058426783339727 
-0.01181063855536289 
0.02837804585797786 
-0.1143150859600112 
0.1079319561158134 
-0.04431677469142539 
0.3867535484100268 
-0.05651817074031742 
0.04139235321760321 
-0.03317440954401415 
0.09938464926578007 
0 
-0.1181735278519962 
0.5477007229373391 
-0.3757799000840026 
0.04050725943786166 
-0.003939019528105349 
-0.06115180403759271 
0 
-0.6625967682062277 
0.07639819111964784 
-0.1470857518611649 
1.088547916080745 
0.2466461049760658 
0.1125961925005966 
0.1705985260138182 
0.06172557414205215 
-0.3400149126577845 
-0.002405044028513997 
0.1765722188319396 
0.007850067875528353 
-0.2227561076205786 
0.3965319335178826 
-0.08453397163376103 
0.02250908930484769 
-0.1084499647286745 
0.03009008936495425 
-0.02934056418082504 
0.3975418098442132 
-0.301122451421467 
-0.07085567273250705 
0.001075612174041833 
0.06396570431339908 
0.08391415805836572 
-0.018240642515363 
0 
-0.294040823380887 
-0.07518349963551547 
0 
-0.1650896629392453 
0 
-0.03099792960810874 
-0.01541626682531351 
-0.479254951018397 
-0.04947286125581886 
0.04495006644199623 
0.02370247340982989 
0.4553895266243709 
-0.08520725234910984 
-0.005462062959142986 
-0.01452726339886297 
-0.07234737088272063 
-0.1713955127442456 
0.1475291807738421 
0.1122933601940277 
-0.1585463243186765 
-0.2232819502783096 
0.0164501155522931 
0 
-0.01602302684078792 
0.1626316169565876 
-0.3084953236672842 
0.1238029999832206 
-0.6168298149343981 
0.1714000030337597 
-0.03893333087367271 
-0.108311099987005 
-0.001229347049503551 
0 
0.04710072502264552 
0.1506251915853289 
-0.2035216291268293 
-0.01895298135303264 
0.3282694894732026 
0 
0.00217614392882514 
0.01222658547771319 
-0.02239809522857157 
-0.009500991561355863 
0.09196349958076139 
-0.1713350371224847 
0.1492411616102121 
0.02601576279472071 
0.172944624437847 
0.01415725136647002 
-1.082577023401791 
-0.02526512028972466 
0.02257910262622446 
0 
0.4927979390712575 
0.1281532668015236 
-0.2477344441964386 
0.2194332585590573 
-0.07082327340212262 
-0.02116868345099067 
0 
0.01229184242877795 
0.07993610838161733 
0 
-0.1065024094771711 
-0.02046588697600882 
0 
0.01780736982336753 
0.1587756551251667 
0.04777309872596314 
-0.06011268005817978 
-0.02046773136626848 
-0.6836708072468464 
0.02468345037776988 
0.05856099964988318 
-0.008277196737166027 
0 
0.1670624424036143 
0.01507564527275788 
0.1691371439206685 
0.3940456270930504 
0.2403514830446886 
-0.007494888596418663 
0 
-0.08111834173128535 
-0.01249674892277246 
-0.002249998870913422 
0 
0.04349961581576854 
-0.1571271338870104 
-0.5021232035498214 
-0.1787448216546894 
0.02656318824117013 
-0.04740665156605793 
-0.0182320971012714 
-0.02560351400303127 
0.2224802356009684 
0 
0.06235565766182961 
-0.001224704901538324 
0.03957695886032565 
0.2351582590987847 
-0.0186774768532023 
0.06975063449273239 
0.01424861869715933 
-0.102878850953845 
0.4973554228311193 
-0.03016503964432568 
-0.2191027143405169 
-0.006414383975232262 
-0.1550384231265653 
0.3087749120973799 
1.235213204235003 
-0.01408910624975321 
0 
0.03184042405303258 
0.001157681433174572 
-0.00455066721941429 
-0.1100717355830312 
0.002456371786237334 
0.8659482381287327 
0 
-0.06519083687775043 
-0.1206732174900114 
-0.1810136030147423 
0 
0 
-0.01551040865582686 
0.1067252322481806 
0.05406443603870097 
-0.2825610683846355 
-0.06229559350737354 
-0.007296592515377971 
-0.4277411857723998 
0.003603955045087424 
-0.00168582612066994 
-0.06982247332482576 
-0.6451836369150059 
-0.06822348702349848 
0.002309835923751424 
0.4081594353232047 
-0.0264044115386562 
0 
-0.01984439930209127 
-0.06416966804063486 
-0.008884149589675674 
-0.02165081401903221 
-0.01016576563257633 
-0.01441958923297874 
-0.05689484200243179 
0.01094093889830366 
0.06683279304621353 
-0.11305612786637 
0.01676826663903728 
0.02257451308373164 
0.527811344188758 
0 
-0.02340865397104866 
-0.118865366754666 
0.5449630619272307 
0.1685060814340319 
0.00439253190385476 
0.1585044025667532 
4.939777184463125e-05 
0.04020037786488415 
0.04669990570432097 
-0.007415521168952516 
-1.742883417685284 
-0.2473836947753585 
0 
0 
0 
-0.06212181852016131 
-0.05013874821534316 
0.1450121029487007 
0.1365919263966868 
0.2222402053946227 
-0.0954535858921103 
0.01004323180135442 
0.7388560552341297 
0.06749393282033805 
-0.09958168179974194 
0.09109232662630107 
-0.1634871308899555 
0 
-0.005513277069885424 
0.09582877273682341 
-0.008652433121860892 
-0.02858342460214601 
-0.08464725379350745 
0.001837733843302465 
0.04271961115502972 
0.137717160679668 
-0.09129923019845941 
0.1669822679800937 
-0.4970735292354083 
0.06449441377986313 
-0.09834784088804953 
-0.1011771254199116 
-0.1782031767257758 
-0.04537768037046579 
0.05354875769647378 
0.2118715103752142 
-0.1072505705494164 
-0.005221027273458036 
0.1122826003484748 
0.1485749236487874 
-0.008704605815562608 
0.02575222787741558 
0.1040102370996333 
-0.01906446722678774 
0.0001934075708193722 
-0.1663290756906971 
-0.08361586217115777 
1.000890461066779 
-0.2229186254416305 
-0.04538000512186959 
-0.08335715589033189 
-0.03708889776529709 
0.05325054361749618 
0.01711935016130046 
-0.1481951451266938 
0 
0 
-0.03483904948091655 
0.2571759387431898 
0 
-0.06362107621987821 
0.3171084286572169 
0 
0.05354613345661148 
0.1083352027403536 
0.003121881286801759 
0.005394097615411061 
-0.02742683165878615 
0.09887496598211949 
-0.4636576483728879 
-0.02697611853269784 
-0.008547587445344727 
0.001848478182492599 
0.08555547691352883 
-0.2288369525590989 
0.09479016413999865 
0.1132333258328533 
0 
-0.01276437112500157 
0.653235935441005 
0 
-0.04319808513131507 
-0.01733890020846692 
0.01670520636151283 
0.1178028409389028 
-1.13224329543124 
0 
-0.03187906713406301 
0.09194728735556561 
0 
0.2243687638937746 
0.04101372841724729 
-0.5041803023120579 
0.004770936145561097 
-0.02235667595828594 
0.4178043533644887 
0.07743238319700002 
1.037805462662994 
0 
0.004507619043807101 
0 
0 
0.008316815175896554 
0.0227157325184577 
0.4620009233548558 
0.1232264971224573 
-0.07581457622716858 
0.8050589765880042 
0.1687941887482141 
-0.6016729194319261 
-0.06542676132123393 
-1.257836639223552 
0.1572274079238867 
0 
-0.3352306050658985 
0.01103659650485389 
1.252783646547166 
0.3729345378100638 
0.03443976799504476 
-0.003157418450554231 
0 
-0.7571480645872855 
-0.26931105159304 
0.1311274989323898 
-0.1295552026995021 
0 
0.399091824960371 
0.2683430660899931 
0.1718307379959109 
-0.7103247868163123 
-0.2022989653087586 
0 
0.01877547307333178 
-0.4959932758045365 
-0.03403013480679065 
0.2053541906060038 
0.01185222618482952 
0.1368557402161934 
1.181366118902634 
0.009605169207460294 
0.1454135934056677 
0.3149638959735984 
-0.2452551964202902 
0.007782645898417982 
-0.3964984348688087 
1.471559635659966 
0 
0.06288237337444758 
-0.009255317899929262 
0.06127626056931161 
0.3494577015830862 
0 
-0.227188680909755 
-0.01617886956011411 
0 
0 
0.1727169272356267 
0.1613626016075532 
-0.002054177889512152 
-0.1329413487942094 
0 
-0.2860783251247437 
0.09359494356971548 
-0.4035975644965847 
0.01488385120136573 
-0.1142931600639126 
0.03902179657765255 
-0.1396623181061463 
-0.05800684288294553 
0.0003449056537004594 
0.6036519361759144 
-0.2126734803615962 
-0.1067355188930969 
-0.0008319373211547602 
-0.1085764583179875 
0.1555348009838202 
0.3034440324583121 
-0.06058186465978375 
0.2141017263639527 
0.05961918687454704 
-0.1288275686239809 
0.04339018749087694 
-0.2507794177234746 
-0.1095075480504294 
-0.3879677351844296 
0.02028747034550023 
0.1981384386885401 
0.001163353956044188 
0.006513211987135895 
0.3005107659145171 
0.1822300875265089 
0.1117480438295457 
0.09472461684741372 
-0.1488826926254022 
0.060631138508617 
0 
0.05826674897140584 
-0.02026408596855626 
0.1525835125643704 
-0.1404403174902466 
0.7705860789657468 
0.2077075134678805 
0 
-0.2319668422873978 
-0.1282013724396951 
0.2410292603612297 
-0.02824144257812302 
0 
-0.03863422677741897 
-0.3561740766916462 
0.06498120014686048 
-0.06666489356748941 
0.1112203327294401 
0.02885977555827896 
-0.0578997668896384 
0 
0.007726708566948415 
0.2466918162233135 
0.0889227926533305 
0 
0.01554624319111492 
-1.249907514859818 
0.1703663394155228 
0.1920528323892835 
0 
0.22700800665111 
0.01134867151079995 
-0.809373846317613 
-0.304527422085993 
0.325886484963769 
0.0913774263063141 
-0.07742288411273 
-0.01485312035749681 
0.003871195445080828 
0.04639449006068196 
0.01320774489610542 
-0.7635217261609315 
-0.1822470820137401 
0.0111646608682852 
-0.02992048815988309 
0 
0.03970703903691321 
-0.01275644544878077 
0.03985504979591695 
-0.03004954565828891 
-0.06134716605686585 
0.009944893702622673 
0 
0.09055687941908735 
0.184362785303246 
0.1757354974199096 
0 
0 
0.0128721545664969 
0.04456807149414284 
0 
-0.09783094110898652 
0.05168743606418333 
-0.2561606519449034 
0.5549688791766338 
0.004319654177010168 
-0.002067871542196347 
-0.5940871955470882 
0.6545698312531378 
0.04327849301137304 
0.02526823791332561 
1.06892212998449 
0.02709504919214766 
-0.1988011694423923 
-0.2097163241570981 
-0.4507114488724818 
0 
0.1500972228570328 
-0.2408683991529136 
-0.1185858066668743 
0.03105782102921349 
-0.01193576367723555 
0.02521799433889211 
0 
-0.02508976087285796 
0.02548181610038397 
-0.03397386307313698 
0.04939527250467265 
0 
0.02935623402332981 
-0.07674333111508279 
-0.005959420615237334 
0.00101627393341393 
0.01077638057160663 
-0.08240630058982677 
0 
0.00371227692281617 
-0.00756721468917896 
0 
0.05231471135913168 
-0.4763543564147025 
-0.07244394508498192 
-0.6080816212735671 
0.08672616967589659 
0.0004783061696233867 
0.2904704567993491 
-0.0844828232110806 
0 
0.009293075579860852 
-0.06378139540955372 
0 
0 
0.04670573133054405 
0.208095888702782 
0 
0 
0 
0.060602792515294 
0.04492735613348234 
0.02775153122745434 
-0.02370648949050565 
0 
0.09543548866572425 
0.01195039121820931 
0 
-0.1207160403831581 
0.1042527760352334 
0.06946885383388945 
-0.02467462064221244 
-0.003672821739755282 
-0.02922680446019996 
-0.1043655383899531 
-0.04034043755790886 
-0.3700275507027426 
-0.01315677430886264 
0 
-0.006742577678041001 
0 
0.05945978032390808 
0.0329070369922708 
0.04742556732394847 
0.09031133664947573 
-0.271793317886357 
0 
-0.02993683843276847 
-0.06742643363289785 
0.08833802771383269 
-0.1382449271859508 
-0.1114362811141208 
-0.2300503170394056 
-0.3921154747544904 
0.6903670455530915 
0.7411043376680604 
-0.2208518243421538 
-0.223902647154817 
-0.1093139427043948 
-0.4362563521803415 
-0.01440927648491973 
0 
0.9662369181347333 
0.01675665705520333 
-0.2884394293388249 
0.0941921060207566 
-0.0887916903514001 
0.1028555380238661 
-0.02157173763487881 
0.03047486501344197 
0.1968252092030201 
-0.06286320912227611 
0 
-0.81185153253848 
0.1586879025458411 
0.009207586071740631 
0.0676351121635691 
-0.1097126374126531 
0.314293268185857 
0.02087512966381235 
-0.1757195949139112 
0 
0 
-0.1220730307948021 
0.3240303857182298 
0 
0.01749734988905356 
0.1247222499157924 
-0.3322871714384048 
-0.0458093826013584 
0.1164037218938284 
0.02649122374779926 
0 
-0.05250515558378074 
0.1850621279188284 
0 
-0.04543991886727848 
0 
0 
0 
0.04412067125695096 
0.08864225821591029 
0.01473943046154417 
-0.2839309797794873 
-0.00187215297074061 
0 
-0.1543944035212987 
0.1645580000041558 
0.2076536929395578 
0 
-0.2094841929623258 
0.3932232463377312 
0.3439346393579444 
0.09660872507591717 
-0.0428861702871107 
0.01349598329460533 
0.03911753233092007 
-0.005016019903933857 
0.08173426100438243 
0.2965487054235046 
-0.06831327588611047 
0.003855462881410313 
0.1839180806975595 
-0.002370452289540523 
0.003516026097480565 
0.005908135931780171 
0 
0.02298133814463116 
0 
0 
-0.003605609169943021 
-0.08566393386218032 
0.04865883111217052 
0.005114817675212297 
0.1399054689461678 
-0.692039757649602 
0.6619622072323715 
0.01410418436428851 
0.4634952218931572 
0 
-0.0194035364325647 
0 
-0.05306190843154189 
0.02210620432526057 
-0.01337280061912681 
-0.4025759276079741 
0.08695917454118982 
-0.1832831548033793 
0.1928059631770462 
0.07573692665563876 
-0.02534451853836743 
0.08613723926464333 
-0.04296025371314742 
0.3349389886094642 
-0.3851940732032007 
-0.0728227124882405 
-0.1545511023318736 
0.03506913384701715 
0 
0 
0.1849729597856239 
-0.02083553392637666 
0 
0.05680514840304292 
0.003490374260705551 
0.003931801635379467 
0.4675995955724794 
0.8872727008601564 
-0.07743543717062454 
0.02859850926367672 
-0.002188248932000396 
0.1023282559706928 
-0.1859427655411331 
-0.3001053454347087 
0.1641399890372228 
-0.5045469463991404 
0.06568523389614718 
0.7671684488378102 
0.6000467933904303 
-0.01449477380698989 
0.1371330638728723 
-0.01034002653628452 
0.04034621004918381 
0.1032434009405623 
0.1410140454036505 
0.01223097759269773 
-0.2834949283449016 
0 
0 
0 
0 
-0.03111594006214665 
-0.1325746543246024 
-0.1859462568196952 
0 
0.03657279548477962 
0 
0.0360975684874394 
0.01714624341033371 
-0.1845391067372514 
-0.01454669933254402 
-0.00765280044657797 
-0.03653149387621194 
0 
-0.05188676211249069 
-0.1194169365943672 
0 
-0.1172817027225012 
0 
0.006429023703021473 
0.0020339939241577 
0.1148660231480589 
0 
0.3646257151329654 
-0.008018131741319996 
-0.01240610147891592 
-0.02750049487002439 
0 
0 
0.05643383328882543 
-0.01328676748258664 
-0.08108202423629027 
-0.006379142559166196 
0.07824016198517364 
0.1096193717126605 
-0.2672398179527179 
-0.2083291462896805 
0.09111353961900799 
-0.05542672916259002 
-0.211328414588266 
0.001470488304820952 
-0.5620030212590248 
0.002913744727273514 
0.1148935204911692 
0.3052536394579098 
-0.1346122946139004 
0 
-0.01151362980541642 
-0.2722812634909373 
-0.4754098562991976 
0 
0.05108659320852459 
0.004077241103994999 
-0.05898300628187573 
0.1693906690487703 
0.0232851917758458 
-0.01126403291860108 
0.04573104276555035 
-0.7148978218073159 
0.007173937226409396 
-0.2559045338947957 
0.03519808638926648 
-0.007288116454430748 
-0.02183454312477067 
-0.362929547622919 
0.244095631944204 
0.2614118520276366 
-0.08431972214523875 
-0.0239285598888581 
0 
-0.1723314096711072 
-0.1882352891265597 
0.1299501564550544 
-0.03491934271567326 
0.04226281918722059 
-0.2157083379584584 
0 
-0.09804070214955837 
0.005161975964372157 
0 
-0.1180426260183359 
0.04629916873296366 
-1.034744752429562 
-0.009934473811577194 
0.004534020346695607 
0 
-0.02097521999321024 
0.06879265314738081 
0.03824542915187015 
-0.07788649943013397 
0.1102872393344867 
0 
0.729712486318343 
-0.01214703176472071 
-0.06793474677864193 
0 
-0.0002066619203919528 
0.595370230636398 
0.1556503854884413 
0 
0.1540654479088821 
-0.09490467924549505 
0 
0.01801402047956355 
0.06841871546580916 
0.01997504068073502 
-0.0005421153009481634 
-0.07563145897341568 
0.07227133625698255 
0.1376652975008689 
0.3140646476537985 
-0.0266479068302015 
0 
-0.2602575316509753 
0 
0.06372221705479741 
0.01864123446715916 
0 
0 
-0.1872640285099668 
0 
0.1165584200122507 
-0.009524184339380537 
0 
0 
0.002478217303220504 
-0.5647180379297211 
-0.0001003649288921278 
-0.2064420036452771 
0.1955283998916125 
-0.03484346915190992 
0.1803858392797831 
-0.02850742827439059 
0.002482424189598045 
-0.04565026250932765 
0 
0 
-0.5029416436953358 
0 
0.004512874625599538 
2.281370101721851e-05 
0.1744250996272028 
0 
0.01675375542248673 
-0.06892541940969056 
0.1050832628474865 
-0.002438939017851613 
0.02139139240676029 
-0.1627770159380522 
0.003032880082703178 
0.08768812450316152 
0 
0.1029936111375366 
0 
0.3295516683398641 
0.2254582272499865 
0.09817659269436867 
-0.00959966476163013 
0.07908527385525156 
0.03487984562588028 
0 
0.05799244024298845 
0 
0.1066321614599383 
0.06814529614322869 
0 
-0.01629816890073885 
0 
0.2478862832053467 
-0.04026491000360597 
0 
-0.2614145833539156 
-0.03797201126298051 
0.01724910237358208 
0 
0 
1.171396481295113 
0.1052336323985442 
0.01388853290204609 
-0.0076773548039655 
0.02743190630083535 
-0.0362985730248358 
-0.1663191914947619 
-0.01341813870715421 
-8.809201749440051e-05 
0.8450639764974458 
0 
-0.08177283926547392 
0.03677543656220934 
0.04615049915336864 
0.8594043413052113 
0.03443404733264995 
0.1758979484776724 
0 
-0.0271581053268578 
0 
0.02412171025742303 
-0.2344758641966648 
0.06999486729297554 
-0.04457057649426506 
-0.005956110784719107 
-0.07175565722795708 
0 
0.01757069361744059 
0 
0 
-0.001288590461624036 
0.3877569503111517 
0 
0 
-0.9454843282535453 
0.2432840347892885 
0.002938457680735891 
0.02240960275640601 
-0.3058325578020725 
-0.03412545521651714 
0.01854912967620753 
-0.002452720173354326 
-0.09619110521696457 
0 
-0.0117355340000795 
-0.1465949418587046 
0.3289655762685411 
0.217231206810177 
0.0294989644295736 
-0.2705848460571766 
0.1075021475059124 
0.1298315222331132 
0 
-0.1287971508829851 
0.3358809037075376 
-0.06593905849229471 
0.2589236258326525 
-0.05078397963806504 
0.1285942166849453 
0 
1.023494711035229 
0.6789602039946058 
0 
0 
-0.01381413515231748 
0 
-0.001617672354911202 
0.07278402121864894 
0.009184181840207632 
-0.07935550619615855 
-0.2960082285956011 
-0.03948026541530462 
0 
0.04566803161038245 
-0.01684790184209166 
1.044477398805261 
0.186628770184592 
-0.1209286463348362 
0.006386915479840176 
0 
-0.6073528614027593 
0.06012094917849212 
0.1500334020409188 
-0.01128558027225157 
0 
0.1133464457797528 
0.1017132492044533 
-0.02289403352228763 
-0.001254194742466987 
0 
0 
-0.1803458115811845 
-0.04241801689379635 
-0.04192460220713565 
0.08570030167586129 
-0.05292764918639281 
0 
0 
0.06274157271790692 
0 
0.3357121621827879 
-0.001205528697048372 
0.003673134031560649 
0 
0 
-0.1126858782056817 
0.002004433741654923 
0.1226790659796645 
0 
-0.443997588824813 
-0.0144722275552994 
0 
0.0594441264671865 
0.006783292111569309 
0 
0.007810236985342747 
-0.03104229295683789 
0.008805360673146507 
0.1820524977354641 
-0.3204966259573008 
0.9695515153581964 
0.07396393440053585 
-0.0004988215221784047 
0.004191130043598106 
-0.04168937590419647 
0.09104744676423129 
0 
0 
0.114743613448899 
0.3801280522436529 
-0.0542759858017894 
0.006704655488496746 
-0.1228219478815198 
0.03384497749730847 
-0.2550044198056312 
0.2927044760195137 
-0.158042363102551 
0.1119093866548039 
1.076818294801668 
0 
-0.05425780396141162 
0.03166347652226784 
-0.03284849719528131 
0 
0 
0 
0.003757461352285853 
-0.03465358964623642 
0.1058844723033432 
0.08165259097325289 
-0.0529363035070768 
0.01881062687398528 
-0.01077243376223671 
0 
-0.00468974029620505 
-0.005417968608105726 
-0.6204398555745453 
0 
0 
-0.003121478492604708 
0 
0.03831212616794403 
0.01398711535176608 
0 
0 
0.05496612616731091 
0 
0 
-0.120878500270057 
-0.0163958920201954 
1.19244074269084 
-0.2474402727507771 
0.1077885377316486 
0 
-0.01168943612909368 
0.04619073540303106 
-0.007235207517610943 
0.05368234222495284 
0.1152897865453916 
-0.1910241448973365 
-0.07334039487267049 
0.03685350404032119 
0.1309749548544461 
0.3602762363846614 
0.05514341746067843 
0.1875703629318023 
0.275259451558231 
0 
0.3113760604111955 
-0.002838216547919103 
-0.1889832650504656 
-0.002365280620729448 
0 
-0.03131384476791391 
0.1837151378205583 
0.260856879579808 
-0.3132440166596921 
0.23532556915668 
0 
0 
-0.3191752576934951 
0 
-0.001869086415490403 
-0.5390391818968918 
-0.02177856413361622 
-0.2032470456535654 
0.1721742191676834 
-0.03803218235887748 
-0.01188942242735035 
0.009445904835982743 
-0.1115661775613232 
0 
-0.3875699197731816 
0.03326971982908863 
0 
0.09755719478725074 
0 
0 
0 
0 
-0.01012913137615385 
0.1852767111276478 
0 
0.02334339870699692 
0 
-0.8130702222233224 
0 
0.03384964302642889 
0.0001923251738732931 
0 
-0.2565329090950413 
0.02535524007744892 
0 
0.2016871577952313 
0 
-0.5167438936524179 
0.003529569883393533 
-0.05207355309949002 
0 
0.009780627739139503 
-0.01019267221670818 
0 
-0.09759824096651079 
-0.01955888712584537 
-0.6038685483083772 
0.04187576698917142 
-0.01118235849561705 
0.001672255493944725 
0.003370602640632893 
-0.02538848173655958 
0 
-0.04433560899392275 
-0.6354697346393366 
-0.03229349370731922 
0.06627422516906757 
-0.01802828973225537 
0 
-0.03367589569670629 
-0.01191400144951119 
0.02933882410377914 
0.08882922026584508 
0.1152392711801558 
0.1235633355892873 
0 
-0.1042733638383561 
-0.03173937201929595 
0.06329922090245367 
0 
0.2593463539489551 
-0.0001880802502208298 
0.01546932915206523 
-0.04454406515340821 
0.08047261691815577 
0.008362487905234146 
0.1975892508785592 
0.003333887215990269 
0 
0.009889044506160995 
-0.3443539897678581 
0 
-0.09974716568373751 
-0.3573335864693299 
0.01513492774820707 
0.01520530064015831 
0 
0 
-0.06620125627630484 
0.497518334104048 
0.002215998146086808 
0.3728868746366588 
0.07739306147361234 
-0.0110763579439691 
-0.03372042097558048 
0 
-0.09824369070198681 
0 
0 
0.2779533641218149 
-0.1820776270685947 
0 
0.0001419731508345544 
-0.02049552785837259 
-0.005672184624473295 
0.1310035575521053 
0.08234951401930368 
-0.3381051251343278 
0 
-0.591814883747265 
0.04740788271115566 
0.00119451901328195 
0 
0 
0.01342260937838095 
0.6381082501673085 
-0.1111563243929941 
-0.1719858678171973 
0.04975088203869769 
-0.0005028547753471577 
0.05848877169518134 
0.2693392996669598 
-0.009416927140390873 
0.3363904926463435 
0.09256798148524195 
0 
-0.0158676031449545 
0 
0.1962361131979226 
-0.0009033157443434921 
0.09730828588439501 
0.03175569043478061 
-1.102582817275985 
-0.04397328846284939 
0.04106236293510056 
-0.007222297935138213 
-0.004707595393382519 
0 
0.01156293328363326 
0.0130515791143199 
0 
-0.124814295314602 
0 
0.02293818147704499 
0.02944742224832405 
0.4960423122705315 
-0.02486329456075219 
0.08954810939034245 
0.03017273526236876 
0.07479004970564676 
0.07347798838078543 
-0.09529016601348959 
-0.1110495240050497 
-0.1100764217204593 
-0.1048009011703467 
-0.2324977160093985 
0.0106713557305169 
0 
0.004112612948032568 
-0.007504959549426729 
0 
0 
-0.1644127463225681 
0.04996744937157158 
-0.02460156809219118 
-0.712385171337125 
0.4347678038829963 
-0.5197492505393125 
0.2128720679492544 
0.008271305393469108 
-0.05656775508133342 
0 
-0.1322606873433371 
-0.008997886414248637 
0 
-0.02750953398390647 
0.0248404935453074 
-0.0005792368411972787 
0.00438698581316153 
0.9711389233089951 
0.09766642135051889 
-0.0483962250271022 
0.08232925981622505 
-0.0185563614097017 
-0.3251836172735152 
-0.02155081109053355 
0 
0.03851533524111847 
-0.003770744106422757 
-0.04034233474342872 
-0.01948814981060087 
-0.04236037951830849 
0.1265371847647942 
-0.004686104308111422 
0 
0.5257086208351852 
0.1836763241218241 
0.01804049463568302 
-0.1469955304085099 
-0.1636320444003092 
-0.05042526412620143 
0 
-1.240696380164536 
0.0302637085814754 
0.2301958025426377 
0.1107219216674392 
0 
0.1069835090179266 
0.03596258586594119 
0 
-0.04447232485191586 
-0.1157226752997687 
-0.01588849962099023 
0.07580759856152779 
0.008393011918164075 
0.02142876823909075 
-0.07261763089398732 
-0.0003386726970321209 
0.0785312551728929 
0.3904102913366757 
0.02177246551096557 
0 
-0.2807202722722169 
-0.1978127678172928 
0 
0.04492781436048736 
0.3275190501117834 
0 
0.0145492139709768 
-0.02304356700003945 
-0.02400917698109597 
0.1683677946151387 
0.06057813306723937 
1.40110509461916 
0.009790285243429096 
-0.1794684912311939 
-0.003714409969228225 
0.4902342164716207 
0 
0.0132910170778763 
0.3297236816181933 
-0.01965387435380449 
0.1523618799721515 
-0.2396004516458059 
0.01963055302865575 
-0.9957229485129427 
0 
0.2212321646088398 
0.01017906308562176 
0.01129336865212092 
-0.0112525130521061 
-0.05239658851894653 
0.003855705294338548 
-0.2326848514129891 
0.05785247636635259 
0.05492374765045757 
0 
-0.4918106635844659 
-0.01620530060783126 
-0.1823862268151884 
-0.03999495980868416 
0.007106728419369797 
-0.01727235727373095 
0.03021313165847467 
0 
-0.009283107030798092 
0.1361478731789014 
0.2544592042226191 
-0.2405807479555657 
0.4425381977841019 
0.5044064996128874 
0 
0 
0 
0 
0 
0.3995696798254629 
-0.2629244637028183 
0.1420121788126151 
0.008479024954822474 
0.05888944014801234 
-0.01722265687134 
0.008957876819392028 
0.03401836300723225 
0.3846241421231519 
-0.01246912960689641 
0.09464419160926488 
-0.526498836573282 
-0.00602713512670917 
-0.5791621245232362 
-0.00815372253975263 
0.01373869044785599 
0.9886974066619589 
0.2420478761129052 
0 
0.004710967528870389 
-0.3017416533883079 
-0.004504247001216577 
0 
0 
-0.001334417090795362 
0.2440407925665338 
0 
0 
0.08310496028576327 
0.04269142855050248 
0.3375408233603034 
0.3326964502696292 
-0.05484742906150013 
0 
-0.005922213437666857 
-0.01787588457016187 
-0.01885742085461911 
0.03459429951658724 
0 
0 
0.04279141748811258 
-0.02969269297369288 
-0.009246336081423895 
-0.2953332680482252 
0 
0 
0.1155647767194661 
0.02003804128942418 
0 
0 
0.06488028744702301 
-0.4892585524195923 
0 
-0.0555123408371494 
0 
0 
0.04891720771895801 
-0.2079422995117785 
0.4392985263972746 
0.09950381382901337 
0.001373740452941573 
0.05018329661385058 
0 
0 
0.2413439108041492 
0 
-0.1123995793399217 
-0.03806543110098411 
0.02970919333858866 
-0.006706272011004715 
0 
-0.1337931968214786 
0.2960465733990618 
0 
-0.003945969186475396 
0 
0 
0.07683962212751823 
0.2684816208435852 
0.05052997988761274 
0.00561657490685967 
-0.0360477068371286 
0.305159406379765 
-0.1329252665211888 
0 
0.1589060348324245 
-0.2945932997634241 
0 
0.06663722150701804 
0.03491538181692314 
0.01168972257452379 
0.003831737839212729 
-0.1448749478487886 
-0.0486429186429371 
0 
0.007671095165707279 
0 
0.05002047451784519 
0.06157794611520508 
0.04419689940466617 
-0.09999014606649925 
0 
-0.004701108084065568 
0.1835794061646344 
0.07059874519526506 
-0.03711283100639218 
-0.1126394382630911 
0.04828494002655837 
0.07160381582374506 
-0.130117076322567 
0 
0 
-0.2142650673449443 
0 
-0.1121025712404403 
-0.06989580406978106 
0.04132110554429899 
0.07821074473024002 
0.0151023312691964 
0.05038309807882765 
0 
0 
0.05806261294544075 
-0.003392902849261566 
-0.03531770170121218 
0.05563819888675432 
0.01472492333802648 
-0.1700234159642489 
0.01392828703279816 
0.1913294418618361 
-0.1903830519548049 
-0.0005316080506040186 
0.06677060249247144 
0.1766963186923474 
-0.004165188165551545 
0.01055706222904657 
-0.02878399453084853 
-0.03416591494527571 
0 
-0.03265433383798823 
0 
-0.1140666616918613 
-0.07700279153166473 
-0.2367723030167175 
-0.02450536913216302 
0.2323642557625031 
-0.005330412452457381 
0.02924017122820719 
0 
0 
-0.02016219463156928 
0 
0.03982356609627818 
2.07427921743482 
0.0880313811448836 
0 
0.4154652299143894 
0.0186150628470719 
0 
0.01532286923997148 
0.08770619650432845 
-0.02131289038186596 
0 
0 
-0.03301817121572706 
-0.04214728550569252 
0.2609187257076743 
-0.07611713295550313 
0.04668121410764417 
0 
0.1550051751038006 
0.91106989876186 
-0.2306255017077218 
-0.1047349775283928 
0 
-0.06819239553327507 
-0.05726620079273181 
-0.02146457503137583 
0 
0.3103547674139219 
0 
-0.01392621325897267 
-0.009514982702151759 
-0.05476017415391612 
0.5933448960200101 
-0.0697798351640197 
-0.01828074978835631 
0 
-0.04636968109757054 
0 
0 
0.05129230012377457 
0.1419373086483413 
-0.2950796688707195 
0.02760864155955998 
0.09720700050024629 
-0.01541867573871993 
-0.05188441633644891 
-0.02362079580489085 
0.006513136024394453 
1.143775070518624 
0 
0.02397904905003459 
0.1240184633954384 
0.2141607499241382 
0 
0 
0.02908141985178261 
0 
0 
-0.1553512652101686 
-0.09616375181101167 
0.6104133854572635 
0.001221935139091577 
-0.02182063072256285 
-0.3827196241742895 
-0.01050741373366298 
0.02580534434642033 
0.7200720002121906 
0.4109296566872567 
0.2821088091087556 
-0.007901253350254859 
-0.02096928272918241 
0.4641279654331049 
0.01405291696879468 
0 
0 
0 
-0.005607789119332057 
0.10708958713686 
0.03158656356922484 
0.003662719360888208 
0.004026913324347461 
0.02939147694461611 
-0.2001163918042347 
0 
-0.0785369315804083 
0 
0.01397731825635747 
0 
0 
0.1374308346039559 
0.03393500496853265 
0.1479310765215424 
0.2316464981319526 
0.1243437283926699 
-0.009870103339653196 
-0.03873498887574366 
0.172528886321136 
0.08228574356093865 
0.005907147851159415 
0.04046499160596454 
-0.08267979450986915 
0 
0.001948760799403378 
0.09714707903292256 
0.2016661864172938 
0 
-0.2021792986346637 
0 
0.002349304925468328 
0 
-0.3122950322655097 
-0.1145782966014185 
0.04136094966675528 
0 
0.008079713257860457 
0.01959411425959366 
0 
0.18519744829435 
-0.01192254142271728 
0 
-0.006059650736571407 
0.0280774474290644 
0.01735594701516008 
0.04308064756695937 
0 
-0.002689907990722053 
-0.07772499756640612 
-0.02043447414329073 
0 
0 
0 
0.1148560647410755 
0.01484045091099468 
-0.00339226304577063 
0.1156105179777069 
0.2109818037079475 
-0.03683806088032147 
0 
-0.01018681272175867 
0.1176589057140298 
0.05492974737966264 
-0.1191490863752464 
0.1595864402377307 
-0.05095976390786711 
0.02206775299388815 
0.02290208760969709 
0.036539791142402 
0.02186306127367473 
-0.02498678696585068 
0 
0 
0 
-0.02273359623276363 
0.4494824316202783 
0.1771000359422528 
-0.07261269781239126 
-0.1641525439539931 
-0.3302146605473842 
-2.373816739157454e-05 
0 
-0.02743281915708194 
0.1230509071235481 
-0.007034157801712388 
0 
0 
0 
0.05711574656963946 
-0.04471839886122812 
0.0251455584016099 
-0.08137489185607599 
0.002327491744329054 
0.02134697983249845 
0.1139929036764309 
-0.02065096807882419 
0.4081934410930266 
-0.2301401000757727 
0 
0 
0.03081436754259362 
-0.001380981027498947 
-0.2057964265654329 
-0.3835996643739285 
0.1208445654125989 
-0.1355219715644602 
0 
-0.2961716237314679 
-0.001285306435593625 
0.004617769280837884 
0.01563846541768752 
-0.5446712636215716 
0 
-1.134129195925465 
0.4509235968255679 
-0.05132636764351309 
-0.004498136173993521 
-0.6734516767597903 
0.1120852624831334 
0.1613389955772833 
0 
-0.02498360410750526 
-0.02585231345082397 
0 
-0.2098300430944635 
-0.08994132667014398 
0.7019881259053729 
0.006554719032868663 
0.04086004758278529 
-0.06937457800280758 
0 
0 
-0.02390635965087649 
0.02170405721269992 
-0.04718353963237339 
0.3998401999022768 
0.07634091083284296 
-0.1533881579205251 
0.03082645852111863 
0.1794508712043746 
0.008037328571671738 
-0.008591231942620691 
-0.01368803716374098 
1.267906711555382 
1.526304677166484 
-0.007729674737284434 
-0.07142044556406874 
0.7308155474195074 
0.09880253951190809 
0.1434330178357513 
0.1265338071501034 
-0.1927918863385315 
0 
0.1324404920809779 
-0.03866342668939667 
-0.04395410801255963 
-0.2102884882857557 
0 
0 
0.04202271717088442 
0.008279540457482883 
0.0178961098385436 
0.01896893040756829 
-0.006055736440676302 
0 
1.442207591629454 
-0.1829279917993287 
0 
0.02687165856885238 
0 
0.1594821378218606 
0.01643228983705578 
0 
0 
0 
0.007089500097526756 
-0.623301001917107 
0 
-0.050538348700566 
-0.00170736954883758 
-0.01017762194328662 
-0.06481516104631954 
0 
-0.03226063243783521 
-0.1059687869619965 
0 
0.002438800259947237 
0 
0.03020746838306651 
-0.01229434407898756 
0 
0 
0 
0.0262220256953495 
0.4582932118938207 
0.003741796326049786 
-0.7144571578641883 
0 
0.149216272975878 
-0.0002829143787578795 
0.1937839747006292 
-0.1671907993961602 
0.3146989436916689 
0.04635194153010874 
0 
0.01299638929070668 
0.06149536696261827 
0 
0.08397791926366414 
0 
0 
-0.4752695309558919 
-0.1425401346470803 
-0.1289024875289658 
-0.0128972418413537 
-0.1334861350377606 
-0.2123544335996471 
-0.04364256703748381 
-0.1464460305672003 
0.1220185456297785 
0.07792335087591844 
-0.06060339913291738 
-0.03005934163137119 
0 
0.1245181781662509 
-0.007547693947073253 
0 
-0.04184102908072763 
0.003283606836284841 
0 
-0.1315176091705842 
0 
0 
0.4083185845731462 
0.05060119784826732 
-0.03778387701826251 
0.5838113311640194 
0 
0 
-0.009994270658657572 
0 
0.08554273699632498 
0 
0 
-0.01358602905785352 
-0.05204051715748315 
-0.05114705451231476 
0.2844640536022133 
-0.2068647816792071 
0.11755556589499 
-0.02898397019599847 
-0.3378889170532085 
0.02089447598151119 
0.02877410319779168 
0 
0 
0.002539149330455484 
0 
0.1813778933314717 
0.007391560336275646 
0 
0 
0 
0 
0.2014987496389338 
-0.02423658837639818 
0 
0 
-0.0565850889477683 
0 
-0.00067994347108612 
-0.005235149354007411 
-0.4292848472840864 
-0.1466242469258028 
0.4480783101253049 
-0.2265405476940539 
0.0144277395864492 
0.01589040962478355 
0.6015698792192588 
0 
0 
0 
0.4238552848133317 
0.05063441157229034 
0.06157154887900512 
0.1065960219068048 
0 
0.1717435668101544 
0.02365976443114656 
0 
0.004384290685249309 
-0.03408018210085657 
0.1256860601038719 
-0.140280059738345 
0.01672327284111977 
0.003722452601596642 
0.1749128318749459 
-0.02718089857454616 
-0.07187962686903429 
0 
-0.08049666877663283 
0 
-0.4443696840108209 
0.004591547878973265 
0.145344932753196 
0 
0 
0 
0 
0 
-0.0310851078511684 
0.05568331879763557 
0.5663797706504666 
0.08442548752494701 
-0.002239746669797676 
0.5497876972628358 
0.02388822936912302 
0.02347775577072864 
0.1421766761718352 
-0.04596286672619064 
0.005609701640337026 
0.00250180393055983 
-0.01061070448039944 
-0.04928878875641521 
-0.0716160430153828 
0.05953413356369552 
-0.2051841280275346 
-0.02404089707048234 
0.3313162250038985 
-0.07430753200457194 
-0.09128379666240234 
-0.002811620616768449 
0 
-0.3028260673741411 
0.03600102550182906 
-0.001716678501057042 
0 
0.05537066125213889 
-0.02157717828213599 
0 
-0.02005533441275233 
0.04244512190139985 
-0.01262496117056665 
0 
0 
-0.4352579373987383 
0 
0.04708074065733582 
0 
-0.02136355244885332 
-0.1731042609446377 
0.04552698822215845 
0.04997058929504903 
0.09587199906594382 
-0.02975553050480367 
-0.03537216478915044 
-0.06238130187543919 
0.09972853060320327 
-0.04979850644620875 
0.06965486442384544 
0.1176199182618033 
0 
0 
0 
-0.3681782072747364 
-0.01972144114596991 
-0.01752627720686849 
-0.01906619586595312 
0 
0.1048842243028363 
-0.1537912715645561 
-0.03290264137412839 
0 
0.2299171035669439 
0.04594175359691918 
-0.07776580215300881 
0 
0 
0 
0.3930811353006173 
-0.07287653335449028 
0.1872671547777967 
0.006681163333628036 
0 
0.0423882269453819 
-0.01363910836500419 
0.9028466901065961 
0.07483454164718487 
0.5915165473925429 
0 
0 
0 
0.2339392885107452 
-0.003760253703891774 
0.02075825060847074 
0 
0.05566158527165962 
0 
0 
0 
0 
0 
0 
0.2670127744698202 
0.4575205360873393 
-0.05295774289145769 
-0.03633358335064443 
0 
0 
0 
-0.02629128293065987 
-0.008580835738553288 
-0.02601938038287758 
0.2455035311573814 
0 
-0.03784402620670541 
-0.1229225999822016 
0.3036205151971475 
-0.07047859972825447 
0 
0.03055054396787314 
0 
-0.002383384744735411 
0.07677661053455068 
-0.003703287044172734 
0 
0.003048828649786968 
0.08987024720852251 
-0.228416899355365 
0.3352253976444738 
0.005689089578253344 
0 
0 
0.008857921592643266 
0.3153750367368064 
-0.04885348539933304 
-0.002818672799530466 
0.003207402262501466 
0.2459936422473671 
-0.001051458876787348 
-0.1396090006688276 
0 
-0.09255118008523094 
1.315252144791481 
-0.2480779326815039 
0.001096353460423832 
0.008228320943524724 
-0.001261739698269931 
0 
-0.4781043041858878 
0 
0.09422557171084908 
0.0005395981540070733 
0 
0.004684460212932911 
0.02945866602361429 
0.03676129557352933 
-0.009974129706656435 
-0.001216156264159271 
0.01553975969520211 
0 
-0.7863018182283682 
0.06623372766966036 
-0.006507540463490704 
-0.1019573753641237 
0.05281148634872847 
-0.1554302356734064 
0.006214220791862805 
0.04141368742910011 
0.00514049778728826 
-0.1073766688779186 
-0.2113125539986194 
0.03151298157967822 
-0.00478807979377257 
-0.1630561169560781 
0.1070320589563576 
-0.003756271342286243 
0.04797409773792455 
-0.00709328134855024 
-0.08294840131785891 
0.05324105067115931 
0 
0 
-0.103917475537886 
0.004816044789080058 
0 
0.004059750135758072 
0.02758730321429379 
0.4842390700629606 
0 
0 
0 
-0.07749258009825928 
0.03902073618152473 
-0.07621375203968404 
-0.01663580065454052 
0 
-0.6515924535781725 
-0.02850961449798882 
-0.05712078613180678 
-0.2081167160114223 
0.005298974374311179 
0.1137508285356073 
0 
0.03861692697375377 
-0.02909435827941523 
0 
0.280815878114514 
0.1497219093484741 
0.04938872886995741 
0 
0 
0.1947430837365005 
-0.01687781545442343 
0.0003886083409846043 
0 
1.045191124206641 
-0.03343580373554778 
0 
-0.008558598400240324 
-0.04203032086581202 
0 
0.1925641951732406 
0 
0 
0.002794004441892367 
0.003213611411428827 
0.201934086749526 
0.04575841831561842 
-0.04177157677375435 
-0.8202846743163771 
0 
-0.1754715322267975 
0.0508380416329058 
0.04999282597350098 
-0.02348777809384925 
-0.09241480192612359 
-0.09153820690908759 
0.03294966985210947 
0 
0.009309815296105521 
0.01229708713894402 
0.02321694137876248 
-0.213292986047902 
-0.1264168466179058 
-0.01261609504825156 
0.02872713114834189 
0.003220241034678795 
0 
0.06801765645706581 
-0.01939039870291367 
-0.04548595621465617 
-0.02495184567742915 
0 
0 
-0.02218080773155645 
0.09970700906452164 
0 
0.02051834339327968 
8.487580171635337e-05 
0 
0 
0 
-0.01628761603976937 
0.1390222190391747 
1.26294136473815 
0.05642815143388759 
0.01235058591761495 
-0.01333508916054826 
0.01383576667069398 
0.1771684875181201 
0.1036643259789398 
0 
-0.4346788824749659 
0 
0 
0.05216962509015634 
0.02484588459009708 
0.009990028073520923 
0.01199525690599534 
0 
0.01522696212963618 
0.4133355849766706 
-0.01118977718575184 
0.04893570469785599 
0.02707014564093248 
-0.1149902227472158 
0 
-0.206423539255271 
-0.007565066989658599 
0.5193691399225201 
-0.0102726062288751 
0.0304256705676112 
0 
0.003019668323182251 
-0.04246588058277501 
0 
-0.07541256213437758 
0.0419534902402301 
0 
0.475843454146216 
0 
0 
0.1723579363116504 
-0.02959163455775099 
0.02594061904425247 
0 
0.001764193116366987 
-0.01211466343863778 
-0.1286656627493497 
0.3869538829495199 
0.007256076876244135 
-0.00447922331676935 
-0.003169724114742948 
-0.01628916611065151 
0.001785188727187662 
0 
0 
-0.236016733208552 
-0.2213221118823803 
-0.0206459690231882 
0.008189901502541369 
-0.07436729016189429 
-0.001495140766109408 
0 
0 
-0.01429983758827597 
0.0006050693733233269 
-0.02442871404041774 
0.009477264951225764 
0.08149446110703065 
0.250419848100872 
-0.05869809124348536 
0 
-0.004660795030812982 
0 
0 
0.07644502204311659 
0.2591230291485022 
0 
-0.02711461397201327 
-0.01110807722307714 
0 
-0.1454465671150849 
0.1274181403644033 
-0.0065138571501244 
0 
0.08001344318611162 
0 
-0.01234309812986484 
0.01185279900339564 
-0.0554015072487774 
0.1217716011443365 
-0.07872190505688337 
-0.3050026088053078 
-0.1192918850343378 
-0.004736951604495508 
-0.1070764525746077 
0 
0.03467256270723788 
0 
0 
0 
0.05101526423900377 
0.1007193962060963 
0 
0.06694228658998243 
-0.02410241252463859 
-0.07979593747621244 
0.09560107169398847 
-0.09209273209279129 
0 
0.04236163597580123 
-0.0312847919891318 
0.03803859172405715 
-0.03866758690606396 
0 
0 
0 
0.1164459552598935 
0.1721605743769888 
-0.003940761168182369 
-0.3928664964921064 
-0.07372586662405685 
0 
0.0007433019891559587 
0.1080337103444867 
0.1269805117271249 
0.008017784194572379 
-0.03805172745832129 
0.1287949984045039 
-0.08972756905668849 
0.7910752265922555 
-0.004147847643255148 
0 
0.1728746459934925 
0.2620099241033481 
0 
0 
-0.02667111100063962 
-0.3956510432878321 
0 
-0.2619648232438582 
0 
0.009287196852022058 
0 
-0.005704729337234787 
0 
0 
-0.0006064554783429728 
0.09365156135770354 
0.006971250266199958 
0 
0.102053796510334 
0 
0.1844556468656104 
0 
0.3781380853285291 
0.01576651091383225 
0.001719224992775034 
0.2076471164979343 
-0.1618126352511229 
-0.4917444006719137 
0 
-0.01167327395321884 
0.05892074223329194 
0 
-0.06659540845817352 
-0.03638096039233021 
0 
-0.0428390285098763 
-0.05659808239626416 
0 
0.4577513589084485 
0 
0 
0 
-0.03329301687687933 
0 
0.01821155899545504 
0.02134022535271901 
-0.007186351743013318 
-0.004205323077704817 
0.5834416360102656 
-0.09872073136620672 
0 
0.3569101776780854 
0 
0.2365691449685269 
0.08174037244641512 
0.2999140194818964 
0 
0.0007041786766600194 
0.02910868056861493 
0.01349514753539722 
0 
-0.141325752784891 
-0.1162221735429385 
-0.2844444044983165 
-0.007097475067118377 
0 
-0.7023531998901429 
0 
-0.0008872276341071652 
0.05499017972231243 
0.06492886843397917 
0.1925016663429891 
0 
-0.9327507791474587 
-0.05699197383131729 
-0.1703184358804725 
0.06632425325508762 
0 
0.02338656426119275 
0.07294925120069662 
0.1915657229928052 
-0.01794153778730165 
0.2441713901065504 
0 
0 
0.01221023016689893 
-0.1893613538753542 
-0.01587231051773739 
0.07014453467122551 
0.1464015825289262 
-0.09394789546540239 
0.04543663781457834 
-0.009673981970113323 
0 
-0.1234131226228829 
0.2885446413212019 
0.139265472929103 
0.1712578566873104 
-0.009742344590382734 
0.1299973386299825 
0 
-0.1545433962906557 
-0.004200491095780043 
0 
0.02036519616206656 
-0.02091400153917475 
0.04046857495387925 
-0.470596521000784 
0 
0.05589736690110542 
0 
0.04180553599915215 
0.5360141802931413 
0 
-0.08712643453932668 
-0.01681688346005003 
-0.02078921128332158 
-0.005105327567034385 
-0.0162916979349111 
0 
0.003089723658587347 
0.03449407998763195 
-0.05674306468389959 
0 
0.05037481821750971 
0.02621927398038224 
0 
0 
0 
-0.08889280183802099 
0 
-0.02017813854385387 
-0.006826029281951593 
1.076589457256695 
0 
0 
-0.1081784825145316 
0 
0 
-0.05369017822219634 
-0.07837392351541525 
0.2305259012250175 
0.00112170119759791 
0 
0 
0.02032180910279494 
0 
0.03516364443906397 
0.08273666844015802 
0.01606538218423986 
0 
-0.04918684289249266 
-0.1489095297301425 
0.0220160881292558 
-0.003813290121120938 
0.1038399734000527 
0.01852205702334948 
0 
0 
-0.004380012910900149 
0.01223436233550565 
-0.01686679707398231 
0.01376354895628943 
-0.1044793080226965 
0.4068511306523173 
0 
0.2105953290985024 
-0.007899974305751387 
0.4896222464957754 
-0.2969599145497278 
-0.0003403536469098313 
0 
-0.01539387863214406 
0.09049533607681802 
0.1250351156522631 
0 
0.8659831679218004 
0 
-0.03996052248617966 
-0.02681156499223945 
-0.0459212013751895 
0.04709728034412339 
0.03016299654835182 
-0.02080488854309221 
0.02234556914199101 
0 
-0.0009203622626984014 
0.1457804619760164 
0.006622749789189317 
0 
0.03648259032153278 
-0.1397854073795026 
0.07068187882931075 
0 
0 
0.3043508490955089 
0 
0 
0.276876068404964 
-0.1315563113466901 
0 
0.1321800607010953 
0.05573144979877952 
0.3389521002358211 
-0.008361217379992212 
0 
0 
0 
-0.2704718174278025 
-0.009044272814434099 
0 
-0.03705166387602983 
0 
-0.2562218921045553 
0 
0 
0.3848502856619949 
0.8600553661121925 
-0.1887700875459186 
-0.06840484730860028 
0.005435430668699966 
0 
-0.08656300061067561 
-0.01678162153616516 
-0.06844291616801844 
-0.2804592478743058 
0.3345578442668932 
0 
-0.02534440901358168 
0.03500698857229866 
0.01699736325989648 
0 
-0.2317874480785342 
0.01367338773654079 
-0.07725057434329137 
0.02626810802624639 
0 
-0.1383516347877576 
0 
0.4664903640784639 
-0.01372329446607807 
0.005851130075764463 
0.1461421995074293 
-0.01612865710536717 
0.0007374401574365044 
0.2081141591834852 
0.04956691268283693 
0.004358373168000015 
0.001703225999434243 
-0.01838759707644762 
0.002763190595328882 
0.0235873390899437 
0.04416270396344817 
0.006966126803346831 
-0.0786837426109996 
0 
0 
-0.01768834155325319 
-0.01535099356637319 
0.0190254104905295 
0.1407178941304687 
0 
0.08313181634978375 
0.04860186567291837 
0.0914436986424299 
0.08712937008027526 
-0.3463370907673651 
-0.2819222228854817 
0.01400618601537501 
-0.001263254988929589 
0 
0.345835133604258 
-0.05992305052266771 
0.04569104243031376 
-0.0009862420539913429 
0 
-0.05591910193861725 
0 
-0.01880918024494736 
0 
0.1024222290453039 
0.1013695381497982 
0 
-0.01049283809411137 
0.03427855645922431 
1.377231009955975 
0.002571760156676263 
-0.008070660076745909 
0.3389478858449091 
0 
0 
0 
0 
0 
0 
0.01876517258509172 
-0.02673206942802318 
-0.3745261374304802 
0.04125593812695232 
0.2855835694916991 
-0.0433172987157081 
-0.008983577405137982 
-0.1663723017138242 
0 
0 
0.2199080685496848 
-0.1419664958912223 
0.03428875948572367 
-0.02679261737937792 
0 
0.01894272955565542 
0 
-0.01496492575565201 
-0.02411474858578679 
0 
-0.02063689432170554 
0 
-0.2138804340066132 
0.00056013363709833 
0.02924594754477478 
0 
0 
-0.03321054494660004 
0 
0.8898959086713187 
0.04468024037199343 
-0.001780123903502896 
0.0198231529894947 
-0.5589900945179601 
0 
0 
0.05730375703336975 
0.04340186751073956 
0.008342453472556653 
0.0002918904435366626 
0 
0 
0.06874304049706144 
0.01418478913192523 
0.2103407062163645 
0.829089246634353 
-0.04797695914696593 
0 
0.008553517450416138 
0.03832819723510364 
0.005588244541948095 
-0.1988123159105423 
0.004177665413880124 
0.3504114363286295 
0 
-0.06409477868318672 
0.1622358367147202 
-0.0161248086416009 
0.03428696240885082 
0.1134782923769196 
0 
0.1280701775396765 
-0.007282066926438803 
0.1265480703221304 
0 
-0.03440363017452472 
0.05457276638016594 
0.02716034151316062 
0 
0 
0.6955883975207433 
0.01714778700781186 
-0.01098642607196217 
0.1227145733001213 
0.02420062664389027 
0.04576781172391771 
-0.2938200533799149 
0.2617635561413796 
0.1110794750600839 
0.04330523733552882 
0 
-0.230195161793354 
0.01158718402105645 
0 
0.01344483271890624 
0 
0.0005296883679462737 
-0.0003077946960384431 
-0.09453577401873203 
0.001530863118782172 
-0.1253013940151976 
0 
-0.245432276158248 
0 
-0.005395648004892364 
-0.06953156563224103 
0.01130394653522588 
0.2395225771931932 
-0.03213207971850667 
0.009088360592286149 
0.01947210315703021 
-0.0258881470823989 
0.01723379473434749 
0.07174983524317088 
0.01016543705634039 
0.08039197202814183 
0.05214619123050646 
-0.002883312029155981 
0.6005358033322331 
0.02239284573160582 
0 
0 
0.003971576087257537 
0 
-0.1959326188447711 
-0.02427997613743918 
-0.004135494181983937 
0.1340497601925468 
0 
-0.1464946745994193 
0 
0 
0.08349973777679624 
-0.07284496478820869 
0 
-0.06213194967485813 
-0.03240367754425862 
0 
0.004959411231994672 
0 
0.1454320785923938 
0.004330415143325839 
0 
0.1048283109717067 
-0.001416737897208019 
0 
0.0227541815647123 
0.03782976032696236 
0 
0.06297685771090866 
-0.02875480732993643 
0.03561898754868873 
0 
0.06692085342501448 
0.04123785040855241 
-0.1222292325165734 
0.01017942633441989 
0 
-0.07783594354117271 
-0.6605657330626411 
-0.2326312604665417 
-0.001723117128974044 
-0.06891852403453176 
0 
0 
0 
0 
-0.06718533762630091 
0.5671469491182911 
0 
-0.2720334122053421 
0 
-0.02436723371012561 
0.06045808134435497 
0 
0 
-0.01517130793897058 
0 
0 
0 
0 
-0.1551317579811227 
0 
-0.07658166558492835 
0 
0.1754152836989817 
0.1722679230708642 
0.1300470491875468 
-0.0529681262835764 
0 
-0.0293525179390348 
0.1423870680101453 
0 
0.1279075675565115 
0.05536693405116874 
-0.009505070196410479 
-1.02009003044497 
0.06424482975564913 
-0.006031299691279518 
0 
0.0009455371241396306 
0.04063812984351813 
0 
0 
0.01173641508561436 
-0.003544619256685623 
0.04408195306004586 
0.05953509914973315 
-0.02281962413565502 
0 
0 
0.01345335921042157 
0.2116927172229087 
-0.0342268409910654 
0 
0 
-0.01003234258248652 
0 
-0.004267404880780559 
0 
0.00451933541028306 
-0.05646816847462796 
0 
0.001411657387345154 
0.7957200528199182 
-0.04766340271254703 
0.01883074847092197 
0.1595531213976239 
-0.09392909486762849 
-0.009994586111291101 
0 
-0.07232671500379702 
0 
0 
0.02253580607597845 
0 
-0.003455996664155983 
-0.018018446160419 
0.007710509601006952 
0.1392827879814303 
0.01519812670222963 
-0.0006273555130201984 
-0.01409223408266212 
0 
-0.6731169360788863 
-0.008642628539404212 
-0.02362035141895488 
0 
0 
0 
0 
0 
0.308205427944972 
-0.1332342500262525 
0.1280023383513943 
0.04322980381696349 
0.08444417788660304 
-0.06768180009247093 
0.06900573569029109 
0.5226976802180897 
-0.116042915515425 
0.09023797468460329 
0 
-0.04404827796831264 
0.06966525917092078 
0.02148864763870179 
-0.08525853987627256 
0.2312270892236676 
-0.08883382954977975 
0 
0 
0.02017530704028993 
0 
0 
0.01009390726516671 
0.07767102727026506 
0.02833047914322732 
0.01610322344361192 
0 
-0.6967790307625928 
0.24410959083624 
0 
0 
0.1271335824672764 
-0.02965510304294009 
-0.167120386140223 
0 
0 
0.1113197868161729 
-0.01092670028700942 
0.01673996649678611 
0 
0.1211921261722936 
-0.001530041772107271 
0 
-0.001484045328701504 
0.1956880250094318 
0.005418815466205297 
0 
0 
-0.1796655163213099 
0 
-0.04236773028842142 
0 
0.001436482810469614 
-0.5022988768486845 
-0.01940658725826536 
0 
0.1807404212572934 
0.01879506429476196 
0.01755460070764872 
0.1830478509323488 
0.0375920759357334 
0.09697616179059862 
0 
-0.6674352668074321 
0.1054873224860166 
0 
-0.3105698902103748 
0.07194340561639037 
-0.01856257010971612 
0.02746455448122342 
-0.3096527476518087 
0 
0 
0 
0 
0.05915390464806475 
-0.007889246516280916 
-0.3026008749871197 
0.0804699105351584 
0 
0 
0.1245053409538892 
0.008539582412392811 
0.01501889691548277 
0 
-0.04342804618178091 
1.402564962833303 
0 
-0.05140170976970537 
0.00903210651593111 
-0.002275462682342966 
0.0005442643010737708 
0.1263689865203675 
0 
0 
0.1019110240628108 
0.229414233987388 
0.008119738736176944 
0 
0.06173793962718754 
0.1039240690388852 
-0.02292071874326325 
-0.04721224348092049 
-0.09124721796520617 
-0.1766591256478378 
0.03519138269025565 
0.04126669317683473 
0 
-0.8409489692513872 
-0.1508935187915542 
0 
0 
0.09052562827260058 
-0.003996527237558158 
0.02507980121439275 
0 
0.03079003885120299 
-0.05753987451300877 
-0.008629059711190712 
-0.003073746763212518 
0.007997131737100888 
0.1164341350183552 
-0.04715102899239283 
0.03632887838742631 
0.1164341350183552 
0 
0.06892360432921785 
0.09107026344688725 
0.1845925475022962 
0 
0 
-0.1910322902487917 
0 
0 
0.01082412707664219 
0 
-0.1540744394641993 
0 
0.04090365327793665 
-0.9510890676337594 
0.03136938840357444 
0.03895242489133053 
0 
0.5541720506147261 
0 
0.09678902390855249 
0.01703631352609413 
-0.001778121627052972 
0.5985666939473734 
-0.03499453830086149 
0 
-0.02168615137378279 
0.07284545407647915 
0.1415028669379889 
0.09748911724218776 
0 
0.03187331715092567 
0 
0.1072541829751268 
-0.09855127865029914 
0 
-0.1256704016205256 
0 
0 
-0.005649658196514171 
0 
0 
0 
-0.05558156630547181 
0 
0 
0.02453724823584664 
0 
0.02681557733415804 
0.02596051801523491 
-0.03957137467944512 
0 
0 
0 
0.02553337791266871 
-0.1310181084254982 
-0.004530424275245793 
-0.005137691032226499 
0 
0.1515676694771794 
0.1601234924323977 
0 
-0.03449893101325174 
0 
-0.1411094452151103 
0.04979638129496264 
-0.05310374347839748 
0 
0.06519862971656891 
0 
0 
0.001852005097159125 
-0.01873633666710517 
-0.04662457262687054 
0.0130346839350222 
0.003472563760573448 
0.04493881137483603 
-0.08671966482145886 
0.09039713473915502 
0 
0 
0.005524624195016509 
0.1720985013508044 
0 
-0.03150216042172008 
0.1850773773347154 
-0.03175900021006781 
0.03312180127086696 
0 
0.1427265364722297 
0.004599013950818885 
-0.003363301141788747 
0 
0.08203040307852004 
-0.003180240218354715 
-0.0899366601248489 
-0.5832047498845272 
-0.09970800078564925 
0.01784044102752605 
0.3556729919429641 
0 
0 
0.06088109579341244 
0 
0.1153119627447958 
-0.8700790118538464 
-0.08577775003460494 
-0.03297827623903734 
-0.01753152169829283 
-0.05473096241834554 
0.1551185725856122 
0.006923397005941211 
0.0408271891904211 
-0.3776581997808426 
0.4544575968679587 
0.1065632928710577 
0 
0.003423586951310502 
-0.4224658450391503 
0.02093475330907185 
0 
0 
0.02738046953634355 
-0.03366570456650266 
0.021615207718119 
-0.2415650552546599 
-0.04364700341325457 
-0.1267578982473517 
0 
-0.02455773474744371 
1.074916360854301 
0.1572818313183265 
0.01818488259911118 
0.006874986472268002 
0 
0.02170623768333991 
-0.0135898017670683 
0 
0 
0 
0 
0 
0.01418968285029527 
0 
-0.01248052922530623 
0.152204661565794 
0 
0 
0 
0.0438657911067377 
0.00200813061226565 
-0.07372203265787304 
0 
-0.1184041557011027 
0 
0.03800265183373092 
-0.5165486254862208 
-0.04868392935225371 
-0.4962691098174646 
-0.07524714638483024 
0.0382332997237113 
0.04190451723000352 
0.03127117865749798 
0.1220213824659764 
-0.02706251511775857 
-0.004292255231398098 
0.01857997091713992 
-0.01370082091502609 
-0.01617439597761548 
-0.04089860155633435 
0.1239661222123829 
0.03407841292242496 
0 
0.8136067323857142 
-0.02606906255896251 
0.2157779578636543 
0.02438396644764314 
0 
0.09375233498571343 
0 
0.0007437776462022451 
0 
0.008096965012971051 
0.02630056976038739 
0.01853251326496343 
-0.3994464365059077 
0.2227842393420957 
-0.0864349407156239 
0.08574477373705593 
0.003354643531491782 
0 
0 
0 
0 
0.01040213508432081 
0 
0 
-0.02434462893826497 
0.341354474782344 
-0.2040422644617575 
0 
0.01893446740108613 
-0.01686883144742814 
0 
0.0005554599936752408 
0 
0.03575085707189723 
0 
0 
0.0300740670307095 
0 
-0.03726822460871951 
-0.0001408792694702794 
0.01294853191731677 
-0.0213597728688865 
0.03108904022047784 
0.06145523233149162 
-0.001518440184459766 
0 
0 
0.008680612715942237 
-0.299786808573131 
-0.0900783466026657 
0 
0.005008694245409914 
0.04636478014340022 
-0.004232490762650033 
0.1948865274539587 
0.0709657219549398 
0.5702957897008506 
-0.1282605239964093 
0.001011839781053639 
0 
0 
0.2271395290580236 
0.06467739858847572 
0 
0.0103555290662382 
0.03697648961018742 
0.2036850597956805 
0 
-0.01082481717175889 
0.007212664920846746 
0 
0 
0.1457014889721032 
0 
0 
0 
0.01090552109453082 
-0.01500838812532654 
0 
0 
0.008953609511006596 
0.01015818637823427 
-0.1734524900831441 
0 
0 
0.1657771764229715 
-0.05894008677014292 
0.0353412854470426 
0.00207533956027304 
0 
0.02773159025199132 
-0.1802989309525782 
0 
1.486161199904955 
0.03227200716124613 
-0.2310441041391838 
0 
0 
0.03267099174638189 
0.05275431592227951 
0 
0 
-0.03559449274842705 
-0.01903058089098448 
0.01570626490343953 
0.1584437153705754 
0 
0.01310765990795286 
-0.2190768560525044 
0 
-0.01057010106796041 
0 
-0.8616194533146112 
0 
0 
0 
0 
0.02407333381095554 
-0.01070457270081696 
-0.03114817835278692 
0.002731945131175094 
0.0253616478040278 
0 
0 
-0.03004436343121605 
0 
-0.02462276760196619 
0 
0 
-0.003189500475819392 
-0.009340659705396163 
-0.04574152871928053 
-0.09672233209999317 
0.004880600609975107 
0 
-0.02305360852491082 
0.01308382247916662 
0.1576874967612367 
-0.2184244892565464 
0.01460967609831011 
0.002077938499192507 
0.09743230451018862 
-0.4365741009575171 
0 
0 
0.01250545270953362 
0 
0.02122804572902199 
-0.0537174019340919 
0 
0.01968750714153529 
0 
0.1431216095685897 
-0.02642287422679332 
0.5858308351757384 
-0.6239112492325055 
0.02461404309863827 
0.01006895342387688 
0.09297326117874863 
-0.00413549392000915 
0 
0 
-0.02112537820290611 
0 
0 
0.003529843125490692 
0 
-0.09662397250882715 
0 
0 
0 
0 
0 
0.0232913538191361 
-0.1064725178931759 
0.1177691060742553 
0.5681217061060726 
0.06151094613161078 
0.3349742587258077 
0 
0 
-0.01062013657558182 
0.9474998856689524 
0.1120712244221378 
0 
0 
-0.06180681129638256 
0.1746984280110952 
-0.007503967874116979 
0.04343300967593811 
0.3267700513664107 
0 
0.05139106583699239 
0.019418198848121 
0.02856679021052982 
0.02776380105199568 
0.04625094664711475 
0.01938788235057318 
0 
0.06517034707515804 
0.0008562551289974593 
0 
0 
-0.000306503822048167 
0.03675182144636953 
0.0251717045437693 
-0.0004405379035981922 
0 
0.1054073301570706 
0.009281551874079825 
-0.01293410921021585 
0 
-0.06427817359785717 
0.002037617417415847 
-0.02724612557827714 
0.2937938382033797 
-0.004540834769728492 
0.00105442944378294 
0 
0.1911189422566122 
0.5422429691633877 
0.09082041615759455 
0.5263726231768127 
0 
0.003890470623266337 
0.02267593199061188 
-0.2304821416381665 
0 
0.03323559830014668 
0 
0 
0.3092101769653793 
-0.06037756088383319 
0.04187486699541067 
0 
-0.02289767603130683 
0 
0 
0.03029083343184375 
0.04670592717016921 
0.03278814097257628 
0.1057978534217105 
0 
0 
0.1452612151391922 
0.08557012634039002 
0.003628361751387849 
-0.009087430059792288 
-0.05112966676043648 
0 
-0.2016176098740307 
0 
-0.0991695789535461 
-0.03973889705845847 
0.1167042315200904 
0.8636173779648983 
-0.007116937765351591 
-0.1199293391861243 
-0.0002589746447446029 
0 
0.0004218578822917526 
0 
0.05619444169708034 
0.1897855584275027 
0 
0 
0 
0 
-0.2243903050930242 
0 
0 
0.05342291758616435 
0.08218116832414328 
0 
0.06014321851978238 
-0.1464109098895059 
-0.02861023518400397 
0.7438327315686338 
-0.03196235116137523 
0 
-0.01732135963162871 
-0.3753946864965471 
0.2954413244083417 
0.01349511211164396 
0.002417742631140134 
0 
0.08649679487700308 
0 
0.0406620936323541 
0 
-0.01072565824775326 
0.5297246256052023 
-0.0236396642005996 
-0.007108167260928444 
0 
-0.04426328032931755 
0 
-0.05211416052146825 
0.1118138913996957 
0.1059595729356313 
0.02498351513647198 
-0.005276688651889516 
0.2415366809242152 
0.05538027080902257 
0 
-0.03327323907849098 
0.006662837179196117 
0 
-0.02959083242489754 
0 
-0.05104342014783577 
0.01879387540672033 
-0.1143979474330045 
0.1863777734376909 
0.004621600321242867 
0.006675324488272594 
0.006622276975102685 
0 
0 
-0.3364592103680822 
-0.06030505367131049 
0.1163118807550761 
0 
-0.03725778035669222 
0 
0 
0.09565163434390007 
0.009182754106004408 
0 
-0.005666308032829359 
0.007234120074440108 
0.1433475935909719 
0 
0 
0 
-0.03068792700396974 
0.03456017268134568 
0 
0 
0.1094980118021015 
0 
0 
-0.06600760231045162 
0.1319893323867863 
0 
0 
-0.01521415289501424 
0 
0.07143256667288517 
0.002822733431392443 
0 
0.02189585699891062 
-0.1140672323982689 
0.09008667238167324 
-0.01152306175211451 
0.0152868984220396 
-0.02294752743286557 
-0.02159660669672272 
0.0508973462323497 
0 
0 
0.001816892677864079 
-0.09872669083932525 
0.629758586192675 
-0.02451519343850361 
0 
0.1745408227430781 
0.219289412088193 
-0.3859749641235828 
0.01379955736340693 
-0.08075125803262354 
-0.00786787603181986 
0.1463373816352849 
0.0610056750364505 
-0.07765040240680562 
0.02543029838108118 
0 
0 
-0.0109386899202104 
0 
-0.01779404871269083 
0 
0.03144043062554924 
-0.06312756369098974 
0.002042948149297908 
-0.001068416077064732 
0.1880656694297992 
0 
0.002426151384296196 
0 
0 
-0.1623010039168059 
0 
0 
0 
0.07090195819332684 
0.01093207752131464 
0 
-0.3222423160333883 
0 
0.09197442432680897 
0 
-0.001782976147153339 
-0.005814279719061206 
0 
-0.001676975325213128 
0.04821733183177033 
0 
1.240052985860839 
0 
0 
0.1871002607885355 
-0.4943920401635225 
-0.08490282978042496 
0 
0 
0.03971663046531376 
0 
0.03547916717403144 
9.910595616503034e-05 
0.005302119702141368 
-0.01343106820950471 
0.06451597249985339 
-0.1566181289519632 
0 
0.1295314828022499 
0 
0.0159998516092679 
0.09758127782941128 
0.0548723861864391 
-0.02535387598975365 
0 
0.1216850263767697 
0 
0.008888166542265968 
0 
0.07763505946291743 
0.01229869802988618 
-0.09073779919978744 
0.03689383776670825 
0 
0.09080357143873399 
0 
0.06067420338340852 
-0.2789940707260912 
0 
0 
-0.1705416313263935 
0.01853517808438715 
0 
0.003647290089656557 
-0.9078666833018707 
0.01428961883058064 
0 
0.02387555415143275 
0 
0 
-0.2287380841560828 
-0.03073350412276651 
0 
0 
-0.06977895905831846 
-0.007085292787908429 
-0.0491757682786719 
0 
-0.0793210617551296 
0 
-0.1486666060622661 
-0.02068663644668775 
0.05014178442339892 
0 
0 
-0.00616359596584775 
-0.07597555259807721 
0 
0 
0 
0.02543349701208862 
-0.02675117110801517 
0 
0 
0.009125910232452608 
-0.006450650479203159 
0 
0.01798027941851678 
0.2330044189547834 
0 
0.1626290732838758 
0.5691808588849497 
0 
-0.000133545041811661 
-0.03279153700362556 
0.1515875927852159 
0.01394663824776487 
0.0541014849253322 
-0.09494385432845183 
0.01973831418491003 
0.02343387765298006 
0 
0.01062435827089758 
-0.4815159051244558 
0 
0.01694515845168318 
0.04673782736632421 
0 
0.2264814190642325 
0.03896259145945517 
-0.01781389093744456 
0.2337809652591259 
0.00992365352188089 
0 
0.05772339441199312 
0.07727381285636932 
0.1242778320691893 
0 
0 
-0.009156418334421405 
0.01264526459757953 
0 
-0.04228524669264072 
0 
0.05073245650592809 
0.05259910612556495 
0.1556894673889578 
0 
-0.04840093200640746 
0.0643880686460258 
0 
-0.1993769241882102 
0.03447493488748923 
0 
0.5033441316630951 
-0.009581515724318123 
-0.0003117093292721623 
0 
-0.007690188835702879 
0.05560531728700804 
0 
0 
0.4120168908832552 
0 
-0.06349138527202335 
0 
0 
0 
0.09445746344960701 
0.1946187867577206 
0.1237285187680128 
0.0461899824044129 
0 
0 
0 
0.1579438067587462 
0.009817690172859959 
0 
0 
0.01285497849258777 
0.005457317145445471 
-0.04049431581827 
0.1228706736975692 
0.02305263188886394 
0.06617440405077578 
-0.002536526892960437 
0.1471195986200556 
0 
0 
-0.06743702324004767 
-0.00825545170160253 
0 
0.04172769103673468 
-0.2163382426620497 
0 
0.5327509078286763 
0 
1.261742927659884 
0.1069348459382741 
-0.01521792432723162 
0 
0.04907299892488034 
0 
-0.3222510486525944 
-0.3608446361536646 
-0.2130888610751758 
0.1611510888063551 
0.06978704947690416 
0.0349014503660695 
0.04712969818209445 
0 
0.03789784131377909 
0.00768683353658246 
0 
0 
0 
0 
0 
0 
0.05176381535707721 
-0.1307851154036705 
-0.02716761806808681 
0.0554322536921739 
0 
0.03938976971631811 
0.1132363374031329 
0 
0.02209437003768267 
0.08690545738252416 
0.05794409150794651 
-0.09146576709519752 
-0.1600132399040075 
0 
0.1589260162812327 
0.1065560744461814 
0.06962783673932263 
0 
0.01000106042265255 
0 
0.02931586475461595 
0.01447437826691104 
-0.04304583663927763 
0.01196381612851904 
0 
0 
0.02118771505110346 
-0.01829155938230957 
-0.1710265955677046 
0.378213662204361 
-0.03000766460429466 
0 
0 
0.02771860723005555 
0.02743919633503633 
0.08905283236543726 
0 
0 
0 
0.9880939245126424 
0 
0.1376425302586879 
-0.4415533727151799 
-0.02121748606924601 
0 
0.01347129519226598 
0 
-0.02906615946617105 
-0.01364153591641817 
0 
-0.01155051583306707 
-0.1072761837343847 
-0.01912391155598801 
-0.008433624993100776 
0.003814879655540166 
0.03047322226661272 
0 
0.07040455788160604 
0.01033331399250529 
0 
-0.01880078313057702 
-0.009831790325356889 
-0.2082283219171912 
0.09874965344936477 
-0.08629280287542167 
0.02698243358663334 
0.04226380211465233 
-0.1512263371577793 
0.02487381475916262 
-0.1639149454746494 
0 
0 
0.02132485765107901 
0.006960414988941539 
0.01273844381119495 
-0.2351423349036575 
-0.2386566811291025 
0 
-0.006855862490838316 
-0.09589183003666381 
0 
0 
0.004294790447907697 
0 
-0.07447420198955527 
0.07903491488202187 
0.08476890281389694 
0.0976449888315962 
0.009554317160394621 
-0.005146240314536887 
0.1647562540228968 
0 
0 
0.09584644208569859 
0.07314884179980982 
