solver_type L2R_L2LOSS_SVC_DUAL
nr_class 2
label 1 -1
nr_feature 5000
bias -1
w
0.4212009965306837 
0.2579142862864155 
0.2788379180823673 
0.1336467638455485 
0.1759599685786587 
0.0948287791995823 
0.08760992759612617 
-0.1303003015297491 
0.2219045199511177 
0.1158755398562022 
0.2301531825305834 
0.02975665542729933 
0.1659159259567528 
0.3711950804922987 
0.01706603801346539 
-0.4991096195955212 
-0.04079913937766955 
1.357742989415542 
-0.01066752811126402 
-0.5235092446028499 
0.2410440059308694 
0.4416136831333525 
-0.3347873707206549 
0.2203824629253678 
0.1775006234579033 
-0.08278811229886644 
-0.6378070804498052 
0.1961217522269905 
-2.681091989827785 
-0.05982858013359526 
-0.3428218137012372 
0.04028214274149324 
-0.141426283788029 
-0.03403723196646395 
0.2341887644335381 
-0.102529929590512 
0.4111297890254981 
0.2922143184635292 
0.1172020514431366 
-0.02452843877964395 
0 
0.3822129033002563 
0.2322121625746513 
-0.2209758773233244 
0.1327853351245263 
0.05825567750758678 
-0.1558638823218711 
-0.491759143683051 
-0.04685327984027222 
-0.6706176384651926 
-0.097678092994181 
-0.004312667042334697 
-0.1800675043104256 
0.1973533280187752 
-0.5887486794027518 
0.07852772881223707 
0.08778531060014483 
-0.1647450061152194 
0.1101717895878544 
-0.3606895599334392 
-0.05506542802439431 
0.1973135014065249 
0.45377739060351 
0.03153471959041988 
-0.1130599911412653 
0.00668922055204227 
0.4314541722336849 
-0.06259365201906486 
-4.196478710478711 
-0.05198720338094153 
0.2309377816049816 
0.1750529560823215 
-0.08324708047554488 
-0.2490813533079279 
-1.948835736265941 
0.06729840531112603 
-0.6681881648129306 
-0.2450078218447055 
-0.5394061371138813 
-0.04645012014437869 
-0.2763462446102923 
0.2328935003802795 
0.05072806841815371 
0.09089911877646546 
0.1346792441145698 
-0.0333295162486316 
0.5901075245933203 
-0.03653387021594476 
-0.5531742870912951 
0.1625655931467487 
0.01763248307404328 
-0.4007393071145354 
-0.0001212630370310807 
-0.4644328355112078 
-0.07701978347813788 
-0.1565481344115296 
0.1084843243336941 
-0.9395958737256843 
-1.698067007230274 
0.1914205890168078 
-0.07220095853872804 
0.06262533968628933 
0.0977794710475203 
-2.465871868610187 
0.1212701831849939 
0.00600346593963343 
0.06461545614710523 
0.1425677383108572 
0.01066426059036599 
-0.02848297772941439 
0.1251034356650014 
-0.109451110337607 
0.1357086793586116 
-0.04939807107898761 
-0.008951073612981589 
-0.06081314304189087 
1.112160363680391 
-0.05553595792378331 
-0.4571582014062238 
0.7765104929736824 
0.1106592367121371 
-1.483243032892807 
0.003868056381574121 
0.1209111981350832 
-0.5359811711799609 
0.3051138745668729 
0.05267363518806305 
-0.3842055279996516 
-1.274124651287489 
-0.06545199953627409 
0.0725035644841308 
-1.408340959892006 
-2.859028806220214 
0.05897560239042653 
-0.2453583221861962 
-1.124893554677414 
-0.07025143776319323 
0.2323788037652944 
-0.06182071329591937 
-0.3020449863167569 
0.009597950764262538 
0.2504865353781096 
0.04565244303216714 
-0.04335411777087152 
0.04242821405904976 
-0.3702278902563961 
-0.009465808975255716 
0.03058289073995159 
0.03290177081949539 
-0.002688004111884799 
0.1782137870410061 
-0.3824772614968951 
-0.1928491170501696 
0.09772047642945673 
0.002851716147317308 
0.1885670495914283 
-0.08028732560987567 
0.2097251918561572 
0.09612156142929373 
0 
0.1931634987052327 
-3.559556678472223 
0.222634794380349 
-0.01615832429051976 
-2.105755978047074 
-0.5525852354492902 
0.1189012815774128 
0 
-0.143605037733337 
-0.1945015604250106 
0.0054174419909888 
-0.1682360368557363 
-0.05676610764619933 
0.3125087821111614 
-0.2475609180734924 
0.8459084727515614 
0.7434591443466034 
0.5486084217321316 
2.003351694888893 
-0.5300014507815191 
0.009142920505245818 
0.06011427530393278 
-0.07644869494492641 
-0.05540710646270979 
-0.9223039238376757 
-0.02051308003373278 
-1.079005068543626 
-0.656918056469995 
-0.08101409219111273 
-0.03142423371721485 
-1.839393787105699 
0.07771117370028875 
-0.4029416263492525 
0.0738662039307609 
-0.07507598345899667 
-0.804159604157148 
-0.5709063833678838 
-0.2305352516866296 
-0.09038910377300902 
-0.02432410908183477 
0.003390805587095004 
0.01223949753447027 
-0.3861334193839188 
-0.1781524060607564 
0.1630171078016265 
0.07403100333807566 
0.0156466215460455 
-0.3012967996372568 
-0.03946172249640514 
-0.01095035181582762 
0.07218790565266214 
-0.01392912280680464 
-0.03078482191715149 
-0.03270451591914991 
0.004200268888387261 
0.05198848571523215 
-0.7437068458837686 
0.05594463402333739 
0.1597992324478643 
-0.01158295582324885 
0.7406633258016543 
-0.131859557943704 
-0.09081254618256365 
-0.01314683033562443 
-0.5363125135818435 
0.2603617253634729 
0.26261945975837 
-0.4288875639100974 
-0.16012101697191 
-0.1803302858709218 
0.01647296791594005 
0.245799079370737 
-0.1842151740686325 
0.1664194379264774 
-0.2435678308963868 
-0.1399081526465278 
-0.09731305066269552 
0.225420591469648 
0.04565947584566006 
0.01860856781563335 
0.0379996137528277 
0.05909695090839937 
0.02041745932516357 
-0.3656460181677074 
-0.09623007696201251 
0.0637082681454728 
0.1891826869691209 
0.1218519196507275 
0.5016547008148404 
-0.2657705069587851 
-0.1798116416881824 
0.1715728629515681 
0.1209561613446302 
-0.976315214764483 
-0.3148557854079534 
1.132407018096834 
0.08082609851116458 
0.3833879106423867 
0.1964417528671206 
0.04714778044595289 
0.01359659405195464 
0.2107076157410188 
0 
0.3594647952669309 
-0.02361233462692158 
0.004128981796052478 
0.1319384617399497 
0.4244030958811933 
0.08641903330831702 
-0.007473772224771071 
-0.3520918955535934 
-0.03074538905056561 
0.02422290022114059 
0.002386681565505478 
0.04507405707475966 
0.0001185420423468166 
0.06404697677463347 
-0.9509839733152857 
-0.3743298899256753 
-0.01069242216244755 
-0.6005057940528455 
-0.01186395097094397 
-0.007299815764086573 
0.8368405592831007 
-0.06425873210340938 
-0.5880154898285042 
-0.6863548308360142 
-0.1848165421877959 
0.0001158596710200764 
-0.002643624525515573 
0.2962079338368221 
-0.1065674345729669 
0.1329832531674393 
0.03744801647827704 
0.0345699970396731 
0.1341987068214024 
-0.08116893820015525 
-0.1706188091472173 
0.02108818090624755 
0.06382050356206931 
-0.01508238375616384 
-0.7487783599036276 
-0.0017128128289945 
0.473891279425892 
0.05167189794411616 
1.081562584354314 
-0.02805848191582143 
0.0870355113747216 
-0.2508090838650293 
-0.1438856155702147 
0 
-0.2148943997700528 
0.08966224031460784 
-1.087243883542433 
-0.1049467654179446 
0.2932332010277317 
-0.00376673221562166 
-0.01059896376159943 
1.780341816139221 
-0.2691939996817293 
-0.4206121803733867 
0.09670627904366608 
-0.47091374778701 
-0.07488495446691087 
-0.1594666922157277 
-0.2578257850424149 
0.0102964258829787 
0.1120717594675369 
-0.0624390789793941 
0.05753574533392071 
0.03020772932397752 
0.3003987744426517 
-0.1866366749262457 
0.1216761838143124 
-0.003706702471198992 
0.01993260278968042 
-0.2646034451243492 
0.04841052601251764 
-1.93240307438327 
0.3789881393729372 
0.01624997835179565 
-0.01690388498857259 
-0.1758225818654729 
0.07720198886595654 
-0.1384372179703882 
0.02048200889061137 
-0.01433592109045951 
-0.04841977088115672 
0.1592319241929298 
0.7729375672686688 
0.0177641627982466 
-0.2320969710114007 
0.006184717409769288 
-0.01025599135134596 
-0.007447219593678611 
-0.00453971043164466 
-0.2450100804313787 
-0.5022275120243996 
-0.02381839942016141 
0.5128646471879058 
-0.004371556375093177 
-0.278497560675079 
0.02664843004568903 
2.873374292513074 
0.1947439372663532 
-0.350498068111429 
-0.004685635373670061 
-0.381039454295496 
0.2074977284424616 
0.06476253962478241 
-0.7800957967663875 
-0.07783637019250202 
0.09824039843106762 
0.005121737665862082 
-0.004716623239134703 
-0.009832534707589699 
-0.01136650313535559 
-0.107773382013264 
0.1794252293581388 
-0.007303952792069978 
0.03746774569216454 
-0.2329065727439893 
0.4255211049387658 
-0.2514269436015689 
1.245246160804962 
-0.03767266000621671 
0.3346609637194146 
2.807836710436857 
0.2970362918272247 
0.003043266248700409 
-0.03364030443060714 
0 
-0.04685339809629287 
-0.3414626080242298 
1.444274859802632 
-0.6170361814806448 
0.5197764710802552 
-0.2186408540746016 
-0.01377520506778162 
-0.1078001880860534 
-0.8732495831601903 
0.5501914882757448 
-0.2896675232300641 
-0.1132539789160339 
-0.1770664722771567 
-0.4289453092280752 
0.003099657214917323 
-0.2440112596686032 
0.7005579413934452 
-0.007312483529138052 
0.1607393856697046 
0.03948345227575409 
0.1064126886457344 
0.1303491549052492 
-0.1471426426711554 
-0.1685146750749989 
-0.04858393420872406 
0.1436678480473746 
0.130434837121271 
1.255128959456964 
0.003355241860581535 
-0.2295529113208978 
-0.093313103045697 
-0.002081687860128125 
-0.09543763807150533 
-0.03811127253460447 
-0.05722686768240291 
-0.07249488196253867 
0.0299457040520776 
-0.05152592871279267 
0.1389083899746149 
-1.179333362737801 
-0.3455618175561241 
0.1401513372282528 
-0.2847922988741664 
0.03023156540066485 
-0.01155615253868187 
0.018206519358355 
0.107601217825543 
0.1190175953996367 
-0.612215006569644 
-0.04116995376839887 
-0.2160825451435793 
-0.0464697157533871 
-0.01018660055761033 
-0.5423339419353038 
0.2230996565726582 
0.12517156549597 
0.1482659901231693 
-0.9149966693448929 
-0.001570457448412556 
0 
0.006642352325989313 
-0.1921418410643587 
-0.3572756636216594 
-0.04799401763140948 
0.9426776418184454 
1.400877852856033 
0.2604696836310665 
0.806873505628963 
0.3557939003181733 
-0.03028363365393204 
0.08474164491323811 
-0.125323101414029 
0.2669008171882527 
-0.1221345467835288 
0.0451556962034274 
0.07803822205261886 
0.3456296053024567 
-0.04166300678682373 
-0.00841383697758225 
0 
0.01604783035298822 
-0.2148773360534333 
-0.4929750832980613 
-0.07376855718555093 
-0.2753241015051256 
-0.04051670004267204 
0.3123364779493505 
-0.3927111696852814 
-0.1114282630982873 
0.2642301211268944 
0.07834914760725115 
-0.1780049436508059 
0.03258329553215732 
0.01524580744155941 
2.3887935270804 
0.01451132845522089 
0.1251827937091041 
0.2606531742463927 
-0.3400827036092289 
-0.8692094866698953 
-0.4921500664446413 
0.07285633945944404 
0.03720068659111991 
-0.02948262000768766 
-0.542808567772544 
0.06006933181985659 
0.2471866566718522 
0.6583930331807168 
-0.003663465655542611 
0.04171238216128693 
0.06387547699734529 
0.1274294187344345 
-0.3317744343494579 
0.088573183480533 
0.1119154113917689 
1.411753094055267 
0.0799866117563002 
-0.466552337836622 
0.1742120235090034 
0.1414281215499759 
0 
-0.2391518735035483 
-0.009959691094896752 
-0.04407484567897313 
0.2205150978209887 
-0.03965854769767448 
0.02249716245386181 
-0.06308868154180081 
-0.05795141244756005 
0 
-0.0004084985805329559 
0.4408356773927555 
-0.1122308763982251 
0.0982428555423355 
-0.2419137364801771 
-0.4317550943369908 
0.01579476799896517 
0.5308641915472321 
-0.05389933465056454 
0.05555871309243367 
-0.03460990906977577 
-0.2723693603341123 
-0.2814489794160107 
0.1654236476802637 
0.1474049200233832 
0.4516075083157563 
-1.249666566046392 
-0.05683313367493028 
0.1291737925940402 
0.3644303974218026 
-0.1974044660539484 
0.01846442063324383 
0.05332720470772966 
0.2553868098372877 
0.004322595907592834 
0.01355639300861825 
0.4850526927397805 
-0.148297815625185 
0.05630119395487634 
-0.2857378107174701 
-0.01618330187909511 
-0.08131254260559648 
-0.0050248472173708 
-0.01634814654057243 
0.2477831157761657 
0.1252343549583347 
0.06618559561976831 
0.2464009175388332 
0 
0.3739633432082269 
0.1090945844023309 
0.3080964057222014 
-0.3279372514124266 
-0.1071215097963253 
-0.04674140432523012 
-0.04208055411656406 
-0.06269566114344119 
0.001441278128135233 
-0.0132988453468337 
1.835870381843354 
-0.4158322289701698 
0.004928770434946313 
-0.003355657286914884 
-0.0003474527367214578 
0.4876102877204893 
0.01278949465538714 
0.1585584067360537 
0.04562471032625848 
0.3783648154553181 
-0.6681846557376909 
0.1143406138982141 
-0.04940428706915394 
0.03916966697646203 
-0.4389855244742336 
0.2810172629001539 
0.02297440162159597 
0.0001355296925244388 
-0.1237914523178106 
-0.002786513957208074 
-0.08916003111820228 
0.1072298576085452 
0.0006423706521485159 
0.5804327293902675 
-0.234470455762978 
-0.2527417156000358 
0.2648763370971008 
-0.05089193017424934 
0.04220278403633033 
-0.003548876189136063 
-0.147013171156354 
-0.4935788156352794 
0.03679268572818339 
0.02591141659228736 
0.04413207049059206 
0.07908645254912418 
-0.0004241128510784665 
-0.3486012800549063 
-0.308461320935218 
0.02334966633401881 
-0.102116675988232 
0.009805467594307863 
0.08656717736412652 
-0.1940334354650926 
-0.01307849013781801 
-0.06945089298518464 
0.05526755953143457 
0.04814439846118278 
0.06041212731724698 
-0.1169466059419247 
0.008467534752162916 
0.08860480752027716 
-0.1193969109835289 
0.1246134881500661 
0.01794325434503879 
-0.2554521220563532 
-0.006616883658148251 
-0.02836650211850126 
-0.2883492461824708 
0.09285714841390247 
0.3776173851170393 
0.9608653192071864 
0 
0.3162576787383045 
0.2036936947362232 
-0.007128372686900172 
0.3114538125035448 
-0.1645084822183399 
0.5009509052787995 
0.5742908593510127 
0.2356746973226673 
-0.07031379392191685 
-1.406867359759602 
-0.01599216594340299 
-0.02938836876914915 
0.01461441299635404 
0.0331723148228323 
0.01626735812815442 
0 
0.2315757952098557 
0.2943722594633569 
0.0116785351150723 
0.06750504323327469 
-0.1823454489113245 
-0.03495899462483196 
-0.007244478899986627 
0.4762937596145399 
0.08681876411655939 
-0.2839263389490961 
0.2655864272687837 
-0.01370484331831222 
-0.08617980743519729 
-0.1146291006350323 
-0.3021919658782951 
-0.00152752613549122 
0.6155103785980726 
-0.1768270347283931 
0.03421767657067338 
-0.002938000074836933 
0.07271872773238645 
-0.1035409155588554 
0.2530356976130977 
0.2908338444256329 
-0.6834247330973204 
-0.0655948699953959 
-0.0320914357822913 
-0.1642321980779619 
-0.02109944163003503 
-0.7311347228701234 
0.2011157738681029 
0.02815337010299766 
0.3297240794945794 
-0.1923333718092494 
0 
0.9588890644356662 
0.1416398398687919 
0.0586023304924097 
0.001302926808428419 
0.0355326130825962 
0.05797344972951817 
0.02772324493200269 
-0.3102633204240999 
-0.007642489681590749 
2.354829516417913 
-0.01931094078400254 
-0.3605140514734568 
0.09787386855209239 
-0.006397728273267321 
0.01147669488845571 
0.05085805065988493 
0.03553551518461411 
0.1476985730893837 
0.1741037803818751 
-0.07470847390664062 
1.31733357478448 
0 
-0.1393588808826312 
-0.0228077272377027 
0.02678650687864513 
-0.009136254047298273 
-0.3040478855007574 
0.1112131826702489 
1.360192272887838 
-0.5915864880229792 
0.19111735187407 
-0.234883074488408 
-0.1510239996351032 
0.201413369457027 
0.1089239044645942 
-0.05403176806439683 
-0.02640660207275638 
-0.5026314790282274 
-0.01122939857330165 
0 
-0.6225617922127256 
0.1315275143211256 
0.2078590355436956 
-0.04463521389540483 
0.04127263098474033 
-0.3438056319359013 
-0.04686921943448313 
-0.09253793736420046 
0.07044619318002793 
0.06775936963533949 
-0.03129562997341632 
-0.04490504183756813 
0 
0.1829411993243411 
0.1858997091483692 
-0.03328889063027565 
0.2201296709816427 
0 
0.3322372857570181 
0.02851690181058319 
-1.326778211774226 
-0.002553529561494245 
-0.9047792885963784 
0.08428128598476835 
-0.7357425785763924 
-0.08306435221039393 
0.1424062720896068 
-0.1220898994706815 
-0.01449530178536187 
-0.389332407155622 
-0.4189615831595547 
0.2121474024478958 
-0.03659903550848066 
-0.2257991099329569 
0.4210064807905342 
-0.1406397242168867 
0.01363837278317107 
0.460079824349243 
-0.6114281755334382 
0 
-0.09313895651894927 
-0.06106929722130754 
-0.03669013689398971 
0.04710856645188059 
0.3792429161492808 
0.126115496681129 
-0.09575964509868989 
-0.09951191097860455 
0.03166411483906013 
-0.6946723611682735 
0.03553450030928343 
-0.3925162518389994 
-0.003191763731314417 
0.2169895288265796 
0.3132987774963641 
0.2524198479528375 
0.2781893593234442 
0.0003033211017912674 
0.03230432222069829 
0.0273259515839814 
-0.1465563782230593 
-0.2595887921950688 
0.08660633792303939 
0.001383748745689891 
0.06287056840801815 
0.005412606931456198 
-0.05248271896327504 
1.658918659553954 
0.04693372921693299 
0.5610764724108694 
-0.691498936692104 
0 
0.07477642114568958 
-0.02487977440918245 
0.5056362766252216 
-0.2323363980352579 
-0.02122663239204435 
-0.0005804217819927243 
0.1365816867674643 
1.699980521255291 
0.00839725645233255 
-0.3705053230499364 
0.2907857706982714 
-0.1037371586579841 
-0.06301745403159295 
-0.01406006189509685 
-0.7025381377493355 
0.4836228614943844 
-0.02319435364152703 
0.03875240373785088 
0.9878052297559473 
-0.4683480847145856 
-0.6658842603415599 
0.1909359517116817 
0.2580932353434608 
1.104592618894726 
0.8917286989267892 
0.002549897999854181 
-0.0665797397542285 
-0.9791555331575659 
0.03710739060214712 
0 
-0.1822171760471147 
-0.03840516158229252 
-1.156577503441496 
0.01737530314763519 
-0.6228809452277991 
-0.01257620828314042 
-0.1040420410293269 
0.637822593850446 
0.144156523960505 
0 
-0.2152306034854107 
0.06984602014124219 
2.976918644366847 
1.716141456199402 
-0.05902371340881072 
-0.7305113465519394 
0.1582447818260932 
-1.515415401922204 
0.04186545323152648 
0.03635630222526298 
-0.06959042323579984 
-0.5401074394589925 
0.2232779614651297 
-0.3248087751350352 
-0.03037705479807417 
-0.001226892483470439 
0.7758782377125435 
0.001638947500722154 
0.08157909104973723 
0 
0.08488683542025104 
0 
-0.0654346596537787 
0.3654828932404969 
0.04700635108888208 
0.007402681912012538 
0.150133554473279 
-0.5554212124579534 
0 
0.1213466770395018 
-1.009308453027378 
0.01168305615352499 
0 
0.02761162205564262 
0.7200573075098803 
0.2938668684561006 
0.2954206254368442 
-0.0001447644847015257 
-0.1471288645373923 
-0.2663220445778265 
-0.4694595064981791 
-0.6567756839671993 
0.3144980922332685 
0 
0.6211386301166069 
-0.6912353669636886 
-0.006531478258028063 
0.2189495927985583 
0.9882675834914049 
0.02363133283441096 
1.333787618748678 
-0.2166151229076499 
-0.07214289446408505 
0.3069734810651103 
-0.006363102322363708 
-0.3924249356492748 
0.0288529230627245 
0.7682975689155833 
-0.5130789896352018 
0.01315958798760378 
0.02253349652098288 
0.1259052447336855 
0 
0.02139438817603483 
0.4337709761454326 
0.5270533272522097 
0.0639698616221495 
-0.3756527678431425 
0.0460862598666069 
-0.3943764441903763 
0.008297286978358916 
-0.1590304248043342 
-0.5073349672108044 
0 
0.4786663916555404 
0 
0.110158482280162 
0.1172774889695145 
-0.2739784458574761 
0.0808662831837042 
-0.1837393790482814 
0.7386620754115175 
0.01708653648770172 
-0.04022453251313963 
-0.04988798121592605 
0.03088716932079453 
0.144552514467081 
0.08575660594751332 
-0.1689852802074779 
-0.03579120323759039 
-0.003332136565339626 
0.01924531045268486 
-0.06272383561573072 
0.07578992112167064 
-0.006967459847951435 
0.1823019920937701 
-0.121363265303738 
0 
0.2711196098742553 
0.103565994437025 
0.03042318891682972 
1.725522701046889 
-0.1042984336199229 
0 
-0.03908874295654487 
0.2080610754079425 
-0.3967184828146609 
0.7459818186397112 
0.03811960923027866 
0.4910315864413095 
0.2473022792824591 
0.01615889821562176 
0.09716642192380126 
0.08105002187360148 
0.2932038018149992 
-0.005072259329720471 
-0.261625828070911 
-0.05927103862488482 
-0.6076543227220643 
-0.6831734332172381 
0.1058126964541454 
0.01433625159295021 
-0.6371583712637918 
-0.02927497290499505 
0.06280099944302066 
-0.2327609674735527 
0.1183061014184573 
-0.0191313961743078 
0.09659596848529704 
-0.1319843076369899 
-0.08349241084534868 
-0.04445137883324609 
0.009191877172542016 
-0.5038281906486145 
0.06795168129552452 
0.05334468309951908 
-0.2241062151858526 
-0.08666836880127476 
0.03758333750659137 
0.4433893374170433 
0 
-0.7065509995953989 
0.1264971573892044 
-0.1362069416271225 
-0.08194931188547593 
-1.046255188811457 
-0.1645782430668823 
-0.1525148217954078 
0.01526379949523857 
0.06443187282246131 
-0.03688884889002258 
0.0851157930513045 
1.252757669902195 
-0.2064452924994565 
0.2223032942737619 
-0.3801302172383846 
-0.03307970895508293 
1.815628177009107 
0.1536109436876565 
0.005883103453244649 
-0.01424231975809153 
-0.127883086240359 
0.009711389907664935 
-0.008958496916805855 
-0.3947106105801799 
-0.2941125299721474 
-0.31992752886465 
0 
0.002087829118416152 
-0.06484215257927377 
0.51321979013522 
0.09225161545941997 
-0.02969737538271971 
0.339963651290831 
-0.4431993283125258 
-0.2349370796228411 
0.01280862962374632 
0.300843864110328 
0.0008091550009840276 
-0.05337873576929875 
-0.5399712954622247 
0 
-0.1284616440373894 
-0.1582791616593379 
0.3198181330467798 
-0.2361613242280175 
0.005244418573194898 
-0.08675193942517523 
0.1734114559634506 
-0.2813336991491573 
-0.4599891388665653 
-0.04118312933766562 
0 
0.03817818138294249 
0 
-0.1839888945626271 
0 
-0.0365520544497353 
0 
0.6644574105705736 
1.209342443112857 
0 
0.1968652559208929 
-0.2280281776282766 
-0.02736441480000656 
0.03308777712898373 
-0.1860379358940411 
0.007049873782761968 
-0.08272132269094341 
0.1863036592706253 
-0.3175431571802332 
1.017283757217939 
0 
-0.008607298081292031 
0.06085978590087325 
-0.2393058535313036 
-0.08026893658703857 
0.2622076518317203 
0.03660040802728808 
0.5605268375386642 
-0.2272389940010445 
-0.007126606925437309 
0.1491842365190348 
0.008513542946229016 
-0.3969998588068056 
-0.2277627250559325 
-0.03252372923459089 
-0.00600224212910052 
0.1515978718649653 
-0.2094399575180935 
0.01288045830703815 
0.1008161555266754 
0.1338890397663428 
0.07672135511206785 
-0.020698720298476 
-0.249416556801045 
6.718170973796286e-05 
0.1970067321011635 
-0.7082123695487976 
-0.1031621683329044 
-0.08179709520684628 
-0.385704776280324 
-0.7130861128882281 
0.006044621817383022 
-0.1384022453792638 
-0.377291131265131 
0.01904733391437062 
0.09247672426040038 
-0.009949817572821559 
-0.06609922060649348 
1.774610214206022 
0 
0.05082945152113993 
0.1908562413432935 
2.087977142875883 
0.5914704736366398 
-0.01223525164194608 
-0.7886780898898648 
-0.06910383631435753 
0.1825654118440711 
0.279120053075504 
0.03448909446533505 
0.04742251693875132 
0.1486517459067012 
0.08518873546419781 
-0.04811159428306987 
-0.0427641672504267 
0 
0.2424647924619649 
0.03010925372153545 
0.1491757110681332 
0.02304952363443413 
0 
0.2277388114129184 
-0.02152962007830846 
0.04257586311152187 
0.007371805300546506 
-0.05549716922466214 
0.04469668790647291 
0.01044442844290114 
-0.323621533550162 
0.473155608435756 
-0.02033864718433953 
-0.1791410798071087 
0.1183905433409297 
0.2705331556131562 
-0.322961091130946 
0 
-0.1111628332971462 
0 
0 
-0.04022056332706759 
-0.02601700501041779 
-0.6150501447710206 
0.00688429419384427 
0.0140505210655005 
-0.01063336988216449 
0 
0 
0.003003090824860599 
0.09360236336900431 
0.1209388836900679 
-0.4718409597948633 
-0.04269514717509473 
0.00413746549298903 
-0.3656746069022042 
-0.02112948201732998 
-0.2049185923293075 
-0.0739778655084869 
0.2132053749544171 
0.09546804800454725 
-0.03168017273517865 
-0.5821439571856533 
0.04649911533809889 
-0.06080056333017208 
0.2369269133236324 
0.3314301486567927 
0.04146253247077475 
-0.002945086796856691 
0.05541542197766501 
0.0667164421371727 
-0.07908457260716265 
0 
-0.08136362969230072 
0.0175839295240909 
0.2305927114542662 
0.3389159929599819 
-0.120501218422728 
0.00362329117597532 
0.0007982247762275351 
-0.06554431061114407 
-0.02206018069876483 
0.005415658898830702 
0.5154214987987649 
0.3674620207078841 
-0.0773032155082409 
0.08218607304630765 
-0.07963406777809269 
0.3109184904428255 
-0.005420034528666105 
-0.02451746337665607 
-0.1949816679527536 
0 
0.006644754022742557 
0.117765758982017 
-0.8626175185434988 
0.08025329044692926 
-0.8790553611438481 
-0.2427171919624754 
0.1048380141904428 
0.1573748521161647 
0.0146669232978744 
-0.3405000714245964 
0.003837727437432024 
-0.125726321964213 
0.1044497836671343 
-0.4240365069539478 
0.3370723165112198 
-0.2798702659271908 
-0.08774331604818406 
0.0427990546078905 
0.07402898312470088 
0 
0 
-0.2456396337584212 
-0.001815273214773957 
0.1174924743600072 
0.04508087441651069 
0.5986689447036933 
-0.519650956479321 
0.02611910761761362 
-0.3150636858339981 
-0.02204231125469177 
0.1797322327838292 
0.01589814251773508 
0.1800912674530561 
0.001399308141039052 
0.005814677807139841 
-0.4951911590172996 
0 
0.1212013108019141 
-0.2619267262817713 
-0.02858382553147064 
0.03572467284890549 
-0.4675587606070141 
-0.01636151533546007 
0 
-0.2885211023554033 
0.2443937752829466 
0.08686541113429953 
0.2002523319731936 
-0.01064116582899264 
0.009616511220419396 
-0.0873275392033236 
0.1758313960443554 
-0.3332059818079166 
0 
0.002566753099288728 
0.1101051012498632 
-0.05416396324140866 
0.3258485871140178 
1.011538505279302 
-0.1969151709164036 
-0.5755693509178448 
0 
-0.02534951541575146 
0.0626791293460027 
-0.07734536581019759 
0 
-0.005748979444688706 
0.004866021089831347 
0.01127210512927228 
0.006513935379540149 
-0.03381482097773649 
-0.1072729122295137 
-0.1049592622570598 
-0.0483523705299822 
-0.6543410500731276 
-0.1905105670152041 
0.1493724313090994 
-0.3057772523325108 
-0.0005708841368798411 
-0.5605152803914834 
0.6293375191995519 
0.2884125595082371 
0.7877058393396082 
0.5234550664428121 
-0.02112122245879081 
0 
-0.004272569592180388 
0 
-0.1299379745955686 
-0.6930438400923865 
0.5414938187618551 
-0.1400044103332503 
0.5717986692034928 
0.03173129185037128 
0.1786416457577213 
0 
0.2207739373097597 
-0.1130233232990341 
-0.01186022684457197 
-0.007078677928889135 
0.07860478326562491 
-0.2260779775766447 
-0.002663476642973721 
0.7086755048253376 
0.0726438440423617 
0.359822570864465 
0.01409184027461327 
-0.04439738308109298 
0.2355695027855992 
-0.008507155430270211 
-0.04288232332507082 
0.0106093099210832 
-0.159719353822343 
0.06840308708636679 
0.1666688163196798 
0.0387878437850388 
-0.3207346463253874 
0.08482911858329417 
-0.3421593138874871 
-0.0383491922261885 
0 
0.1410071180038726 
0.1299317856206362 
1.254563655571235 
0.2307443602519181 
-0.2475753040189766 
-0.01247583039830637 
0.007497211666716968 
0.358897715701607 
-0.1601129664599605 
-0.08078948919187016 
-0.3911993120613678 
0.1370683572283564 
0 
-0.00163969742301781 
-0.002232308556705859 
-0.002941615766783202 
0.007988382971849468 
-0.01396774668297623 
0.6942009365804916 
0 
1.218403007191649 
0.01195457845738243 
0.001461836630925776 
0.0521311429019634 
-0.01460536404639416 
-0.1375120431147037 
0.121203047735107 
0 
-0.09930924668729378 
0.275185469199501 
0.4214900581873526 
0 
1.168276277780052 
-0.08911174305526194 
-0.1844458505766707 
-0.2715397392668846 
0 
0.01065039275081999 
0.2508855012116911 
0.1360014516595307 
-0.2720667409566905 
-0.06196811562826628 
-0.02425637948528936 
0.04524927309841786 
-0.2677289222367232 
-0.1082972428784876 
0.09736413854488503 
0.01562391088164648 
-0.173816637277184 
-0.3528171335173976 
-0.1689849415478207 
-0.1687818574287009 
0.2788442956354265 
-0.260731307980748 
0.8753058786335156 
1.098143170648182 
-1.319130736387224 
-0.3347165555178451 
0.02999412531033344 
0.2781574834137605 
0.3871587347237951 
1.187374288679909 
0.0008080960288174843 
0 
-0.1900075846589128 
0.004862027580938007 
-0.01452191227880271 
0.04243974446630498 
-0.02118908106188067 
0.1500474477720457 
0 
-0.000580080294494031 
0.03249763933067651 
0.05890177786633501 
3.531602952404345e-06 
0 
-0.3906872858859283 
-0.01235002446870967 
0.1213475395225511 
-0.0738223881352119 
0 
-0.1490099333778091 
-0.2817825443218152 
0.03006043233555821 
0 
0.08645634313475541 
0 
-0.3197853503513097 
0.3764392408323056 
0.6228106637211862 
-0.2728224838738117 
1.722631472987668 
-0.2273680943227748 
0.002985296474889564 
0 
-0.07017512095852763 
-0.05314516919579437 
-0.03008218944709996 
-0.1045886323156703 
-0.04003828578263666 
-1.834453577190475 
0.37258671284645 
0.01642710336745152 
-0.1070752868960647 
0.3709183750508824 
0 
0.2920659614444789 
-0.1622552185007188 
-0.5889316982942437 
0.1003547023816827 
0.1103488672301849 
-0.2982371545757334 
-0.00191668278427667 
0.09715111732903325 
0.1932317535866188 
-0.2415205103134471 
0.1918613193027741 
0.03744682238957568 
0 
0 
-0.03672405152576037 
-0.7060547867886968 
0.01911142943461708 
0.02277581635528605 
-0.1507432314276421 
0.06669742793476154 
0.02074679528490059 
0.01144105514289858 
0.0249127390824172 
0.3199046065598207 
-0.176456807105303 
-1.46159736917529 
-0.0467621044248416 
-0.366141711295236 
0 
-0.1784155347197779 
-0.01618689642164971 
0.08068337732806805 
0 
0.09227056114318535 
-0.2821668772771226 
-0.1098831615293962 
-0.2357783224588481 
0.6252050268901781 
0 
-0.1690516121927144 
-1.126513627389619 
-0.0607313277962365 
-0.004519092009852436 
-0.02462879587576595 
0.5444027421520956 
-0.06126432913298965 
0.1795814897355771 
-0.01690351470766036 
-0.1892801373010141 
-0.3980109973881713 
-0.001422665874834291 
0.02229337271940323 
-0.8851202438217488 
0.1758382970183411 
0 
0.01188557359515009 
-0.05121051960845879 
-0.04805544376794815 
0.146046627156751 
-0.05805103246836057 
0.4470656361619312 
0.06214507908198753 
0.1115410380225808 
0.08686542492418689 
0.2083327991700385 
0 
-0.09260879079143804 
-0.5950173991893939 
-0.7897761643756437 
0 
-0.386939800727976 
0.2032781605365066 
-0.09884432822404372 
-0.0106686397835625 
-0.03105093402369086 
-0.04954628426822762 
0.1223679649286887 
-0.02396124031070652 
1.74042098710678 
0 
-0.2881137798233847 
-0.05331390190264911 
0.01370350645301133 
0.611862199455414 
-0.3998209945967531 
-0.1217783722152461 
-0.217319063787852 
0 
-0.01953196836839299 
-0.131324039460423 
-0.01418053105389424 
0.01286528091951924 
0.007704969876158887 
-0.05527150536259505 
1.323076426142016 
0.07455318704842204 
0.02172916253550724 
0.4432981377365776 
-0.09783663395634468 
-0.01720491973068849 
0.5651535863758937 
-0.6817389907645388 
0.5006120615814199 
-1.204059496118706 
-0.01485891170667809 
0.1482929175175708 
0.001627536303686561 
-0.1637992735626564 
-0.001299865810081457 
0.00145615232529449 
0.125887152223271 
0 
0.6364672914325382 
-0.0501068939325764 
-0.1518425837910749 
0.02277965160513829 
-0.0005208652290582738 
0.06572720873358688 
0.006162373120910131 
-0.004835729348843011 
-0.8059735976851797 
0.01889935061944552 
-0.1599262996246453 
-1.794605243740453 
0.006459231088056155 
0.4524203356849898 
1.198394628142877 
0.06718466917729195 
-0.03961876172334981 
0 
-0.09769609314773268 
-0.001643604276696016 
0.01645371077671913 
0.05871435892947779 
0.1466637490470636 
-0.03811774250732388 
0.8058592350845892 
0 
1.284242757891067 
0.4482633068570375 
-0.01220263609612304 
0 
-0.03246610402825605 
-0.008334074460184668 
0.1751760570348009 
-0.008003738783688215 
0 
-0.04140005398869416 
0.01526453626246875 
0.07741353619914602 
-0.1345931254946494 
0 
-0.2508619278846086 
-0.1702685746069256 
-0.5886377713605461 
0.02428359341634637 
0 
0.01194860221179249 
0 
-0.01203356647944676 
0.2620321972513415 
-0.05288104192323535 
-0.3516953040211561 
-0.8350690138794717 
0.02888596665206075 
0.9837036231144126 
0.5878227752338147 
-0.4098573740773688 
-0.4278680382957087 
-0.7856279792382801 
0 
0.08192560740037186 
-0.185095503386164 
-0.1950656652849944 
-0.03482724060615126 
-0.002376794364124204 
0.003316591379304428 
-0.000476295841646112 
0.5691190339755409 
-0.003976898934053015 
0.5875151957224423 
-0.3911130516452455 
-0.2648425439421785 
-0.004574200610318866 
-0.01030959176185353 
-0.08808393469504498 
0.4044724533433754 
-0.5197802492902984 
-0.02406365507159024 
0.2652117202940307 
0.0741132096602804 
0.6723756332788923 
1.762121813738333 
0.3149827347014303 
0.2075518178274071 
-0.6256894558521139 
-0.01925480145280755 
-0.02783927182563603 
-0.3047873440358989 
0.1206661048211719 
0.04988889823374262 
0.0132495239954944 
0.01266383387312194 
-0.001246995496513063 
0 
-0.01462688559390929 
-0.03150256506535396 
0.08913933913210524 
-0.1338752081967908 
-0.1272346017977265 
0.07530986668033113 
-0.1719227172969156 
0 
0 
0.06753702694814272 
0.002224166300284438 
-0.07763678363204755 
-0.004819201675084718 
-0.1857247582076678 
0.2334580482641674 
0.01475088369914253 
0 
0.6379496767311169 
-0.1075317877889742 
-0.01097977804395088 
-0.8608759521377348 
0 
0.7656200686169624 
0.09596245461070543 
0.1477673767414791 
0.06329920599013161 
-0.07477194357555278 
0.09108993984258761 
-0.1171606666643957 
-0.003874259065724173 
-0.08434051728814877 
-0.003684578116674627 
0.2892996595880593 
0.1073516746975518 
-1.240357040004511 
0.1301276314446404 
0.01427835011635718 
-0.1845418887491218 
0.02623491251515466 
-0.380719134440187 
0.09259868557069126 
-0.03733224629865425 
0.2988777965764642 
0.00181458535744166 
-0.4333141038798113 
-0.008873060424241767 
0.06956812167814051 
-0.01933053373582356 
0.01104663216288431 
0.04442666413670894 
0.8799224254489719 
-0.022576419407836 
0.004821104451588443 
-0.113188237988226 
-0.0776954555815639 
1.659513345230795 
0.3350010630821062 
0 
0 
-0.001411073566786068 
0.004804946764333047 
-0.1896283081884132 
0.03095172664615075 
0.1543837299738131 
0.1900425238442814 
0.02009400711657477 
0.02872858626655267 
0.4274153869227603 
0.06104647875745977 
0.004285657276152793 
-0.1357537261183734 
0.5377431598074954 
-0.1605030572916002 
0.1174344133815937 
0.02910373498655462 
-0.02881235609930794 
0.05204423262216465 
0.2743602617235954 
0 
0.1764215904471127 
-0.001610323402864967 
0.01279342821714039 
0.01866952858026904 
0.02978322155379429 
-0.1442049431648137 
0.4160350949249761 
-0.04622611210129728 
0.001815132352824757 
0 
0 
-0.04592648536076405 
-0.03764998835224858 
0.573614264288784 
-0.4363382539359584 
-0.0461766758880257 
0.002709407617584112 
0 
0.01432490054908005 
0 
0 
0.006142173928884615 
0.0002078121294388589 
-0.001898720560924822 
0.004420964062246178 
0.004466542270960596 
-0.6902285791302969 
0 
-0.2666737872178483 
0.1490839390053921 
0.3753662030313337 
0 
0 
-0.02656537593238504 
-0.006368878668937334 
0.2073124575632817 
1.112733915655811 
0.1724113610479867 
-0.009188256892112084 
-2.565182299951035 
-0.04370073175737843 
-0.06898261552224558 
0.199278316606839 
0.1862308130363824 
0.05169272100467429 
0 
0.03419415947496404 
-0.09752108897610705 
-0.02793708879366052 
0.0657889965720926 
0.004431219885980282 
0.1291960352082459 
-0.3713358606713212 
0.273507893104533 
-0.0321297288995229 
-0.07932130224651411 
-0.02471809394525183 
0.003502552597988283 
0.1930164057648091 
-0.2029924294291328 
0.09498797001260322 
0.1410094558853618 
-0.04607379751450574 
0.1353993101759423 
0.002525085113590907 
0 
0.05170635297191883 
-0.04727468174788886 
0.3389892206025972 
-0.09410266549517654 
0.5654002546670511 
0.3403179648906192 
0.01200553452423982 
0.008852931701756385 
0 
0.003126278189097081 
-0.03051790883461371 
-0.1048613781307992 
-0.05552867737361133 
-0.2346387039060788 
2.308150362035388 
-0.07378641766750126 
-0.06073599588522154 
0.1212703850969327 
0 
-0.0119536517119174 
-0.08857366921835363 
0.2962734374821576 
0.40791126946349 
-0.4227905312718304 
0 
-0.3834045827686237 
0.2063622802740883 
-0.1494333830001973 
-0.04644283057507554 
-0.006194465625616426 
-0.6343135288009923 
0.05851227610569297 
0.07753563092682599 
0 
-0.09096190157964364 
0.5779355202262065 
0.1318621950752947 
-0.9010983627220698 
0.008705042479555858 
-0.3614265467125715 
0.03893330856046077 
0 
0.1648221950664717 
0.2230761646866531 
0 
-0.08393050194498108 
0.1978913331927961 
-0.003483564987296433 
-0.02594672316886167 
-0.002467153464758468 
0 
0.239604887125849 
-0.4243999108987 
-0.02484041332028333 
0.5102253513410998 
-0.08781882074950099 
0.03581270384160533 
0 
-0.3134848341366397 
-0.03628591460693543 
0.6603107956995898 
0 
0 
0.05546571063744639 
0.3957126845306284 
-0.01558521240435116 
0.2922502684413953 
0.3271459504339045 
1.49670702082618 
-0.2103783138571441 
-0.04414318113318121 
-0.0002814651768707796 
0.03657363199409504 
0.06266875838830854 
-0.5438113381721736 
-0.01877566433337933 
0.09655116783391543 
0.01419383014715833 
0.03086236705837744 
0.005834989336506984 
-0.1110542151682442 
0.02150452982333232 
0.1329248308212125 
-0.06503400455026301 
0.4455929184974718 
0.2420848394237036 
0.08974028499607131 
0.924948378076547 
0.008058147365615212 
0.008043521700938722 
0.09891854260712482 
0 
0 
0 
-0.7773435239376372 
0.1405514065217348 
0.1550278806783871 
0.9657004087321976 
-0.08249171455591954 
0.003662046960912721 
-0.04498290707381817 
0.2536073342561406 
-0.06508973942564862 
0 
0.2778892740316953 
0.2845267139532342 
-0.5833170531096302 
0.1511427043997037 
0 
-0.3620299094558146 
0.01831256421813755 
0 
-0.4828554768995302 
0.002836936563102451 
0 
0.008997386457954754 
-0.00304980121868834 
1.421377680351127 
0.02133986337748589 
0.02313159172710839 
0.06312274385565615 
0.02246974481287618 
-0.005710076797094003 
0 
-0.004481243653560181 
-0.1852831035220054 
-0.02218009668780863 
0 
0.0002376900004917269 
-0.3512233329161454 
0 
-0.1515480873910655 
-0.9059602148849739 
0 
0.09330002649341324 
-0.04612370267348236 
0 
-0.01962847874749597 
-0.001607283694240672 
0 
0 
0.01065861429782842 
0.02916724215999976 
0.1453544730006069 
0.1530266741653269 
-0.391452805502456 
0 
0.1193929423008611 
-0.3903445443744232 
0.01436646047604916 
0.04874773692365416 
-0.628858184431795 
0.2864491251161601 
-0.4901587369449708 
-0.02274157902504439 
0 
0.01317922010626831 
-0.133590210550264 
0.001355642456480715 
0.2890790364229351 
0.01024294911560712 
0.1032335833360514 
-0.1514383721474965 
0.001347240278687038 
-0.02626945227370927 
0.5227561778100867 
-0.5420944180554795 
-0.1159048097620516 
0 
0 
0 
0.930810345838197 
0 
0.01977210682768573 
-0.2413050872693348 
0 
-0.3388927683197464 
0.2855034210919746 
-0.270020773017156 
0.04221884914620602 
0 
-0.2069025797749164 
0 
0.02777971150855194 
-0.07834068162408191 
0.05816901233834551 
0.07565576481170216 
-0.0001949649162852458 
-0.07527851667065379 
0 
-0.0427338956088549 
-0.4978394264496837 
-0.007261268920603401 
-0.1830134625468676 
1.331077550485451 
0.4968794758596816 
0.251865717614444 
0.7554770654472243 
0.05950266418698111 
0.501858581066523 
-0.2552523869777451 
0.02583973318671915 
0.411464873037686 
-0.2821921871296475 
-0.01284300191964957 
0.1969911600533486 
0.07863241585509742 
0.1856316291433725 
0.03036567700504851 
0.1867785761055584 
-0.06033470009725573 
0.01561511874237437 
0.01038602289773577 
-0.3763178632763799 
0.2040954373803345 
-0.2523341372799244 
-0.02891049481489125 
0.7379448484571899 
-0.00436510313162296 
0.2036182790365486 
0.009485426605678512 
-0.06311071818753015 
0.04166790808543686 
0.001535812719574486 
-0.4874464155310919 
0.7132960030625305 
0.03700153682691199 
0 
-0.0403270627121764 
0.04889090234765722 
0 
0.2704474443617787 
0.002847407062764026 
0.00432176181628767 
-0.09193434574264991 
0 
0.006426819015964973 
0.008208619795880213 
-0.1002448732239077 
0.1786081679736724 
0.07114257613358925 
-0.01649611978604543 
0.08967894141835335 
0.06486585434585021 
-0.1239843359192234 
-0.2227970614097137 
0.1116029724920432 
0.007688349946107846 
-0.01985566349303584 
-0.09248456491119177 
-0.1164913437667281 
-0.2221418112755252 
-0.4278848257989978 
0.1703467264177757 
0.01213829617230372 
0 
0.5743030922380895 
0.08793679275741512 
-0.2886167473147035 
0.01044310623686587 
0 
-0.7957276433608786 
0 
-0.08226525910363858 
0.0005018141173385838 
0.07086786420615537 
-0.002449474788777083 
-0.02572920114606674 
0.00231043960886511 
-0.3833801890157597 
0.1428182086466016 
0 
0.1756498636464469 
0.7112763348931085 
0 
-0.1402020111260512 
-0.01243194093796806 
1.050216855624027 
0.004779574560481874 
0 
1.259551081299919 
0.159104507055645 
0.03613951916303775 
-0.1046953707622105 
0 
-0.504209216711985 
0.09082751873062188 
0.02177981464114506 
0.00318454371803239 
-0.09534711239949763 
-0.1046338355137399 
0 
-0.01529082558948619 
-0.8231424966822716 
0.08637718762931995 
-0.003210262397222531 
-0.1154836334410178 
-0.3248387275300728 
0.2261820380079178 
-1.004138849619726 
-0.348077605292079 
-0.1036856493171626 
0 
0.007095617324103279 
0.05607244398337383 
0.05165261655501004 
0.9356923100118969 
0.4310450180273635 
0.009692292656827599 
0 
0.6170345217749607 
0.1253488212502604 
0 
0.7975892780335259 
0.03267364046275497 
0.4841578156829895 
-0.07370474994265624 
0 
0 
0.1634636086940389 
-0.07072085084725634 
-0.3646883558017027 
0.009214951411206358 
-0.3184239224671915 
-0.03271126155854657 
-0.01532948174254022 
-0.1077329436612104 
-0.04563030179550101 
0 
0.02645876752249166 
-0.1166623780724051 
-1.203489365207451 
0.2934734617619854 
0.01087185506327052 
0.1714665095391607 
-1.232663189235234 
-0.2803990361991351 
-0.01403980559109986 
0.0407639460921115 
0.5035701922825553 
-0.1009546334674834 
0.07148953562440769 
-0.6847712792303372 
0 
0 
0.04125490536514176 
-0.02118599843402406 
0 
-0.004856508469309561 
-0.1131074606878376 
0 
0 
-0.00237386882085585 
-0.153682150981278 
-0.587716400533549 
-0.03115375555789612 
-0.01460069946586926 
-0.1553383887918212 
0.04024034380276621 
0.0104703043359772 
-0.003255222072964363 
0.00789999237218536 
-0.02564083137856113 
-0.01956556565768828 
0.02912970839452663 
0.1188231289977335 
-0.1703377847656037 
-0.06684836644532796 
0.2499184958883965 
0.0968105035926885 
-0.4786345286883938 
-1.283553651138394 
0 
0.07483055122825846 
0.8107627804650497 
0.001660234881487527 
0.9540067699389546 
0.005790443868857031 
-0.7235858191616364 
0.05355326643910777 
0 
-0.1256948975069311 
0.04769053007514705 
0 
0.04684284209201375 
0.04870303392823639 
-0.08703452516133946 
-0.03075444595027575 
0 
-0.006655858075864714 
1.600214198477858 
-0.3196597618486806 
0.02645865157333022 
0.8965662498097673 
-0.36686103505714 
-0.6553490620649506 
0 
0 
0.5624123077066634 
0.006052874302549159 
-0.3831723038718175 
0.9847740904163875 
0 
0.1594964047639363 
-0.1029662848776944 
-0.1570899150093472 
0.02633850192344911 
0 
0 
-0.02349214812839933 
-0.1691360302583694 
-0.05161339774347989 
0.03222989059941103 
-0.02732419268137686 
0 
0.002567605633801677 
-0.05316676182174971 
0 
0 
-0.03704398072469763 
0.008419354714146031 
0.01014985915447826 
0 
-0.08568863953992903 
-0.2821964498772263 
-0.4833106494992949 
0 
0 
-0.1705243543859998 
-0.02473505640538883 
-0.1830341353631155 
-0.1179643236507324 
0 
-0.4299931486815841 
0 
-0.4911443212938772 
0.2271803862648371 
-0.07303289361404444 
0 
0.1097931852374975 
-0.003306741462277235 
0.2381588582193824 
-0.2938997573124313 
-0.3572918697162508 
0.004686098007035119 
-0.2986959930583836 
-0.181825887041019 
-0.6803253970711923 
0.06901505743316332 
-0.05292423740631247 
-0.3896088274799497 
0.03602123832418028 
-0.02357546304269661 
0.7367460497073843 
-0.07320578455757382 
0.3248258590170719 
0 
0 
0.01465601037094763 
0.1964830221392033 
0 
-0.3081102339245687 
0 
0.005714837739497105 
-0.08209954821341363 
0.08258685524827772 
-0.008139048431835284 
-0.0007357506556097343 
0.02825358906857922 
0.01387174178479054 
-0.06247909610406849 
0 
-0.1944565139895418 
0.02887054671462674 
-0.03442791787200573 
0.005018827506189353 
0 
0 
0.228563795204846 
0 
0.06758132589545586 
0 
1.255952993240432 
-0.03960791755147216 
0 
0 
0.1437499204280304 
-0.009585262006682884 
1.064061448333377 
0.05940602725536056 
-0.101591202163143 
0 
-0.1399968563036499 
-0.01568172708953508 
0 
0.9794204196573666 
-0.05156182399807302 
0.6289638466479299 
0 
-0.4243233977598002 
-0.05683242915361683 
-0.9377217787286187 
-0.06208532518201796 
0.1418717715245548 
0.47280102034912 
0 
-0.3478269978680353 
0.01320693673706741 
-0.5851910210986296 
0 
-0.4354498319545882 
-0.01917178490961937 
-0.3076870451464092 
0.3266626647046862 
-0.4965754564415601 
0.2203235431255781 
0.04657638509332746 
0.7911194289190663 
-0.589343987238533 
0 
-0.4527410138115883 
0.1212281822437635 
-0.1418290096668622 
-0.1478780019987996 
0.1646491152981772 
-0.5521270239990597 
-0.1402574362427539 
-0.03808579596896065 
0.4154855874358117 
0.4955897616667734 
0.07578591294375138 
0.1386889371153491 
0.00160439047309868 
-0.02594362813225474 
-0.2477784714737519 
-0.004384533951897484 
-0.00680568932057512 
-0.04572022374037726 
-0.0008374307493731123 
0.2248976690790826 
0.05382711666217516 
0.01963482934174149 
0.02424074017096502 
0 
-0.001655921247424211 
-0.126382961793001 
0.2496175790405415 
0.1277015572481626 
-0.3988980388895649 
0.00729225750677431 
0 
0.008620317376686846 
0 
0.1286341691383669 
0 
0.2510087876088181 
-0.0009818688368557153 
0.04852796451672416 
0 
-0.0001674895461141685 
-0.02518680237097869 
-0.1724202093101782 
-0.7513131256885396 
0 
-0.5782904164746973 
0.003424413755734703 
0.01939669903213073 
0.5879154434779504 
0 
0 
0 
0.3012374168605726 
-0.4225869844886073 
0.3051591319775436 
-0.01604150182997036 
-0.0002364505376682598 
0.01441260915904698 
0.3427771567677734 
0.004071747371162155 
-0.05953726854244448 
-0.1876204088044933 
0 
-0.09031586061456065 
0.02309989380290047 
0.009066579233778538 
0.05368253882782477 
0.2990417085850808 
0 
0 
0.02113088470902906 
-0.2994236467405122 
-0.3006838578532699 
0.121567297758996 
0.006665110640506128 
0 
0.06425657680110732 
-0.1006869484700336 
0.8969982464022076 
0.2535122355124434 
0 
0 
0.006075175213524787 
-0.0001883747176903323 
0 
0 
-0.2745907836694814 
0.001266328985180623 
0.03493710844325865 
0 
0.09299023702199595 
-0.2607447316554279 
0 
-0.0270436786779063 
0.02042662989495525 
0 
0.01355506475803789 
0.02162821179724698 
-1.22431085304878 
0 
-0.4139861799310834 
-0.09715209929780456 
-0.1287229432364928 
0.05802018661910777 
0.1571998688887038 
0 
0 
0.0230344641822083 
0.06061339878797296 
0.007934022584837752 
0.01652607740280299 
-0.06991684868255883 
0.05517148117559538 
0 
-0.621700017077557 
0.1222594153197405 
0 
0.05243298919789539 
-0.2614995519415872 
0.1316507227353278 
-0.3077863218806096 
0.02217062825429996 
0.7447338168567257 
0 
0.03301387236116177 
-0.07303270575539694 
0 
-0.05375360948952162 
0 
0.3522771070709442 
-0.04580133084155707 
0 
0.02358363633197469 
0.004134969487688398 
0.009927089992414154 
0 
0.04584518486933151 
0 
-0.008816183303214318 
0 
1.011833199070716 
0.0132988812327501 
0.2221728361097713 
-0.5486768770542301 
-0.170590251226892 
-0.01149008588185106 
0.5105224638263247 
0.2462401504551641 
0.057178833746848 
0.01103360727634271 
-0.1933949457439216 
-0.5130243939836215 
0.03393273277723283 
0.4161300444431832 
-0.2759041112624225 
0.1149365364062731 
-0.03677396654151532 
1.257396227921324 
0 
-0.01494971526196179 
0.1247752699233118 
-0.2075252757422223 
0 
0.01426767522530949 
0.2671022443051987 
-0.03114705334824686 
0.03538641655216243 
0.01153500577389317 
0 
0.01610859865222344 
0 
0 
-0.3511315130020441 
0.01774052597316412 
-0.1392158450348472 
0.02404896453194224 
0.01235865527469838 
-0.3409183575129822 
0.1385195117761535 
0.3035691407455874 
0 
-0.1822741082650127 
-0.9784450871440371 
-0.09406112466782746 
0.6417469998146762 
0.01800346476679048 
0.09231768140637674 
0.007991476413426882 
0.5175010106921947 
0.4348959311971548 
0 
0.06326480243742492 
1.398196759102769 
0.08894773492515269 
-0.05060380882915958 
-0.09500449995569779 
-0.1022367016566758 
-0.0718363492622361 
-0.00590460186624052 
-0.0598971460207748 
-0.1174650533586878 
1.26724687499753 
0.1309103685014266 
0 
0.1009971672366265 
-0.5624301905269083 
0 
0.01200474986166174 
-0.1542417512220285 
0 
-0.03985838444461458 
0.07252949427309892 
0.01690333835150258 
0.1185693423421781 
0 
-0.02352326249755887 
1.048865448756525 
0.3402373929533292 
0 
0.1576113804917844 
0.4939897413953218 
0 
-0.1122423424593136 
0.03229582763233656 
-0.02686314058437639 
0 
0.2988809528880262 
-0.0718880834250836 
0 
-0.3867768386546739 
0.01631462305853724 
0.1338221670178874 
-0.2073400030978016 
0.03305814373778378 
-0.01925595234510926 
0 
0.1067054097300084 
0 
1.115958459846657 
-0.258427768601002 
0.0708892342947826 
-0.1062015678563051 
-0.2756781336350212 
0 
-0.7349993564154175 
-0.02697392462094942 
-0.04810865563517401 
0.0906689409299339 
1.42944016781061 
0.01964253379040113 
-0.3015515900490193 
0.120258891492682 
0.002783540131279529 
0 
0.3839801959451387 
-0.01702660932462145 
-0.1103955464987791 
0.06344876161359034 
-0.01798382387674963 
0 
0.0242330265102923 
-0.07531919300475054 
-0.294408332680394 
-0.0100697243644951 
-0.1286447522841419 
0.5097866800248322 
0.004268721609365738 
0.7418842330105379 
7.925227920437057e-05 
0.1241110057587058 
0.0003165874515944064 
-0.01304674033247905 
0.005328370221376727 
1.126847791313579 
-0.08559071511927001 
0.1167894987501706 
0.0688403658642629 
0.02633591011667747 
0.01117809323478045 
1.233738531995665 
0.05721200611507253 
0 
0.01783711007284604 
-0.1299036732840727 
0.4759207153084394 
0 
0.01830194843803509 
-0.03666940247750958 
-0.1714545644847744 
0.4069833562590432 
0.381870154046362 
0 
0.05251897958936631 
0.6354592092931928 
0 
-0.03670910889322181 
-0.007276822033358082 
-0.003736223357257228 
-0.5677886492906955 
0.03667373925037812 
1.171710449361131 
0.04296975791312599 
0.01514100113316979 
0.1361222391229794 
-0.4933687161984903 
-0.01707933904629588 
-0.02695012418161289 
-0.406609031550186 
0 
0.05621057367464438 
0.01880581893685734 
0 
0 
0.1928531055340779 
0.02355439648590857 
0.01575834754694849 
0.1969429951441496 
-0.03842346325193085 
0.0218590208105654 
0.04427546099729145 
0 
-0.04234687488502233 
0.01567685872710349 
-0.02650201611235193 
-0.1325157548675474 
0 
0.2549234900559004 
-0.184977835428052 
-0.2066469747603909 
-0.07350877977831934 
-0.2802599859302317 
0.7614760746067343 
0.07695052825776112 
0.05574519928580801 
0.2365032939023129 
-0.004012326297028854 
-0.03738061809255738 
0.2169140974701848 
0 
-0.02763594921623976 
0.08019566763086421 
-0.02317095058804233 
-0.04163286703662031 
-0.008464280995736193 
-0.002839673005024641 
0.0419429643614463 
0 
-0.04590636475123906 
0 
0.08352918530349505 
-0.3276141142418646 
0.7080502772135957 
-0.172721159965146 
-0.0238552922799736 
-0.119914168818689 
-0.3474445284764242 
-0.08318379131145784 
0.06769880449062549 
-0.2717663483457781 
0.02419100933005632 
-0.002930318796290659 
0.1242244112291762 
-0.09312597839927679 
0 
0 
-0.08155641389087655 
0.071370721669183 
0 
0.3266177090261144 
0.06030682895101726 
-0.04696270940576406 
-0.02644595162356503 
-0.01861808357774512 
0.4509048257383704 
0.006816477922793614 
0.1970650933335703 
0.2255207580640696 
0 
-0.1338567677709434 
-0.3641328655107205 
1.677978166359835 
0.1716839415829989 
0.2085125380846884 
-0.01496858479114322 
0.006678534501046108 
0 
-0.006783534347897347 
-0.1550318452321813 
-0.2406530683098036 
0.04330952957893386 
-0.0403502366840012 
-0.8642128246116341 
-0.05040498833290687 
0 
0 
0.0009841030698847792 
0.051857109603279 
-0.127849015960367 
0.007539874416745701 
-0.02164418729022602 
-0.1275461384446099 
0 
-0.3616144639643618 
0.4630019922588512 
0 
0 
-0.1064131117563563 
0 
-0.1258115633004002 
0.1100415111333872 
0 
-0.0906722110911943 
0.009417780180238117 
0.01788787865660312 
0 
-0.114879303057041 
0.2353120135133411 
-0.05457231880224344 
0.4397420516040634 
0.00486778682732901 
0.04535373921883007 
0 
0 
0.02994578687334615 
-0.0003893735172906971 
0 
-0.06137251817177644 
-0.1168374786283503 
0.001724048661573696 
-0.4801852135720027 
0.02075449476789904 
-0.000876733606705244 
-0.1013684442379493 
-0.3387876579434872 
-0.001356268696088245 
0.08138525315926667 
0 
-0.005451372137541914 
0 
0.551675283510642 
-0.06406207453749355 
-0.07120888700331891 
0 
0.008441795172698443 
-0.0308012859152284 
0.4718525649601093 
0.1332858904172362 
0.7026744101677175 
-0.8968320596806794 
0.3155998125525185 
0 
0 
0.1549169666391923 
0 
0.1604863630219358 
0 
0.1019992406838799 
0.0465543504904212 
-0.0001787893905579479 
0.2386261653147946 
0 
0.3212687561205432 
-0.05448265817624966 
0 
-0.380963850751064 
-0.1877506417121467 
-0.1922013458695261 
-0.07079578879920714 
0.002454536275643086 
0.5023444819879642 
0.2286441265961955 
-0.04011796668780129 
0.1579338272717502 
-0.4944123538067004 
0.008950644763028915 
0.002421168967746835 
-0.05335263322117317 
-0.4897780537461865 
0.1625314055913847 
0 
-0.0470262510993289 
-0.4944489721476584 
0 
0.2595100731559797 
0 
1.001284398897187 
-0.0603121140794352 
-0.002349857686149415 
0.2181310341333587 
0 
0.6283709530085979 
1.431102244392668 
-0.02597974016866078 
0.02716173573806345 
0.001229176741987676 
-0.176937890571702 
-0.2483367413364758 
-0.001263043121639123 
0 
0 
1.637679290557554 
0.002000653218283631 
-0.163561355533942 
-0.3550683806995023 
-0.09875512956143997 
0.01710235628807181 
0.06658831804489193 
0.3065299170237887 
0.05313116611146169 
-0.0591810602747589 
0 
0.01768641613047195 
0.00032100055777632 
0 
-0.06128294456571345 
0 
-1.077387205793462 
-0.125539671375033 
0.1675181455639269 
0.07549885141681031 
-0.3976843009704152 
-0.1632274263879731 
0.102975609076338 
-0.1316192238079054 
-0.01825879043412343 
-0.1851582015385141 
0 
0.004315806728888581 
-0.07211111567710767 
0.04074454971674212 
0.5053308219473873 
0.5043484302160396 
0.03479797553421948 
0.07548505685695028 
0 
-0.1290738812370373 
0 
-0.3438058472466521 
-0.0842855137319698 
0.4147517725429054 
-0.1844574276302969 
0 
0.1018999251525787 
-0.0002276738792007551 
0 
0.01442255531749078 
0.07394185384150016 
-0.1751648633974677 
0.04192260461668794 
0.02377173775294165 
0.4424608605524854 
0.2115783981151869 
0.0212080028652421 
-0.1619330472683069 
0 
0.02383979156439102 
7.930585016293555e-05 
-0.29998421178271 
0.0433170829621553 
-0.5621330661225779 
1.34415472972639 
0.2138957274942338 
0 
0.008221243827766948 
0.08581576147875415 
1.172223256994122 
-0.002663598716877389 
-0.4728544412479773 
0 
0 
0.5393043464252711 
0 
-0.02490774651027696 
-0.04121516211861328 
-0.00437900185909203 
-0.05463905603464028 
0.2685681180356795 
0.3144612959815137 
0.1335590444273511 
-0.4592252582646593 
0.009497113568362924 
-0.04891577116706775 
0 
-0.03111956334977078 
0 
0.08480434425867923 
-1.953386564175337 
0.04434744293730784 
0 
0 
0 
-0.1837200345587348 
-0.008913953602838916 
0.0003189050776068269 
-0.1602942246660386 
0 
-0.1608186245152009 
0 
0.01604989498778187 
0.03219312302925607 
-0.1630229657830329 
-0.3482107827316357 
0 
0.01054464049268489 
0.001823004666919168 
-0.01100768303653559 
-0.1023457096722593 
0 
-0.01842239426972659 
-0.01219492562712815 
-0.1227392192636607 
-0.1141717506009228 
-0.0116472553544999 
0.2019618443717161 
-0.0906554179838715 
0 
0.02805537262150737 
0.1606177463033563 
0 
0.1325597006755092 
-0.004991075083877279 
0.02485540212802134 
-0.2202044957910498 
0 
0 
-0.009959036207910374 
0.01004807781847876 
0.1242562024602829 
0.4662249407137142 
0.1911230557523805 
-0.5072539730993115 
-0.07955117022385844 
0.03814901100035394 
1.485182327622974 
0 
0.06563957933326946 
0.2638669860818302 
0.431395496773483 
0.1114880509540532 
0 
-0.148393500234374 
0.001807955625037127 
-0.1515679251174441 
0.05643646376934893 
-0.08928419228046007 
-0.04972811843217032 
0.7569383795362964 
0.296045084512624 
0.009595922448534489 
-0.004566123059730191 
-0.1154405261443187 
0.0003597039050594133 
0.02113844234182429 
-0.2781136180765477 
-0.1868087987452517 
-0.01217025496280086 
0.09454147952023294 
-0.6397136712436963 
0 
0.1126004133438809 
0.03489350003021805 
0.421842769745361 
-0.1871576062308621 
0 
-0.3695435354576788 
-0.1519821034711996 
-0.2060953846221921 
-0.2954550940135195 
0.3938264775871911 
-0.2703855486331626 
0 
-0.02236846114003818 
0 
-0.09813567747301639 
0 
0.006016099020014884 
0.00358026550345023 
-0.007446247345964252 
0.003540011471430495 
0.6420670472341732 
0 
-0.1767950227033447 
0.05200019088465736 
-0.1062962857695535 
-0.06986462631246115 
0 
-0.0006575171032743252 
-0.09624786823786086 
-0.002705997751182937 
-0.1670837237331238 
-1.455180549894 
-0.6947134445978781 
0 
1.69552659184543 
-0.4247072027610972 
-0.2764679298198874 
0.1728702337319409 
0.2755277237602888 
0.05557990888503771 
-0.0007683734808342974 
-0.1393128246848054 
0.001784185394792222 
0 
-0.2890300546475799 
0 
0.127909913405272 
0.01160293311135058 
-0.1514471557021928 
0.01007813439699886 
0 
-0.01138747319787457 
-0.1785005337492221 
0 
0 
0.2428659157804307 
0.2253107341568162 
-0.1445032175385576 
0 
0.364861945533591 
0 
0.04811446142646534 
0 
0.1586669232078875 
0.006075244181670601 
0.02071685262335625 
0 
0 
-0.2549693504331347 
0 
0.1076494136837996 
0.002751498217367702 
0.006638273417000073 
-0.03207767339471302 
0 
-0.03230163615684183 
0 
0 
0.03825911633548901 
0.09716087898958264 
0 
0 
-0.4263681743375174 
-0.04176218467501665 
-0.009805127014900253 
-0.06545498451043448 
-0.0711193733779253 
0 
0 
0.04559754895368026 
-0.06808860767848277 
-0.03844578824007652 
0.007187577845842299 
0.7583777364941192 
-0.08333199594936558 
-0.4920215093171018 
0 
0.03546212443388684 
-0.009557060680524008 
0 
0.05665143147851734 
0 
0 
0.1036810103764424 
0 
0.02560172254510025 
-0.8371253808153055 
-0.002519542197083405 
0.2088123757724218 
-0.09382400210610133 
0 
0 
-0.5253767905286486 
-0.0762948132210457 
0.01505660816790944 
0 
-0.1328804055611711 
-0.0003312475055118482 
0 
-0.7445219762399442 
0.5460574405967762 
0.271825549863671 
-0.5852583085942694 
-0.004241197579782911 
-0.05536603196684538 
0 
0.006845308256336062 
0.04410741531730943 
-0.2558740053926156 
-0.1699669341369781 
0.09580363472999906 
0.6720444574515905 
-0.8312475189446632 
-0.01932563536407235 
0.8103310682988425 
0 
0.1094811107702216 
-0.2735116174505273 
0.148186005307747 
0.02189970483671047 
-0.120043899893941 
-0.1627112714107368 
0.03134788737835943 
-0.5389548309651813 
0.01503013619761094 
0 
0 
-0.2319438421753508 
0.1160873265922284 
0 
1.125825439163864 
0.007744225656282726 
0 
0 
0 
0.1402559543614641 
-0.3120461281674456 
0 
0.1949900719923869 
-0.2421917035298745 
-0.04353828215960357 
0.2024394328766556 
-0.2401050405990481 
0 
0.00198092823579534 
-0.2515336473487972 
0.005582460647924569 
0.1295956891522214 
0.1105484579145119 
0.1528744819343676 
0 
-0.151683833308568 
0.08389273397609415 
0.1865508383462744 
-0.4703610734713041 
0 
0 
-0.2786897726213452 
0.3219832735015409 
0.05686403278752117 
0 
0.6320799811990269 
0.1906376700718564 
0 
-0.01322035862738811 
0.02888731892701165 
0.0192575035655488 
0 
-0.00265422135713977 
-0.04109718428258441 
0 
-0.3474497618240925 
0.001281451858974221 
-0.525778973255091 
1.08694627692814 
0.007439287363123177 
0.01756466540642186 
0.1193705923404227 
0.2068926788708046 
-0.02802291865728113 
0 
-0.1887301177366359 
0.0986605625938681 
-0.1102251147708554 
0.1291797952757185 
0 
0 
0 
0.02798319786857519 
-0.188102266239574 
-0.5525745900229722 
0.04191101245212698 
-0.07511696605550386 
0.007929057498325195 
-0.002287601800521392 
-0.003530764125241636 
0 
0.136268321906747 
-0.04443122725091814 
0.2365451062847191 
0 
-0.04426436735342253 
1.408241879469312 
0.4561177871680363 
0 
-0.0278390305348172 
-0.01053538305137564 
-0.4194953992666804 
0.05938454021461215 
-0.003171458546859492 
0.1405112655706568 
0 
0.1216854698322107 
0 
-0.0008466380741705046 
-0.00437951037505984 
0.4029072246806797 
0.004455478928051749 
0 
0.01747015299567418 
0.006523892466278963 
0 
0.002573962770366679 
0.03235210236180353 
0.01196801304630161 
0 
0 
0.2476559374742681 
-0.2166128951823877 
0.07974388143127868 
-0.02748733019146055 
0.06367732614370275 
0 
0 
-0.008755810524570405 
0 
-0.407619259115036 
0 
0 
0 
-0.1136383023417831 
0 
0 
0.06722799294856692 
-0.0102294630872368 
1.144508884434756 
0.01067537833274014 
0.4935417777390284 
-0.4358673251991425 
-0.518732109804191 
0 
0.05946915973308527 
-0.01930115309331056 
0.1756021208427731 
-0.1557525530214078 
0 
0 
0.07005052548649368 
0.02721089775507377 
-0.0001788498611328865 
0 
0.01199979820454645 
0 
0 
0.5399114950424015 
-0.0007075936528229802 
0.8142705845168899 
0 
-0.3414514321371614 
0.101064156473924 
0 
-0.4284728602306674 
0.003936750551544506 
-0.5541260192909747 
0.04514357550009171 
-0.06465714879359537 
-0.1231367017840543 
0 
0.03504784127916899 
0.01753643771762551 
0.1274475011903074 
-0.01356408746225129 
0.02035148513885567 
0.09644744253524862 
-0.8976121501067669 
0 
0 
0.03117951946120595 
-0.03744539023053756 
-0.2974320747401073 
-0.01018403220045481 
0.1735176683606801 
-0.2623285507182511 
0.01346249778853959 
0.7388398569263642 
-0.3250702113032035 
0.003770790778493049 
-0.001514781007131352 
0.05787827303953966 
0.2482942569663311 
-0.1070629979501154 
1.008894056136353 
-0.063434728810604 
-0.2250344682721147 
0.4873167239827521 
0 
-0.001016828298428685 
-0.08078269683802372 
0.01489099619581645 
0 
0.03987277148327058 
-0.01644211135906676 
0.2099682276805927 
0 
0.5411998385768279 
0 
-0.2489844505724208 
0 
0 
0 
0 
0.5520742564910168 
-0.003701609535129158 
0.09141593955626692 
-0.1015996036070725 
0.0733464076535347 
0.08719180608346792 
0.01037292931840274 
-0.06823985967428735 
-0.09688486777806289 
0.2379702284484714 
0 
0.007129112863429508 
0.2762689550503354 
-0.5359898735565738 
0.01119122419236662 
0.1061198197734446 
-0.9988404534161438 
0.01641421607722469 
0.006825331154435915 
0.08859650495902745 
0.2509189388729156 
0.007680460359332352 
0 
-0.1362237727858879 
-0.07184687013855837 
0.006018336594559831 
0 
0 
0.02808041667812865 
0.1032781550153472 
-0.02806283656245663 
-0.0582552384531775 
-0.0267007120843364 
-0.07590907532354493 
0.002028246190400448 
0.1204914237342291 
0.1462347761847638 
-0.1263299405866661 
-0.2187302312624787 
0.7786856642496681 
-0.4107639057107685 
-0.0130256121580592 
0 
0.02303021828071802 
0.3732275972191866 
0.1259998305448388 
0.1455844406789422 
0.553763240708434 
0.03116342285950014 
-0.07972239972299 
-0.06177639382581071 
0.06996379020701533 
-0.08783636230739136 
0 
0.005594290938688811 
-0.01077751569494609 
-1.211050346392922 
-0.1692201625050619 
0 
0.08544225574508021 
0.6280503800956785 
0 
0.0612927234608042 
-0.01706168866991573 
0 
-0.1397201747624238 
-0.007566575662126702 
0.006895880109210053 
0 
-0.5394155361525665 
-0.02311779156109706 
0 
-0.08935348559017409 
0 
0.3753761136826512 
0.0931613834349956 
-0.2565472574709026 
0.09364812123738875 
0.1732184675164972 
-0.05177784085936743 
0.0274118765645884 
-0.0008789821187454415 
-0.04695836230002714 
0 
0 
0.08930842060138103 
-0.003025316022976541 
0 
0.003817342405363287 
-0.1899411562559601 
0 
0.01856566736840994 
-0.2446822906261292 
0.3884058916037467 
0.03186767162901852 
0.192777149886224 
0 
0.06025351147523957 
-0.1561454176109539 
-0.3714234822929977 
-0.04829110844176557 
-0.4657433195375066 
0 
0.0147967949627396 
0 
0 
-0.08329458873901988 
-0.04757727338106416 
-0.05429602680499469 
0 
0.008081165243034772 
-0.002257917456702817 
0 
-0.262565169684323 
-0.007065054595667191 
0.4092790644645084 
0.007102905960626507 
0.03131395543236345 
0.2344096063826807 
0.004623565727109492 
0 
-0.05975581051590787 
-0.04515886385298123 
0.2549645856679972 
-0.02363018335081368 
0 
-0.03312558061858928 
0 
0 
0.01395720147572214 
0.008758958890937769 
-0.004448638746583577 
0.0004144391731224165 
1.023756449118734 
-0.1238278210468066 
0.1436570248422726 
0.003979053660759831 
0 
0.006608948071968629 
-0.6963020628175396 
-0.04984803342138851 
0.1561624879021202 
-0.009995447497229066 
0 
0.09875649969177161 
-0.0007180684322376307 
-0.09934952029283328 
1.918107499854698e-05 
-0.02680702083132541 
0.005829175456526847 
0.3570528530751124 
0.01649282171798787 
-0.01785991902637243 
0 
0.09247686945762343 
0.01855930407899726 
-0.2193573213186041 
0 
0.1699261990652425 
-0.0712410548749476 
0.2641323326955801 
0.1824570528160961 
0.007992004029058704 
0 
0 
0 
-0.1477859659106064 
-0.1371789151368143 
0.1173757277486948 
0.1006823535130663 
0 
-0.1590102742644506 
0.01312251203037556 
-0.6580598979423546 
0.03411516038500616 
-0.1012247711272781 
0.07567242494947506 
0.02650390478226316 
0.2682807331137583 
0.0003472276677468824 
-0.4414014449071791 
-0.3652354495312245 
-0.2778017401762001 
-0.4681042513432475 
0.002757001282726973 
0.112883331472217 
-0.1463283655965723 
-0.05866705314523075 
0.01594665219519436 
0 
-0.8754861824740741 
-0.2096892610393646 
0.1159856408734299 
-0.09780146624782199 
-0.4484222303685861 
-0.1080320663969569 
-0.3066481746371414 
0 
-0.03797335158936644 
-0.4434597858262702 
0.07971149751961826 
0.06551712088902781 
-0.1460209958147594 
-0.635033112189161 
-0.004307776767275876 
0 
-0.2538169395841683 
-0.001933066185833929 
0 
-0.02178042850168784 
-0.1349512394436825 
0 
-0.139257736114042 
0.05645621556551178 
0.0013122271744847 
0.08672380643412773 
0 
0 
-0.001989933226656991 
0.07063005291385872 
-0.02263463323601142 
-0.2698316243941827 
0.5693664066621783 
0.02762861708669942 
-0.01898815845848703 
-0.5631057244241546 
-2.107609305992892 
0.03481043915299756 
0.7883644751654505 
-0.1336946200572677 
0.03907967487922924 
0 
0.1471084235187932 
-0.02962120934660278 
0.03059550948855859 
0 
-0.06243304972636345 
0 
0.338950827341257 
0.1045680695365898 
-0.2298129770988272 
-0.02811690391865195 
0.04751740624574925 
0.009292601595254576 
0.02070984341656273 
0 
0.6794557535059457 
-0.2581849696918477 
0 
0.1680654644749799 
1.035890877569946 
-0.261313520479286 
-0.003603815621091306 
0 
0 
-0.08700766686307984 
-0.009877279950912215 
-0.04544474837886333 
0 
-0.08705685693996343 
-0.2472611490929605 
0.2563891201125997 
-0.0127296689715027 
0 
0.2125260615471452 
0 
0.06578843220298698 
-0.04879979504498994 
0.2139220464352333 
-0.04382096098745827 
0.02571816912399633 
0 
0.06918783338096619 
0.07708254659669636 
0.007993146137865488 
0 
0.118099506920237 
-0.2064068489701084 
0.005112321282770583 
-0.2294901480537399 
0.734923951179527 
0 
0.02238685839231231 
0 
-0.1972015648025435 
0.03434647209804689 
0.01860541599643211 
-0.02860662316893916 
-0.6082552319713546 
0.01748170015480903 
-0.4559732818540339 
0 
0 
1.972262364049227 
-0.07381101433939813 
-0.03208954690792278 
0.1689363143816483 
0.2242024588486808 
0.021031993106391 
1.028911499028035 
0.2900442887181757 
0 
0 
0.03045472009006589 
0.1406078767506045 
-0.472844306080512 
-0.07867589468281472 
-0.6236327522799201 
-0.3101220079464608 
0.01865129008601835 
-0.1645425652301761 
0 
-0.05577041044312848 
-0.03209999073459283 
-0.02890599897486069 
0.08395789687180666 
-0.02484841532939882 
0 
0 
0.002142648992942755 
0.01617176573810034 
-0.06326419513653324 
0.02451586389833359 
-0.0551595687765877 
0.005855071487446207 
0.02333878694485014 
-0.01574830252176971 
0.2246380903409421 
0 
0.05168413408870985 
0.2718079306676476 
0 
0 
0.03508303991627586 
-0.5013118907320131 
0 
0.07560038694008182 
0.002761383469122923 
0.001115878784802331 
0 
0.1018705690570541 
0 
0 
0.01886677695147179 
0 
0.0137862556862789 
-0.03653226503663663 
-0.1903900510266503 
-0.456053486245246 
-0.06603751158347751 
-0.002330462755698094 
0.2778481243514874 
0.1014163076463913 
-0.0897188842657187 
0.02857221147761434 
0 
0 
0 
0.09515631773458907 
-0.01698081060647827 
0.7247359795450966 
-0.1534577269054634 
-0.02271378872138069 
-0.4362976687980515 
0.0005215491731419918 
0.5206062143634714 
-0.09855650746025475 
0.0277514871889862 
-0.07540074219646931 
0.01218782162143932 
0 
-0.1234406540032136 
0.03645655901777192 
0 
0.08537625429468614 
-0.298102006301481 
-0.002724496949153527 
0.2779264573864834 
-0.2597346242285862 
0.00137211596952413 
0 
-0.01494500123519792 
-0.1682282176751799 
0.08558278692809483 
0.006415972583995389 
0.3324003135948521 
-0.02889692611973372 
-0.1088534245853278 
-0.00498480788025601 
0.01550741661090738 
0.1636046871014949 
0 
0 
-0.3127278574815929 
0 
0 
-0.5197638246951638 
-0.3982773924780865 
0 
-0.329012049849193 
0 
0.5120224766016714 
-0.3504101269129312 
-0.01667627838558787 
0 
0 
0.0575464098075375 
-0.3402524961926829 
-0.05330148873035956 
-0.2705734932790346 
0.02481835349863236 
-0.04178279994732454 
0.02810830648427878 
0.04740381074451538 
0.6726648167629733 
0.05499671283449926 
0.0001886077514006352 
0 
0.0873000137270116 
-0.05213974799419915 
-0.1005208372254273 
0 
0 
0.07885889077401743 
-0.00439351777801592 
0 
0 
0.1868621017952877 
-0.04021971063024821 
-0.2590054908666098 
0.01269623618654997 
-0.07943176371569086 
-0.5547973364112794 
-0.1042794146500738 
-0.00336307648955174 
0.5422945323795973 
0.05623012872125033 
0.3830344869227325 
0.02590597451127977 
0.003886362825542293 
0.1984273272497661 
-0.02874021396493637 
0 
-0.1619606170048052 
0.0848050441379876 
0.001166895796205598 
0.4736967601671083 
-0.2793833185035324 
-0.02730009743325831 
-0.0003998517146932962 
0.5531875771249729 
-0.01540176837554676 
0.03305708818517803 
0 
-0.163048857982334 
-0.0127407094835835 
-0.004481690037156728 
0 
0.02146674980383731 
-0.2047114990357888 
0.007365408388026819 
1.313579214156558 
-0.1104359392033846 
0.02294300891127018 
-0.06750665693593493 
0 
0.1037753301312205 
0.1425063128993305 
-0.477316482339045 
0.1044839303316225 
0.1468180230576178 
-0.06280241868991226 
-0.007611275050964031 
0 
0.06328172965686311 
-0.02226261308491817 
-0.02303638779549067 
0.01390818240055917 
0.1196546171090627 
0.02513912897761506 
-0.01419437242873052 
0 
0 
0.4292920466662227 
-0.1574816967682336 
0.16605646998372 
-0.06180542036733505 
0 
0 
0 
0 
0 
0.045060173788542 
-0.1527681894919145 
0 
0.3699707517529086 
-0.1220726590512554 
-0.08970955663894974 
-0.001685092988869101 
-0.05456565878837849 
-0.7068619740998142 
0.000673176811349399 
0.02813621635013056 
0.1187194713651046 
0.006508568077212756 
0.07449339108251161 
0.03021854513943759 
0 
0.08388908861111062 
-0.02225090581513933 
-0.1317711246643589 
-0.04088672916583101 
-0.01764692543030282 
-0.1417759561682051 
-6.85470500570349e-06 
0.002307528915261056 
1.452580557307571 
-0.09660317973555403 
0.04002471170357547 
-0.5182648343881481 
-0.4401455100901203 
0 
0.02983706242115367 
0.1649850111286917 
-0.01859319477827093 
-0.04234239709695359 
-0.2783371281244708 
0 
0 
-0.1896863198986401 
-0.0669101349238081 
-0.1407262956511182 
1.321879138335064 
0 
0.05671230260202482 
0.02834187461880843 
0 
0.1338710013957285 
0.0191967415422407 
0 
0.0743987291613052 
0.06455119705969861 
0.08363956932752845 
0.05117471961596872 
0 
0.06892209109610178 
0.06095412034135745 
0 
0 
-0.193315140147066 
-0.009553844804478283 
0.02997971922926162 
-0.4079596879034231 
0.3069535836059607 
0.7599324598893937 
0.03614144957357909 
0.006578460578432412 
0.1929231136227226 
0 
-0.1283014473419294 
-0.2025127245455434 
0 
1.161033635349695 
0.1110189367262641 
-0.1836244263016098 
-0.02709980917171642 
-0.02244721678122061 
0.004222998053049581 
-0.4186096445053088 
0.1898643804838948 
-0.5008486600489795 
0.2000093932039299 
0.1765363863395536 
0.7733276072435694 
0.148626421622693 
-0.1050885270953494 
-0.009370891419248651 
-0.8295155930938484 
-0.01713181205113433 
-0.02177028418442244 
0 
0.02198323975900687 
-0.2685954182079529 
-0.01973457840009828 
0.3833918322568988 
-0.04990383535797224 
0 
0.1561878977522327 
0.1415749936164502 
-0.1069220774267897 
-0.7265124273682702 
-0.1020097954067898 
0 
0.8377945598243471 
0.6316758081423213 
0 
-0.004453537387759698 
-1.069700916320788 
0 
0.02429725456519426 
-0.004533258210369959 
-0.009319838902233486 
-0.1836608952393037 
-0.01024236548865489 
0 
0.00537088419201501 
0 
-0.02362980055059926 
0.01762841791960995 
0.1093583036674962 
-0.1440959624557223 
0.04781215320993769 
0.0007716187371899515 
0.01213651255280127 
0 
0 
0 
0.7477484575492578 
-0.2423999698103434 
-0.09912518874331432 
0.1307021181393057 
0 
0.01370778255141839 
0.4041060099850792 
0.08959851007694694 
0.01831906133752088 
-0.02809846208632382 
-0.01653452361027699 
0 
0.1419649872441026 
0.208418055532689 
0.07380745685882774 
0 
-0.1076276208268017 
0.2337132232820297 
-0.07734349370627486 
0 
-0.04335414743217513 
-0.0003185177038004178 
0.1310230799995161 
0.02633040212921242 
-0.02995195157284366 
-0.2179165066515797 
0.01245466959642644 
0 
0 
0 
-0.06877697960423231 
0 
0.009407491646597153 
0 
-1.572656596604174 
0.001310233766184194 
-0.009904495297274472 
-0.4239666628333706 
0.01383025035630158 
0.09103330966165778 
0 
0.2219123033356555 
-0.0002627141804446381 
0 
0 
0 
0 
-0.6393673277870495 
0 
0 
0 
-0.1698605697079198 
1.025413028299849 
0 
-0.3088125538891321 
0 
0.2621505450848625 
-0.07422278862653284 
0.005369433241391681 
0 
0.1562284031323741 
-0.04443077143857274 
-0.1592920188269308 
-0.06157637835674092 
0.03759771408402331 
-0.5885182030157594 
0.04259754932219546 
-0.1799645416933189 
0 
0 
1.0455189993137 
0 
0.03120348654575215 
0.2784406134703901 
-0.08245545965189192 
0.001278044651327118 
-0.003507521166219653 
0 
0 
-0.06237728484270535 
-0.01752564698574124 
0 
-0.2647239056382515 
0 
0 
0 
-0.1285412526981845 
0 
-0.6059136884197551 
-0.0194052162370306 
0.001335349374609656 
-0.0001769002175566138 
0.1528853919047753 
-0.2180469287464619 
0 
-0.01901023529943728 
0 
0.003956356932097988 
0 
0 
0.006473477701339556 
0 
0.09509245270788687 
-0.002731963090454327 
-0.1966251115134261 
0.09550029389708473 
0.2328557166114169 
0.09883947251305326 
-0.008626029281734334 
0.02517155486369931 
0 
0.04648597553604113 
-0.1972562408517195 
0 
0.3249687697254489 
0 
-0.1403555658699784 
-0.644555736232109 
0 
-0.04199527912259084 
0.04371171008166464 
0.04389668055443383 
-0.4332064307924005 
0.1209371773308066 
0.002721207475499504 
-0.3422831990090285 
-0.2538151407617269 
-0.002658418989019113 
-0.1420601256088851 
-0.2579359878229637 
-0.2069955570945969 
-0.001660011337764646 
-0.01141518777128096 
0 
0.02469293560689213 
0 
0 
0.04614748521574915 
0 
-0.0003612650011250015 
0 
0.1077976171068484 
1.393672587483388 
-0.01252254716239776 
0 
0.0005043358311865792 
0 
0 
0 
-0.05937415089875199 
0.2183356170861429 
0.07758479434351828 
-0.01609458731419176 
0 
-0.09299579453912196 
0.0003745461808742308 
0.009815274077333354 
0.01914200750121287 
0.2466086967191049 
0.01125690300068724 
0 
-0.4214920581565468 
0.3113818585566844 
0.01082781043770969 
-0.04240036209850045 
0 
-0.3914809027381299 
0.009241609763252554 
0.06637340804724032 
0.04322609686240446 
-0.5508601742644907 
-0.827490200956127 
-0.2069975043567519 
0 
-0.1157420909195356 
0 
-0.1189861633364836 
0.3562667017122941 
-0.07428924724084821 
0.1234687489197979 
0 
-0.2435396579538792 
-0.05660972172001231 
-0.08327762699302491 
-0.1010887248376499 
-0.07426068570459039 
0.02610466344486483 
0.5517905056448076 
0.05440771704818725 
0.1525451420899263 
-0.02852959209736062 
0 
0 
-0.05364240731615979 
-0.1864753382125116 
-0.2575316023257666 
0.1034155261058708 
0.05666227565032975 
0.09373522686353254 
-0.1032769206560466 
-0.1413261181581791 
-0.5511086838244426 
0 
-0.1558206676915062 
0.01023879359362953 
0 
-0.1826746934752027 
0.1120934330180213 
-0.05759344670581873 
-0.01137404072163779 
-0.1896521418092008 
-0.569420451778451 
0.0009334885002438936 
-0.1826229813661966 
0.224807257062214 
0 
0 
0.02531364715427349 
-0.1350948878721412 
-0.07122742799295509 
-0.06007077611926476 
-0.08983941352403911 
-0.3813791146683156 
-0.09623978979827781 
-0.01149824046314376 
0.07749253490163155 
-0.9965315467562615 
-0.1040564563501341 
0 
0 
-0.3735382017672845 
0.0510843316932594 
-0.07639606504083005 
-0.5660696015134326 
0.009670404722104575 
-0.07164160746403196 
0.003777738770756373 
-0.4134002990270435 
0.02491817808044671 
0.02508781404614908 
0.01683568745071002 
0.1464968959742833 
0.02072430805620888 
0.07843418892748324 
-0.2574475066109375 
-0.07394580092548457 
1.253388646784358 
-0.01412394156605711 
0.008142710422961469 
0.08921438337516385 
0 
-0.07642507247461255 
0.08090558929218583 
-0.326135734418281 
0.1574421097943219 
0.1440652330585359 
0.18772756764412 
-0.00884614844816794 
0 
-0.009855258089640171 
0 
0.1668282100565557 
0 
-0.2357953013060923 
-0.1317487254017407 
-0.4372485940908663 
0.01713787624919974 
-0.236569266868321 
-0.07989818783881618 
0.02325476096323055 
-0.01178518141210182 
-0.06140988113234416 
-0.009687557474951848 
0.08605083515585499 
0.05435587850444758 
0 
-0.2589564403951805 
-0.5644528741693323 
-0.4086923968479408 
0 
0.001300250326336853 
0 
0.02686287935938106 
0.01338235078225818 
0.005778934510634116 
0 
-0.0944335019983312 
0.04935737825794098 
0.003863797077479558 
0.1019324368531229 
-0.1866977953616018 
0.0191400974696817 
-0.102685906090912 
0.1807600251766437 
0 
0.01142397533223954 
0 
-0.1247392328536619 
-0.08775692895172221 
-0.2516912773681264 
-0.3244054602897267 
0.005363230502418105 
0.1347377787464696 
0.02177273169782627 
0.8729113025345075 
-0.02659204175221085 
0 
0.1280948290755235 
-0.04826288752484849 
0.1871189238887456 
0.0008720554197805743 
0.5241971060655889 
0 
0 
-0.535294077285448 
0.01160182797703835 
-0.006218518871782458 
-0.02045446674473796 
0.1635575016344367 
0.02877868100044436 
-0.04825485704040156 
-0.04774425590425422 
0 
0 
0 
0.2682696670517935 
-0.1255186265428022 
-0.04835138528621483 
-0.04981915981904818 
0 
0 
-0.01664697471135698 
-0.8226460692608498 
-0.01121993368112121 
0.002590862740350534 
1.194901991726265 
0 
0 
-0.07390496922995785 
0.05226125077447148 
0.06074920712259321 
0.0102650379198088 
0.3863566598003857 
0 
0 
0 
0 
0.2201229006871588 
-0.04777934317847827 
0.3077655706462009 
-0.103694802576061 
0.1799341921133774 
-0.006333758899335708 
-0.1603736384832461 
0.09476342394470212 
0.1505671915460982 
-0.0112442517317779 
-0.06591671879603578 
-0.1299913846287791 
0 
0.01782216064957387 
-0.1814735660155539 
-0.08482883297465378 
0 
-0.1379243344437035 
0.2314028445306542 
0 
0.1127065820512614 
0.6958069193211832 
-0.02051182668166833 
0.02003158661853315 
0 
-0.04424342690043199 
0 
0.1981439858009986 
0 
0.0009872504285358321 
0.2213199822144171 
0 
0.3298858064893519 
0 
0 
0 
-0.009513424899815931 
0.003702565766233986 
-0.02907776766787013 
0.001144137398313666 
0 
0.01340028887577759 
0.01719929335415795 
0.0002362345822434182 
-0.4721703528980053 
-0.02725194253095627 
0 
-0.02252293835396539 
0.01543688582057656 
0.2537538589180603 
-0.005442173030604224 
-0.1003738961866633 
0 
0.02708461972201407 
-0.4047905166411699 
-0.1453056399749216 
0 
0.3657551308922324 
0.005054354265682581 
0.02518333417567569 
0 
-0.540054480294324 
0 
0 
0 
0.03824627754710447 
0.2601351934999724 
0.01415966882838167 
0 
0.1686208299750219 
-0.1204030087232134 
0.4619315575285005 
0.03346505360576099 
0 
-0.21755177040834 
-0.01476284868899679 
0 
0 
0 
0 
0.2444566072570147 
0.2701789717591536 
0.06052078282056796 
0.276874139138665 
0 
0.01959933969190117 
0.2595556352937681 
-0.006667688595109723 
0 
0 
0 
0 
0 
0.03969654997161198 
0.1697462292521012 
-0.07130792460799934 
0.07410931844312951 
0.1473464135896569 
0.0122431626111256 
0 
0.1342277107625306 
0.002729700270829447 
0.0007493232311907832 
0 
0 
0.1929703468646059 
0.02248026697960005 
-0.04852212025854139 
0.2653788800482839 
-0.139336810885127 
0 
-0.2764093757043193 
0.04073578576678621 
-0.02863883321598231 
-0.5747990779719468 
0 
0 
0.01517521955607842 
-0.01188765501200405 
-0.09288662998124422 
0.09121101909890217 
0.04115887384700704 
0 
-0.05469835489720513 
-0.07361802353438943 
0.170724011050341 
0.1096484392861831 
0.01185387511525257 
0 
-0.01505801845356854 
-0.07267698748544794 
0.115955723528704 
0.04000873396570301 
-0.1278838487630123 
0.05108767606842272 
0.0003859721232313956 
0 
0.03865863145437812 
-0.005615879097748396 
0 
-0.05020832860448238 
0.04445679168195199 
0 
0 
0.008409198836804818 
-0.1945336551602136 
0.01225198646591498 
-0.1917889996690424 
-0.02079567607128804 
0.03257068921544183 
0.0268608278944268 
0 
-0.003857266907026232 
-0.120345883296872 
-0.08048395375807807 
-0.6057635507203514 
0 
-0.4075679217392992 
0 
0.1093361942709747 
0.01898286083752622 
0 
0 
0 
-0.08531499195240119 
0.003934690260843243 
-0.01599123814919367 
-0.06961190194970052 
0.07945083078121767 
0.01866471903634653 
0.2002454903588948 
0.002760908096693282 
-0.01848341357652517 
0.08917634144143304 
-0.003533994648007369 
0 
0.9450534265740856 
0.2079587707193457 
0.009840612624830511 
-0.194557390093787 
-0.004428220478838444 
0 
-0.01339186127907359 
-0.0147043019364431 
0 
0.09605093862624993 
-0.1107846382798045 
-0.2342185353313465 
0.1149604641879879 
-0.05702402393912262 
0.1766300186765316 
-0.5288279264515864 
-0.0201126229330715 
0.08697059461183476 
0 
0 
0.01737724542649635 
0 
-0.1432825536738065 
0.07837847287344801 
-0.03153250798236698 
0.01056357038096565 
-0.6844480569258026 
0.04633327736497153 
0.0110041420761486 
0.1432777850008372 
-0.1209693686008564 
-0.06018314193982512 
0 
-0.001727713930249279 
-0.02141787317906471 
-0.002202503192361391 
0.04904599025689967 
0.2019592216108376 
0 
-0.05318111874313843 
0 
-0.1409376643086578 
0 
0.3656514091413734 
0 
-0.1914036516155571 
0.00400525097312531 
0 
1.260250224665663 
0.07355463635483932 
0.001742019359144348 
0.01985816343329067 
0.1386288611072889 
-0.210974204992741 
0 
-0.04344366709484027 
0.003041683157242838 
0 
-0.3499380880109694 
-0.1174124126681348 
-0.1562821069312265 
-0.1009343425196927 
0 
0 
0 
0 
0.03389789042297322 
-0.05087897649584897 
0.1354738133727125 
0 
-0.05516422139122822 
0 
-0.0332234362859764 
0 
0.2244938324540031 
-0.1301441918552382 
0 
-2.823959697916979 
0.01282760322469588 
-0.07619357035706406 
0 
-0.07343644404166082 
-0.05918565035367194 
0.4022329393047109 
0.5452218541578687 
-0.1640261508752996 
0 
0.04713158996053986 
0 
0.02586962456102878 
0 
0 
0.5926512566429727 
0 
0.2070108526256444 
0 
1.109734026425636 
0.1530697169603336 
-0.74371024906631 
0.09764874106478422 
0.2529945680943312 
0.03466731024921202 
0 
-0.1862717976532506 
-0.01704265496800914 
-0.002613073872852508 
0 
-0.06845520123858462 
-0.1176187401961611 
0 
-0.3036904741026363 
0 
-0.004262770956502498 
0.03784301204641027 
0 
0.2318443570432344 
0.2437548140901787 
-0.1384613406401065 
-0.1409113064340332 
0 
-0.08252144937865208 
0.008041464825757834 
0 
0.06225573107625982 
0.2039401329306106 
0.0120071809043616 
-0.2520175956821743 
0 
-0.1290120037756905 
0 
0.6356204159462482 
0.339612061370243 
0 
0.002848900003986497 
0 
-0.001825447052592535 
-0.2873891474361266 
-0.0179198633683224 
0.000972476993890936 
-0.2249953864649253 
0.1445349326137372 
-0.4040031985213728 
0 
-0.2929471912982475 
0 
-0.1116115794005298 
0 
-0.05829746424105198 
0.02071776026403279 
-0.3048094382464578 
-0.00172571194154078 
-0.04879120062357029 
-0.3007356524518204 
0.004130124088349839 
0.3641015327895886 
-0.1075825036952418 
-0.01804822337465123 
-0.5427062258718371 
0.01116527444995936 
0 
0.2152665039261151 
0 
0 
0 
-0.07913016058342173 
0.2339102199715929 
0 
0 
0 
0.2176616101011661 
-0.7193574313255637 
0.05626459583925093 
-0.002836990133609479 
-0.006184840671350037 
-0.1118869436256379 
0.00245324181395724 
0.02050373137866305 
0 
-0.003401138053318246 
0.0002488412945907243 
0 
0.05182941326207809 
0.006781911409518692 
-0.003282557979085218 
-0.1127638843163596 
0.0416949044877774 
0.00909175180948082 
-0.2752021207963478 
0 
0.02569442174665965 
0 
0 
0 
-0.08396368994736859 
0.07194268597132554 
-0.01266143377348476 
-0.1477086838767762 
0.001312993711755025 
0 
-0.5794249890606359 
-0.3345354444632813 
0.3185691954168479 
0 
-0.5551889848864563 
-0.121520865390847 
0.1608395933293896 
0 
-0.04315732721317845 
0.06314224805911597 
0 
0 
0 
-0.02173205144415138 
-0.09459314725028228 
0.05838733169623318 
0 
-0.1519444560477841 
0.005036514020483247 
0 
0.06296293469403758 
-0.002833157215268742 
0 
-0.01499029413680208 
0.02234697020330087 
0.268010183229612 
0.03604981260559352 
0 
0 
-0.06607851965603249 
0 
-0.04297090431165194 
0 
-0.08405426092816597 
-0.2158393666855272 
0.514017278883162 
-0.1854103808815818 
0.09090084239190646 
-0.8409703166029805 
0.0621339253153587 
0 
0.1133523179940039 
-0.08940053843137719 
0 
0 
0 
-0.001790401160808208 
0 
-0.05301635287635004 
-0.270811119589016 
-0.08297949298348815 
0 
0.1053715422122507 
0.01188804824027498 
0.002831644211695346 
0 
-0.0178617009798983 
-0.1113208106330815 
-0.006082295104399216 
-0.2469770846761879 
0.0931185416032218 
0.3425411362574275 
-0.05930067725411693 
-0.02933459304006922 
-0.01681221894682309 
-0.07198498477775102 
0 
-0.05201705041940597 
0 
0.1258760432016885 
0 
0 
0.006034066745822022 
0 
0 
0.1620552660875558 
0.1453923258773033 
-0.01504487794827548 
-0.05446102857138807 
-0.001346731711930295 
-0.1108915213776028 
0.07194991268548374 
-0.01712944402184994 
-0.01231407518667307 
0 
-0.05228814017944301 
0 
0 
0 
0 
-0.04632786115397954 
-1.693931497982658 
0.9953496904978788 
0 
0.1360597533497767 
0 
0.04794459635452181 
0 
-0.473195143126332 
0.09124892128007088 
0.0510456611988284 
0 
0.9921786955227369 
0 
0 
-0.01448068755617245 
-0.1220843682825676 
0.1267276125259695 
0.2176161850699452 
0.2043607908575845 
-0.07603425284155986 
0.2068396704620203 
-0.008073867293825192 
0.04708316130986117 
0.02241238813094876 
0.002981363834997432 
0.001660523671290028 
0.08080926543985339 
0 
0.04687885303531426 
0.000299107481375401 
0.04008795162404215 
-0.01772406773888409 
0.03968049496783079 
-0.01674914309896492 
0.6558192048107075 
0 
-0.01397654715137795 
-0.03197776180308441 
0.007834404509879659 
0.0365823433618165 
-0.08535966617491976 
0.001736811749039494 
-0.1667150543505384 
0 
0.2290740077066505 
0 
-0.1016825209557792 
0 
-0.1519194545301351 
-0.003145698630941568 
0.2226150240135905 
0.4966714199952618 
0 
-0.0002489037471528677 
-0.2217485515385573 
0 
-0.18999352058001 
-0.04095829454753249 
0 
0 
-0.3933486734579009 
0.2114885915322949 
0 
-0.08379887086196666 
0.001066379690668841 
-0.00468936349600065 
0.1837928888641618 
0.001627904064082147 
0 
0 
0.07266327884987316 
0.0028497580631251 
0.1408237721339443 
0 
0 
0.5102599351272388 
0.07147689677546062 
0.001390114239148165 
0 
0 
0.0003865945546788531 
-0.002197821092870087 
-0.03127462944873845 
0 
0.1094436484580645 
0 
0.0030585166796866 
0.3462298028784538 
0.1922658654539338 
0 
-0.02668523360510953 
0.04940479792917156 
0 
0 
-0.0118195997222303 
0.0006035636143886648 
0 
0.1815504428779115 
-0.1464512656405756 
-0.03397184044606655 
0 
0 
0 
0.122362004618827 
0 
-0.001660397636459778 
0.05573223235393197 
0 
-0.0384665054760531 
0.04146747531744891 
0 
0.0004051245143934359 
-0.08632466384530363 
0 
0.2745432501033123 
-0.751539412408932 
0.009710907172299305 
0 
-0.009858305650616088 
-0.05852964315999586 
0.0135862671556196 
0 
-0.006264945688027833 
0 
0 
-0.1547428787208094 
0 
0 
0.1388968322334512 
0.03605223064795326 
0 
-0.07840299917998086 
-0.05818742981505028 
0.02649496505226415 
0.00378644774559639 
-0.001533166125727218 
0.1903617817606169 
-0.04384860716659972 
-0.03624442224657261 
0 
0 
0 
0 
0 
-0.01241851714309485 
0.6810152433578943 
0 
0 
-0.01065270363512428 
-0.0128193666039665 
0 
0.1663726592843212 
0 
0 
0 
-0.0202523532912852 
0.1841528165479302 
-0.02750645885513171 
0 
0.002312845564403788 
0 
0.006101098735726839 
0.7621210053940713 
0.005839736760829526 
-0.1575039014171867 
-0.08764820679831306 
0 
0 
0 
0.01922744943844031 
-0.05833851334832639 
0 
0 
0.6924649057701634 
0 
0 
0 
0.08004126614812904 
0.09127930548958955 
-0.2416864658316924 
0 
0.2791612750239357 
0 
0.6911362792138869 
0.08807173620752023 
-0.2797083527148059 
0 
0.140345809324748 
0.006408093889127433 
0.1006702344178811 
0.531973419110326 
0.03305308286676691 
0 
0.07760182485570592 
0 
0 
0 
-0.0006021094773342147 
0 
-0.1557225547498177 
-0.1029777332478058 
-0.01707950849448979 
0.005278772193530402 
-0.06297350949998072 
0 
0.03315834859602287 
0 
0.16916149504201 
0.07339067378521744 
0.008190619403232431 
0.02040948871868363 
-0.04974591641689705 
-0.02289975506881809 
-0.004716558623713854 
0.6148693857342729 
0 
-0.01693005398959548 
0.0115719792473898 
0 
-0.08281336383176402 
0.03219272687999809 
-0.00131632501497167 
-0.1363358013323617 
0 
0 
-0.2133843104094235 
0.009182947008214258 
-0.2406011980975071 
-0.1270499106412839 
0.1382395929905011 
0 
-0.02630870004503224 
0 
-1.01471896080516 
0.2919587035496238 
0 
0 
0 
0.02854854033905087 
0 
-0.04421822129337435 
0.155061123795816 
-0.01756101434053481 
0 
0 
0 
-0.2478162336638325 
-0.006093268814838583 
-0.0140428770826736 
0 
-0.1988597870948923 
0.01723887357753361 
0 
0 
0.008189890162027015 
0.7458115871558798 
0.01742915340392844 
0 
0.02170731423201535 
0.02057007502868165 
0.03967233039237096 
-0.002263791651741037 
-0.1203645378285952 
-0.253090515536799 
-0.4072723759361531 
-0.2871280649118875 
-0.06427013453305792 
-0.01299426153649987 
-0.2707452271445964 
0 
0.0018516852165405 
-0.2716767104283538 
0 
0.1467285978280165 
-0.1672964854017022 
-0.09527799712198624 
0.008038088986164062 
-0.2457151156969954 
0.02623326222055273 
0 
0 
0 
0.3863307008977479 
-0.04118745745667198 
-0.02599309957786213 
0.06678083323971622 
0 
-0.06146745958786328 
-0.03336848672989915 
0.01679251099755304 
0 
0 
-0.1144340315079962 
0.2469535818535205 
