solver_type L2R_L2LOSS_SVC_DUAL
nr_class 2
label 1 -1
nr_feature 5000
bias -1
w
0.8602796289907823 
-0.3694057813400947 
1.068660563700053 
0.5096437331391068 
-0.09992575329770413 
0.7326627019634762 
0.1544069981410511 
1.724605296414508 
0.020778408118139 
0.09915830450341956 
0.2010298068657441 
0.6157205071396026 
-0.2223929720738486 
-0.02433819268070829 
-0.3956820562660222 
-0.2421854539825414 
0.4532784194995841 
1.715754348220653 
0.9468488140484194 
1.006992109356667 
0.728189006381789 
0.797047487296014 
0.186755746188534 
0.1264754703492134 
0.2471023882851606 
-0.5600090357992419 
-0.635190822528666 
-0.7621554226574935 
-0.01096015183468695 
0.06258044353876965 
0.6278968105226782 
0.146606281222543 
1.578835676736726 
0.6777723819926498 
1.059512835190257 
0.5097660246830773 
0.1730472943449055 
0.8012494242628346 
0.4095493887735505 
0.1327958136819682 
0.1659909996167753 
0.2605371639608827 
-0.3488545168828113 
0.29330953111859 
-0.8796415808841748 
0.08648078024318821 
1.233458696757896 
0.4540099528009086 
0.08106934098696948 
1.138746086512629 
-0.2212726227872555 
1.426260817819106 
0.6230195531472889 
0.02854938715663852 
0.3230225862196104 
0.03727083444366915 
-0.1927401679742681 
0.2149468952362145 
0.1977783756818345 
0.5456676044996203 
0.3374215252349718 
0.2094600380116731 
0.2207150791463863 
0.08578827442805098 
-0.1123658051797979 
-3.155326958438134 
0.6142830300846911 
1.119756322112202 
0.09499222768200576 
0.01191352054613593 
0.8819646060026993 
0.4805768338943087 
0.1846206481452485 
0.1858224392268888 
0.304913385611228 
0.3175958271634238 
-0.8085462520037346 
0.1554898252096578 
1.213257009012703 
0.1013223430773502 
-0.02541245441929176 
0.2360063687091288 
-0.09202296747190634 
1.350513085750969 
-0.03782733018777622 
0.06780187536694338 
-0.5266754368295233 
0.08987839478686592 
0.1206959163149016 
0.4352700237424619 
0.04402889519825553 
0.1478536552233946 
0.1143526922524334 
-0.07877718552117549 
0.2296707863174787 
-1.909693986473743 
0.4302307264593622 
0.990663193164791 
0.03171352088958102 
0.5080168475339155 
0.08642131239707944 
0.06201058678961031 
0.4094268692714878 
0.01293433542441164 
0.0369645796922505 
0.1047471761394435 
-0.04170042396750136 
-0.008601703116193805 
0.02607785783305096 
0.5237116505847036 
0.1357012708631632 
-0.5478116724600598 
0.4538812218197855 
0.3678056261727541 
-0.0623989569451514 
0.1346644892093839 
0.1965648070148955 
0.2026731800322442 
0.4346015996138839 
0.9561856389376828 
0.539564773909021 
0.6954582013576193 
0.1657438528041095 
0.1172608484544185 
0.5220222926668204 
0.3389470893319166 
0.05264995425244778 
0.6630368737350998 
-0.01554191872143735 
0.1732796389275055 
0.1475415141760306 
0.03353168569687617 
0.401874411929618 
0.463260190011175 
0.137633470909636 
0.5986186875611239 
0.2674436766851621 
1.178725239968962 
0.04877329224294225 
-0.6485844633563045 
0.1018201180783011 
0.1227428012929533 
-0.4135628425375624 
0.0876019036704191 
0.1574602417476294 
0.05947102951772766 
0.1047698988377867 
0.04918767233231881 
-0.252389256974358 
-0.447263182676549 
0.1606490841677153 
0.1601771324200046 
0.03653403577628916 
0.3195890890762176 
-0.07753230738522852 
0.2189299952828607 
0.0145290015942255 
0.4679485264053856 
0.2797931265312651 
0.2909692781302148 
0.2381294058125296 
0.8611277571204717 
-0.3984197380841326 
0.3236829104764928 
0.004644749077310183 
0.1358929645692289 
0.3533336846019403 
0.07806847831438667 
0.02172656237332268 
0.2597127749932224 
1.075247734360399 
0.1496877688302319 
0.3767854654050078 
0.1684307531141517 
0.1582542958468119 
-0.2118076110799474 
0.6308657717128923 
0.4979501671214722 
0.408818111577596 
-1.486658393735683 
-0.09805106769153876 
0.4674310249553985 
0.08432472331037538 
-0.002164124372892897 
0.3263743238260188 
0.00667269677816223 
0.2920519628596323 
0.4331147024947042 
0.1163336487983044 
0.3004742208765351 
1.479502578597421 
0.6774088118481384 
0.3027722403662139 
0.05729745545646685 
-0.007795133967520479 
0.274766746131786 
0.5683048749738024 
0.971202809017667 
-0.2378979062142977 
0.1928387820192446 
-0.1184386805912438 
-0.4418962667994852 
0.005398707803803243 
0.1726537367359487 
0.06610178381681803 
0.233265137764207 
0.009649717393636275 
-0.338179434635804 
-0.07689882584392665 
0.6952149645660242 
-0.008506078963777954 
0.9821859900811446 
0.05148811768914267 
0.1500092591890087 
0.4769878012258694 
0.03383720682391784 
0.7291307278045731 
-0.3150255947390057 
-0.635158622725945 
0.05825466045783617 
0.007637064910065494 
0.3520863132664428 
0.3677100350830712 
0.03385521950748278 
0.21805830948485 
0.4284886203058791 
0.6500380400290739 
0.4564403273842762 
0.1509923725119145 
0.2531083685428067 
0.02814713375239549 
0.1047828940052842 
-0.1914307545427451 
0.522585285764633 
-0.8048742546935705 
-0.03170106276512821 
0.2938306989274483 
0.6302553254354309 
0.3431125034996921 
0.0986743210578082 
6.337799347666735e-05 
0.0611990021384046 
0.1289731124463118 
0.3592161436334739 
-0.09650399772371852 
0.1880612581276765 
0.1341179831824256 
0.2209152413322575 
0.3972518890085974 
0.1201643650299001 
0.6402737245705896 
-0.1630976350404785 
0.5610558669827345 
-0.172760289507855 
0.1133820598291869 
0.1926651238433575 
0.05811922463048753 
0.09804745565643341 
0.140297267070437 
-0.2126708607581243 
0.1870629887761834 
-0.009011026565450693 
-0.1459976367954711 
0.2733818536561493 
0.0560587926890998 
0.1492262703394244 
0.06300283163998517 
0.3440150828223658 
0.4485903123790118 
-0.03287437754519068 
0.1880026431827187 
0.1256935221444394 
0.2961832790988921 
0.0319605178554115 
0.1435099550415311 
-0.401079985718614 
-0.07736803538316525 
0.2377538910683552 
0.1552351656002772 
-0.09881936490297456 
0.1970603327029807 
0.1965916702314069 
-0.5952071075927077 
0.3066619916886649 
-0.9626270309819285 
0.7903303174574586 
0.1108956456462126 
0.1251492426982344 
-0.00731712858025328 
0.12167411915723 
-0.3791343595614322 
-0.1622925963442686 
0.1688632043822093 
0.4158428650038541 
0.4665559006038906 
0.1597327279270056 
0.05945312689149641 
0.9124491583964555 
0.5004915557379522 
0.1071499102258618 
0.6158577696109692 
1.068893239680041 
0.02043113713854093 
0.5651518023284313 
0.4109857432400401 
0.2259436960088071 
-0.0232757890889064 
-0.7023067846106126 
0.06810301973432062 
0.03423055241400254 
0.02593448349926099 
0.2099619799959433 
0.5170750396949905 
-0.9338756967474924 
0.0537390305200626 
0.04306465370430795 
0.101296766047554 
-1.02862632868593 
0.2942755249348445 
-0.5006967574931289 
0.5419863686856274 
-0.2193768325296126 
0.554152508247591 
0.2897350691063935 
0.1245294516038263 
0.4096469020001998 
0.1669666472701482 
0.5360370402265708 
0.343802019819684 
0.1361751937538664 
0.1083461768714084 
0.2865393255980377 
0.7415277581397779 
0.624304008994539 
0.03263715143814488 
0.05883617240813432 
0.06872506134045421 
0.6538202040538897 
0.0111626781231475 
1.270298209160212 
0.001302202457896841 
-0.4156610177457703 
0.1160391713118175 
0.01926210651473184 
0.08904271323931462 
0.1810352459448727 
-0.01808305680224172 
0.2065325519365821 
-0.02619133975940599 
0.1169105256544333 
0.1745560497645901 
0.4263615372557381 
0.02500640075166596 
0.04367594325158499 
-0.2912570888636127 
0.01116830381143436 
0.1321964092538067 
-0.07726944355989378 
0.07301693733134682 
-1.470087460364908 
0.02169985171013239 
-0.9009678207844227 
0.1513385500735881 
0.06339859660323785 
0.4946457531219781 
0.3099148366757945 
-0.02511375921826445 
0.07798228584075814 
0.1442342129438972 
-0.04796969477279928 
0.01657254349556179 
0.09279598727129221 
0.6547325768278409 
0.03644578161606207 
-0.7491263116427815 
-0.1197737848789079 
0.03466029124510633 
0.2897356778809345 
-0.004038086439490629 
0.09355781818114854 
0.2556991187795453 
0.02031380215617494 
-0.01369166198620426 
0.004507197318355416 
0.0215377147627642 
0.03407115400500754 
0.4403814664719392 
0.546979677963594 
0.1549858575485245 
0.235492866758985 
0.2014506924265171 
0.00817842086581776 
0.08322153375988908 
0.1285101347958446 
0.5891890098017496 
0.6571681114817569 
0.9318244056575971 
-0.01770295174338253 
-0.008275916086293661 
-0.1079679945601723 
0.1316623152532191 
0.60120406398764 
0.2759231581955519 
-0.336824104171415 
0.4103468536912052 
0.3090408630361229 
-0.04472599337723172 
0.3174038640459991 
0.3746751112452603 
0.02685396890982919 
0.6732745834828737 
0.02106759530102064 
0.8428210086729481 
0.205014860918977 
-0.2207173026933732 
0.1834890510620697 
-0.2224929344058862 
0.1148556109961568 
0.1258592599068849 
0.1028030658921147 
0.3430678481260105 
0.09738602024480902 
0.2071007401317869 
0.1917733758371243 
0.293737727149552 
-0.08447466746696949 
0.03463036795629897 
0.04804103741666661 
0.7993014095535588 
0.1389231409088998 
0.4150303323160349 
-0.07377109877413142 
0.2444974610844799 
0.8339431768459905 
0.06254030720948689 
-0.1879294179018308 
0.2912151437208396 
-0.0034184681384081 
0.1360072260491282 
0.002346140848570838 
0.2030965589668501 
0.2319943870797458 
-0.3263878504555434 
0.1010534157885771 
0.007015903097786632 
0.9485399591912774 
0.08264868403997085 
0.254595741733763 
0.6443996420833702 
0 
0.04236170624144443 
0 
0.02240966286030533 
1.117703521817027 
0.5533261252762807 
0.005623122298079554 
0.2970626061609074 
0.2804107109313802 
0.4328687850069783 
0.03307059825964489 
0.5123817443626415 
0.2918616666030147 
0.03465223116746669 
0.6370747673242442 
0.2039171607207144 
-0.7012532072720064 
0.09766357094522161 
0.03708160519565467 
0.881663844648636 
0.03716164967854953 
-0.005392312103037454 
0.3544715488722414 
0.2267452803633354 
0.0610723183081231 
0.07386404737988081 
0.02672838233098574 
0.1414045706553315 
0.5654148778238701 
0.1023024864501016 
0.4059152611754328 
0 
0.1061674284005089 
0.2519671149191953 
0.2285263359802227 
-0.04094688865150013 
0.4203745626204645 
0.004043058527954988 
0.08429851318297113 
0.002096316389424481 
0.3872185888727827 
0.7390192008480275 
0.04437382383202624 
0.05946442069831538 
0.09890727314298008 
0.06660345498540667 
0.1566765107925138 
0.850411429326387 
-0.1317275951719044 
0.3000974278623194 
0.4426691115584618 
0.05788514566272443 
0.007704170904815376 
0.05692656342632631 
0.237365460310054 
0.05545387995269487 
0.07091105970862606 
0.2755158926117111 
0.7020166932761698 
0.05400250139215733 
0.009417502367383181 
0.226783923554803 
0.4760462222934992 
0.005337726840523888 
0.0447335850997966 
0.396645962175478 
0.2096117887277654 
-0.001142190080638347 
0.07545134471212486 
0.2045785373129813 
0.5013071047463028 
0.6576286117222329 
0.03053766921521327 
-0.03271108403516251 
0.01368121245729138 
-0.3533109430189689 
-0.01474574777784284 
0.06206663003080911 
0.3088522580253497 
0.1402420109874022 
0.7405635247422117 
0.000547012082100564 
0.3954837996515966 
0.1218048622382048 
-0.3486541165353882 
0.2120805270073668 
0.3323004945343825 
0.1627177277879215 
0.4210893762853097 
0.09545568508487325 
0.03359157284588223 
0.09711978962583877 
0.3565225729468818 
-0.2297729622331029 
0.1199748998590456 
-0.009299031199199212 
0.2616245205649882 
0.03132178918136017 
0.2353979758370376 
0.3366869484168087 
0.09883482858805223 
0.3053743142881059 
1.046921909331903 
0.5841767890495562 
0.0127480254348393 
0.1130271901771061 
-0.09868979249647301 
0.2587249081060046 
0.2270512309269036 
-0.005930899025697198 
0.5651842925549533 
0.01274117254255404 
0.4402196905255122 
0.03154722944086728 
0.4677937644184895 
-0.114124117821299 
0.003662117385851588 
-0.6217579577324485 
0.02253659044097509 
0.2284576728055477 
0.1055115993896927 
0.1522469033189901 
0 
0.8620397003944993 
0.000622083383673509 
0.07056864940907352 
0.2772303919456383 
0.1747675354445201 
0.1805285370996508 
0.2135560419737527 
0.04061864387152062 
0.1696004530549678 
0.6099465505638985 
0.6957267604720453 
0.07956373245779524 
0.2103814248238079 
0.4807291674799112 
0.2920242245099807 
-0.08355947052744714 
-0.09534884965860917 
0.03326451158992449 
-0.02272634801669241 
0.145000458768984 
0.02317280310709736 
0.08999338707918764 
0.1319914359909402 
0.1813787371246311 
-0.1873608295022656 
0.2678242849848053 
-0.07507338934237588 
-0.007221756692613261 
-0.007482472197676505 
-1.37146805565106 
0.1190117635794188 
0.07499170483419668 
0.03456445404043255 
0.04868778155859403 
0.1307596268064402 
0.001090094134103313 
0.2770839855528924 
0.1808410882400081 
0.08810400687276819 
0.0572708809293639 
0.08383183560405541 
-0.08652372203870401 
0.1664044381576229 
0.01581684309282171 
0.02164988128201694 
0.09156455870544618 
0.2688076341093512 
0.4378413079815521 
0.3472723832341703 
0.01805769835263424 
0.1268193750402445 
0.07734721419989338 
-0.03916778766839552 
0.33725574421003 
0.6383620723447804 
0.009158112090778298 
0.04740215912983513 
0.3515751077806819 
0.07260003078271021 
0.2460131361542066 
0.3037659851028598 
0.002413486505453288 
0.1107659624183761 
0.04801693198275429 
0.1008730775321919 
0.1404614347259349 
0.1582706196380446 
0.3845753364563093 
0.1891821690251774 
0.340456263372534 
0.4545599782699128 
0.1499224386435672 
0.02137726275007569 
0.2418381652744754 
0.4366559775549022 
0.2675836275335524 
0.6701152351923305 
0.08197843050881574 
0.19845248627735 
0.2423117146297767 
0.03783644673797177 
0.1116783601179975 
0.5606044407904023 
0.1716821050440821 
-0.06002344032040782 
0.09855789552452196 
0.06407851619090438 
0.2027691414882034 
0.1070006432036621 
-0.09361774437605672 
-0.2661262756843628 
0.002379009002391495 
0.003230151378475529 
0.0512339331413779 
0.1991309467292914 
0 
0.4711975907185834 
0.0114766390714717 
0.08186559710209958 
-0.009992946031893856 
0.2312485371530912 
0.3397483492538974 
0.7813458903937878 
0.1293012477864334 
0.06690015430642544 
0.2860178162595449 
0.0863856651257672 
0.26711391072827 
0.7526073953050781 
0.2943408829578006 
0.0335562249662457 
0.2659131032092752 
-0.2060927894704235 
0.8053659262577165 
0.06244425402236767 
0.03446649590427997 
-0.5587743036868837 
0.09600629298527955 
0.04170526901156024 
0.06262740993272695 
0 
0.8205287109599858 
0.2936301312300138 
0.005709430390773741 
0.2425214567691687 
0.2041025757115685 
-0.04038160566887573 
0.1273406692624941 
0.3679511164654919 
0.8485935452919023 
0.1232663878367489 
0.8799938254080002 
0.4355762912659966 
0.04406733061214174 
0 
0.1888930948487057 
7.711732738130506e-05 
0.03298774321574163 
0.1746259695215998 
0.09468031054106149 
0.1265900265117161 
0.02723440606542576 
0.1924327315889314 
-0.2055633872833192 
0.6558287739227125 
0.1670047205242735 
0.1223700414444001 
0.2046130030883138 
0.07936915625740033 
0.12232760489532 
0.2776719869406872 
0 
0.055879366598118 
0.002249410935544227 
-0.1729817017687896 
0.7264378558910142 
0.2561742921603226 
0.1767905547963344 
0.2726652921630481 
-0.00927066930779258 
0.2062233581071347 
0.01059140510667739 
-0.0587825186956208 
-0.4077870124536196 
0.06353214303635431 
0.6692822307824089 
0.2702672174846363 
0.1554234613808095 
0.3555327821593937 
0.2157942337238295 
0.1097281391013295 
0.246697139276927 
-0.2407522853330407 
0 
0.4873083264067358 
0.233056050215361 
-0.315187781082152 
0.07664550586291401 
0.5304847041626443 
0.02852424949682308 
0.03784531661677382 
-0.1345597771547105 
0.2713682161562314 
0.05059970245679186 
-0.2751646516582097 
-0.1141606528705005 
0.02403439275107928 
0.1823158344252826 
0.09284097510137168 
0.02227788123009724 
0.4103342887389314 
0.06177908562633511 
-0.01226775064651336 
0.01606537248144878 
0.1985931720828704 
0.002219795113240733 
0.4306520881392899 
0.3476360182627509 
0.03637328949962681 
0.1280936208278914 
0.3834771301696568 
0.05950409884951444 
0.08136242506258172 
0.01047270215924609 
0.1045268778288182 
0 
0.04321431675660564 
0.09214463668929071 
0.3491436579403916 
0.1483283965196088 
0.6123064786278088 
0.01460401744975624 
0.1436489431735767 
0.5196601583388065 
0.225617684731667 
0.1555252545519407 
0.1162369690327083 
0.4366721199196598 
0.1592390984516594 
0.01092137162214997 
0.005780223404973951 
0.07859607406149949 
0.5322896239756635 
0.5571857642136768 
0.3325090645282026 
0.1765342846801493 
0.02870397003858272 
0.5374504934228642 
0.6638759317184535 
0.2192020290044452 
-0.01847972698448334 
0.1078051512796215 
0.01627253686879672 
0.03007345463424746 
0.1540628402877675 
0.6841172236663875 
0 
0.008418294738474965 
0.06026396209298979 
-0.1811302566140451 
0.6139324771379909 
0.00451531172684352 
0.04091601409508665 
0.149118261597783 
0.2083135489178747 
0.2012512461107459 
0.02893620391700347 
0.02166441694159453 
0.01412115408827277 
-0.1697566878594882 
-0.6520861677108816 
0.01339349936757467 
0.07683550931881836 
0.04392100148029843 
0.01443892847414776 
0.5093911033116051 
0.05295104455637711 
0.03614677061812183 
0.0047712746859829 
0.170729106502929 
0.06839200380085969 
0.003628375483886309 
0.2063217151486364 
0.1459788032706 
0.02419267187993195 
0.3518283712661954 
0.3141972612698654 
0.08319163621502614 
0.2672183661237793 
0.07810510380633445 
-0.01188045864886362 
-0.05100541351077133 
0 
0.3975545937057554 
-0.07161283984079798 
0.05159370759966636 
0.1434208940348999 
0.2451786893971259 
0.3606803467219177 
0.00513995509633402 
-0.04127387192087606 
0.450969248073995 
-0.06506883584064597 
0.1732755028172477 
0.2946604055368663 
0.1577277973632819 
0 
0.0806598127101306 
0.4550341015948143 
0.002525147200927886 
0.2262725749356939 
0.1543961441246824 
0.9661521219395816 
0.09675487094813705 
0.05796788840147248 
0.09610376960079027 
-0.8034605749466668 
-0.004932018054742604 
0.795919723766854 
0 
0.04141885284407211 
0.1756746796528617 
0.01234373772917933 
0.1736661470309392 
0.2227283914677513 
0 
0.3415420738761167 
-0.01183056719873104 
0.5858657963115017 
0.2377953558491162 
0.05852668727573536 
0.5412541243303074 
0.1529572229186411 
0.05097657483280563 
0.2464027110142054 
-0.9198953329651162 
0.327056839877952 
-0.04195685461355746 
0.01313951451548589 
-0.3098920794890265 
0.006346743421601374 
-0.09029948862504901 
0.2220247938714437 
0.3788805738049097 
0.1860292334113781 
0.0341258765255984 
0.4070226806678989 
0.02482479014758594 
0.07157565840245417 
0.1281183201991402 
0.06359310877712275 
-0.01118885268636661 
0.2596348781994823 
0.04218967644876278 
-0.6015157785561329 
0.3023218175087993 
0.2482848229700443 
0.06469838437169399 
0.113043776852521 
0.1175925625114126 
0.003394829061840448 
0.9134485602479295 
0.175539366374381 
0.06840115926489834 
0.1165047237513705 
0.1300207586140497 
0.2577120665672842 
0.2455238385813812 
-0.04480257815698883 
-0.1681325604273383 
0.0292032416537723 
0.04223357809188524 
-0.64656817234651 
0.02198340759146058 
0.1051850461173525 
-0.201659554568679 
0 
0 
0.1134263186502025 
0.007719384192221888 
0.3287461498369671 
0.1228289881856827 
0.03508270961435091 
0.004822931383575967 
0.1089624586140919 
0.3845950714381576 
0.01069944842919257 
0.01384862252023179 
0.4511442976226475 
0.02385114619524026 
0.05745795172779701 
0.00766234715871521 
0.1227152984451515 
0.4461216970795372 
0.1433647992353606 
0.3282091235219517 
0.2812988061984663 
0.1167659270812824 
0.08902902548704969 
0.2879423174125916 
0.03951432784500774 
0.0671063431860439 
0.2198375639814542 
0.09284224550109062 
0.005983241625329436 
0.3128461339912392 
0.002590134433736528 
0.20018130968814 
0.05285551396386292 
-0.06516834043886525 
0.4612145108868998 
0.3367083232255511 
0.001514147524612106 
0.1431846479655072 
0.1770214890328588 
0.09507358106887054 
0.3444439537800124 
-0.3584995197104826 
0.009094229658359687 
0.2055698141987622 
0.07272751962904997 
0.009030590700237517 
0.5057856990519932 
0.1469879830630818 
0.1699360568677132 
0 
0.2709546013760631 
-0.01284506503026942 
0.2241216119531204 
0.2033768837908509 
-0.01384042460901521 
0.1166321860614116 
-0.0504300615189618 
0.129608965759902 
-0.003198588809511154 
0.003402801521581279 
0.9421661761035144 
-0.6077493963155529 
-0.5456151595896578 
0.07561243312384135 
0.03687616425602278 
0.01180983436372982 
0 
0.2487970750297323 
0 
0.3527186947310831 
0.08638526986683388 
0.1190303918310305 
0.1138559584912079 
0.1063086295864864 
0.3744654809822871 
0.4914444330547879 
0.3213947525123604 
-0.04158179665364523 
-0.07710663161660705 
0.8141463846166482 
0.6993071849927243 
0.1985301882152258 
0.06024734935584277 
0.6021122715035998 
0.2844261650833635 
0.244439477858425 
0.1255672880389159 
0.00854794481465232 
0.03067629558513748 
0.4213914193096924 
0.2151661741773713 
0.2716237334921996 
0.1680593432938385 
0.2250489509665026 
0.1775838318596787 
0.09411426140423387 
0.09894901182584949 
0.2215122739424907 
0.3507389857094805 
0.04782405870014084 
-0.004511236829296913 
-0.01423592310288166 
0.04402996025696723 
0.01193669591327234 
0.02518430983838424 
0.7913638005760745 
0.02806323655527162 
-0.128622234153529 
0.2019229581747026 
0.3203901555147307 
0.010061889156657 
0.01575462833703731 
0.08227191914388768 
-0.05119257100931163 
0.1729952885144248 
0.3179060996902924 
0.3146938647763566 
0.3331456396177249 
0.5834182686374892 
0 
0.01279878975051247 
-0.2429215131727886 
0.01040081427107419 
0.009223630000578936 
0.1643263758954341 
0.1093901268303283 
0.1078155684000717 
0.03136347587478013 
0.2909125742898335 
0.09879326752425684 
0.0003728299316332284 
0.05140510873949518 
-0.06559556344092954 
0.120575709691225 
0.1921133366979523 
0.002279068575490472 
0.100020666789354 
0.2081578856372409 
0.05019031850649765 
0 
-0.09832262046773416 
0.1769807458384362 
0.07580268120942719 
0.03859086859608267 
-0.3678658916951713 
0.3548233774956439 
0.1129209822922045 
0.2067569112451097 
-0.1058228073419019 
0.6630552674784331 
0.2664648101698144 
0.1165817899352282 
0.01840477772524346 
0.4563353504188556 
0.3685889694110911 
0.1392432910233922 
0.01509445619329482 
0.05311881724675706 
0.03089270159405896 
0.007356127105112354 
0.006044405154279585 
0.1845821595324917 
0.1750924171898487 
0 
0.1647209217161175 
0.02903411079554614 
0.4008988283603001 
0.4508513741866382 
0.4563232803560877 
0.1319995310963723 
-0.1201434834882554 
0.0569343452652486 
0.06410809329845295 
0.1015410749986284 
0.09910352852022319 
0.09723985907351752 
0.1419810851995364 
0.1954542293527504 
-0.002700023006626293 
-0.1000551221818517 
-0.005350182019990261 
0.006937272030341663 
0.9298446253668724 
0.1130123685358512 
0.09120096439023564 
0.2107516959168631 
0.2948892981635729 
0.5459620147300325 
0.0770082651176838 
0.2413012488791281 
0.124583406097893 
0.0130355600698393 
0.1195136743982118 
-0.1246086322595025 
0.2019390217246038 
0.04605282219233659 
-0.01046530368969274 
0.424907532490164 
0.2977384020400801 
0 
0.0134591533244624 
-0.01922944987220537 
0.1141685745953061 
0.09434254583890267 
0.08182861399750696 
0.05891445548905041 
0.02448376320348901 
0 
0.2232540470664088 
0.1321050680312318 
0.186415264591114 
0 
-0.09560485435413435 
0.09436983236677179 
0.1161816900524175 
-0.171662562230074 
-0.04551777922408429 
0.1394161052564358 
0.08956759770299373 
0.04165061155421074 
-0.1617248848583835 
0 
0.003844686278693602 
0.04025013547985551 
0.2465932179941728 
0.4849707108310916 
0.1866118371172368 
0.05206649753432582 
0.08273322604403641 
0.05013579627410364 
0.1079217153943315 
-0.0313592911537067 
0.165445394037257 
0.1108174548726022 
0.06883060087329668 
0.3362097398760091 
0.01184182178123386 
0.03700447603291469 
0.08379345878439842 
0.1845941996769033 
0.2532662114584661 
0.06407595759042789 
0 
0.7222708299340604 
0.001893677271410868 
0.1407981923011128 
0.001872956236690442 
0.5328694222976754 
0 
0.06774786278501865 
0.2799073372338849 
0.4017489874690641 
0.0558270358281058 
0.08064683935652528 
0.3595534559208676 
0.1694917313153148 
0.4077585948033595 
0.3122671246905443 
0.4088995141553221 
0.05614981304439059 
-0.0184928116103405 
0.07914752156505886 
0.03364640600383067 
0.2441068680884678 
0.2518437934451496 
0.2365747854349336 
0.05452749874257461 
0.5615846343837519 
-0.01609070902932317 
0.351117349170431 
0.01163013158872811 
0 
-0.006692440706439771 
0.2045997918552088 
-0.2858898177207042 
0 
0.09937688955225379 
-0.314883011273935 
0 
0.1877529604973812 
0.005511738818334215 
0.1999721137172473 
0.1675060805887979 
0.1520419369791479 
0.007992538236018216 
0.02255241201527358 
0.137172834568736 
0.09787011560470138 
0.002664699702428431 
0.1609676239632152 
0.1223716526894933 
0.02404602206349672 
0.02387728462042228 
0 
0.02582211164093886 
0.1716694018265396 
-0.1717232742052821 
-0.3148624014873731 
0.01054095991949527 
0.1113807302066307 
0.05850635221966555 
0.09996570551870104 
0.4077922885460872 
0.03383096022989984 
0.2275677815051989 
-0.05059259236214315 
0.04886096109523284 
0.4311504043257942 
0.1913530455933224 
0.7281231590101792 
0.3549012991052409 
0.3135920422022251 
0.001092990572705778 
0.08597398437444723 
0.07312999279909609 
0.4228042608805039 
-0.1515412772747367 
0.007091532168825947 
0.001478132097029494 
0.2418595080043638 
0.492904285599416 
0.3036425163025345 
0.321341386639406 
0.07627223070099087 
0.3862663863784822 
0.03401685638756928 
0.01256207015905567 
0.1272083970450752 
0.0882496769763752 
0.007651061837509372 
-0.01482071843027108 
0.4381375653588146 
0.006019768876724355 
0.06700751998944263 
0.2007163829039557 
0.151213794725697 
0.01709365273276506 
0.05907875222189989 
0.002017453771426393 
0 
0.1832741553928596 
0.7363221911992218 
0.2826049581634139 
0.01050552392640259 
0.1593165432905131 
0.0104740162430432 
0.1946949881826545 
0.0005253865305620493 
0.06188632289643049 
0.2133920701830758 
-0.1009025697705363 
0.066532037052611 
0.008738783337001486 
0.265030936088253 
0.01072020822182434 
0 
0.09583510810228267 
0.2215725640551589 
-0.01175561243389514 
0.03593003331830522 
0.2057899595418741 
0 
0.1003216204328442 
0.02038762869035893 
0.4526563283633827 
0.05652091899930724 
0.1011587585785597 
0.1298165692364786 
0.1984977738011529 
0.09596887144194984 
0.2567857656839839 
0.02412672455594591 
0 
0.08736428945873778 
0.1102472547030919 
0.005167993074941975 
0.06576005872753675 
0.2853015211030516 
-0.04205995624154186 
0.00898951671344617 
0.1812462048906518 
0.1338650185167956 
0.002279122258942477 
0.0168569220431451 
0.1243190974282914 
0 
0.07663967378201467 
0.1004656512560907 
0.01749040764289543 
0.02665078666447187 
0.07803745998800091 
0.06460102066069454 
0.05878080248644348 
0.09100390989930428 
0 
0.1385673670658931 
0.02656763886100324 
-0.0097407697827721 
0 
0.09005233191368134 
0.1680370510389721 
0.1860338087564798 
-0.0174005034200236 
0.1157440445733962 
-0.05279604426337958 
0 
0.4008352315903923 
0.1396208981778627 
0 
0.1323796157281072 
0.1799877022991828 
0.05309244026796557 
0.2406149845827661 
0 
0.01611432009199456 
0.01102618506032491 
-0.008154281652110094 
0.2075974519039266 
0.03634136095247831 
0.1718525831354888 
0.120662042325582 
0.03565183620325614 
0.2443765314890799 
0.3219674679562899 
0.02837850854664061 
0.002465268081542606 
-0.03912331281819995 
0.179924597745234 
0.02578661570027435 
0.2077510434476099 
0.1892246012368204 
0.211677725217986 
0.2260325534204383 
0.04773534673056199 
0.312652866288115 
0.2897566025300438 
0 
0.0795349271267575 
-0.004401528997810975 
0 
-0.03251686731942698 
-0.0127899898086152 
0.2146783694563131 
0 
-0.0007584754787898053 
0.213390962164464 
0 
0.1188939630793635 
0.1568795758850772 
0 
0.06713838203667634 
0.177114617434616 
0.07395558637081577 
-0.004440871276191376 
0.1024507895056977 
0.1008371236960842 
0.05885203540042731 
-0.01434129018236197 
0.06737842530577096 
0.002085251938492423 
0.1357164176905442 
0.1019685770979804 
0.2238803159081343 
0.04041870824839523 
0.001493695432468356 
-0.003631624030757244 
0.1227027572672695 
-0.02278184355888895 
0.0008994888955627579 
-0.009830812865415943 
0.07354343955695963 
0.1042534526969116 
0 
0.2907192742212081 
0.0983370807833694 
0.001576015251307835 
0.2968010586085663 
0.05840174371454724 
0.01522000225593378 
-0.06583852446760816 
0.2270031421558484 
0.4640966571393703 
0.07676444399790547 
0.04361458088605873 
0.08321378385580727 
0 
-0.2364959857747992 
-0.07004279607750956 
0.0100399527582949 
0.1013792080442734 
-0.1064340784813418 
0.01126885147436286 
0.05364079304975707 
0.06571777240669097 
0.04433216563601431 
-0.01868457568203359 
0.006992275706541765 
0.112828604538578 
0.3487032929812191 
0.168000747812599 
0.009927947521869089 
0.01599346144858182 
0.09296634047794347 
0.02457681379893522 
0.2974709716797992 
0.01953155071529761 
0 
0.02485431772998482 
0.207875743251477 
0.01349661781725986 
0.4385935012824012 
-0.02419401996105084 
0.2667139976999717 
0.1023760553673209 
0.05597969472543194 
0.1559093561459975 
0.212137302628627 
0.0005803546134383121 
0.248972063190675 
0.2947418408060875 
0.5190837327195329 
-0.1889257516948475 
0.01605469819589334 
0.1014262324138558 
0.4334071091767188 
0.119196689068441 
0.004780825273883439 
0.07410049002275967 
0.1991813029189742 
0.03266616550796798 
0.1993519639192154 
0.3532086850998508 
0.3575742017915167 
0.01155948528444506 
-0.007241445493555484 
0.2661891537282634 
0.0824290903177545 
0.1121451820764856 
0.1219889295182519 
0.0782290779114985 
0.3824762282360435 
0.04648710085119952 
0.1167332158117755 
0 
0.003005499259353013 
0.2535177764676824 
0.03984911166969311 
0.1039091013840104 
0 
0.002851569249487902 
0.1565173553999582 
0 
0.03744804154481445 
0.13871451724495 
0.03125409587655005 
0.02939380628132566 
0.04209640689599795 
0 
-0.06051821397514959 
0.02549894662408028 
0.008017741328681417 
4.78870629182481e-05 
0.01560594326654976 
0.02812752120225883 
0.2396734732718767 
0.07150111179574917 
-0.05475515505609571 
-0.3261172657023006 
0.03105335373434026 
0.01205874242502786 
0.1190942251734482 
-0.1129103712290956 
0.1185736925555399 
0.00215904967466146 
-0.03936994321228458 
0.1130181914624921 
0.02545171999074248 
0.09183360945153987 
0.5824861784560222 
0.2937977993160354 
0.1405050276367304 
0.1065224795434912 
0.02873466984773486 
0.04111608006272058 
0.2057162825694626 
0.2194442170325316 
0.2902004876192676 
0.002100254579757841 
0 
0 
-0.003967064972018861 
0.01354872608541115 
0.1703881149646138 
0.141396663419922 
0.2859395014277391 
0 
0.07783554547756116 
0.3578842974094109 
0.4986926378365715 
0.1678587946216847 
0 
0.08089595961784574 
0.003310001630482342 
-0.3511902726564488 
0.2130835377817993 
0.08277022099010861 
0.04632563143276178 
-0.07646109687615178 
0 
0.1656326169470483 
0.001993103522669057 
-0.2735204624534602 
0.2415365703769887 
0.03029850924688332 
0 
0.2960113590400916 
0.08490755347970273 
0.134763028358006 
0.4480101813070756 
0.1311886114398076 
9.685126252949726e-05 
0.09165256035952848 
0.04867963957144556 
0.1179670054580853 
0.1489883163794327 
0.1162146209871313 
0.07576439256399772 
0.05031983475966389 
0.1779404218484067 
-0.0107187462631024 
0.2042259783299942 
0.1468109900058058 
0.2763994319309749 
0.3122475118571935 
0 
0 
-0.1238232343101328 
-0.1738839687380687 
0.04448466557087456 
0.390606343131346 
0.1084105552903767 
0.03147472264836743 
-0.1309494396848015 
0.009404788957049106 
0.03516670734313736 
0.3346015101390155 
0.114216895255974 
0.07110415977295967 
0.02614161751802628 
0.3708470475636365 
0.1167032415751087 
-0.04039312224318221 
0.1581912139267826 
0.1107014892408541 
0.1345551463617259 
0.01330435794870082 
0.1195818703233021 
0.06244605557423487 
0.1244299389992719 
0.6933911472034745 
0.161427695626633 
0.4121089435896715 
0.05517676217984521 
0.02626302117200451 
0.1859192825140649 
0.007082880754910785 
-0.223286278542846 
-0.08242348061621314 
0.2181346409801583 
0.3243601089606291 
0.5502093818928876 
0.453901897471458 
0.140238460003884 
-0.009327203697601613 
0.4628998958357687 
0.1233856151704421 
0 
0.07164040958269277 
0.02146073041198791 
0.2731854154988929 
0.05072583837392226 
0.06669219027434535 
0.0002635288964260158 
0.2366021195145329 
0.001920004090105833 
0 
0.008807604126810094 
0.2704098588860784 
0.3834931773262377 
0.2096092195991598 
0.1377436252304771 
0 
-0.09461125242730213 
0.1797845411203937 
0 
-0.01343374269081384 
0.3262760595255335 
0.0290041592671333 
0.1141125827135668 
0.155650152850876 
-0.2779917034259258 
0.1840286160519982 
0.1828964307358668 
0.005506524894604474 
0.001002733512406266 
0.184673502187097 
0.03649154423872134 
0.09424473360668797 
0.001585636354046092 
0.4624785840238631 
0.004691749769901324 
0.2853953206614678 
0.1170892415187025 
0.0006735978361415086 
0.2933778010984313 
0.00699271948330377 
0.1533077606378547 
0.05199873037771995 
0.2630289222099773 
0.160181947059745 
0.3354430445663375 
0.4946880910275621 
0.09034794495057238 
0 
0.240704350394824 
0.04481780732091509 
0.1090717077354316 
0 
0.04483013016648203 
0.02843933243237604 
0.05419660682736611 
-0.02782808406996369 
0.1203745418121142 
0.08322078914913687 
0.2116777487996956 
0.06731667188679272 
0 
0.0004944008264956257 
0.3239301626163814 
0.04910482509117445 
0 
0 
0.09899017820793699 
0.08904461222468649 
0.008281467549684457 
-0.7877814395082652 
0.186498817347786 
0.3460225716053628 
0.01309581574236562 
0.2833621105741405 
0.02046306650404311 
0.4658685454477706 
0.4283652900766167 
0.03618701843823654 
0.1648061081110159 
0.04577008368552529 
0.01019982477420441 
0 
0.04806632163250606 
0.03548086037671837 
0 
0.004645169422323095 
-0.4819306681887774 
0.04350425712794954 
0.002796874501208009 
0.06978003429968081 
0.2547181282848097 
0 
0.08809118152225974 
0.3347956103526376 
0.1454686885081579 
0.001653216950155196 
0.02971076347943969 
0.2246806494404653 
-0.01182586332670586 
0 
0.07128052500214754 
0.02811643829228285 
-0.1359531418847054 
0.01272851330260791 
0.2181583504436879 
0.009357063289795355 
0.0006851387760278245 
0.3079101888654907 
-0.1333326166987735 
-0.01353722873781676 
-0.06238975612489978 
0.8692876449630067 
0.005357004384004966 
-0.01221973569729086 
-0.06027512872106657 
0 
0.213849484837821 
0.1831321778887537 
0.1562144987028903 
0 
-0.003146462787004858 
0.09719647754861611 
0.04247212600518743 
0 
0.3684094809501254 
0.02262621800072623 
-0.02190424268874679 
0.02460657087910819 
0.04215191896016144 
0.4516475250534832 
0.1989117330408791 
0.03712142474945915 
0.5156030611438615 
-0.2998017756863015 
0.1157380394535623 
0.1231427356622989 
0.04327503857983799 
0 
-0.01860758431365715 
0.1798050631199655 
0.08699236909327765 
0.3328041195841215 
0.06231648593852149 
0.07437450679140808 
0.08615969854272124 
0.07627556522330622 
0.0936189892161559 
0.1033841134727317 
0.4727397964187192 
0.1307099708811886 
0.2253855208886448 
0.1122762516524721 
-0.006428539364019481 
0.02180981344858299 
-0.09404049953495044 
0.2601325665086283 
0.1954722650745661 
-0.07205776034469807 
0.09459917884573794 
0.05951810983531909 
0.1442327821881739 
-1.587716470624202 
0.007470941488018311 
0.004926117739659723 
0.05805494398092305 
0.01449557309076116 
0.4671871956205657 
0.3193809631127277 
0.09705187285389628 
-0.02090714829650689 
0.1550364823774038 
-0.02356499704521829 
0.1943639981144145 
0.1928812712381943 
0.1637046656733858 
0.2924588575154275 
0.07747994692352798 
0 
0.3730241229545092 
0.4198127290840455 
0.1197931577637881 
0.2139267359970355 
0.02183016239778485 
0.2087239689800456 
0.07611898074356345 
0.2476496759317313 
0 
0.657941097038773 
0.4259758562994831 
0.4822633653555896 
0 
0.01467280978532494 
0.1822962217705515 
-0.01207102125968512 
-0.001425299185238328 
0.2709460462788149 
0.682518281639771 
0 
0 
0.05980142018579214 
0.1768904904459062 
-0.06565849769175724 
0.2776717170468959 
0.0003777081272346503 
0.1464742454466979 
0.1828014167248874 
0.05700268566271195 
0.3235296196226796 
0.1722010673366332 
0.01161627850866794 
0.07388298773117666 
0.3041915440023724 
0.01414297487302622 
0.04197378342816753 
0.00230859668514369 
0 
0.2142517636679334 
0.07081480422465988 
0.2078778296021972 
0.2100051507968738 
0.04452970767678253 
0.00490659039415645 
0.04867453900772484 
0.08615993287591273 
0.2187912078634952 
-0.3536122181005575 
0.106360667976482 
0.6026628072453145 
0.006953553732022869 
0.167232700539502 
0.3034149669753303 
0 
0.03932991871370489 
0.1397328277196931 
0.006051237490216327 
0.04143750355562792 
-0.1023363866181121 
0.09341958376219862 
0.08080975461248062 
0.3080810143824065 
0.3539877225880209 
0.7563250118924481 
0.003477285411284185 
0.0240950956949344 
0 
-0.02485702349396239 
0.162437281696538 
0.1043120681219175 
0.2648350861470699 
0.04006541375606204 
0.25541193055461 
0.03556376360023527 
0.05088576009525891 
0.01881509169694181 
0.7558937831391983 
0.3431176090193148 
0.03082216542781338 
-0.1650275030633502 
0.1569954319725548 
1.044880195244348 
0.09065325584843105 
-0.03284441763300895 
0.3958324298039882 
0.0421657326534684 
0 
0.06598159159413777 
0.05143181647056813 
0 
0.2941840891226354 
0.370361005971486 
0.06967274570709532 
0.2215362144048308 
0.02112305107839407 
0.002923238672240904 
0.00362573149510646 
0.0424532230756153 
0 
-0.02878106782868965 
-0.04162582922879803 
0.2697601711201706 
0.1378359544414982 
0.02446142740054839 
0.3927135982326572 
0.1263182986144926 
0.04126801883517061 
0.4582937499589125 
0.01041921866437621 
0.04949468170795922 
0.02100821404353559 
0.0782205110586399 
2.893339201297967e-05 
0 
0 
0 
0 
0.227410914849631 
0.06779866061332408 
0.159724714072828 
0.1628437824549338 
0.101362039461548 
0.06777819852617398 
0.05065225824000187 
0.00496463406286818 
0.05035759718498412 
0.5245558778554156 
0.1058454816005995 
-0.04936334516072396 
0.2477891020353424 
0 
0.2365338904602829 
0.0354460368297739 
0.00393943712538052 
0.1252925238701446 
0.1297850803210665 
0.08925757644347651 
0.1616783198249978 
0.00440670425200169 
0 
0.271889096032188 
0.01003044630535948 
0.05038665067856999 
-0.1102844928835872 
0.1326722667557792 
0.4268817952430872 
0.09058062281718809 
0 
-0.07387573608399721 
0.03613109642423548 
0.246573234121871 
0.3192694575455333 
0.2653377611653153 
0.02500410884060259 
0.03586941121349489 
0 
0.05892296409201443 
0.002189750140295192 
0.4717027687278297 
0.1002177641131832 
0.1325663224360774 
0.1176694331420778 
0.0003686360978594665 
0.01475177547852275 
0.04617918621030421 
-0.1655401557196473 
0.2052044339546326 
0 
-0.0215112947913542 
0 
0.2355040515467375 
0.03833097046097812 
0.08713318934295197 
0.2112270998956513 
0.09554486874566451 
-0.0163651775310504 
0.1845300454927623 
0.1510308799855027 
0.08814726425785391 
0.08390583508896624 
0.017848475953239 
0.1752829740159861 
0.2751819681751364 
0.05574696563809568 
0.1612923261504273 
0.01320349249974324 
0.2002822842702375 
0.3230967067742789 
0.2520236012753861 
0.06016441584169334 
0.004226290334013419 
0.03419471190249744 
0.1152404156370471 
0.007110269717411371 
0.07074689702825097 
0.2742491358941219 
0 
0.156852772119845 
0.1786257927569277 
0.00823003977506912 
0.3373358628585759 
0.2252525394351583 
0 
0.004166430121451695 
0.003240548683549729 
0.1133514499049205 
0.1780237330002174 
0.0245625340915041 
0.01948910263579007 
0.1287480922304924 
0.03526082200428989 
-0.02250547916185358 
0.0249729002298133 
0 
0.1864588840929416 
-0.2517594962801255 
0.6239670226181844 
0.2271934991269063 
0.6169298336737883 
0.1717387703226917 
0.3934037595807053 
0.0864630372016896 
0.02998164829047842 
0.003099300286548443 
0.02680231329117876 
0.7717801426278798 
0.2730421081346924 
0.252790331733269 
0 
0.233088255350116 
0 
0.03314636378772513 
0.002770229068644161 
0.1740870131412492 
0.1058925904752842 
0 
0.2883392369456851 
0.00082810667156487 
0.3848778339437707 
0 
0.04304918796347959 
0.02946245039948619 
0.1896239017550151 
0 
0.06210172611524925 
0.08067283670972301 
0.02749669636766727 
0.06255581074633579 
0.09010149700002436 
0.005709398558457909 
0.06446930395637016 
0.09115480301482835 
0.007320736074202723 
0.009159994247474986 
-0.1959480415308585 
0 
0.2345013705797359 
0.1058860870792223 
0.6229776571808787 
0.1509281345961514 
0.1919340278285415 
0.08865031070444859 
0.02444464654311417 
0.0157450620286288 
0.1110853699264938 
0.1744259540849337 
0 
0.09640577768562282 
0.001056059335048463 
-0.2377952052154107 
0 
0.01856629190405065 
0.1084820082382917 
0.1062487035995748 
0.3607761930095366 
0.1479528899436479 
0.02040105560086513 
0.07282333245357089 
0.08047108518653312 
0.2627015596698237 
0.1127882049406747 
0.04541331843358474 
0 
-0.09405400956713818 
0.2880288445242503 
0.5027018251308154 
0.1134975539947466 
0.2024750144803976 
0.1950753708071921 
0.001651735797829039 
0.2300093466876727 
0.4782317785511638 
0 
0 
0.1228110581605159 
0.1596711880116718 
0.05034771630038844 
-0.01371797371691298 
0.053774734545736 
0.1336300492882696 
0.08267498160202943 
0 
0.05387189902404668 
6.332530914333725e-05 
0.01230946538591823 
0.1567733813391257 
0.1276084179805567 
0.3794052010762457 
0.007531607145244737 
0.09526945555724559 
0 
0.3911467771775757 
0.2232457443742741 
0.002677461111086674 
0.2673021687877424 
0.009060349544984992 
0.5214133581105291 
0.05522622633564754 
0 
0.05051102796793502 
-0.02046719703911314 
0.6806586131870376 
0 
0.007555172616711062 
0.4441742739443535 
0.1346840918584794 
0 
0 
0.1224103934392732 
0.2572521933924408 
0.005480790272296277 
0.119487612110326 
-0.0410255212063367 
0.1451643386140621 
0 
0.009653487648442465 
0.04044321937654544 
0 
-0.05086626541114467 
0.0005434206216690254 
0.1274463931331395 
0.2209506832365596 
0.00564922333195372 
0.005690706878501035 
0.06717027794267869 
0.1906823494128148 
0.04458527292387889 
0.01716563286688229 
0.1075867389094754 
-0.01404857082449427 
0.004082907426370418 
0.07217791524002021 
0.2624271359497984 
0.5256926322681414 
0.2074029432051987 
0 
0.02845522039761913 
0.04168278301809093 
0.5708494707432643 
0.02865622753329649 
0.03496512312487411 
0.21563049573795 
0.008372860940467616 
-0.01397742923338801 
0.1193098146168579 
0 
0.09986094032655111 
0 
0 
0.5201168011638791 
0.01630860078801017 
0.1067790108334828 
0 
0.07345136053161837 
0.1119138135044252 
0.05494844732494735 
0 
0.2535099788864209 
0.3371041276196001 
0.1074617418343795 
0.07962918668917029 
-0.08818069449071068 
0.0840833938961188 
0.2137057055310458 
0.1185372255007012 
0.08977758594647095 
-0.02395933188704352 
0.2707096988750314 
0.00329415910771715 
0 
0.002094479205025991 
0.0499425115583861 
0.0003656492346662329 
0.01394481175693057 
-0.01478673483951358 
0.0690839148338043 
0.007410770024226352 
0 
0.4076185384421604 
0.2223356373509168 
0.0841900895162189 
0.0125268618511456 
0.1387353336944679 
-0.01010937498647438 
0.0190422755138981 
0.09006270846006975 
0.06731044421725739 
0.06998989611749754 
0.3770223327492691 
0.102316663591099 
0.1428200957277826 
0.111059986814548 
0.02400876126975296 
0.7607475160070191 
0.01087379403023409 
0 
0.07508852308487927 
0.3489714327932478 
0.1350042425962758 
0.02548647817537114 
0.1260428966930906 
-0.0009982624580690742 
0.3366291514790384 
0.007960798213300507 
0.1547782423544908 
0.09462151858379193 
0.2692070215979944 
0.3462180360514119 
0.05005545875929623 
0.1200230658005375 
0.06675992426553759 
0 
0 
0 
0.1221892209684919 
-0.0009793421916910949 
0.008178892290116979 
0.003384986091417508 
0.05583519565554071 
0.005121302698078489 
0.08474296317694036 
0.05727225962318339 
0.04547632342218132 
0.0009469734935027144 
0.3509014587337737 
0.2625626734284334 
0.01272851033936299 
0.06945459119465322 
0.0236201331473574 
0.1099881477651252 
0.007402120945888456 
0 
0 
0.1017012433570315 
-0.01329459428011322 
0.1546091367794454 
0.6266123901350014 
0 
0.2252432376159186 
0.4693842906592331 
0 
0.03543695085883327 
0.1908259200580326 
0.0306568768392294 
0 
0.005750000836274382 
0.01756710735979447 
0.001469404741777422 
0.6292651725568092 
-0.1692039971367234 
0.02549857950195143 
0.2145716569790409 
0.145458248283324 
-0.07014503721563442 
0.317753662004259 
-0.02030951784101417 
0.113267429358486 
0.03509318132977113 
0.1097215880169415 
0.05306722168286586 
0.001922813702674518 
0.5504856325959676 
0.09214261055166953 
0.6198116123865145 
0 
0.06722196652941098 
0.01116148010955327 
0.1824319843304051 
0.7504556624499169 
0.2305644991202524 
0.1236634058610915 
0 
0 
0.01458563999805847 
0 
-0.06632101904574483 
0.0295802985690307 
0.01702440867226088 
0.2853239392646929 
0.07276351095498663 
0.09791307192510569 
0.00209618701229786 
0.08244404851491607 
0.2793460184250356 
0.004049057313987333 
-0.02228191762394031 
0.05810693197598206 
0.2970539897723346 
0.1420715390804646 
0.01443738229354354 
0.01838594096296091 
0 
0.01222477417560579 
0.002410595764304383 
0.2104007985820401 
0.4701065602731864 
0.1227449372843619 
0.3403479687369428 
0 
0 
0.0001722972746335254 
0.1043069547634043 
0.2151889469560792 
0.03434668019233464 
0.02327434915318122 
0.003197318187363778 
0.3849037124006101 
0.2547706170939243 
0.1372468479042942 
0.2083064694520862 
0.1282817971268286 
0 
0.1022708463543681 
-0.05115517401880568 
0.02565231560817558 
0.01870215188005674 
0.1170883384263894 
0.567677097374227 
0.07132781126235256 
0.3231065598815942 
0 
0.01644627879512562 
0.1604538831079274 
0.05104568028406593 
-0.01328354129545679 
0 
0.06786906678450694 
0.03348326388365144 
0.03482466739747157 
0.002929499415079833 
0.005240089692187229 
0.01647825122365273 
0.5290529034631896 
0.01085754690390569 
0.210755683749564 
0.08231743888179904 
0 
-0.002388438400502847 
0.08325323349173491 
0.02490433969287442 
0.01771410619195123 
0.1953368698739264 
0.3274118121000867 
0.006191467458667848 
0.04788213251686123 
0.1512025115340742 
0.01258125829635245 
0.1116048682663902 
0 
0.0052343649197803 
-0.1537556657480489 
0.1642527844997791 
0 
0.2757525702593801 
0.01352284774466127 
0.161775732894781 
0.01215345967920703 
0.0006209733086263142 
0 
0.001651165498650124 
0.1410813754912994 
0 
0.1253673523851235 
0.06808455973575707 
0.06685642337444087 
0.2555068223035153 
0 
0.03520548283820284 
0.08822609941833773 
0 
0.01644763835075588 
0.007108494796816913 
0.01371248447562903 
0.1163644845272734 
0.06300479985376485 
0.008401031715210271 
0.1300193182346394 
0.0604916732737337 
-0.01662431089311737 
0 
0 
0.02736058248993944 
0.2925743506109333 
0 
0.016158648282705 
0.04349691365093734 
0.07021574924488111 
-0.9329651843850294 
-0.2271899154530177 
0.1914333831511339 
-0.2709100859534496 
0.03126286936978059 
0.1670524451151067 
0.01148259283412862 
0.1942219965971799 
0.002196159986470368 
0 
0.01399117255225012 
0 
0.5782251780466534 
0 
0.09592632048319734 
0.07380171195074027 
0.06344042936338375 
0.1816258033549494 
0.02447259408641109 
0.1549326360332586 
0.04106401927913739 
0 
0.03124266111937861 
0.3250485025788905 
0 
0.01479041848040433 
0 
0.0193362538323415 
0.08546844914906139 
0.0551543187179086 
0.3252406761375424 
0.1908963490888647 
-0.00987678625947986 
0.1817227098629466 
0.150442022869174 
0.01127897052226545 
0.004604855633773659 
0.2058730220949589 
0.7405992344848598 
0.08172200163355679 
0 
0.03006708305995343 
0.5013611350326324 
0.03897046737037269 
0.0853982441252622 
0 
0.000690263221106313 
0.3796854847446254 
-0.006415748431305539 
-0.205744222868406 
0.01651400557150395 
0.05300521572780234 
0.01748827557219362 
0.01458540896667379 
-0.02069369743090273 
0 
-0.1702821836542888 
0 
0 
0.2014980840380008 
0.2199028366634339 
0.0007867018163818462 
0.1811102860928533 
0.0416749896879121 
0.2272195344275756 
0.09475785089825615 
0.2203388253061034 
0.01012635391858633 
0.03801111555339066 
0 
0.04455364252226286 
0.1129685098630943 
0.03504469396042595 
0.08604819560989302 
0.02264835205046365 
0.3730887904496201 
0.04584918210447854 
-0.1198787526840855 
0.1277571836367992 
0.009198147260264905 
0.07357729743484247 
0.01848080625113661 
0.1287804194374539 
0.1175594781761705 
0.04020570910232885 
0 
-0.7301228367709752 
0.02202405780786353 
0.1641354966323487 
0.01111128720056121 
0 
0.142914667461057 
0.731834086135413 
0.004087284019149505 
0.01314751944343663 
0.09408556920796698 
-0.002102065889818241 
0.02234634193600685 
0.005772121109105897 
0.002086567107756069 
0.07419359166713578 
-0.2243661125986575 
0.4433853398973912 
0.001225841703242243 
0 
0.4529348120347934 
0.0958064106202588 
0.4130755732200685 
0.2763353894389524 
0.005088527122918578 
0 
0.1149102698488589 
0.1682921116423601 
0.06089721345462784 
0.002888775632386489 
0.1444758668251845 
0.1088906375948694 
0.124372641472908 
0.8737859995197688 
0.009102151352437724 
0.004642150410866228 
0.07862786463911006 
0.0007495082474277647 
0.3865394050759763 
0.0909638998542618 
0.1856102452981831 
0.02301951412818833 
0.02495825564108621 
0.1303270920877988 
0.2338222924819816 
0.002413318886409238 
0.08820997561029575 
0.02321174599188726 
0.05566699521187689 
-0.0002198863148476853 
0.2290641347784693 
-0.01556605423472238 
0.07850793004028225 
0.3631596917640907 
0.03459543843215984 
0 
-0.01696236925542948 
0.1513115729923783 
0.0133169175365133 
0.1967182118794389 
0.008956877179656987 
0 
-0.1098218230769486 
0.01856088907914595 
0.1044713990315933 
0.0977878064748855 
0.1732506244927436 
0.4027989583569522 
0.009370074095753774 
0.02004089804021343 
0.0635326544108475 
0.0962786734394015 
0 
0.02298352492394738 
0.1397978628297143 
0.006496612454448672 
0.1349923831193079 
0.02487260324907919 
0.1055145238487861 
0.2053393954872981 
0.07645189324563643 
0.01459306438413263 
0.01484222260973298 
0.002215019696009006 
0.2285169841302896 
0.1119618319049262 
0.02367636186054969 
0 
0.1210783249530216 
-0.2259518644911653 
0.1187814779668351 
0.397859803236951 
0.1382614185679829 
0 
0.3900631693764304 
0.2412608290753849 
-0.02313403354199225 
0 
0.009484439963413046 
0.003724317061542996 
0.1915776844320348 
0 
0 
0.08396544707082269 
0.03143318463769084 
0.0219645039152899 
0.1321694383548652 
0.2411349702875445 
0.01369914852839465 
0.3967879763441624 
0 
0 
0.0001894264803422621 
0.0003790576655968289 
0.6067824088740934 
0.2042532564764085 
0.05053932488030215 
0 
0.08967032332355876 
0.02546698889462648 
0.3674623158255292 
0.2098662635671107 
0.1080404673114695 
0.001410715582719559 
0.4195333770261011 
0.02873152349701053 
0.02104773205020536 
0 
0.04452377826281369 
0.001508659541471553 
0 
0.08546614568779413 
0.06433034829074082 
0.01428380509192786 
0.006266782144136703 
0.01421223423983875 
0.01463392487267563 
0 
0.1399025628624281 
0.2254521195641744 
0 
0.02328400327259317 
0.020223044720066 
0.05304818065537354 
0.04026878657215571 
0.1513857039869198 
-0.08305408821647015 
0.1174385765285586 
0 
0.03050350134630259 
0.2973197293834602 
0.001488491016875688 
0.03549295979170151 
0.1058760401061842 
0.2248204855137576 
0.08565653166062742 
0.01707047746025188 
0.3227116461768055 
0.02416406244355597 
0 
0.1224671920867496 
0.04355534489831259 
0 
0.02204848830374105 
0.1192052716199053 
0.3970930216727783 
0.1449479862589935 
0.05282285385274558 
0.08814967741205168 
-0.05022324066508158 
0.1335889722422332 
0.01808136073474554 
0.006980608686953787 
0.07830296784293043 
0.04214570230903023 
-0.08516468811954601 
0.05008932736008104 
0.005042176781171075 
0.03057328437001039 
0.3111661554843159 
0.02019441758448038 
0.06474096454952691 
0.006205222055309783 
0.09047877466590908 
0.00989985947163498 
0.03446661523829842 
0.1406582369423308 
-0.8272066230367683 
0 
0.08575694076520697 
-0.008457253942198144 
0.2088773712291924 
0.05562764856307491 
0.01136700392581138 
0.08214476151984995 
0 
0.2009395924896907 
-0.09222732643796924 
0 
0.03980274166417094 
0.2503907282663194 
0.006402238680515022 
-0.2395063614807399 
0.002298506378663496 
0.00165712548015311 
0.579104767051567 
-0.04263174626123029 
0.02131679102919707 
0.01849753616070197 
0.2255286337861293 
0.05185244875160797 
0.2507452720920677 
0.00519049520955842 
0.04871436682014113 
0.0149643871112701 
0.3666810874037051 
0.007363465305271363 
0.06838924585146045 
0.01695229520768519 
0.03158854364259403 
0.1939473819357918 
0.0007827499301937702 
0.008152090500225116 
0.03093819241993506 
0 
0.05265003541062623 
0.1488981557410994 
0.3085814865712682 
0.02087144063257218 
0.1183053028186681 
0.1164418215213155 
0.08692707523850647 
0.4168307346893145 
0 
0.06812992664189871 
0.2411105624769823 
-0.004520070667563379 
0 
0 
-0.0149176438770156 
-0.970123129009994 
0.187437305101689 
0.1206376702064695 
0.02992605593293395 
0.0270370069346571 
0.3949605879094369 
0 
0.3664521694957459 
0.125211055586238 
0.04699790706461143 
0.1080437182456735 
-0.15780433227725 
0 
0 
0.07607615541701877 
0.2105790183558249 
0.003348607929783148 
0 
0.09255559681517687 
0.08689534451921777 
-0.1368502242916796 
0.01865154514407889 
0 
0.2837706389699566 
0.01484315528892369 
0.04625405073827644 
-0.1459124102943198 
0.01028670164535278 
0.02657004767680386 
0.05081915095946427 
0.03969293279196175 
0 
0.03668730360670966 
0.02464482112872716 
0.1536204319640484 
0.4956361373204042 
0.006552589455933115 
0.2686951149122098 
0.3795036520501049 
0.2938324116712762 
0.09538198917271327 
0.02092769395164092 
0.1252905199081659 
0 
0 
0.0993735032389006 
0 
1.210338720155788 
0.0181380415672806 
0.0610108113427162 
0.6744936839222567 
0 
0.4603704700432592 
0.01983131104696999 
0.5906779795219069 
0.01138192635725663 
0 
0.2567248590147291 
0.176379179917009 
0.04070891103847753 
0.003386725808915021 
0.05705051284316297 
0 
0 
0.237544925025303 
0.08327487293009894 
0.1022208945074876 
0.09672528255344699 
0.2458428246260159 
0.2078845410454468 
0.02299477985907373 
0.01822559172603107 
0.01199886372376972 
0.04819872572182739 
0.004330626018888311 
0.09746994100411473 
0.1322866422981617 
0 
0.03416225512263354 
0.1159249230648028 
0.03383328621053475 
0.005285907087894815 
0.1846739744166242 
0.05828847522043518 
0.02277579074666395 
0.05587732176727643 
0.02073949378792833 
0.5375814170766706 
0 
0.01545531194710375 
0.02514432929476569 
0.06876251296374816 
0 
0.05896385930507365 
0.03942208027987285 
0.01320550552400914 
0.09721395551266081 
-0.0061960059919364 
-0.1610991776031559 
0.07608670192034984 
0.1780209046642621 
0.2112690830383205 
0.1386542549475593 
0.002306362972759448 
0.2076740391439567 
0 
0.0149402769081018 
-0.0557910283657227 
0.0175144049769355 
0.04285280102014759 
0.06619008608428746 
0 
0 
0.163361710464536 
0.008156940707736184 
0.1094225482338927 
0 
0.08670617002694869 
0.2389440679285445 
0.04745654054508631 
0.04556708210457356 
0.3890634633113929 
0.02236313159106231 
0.1693431684554005 
0.2079541834700275 
0.00485570415186063 
0.1636822291574307 
0.0706148608971497 
0.003083157996364314 
0.1718862264511527 
-0.02557504231241415 
0.1127412076898331 
0.2358038493762237 
0.09144484150100694 
0.05103789276047618 
0.01326456243208826 
-0.2649154340974557 
0.05533742904621407 
0 
0.1319311939778562 
0.06467761452874196 
0.2384585203695007 
-0.006517682474731535 
0.007694416979579025 
0 
0 
0 
0.03201650977192304 
0.1253154353576467 
0.1331214243162135 
0 
0 
0.0007416908154465669 
0.01538340543271592 
0.001520003304851024 
0.09013669855687027 
0.530173471986188 
0.1197892788458738 
0.4393685820467886 
0.3429134661107577 
0.0009886162034253528 
0.1197672068172856 
0.07259559379958239 
0.1688187993930944 
0.09066631931401253 
0.06280374540865265 
0.02717167371442606 
0.06662441733688566 
0.06355419883111199 
0.02387761567619936 
0.0420234773171162 
0.1904873338453568 
0.1957544771409941 
0.0009779467829257578 
0.01501602990480769 
0.2517247220093531 
0.00564590711198313 
0.04025153922593747 
0.006972237229434847 
0.004800006943613379 
0.006806040925831949 
0.1380955319729701 
0.01325149727671154 
0.005224663231074707 
0.2243788618820959 
0.01338705146891416 
0.4167554612016917 
0 
0.03097502427581496 
0.2662996868252417 
0 
0.271240201890088 
0.2169925744534486 
0.02945257890089703 
0 
0 
0 
0.02822611031109597 
0.02395511365967879 
0.008626255529730125 
0.1809174567566271 
0.020563878350118 
0 
0.03352177181776328 
-0.1570129390181225 
0.03402819452111413 
0.006317352220204339 
0.03294588863182422 
0.3523647525825824 
0.1846855124695733 
-0.009746652816342951 
0.01297221948279515 
0.2801422760097089 
0.007323433916452471 
0 
0.5709688660701023 
0.07755078965897447 
0 
0.1189065383502449 
0.1692176363173659 
-0.01482034708809185 
0.08630972327181466 
0.07187459495655904 
0 
0.09559872817724616 
0 
-0.0004947620634308553 
0.1578292199595926 
0.04327801823324293 
0 
0.01845315172311128 
0.09799419737877167 
0.006252076521862251 
0.01642627894800831 
0 
0.2475603131578611 
0.07276687969845125 
-0.04778627819540357 
0.001346435201430786 
0.002874813237069854 
0.0296728221521811 
0.2002612423106185 
0.001604824776639988 
0.1122144901040044 
0.01005235419073095 
0.3042209615975109 
0.3673343450559916 
0 
-0.1097693176990851 
0.3950536641894826 
0 
0.2453057082931236 
0 
0.2793327030390081 
0.1129799770199267 
0 
0 
0 
0.1682523320893949 
-0.05081503678950793 
0.1225211130296236 
0 
0 
0.006901445602786142 
0 
0.07627561367405082 
0 
0.1684951214717455 
0.1198611841312621 
0.08172342966150034 
0.1039053663131701 
0.04758303176467973 
0 
-0.3157907589895443 
0 
0.01617727141894015 
0.2307845712082112 
0.1469161463663602 
0.4040285470973351 
0 
0.03025856342389025 
0 
0.1070899820546686 
0 
0.3041439224860776 
0.1271941400399238 
0.009917486092820034 
-0.004797242518738866 
0 
0.0872312860116736 
0 
0.05461750176295529 
0.005501300951756161 
0.06769851498376324 
0 
0.007878220083381536 
0 
0.07737915479556638 
0.06279141982170161 
0.0896084123773407 
0.09602619830939041 
0 
0 
-0.001985680286361589 
0.004455774824588141 
0.003420671346217733 
0.06564310054204023 
0 
0 
0.003521083305381948 
0.1178224004462742 
-0.003083152223910412 
0.06255849330878197 
0.1208408411076435 
0.1962003492467147 
-0.007830933264971819 
0.03300535154901018 
0.1742388839652783 
0.203322632354045 
0.2533484947787804 
0.2618646122134661 
0.007086778652897576 
0.2072749070039406 
0.3300706669196756 
0.04915272725724683 
0 
0.01162927017814078 
0.002637963800031741 
0.3537730872803782 
-0.545509202011079 
0.006917897065428963 
0.02917574546788039 
0.1174100685546429 
0.03004641112748195 
0.1368361930071076 
0.03713310437932799 
0.0241164613848439 
-0.08704408005203605 
-0.6527393440081393 
0.0007337953723584984 
0.3146655140425119 
0.110104274838164 
0.00272965466210525 
0.7621779803701844 
0.1309254041489796 
0.02263076565902416 
0 
0.01793473963098423 
0.04159938689348995 
0.2599178862223069 
0.1387285780149555 
0.0716680638540397 
0.4645206172697917 
0.2374070441803898 
0.02889516718591652 
0.002332773080951054 
-0.0375259664265526 
0.07157188141060368 
0.07004204244978629 
0.1554407683871879 
0.006915154347346885 
0.1023341042101821 
0.09252653567066335 
0.0308836482931007 
0.05547188963884976 
0 
0.197750641789434 
0 
0.04338006793522903 
0.008558305266470131 
0.02908383792443545 
0 
0.2808750120164619 
0.008540702905041124 
0.009565130465779536 
0 
0.1106209013775699 
0.2222840461304066 
0 
0 
0.2751086171570437 
0.3226777528050685 
0.01747467220850661 
0.06021147250444654 
-0.05349446497352123 
0.02816001476500922 
0.1051748029616959 
0.0171086063534262 
-0.07214481733522109 
0.05642174496757923 
-0.01597721235970267 
0.0006440151895596317 
0.4243512235146916 
0.003255241257211227 
0.3292681933387293 
0.09261046538120454 
-0.001164499236424241 
0.3232045639196672 
0.0009802429583188408 
0.09835979828444263 
0 
0.1482726545854214 
0.1009310989683665 
0.05090444766552372 
0 
-0.01561760222161306 
0.06383393372047134 
-0.2980086540181369 
0 
0.03972094700351637 
0.2641929582453803 
0.1125285191554768 
0.02066473465049495 
0 
0.01804418383704919 
-0.2225330140761116 
0.06963344060214684 
0.01521835009707958 
0.02502457810549449 
0.04673601919031739 
0.04092801349271649 
0 
-0.007337526683090276 
-0.08196223351882377 
0.02282927383973892 
0.07105508121858387 
0 
0 
0 
0 
0.02552609359827972 
0 
0.007016690759327445 
0.02099749181744928 
0.168219937599651 
0.2872912685268869 
0.008225560725938814 
0.03612817728501444 
0.0333114876805503 
0.3056761471681189 
0.03798098138151822 
0.003226198043094268 
0.009503515029554375 
0 
0.01267251197897029 
-0.01122618996140689 
0.07814696161350648 
0.0294411342846096 
0.04548199362789189 
-0.03237229363366428 
-0.1232364998676226 
0.5713817488598276 
0.03611727818502015 
0 
0 
0 
0.01332265864989895 
0.4016241182334427 
0.4145208914102724 
0 
0 
0.02584887934726745 
0.001867647519862014 
0.1070318417989633 
0.212292804388882 
0.005988463039098302 
0 
0.2001677192988664 
0.08534835968977082 
0.1708694588573242 
0.08012614201347697 
0.2178564713718317 
0.006373177283807018 
0.0290985645973829 
0.348931342161982 
-0.01760774727796764 
-0.04545737117729814 
0 
0.1304615568321964 
0.8372602286769503 
0.009052748588231518 
0.1243868887649845 
0.001755128391475911 
-0.01689984859033246 
0.2480779146015 
0.07147358705306303 
0 
-0.01038998884268388 
0 
0.03318877397981176 
0.05327034188094215 
0.1985577273574366 
0.01407825940414455 
0 
0.1690134135528204 
0.05403141663308001 
0 
0 
0.02348721475042263 
0.04074092110923319 
0.01474333435664657 
0.003930662764577887 
0.001302474365761564 
0.0669013081148776 
0.0148954389994956 
0.1619380512039255 
-0.01793871107693002 
-0.1184929637341961 
0 
-0.001279766718622257 
0.273625231631778 
0.003857089621960265 
0.1087880906106571 
0 
-0.355454417832951 
0.004496540813312798 
0.1211356530652651 
0.06489000684724124 
0.02567052931173082 
0.09416313149398967 
0.1273129620691299 
0.2096234308179512 
0.005629258923983946 
0.07902220353357867 
0.1179245611055941 
0.01980106157831833 
-0.68516678813147 
0.0336833062640796 
0.05731829819244014 
0.05040989160322263 
0.1604884354216077 
0 
0.09621333342983232 
0 
0.1034382699588401 
0.08489591282764894 
0.2792776577971917 
0.02110266082877594 
0.1335623600272909 
-0.5663319252666 
0.1761024049738795 
0.0623697740046777 
0.001313076954818608 
0.4553027533567289 
-0.04924472172990171 
0.3136556900456324 
0.007435507200883854 
0 
0.1639543587838386 
0.006441382078491856 
0 
-0.08010737949812029 
0.05031919433392167 
0.09152915190942804 
0 
0.1610400014323522 
0.03876081149647761 
0.2281464794261622 
0 
-0.01655299119293264 
0 
0 
0.3506224804787862 
0.1180242504371789 
0.05765708291994857 
0.1251238370855917 
0.1994202751993572 
0.02765993532472048 
0.0930915628775983 
0.06850186921643768 
0.06507371310879161 
0 
0 
0.006557213447232672 
0.1088194590378198 
0.003558747592741681 
0.4294403162122297 
0.2216255540530205 
0.1555542621491814 
0.1004815227845844 
0.5459279407659475 
0 
0.3472222471848226 
0.4228819767758693 
0 
0.136226508594278 
0 
0.1762808896707129 
0.06695274037384968 
0.004897180085990644 
0.02657132203040499 
0.02292092635344559 
0.3331155137461242 
0.04195245423560626 
0 
-0.680497600211974 
0 
0 
0.01344695287379728 
0.001609979851156174 
-0.009737769452796427 
-0.06493768861041693 
0.1749570952219999 
0.1426419644380068 
0 
0.06541476459005 
0.07471445998668931 
0.008362121596408567 
0.2144556316994116 
0.3336162428226312 
0.01218446372824102 
-0.04355993792025212 
0.1387072831677035 
0 
0.01609277834316377 
0 
0 
-0.003656519674326321 
0.001051529582228321 
0.00796915969230517 
0.002986308450397819 
0.3331813087090701 
0 
0.032891180242141 
0.1957548685254556 
0.1100186539075896 
0 
0.3340303268101104 
0.04497452398213121 
0.09332494469346239 
0.02195681526607724 
0.1648457768242621 
0.02254274749505638 
0 
0.004382260743061018 
0.01545818994298868 
-0.1059730834693452 
0.0503535117057876 
0 
0.161656916547459 
0.1246748161384093 
0.110566311798537 
0.08404922906429159 
0.00756151335367466 
0.03604608859825725 
0.01483858814332191 
0.2566189203930189 
0.03893486368410402 
-0.03069964629812983 
0.1083820748752404 
0.08714953064577444 
0.1399157150940279 
0.005010995426721992 
0.007959767247307835 
0.06994240753309329 
0.1356912568408277 
0 
0.1346604238512978 
0.01770411153333756 
0.05031602581896571 
0.06763834899305422 
0.4039207220941232 
0.113039152240001 
0.0669361172741343 
0.366260992167716 
-0.007818405348674951 
0.02271906672869288 
0 
0.03106822309229164 
0.03155806636480184 
0.06424542140531707 
0.08661679852786563 
0 
0.08511906062818558 
0.005414599461503336 
0.1969669396081728 
0.03205299907476351 
0.5085350401255853 
0.0231510415616328 
0.01937821037900304 
0.05147859080277326 
0 
0 
0.01254323792643065 
0.04880448505170019 
0.06997405066483385 
0.03857581960935143 
-0.3445712461972226 
0 
0.03253590322015028 
0 
-0.002438342896412288 
0.06520131153822467 
-0.08176508805171595 
0.003254385510068431 
0.002074952730289364 
0.6101389013237204 
0.007111401822257413 
0.006712569209520631 
0.02056011462833349 
0 
0.005498974392704282 
0.002310886733118946 
0.0337573528445806 
0 
-0.007640234388266367 
-0.06441789884893243 
0 
0.006494171161277942 
0.03831469278054062 
0.03461969782733117 
0.00925530524601437 
0.1453398289733299 
0.00198001468170587 
0.03612447216587628 
0.04918595052965857 
0.082284612998291 
0.05876408456335643 
0.07696238731103507 
1.109641587883718e-05 
0.1022246766275153 
-0.04725782846186017 
0.008559712364624985 
0 
0.1315707406278747 
0 
0 
0.001387156445616521 
0.0758341533445844 
0.06004733907097119 
0 
0.03474730115195285 
0.001137413137361873 
0.003190862528398355 
0.01950007197163468 
0.1041601579499532 
0.01322528743482967 
0.0942759996316599 
0.002929678544322206 
0.0002853730423080439 
0.03301335470990924 
0 
0.006754802706046454 
0.1057853340134939 
0.1215338744711245 
0.1584106849034525 
0.003274013586054066 
0.005364531686495301 
0.3498286650423335 
0 
0.03997090641795911 
0 
0.08047237717475737 
0.07216312321126293 
0 
0.03377105372843774 
0.2334682911825075 
0.1948118362641342 
0.02485748231044965 
0 
0.01359168766836658 
0.1367744060096084 
0.1068098537300833 
0.1500554110655663 
0.03823383732053319 
0.6458483943955344 
0.06519244951483079 
0 
0.004702551996933783 
0.02899447400665591 
0.02101082046661598 
0.03854005393628962 
0.1249579919758815 
0.02435600065231484 
0 
0.05630735370476942 
0.04344286275770248 
0 
0.5116169986655104 
0 
0.1973661565726822 
0.2360902576479053 
0.005032328089133299 
0.1169753351256878 
0 
0.09529211371080644 
0 
-0.01407440265973226 
0.001990322416538767 
0.1015986803772496 
0.3224483761948494 
0.03711352558446447 
0.02236493133808427 
0.00118639740511223 
0.4872779233399137 
0.02597945270083362 
0.01146314626516732 
0.001486725111203683 
0.08147992994580963 
0.002209394214408688 
0.001247420357781015 
0.02637626404984808 
0.1118841095802643 
0.2397494653952723 
-0.00645498833199894 
0.09716294295505123 
0.004646822722830235 
0 
0.01141431025285519 
0.6854875387446083 
0.0005445014787243828 
0.3075371181487125 
0 
0.2351536144601959 
0.07078477096609384 
0.0003172536844370712 
0.2074534958977551 
0.0471380543111943 
0.01126127854893878 
0.01182158123031447 
0.03331053854192921 
0.1052282044224452 
0.0008294433427890654 
0.2662425450245573 
-0.0266857216386308 
0 
-0.0168298173318856 
0 
0.07988372983053366 
0.0633470925720729 
0.2773884092112404 
0.07139624017835398 
0.1416365690189934 
0 
0.00395726671903529 
0 
0.01080769935486583 
0 
0.01516932477317384 
0.01298529615166036 
0.01076646747841811 
0.06675897289002004 
0.08595600483923251 
0 
0.009236158843793451 
0.04832499158653034 
0.1173727716893301 
0.05116183575641454 
0.005312673633998355 
0.2468583656561849 
0.1839117853814095 
0.07959994406982483 
0.1243618342365073 
0.009404072212099853 
-0.0154320850498102 
0.1644725009292762 
0.02391616984598661 
0.3886034353614705 
0.3386644524317992 
0.004146629705313154 
0.1819040241767453 
0.3549966654462874 
0.008579957045683779 
0 
0.01490527532753748 
0 
0.008720042961062453 
-0.06016025758462901 
0 
0.2567460770432397 
0.02358709606643598 
0.07581353133046756 
0.04030665015004019 
0.117405518920035 
0.4546136315351729 
0.05291077841169419 
0.06338475858166485 
0.02771720896569677 
-0.0007772495843903684 
0.008415139346846134 
0.2101626530691633 
0.254436737611766 
-0.007053716393400896 
0.01863339024032439 
-0.002392183884609079 
0.01168351774497421 
0 
0.1287724104969149 
0.02394212647990382 
0.0006541367411121116 
0.074508575069759 
0.03081619341876958 
0.02600518841197854 
0.01153053378943443 
0 
0 
0.08882198941104756 
0.004494795453556692 
0.04201697235134536 
-0.07482617532656402 
0.06698131012629005 
0.02455907605663588 
0.02825556286318865 
0.03065907282904812 
0 
0.007106618450049769 
0.03727636416849626 
0.0146616219872431 
0.01489472794216637 
0.1094172345329284 
0 
0.006928731700938195 
0.009832841899326181 
0.1351082149482033 
0.06064754341915652 
0.03838263818245793 
0.03888229807532996 
0 
0.001823076371132703 
0 
0 
0.02659302255384955 
0.1662145316403701 
0.2946705886959252 
0.005958527845262767 
0 
0.002907016965414321 
0 
0.2417389028759104 
0 
0 
0.1086259423478854 
0.002880249575063142 
0.02218394402043695 
0.06038137255421686 
0 
0.09960185684836217 
0.121220996717577 
-0.5474202675114551 
0.06636823916348521 
0.03054994755868286 
0.002912855782315146 
0.15685738283431 
-0.2676635322085086 
0.116130770554949 
0.02489117046162836 
0.01212009545065229 
0.4018366854955699 
0.04652515646400725 
0.09969072056609141 
0.00182437898552318 
0.04501568416087488 
0.7361433443050698 
0.04269235149408297 
0 
0.1075625375478731 
0.2312000599684791 
0 
0.4303412314015915 
0.2173541999992405 
0 
0.3380595422045327 
0 
0.1624612759324345 
0.2333819162452196 
0 
0.0001575386302352442 
0.117503873387407 
0.05256467762596739 
0.002559752382717206 
0.04039243015772889 
0.1660968234622583 
0.01320135287732889 
0.02745214474863653 
0.008564493225333949 
0 
0.03359577859827687 
0.001362082563856482 
-0.02360404678381026 
0 
0.02874737262855507 
0 
-0.008271509898787853 
-0.003583310543346161 
0 
0.1414792451858757 
0.3105675551457044 
0 
0.00151639583320535 
0.1032271428421715 
0.03967940220555742 
0.3600500301180038 
0.01032669696650403 
-0.0112960298414871 
0.0353500959712761 
0.2416247510520083 
0.2194417254530972 
0 
0.009521422285844926 
-0.01578505649734214 
0.102253290941042 
0.138202512493071 
0.004568305286689762 
0.0009834390601595455 
0.02551769826822521 
0.09129816755150064 
0.005650010710736436 
0 
0.3523609415214675 
0.01889403571773135 
0.2766314237813274 
0 
0.1702696535932851 
0.06594121983558654 
0.074691572415424 
0.0006794584584374615 
0.004052887785137181 
0.01904396437580026 
0.3360029651898973 
0.02502113843687975 
0 
0.02954856724579868 
0.009162606730508713 
0 
0.03452956708404339 
0.04492632850189285 
0.1183552903345764 
-0.007197678649246896 
0.01250138714509713 
0.1857576562814977 
0.05271853062695166 
0.01629422096722884 
0.0191429841209858 
0.04651810740230927 
0 
0 
0.02434142749089254 
0 
-0.1044424592840947 
0.3186074744386884 
0.109692366880205 
0 
0 
0.008227083209463318 
0.07323263034472101 
0.05241450245784703 
0.05198798922281846 
0.03996143586054342 
0.2853088468821118 
0 
0 
0 
0 
0 
0 
0.06659981226761721 
0 
0.1433134341792849 
-0.004033010411651026 
0.1233584208017118 
0 
0.01029470429168885 
0.3437384028381532 
0 
0 
0 
0.06599898927949541 
0.00743366180101775 
-0.02146350904680434 
0 
0.02055682893071019 
0.07849586744904014 
-0.05120027624758305 
0 
0.00506725955915343 
0.03821689441265388 
0 
0.1427137308047619 
0.01345288276951919 
0.01369691911411272 
0.3933772773099972 
0.1684795721091203 
0.07609952716025895 
0 
0 
0.007337326143871052 
-0.01669047637183693 
0.02706175160436504 
-0.5192661886841597 
0.07217761735553542 
0.06949729316238039 
0.1067897517230571 
0.0235451165622894 
0.4647569455910181 
0 
0.01549179895606523 
0.08157008397035427 
0.04395874709348283 
0.1573660631370596 
0 
0.000269210408222292 
-0.139356526541299 
0 
0.0008697188605052827 
0.08018907256223627 
0.005182241203296944 
-0.05727078511648781 
0.3416454795404045 
0.05473350103640284 
-0.003176672606516539 
0.003513277552197243 
0.08170894068709016 
-0.007211087325983326 
0.05626707651292188 
0.08733155499971855 
0.1626362024726675 
0.1188986123560534 
0.03994628632124438 
0.001938870311137363 
0 
0.003792121766566055 
0.1924885395055907 
0.2288026641684949 
0.4676285470585415 
0.126302079992248 
0 
0.3495285840803957 
0.01538672753030334 
0.04447249191571852 
0.0395676263762109 
0.03128451952719316 
0.148525133189592 
0.2678102172942409 
0.02368837091345175 
0.01704908431180013 
0 
0.392436544382562 
0.06540009680368244 
0.001603681041996531 
0.1063661982790336 
0.000954894380744522 
0.2826714154039806 
0 
-0.04396959366780237 
0.2514546354878765 
0.01320852001813472 
0 
0 
0 
0.001273213918715491 
-0.005517191093734924 
0.07377717678005495 
0.1739153274529584 
0.00985276183738344 
0 
0.05327993310450147 
0.009940230203677763 
0.002908165278928895 
-0.02452134772904429 
0.1500170148548803 
0.06545175358462409 
0.1009023117736859 
0 
0.05585592310672181 
0.02093714904333112 
0.05349250604216561 
0.003358073291724977 
0.3788425841762288 
0.007804566665966926 
0.1356151559071214 
0.09269889197049122 
0.02994649014304652 
0.05398476945531318 
0.2511287076309499 
0.2330684847252781 
-0.0008398283306434978 
0.07042735859051083 
0.01075381482035107 
-0.04377902597487104 
0.3945175887580636 
0.01685149802511982 
0.01585267364931355 
0.1641824581054502 
0.1186312211426115 
0.01867093022469085 
0.01823326317187527 
0.09299059640843174 
0.1348943490599037 
0.2802530199671199 
0.01771612755751679 
0.001600585787047334 
0.03263290856437709 
0.06298528933206488 
0 
0.06893586522953582 
0.2488869401682668 
0.20578373820398 
0.2456229845921264 
0.001520466896009084 
0.2250199615943263 
-0.03524968404801628 
0.1307736691986398 
0.01566170646665516 
-0.5176119832887428 
0.07756494603993802 
0 
-0.006952866387752629 
-0.05837069586369791 
0 
0 
0.2083000056753822 
0.08481650257391105 
0 
0.1715397125216563 
0.0006894489771458899 
0.0135636156970604 
0 
0.01855008264772082 
0.01206298166369034 
0.0003393372357574884 
0.01145658854491873 
-0.006936958877826326 
0.00306467345680385 
0 
0.006842726440968497 
0.01284227359745468 
-0.07740498381894792 
0.00456305970719451 
0.01459466074700984 
0 
0.1614089388741437 
0.09916330303062118 
0.1073906876395873 
-0.01344809450165668 
0 
0 
0.07481693106514214 
0.02040499462445616 
0.003348867635304295 
0.03228401998298782 
0.006314797289287054 
-0.2056111647394934 
0.01391929428350488 
0.1707141664929448 
0 
0.03884567033426562 
0.1609183994854016 
0 
0.1955712737779821 
0.5986696117433837 
0 
0.01645760588340031 
0.08190936386366496 
0.08313011276464675 
0.0929407803320646 
0.09857041844994469 
0.1635489894425662 
0.008775447043465889 
-0.05961013231357863 
0 
-0.05383412111421779 
0.05672905831609907 
0 
0.02346933370596494 
0.06828122847252238 
0.05715194906408919 
0.02582176242809663 
0.02968016429660429 
0.00920046760295438 
0 
0 
0 
0.1133186519284929 
-0.01679216116835305 
0.03779710311621139 
0.000978159511356649 
0.001352531970291375 
0.003728392224218358 
0.009823888493178293 
0 
0.01419082487166058 
0.01241701324825901 
0.007751521019667405 
0.02757674296013016 
0.1140721883790271 
0.3833133414260299 
0.03720201234587086 
0.04661656175870622 
0.04334419789571057 
0 
0.204358544339244 
-0.1395304909120357 
3.163160032513122e-05 
0.0905044047154927 
0 
0 
0 
0 
0.2020671271442273 
-0.06711353327939833 
0.2331983258332342 
0.04149554555716436 
0.05160030977261797 
0.02953325796667609 
0.2019844847950465 
-0.2236573666366242 
0.186197536612064 
0 
0.006003800546898613 
0.07700166029642921 
0.03096242038444258 
0.004867912274122743 
0 
0.2121455530294427 
0 
0.002717429440623633 
0.02443659502439859 
0.02207876836718421 
0.0007320687612303701 
0.02489043463242295 
0.1502318088448767 
0.08917601736784152 
-0.05942088492842598 
0.07311627151167246 
0 
0.006314679407445273 
0 
0.08691039954603676 
0.2086578633202003 
0.1535867960614073 
0.0003713885553071022 
0.02239606595349919 
0 
0.02970437842149703 
0.003380734530547199 
0.05889140690485355 
0 
0.03460039370773911 
0.00294745551522173 
0.06976634114132022 
0.3370165548058345 
0.3013189964365272 
0.2708292739376028 
0 
0.06183445890783331 
0.1601009817767462 
0 
0.1086272699651444 
0.0227497807090344 
0 
-0.1104753618935282 
0.02427426820073718 
0.149074916337948 
0.2468652731445507 
0.131905364411099 
0.01429902798512332 
0.1070347770322625 
0.02823842395989776 
0.03512877619007211 
0.3191699838743142 
-0.188731449209761 
0.0951389886846359 
0.1493123143113677 
0.1863038033953641 
0.01221127320394519 
0.02749704335793782 
0 
0.1313849374598098 
0.03013470755215175 
0.001848852413825982 
0 
0.02338565353066652 
-0.02668538816807005 
0.2714384387275421 
0.3271036645929697 
0 
0 
0 
0.1149126469677814 
0.150850847157977 
0.2829517681302385 
0.003533109476996499 
0.02192422470712134 
0 
0 
-0.015159772385025 
0.003211534774963771 
0.1212115229454674 
0.003810998911221713 
0.09051131004707386 
0.02341131754611794 
0.05249011450459456 
0.02320604989122376 
0.2933896818927632 
0.007927144857770969 
0 
0.003585564848897445 
0.1637545500551842 
0.009148140656666547 
-0.04192861535884276 
0.04803268743367317 
0.2964504772658422 
0.06149392586176788 
0.03302312833840022 
0.05759536096598798 
0.6007642538893228 
0.02310895178842132 
0.05005469397446179 
0 
0.2621602933914006 
0 
-0.1831417161843272 
0 
0.00609279271655325 
-0.01500694013681787 
0.03000442481103684 
0.103672136649825 
0.008166150252036937 
0.05994235897356756 
-0.0006870655655889257 
0.001217282831540993 
0.05994235897356756 
0 
0.06770705602823052 
0.2565442146985735 
0 
0 
0.3492873719245499 
0.02328872363450512 
0 
0 
0.008493949800236052 
0 
0.109999328335158 
0.01538153436924574 
0.05760456105609833 
-0.2303325224246849 
0.3426626352613998 
0.02655570648512818 
0 
0 
0.03022595313833037 
0.1329507903129282 
0.04080530595478366 
0 
0 
-0.03147838362331958 
0.0659893249655146 
0.02965036925829383 
0.003213540356501359 
0.09060823960123904 
0 
0.5643644631640469 
0.1705208590977349 
0 
0.00218249478489779 
0.1258659212840983 
0.002633055708487289 
0 
0.004741282027885348 
0 
0.0202845818609791 
0.01002886371747918 
0 
0.04101513096074768 
0.2142955369071633 
0.08498397587133164 
0.229308750697662 
0.05176448188170307 
-0.370274131214233 
0.07902491781543917 
0.4087226129666693 
-0.1220318271986464 
0.001433185616756281 
0 
0 
0.06963091754472185 
0.03885476306426098 
0.1005451401353862 
0.006184813783959195 
-0.5087139903816753 
0.400363209855426 
0.003039104398168063 
0.0009283954013006364 
0.01464921549182528 
0.0265426884668 
0.2668129905432898 
-0.06117819445781415 
0.01548776078402228 
0.04785727392170991 
0.02820638930547876 
0 
0.02100739844616787 
0.1710660195489699 
0 
-0.01679159630329357 
0 
0.01744468268271754 
0.0191261513623634 
0.2072242348709444 
0.2700513512320908 
0 
0 
0.07674142104525157 
0.03090607853820965 
0.002993389359570736 
0 
-0.009577263503104293 
-0.005006535336121978 
0.0105725411668793 
0.178955283963398 
0.06639220608619469 
0.1604854706828135 
0.004075135833226501 
0 
0.02593903049846473 
-0.0262012338172532 
-1.978875016482879 
0.1261655205813834 
-0.26837201114508 
0.006854659570371855 
0 
0.08805913486284533 
0.1252590189044845 
0.02430417017669576 
0.03637061386087968 
0.006622591280754515 
-0.2555854703044509 
0 
-0.001146159784420552 
0.07778112217168288 
0.1853799336012594 
0.1113363939265317 
0.002349976930153758 
0.03364003330178946 
-0.271272000844282 
0.02821918405806394 
0.02621986722633833 
0 
0.07345199424832541 
-0.133866405320573 
0.08100419271581195 
0.001982316671901312 
0.04469246008632846 
0 
0.000491725310490983 
0.02697390752121816 
0.2752473157826558 
-0.07093898525189447 
0 
0 
-0.004395677549851354 
0 
0 
0 
0.03909967149465354 
0.002061194300130338 
0 
0 
0.06887959246931737 
0.0187933873744391 
0 
0 
0.01083273645343158 
-0.04170060010224973 
0.09739039959448653 
0.006337185110156684 
0 
0.02939767267170542 
0.143573148531909 
0.2776874659716749 
0.0737764249859168 
0.06234240223716994 
0.2285591369796386 
0.01015220727220973 
0.2575668599051131 
0.09115305502760941 
0.1603293392074909 
0 
0.04154322357994734 
-0.03490642159651654 
-0.1658384722910905 
0.3236924398707267 
0.007949354615642078 
0.005558205245689816 
0.1079238596394134 
-0.01766858031125252 
0.01028241427061199 
0.001578263287556837 
0.02009569888091351 
0 
0.08831665516436209 
0.24380299196843 
0.09496156878347181 
0 
0.1521532149952245 
0.06110908043577257 
0 
0.05468079597829188 
0 
0.1384922490159373 
0.006417198402264762 
0 
0.04868405278658047 
0.02816055296269128 
0.03819989912852543 
0.05664473770860443 
0.2072694733225391 
0.07225110252839137 
0.002357053664006909 
0 
0.05606345082243083 
3.411657467640311e-05 
0 
0.188791654530276 
0.002546054064679195 
0.0007001331631234873 
0.008665924888319264 
0.01790164179246316 
0.08633418363671307 
0.05796368969073115 
-0.1280782415806553 
-0.01034789478498959 
0 
0.05210880267113164 
0 
0 
0.02635578327865978 
-0.04714937746851662 
0 
0 
0.1457686918537136 
0.00258124791069813 
0.02539634232636374 
0.2071533825380081 
0.03615801889661529 
0.001219918626179566 
0.0539476426216537 
0.07036894407511106 
0 
0.008857123760070392 
0 
0.05859536986949165 
0.1609144176743924 
0 
0.01792399847305951 
0.02417005086612307 
0.003813194687124706 
0 
0.04569680932216583 
0.04530349443931988 
0.5383176793946708 
0.07002174817550606 
0.0003331313181402505 
0.003737504820865288 
0 
0.09559413186700458 
0.02431043157586042 
0.03371550605139206 
0.01654361267944442 
0.1044904290268622 
0.02490506457234639 
0.1664586073014997 
0.1083990779653021 
0.04628485256510967 
0.01331624549321686 
0.06079983653746854 
0.08890697092079934 
0 
0 
0.00398190086514111 
0.1485539349494159 
0.01123475529469742 
0 
0 
0.01057391293560716 
0.05585477838853677 
-0.06083427170033175 
-0.01169484075015411 
0.01144864431585294 
0.01384209483653224 
0.01918243040578707 
0.002193083039099582 
0.003667975807804356 
0 
0.01799317504506958 
0.1330783308123799 
0 
0.01643704756872731 
0.07147629606107848 
0.06847158105487665 
0 
0.1332663147335027 
0.101074350135693 
0.04181065458883092 
0 
0.01566867007210885 
0.0163236303577715 
0.1519837856533228 
0.05234838256307039 
0.009583757909500097 
0.006860549681588104 
0.006923978086687121 
0.05268415911263791 
0 
0.2432396918279854 
0 
0 
0 
-0.008871806954545093 
0.01421136486024404 
0 
0.09375659841171892 
0.002606931169134324 
0.1355929192126432 
0.03942806619728378 
0.02489705252157672 
0.02001366279490008 
0.2000980137697783 
0.00178188288336853 
0 
0 
0.0005803136320617496 
0 
0.02848288614823342 
0.2036667675928377 
0.008018129262289857 
0.1072810301865231 
0 
0 
0.01356120622256686 
0.03441280098189695 
0.001022288400284418 
0.05688080243704456 
0.06669249794635833 
0.3070016878997954 
0.008432469603357385 
0 
0 
0.07316557185019903 
0.0692881798495056 
0 
0.03951983462932228 
0.1353804852949469 
0 
0.2038968277294636 
0 
0.02486500655480974 
0.02889112066433588 
0.002039412022708664 
0.1953438691894112 
0.01658180095272249 
0.01377227215449882 
0.004212246962918682 
0.01034653417863294 
0.08231716309844782 
-0.01194582535596867 
0.07529650255781879 
0.0009314683582587451 
0 
0.3210858421302983 
0 
0.04085110309339678 
0 
0.1110828973247069 
0 
0.03343278276108472 
0.0259482125057697 
0.08316730075421544 
0.323886564640605 
0.06779493456405836 
0.08751566316679181 
0.02307111616926966 
0 
0 
0.06030095513903311 
0.01565902702134159 
0.05669807941835946 
0 
0 
0.01726672881307931 
0.01910021842204545 
0.03888157569790451 
0.07357372103681278 
0.08545832546073437 
0.133788963985236 
0.0006810060192315392 
-0.03198061652718598 
0.04383254089799322 
0.2940301096125467 
0.02945704242710025 
0.2364959184930208 
0.3060733255745904 
0.05403369553095141 
0.05065358663504178 
0.03387848670489107 
0.07017934056521793 
0.08396664482511376 
0.03494892503738328 
0 
0.1653416584882511 
0.0278716282277017 
0 
0.01733400352668835 
0.02015355571760711 
0.02463581094263195 
0.01035357860953057 
0.1093823779019331 
-0.2220951504626213 
0.04975436016658078 
0.004974929884050596 
0 
0.002897193444597263 
0.06843949461314899 
0.40253025877406 
0.02014964322355412 
0 
0.2201292834884123 
0 
0 
0.02544457944581914 
0.03812591109777727 
0.001637878796123276 
0.008960737887002027 
0.001779498975754843 
0 
0.07217505369968524 
-0.08741628580700704 
0.1967225572755547 
0.01413160132865058 
0.09385629956324136 
0.01998537672505202 
0.02618405542051004 
0.02994543116589459 
0.01672806424643372 
0 
0.003429472521282591 
0.002922927372702139 
0.04204293562007755 
0.05549436924383478 
0.01197479607093808 
0.1257456086073978 
0.269092536320623 
0.004626626456032451 
0.008130810144338281 
0.01012686328897592 
0 
0.2218097380642469 
0 
0.03514883995774432 
0 
0.02633663413650649 
-0.0004514592633395476 
0.156902610939992 
0.1551192465254657 
0.004099508696673564 
0.1055075943250215 
0.1653057435308909 
0.1895056551708358 
0.003164877252126535 
0 
0.04469873026606342 
0.0714710720237804 
0 
0 
0 
0.05195508812201108 
0.001881992772783502 
0 
0.01484471318557515 
-0.01570306685357428 
-0.02506868576522965 
0.1558235794395523 
0.04510671566338057 
0.3720178889258351 
0.1153957414412584 
0.09724356101938947 
0.07752524440617704 
0.002533189723491856 
0.1738203529315932 
0 
0.3741168243157821 
0 
-0.07672406517672506 
0 
0 
0.07266280580728157 
0.0879050147232687 
0.04523118681628223 
0.1194776319520861 
0.002971179102812744 
0 
-0.01918716206356794 
0.04577903988194479 
0.009713165198150242 
0.02023760388303654 
0.07409384149841597 
0.07613308617790436 
0.07737300121268417 
-0.005251792302239956 
0.1005118041344865 
0.006326047790765922 
0.04505926178164614 
0.01039826649904969 
0 
0.7555001952076963 
0.1601562583820919 
0.004664395932422575 
0.06141928470455379 
0 
0.004762288906551235 
0.0803037809698532 
0.007864053595470079 
0.02226246330094795 
-0.0242723997986931 
0.06971597575784073 
0.298742978559582 
0.04113294437555997 
0.1077410290985303 
0.01224354109320589 
0.4267152388061409 
0.2550174346443635 
0.03119096957632026 
0.01200473283696549 
0 
0.1153527657364996 
0.5350682714788874 
0.003696654871875295 
0 
0.1157255804416947 
0.1482632617996736 
0 
0.01043326825367551 
0 
0.1368292457252892 
0.01002433020960898 
0.0009267130760105035 
0.06541834487278822 
0.4477371452631961 
0.03031154168997483 
0 
-0.0149456670901498 
-0.005685969499306448 
0.1545535013779784 
0 
0.0007990125479454903 
0 
0.00456354173712832 
0.08911250215561213 
0.03601072209106709 
0 
0.01084152379934072 
0.08816568576461524 
0.1044611448654628 
0 
0 
0.2908349659878615 
-0.003881677703177039 
0.01721485942830736 
0 
0.1200662341946411 
0.01967591796435457 
0.3207699156120565 
0.001057053573377313 
0.01169801913965318 
0 
0.001987640913436011 
0.0443730357737461 
0.01114760933151705 
0.2739069881309243 
0.09944863846438855 
0 
0.003060622381835158 
0.009114952761334874 
0.01276047731219559 
0 
0.0449335055273488 
0.1888026118615362 
0.01079567946301142 
0.02030400667067565 
0.003354077640246758 
0.1596233110567946 
0.1490339400738711 
0 
0 
0 
-0.1448344226477537 
0.06248278419227438 
0.02502414263070073 
0.4116466396062495 
0 
0.06211925677752934 
0.00718240841193312 
0.06016158373599886 
0.0006393729432507761 
0.1592295748951262 
0.02044128468066335 
0.00445018364466015 
0 
0.0006956185557156632 
0.007427001828626749 
0.0145652442463081 
0.1160774227591937 
0.001241464503461075 
0.003981829285520194 
0 
0.2158907029185647 
-0.04548534587019928 
0.2557260362625623 
0 
0 
0.06992772039615376 
0 
0.06740419509543449 
0.01642234310761041 
0.02773866083595445 
0.0122036073775154 
0.0005776964949235941 
0.02192524339257333 
0 
0.06892284615054795 
0 
0.03251101491352504 
0.01416020250140344 
0.02769283299304084 
0.103990512984794 
0 
0.08719350118714639 
0.02269576284569692 
0.02257017613851659 
0 
0.02214460762801883 
0.00719957907789717 
0.08912463973597327 
0.1145632972771036 
0 
0.1469491085137773 
0.006593507554698093 
0.01146623972902286 
0 
0.001108750509263979 
0 
0.000404685095459286 
0.32791405598899 
0 
-0.006688856536212823 
0.06903116509906546 
0.01434314224954147 
0.1232633371676584 
-0.0219785927904222 
0.03860919207631312 
0 
0.03993838709725633 
0.01613368447194622 
0 
0 
0.00115891984941663 
0.06802740230674151 
-0.002581221117007159 
0 
-0.4975685597094036 
0.004810620311359318 
0.0558256505316032 
0 
-0.01745911441808176 
0.008951357681652172 
0 
0.1928102991248469 
0.2197699529057986 
0 
0.5035895464122615 
0.1016143138956866 
0 
0.1111215948538538 
0.02854743727813273 
0.02015743432414101 
0.00232317442881407 
0 
0.001920938330263885 
0.004939448095196156 
0.1744345814674007 
0 
0.2064003794185809 
0.3008160072147545 
0.03152148872141477 
0.00262536844607914 
0.1836338289716616 
-0.2583159538217248 
0 
-0.04743364165241381 
0.1473123720230954 
0.01192416766177817 
0.02022090149010798 
0 
0.1457530590912789 
0.05817311783462563 
0 
0 
0.09768856539804888 
0.02769752142454733 
0.03872603549489109 
0.006345598677813875 
0.2812104151554669 
0.05064219260880327 
0.01271781443382847 
0 
0.2515805031594864 
0.3143547631197458 
0 
0 
0.008393600510758388 
0.1253624330876805 
0.05310720554145001 
0 
0 
0 
0.006504938108963926 
0.2091601421703299 
0 
0 
0.04811010985032049 
0.07916100432505695 
0 
0.3718503766269822 
0.02918456440926829 
0.09702122570670269 
0.003577875588376481 
0.01531686656252898 
0.03871321708643593 
0 
0 
0.02120803781431627 
0.02249553929725542 
0.1377780032843889 
0 
0.2913037103640735 
0.02104589405107604 
0 
0.08074041836847584 
0 
0.06074304455728254 
0.04472946105418468 
0 
0.0697034307091451 
0 
0.02051933400363188 
0.009510942022601819 
0.06802468068235716 
0.4107192920387236 
0.0332802888118064 
0.2290298779444485 
0.1879515929458192 
0.04609881651653434 
0 
0.3592465169655581 
0.006106556568387982 
-0.06330238542585875 
0.2441586250658143 
0.009255020300102314 
0.0005447660804557252 
0.1317010784850421 
-0.03034637658831834 
-0.02766338298330162 
0 
0.0109115776725617 
0.3995663396442324 
0 
0 
0 
0.2972919395852183 
0.5623202099666271 
0.2463364438878991 
6.435544686957649e-06 
0.120984789644306 
-0.01636213761332226 
0.1066755592198441 
0 
0.05910779939240154 
0 
0.1778762276744838 
0.08712819479512074 
0.1011888315979408 
0.1342632405970916 
0.2324073687089299 
0.03372471056282171 
0 
-0.07452410001657166 
0 
0 
0.2533943419643208 
0.008546801305409368 
0.02744466271067323 
0.07554204280704811 
0.008984022366956798 
0 
0 
0.001044648349626625 
-0.1298541291884038 
0 
-0.05724206563186436 
0.1597069765704167 
0.009156786157483231 
0 
-0.01987203652811166 
0.2049800722466386 
0.03669185475509847 
0.03445965779573453 
0 
0 
0.2621420400983032 
0.01090306692645726 
0.0236245861849203 
0.08392365951267211 
0.005505298366141408 
0.07081456811173907 
0 
0 
0.04242756828995801 
0 
0.01886100751892158 
0.1468577019355781 
0.1244348531925203 
0 
0 
0.1558346431978162 
0.1526765579951817 
0.1331606805587488 
0.0089764238875325 
0 
0 
0.001515008423057067 
0 
-0.009193009217269038 
-0.003567732532848658 
0.01311805815211467 
0.04546819170320732 
0.2473759581195822 
0.01724784019790074 
0.0862485616156842 
0.1912933085031551 
0.1567437274170248 
0.003472308440108872 
0.2265957728638268 
-0.4822406012774328 
0 
0 
0.07974064318021611 
0 
0.0446298273176103 
0.02009356785931662 
0.003786445302035145 
0.006549899077310442 
0.02951930840758656 
0.05004007927169094 
0.05529721020317952 
0.0714679641761224 
0.08356058558829167 
0.009087559458715849 
0.008729265884116495 
0.1392264887625498 
0.1599153431148355 
0 
0 
0.007459950838198335 
0 
0.002961925964157659 
0.03054118731052347 
0.1195130345900874 
0.03537034900385461 
0.06746306215399206 
0.01375421276980626 
0.0848704012161145 
0 
-0.01685604154006612 
0.006104576117083624 
0.001551794016777881 
0.0341977152094786 
0.008103733694747796 
0.03481028607071195 
0.09864684366990148 
0.05199500097027535 
0.1044654730921822 
0 
0 
0.1151485787708114 
0.2323280466473958 
