solver_type L2R_L2LOSS_SVC_DUAL
nr_class 2
label 1 -1
nr_feature 5000
bias -1
w
0.603900100696308 
-0.5015452131718582 
-0.008925631451566081 
-0.03434806526849266 
-0.3148342968298993 
-0.3159530851952417 
-0.5560484243773479 
0.4165576093798488 
0.6179218653129531 
-0.8144897409649534 
-0.2138397044389251 
-0.05052419975460483 
0.07826859916543918 
-0.05120933874104444 
0.07245170248021196 
-0.6866391101981789 
-0.3087969604421241 
-0.5265842861442349 
0.1423871652002897 
0.2133762983221885 
-0.03873809920354645 
0.1423958575520975 
-0.6511025458652346 
0.05761131710589634 
-0.2802961832177804 
-0.3121618739837546 
1.078429665278822 
0.2361708451913585 
0.007547616746018187 
-0.1143044370066239 
-0.01443355272928648 
-0.04562748843940055 
-0.04919605521566085 
-1.344656621557685 
-0.4376032109453408 
-0.01042899266292305 
0.1764250244238958 
0.1476664803407596 
0.2388191236462776 
-0.06735405814308368 
0 
0.08236827931164425 
0.177236208009423 
-0.0573286210851844 
0.5843959460859861 
-0.1964062238697294 
0.2769878966831271 
-0.3864753800344586 
0.03993865532439824 
0.02114792284863266 
-0.06129621818927299 
0 
0.301222001540604 
0.007283331523284689 
-0.5144529302197332 
-0.3464822155017803 
-0.04821649607332704 
1.238061379113867 
0.04435164278992255 
-0.6930264269348081 
-0.02726254610342735 
-0.1514538077520431 
0.01445320818561234 
0.02758303651850141 
-0.4599281596997962 
-0.06461670701691419 
0.07411395011792163 
0.08660927362253203 
-0.006874207424962017 
0.02666807049418185 
0.4635146496715937 
0.3554098237944738 
0.5214418662513479 
-0.2438277812321814 
-0.286327125483211 
-0.1722423235016742 
-0.0384785063534589 
-0.4122537116648116 
0.1471365749730088 
0.1102614378188268 
0.008241775576451555 
0.0957819109752 
-0.3380025119938049 
0.06936837454102619 
-0.1380589262267295 
-0.3636892347639717 
-0.4135900422811624 
-0.7263552101501115 
0.5722445491338367 
0.1523598014595914 
-0.002227807994754417 
0.3160931502779546 
0.01840000143450523 
-0.3310534114458166 
-0.07589665299915696 
-0.2391710367992728 
0.1937356094703807 
-0.2598759177192931 
0.007219119415280167 
0.04168231139703308 
-0.03784826911389414 
-0.1819605937621867 
0.337779449827208 
-0.05103721159002858 
0.0593545435917599 
0.2404882508825927 
-0.1324856585509807 
-0.01314410166500522 
-0.05438504603365708 
-0.5756173016283198 
0.1765937552353988 
0.002269115626735487 
-0.04130243859139075 
-0.06381547515465945 
-0.08373483505087016 
-0.2434941305350809 
-0.1495204741624965 
-0.1848759671257706 
0.4905204370187363 
0.3088920672371279 
0.5409113741668556 
0.0765221637587266 
-0.09942355132505977 
-0.4370766606901138 
0.2677754499058242 
0.02672818165846387 
0.02048404393654141 
-0.1429896316007266 
-0.164328999038402 
-0.08162825474679195 
0.06003806459041345 
0.02332661575978007 
0.01159447443722369 
-0.05184604177832707 
0.1766913370359762 
0.04758350139212156 
0.1991872762561691 
-0.1413163645699415 
-0.09317003390618206 
-0.2129973825391865 
-0.1046256453342196 
0 
-0.1649650464500992 
0.1075697621517719 
-0.3966889284993253 
-0.1497441818787685 
0.001874363626705572 
-0.03672084010512369 
-0.008677303459288481 
-0.008449252077711798 
-0.1367400518284954 
0.0281831640404095 
-0.5423898127453054 
0.08791412769710069 
-0.03016802563201908 
0.02675859471538957 
-0.004167045786466576 
-0.1318175101721441 
-0.1538751068395219 
0 
-0.3298049150352346 
-0.144533725165359 
-0.07253141553394563 
0.05074958915428573 
0.0071651127835941 
-0.1522487927914075 
0.3425893078579138 
0 
0.4611518018206838 
-0.005547666589693169 
0.180773867510494 
0.2435881366076763 
0.3274458480996991 
-0.1680777723600753 
0.3497771856605339 
-0.2252442961523246 
0.07492146510791506 
-0.1833159102714683 
0.2621834862067507 
-0.09024472267162773 
-0.00528046272290082 
0.4028794161675848 
-0.04955277273648186 
0.001125910462560203 
-0.003842321337281826 
-0.002781370013318985 
0.2359971676201171 
-0.2156258056050245 
-0.02478344589331865 
-0.1708133368126161 
-0.5097031078715102 
0.03772918474480148 
0.0572509433941235 
0.1629441360131435 
0.002040426026956031 
-0.4016753338021932 
-0.3913065079014638 
-0.5872629479287234 
0.229044681895032 
0.1811154970975453 
0 
-0.149050863153349 
0 
-0.1838472280242963 
-0.02067897415566958 
0.2670647155343762 
-0.08026052313332606 
-0.1607513961988988 
0.03658722923121373 
-0.9620595446696351 
-0.1348735973974119 
0.04167293718988602 
0.3077672158264212 
0.05557105019842824 
0.08820035531549698 
-0.305623935871586 
-0.1258725091680514 
-0.00488049478251674 
-0.1829404284275711 
-0.8727091238937187 
0 
-0.07040641035345449 
-0.1796846943697475 
0 
0 
-0.5759560587179482 
0.07410896425397957 
-0.5292186241257932 
-0.04286079412835 
-0.1915530636478205 
0.04001094126498399 
-0.1659615752907942 
-0.1836992340669121 
0.7654060594661 
-0.02968360529591435 
-0.03924126969960375 
-0.1436866855681596 
0.1474072139047686 
0.06614139684728222 
-0.0188465312908903 
-0.02104473128119749 
0.01708007825366825 
0.1001081154770127 
0.4213158648959707 
-0.02189407677343852 
-0.5050548243447229 
0.1066604553889926 
-0.1175021557952874 
-0.4892525088505854 
0.09880299697593034 
-0.2009544039945026 
0.02643806945857599 
0.2006324308083114 
-0.7115986381250786 
-0.09316371602547324 
0.05635468663375258 
0.1158386471683727 
0.5251503865584961 
-0.6819040438934701 
-0.3432483114436225 
0.06998271070410182 
-0.001120516801388445 
0.4326048744118789 
-0.195847052370236 
-0.2627537228871717 
-0.01788079599154192 
0.0826435513297374 
-0.02303964825218675 
0.09963329439048473 
0.005153596739427417 
-0.3281584497344001 
-0.02134927367073319 
0.5262625873544257 
0 
0.3338762582669589 
0 
-0.05707204274407399 
-0.2024129833443794 
-0.2353571556578775 
-0.09535478527909075 
-0.0182216584458873 
-0.001988258643132517 
-0.015524899530342 
-2.277944778226491 
-0.2496029972508369 
0.06401625428485308 
-0.488616644721526 
0.07103806357904598 
0 
0.02144458747758661 
0.2299115717926947 
-0.2359484149031366 
0.002561649663655513 
0.3576619824367727 
0.01939630554228316 
0.01137362719889184 
-0.1041794028195569 
0 
0.01529230170281384 
-0.1416164708425084 
0 
-0.5368658080737364 
-0.01271632083291655 
0.3358384233055978 
0 
0.1653997112224299 
0 
-0.05241628460541792 
-0.04030754607249349 
-0.1214525508896246 
0 
-0.4255199411729128 
0.2262192709027559 
-0.2134256040460156 
0.03324133886219783 
1.425750639304179 
-0.05675413087276182 
-0.6216784636877889 
-0.1353498430532549 
-0.07901804222208755 
-0.1116677967143714 
-0.001414583743858111 
0.04510863071032557 
0.1124841471291757 
-0.02002039701515356 
-0.620549887496865 
0.04407542531528697 
-0.02377514240459205 
0.2042121155875073 
0.1502486403501857 
0.06136657645825161 
-0.07071840117969841 
-0.1593927323759975 
0.1705826588208658 
0.05234117603463298 
0.05457448956287992 
-0.08005076664585944 
0.1050784795596309 
-0.193957406126527 
-0.6609022977578687 
0.02868779020008209 
-0.1882074467001384 
-0.1067727782557859 
-0.1509342745776614 
0.13562917174848 
-0.213499193029802 
0.01449537189306056 
-0.05325216458885329 
0.01779530372525591 
-0.3147110518068468 
0.0130847504128772 
-0.206840734862844 
0.03537963372517976 
-0.03123380487559752 
0.03080750684818485 
0.01303117333599855 
-0.07727760839554737 
-0.2038716826858357 
-0.04829358007313341 
-0.1964219503509654 
-0.03506341624985015 
0.3354353703818233 
0.5599478588296435 
1.20678284625106 
0.5751584295427169 
0.5485051418251302 
0.0147329075120516 
-0.1453210175500786 
1.067426165887366 
-0.08131115795409377 
0.04793904989771239 
-0.02561100238938018 
-0.09554068821031311 
-0.1111548423792203 
-0.2476093545772509 
-0.03529382123908713 
0.5936370347041299 
-0.08555391291457415 
0.2440976302843038 
-0.1017771481165545 
-0.08560004080972806 
-0.03213881275273033 
-0.01621616220803822 
-0.03836747732414218 
0.005653282078817024 
0.005722571452301375 
0.3649712878503679 
0.3582569051992055 
-0.1632759038238549 
-0.07449903304149036 
0.1970699488931314 
0 
0.0275330000252208 
0.08765398468812564 
-0.5722255722910764 
-0.2102003690696961 
0.04163355591741712 
-0.0003498189377609236 
-0.277579726518949 
0.05998813483633306 
0.1568375081343343 
0.06875512929178668 
-0.09849835841165698 
-0.1087192537951019 
0.2466077509900135 
-0.2717905620093659 
-0.04617380134230128 
-0.1693883479326949 
-0.5273748586327445 
-0.001038227796985307 
0.07158014364957138 
-0.1410298349804728 
0.7466617519360677 
1.036580972830936 
-0.5036400958319518 
-0.04205632031845022 
0.2505764540503869 
0.1060648112623968 
-0.03855370375266742 
0.4596210924734212 
0.06921672388884598 
-0.1090956379951322 
0 
-0.04896767429643747 
-0.08171850889645203 
-0.1381532571264983 
-1.026379268179658 
-0.02411508335525024 
0.9379272261270638 
0.1765813033170992 
0.2846603673834375 
-0.4330107245237135 
-0.2651330629218913 
-0.6232299797849606 
-0.1595626426945551 
0.585378847664924 
0.6727538064685392 
-0.05614975401007588 
0.1300818233252584 
-3.626534343555475 
0.0656451390516341 
0.08179352121893496 
0.05460198821284058 
0.1004650664237142 
0.1179907342077075 
-0.9663838548286311 
0.00358199862298821 
0.05317249640794583 
-0.01600898107766306 
0 
-0.6152976077454209 
0 
0 
-0.332660399070309 
-3.27707353110884 
-0.02523539940084295 
0.08847735215948811 
0.9261844097138626 
-0.3581576899168366 
-0.01630764078450205 
0.3795462068443109 
-0.5053480986241686 
0.02664000844458255 
-0.02812044757203307 
0.03412705632987944 
-0.009561686523841468 
0.02139358464478983 
-0.02523323442543064 
-0.640786500825998 
-0.04501979072801776 
0.03972270728981663 
0 
0.1716976481118932 
-0.08312731614055123 
-0.7096104735984962 
0.04036392855369957 
0.0587103787889482 
0.02238320556491616 
0.1451643401494577 
-0.03608309654193816 
0.003383705897167277 
1.295076968688256 
0.01925244127924988 
-0.1226098341386894 
-0.4497899169071984 
0.4906560585093746 
0.07333732050333316 
0.01446184191769988 
-0.1611258099094799 
0.1280198937506717 
0.2277554998590515 
-0.4229353501200878 
0.1756445293892523 
0.03817093376696475 
-0.01564234614474432 
0.01013328843739552 
0.01551135243469403 
0.04282276408431064 
-0.3630266047256591 
0.8826896747442231 
-0.1963948985815368 
0.9658300032462562 
0.17541722215455 
0.103535628067726 
-0.06770657504584714 
0.006303653492055744 
0.1013774788432377 
0.02986055251539395 
-0.05460021948545758 
-0.02690267915495894 
-0.07042816417200434 
0.04279939383074537 
0.01215654649927428 
-0.3841207630018061 
0.1098459328337792 
0.3085924637448342 
0.06212281504047844 
-0.3711757394307972 
-0.02462484952111462 
0.1148137644390671 
0.2458429614115554 
-0.01761170228969289 
0 
0.1230437314003206 
-0.07866965404700996 
-0.04589597652232708 
-0.007559620126612081 
-0.2107997226171165 
-0.1657812220086345 
-0.2614794297329469 
0 
0.08527771808309145 
0.293163126626529 
-0.02244423397130696 
-0.08149104166418689 
0.1012934806890244 
0.05064561471106313 
0.2583458863421291 
0.01655570404962479 
-0.04772078364819073 
0.1013217378527329 
0.1916655718591659 
-0.03539560518195113 
-0.03731188934091733 
-0.013605470769369 
0.05866491950830163 
-0.006640225528141921 
-0.03658876955081405 
-0.1063081076515336 
-0.1433516731286086 
0.2608801519145104 
0.000755050664726635 
0.0009400804192421586 
0.01299259989418985 
-0.04796893750788307 
-0.1266641098531879 
-0.1922947024343963 
-0.08278494643570306 
0 
0.09499819846359644 
0 
0 
0.5694309426795434 
-0.02458054365373188 
-0.2297799956918576 
-0.003895057694209269 
-0.01805977253594727 
-0.2076400268714699 
0.01192225116630577 
0 
0 
0.009101316767242414 
0.008763806804155203 
0 
0 
0 
-0.01464322815412015 
0.7152817796938036 
-0.01565804967638172 
-0.01215299533009347 
-0.04060884564091671 
-0.932238998321598 
-0.4931373764321689 
-0.06407554078970752 
0 
0.4224131117670165 
0.05214266619518151 
-0.02730078325615569 
0 
-0.06645021009726511 
0 
0.005870297146258301 
-0.004065220077386366 
-0.3048102142021419 
-0.352276271421856 
0.2694766947397592 
-0.3048677774712243 
-0.1123069579689515 
0.04406817392048379 
-0.003703094321145553 
0.01859291357612218 
-0.05491966048869766 
0.04856591649820625 
-0.007686717662728138 
0.4168114604099092 
0.02476369227448623 
0.05926766654082654 
0 
-0.2538020541385673 
-0.02755918988888068 
0.005648764991398441 
-0.143075360684118 
0.004999602055049863 
0.09134343368881508 
0.08035778854312851 
-0.3965548726158421 
-0.09139410569905028 
-0.02931748963948853 
-0.09285856798643634 
0.01212672511429569 
0.1727608349818418 
0 
0.01098732361346373 
-0.1292679877857577 
-0.01636711383249036 
0.6204051044396943 
-0.00894464438309858 
-0.1229396905455719 
0.4457127006829508 
0.1414280968966985 
-0.1018374773956882 
0.09379048385287271 
0.1196816339411482 
0.1119575995722571 
-0.01372670859981263 
-0.2076136849600169 
0.08704345854693422 
-0.4201458843650115 
-0.05503699847568788 
0.8979334275566698 
-0.1025057485723066 
0.2789102633795279 
0 
-0.03459361154836569 
-0.1112265502274051 
0.04475716171744064 
0 
0.09079577296069219 
0 
0 
0.0121480356457421 
0.1657329051297268 
0 
-0.03135518351224127 
-0.07989395295221564 
-0.2255681627947217 
0.06179708195606932 
0.361655198393048 
-0.005020818651297929 
-0.3229573844686903 
0.2587994725385204 
0.008938589993410847 
-0.150833832051611 
-0.0203109676462958 
-0.1622649553537765 
0.005946192304355921 
-0.3525250257655092 
0 
0.1888505201503365 
-0.03314760215706136 
0 
-0.08975568933938224 
-0.2015433376138781 
0.03225685344549252 
-0.1324761272473216 
-0.1183685519866183 
0.03254158043167505 
0.04284881124110027 
-0.05836830734292794 
-0.7558482996283336 
0.09391384121514411 
-0.1094462443796888 
-0.05586163424389396 
0.02548570285865349 
0 
1.275738397002317 
0.007814574287082494 
0 
-0.03627122914992652 
0.0005147452916825571 
0.139741518032835 
0.5976327240258777 
-0.08167156589365616 
-0.01529123505886684 
-0.5335965684262498 
-0.08983156486361621 
-0.1347330275977361 
0.1517432941729296 
0 
0.5709776953950267 
0.06281425288712154 
0.02959748121168542 
-0.1712393119789361 
0 
0.2821780569775371 
0.1500774207545365 
-0.1725931827078836 
0.304276393867097 
0 
-0.1411062802494413 
-0.042676829338423 
0.2235359437960586 
0.08019398977190705 
0.01329355024332796 
0.1163270793415628 
0.1494949235660288 
-0.08422149025446342 
-0.06259667020039276 
0.2591550490101929 
-0.1089338198510159 
0.02842553443325332 
-0.1755962481924169 
-0.2848880752952148 
0.00452475813447187 
0 
-0.003647974024035191 
-0.6812760846929763 
0.3254869907894551 
0.5516281006310181 
0.05553769034322673 
0.06793068524135878 
-0.0625245416288631 
0.04082815901639678 
0.02855425177521099 
-0.007803971773919122 
0.05895912922797032 
0.006825568377760155 
0.1488124895407935 
0.6877425318548879 
-0.01776157451467834 
0.1242443447526404 
0.09684905258252749 
-0.008017550755303174 
0.2040381784235527 
-0.04693045506218931 
-0.2646125912281144 
0 
-0.4031817395243182 
0.03977856096196065 
-0.1479165156389712 
0 
0.02923548546230703 
-0.170933169033364 
0.3920818869701709 
0.5052731256703543 
-0.09647528287259395 
-0.025050910667546 
0.05914625654003887 
-0.1144018675759041 
0.4678224916156895 
0.2312443639051792 
0.7999788529169614 
0.3435377418887952 
-0.1912280580791422 
-0.02195762096554669 
-0.0359049985709718 
0.06272807688073297 
-0.006658089576860839 
0 
0.1767866014985645 
0 
0.04404946715248405 
-0.03061938015408708 
-0.3117308005631031 
-0.1004592821004288 
-0.03075253752002614 
0.006415724227485479 
0 
0.2089702285084303 
0.2894015253189711 
0.004630878381718231 
-0.003667358600511369 
-0.07476996429919711 
-0.0188459312544871 
0.1181219887393583 
0.003826875583960963 
0.1763803850691358 
0.002638945342894286 
0 
0.05017507391630324 
0 
-0.0389125504712872 
1.186549530477953 
-0.1509582570365857 
0.3925735652630042 
0.2596699540904565 
0.004534278169500584 
-0.03143016044800523 
0.01948768752895462 
0.2101181128994714 
0.4203860232978231 
0.7601982670915688 
0 
0.02599689470724414 
0.02961612216698129 
-0.007563658573927837 
0.164264045253609 
0.1211041334132875 
0.01397127680091065 
-0.1379874573770367 
0.006097253023060772 
-0.3541741807459176 
-0.05659059332282945 
-0.004796439312902636 
0 
0 
0.4759582176686733 
0.002301191004180445 
0.05574045948253784 
-0.0177869711133433 
0.002811742526954576 
-0.2100595683934575 
0.0119398980869555 
0.03277979473029756 
-0.1185967310052522 
0.02318240060032499 
-0.007200722065326693 
-0.2551317234337046 
0.04238047955380203 
-0.0148026100017777 
-0.1002730461910012 
-0.06381371266600058 
-0.001269166224684969 
-0.1612704851443976 
-0.006619254419667459 
-0.09412173336368163 
0.02800679225168928 
-0.3970717139716229 
3.15271250132307 
0.01766424155358508 
0.4354233568916379 
0.100642902640918 
-0.0271550591173556 
-0.04763806854994546 
-0.02954106781836495 
0.06219868229478691 
-0.005146924630180598 
-0.01331525080335981 
-0.06912919148635398 
-0.1431129296923117 
0.02115302274119275 
0.05889995496317793 
0.003800035092189581 
-0.3677696930040196 
0.01130155351420013 
0.01717404998218069 
0.02654018567330547 
-0.08962970711260866 
0 
0.01194756693529886 
-0.09231817988942484 
0.2843249184796339 
0.2702710883311752 
0.1503621779288725 
0.1347716605454392 
0.002520431281432487 
0.07274023752649762 
-0.1028805602990638 
-0.138717576500016 
0 
0.4185981270551978 
0.03333535613308627 
-0.4547076743246651 
-0.2291261985240524 
0 
-0.1028300378760848 
0.4339951330970184 
-0.187353255058627 
0.6342587938652918 
0.6941720065421941 
0.003027116367079431 
-0.1939206226481487 
0.3326976105449846 
-0.04884602052403982 
-0.09960923077247331 
0.008424688018693772 
0.7907989507455917 
0.002299324731855394 
0.1964642922716744 
-0.09473183941009281 
-0.02477518446775247 
-0.009787609721172928 
-0.07098215591216286 
0.003443833187348744 
-0.01599854835223216 
-0.0777147606345682 
0.09931947317437399 
0.08340216686296401 
0.02205426421408574 
0 
0.04958342992140007 
0.4902462703094539 
1.013177095232116 
-0.586121286045814 
-0.3800834032646697 
0.222824306472761 
-0.1551442330586006 
0.1017400801603351 
0.228616472608981 
0.009847532762820185 
-0.02987419704589347 
-0.1358163534997116 
0.001026820675279781 
0 
-0.04139461758100534 
-0.1030537656908032 
-0.149762272012883 
-0.009581214076878824 
0.04959350012258286 
0.1535813627840132 
-0.08412515152718122 
-0.04968382176627341 
-0.02286380108580709 
0.01849404580094047 
-0.02670755767316372 
0.2094559819689965 
0.03836506111941127 
-0.03667042039715589 
-1.469418847570855 
0 
0.003762760120393336 
0.03615353773576428 
-0.07793463982375037 
0.04874253915227224 
-0.02134037855043951 
-0.1003048885012737 
-0.09373303850359732 
0.5202056232580929 
0.01184498166337721 
-0.004163798305531231 
0.2498320670437288 
0.03398952952326986 
0.01780426910482218 
0.004835968649836622 
0.1897895697287516 
-1.272594844874302 
0.1783178761688059 
-0.3000089261711715 
-0.05558871090969918 
-0.09780970544054225 
0.127448432891624 
0.01322483252404376 
0 
0.04004035082848258 
0.1138062411792082 
0.1264184315018134 
-0.01441654238550135 
0.1577492463692253 
0 
-0.7237258143314841 
-0.04640826998128639 
-0.07135480544364545 
0.2282649138231228 
-0.14399142801663 
0.003044481059571445 
0 
0 
0.07259986327264564 
0.2968104413653673 
-0.2304518717214537 
-0.04706250473511583 
0.2085767558663665 
0.01744308420388383 
0.003838209380256945 
-0.0651599542593255 
0.0209258402972454 
0.2626358050771689 
0 
-0.1355704263290608 
0.09799505996476909 
-0.04200961494639687 
-0.03788738593264244 
-0.08663604124165222 
0.05066855432969958 
0.07409475704848224 
-0.0183818952907705 
-0.006743310181796831 
0.03923439267680481 
-0.0361924157601081 
0.3828043574682548 
-0.01763572400494944 
0.004471173535238691 
-0.01874294711454313 
-0.05556156708173207 
0 
0.4338021349052829 
0.001231115080251216 
0.07310292104197408 
0.1037783439381786 
0.02135366448441076 
-0.009609711372475509 
0.1156373835984552 
-0.05634837831727708 
-0.2104368522620292 
0.1623672206478009 
0.02714558235134008 
0 
0.02679968781569399 
-0.03204180375526709 
0.4506415788779523 
0.0136539914331285 
-0.0256896239604435 
0.151765320850667 
0.06351727495276321 
0.1598996503252104 
-0.02757580188896035 
-0.03960128631246276 
0.1947562003735841 
0 
0.1156432111780168 
0.0147702281430947 
0.01624849040399503 
-0.5520341333672937 
-0.546523226465581 
-0.009967950541132005 
0.3440165348877307 
0.0910392327423489 
-0.2797152719846965 
-0.002970115472935127 
0 
0.04237380292427176 
-0.05306936722721704 
-0.0268188658558723 
0 
-0.02508974948435073 
0 
-0.04592044953341573 
-0.1210745058773057 
0 
0.01148490947708231 
-0.07403163160441537 
-0.09130665708268861 
-0.08448980149413801 
-0.1167989539343516 
0.2168322871342341 
-1.580154916510172 
0.008629291014917731 
-0.008432893217205278 
1.122269365399487 
-0.01957902766234459 
-0.006936059493916413 
0.01743667837894837 
-0.13746739085569 
-0.1134136368219365 
-0.1859481583339282 
-0.1882315360130883 
0.004973164812277506 
-0.1882521891444475 
0 
0.05830196484819099 
-0.004966131950222486 
0.1768008506129962 
0.1969322831744023 
0 
0.02411662068469666 
-0.2606644884321705 
0.8821227432275102 
0 
0.01011681082993045 
0.1766571240815819 
-0.01403526084550363 
0 
0.09822229323187248 
0.4947381182265521 
0.2531548909325227 
0.09919839103970057 
0.2577240229101722 
0.1687383980822942 
-0.373189844952881 
-0.1250338400006881 
-0.04457032776661281 
-0.3758795711718827 
-0.3983142488173865 
-0.002326246061534244 
-0.9576722308074184 
0.008929240893807828 
-0.0478039552007359 
0.166393606229738 
0 
0.05137172530442623 
0.08604245493345715 
0 
0.4333954968764527 
0.004234663626553899 
-0.3788306402026051 
-0.02651586427150305 
0.6561537297640054 
0.8343465758391297 
-0.02197412875518835 
0.05094892899181705 
-0.03039337567207892 
0.1251092786950944 
1.149959976039254 
-0.01592620182444519 
0 
0.1038728799138254 
-0.00624330260652761 
0.2976278373460149 
-0.005913088290736111 
-0.04351736526738483 
0.9734275700416258 
0.1794633245542019 
0.3490616579788212 
0.09674229379577583 
0.1319572013095383 
0.0083021369864399 
0.00132234136640405 
-0.02978318520063864 
-0.08612653870446058 
0 
-0.2374020304544129 
-0.2535223338011059 
0.1134840443346727 
-0.004266886655644678 
0 
-0.2046832706611532 
0.009959810031534264 
0.009080648098358044 
-0.08486372746250079 
0 
-0.07112974869382416 
0.004952098498698101 
0 
-0.04791124742769087 
0.0005836851522774932 
0 
-0.005226211926420013 
0.0140228845927968 
0.1290968437572215 
0.00887031255202929 
-0.1092781669841948 
-0.09340973167264385 
0.3377291893927082 
-0.01168955786056345 
0.004846778337658935 
-1.644022849595923 
0.0112226145690066 
0 
0 
0 
0 
-2.070276798177341 
0.1399366006267183 
-0.4159321100851051 
-0.09005084832786611 
-0.1164689276263085 
0.03654267121629071 
0.08964837925247136 
0.1231769623229478 
0 
0.03876845595803206 
-0.2244650575954264 
0.3287543073090162 
0.1124905315938135 
-0.07828837781491557 
-0.04237460746338739 
0.006395782418319701 
-0.01503946790027853 
0 
-0.03904437088210025 
-0.02356652349153708 
0.1551360548119631 
0 
-0.03528792547945377 
0 
-0.3104619493240218 
-0.001263147734392746 
-0.01295973832717661 
0.2186774292189538 
0.2519010911588606 
0.05739219913700391 
0.07056643138521412 
0.02704340917570042 
0.2447224734950573 
-0.08189634046081938 
0.1313301797017473 
0.04789092581762222 
-0.1361560927128458 
-0.005702282261934489 
-0.04283172594960052 
0 
0.08898053810743443 
0.004194410101784452 
0.05240357792882899 
-0.2506337685594588 
-0.04439570091577038 
0.0473984909641553 
-0.2946610327720552 
0 
0.03321061762003293 
-0.003473100188292527 
-0.1832427877115669 
0.1187878810600762 
0 
-0.05398394498409408 
-0.1119379689297283 
0 
0.0457905312102199 
-0.01703397153358297 
0.03098495793935175 
-0.1167172116146669 
0.2942407414019223 
-0.04796799898425909 
0.1469078919196176 
0.2339237209496539 
0.03174291863372475 
0 
0.1004786499741363 
0.94573978062508 
-0.03595616111672006 
0.007552867269876676 
-0.1024914632729882 
-0.00330045420928498 
0 
-0.03970909223216552 
0.0537013439088851 
0.005201673782930471 
0.3578329605035468 
0.1227900484592112 
0.1108133403712462 
-0.09228791143342768 
0.1554321461147265 
0.06525268997532878 
0 
0.2834522964811288 
0.3261657071572521 
-0.03569234548510461 
0.1858565982664794 
0.04048896607769953 
-0.02689584359440301 
-0.1217859874281289 
0.009582236550678493 
0.02477646395344229 
0.2460205876199711 
-0.03655852695294812 
0 
-0.01687852601560867 
0.05582322770156429 
0.1174940535932747 
0 
0.03379477383971562 
-0.453494150410086 
0.04647178955253579 
-1.225856865330807 
0.0008153993815037102 
0 
-0.1790299745204886 
0 
-0.01103276261817816 
-0.2438406312925651 
0.02637042488196925 
-0.1454446333098934 
-0.163008761408004 
0.1746333545495923 
0 
-0.003427107351894128 
0 
0.05818814393805499 
-0.005874374446129759 
0.1870828202127361 
-0.3422033670609541 
-0.1722169243230569 
-0.0111572403850902 
-0.0175279552217686 
-0.1810473948675086 
0.0923112512104575 
-0.1530781776924298 
0.1012166873424398 
0 
0.04031501157365106 
0.1046985891899338 
-0.05287899563895199 
0 
0 
0.005670678144955239 
0.2556770927144812 
3.750835612955847e-05 
0 
0.03682461693694758 
0 
-0.09873012307542349 
-0.003491530453919428 
-0.01418501824856207 
-0.01882530366802174 
-0.5474921858568816 
0.02854077565444323 
-0.09455897517154815 
0.05608071956738046 
0.2290928186974481 
0.002124538209958162 
0 
-0.01329125414488251 
-0.1170453708498685 
0 
0.24327046068686 
0.0500512506793135 
0.01600513321348554 
0.2039653051643397 
-0.0391152513654048 
0.07681360061960117 
-0.01191868321201055 
-0.009612764107409414 
0.04376260811048192 
-0.08754661926634212 
0.07967702819831243 
-0.003624768165590443 
0 
0.02591068672341012 
0.6671861032155632 
-0.5397344650147491 
-0.1455099928681582 
-0.05269158051920697 
0 
-0.2050821041682578 
0.02744469237555192 
0 
0 
-0.01873020212050448 
0.1592524874019946 
0.0652415103999387 
0.3689606237702505 
0.02436498014766759 
0 
0 
0.1874829431857157 
-0.08735807272869732 
-0.01449737303391481 
0 
0.01953761841623927 
-0.5772895452279689 
0.1014597250859102 
0 
-0.002469417608453458 
-0.5946731158801535 
-0.0243265062116849 
-0.138051403838313 
0.1886422888845035 
-0.08452038038028378 
-0.0106534932367122 
0.002501996350189241 
0.01160503913574913 
-0.542447653339607 
-0.7506149511294485 
0.07316999887678718 
0.04774727558013517 
-0.8980468998287326 
0.6158762388798404 
-0.04113873963818891 
-0.3387207492128719 
0.01097273565716302 
0.02570443226187099 
0.1387260857500514 
1.079676443524529 
-0.1708221797750269 
0 
-0.2526140004905829 
-0.0218064173067979 
0 
-0.08271697301962552 
-0.005254961551532131 
0.9977365935218256 
-0.0301764790339905 
0 
-0.04638879163581553 
0 
0 
0 
0.0444025317783686 
0.06787611754439825 
-0.0001917180742844575 
-0.01548448900693486 
0 
0.03194592141161565 
0.04275121763093161 
0.09712682746797294 
-0.006774651679162108 
0.08696104577010474 
-0.01240506414435147 
-0.2018823722484618 
-0.01029607928483962 
-0.945584750378229 
-0.05005651348482294 
0 
-0.01479879738623983 
0.04798211689319394 
0 
-0.09726375366441477 
-0.09765416675970007 
0.06898822665007964 
0.0885867668747183 
0.01439966159225342 
-0.02442640714129135 
0.02820309755109698 
0.1028609021967488 
0.02341364246424304 
0.4274848953063474 
0.005416291592889639 
-0.00593567928917894 
0.05254681949018144 
0.612524180224848 
-0.2185221757193835 
-0.1487307299965762 
0.163951582897547 
-0.02865980097606525 
0.0896548676621617 
0.4233377916674724 
-0.07843057720462802 
0.0009412037055960519 
0.002952661303445465 
-0.4983946457171963 
0 
0 
-0.02978345920279614 
0.09117439475263572 
0.05799402445885025 
0.0955538748491469 
0.2338624943802327 
-0.07729233820776853 
-0.09541694351077493 
0.9738394542752838 
0.1323432775671566 
-0.004604191749319722 
0.04201162369694627 
-0.007832286674251381 
0 
0.04170858580110932 
-0.05389217218789518 
-0.02204229824609967 
-0.2053768585036784 
0 
0.06199796375846171 
0.001302096574370876 
-0.05288905164030248 
-0.210357068827852 
0.08298557405379219 
0 
0.1392733710080287 
-0.7398747146195803 
0.01283408577155853 
-0.3597668333140315 
-0.0037236714337365 
0.00931336454216258 
0.2684325880248266 
-0.09681846676703533 
0 
-0.03439045950842483 
0.009036797677758647 
-0.006942810591568054 
-0.07079087597429395 
-0.02925876672457928 
0.08499620081242974 
0.005710116657139813 
0.05860889732389171 
-0.5236204760564025 
0.4500776100380383 
-0.1257820777568834 
-0.02742332132224006 
-0.09730653333071439 
-0.532960129831044 
0.0735917007156377 
0.03748271483828023 
-0.04394878866383291 
0 
0.001481892408132328 
-0.01514050319354835 
-0.1050135938288841 
-0.005977933545729096 
-0.1195403688538367 
0.3779216154566954 
0 
0.04082297772807297 
0.07928687464570194 
-0.1291338475146659 
-0.0001812921190280422 
-0.05953068161576383 
-0.8379961668761304 
-0.0240075280092742 
-0.08404016340716934 
0.01368575118904383 
-0.03288300047582387 
0.1573416502792647 
0.03489382082415879 
-0.01047405906421213 
0.2113443677516993 
-0.009809911084094531 
0 
0.7343571864016625 
0 
-0.03207974163676864 
-0.03831545910034777 
0.04630890785597144 
0.06759611186543833 
-0.0537953938445894 
0 
0.006536301034412389 
0.1420194222179405 
0 
0.3420890632214504 
-0.02630434843544822 
0.00380732047648378 
0.0008031839612887565 
-0.04416834496639509 
0.2065670617018335 
0.05790328160755963 
1.176517960556499 
0 
0.00820907112949323 
0 
-0.04355307931131112 
0.01037625257074213 
-0.04383838721296542 
0.1832669982652884 
0.04528881874705742 
0 
0.138962368198744 
0.1549173472954243 
-0.3260551697566003 
-0.1218186546054065 
-0.1042837690654523 
0.04078734369511726 
0 
0 
-0.1120791621730688 
0.9604015204013211 
0.3805665566284785 
0.03331445616601292 
0 
0 
-0.004284554741878968 
0.2765035611829586 
0.1751921478291227 
-0.3690759943776196 
0 
-0.1953366364601098 
-0.01513525827330975 
0.1980507207487708 
-0.07485811885544201 
-0.8141499580289148 
0 
0.0113289038671197 
0.009784870131971339 
0.02910123024322209 
0.1485462005927619 
-0.01237867695079471 
0.1531401273236753 
0.9840951730481274 
0.2460433016719702 
-0.007590434188815628 
0.1946178783987062 
-0.2614491353530571 
0 
-0.4460654503450734 
1.340513074636634 
0 
0.05352503242818164 
0 
0.01951589369511848 
0.2712992251818235 
0 
-0.3067641468325475 
-0.05088756064618838 
0 
-0.01424819502003815 
0.1605070574798291 
0.5108241183041179 
0 
0.002606112840474456 
0 
-0.06131920885472775 
-0.0384080351062837 
-0.009591527042487055 
-0.3696578934992022 
0 
0.01327375698512359 
-0.2088464177746269 
-0.03521507639607448 
-0.004628590748114156 
0.143663225795375 
-0.07677822722335378 
-0.1189946005448224 
0 
-0.0242442356976469 
0.1802295621223364 
0.5670059462908854 
-0.1507181896552428 
0.1460035429202992 
-1.212631096185943 
0.3742081229739244 
0.04765259138438014 
0.02238908259823583 
-0.09703779147486688 
-0.01110448199512335 
-2.624026600270475 
0.1321305051001412 
0 
-0.01430481111432806 
-0.02385662788002856 
0.1207045885471315 
0.06639960465563735 
0.0490346583670048 
-0.100809107377328 
0.1254879860028744 
-0.006433128417068374 
0.02281439538363636 
-0.006037823836576056 
-0.008743592132141384 
0.09917391542707669 
0.5922120404753056 
0.1636976999398049 
0 
0 
-0.02892148370838455 
0.5275099223015125 
-0.009671768757407611 
0 
-0.03770144877725551 
-0.4374723371513212 
-0.06173052424478265 
0 
-0.6540533946366023 
-0.008723774421966634 
-0.3900596443904916 
-0.0078825927300477 
0.004078301966801388 
0.1017252772624877 
0.02486854217973907 
0 
-0.1599187416667986 
-0.02239487502484485 
0.06464711938463884 
-0.07129797272462367 
0 
0.2277532410615485 
0.002107714486285647 
-0.1829424459060811 
-0.0472634389593766 
0.2623993458813085 
0.1546800674881205 
-0.2574097595388432 
0 
0.001391738113035517 
0.01366561190095886 
-0.1564632576419197 
-0.109242232948548 
-0.2822223003839365 
-0.1135799136650576 
-0.07312326598958657 
0 
-0.1184270207963528 
0 
0.02640053661372222 
-0.005174258813822238 
-0.006496360802271077 
-0.4515748308023797 
0 
-0.02872601284993944 
-0.4922544836798835 
0.245766834403268 
-0.1814117362833859 
0 
0.01489508844520985 
0.02327208802468873 
0 
-0.2134654505735758 
0.01995667738460192 
-0.1955425419795719 
0.4918209177185691 
0.007327287608229345 
0 
-0.04233214394532257 
0.3960833695537425 
0.05005924165692436 
-0.06408949613770128 
1.007684413662251 
-2.085807135879906 
-0.07991689383146267 
-0.01305365393301359 
-0.1345238880349529 
0 
0.0628255440056793 
-0.01933354532958173 
-0.02846356160949708 
-1.277297960942461 
-0.00869185757637164 
-0.01855053236785242 
0 
0.1910170476067061 
0.00967826191334048 
0.2076283710098153 
0.01711192278016727 
0 
0.05925629591451458 
-0.0154124101571699 
0 
0.1098994990353405 
0.002716400654724843 
-0.05863756423431003 
0.008818453424022286 
0 
0 
0 
0.1081514827299339 
-0.3513960760739289 
-0.005613094054287107 
0 
0.1980918094421499 
0 
0.183106500082043 
-0.003312864450989664 
-0.02180809710119899 
0.07011205178174618 
0.1023197110563844 
0 
0 
-0.8032652519166252 
0.1727603361129676 
0 
0 
-0.248732548941535 
0.03032841554298816 
0.04129277185501102 
0.01737549356938463 
-1.126187039611731 
-0.06885481576327572 
-0.1425680691648277 
0.0687800750288146 
0 
0 
0.1381091019511718 
0.1648155978347299 
-0.02308476306132013 
0 
0 
0.1243182797864366 
0.01026889662604519 
-0.07035169547628317 
-0.1210207731695306 
-1.611933520264903 
0 
-0.04268514794577918 
0.03982071512845615 
-0.07568845473496924 
0.1170376641440282 
0.1628319100918894 
-0.08024761117545093 
0 
0 
0.0180795162718959 
0.1439506831742177 
0.01118775724284841 
0.2503517547402607 
0.004058836363435609 
-0.1037535763702268 
0.5195220852478507 
0.2368461034125564 
0 
-0.005521091744297439 
-0.0003165981075833025 
-0.1465311216501975 
-0.5679888368325803 
0 
0.4289087701617377 
-0.1767150379075356 
0.0182729833972904 
-0.03597806479886466 
-0.0059949700853419 
0.04400190999328352 
-0.2240171920561765 
-0.01699996317618818 
-0.001289169038834793 
-0.03562234944940487 
-0.1451321723656917 
-0.1921006270331952 
0.147521987402894 
0.03338234208844745 
-0.01824089819324038 
-0.01162609183712362 
0.2714303867384368 
-0.0001441526728136154 
-0.02604783919108987 
0 
-0.04339249438753506 
1.188577034039799 
0.3386916817390945 
0 
0.01058508264114347 
0.02692587810367494 
0.008865653804372419 
0 
0.04314632158126022 
0.01942432655209148 
0 
-0.9212556853229975 
0.7778563516415222 
0 
0.001271162410215134 
-0.01299028624305309 
0 
-0.005489098463024784 
0.4525191854608221 
0.007289624604183694 
-0.1500437323418098 
-0.05298457967637558 
0 
-1.194074324458546 
-0.07564549828020183 
0.02484045679786652 
0.232525028949138 
0 
-0.03331586140643271 
0.3353372809110525 
0.4686610957543695 
0.1754648141271496 
0.1189561875714309 
-0.02411968912176074 
0.05974079611594195 
0.01328066620449589 
0.002057183698295066 
0.5193713596480475 
0 
-0.05405557785042514 
0.2658276615143291 
0 
0.002704378632337795 
0.002093541074094935 
0 
0.03945852459756441 
-0.00348943333821029 
-0.1112042261620715 
-0.08905854938405704 
-0.1147666669392152 
-0.01535753364057131 
0.001566004825018777 
-0.1480151779116626 
-0.09076584164005451 
0.3382529286555932 
0.01993343011882834 
0.4852914103161117 
0 
-0.00773814926905048 
0 
-0.1495451730652632 
-0.008083015409707529 
-0.02907134951030559 
-0.7793223439815061 
0.06050414071198356 
-0.008095437421867451 
0.1752927477723355 
0.01434456230394325 
-0.1730818347518042 
0.06179077232943177 
-0.06698570971205228 
0.5309383390698901 
-0.2488670073871811 
0.02089336580153961 
0 
-0.05646841841871398 
-0.003778067760644758 
0 
0.07312260735908827 
-0.007289474805605832 
0 
0.03171155467532469 
-0.001098542134792798 
0.07899268651046214 
0.4813426050256718 
0.8945371869759154 
0.02185621247967012 
0.0007858091550252702 
0.01346484764675831 
0 
-0.02740540991591146 
0.04968400929679015 
0.4208332758258096 
0 
-0.01396215885226499 
-0.7569842440469641 
0.5023127096416412 
-0.156106493228277 
-0.3943917600185595 
0 
-0.3544423220040772 
0.1217951486400636 
0.0351716913100466 
-0.01028863097813027 
0 
0 
0 
0 
-0.02028648837419502 
-0.06560530056394057 
-0.5499572756178144 
0.04374851693289392 
0 
0.02629996211378585 
-0.4396196617699034 
-0.002713386723309672 
-0.02708830994555347 
-0.09184494761186547 
0.02078051744450639 
-0.01031474143101279 
-0.04945941622986965 
0 
0.2673238954507344 
-0.05986974239869227 
-0.0008476620622888103 
-0.2147114329399483 
-1.08530526743279 
0.01132445714954552 
0 
0 
0 
0.5617199050772362 
-0.007712232834058671 
-0.004978352137008573 
0 
0 
0 
-0.3443472692349883 
0.02112626790115519 
0.03219089681865049 
-0.03491587824738188 
0.003967406077093553 
0.06211404090320027 
0.4442107257338243 
-0.6554378100748632 
-0.1343543735639083 
0 
-0.05808393446205388 
0.001072523613105984 
-0.5594282807925418 
-0.07185217744932282 
-0.0404321933209414 
0.1083599753412145 
-0.01631101239580583 
-0.0106535434512129 
-0.01067567030920216 
0.004920496336375482 
0.01942137433972221 
0 
0.03760542977989664 
0.008665085214654032 
0.0193233502790646 
0.3310565010121818 
0.002529950901146817 
-0.1822228745037642 
-0.06983476487363172 
0.400779662777694 
-0.0009655827995144074 
-0.2248721288746004 
0.04448605225621693 
0.03382627542230775 
-0.09429769627164944 
0.05350469404672029 
0.04876792443012697 
0.1195668747068083 
-0.06255579854947815 
0 
0 
-0.004387766334928803 
0.05888893047475303 
0.1199741337260068 
-0.0687406856908985 
-0.03046273587943948 
0.1783538998727345 
-0.001363370578315628 
-0.1972077570190072 
0.005011359664331212 
0 
0.02032816847137392 
0.006402685811253798 
-0.1889997986463474 
-0.06001214771876946 
0.006250090624316049 
0 
0.008403204976773739 
0.0001433274005077784 
0.004922846020201848 
-0.2244873036709452 
0.06800909102353341 
0 
0.1451158766410706 
-0.07131384308626587 
0 
0 
-0.002895801392290553 
0.6613313179147796 
0.1498756721186726 
0 
-0.2332372160474749 
0.1757345657857864 
0 
-0.1312637720383113 
0.06279470332925512 
0.007029432753257882 
0 
-0.0181395289768575 
-0.009475974889981587 
-0.3234315021675171 
-0.1822409427400301 
-0.02167216822406776 
0 
0 
0 
0.09484934886576962 
-1.219438603357577 
-1.046965202339217 
-1.589120063120072 
0.09899960298918471 
0 
0.05868980030898635 
0.002258814962016059 
0 
-0.007869489948326511 
0.005114655863934472 
0.1002713904629864 
0.01173967156553314 
-0.2802203370183355 
0.1383742481101666 
0.02086463620479819 
0.157257543665432 
-0.01307507723904442 
-0.02324395322967608 
0.0871657747342939 
0 
0 
0 
0 
0.06585807359652548 
0 
-0.1791302530009733 
0.02783985099875036 
-0.0404884331470593 
-0.09134081110822509 
0.03341428306709909 
0 
0.005951647789750556 
-0.08451890187032204 
0.03311146749442136 
-0.08440414303712394 
0 
-0.1573035847548617 
-0.01121543854048642 
0.212784361130012 
0.2245282007634168 
0.07733376176713494 
-0.02865499720952353 
-0.04391816939906764 
0.02930159874409727 
0 
0.02322692022495572 
0 
0.1443492898196851 
0.0333447934162043 
0 
0 
0 
-0.06277306149431799 
-0.007528158472505427 
0 
0.1219204605036701 
0.0004109562451506043 
0.06379706092465894 
-0.09034030705296628 
0 
0.9626672519384718 
0.3903022172880145 
-0.3487750866861472 
-0.1256775344388565 
0.02591156620936112 
-0.1038775229856265 
-0.3254239208982357 
0.02737007082840514 
-0.04896339778480503 
-0.3731818650057565 
0 
-0.3591340732462897 
-0.07910166284108433 
0.06061244257730879 
-0.1972596966770118 
0.008002044151979089 
0.1484037838639875 
0 
-0.09606148069028901 
-0.000263656116615026 
0.006615495022912879 
0.02509917732416236 
0.05626136286380526 
0 
-0.02693298440583343 
0 
0 
0.1036294932453322 
0 
-0.05779256960487323 
0.00535834850167824 
0.2193864768427371 
0.001031013247199761 
0 
0 
0.2000612520621005 
-0.03375584147603512 
-0.007410619704406981 
-0.2853035467845257 
-0.1001277912554645 
-0.06704770791686614 
0 
-0.01864219723772755 
0 
0 
-0.003312817312568953 
0.2902078925122071 
0.2696089997301268 
-0.009657408501025512 
0.4131141406858762 
0.008270771648699729 
-0.09775461605138323 
-0.1368315676450671 
-0.09414741167654792 
0.442597617846043 
-0.1295970997590208 
0.4569833251882701 
-0.02216469809314566 
0.6960243124630108 
-0.001366816425462215 
0.5356872934465995 
0.588415125654374 
0 
0 
0.01589616587784458 
0 
0 
0.13336843879424 
0.001819070279404873 
0.0575137624209347 
0 
-0.07211438770491067 
0 
0.2777378389696025 
-0.1450393218591627 
0.9912970694594314 
0.1587225663159738 
0 
0.002640466774824876 
-0.750179055873983 
-1.287012097821107 
0.04163672610052045 
-0.02249894830977695 
0 
0 
0.08168298091913201 
0.03667572825647433 
0.001852544530584631 
0 
0 
0 
0.1209849134651222 
-0.05981536968444728 
0.07334056782798069 
-0.003611114453108034 
0 
0 
0 
0.1276427479419106 
0 
0.08046168300838634 
0.06451518188476471 
-0.0009658953454797697 
0 
0 
-0.003375560613775003 
-0.07710642796456182 
0.09924294030527722 
0 
0 
-0.04713253242317356 
0 
0.08272053548341393 
0.09510385903025828 
-0.02802502808996231 
-0.3214332139809513 
0 
-0.1045345626415688 
0.2869282428286211 
-0.07426323853370614 
1.046066117037312 
-0.06586291362603564 
0 
-0.02652458487970318 
-0.2520069692530334 
0.01895675536322209 
0 
-0.0689868448383812 
-0.009670075347449864 
0.1820845054946115 
-0.03400743624780581 
0.04059237936924062 
-0.1484421181958865 
0.04008557119092507 
0.2179614329646815 
0.6693513410960623 
-0.07686712846967581 
-0.05328613876751922 
0.9744621625430727 
0 
-0.002282471636947146 
0.0259865040379304 
0.005807381026717977 
0 
0 
-0.03083321252353623 
-0.3471493291312376 
0 
0.08363438034283038 
0.01019606687177587 
0 
0.01480567846987494 
0.0392522201900351 
0 
-0.242813202225401 
0 
0.04369834117063588 
0 
-0.09728824291486965 
0.0008972019552533315 
-0.02895784620528499 
-0.01696744702116315 
-0.01002654328773493 
0 
-0.02651696183952698 
0.01313501471827057 
-0.0286537802427084 
0 
-0.1110171281651424 
-0.002379400293487287 
1.011055802087629 
-0.01766290757544935 
0.167475810943847 
0.02969058842023947 
0.03767775909116267 
0.06517439630673472 
0 
0.03766200595594432 
0.004439656997182889 
-0.04625281572167966 
0 
-0.003547504417399584 
0.2394811557339071 
0.1174222972697132 
0.008327471844180073 
0.005200068263276375 
0.7065571200639277 
0 
-0.07138332690395489 
0 
-0.3800255462744802 
-0.01756271051723692 
0 
-0.08734010100724662 
0.06597378897722252 
0.8711422059887279 
-0.5847998295293723 
0.1922421956045658 
-1.152161371442249 
0 
-0.005818590734672404 
0 
-0.02926956019507349 
-0.07396869704269959 
-0.05022849348633068 
-0.2034441089493563 
-0.2679856303580508 
-0.570619441872867 
-0.03755099263936884 
0.0004187865775268548 
0.01021232057606481 
0 
-0.1155585542656657 
-0.01100468727820861 
-0.499960524682191 
0.1195091816464081 
-0.009235208085605878 
0 
0 
-0.2948721986648626 
-0.1065790213260771 
0.1269240570006363 
0 
0.01041722802341828 
-0.003466521423664539 
0 
-0.01260198460170756 
0.06227933219172804 
-0.2799662627710083 
-0.8975703972024413 
-0.1168555676058632 
0.004525516469937902 
0 
0.02408648829982593 
0 
-0.00132309123393034 
0.001155982001688556 
-0.2870361672657561 
-0.000343745689342352 
-0.03144720421858013 
0 
0 
-0.02156426961466766 
0.03093245928085699 
0.02369156955088302 
0.007006150953266373 
-0.1296513962740518 
-0.002704771693868388 
0.004162279487925818 
-0.2034418376616509 
-0.01677145832551313 
-0.04873987905712723 
0 
-0.08896546790186009 
0.3410546103986795 
-0.1631243529524748 
0 
0 
0 
-0.50428517879858 
0.1525004238568837 
-0.001755341704101403 
0.06092041292923624 
0 
0.03869852007339573 
0.01336841203339586 
0.05519040733985126 
-0.02054863267615172 
0.1247630753435106 
0 
0.00690182880950631 
0.002409580549728613 
-0.01928870315408197 
0.05922878231380084 
0.07024250813798656 
0 
-0.04750520117479945 
0.09957291142404612 
-0.04774535478604787 
0 
0.2196126226011105 
0 
0.01279220307556187 
0.02443025268941252 
-0.002436675644016529 
0 
0 
0.5737607624110533 
0.03615399026304182 
0.2779845858680936 
0 
-0.0106726610749247 
-0.2102183614535978 
-0.007737183445615686 
-0.1630343715969833 
0 
-0.1000842525350819 
0.2282558339075356 
-0.115694758516979 
0.0173048996271641 
0 
-0.03433156611551521 
-0.002109777414168511 
-0.3587573291172361 
-0.2221328137992364 
0.0740079679018054 
0 
0 
0.03196061320193667 
0.08577512315911136 
-0.3239598265227112 
0.03950291246971429 
-0.003427699591024212 
0.7651053482240565 
-0.04554292410736276 
-0.4553502337802765 
0.06337220231610845 
0 
-0.01216888749900926 
0.2347079918268844 
0.04055124850983852 
0.3934561200801395 
0.3368183719008456 
0 
-0.008817433289047502 
0 
0.1703288723224104 
-0.01849359500579181 
-0.1342713048758033 
0.007013138862975423 
-0.1172889655196351 
-0.1188356778251068 
0.1485170502709769 
0 
-0.008053783150281203 
0 
0.05097470242383677 
0.01900677181186755 
0 
-0.004651537185164222 
-0.03070199495010677 
-0.03516272755831817 
0.02046821995313934 
0.7046340432302728 
-0.3834975833184905 
0.2303172711008316 
0.08043354352518085 
-0.4052058492641462 
0.1192570646103754 
-0.00208238903868534 
-0.02226252080395055 
-0.04845057507731993 
-0.1332053797240154 
-0.04551905306520472 
0.008290398634334444 
-0.7672846535550395 
0.1166159245198291 
0 
0.006085440871209711 
0 
0 
0.1855649843652272 
0 
-0.04606111352682159 
0.0185879837055541 
-0.00443171503105726 
0.1143774373671304 
-0.008236759468955039 
-0.01450035372047625 
0 
0 
0 
0 
0.006319421726122731 
0.04178790638690012 
0 
-2.341492856037414e-05 
0.6060491799902266 
-0.09821521998215432 
0.05415530188749954 
0.06034506101185094 
0 
-0.2491594875099765 
-0.02644523191791968 
-0.6870743237280293 
0.08142212120640147 
0 
-0.2187210656668827 
-0.00469281866527663 
-0.1009903135668531 
-0.2485480341834356 
0.02102200470381446 
0 
0.3433474264178835 
0.1480803555033526 
-0.009683398674263754 
-0.08200131742008769 
-0.1001292317287876 
-0.3065089289290276 
0 
0 
0.02159208492108111 
-0.3383972011392732 
0.1505254411095226 
0 
0.1347690323796436 
-0.465033787128471 
0 
0.03973249089119755 
-0.4347962338872482 
0 
0.04327815887677358 
-0.02138713596414767 
0.01034381823490792 
0.001555197156588806 
0 
-0.05432000949723195 
0.6401321166590358 
0.0134533670620087 
-0.08017340863251046 
-0.00712813396512286 
-0.05853890107956929 
0 
-0.01381272551058757 
0.4017319570296711 
-0.02879622677746612 
0 
0.1214262805838308 
-0.02012705606327558 
0.01876580442554678 
0.2142007531840968 
1.02828645014878 
0.1127901067256583 
-0.09656185204659379 
0 
0.1442032949173487 
0 
0.03545351574796617 
0.29780498162608 
-0.03269805335720062 
0.117578067037861 
-0.02101463621071764 
0.005870083172760568 
-0.02635593342992023 
0 
-0.2646961939918006 
-0.08612836459493482 
-0.005514515781685144 
-0.01013877515779409 
-0.3515844021066464 
-0.01273487407052075 
-0.01982797023434019 
-0.102574722250292 
0.01705066575336235 
0 
-0.2594255326294119 
-0.04320765879420028 
-0.04141482560325267 
0.1492541749304806 
0.01437608608565879 
0 
-0.08339424605611874 
0 
-0.2157678805176549 
0.2080191927626245 
-0.02197488798887828 
-0.1606407249315324 
0.3415474030367651 
0.7836118618853647 
-0.006337758092710143 
-0.09599101913125455 
0 
-0.04699152864112383 
-0.09599086549202919 
0.2960235685533409 
-0.06396154818084368 
0.0400480587013627 
0.01853971281618662 
0.1722248564748181 
-0.09730280907906244 
0.01117605602743095 
-0.06249638516283729 
0.1937927355392345 
0 
0.02110559767583379 
-0.05419431635035278 
0 
-0.6635179657055448 
-0.0520806035956389 
0.02910689423230968 
1.041175747400909 
0.002510732524721278 
0 
0.0262556761243146 
-0.04447006289028854 
0 
0 
0 
-0.009385477082173835 
0.2908344750118069 
-0.6146021313786459 
0.001589294255085185 
0.02170634719653563 
0.143160514159574 
0.6279330047194102 
0.2676192244640274 
0.04589314438174451 
-0.009276905804671557 
-0.0004547847782009626 
0 
-0.005471792571133152 
0.01234441297951738 
0 
0 
-0.04082554942339478 
-0.03730208881893885 
0 
0.08570031072671165 
0 
0 
0.2109008232343509 
0.0007374131604507565 
0 
0 
0.0612365092751528 
-0.2412236641551316 
0 
0.01255015733397848 
0 
-0.01363687306177584 
0.01360896775346641 
-0.04105848273573376 
0.09030774337957735 
-0.2480960450112394 
0 
0.07151156454487326 
0 
0 
0.2538258115731168 
0 
0.0127828158784858 
-0.01556490374221664 
0.0101585055254449 
-0.004642373593312 
-0.006216613717811435 
0 
0.2612747787608724 
0 
-0.04707640609775627 
0 
0 
0.06778909404525935 
0.03004564298436435 
-0.05580122586912187 
0 
-0.01063740039389537 
0.2904253601621334 
-0.06092879496610876 
0 
0.08139057911831608 
0.08308982981802089 
0 
0.04617070723320119 
0.05254807969575553 
0.02593958759801005 
0.01144416421360673 
-0.01112724676572845 
-0.07863502143274577 
0 
-0.1271640621438276 
0 
-0.09032929173387801 
0.03100520406389035 
0.0140213599271552 
0.08389540929923192 
0 
-0.04168181562277335 
0.0328525234998218 
0.00850809341599169 
-0.002049190131488774 
-0.02952223235192954 
0.002724587450468352 
0.0394572018689498 
0.1858795758165523 
0 
0 
0 
0 
-0.07943298033351992 
0.04024940102109539 
-0.1076397929851603 
-0.03148793759387635 
0.04316907115653865 
-0.02906208625623348 
0 
0.006554723068008458 
-0.08377590454425082 
0 
-0.2414587212702467 
-0.003996592962064787 
0.05383042958009598 
0 
0.01727120539885059 
0.09329674986496275 
0.0619326198787321 
0 
0.02839018369733256 
0.08480117739498902 
0 
-0.0427269268234157 
-0.137523409085012 
-0.007288936504471221 
0 
-0.00523780400345765 
0 
-0.04067243782102409 
-0.2653814355113058 
-1.32639341421222 
0.01037784743805739 
-0.5113529780504119 
0.003612196167337171 
0.0137350183089371 
0 
0 
-0.003080353246288367 
0 
0.02097868503042312 
1.169779238105415 
0.05263956333638199 
0 
0.3826868715442404 
0.09055005876027244 
0 
-0.06959297073308374 
0.07792543392933819 
0 
0 
0 
-0.1006789100987281 
0 
0.2444167268643795 
-0.1857983878531043 
0.06097082891817454 
0 
0.0911725782170353 
0.8903620542773094 
-0.7201745864334304 
-0.01603567297895781 
0 
-0.02932730571706867 
0.01705809246745067 
0 
0 
0.1512149409719391 
0 
0.05044774318125485 
0 
-0.003985150128194726 
0.5513001237204886 
0 
-0.02808135322872753 
-0.07456931556729675 
0.07276843607460337 
0.008332885165477137 
0 
0.2167433729981005 
0.1633981182971884 
0.01760009375725509 
0.001755276335384753 
0.146387051740942 
0 
-0.03191065686755058 
0.01322733864408116 
-0.1109359750774324 
1.315433920075778 
0 
0.02269566528870497 
-0.4151101345505342 
0.152346885515371 
0 
0 
-0.05270505881458327 
0 
0 
-0.2485936734648297 
0.001714518869793574 
0.3728642001532736 
-0.0567080465665003 
-0.02268374724485563 
-0.02522093103177828 
0 
0.01835868806875288 
0.6234826813799392 
0.08178240801181563 
0.1623838612363113 
0 
-0.2197478961906614 
0.5165342278417333 
0.01353628420112631 
0 
0 
0 
-0.01349091199782937 
0.1118851440304342 
0.02116619839188024 
-0.01967249999263049 
0 
0.01116319224537598 
-0.03573459259355112 
0 
-0.006973411477440895 
-0.01685747968529518 
0.0299590049684761 
-0.02454118661866261 
0 
0.2697734038921657 
0.01172515205328586 
0.004270450448307598 
0.4597812890015403 
-0.2648576436388927 
-0.01295093981381879 
-0.04857707460787102 
0.07391209600458352 
-0.02238846227137519 
0.03004365728400338 
0.05900530550422887 
-0.2402057298258159 
0 
-0.002515144260054214 
0.1953964771514613 
0.1113111436158722 
0 
-0.09384865803686147 
-1.199869532562577 
0.01285962739094304 
0 
-0.1440593868006839 
0 
0.04380242835595868 
0 
-0.1247680965691898 
0.0102583095022417 
0 
-0.02280672758248946 
-0.01073406362480631 
-0.0928814222252507 
0 
-0.09191762351207405 
0.05187028096363278 
0.101427819190422 
-0.04033807939785145 
0 
-0.1109454757655645 
0 
0 
-0.006361871147672355 
-0.0215264868130611 
0.06431974295394234 
-0.3725327420586847 
-0.01435632676299202 
0.06550900526635843 
0.2554547834959295 
0 
-0.05871473784667523 
-0.0195268824110201 
0.06609570159568957 
0.4198220630572732 
-0.02596528720318594 
-0.005204657753471814 
0 
0.01421486981739222 
0.03306113279941791 
0.01808801689038899 
0.04384172799101172 
-0.01857990365079637 
-0.07731941358648622 
0.002855764554174231 
0 
0.1165436247440266 
0.4085242959101547 
0.06117116759472995 
-0.00650057629340681 
0.02069626017423191 
0 
0 
0 
-0.1401103592866867 
-0.3080507942017893 
-0.225755498783736 
0 
0 
-0.1235342706091993 
-0.06872570842007888 
-0.001523051654783398 
0 
-0.2430060718428972 
0.003208418405092934 
-0.007796738339848386 
0.04311316845145062 
0.01981581385187424 
0.5568117986770783 
-0.04385607458924673 
0 
0 
0 
0.05146885565162201 
-0.004692972270233988 
-0.4627310549999157 
0.04920053313855603 
0.03967241922293399 
-0.02589696493290706 
-0.3224631891289058 
0 
-0.1302500663715727 
0.0967183712097672 
0.0272790319310852 
0 
-0.1332212088661391 
0.347635771386204 
0.03714597587149777 
0.06294034679523691 
-0.05999362203597257 
0.01655472510542046 
-0.05992977211610652 
0 
0 
0 
-0.004136750997997725 
-0.09262673327092302 
0 
0.8211491602648133 
-0.01991724419007271 
-0.5335617446327794 
0 
0 
0 
0 
-0.0007676820165732843 
0.08330251966771884 
-0.1052539782505759 
0.1558437262651499 
0 
0.03672180106453841 
0.02098168212006005 
-0.03368073525184389 
-0.01951808071513986 
0.0006864853080593576 
0.8721585506031763 
1.845677283469085 
0.006207092663134055 
0.004642118157453124 
0.2333228632687099 
0.0845222170746639 
0.02341372388689528 
-0.04626358162271234 
-0.7043591869836962 
0 
0.2182408885342615 
-0.2987481677549287 
0 
-0.142137117333408 
0 
0 
0.02599675843587814 
0.0003943276278689549 
-0.243475177187565 
-0.2189168286167176 
-0.002942108500405908 
-0.02606161225889677 
1.156647069096757 
-0.1865912554062037 
0 
0.004044402146030811 
0 
0.043964011594044 
0.01074595460381183 
0 
0 
0 
0.0004179149757800941 
0.07443653008770981 
-0.2991340541730261 
-0.1028316048408748 
0.01105400998132352 
0.1273203894159124 
-0.2934954743759403 
0 
-0.01270700944231635 
-0.2705477862971232 
0 
0.07131485641374176 
0 
0.03681288236099168 
0 
0 
-0.01753628481916198 
0 
0.04176340891931567 
0.5616430799644568 
-0.2350819960630331 
0 
0 
0.03731287442280741 
0 
0.02040095697548942 
0 
0.05885411125668683 
0.2120113582097729 
-0.08429468183812422 
0.01360280395193275 
0.01280038214720758 
0 
-0.2511290968920943 
0 
0 
-0.207712833705399 
-0.1699379428156388 
0 
0 
-0.2618625232147203 
-0.2080940229717949 
0.005286499791532851 
0 
0.1194248433674968 
0.06502929110461546 
0.03218546254184158 
0 
0 
0.09910399344792782 
-0.0004964141888296018 
-0.4237912052256819 
-0.005797632481983481 
0.02312155289064202 
0 
0 
0 
0 
0.5242363267433775 
0.1169431399100823 
0.003848797448628913 
0.8454731228331673 
-0.00149072258314948 
0 
0.00415535461854483 
-0.06386404051788844 
0.03120589558119598 
-0.3239254422560311 
0 
0 
0.003713796381259327 
0.009223774082802902 
0.04450794147603734 
-0.2864315203331447 
-0.5043444799748366 
-0.08290911861501991 
-1.106370954998596 
0.003805936048067527 
0 
0 
0 
0.02289160560440696 
0 
0.08849929518548941 
-0.01800927644491438 
0 
-0.1187790760625709 
-0.4398472161012973 
0 
0.4380877268633417 
0.02420791277177692 
0 
0 
-0.022976116095573 
-0.0003580578895598742 
0 
0.007653853518101115 
-0.6028215932713165 
0 
0.4421404362813773 
-0.6426666683134263 
0 
-0.01984325404558992 
-0.01705421900938958 
0 
0 
0 
0.7860374818887217 
0.104980289380784 
0.2535906032357531 
-0.1302409441817743 
-0.0007938706832204616 
-0.6474640580923986 
0.07730456863314437 
0 
0.002709085558798931 
0 
-0.05724846991221107 
0.06835395576876722 
0.006060996451492241 
-0.01689606360749816 
-0.04240674354698159 
0.05314591200552667 
0.01041633616485896 
0 
-0.004962552304367856 
0.01048205595429511 
0 
0.008609701564140936 
0.07232577401753754 
0 
0 
0 
0 
0 
0 
0.02224189125450475 
0.629253257978606 
0.111074011565537 
-0.01917219347727043 
0.5317691517447142 
-0.1603032096533268 
0.04476550093904977 
0.2310543294951952 
0 
-0.01205703676631381 
0.001275260473789751 
-0.06862670158481576 
0.08805340734144657 
0.02368376375224697 
0.003098547461498721 
0 
-0.4496236580861518 
0.2753404119887201 
0.2849075385741322 
-0.07891115507442414 
0 
0 
-0.09296694196231818 
0.1546040542645207 
-0.5100101701116543 
0 
0.008482756007938524 
-0.05715805316043343 
0 
0 
0.112025603449963 
0 
0 
-0.1434669140311671 
0.03107170740870666 
0 
0.130015513080923 
0 
0 
-0.2698013161539379 
0.04953882772670311 
0.03027285175873819 
0.04833225031818732 
-0.04429773239902426 
-0.03671210573018387 
0 
-0.07550962177274426 
0.03665375633321233 
0.1080896999343144 
0.1632304786322122 
0 
0 
0 
0.005483441369182884 
-0.000984792876510482 
-0.1327808503769353 
0 
0 
0.04621170793500793 
-0.09938724067348441 
-0.1715501400653208 
0 
0.2724563116476368 
-0.06542519666031668 
-0.06100001564037574 
0 
-0.6018495459005729 
0 
0.4677308877081275 
0 
0 
-0.01063710467127559 
-0.6359479753748164 
0.01649438822515627 
-0.01419329350957088 
0.5607557687362611 
0.6499429700966273 
0.5337651925039242 
0 
0 
0 
0.1185616748290876 
-0.02107427212824431 
0.1128542056563295 
0 
-0.06035265610595556 
0 
0 
0 
0 
0 
0 
-0.1895493701240038 
0.773656858104949 
0.02622909968188583 
-0.03743401338414088 
-0.04690314673939065 
0 
0 
-0.009160875712513974 
-0.004386185445892756 
0.004793633154961008 
0.1350409618370277 
0 
-0.01149942779578297 
-0.003226454257426137 
0.5709581364200148 
0 
-0.2088176211675725 
-0.01063457048253265 
0 
0 
0.03423035215837676 
-0.1386933474732422 
-0.7546298941215497 
0 
-0.1269966918445528 
0 
-0.07894540334283452 
0.02901059183879309 
-0.01311384833765187 
0 
0.006610321336158094 
0.2841394392543897 
-0.2715663119529175 
-0.004104372236628742 
0 
0.1959048431417731 
-0.02543825738797219 
-0.2565669700234774 
0 
-0.01787486286310033 
1.351464230129056 
-0.07026149451726099 
0 
0.05038083174535601 
-0.09427264522438153 
-0.09440844335868059 
-0.06861995240710098 
0 
0.05040643430763103 
-0.1067177999922413 
0 
-0.04094271776872271 
0.01037423616831845 
0.2159078355213792 
0 
-0.01551077999184289 
-0.2880784036728168 
-0.2693165874920239 
0 
0.01819092560458688 
0.004359889140608704 
-0.01222076733000011 
0.2083455660562462 
0 
0.03813923677050497 
0.005868008745172189 
0.02563812008936503 
0.2582412714625214 
-0.541180336127123 
0.03205882981527643 
-0.02605483538525294 
-0.09368678085803633 
0.1679100261681817 
-0.03720636401683126 
0.05365343203299882 
-0.01105826193220631 
0.007019530853025877 
-0.1966146270279346 
-0.0120051609053079 
0 
-0.1774602034087996 
0 
0 
0.03806662586601554 
-0.03007185391713543 
0.4132934113764912 
-0.03441328651713963 
-0.06285111384382873 
-0.008654709917945881 
-0.2062842926532298 
0.005803336216863138 
0 
0 
0 
-0.0620725926017842 
-0.02593123644832489 
0.09861922449014957 
-0.2218378153708307 
0.01494973362491149 
-0.05524657879118509 
0 
-0.04502470881949709 
0.1049451088483138 
0 
0.1843849381325996 
-0.143219519690974 
0.2179001975548472 
-0.07853839464036 
-0.06394875934916933 
0.2788571316249774 
-0.1877370343679082 
0 
-0.05662048080485512 
1.099245839787846 
0.02549169391876977 
0 
0 
-8.632229439756601e-05 
0 
0.2575125796246741 
0 
0 
-0.03686128914858861 
-0.02446551983976009 
-0.3622428615036684 
0.02942909399245327 
-0.08043514476126307 
0.02810147192699079 
0 
-0.0003524720140757637 
0.03471262035030326 
-0.03143038995482264 
-0.003997321141046967 
-0.1355852188788881 
-0.01262315507395431 
0.05980550849531679 
0 
-0.01381439321305749 
0.04157397793223359 
0.0677792630494409 
0.1834920398070399 
-0.5088414935086601 
0 
-0.1302823598067317 
0.09151339298128608 
-0.03191411206338074 
0.02116929338120317 
0 
0.001244020590292179 
0 
0 
0.002344058381490952 
0 
-0.09180970192255385 
0 
0.01343862709376206 
0.01375325298845161 
-0.0376029812782596 
0 
-0.2068140062259557 
0.01421332165014477 
0.1489730449023101 
1.689809702410185 
0.153268610853622 
0.1055697717838267 
0 
-0.06798083929560349 
0.202019152023481 
0.3615480356044216 
0.002998408257283632 
-0.001612602064073405 
0.03917130571755113 
0 
0.05720218323649975 
0.05581752281828885 
0.002048459812680308 
-0.04535198712922387 
0 
-0.03079965969372741 
0.3478162244375657 
0 
0.0450262071082258 
0.03211852247594044 
-0.05017289967563646 
-0.001470677639679407 
0.003788392255828158 
-0.03277927681651762 
0.3045860465045112 
0 
0.02946085366254951 
0 
-0.03536766931025896 
-0.1796988799029332 
0 
-0.08181940802972947 
-0.019253556572865 
0.02963199698838705 
0.1547303257131913 
-0.07181674507378519 
-0.1430642350393844 
0.0850199098436881 
-0.03513905850216199 
-0.02765054568872396 
0 
-0.1214746688275797 
0.003400771571400734 
-0.00718704059825236 
0.6962555842321894 
0.0297072110986595 
0 
-0.005920196142965378 
0.003327661669651482 
0.0099494077924701 
0 
0 
-0.437184084044607 
-0.05789510006265317 
0.08227275540656154 
-0.01374595110912093 
0 
0.002798021455348684 
0 
0 
0 
0.04518106292626373 
0.00505971228850754 
-0.005698311597258941 
0 
-0.27475526075619 
0.00565737126936932 
0 
0 
0 
0 
-0.0001861136152050786 
0.100944126127528 
0 
0 
-0.05496511831718826 
0 
0.01255358791508467 
0.05930447896972807 
0 
0 
-0.007063405876252255 
0.06381244309386526 
0.05485569953086936 
0 
-0.03793193804878869 
0.2505915740012807 
0 
0 
0.01773095644489125 
0 
-0.1446270045147446 
0 
0 
0 
0 
0 
0.01748524895552933 
0.09466346125067993 
0 
0.04864040255799847 
-0.0201491893574135 
-0.01831432715900744 
-0.148978829200509 
-0.04960665264468488 
0 
-0.02671034195333766 
-0.03633880867832444 
0.03103474207458086 
-0.03621899789195471 
0 
-0.01377176934389814 
0 
0.06596027266771588 
0.2075633830080642 
-0.02717561931837349 
-0.1297715186803712 
-0.2376795293281936 
0 
0 
0.1740561616554197 
-0.01451808595300969 
-0.1034854448287287 
-0.3815656032898764 
0.2264025634635304 
-0.01640265685895703 
0.8339410810182534 
0 
0 
0.09216822017256701 
0.1328361238668491 
-0.01092540184273664 
0.003846554267537272 
-0.03130972137046913 
-0.3992690737675098 
-0.001622491627178755 
0.1929024261779894 
0 
-0.149945057523974 
0 
-0.0536893649873376 
-0.01223677870972117 
0 
0 
0.08510562210571818 
0.003830563599505632 
0 
0.05386591139311214 
0 
0.08053161674461654 
-0.01024125605743859 
0.07884505713224987 
0.0493382949274822 
0.01542531620475624 
0.115867858608414 
-0.07565343944878657 
0 
-0.07456426238070471 
-0.02353479149118514 
-1.310580198102389 
0.005260225552484708 
-0.002183006633644135 
-0.008095147170055937 
-0.003488930155707566 
0 
6.467027914268137e-05 
0.0224835363964053 
0.6212309284667338 
0 
0 
-0.5757587394675888 
-0.05075308717149016 
0 
0.05645174480762684 
0 
-0.02377054272688657 
0 
0.7655394198817855 
-0.0875957073865625 
0 
-0.02068129543311923 
0 
0.2334480552451485 
0.03756400555819089 
0.2368191793032103 
0 
0.002841398609607901 
0.02373614339929259 
-0.009227467432169578 
0 
0.06452570422651602 
-0.02924028039452625 
-0.1390118105186464 
-0.008477885714185774 
0 
-0.3871249313197148 
0 
-0.02112840867205441 
0.02889141767015643 
0.1960337735362038 
-0.04306969157939659 
-0.002302806609406259 
0 
-0.09279635917363264 
0 
0.01469406604026621 
0 
0.01402314391237729 
-0.1882984919625621 
0.04351577270738254 
-0.004525375805245034 
0.2664007453662701 
-0.1411728865110025 
0.004006280655002976 
0.004022864197921918 
0.7005723321206885 
-0.03636598411009916 
-0.03095472100458126 
0.1534472293609233 
-0.1714225787512729 
0.009496758508869737 
0 
0 
0 
0.1745442209489395 
0.1265275148951509 
0.06777282894665272 
-0.04022338795324652 
0.1422088181362354 
0 
-0.2305513386272794 
-0.2630944169771391 
0 
-0.01458245582582586 
0 
0.2937909215865059 
-0.2138140098554593 
0 
-0.004930790089517989 
-0.1548331558585185 
0.0871128496654963 
0.961250193185654 
0 
-0.006092111793863406 
-0.01628323690541322 
0 
-0.1024629190256606 
0.03196963112358601 
0 
0 
0.01098469433009728 
0.05209954364544116 
-0.01658671791497689 
-0.0400185157613771 
0.04516324710753208 
0 
0 
0 
-0.02291770739358017 
0 
0 
-0.02473396291625005 
0.8964444017829035 
0 
0 
-0.1335731528094522 
0 
0 
-0.03860489128322148 
-0.001645800330571098 
0.08900245654347648 
0.06809253110138809 
-0.003871581862557701 
0 
-0.02182090431667382 
0 
0.003824513112018145 
0.01436278338285433 
0.05860646105359385 
0 
0.02037257996790285 
0.008370066473395795 
-0.0959562597747077 
0.0002352428859413117 
0.005277679919521935 
0.03083424213427303 
0 
0 
-0.008955560725310925 
-0.00303123420016253 
-0.0111917376392236 
0.02830266377118682 
-1.237764914931886 
1.00602347077256 
0 
0.0743733875544156 
-0.3265361743034867 
0.2364692959183917 
-0.03192638597836074 
0 
0 
-0.06501519647520479 
0.01041900464027765 
0.03924760709873479 
0.003860042931790125 
1.168091702911917 
0 
0 
-0.08102007222956735 
-0.03533082965456807 
0.01593740497017695 
0.01145622350997718 
0 
0.05548961913713009 
-0.0808356924901948 
0.007980509710154939 
0.2517062556753351 
0 
0 
-0.006959855681688064 
0.002439766313354187 
0.08757417054346042 
0 
-0.1562769764997597 
0.3003048550195453 
-0.002100544576997996 
0 
0.9077227527337509 
-0.193496979323894 
0 
0.1070291848535595 
-0.004450926168636737 
0.3532046428005129 
-0.001903485540320953 
-0.01404282621287339 
0 
0 
0.1254721375512138 
-0.4232286046654708 
0.0101029297405443 
-0.1077881920166204 
0 
-0.1062469650178479 
0 
-0.01709727542337056 
0.2497440563895462 
0.3511927852199814 
-0.004604347452858124 
-0.6862542512238476 
-0.1237270261447029 
0 
0.05975681192478079 
-0.007824590107991775 
0 
-0.1257011462440236 
0.3352609728712136 
0 
0 
-0.06890718981626701 
-0.02333799836145391 
0 
-0.02723480322480896 
-0.03146212619184374 
-0.04762695168382066 
-0.05743364268517907 
0 
-0.7400916001105927 
-0.08071745170346574 
0.3481236292151202 
-0.03068660605539655 
0 
0.01654812134734183 
-0.05234513413208554 
0.01375325298845161 
0.03394733110663594 
-0.05437274531081684 
0.007896349548015737 
0.001242274485869979 
-0.1533768978580874 
0.06450554632005963 
0.01999781080599441 
-0.7457801563373329 
-0.06942516969878199 
0.02045942777625016 
0 
-0.0001539878637339604 
0 
-0.5219133769175861 
0.07168942677269391 
0.1222366982306906 
0.001269763725238435 
0.03818288630129736 
0.05381976656524115 
-0.03365095885748415 
-0.4895690757598452 
-0.207722482781488 
-0.009255830552854111 
0.005790411495556532 
-0.008417642135703195 
-0.09173038069664347 
0.5385820810700845 
-0.1427867803808529 
0.01156714717460995 
0 
-0.2984828057607068 
-0.06981091933927536 
-0.0108485965314709 
0.03826057960958089 
0 
-0.004959397454887899 
0.04945732958541683 
0 
0 
0.01063720255800408 
0.5446225170070925 
-0.09780270303897602 
-0.02917749574374538 
0.2913360713849314 
0 
0 
0 
0 
0 
0 
-0.04200112083863554 
-0.008202715413518434 
-0.2586466328860945 
0.1354361343921403 
0.1505777487686665 
0 
-0.0292765847600232 
-0.1056304067582264 
-0.1127734066832683 
0 
0.2274118413253085 
0 
-0.01195404506507154 
-0.004942247625941616 
-0.005065766230876509 
0.06161544865927093 
0.007127550318481347 
0.01270377574237418 
0.008483402183447196 
0 
-0.5914570712682146 
0 
-0.06739337313629348 
0.007604052021295908 
0.04023220712047957 
0 
0 
0.01389303737936414 
-0.04327906560739572 
1.340002348268283 
-0.01681920944420331 
0.01553311374639911 
0.01214044728643453 
-0.296794042538137 
0 
0 
0.07521965674503091 
0.04736477846557786 
-0.004870255148176434 
-0.007766235039700352 
0 
0 
0.2401780610185901 
0.008148771114342257 
0.1935942969733583 
0.9436908583475538 
0 
0 
0.0004957115699518004 
-0.03772803604201735 
-0.0005486750082085365 
-0.08609180470123859 
0 
0.3277732295211786 
0 
0 
0.1124748824717119 
-0.01844324166638675 
-0.01569785168789795 
0.1813950738281107 
-0.008496106991759159 
0.115365687087966 
0.003020388655207777 
0.08331421657397201 
-1.235895574309753 
0 
0.1419335254562607 
-0.4900795044790945 
0 
0 
0.8222559305314106 
-0.07147454935431534 
-0.04444835488145824 
-0.008936531396688768 
-0.0922311337327603 
-0.01460094356383175 
-0.3151221058995178 
-0.1473025457475867 
0.05921782150572755 
0.06130277290952275 
0 
-0.08717178916949592 
0.04661835433320635 
0 
-0.02413371981484699 
0 
-0.277088904185454 
0 
-0.0172108455991534 
-0.3359725660579002 
0.06462929785402947 
0 
-0.128935507362564 
0 
-0.04509856839703773 
-0.2849723704104029 
-0.01093458580944052 
0.4885205117270336 
0.003093998773605867 
0.004797007491271191 
0.02429385000961139 
-0.1966552673030624 
0.01334503030036156 
0.1783701436656999 
-0.01979439558154749 
0.02376294186619468 
0.07385344212340206 
0 
0.4738959714646448 
0.04666540261871539 
0.006458880445758068 
0 
0.001300745027547733 
-0.004320389171703563 
-0.04919313703042659 
0.1038673399969311 
0.06349333731929845 
0.07192887668257068 
0 
0 
0 
0 
0.009152435963902094 
0 
-0.2704266074053752 
0.02506312939116578 
-0.02743124602953845 
0 
0 
-0.01217034990266387 
0.2470334773777123 
0.009348610825426498 
-0.2102442803695681 
0.003367230096438675 
-0.04797383703730717 
0 
0.01238216154724843 
0.2139574144766807 
0 
0.1076330196168554 
-0.05006486785316264 
0.01778990526348951 
0.06415274230212877 
0.06015423700573012 
0.08492669199400983 
-0.008066607340354514 
-0.01309638898412377 
0.00108586887574211 
-0.1263096148026993 
-0.02708579842244439 
0 
0 
-0.00826333258729036 
0 
0 
0 
0 
0 
0.4254281407028133 
0 
-0.186407673578292 
0 
0 
0.0215490771960628 
0 
0 
0.003636666036562369 
0 
0 
0 
0 
-0.05175422790117063 
0.003224162503379954 
-0.04366978480583949 
0 
0.2403989543315021 
-0.007138136889506694 
0.1999834729612544 
-0.008827903286888501 
0 
-0.03169323141989167 
0.03311137883112512 
0 
0.1048382864999649 
0.003262984907351447 
-0.03778394337858577 
-0.1580947737977373 
0.01688598596064941 
-0.02740040762463164 
0 
0.02663434909584974 
-0.1107602970627525 
-0.08432315794471898 
0 
0.0009794365230981162 
0 
0.0154891361204227 
0.03453354770976703 
-0.07241890368611675 
-0.04446075794118085 
-0.0263995345512767 
0.003276959451143256 
0.1403928003905194 
0.006326209743434359 
0 
0 
0.04767067227830239 
0 
0 
0 
-0.03983799427410981 
0 
0 
0.03369303553203552 
1.160617637541339 
0 
0.07212232727657161 
0.04715865143846686 
0 
-0.04856373497546709 
0 
0.01030678914358714 
0 
0 
0.03176791866656492 
-0.7400305937962665 
0.008599282378240846 
0 
0.05448231956409852 
0.1944142146181861 
0.01284561950856172 
-0.02540377797340328 
0.1728538010223474 
-0.1331185095307821 
0 
-0.0005958390806313327 
0.01980863369063094 
-0.006327714979395421 
0.1344499464886855 
0 
0 
0 
0.4223739831551209 
0 
-0.08621256252473358 
0.04585627643534266 
0.1218043195725855 
-0.0294101515406964 
0.02567222462297979 
-0.1813863047883377 
0.003812696695846892 
-0.01271295323325829 
0 
-0.05662207998405766 
0.04733698323928849 
0.01142759136463601 
0.002385351308718136 
0.1268596376683178 
0.008476725327141268 
0 
0 
0.03320925862425046 
0 
0 
0.01186740538713939 
0.06701887105269083 
-0.03606345325252243 
0.04762884978368799 
0 
0.01015192389606331 
0.1012790530161367 
0 
0 
-0.02952680020100729 
-0.01795602462728677 
-0.09382714041402443 
0.006970456286593798 
-0.08261414915968117 
0.01013516372164567 
0.0009645675087344484 
-0.005538757289855632 
0 
0.42516198222598 
0.01093909425425719 
0 
0.05119190490602345 
0.07293328442840145 
-0.004401836556768414 
0 
0 
-0.048433743404752 
0 
0.01090548948334812 
-0.01359976822897523 
-0.04148836006759254 
-0.2811459972927668 
-0.5007740150840633 
0 
0.3028042131812303 
0 
0.09225740246937753 
-0.03450325938684066 
-0.1025609149500721 
-0.4705720343467419 
0 
-0.2442758625197478 
-0.06198949310981463 
0 
-0.08585075312747424 
-0.720432471671776 
-0.0119683421376414 
0.0013067120673141 
-0.09789534487031237 
0 
-0.01060423697017076 
0 
0.01100256550932282 
0.03742108330544429 
-0.07983304844057112 
-0.7593746007406277 
0.02319013441854842 
-0.002196597060365834 
0 
0.01549259796879244 
-0.02183951184887226 
0.1249602308934058 
0 
-0.08856470037038493 
1.602520215582784 
0 
-0.6335274866098913 
-0.002587274323784854 
0.141270865273556 
0 
0.03673292049915854 
-0.1797076834332824 
-0.01546428503919316 
0.002025114160522052 
0.1878488881249416 
0.009035838221734059 
0 
-0.04376851389313313 
0.1166641607365907 
-0.8983034243540037 
0.0009862163488607301 
0.0926971573897187 
0.04227221412613975 
-0.01595912770507958 
-0.1935350548727419 
-0.006146591740448104 
-0.4237207845129078 
-0.08580893759582126 
-0.004426102945894663 
-0.009559419761341484 
0.06715624620333953 
-0.02719796388163954 
-0.003444335340400516 
0 
0.04244368538982877 
0.01661383631618305 
0 
-0.2575593590792729 
0.02931928853794713 
0.5076256716982462 
-0.009588776034254893 
0 
0.5076256716982462 
0 
0.1230479105286099 
0.1391919621709063 
0.3590205924326493 
0 
0 
-0.001767571807736165 
0 
0 
0.00941074277794551 
0 
0.01361114570413627 
-0.04175633632909665 
-0.05041762471977024 
0 
0.006357745733992673 
0.06477978262359732 
0 
0.4885550926320917 
0 
0.04949536444681168 
-0.00475846302551098 
-0.006412782019782433 
0.3149987922850012 
0.0002082995872971158 
0.03857917973494562 
-0.01441617834127647 
0.07813449136131552 
-0.03829667747821146 
-0.02129622355463529 
-0.002291211738287214 
-0.07732547890597974 
0 
-0.2809542195713596 
-0.2503217043812412 
-0.1012006860471874 
-0.02791286129411981 
-0.01674707912335349 
0 
0.036396299375424 
0 
0 
-0.0008668425389312928 
-0.1296019586139804 
0 
-0.4139504602328456 
0.03742719237075608 
0 
0.02491552125977386 
0.02136561054682606 
0.0325826059435388 
0 
0.001603931605799444 
0 
0.0142610717054844 
-0.08874723751576355 
0 
-0.01851765175584539 
0 
0.1840767546405305 
0.1559286453589846 
0.009241422451073613 
0 
-0.00779155045104665 
-0.01170773146261109 
0.02382701025820348 
-0.05995348981337516 
0 
0.04014839566621214 
0 
0 
0.04766431060436773 
0 
-0.002752111322487815 
-0.03157854648504025 
0.01549723715248305 
0.01331292579739144 
-0.03213257202860341 
0.08588417829140374 
0 
0 
0 
0.3017568957057478 
0 
-0.1377970231112687 
0.2987901374557079 
0 
0.07638370237901129 
0 
-0.05116141190589182 
-0.2340619625641855 
0.007528335903832929 
-0.007802902043205591 
-0.008164949825778887 
0 
-0.004214104374519537 
-0.04498984135424827 
-0.01628425463939774 
0.005721639312861269 
0.95763438945486 
0 
0 
0.2066276520060396 
-0.008627005990282143 
0.1753362830233514 
0.005906302533283531 
-0.1386381496043196 
-0.01644948220997795 
-0.05057540085166086 
-0.2971190383323958 
0.06384976333346457 
0.01212065957923352 
0.02277220093441313 
-0.2596271247676807 
-0.05113704220030674 
-0.02388153778924716 
0 
-0.0299086063832111 
-0.01752087248223776 
-0.007625814757437375 
0 
-0.1097324218727204 
-0.02247599912401318 
-0.06029356038976555 
-0.03154911034144892 
-0.311349882269669 
0 
0 
0 
0 
0.6704764280498396 
0.09694915415129035 
0.026353979919627 
0.001541161152660857 
0 
0.05420945524469059 
0 
0 
0 
0 
-0.002840484681715393 
0 
0.01504179141680576 
0 
0 
0.1733139642928789 
0 
0 
-0.02550714251876763 
-0.04703677030385685 
-0.01347668167112857 
-0.3356974829096777 
-0.002245411709296386 
0.2762214774645826 
-0.04444663862148934 
-0.124630934008317 
0 
-0.007604360510248269 
-0.03526235255264573 
0 
0.3453723923346401 
0.2335468087593781 
0.234382654126909 
-0.00752569111336733 
0 
-0.04490406957523635 
0.0004536858461099184 
0 
-0.001152823009967731 
-0.072959266154731 
-0.09244029429885665 
0.0934386327349304 
0 
1.470226186987414 
0.002321157868683929 
0.3044487088141202 
0.2318076696743815 
0 
0.126474069339606 
0 
0 
0.006860442443269019 
0.01305520908588191 
0.01902253999195196 
-0.02642658244947959 
-0.7231924455365649 
0.08852109808142486 
-0.08569765566483799 
0.1361599782442888 
0.02272909862556965 
0 
-0.05777324220151454 
-0.01249292389298628 
0 
0.0004446043228201802 
0 
0 
0.005022205614225499 
0.2357392481019172 
0.04583353139099683 
0 
0.01806904541980153 
-0.05357994603439733 
0 
0.01417348035206011 
0 
-0.003008278235080388 
0 
0.002733233446986857 
0.1198978583253974 
0 
-0.01585889611450503 
-0.1703497058651993 
-0.03605251027181419 
0 
0.01665297218422399 
-0.03082038938485789 
-0.01764657663998095 
0 
0 
0.004699106163258652 
-0.641793333514424 
0 
-0.09494938712535372 
-0.3936813713140616 
0.02472963313460001 
0 
0.04739137746901337 
0.07900524139235032 
0.4538949906252283 
-0.009127261186775076 
0 
0 
0 
0.2712049107777343 
0.09283614590171967 
0 
0.002201219151256943 
0.03903627520839643 
-1.049878038278042 
0 
0 
0.009942568835398293 
0 
-0.005731811886178777 
-0.05254088521103047 
0 
0 
0 
-0.3110288134099876 
-0.009200146814579754 
0 
-0.02854422949490955 
0.0228291614591872 
0 
0 
0 
-0.0369196139853149 
0.1364470747233374 
-0.5317052631563363 
0.01576794311282854 
-0.003136836710175896 
0 
0.01463725441270179 
0 
0 
1.669934828855227 
0.06099355997640048 
-0.585198950209661 
-0.008868827779853579 
0.005995890623286182 
0.01137971979504034 
-0.1020492613803659 
0 
-0.2986089307881219 
-0.02510684660428926 
0.09762175493568749 
0.06540957424644496 
0.1494357926919331 
-0.004417905079421645 
0.008099319756729034 
0.0489039812561709 
0 
0 
0 
0 
0 
0 
0.01413991494351992 
0 
0.04437918879470088 
-0.01620779106132647 
0.01383280787321134 
-0.081799692270364 
0.03251158677239812 
-0.004350685831882082 
0 
-0.05105450653446911 
0 
0 
-0.04167356664282122 
0 
-0.001752415796071552 
0.0005075283890165596 
-0.05278159958900301 
0.0009098629401544065 
0.0150189356499174 
0 
0.002891259866441809 
-0.006023499306753933 
0.02769518251234885 
-1.259467221887175 
0.03174398957521747 
0 
0.03160631960697679 
0.1949892710421115 
0 
0 
0.01179750392878688 
0 
0.06343035785079143 
-0.08226438688477769 
-0.01699034875776834 
-0.1359717526382621 
0 
0.04192258692105032 
0.06779782061995712 
1.01034841184495 
-0.5439537144589597 
-0.00572267439569266 
0.002237231227058415 
0.1185074481692236 
-0.04719439002531387 
0 
0 
-0.07771147099696434 
0.005794735830565245 
0 
-0.04899881795504629 
0 
-0.2228274378064441 
0 
0.001185595963678107 
0 
0 
0 
0.01060725222625535 
0 
-0.794624745638796 
0.1814295619481618 
0.03632869071472829 
0.1990181211340943 
0 
0 
0 
0.5782622073273499 
0.05687398266972168 
0 
-0.009244402579785939 
-0.0748549683757584 
0.2598797192318246 
-0.08578367485251163 
0.06984237456067746 
0.6131079822454587 
-0.08357371706821404 
0.06230278225805414 
0.02144211532678539 
0.09552754869551025 
0.01054498381247808 
-0.04031315742406848 
0.007026727796953925 
0 
-0.04185682896906609 
-0.004524511827322965 
0 
-0.04134385092523134 
0.04653544640725015 
0.001309336286672319 
-0.07077976311437378 
0.02151065110246797 
0 
-0.02963335519051724 
0.04682612015424274 
0.01544987329877569 
0.0496407677602857 
-0.09784053034940039 
0.004521390050181031 
0 
0.344338292005857 
-0.004642191969642727 
0.003142854039566656 
0 
0.08389737319817045 
0.3529178874149625 
0.2429042572257337 
-0.1664284600937619 
0 
0.05202375797808968 
0.01545903267590452 
0.168644938214538 
0 
0.01136429404614373 
0 
0 
0.3185462970296536 
0.03027450561122148 
-0.07081481313458327 
0 
-0.09662266310156398 
-0.01950012148345566 
-0.05809339848694876 
-0.2012436745779189 
0.002684013101724757 
0 
0.02605866897429726 
0 
0.002803742051750636 
0.1869211773043605 
0.01916178163388013 
0.1321442854389215 
-0.009763377593103072 
0.007905977245921287 
0 
-0.05284716725094737 
-0.03727935141327096 
-0.2844380870221109 
-0.1191182845243845 
0.005209133115074998 
0.5177308921284189 
-0.6558052540086521 
-0.006486216535068326 
0.001634716570827068 
-0.02231283191360771 
-0.02395361067478501 
-0.003278946605370291 
0.01473849075525886 
0.209840930762052 
0 
-0.004596696110268527 
0 
0 
0 
0 
0 
0.08087516204081625 
0.1942761894352722 
0 
0.01008265782922526 
0 
0.07955418733885375 
0.2236322994177223 
0.03762846489250165 
0 
0 
-0.2607995097896992 
0.6136232066031645 
0.04881677735248993 
-0.05154933150647169 
0 
0.01215575038933926 
0 
0.02769169524034948 
0 
0 
0.613658873531584 
-0.01740716544359646 
0 
-0.001948761361242015 
0 
0 
0.00121463135229994 
0.1925008933359974 
0.006492732690677528 
0.02184491943087696 
0.01338799416353433 
0.08420118926642123 
0.06434390550131422 
-0.008277373884618505 
0 
0 
-0.004006110559081021 
0.2307436877486142 
0 
-0.02663370141370276 
0.004739336556994487 
-0.04067128840105141 
0.1189669692510783 
-0.01526213873064109 
-0.004218403434773576 
0.01251599399575942 
0 
0 
-0.007317171430266052 
0.09394426637000676 
-0.06435732180930284 
0 
0.02839581819581612 
-0.01845900516877637 
0 
0.3778843868665857 
-0.002990652867985995 
0 
0 
-0.1986185331052487 
0.1619289378325391 
-0.04799914606253679 
0 
0.01120740851428036 
-0.009184697608621346 
-0.04648259470791875 
-0.002898506712673209 
0 
0.08187774713548723 
0.06590524814248849 
0 
-0.0786167701209009 
0.1150018678766312 
0 
-0.01077092855810455 
-0.01851894521564421 
-0.434973245875999 
0.003030666035742862 
0.006357226291263451 
0 
0.01590359606769879 
0 
0.1566512364498619 
0.1002702207432207 
-0.04955226040114702 
-0.02533652450532482 
0 
0.07975092373901724 
0 
0 
0.001771346297106517 
-0.06602356234567615 
0.814894802207491 
0 
-0.02119098780790829 
0.335397641761605 
0.2222098592964335 
-0.0221710458871326 
-0.02383925881242993 
0 
-0.04109973417574655 
0.0747285865688451 
0.03110061810154355 
0 
-0.07461973532584973 
0 
0 
0 
-0.01710464010772662 
0 
0.007091329106664684 
-0.2302323170636202 
0 
-0.03106527844102428 
0.006000987934371023 
0.319097770774269 
-4.834088194048467e-05 
-0.02483875101259489 
0 
0 
0 
0 
0 
0 
0.04410769476233783 
6.976697534469972e-06 
0 
-0.1424260785661147 
0 
0.08099419597118877 
0 
-0.002530041401660899 
0 
-0.009762059804238218 
-0.2541985920204144 
0.06990029084657209 
0 
1.415177635966952 
0 
0 
0.003128113317774726 
-0.004173586528350804 
-0.03722565017909967 
0 
0 
0.1444987308216513 
0 
0.006429697479450889 
-0.0008462296707926614 
0.01571745389517255 
0.00475326007009697 
0.01539022787407951 
-0.02120538271932854 
0 
0.02251264322353413 
-0.07801734140959077 
-0.04026900948836903 
-0.06092630869797552 
-0.003300499556165785 
0 
0 
0.0517292374329851 
0 
0.01468595529955466 
0 
0.01645217040056722 
-0.003496573848930682 
0 
-0.01024461525445561 
-0.01120576778232474 
0.02704384729969141 
0.005064213490244631 
0.05207842833488929 
0 
-0.003204036574859856 
0 
0 
-0.4840971674180173 
0 
0.005848213781880155 
0.1078644474442627 
0.03199423173773746 
0 
-0.178045112775188 
0 
0 
-0.006550868234563148 
-0.01799697963047235 
0 
0 
-0.1495968297454942 
0.006649161816030614 
-0.04673014198739597 
0 
0 
0 
-0.03861438084808971 
0 
0.1210689897136062 
0 
0 
-0.04688919053054684 
0.03113723150182915 
-0.06932310188480453 
0 
0 
-0.4633055415835338 
0 
-0.004286294586350458 
0 
0.02548956199688668 
0 
0 
0.05734055874650816 
0.2177033717904223 
0 
0.1578203340461802 
0.6396960318645158 
0 
-0.01538034264436141 
-0.06019585513369495 
-0.09464393549077803 
0.02394611509953896 
0.01687703235355839 
-0.07265375128785728 
-0.01388053562965952 
0.02821400472465382 
0 
0.01079991961309444 
0.02272060425895213 
0 
0.004352239057245678 
0.006894763368223516 
0 
0.2611905790253105 
0.05198029714654629 
0 
0.2464464130317215 
0.1258786323806285 
-0.006447652797757863 
0.02254156742221855 
0.4343468836369173 
0.05080602241845786 
-0.004619014731808786 
0 
0 
0.02153190805235188 
0 
0.04038654131357695 
-0.0004393371933472719 
0.01984650630562504 
-0.7025064437938343 
0.05986404392175506 
0 
0.05312125590861508 
0.139573462150994 
0 
0.06608866280886377 
0.07277283639773352 
0 
0.5525511706148647 
0 
0.04474542842033973 
0 
0 
0.0262152679264588 
0.02672003622076379 
0 
0.296789529341401 
0 
-0.1220681083290099 
0 
0 
0 
0.09200323426238997 
0.01624606346963474 
0.14700844598377 
0.01754997482358018 
0 
0 
0 
0.07546153559423981 
-0.04414760903278705 
-0.3999256590766611 
0 
0.0003824228441056285 
0.003633716045494188 
0 
-0.1355126213141995 
0 
0.07298106326130681 
0.006760954782491174 
0.003460094224158202 
0 
-0.218103676824952 
-0.008967292724029262 
0.02420081520195775 
0 
-0.02024195309521495 
-0.139887843471396 
0 
0.1446019580486656 
0 
1.312366806886853 
0.2331117009533867 
-0.6372927241285111 
-0.02507529686680262 
-0.02695540438880806 
0 
-0.3120365135080555 
-0.1162950370789725 
-0.2980833307539005 
0.1932680720019027 
-0.008675540838039326 
0.01305119559769918 
0.1371968420151835 
0 
0.2728677262745741 
0.00251754222520789 
0 
0 
0 
0 
-0.06253281695149558 
0 
0.01419391489314925 
-0.06945390059873176 
0.009873753959748568 
0.1083786518421497 
0 
0.2770690050881394 
0.1895318573185208 
0 
-0.002256966582569127 
0.0387857420628451 
0.04797152113879689 
-0.07879105986351294 
0.007455781866432979 
0.01097773884765037 
0.1325261691006639 
0.3099017213149534 
0.08896196083759833 
-0.01322282137554073 
0 
0 
-0.003841754745320503 
0.0490868329554144 
0.1364779246105625 
0.1007613721396952 
0 
0 
0.02904663870965664 
0 
-0.3989939813656047 
0.0948615218323625 
-0.01399023277578956 
0 
0 
0.0056160678816286 
0.2451577372938926 
-0.461228328488859 
0 
0 
0 
0.9244534437232741 
0 
0.1347182563271083 
-0.01044143226636097 
0.01174395241110629 
0 
0 
0 
0.01379242061705305 
-0.3423773977675766 
0 
0 
-0.1978301419674061 
-0.01681681311843594 
0 
-0.00762574592224523 
0.01157405050243938 
0.006225516456221773 
-0.006762529457884272 
-0.005220284349970938 
0 
0.03013778918954377 
0 
-0.08714791232781613 
-0.006490167611958583 
0.02777903507239282 
0.03168333225871098 
0.1180775683912776 
-0.04915478178918146 
-0.09043613469907341 
-0.04779371416471818 
-0.00729965802866766 
0.06976659112122742 
-0.01492173676454587 
0.006397323432534787 
0.003187078385352841 
0 
-0.04451880319355038 
-0.2175540178097123 
-0.03259351357885447 
-0.09014547381058131 
0.0004150400258578652 
0 
0.003485551485040535 
0 
0 
0.1742863428484608 
0.02705005837056341 
0.05836668750278362 
0 
0 
0.2397950710173865 
0 
0 
0.194926960684927 
-0.1740764920102724 
