solver_type L2R_L2LOSS_SVC_DUAL
nr_class 2
label 1 -1
nr_feature 5000
bias -1
w
0.5603662964250155 
0.5462021617567142 
0.8896371148198942 
0.5145750098924725 
0.1934282709658847 
-0.7501968737684194 
-0.1078164222587732 
-0.08214199304220034 
0.1192833167307612 
0.2676286105315281 
0.0451302986283265 
-0.7494222734282924 
0.3840287451105384 
0.4884109473646315 
-0.08163022642666726 
-0.5389986135276152 
0.3720951927957094 
0.659980722486716 
-0.01923629488160318 
-0.8035833144519102 
0.7807457510976599 
0.1890731148274682 
-0.02834867761876795 
-2.84421665419945 
0.3097942332989381 
0.07340471313204355 
-0.5161109817232913 
-0.1253065533158719 
-0.6339892658994309 
0.213268185721684 
-0.5008685303552516 
0.136793225826605 
-0.215927886823206 
0.08889053920463923 
-0.4028186055703468 
-0.2579582254527061 
0.5003366330840837 
0.2469398624233168 
0.06607696193243437 
-0.1767723319335238 
0 
-0.03957300369662846 
0.4742089390578344 
0.1327771966069969 
-0.7830334578430823 
0.2955576411648193 
-0.4516081848583757 
-1.782793488716319 
-0.4646036978613047 
-0.9513198880840141 
-0.7774772858345718 
-0.1950664894561516 
-0.1685869675463387 
0.4963898371220358 
0.09265163618843329 
0.4817953263582249 
0.1295074724845791 
-0.8295013830084133 
0.03877614135974757 
-0.4072722299523048 
-0.04845469497859742 
0.605604662234964 
0.9109651984673369 
0.02253028172626996 
-0.3418563417351289 
-0.02009356594282992 
-0.2275611590969616 
0.04444513304422477 
-1.048005538600695 
-0.05517352891576342 
0.204356331844061 
0.528252720449221 
0.764503941496381 
0.2544402894421317 
-1.421506161761348 
-0.06477169827010146 
-0.2868890155099375 
-0.2775723769078106 
-0.4881965416273083 
0.0163195348880334 
-0.3308646432463274 
-0.01233798470311009 
0.1406341556916341 
-0.524195441991553 
-0.3055771970889389 
0.05959005187078893 
0.026373568466234 
0.3202578543855732 
-0.8197889850307313 
0.3606407706207669 
0.4452041788343888 
-0.1563959283064975 
-0.03388499601794329 
0.2622837494844676 
-0.7266223638238553 
0.1276137734394423 
-0.09971022077915238 
-1.053589495936217 
-0.7047683726198782 
-0.2718579223442931 
-0.0137638955928909 
-0.002005105114733214 
-0.2804537093017721 
-0.1308653968536339 
-0.1004001305176086 
-0.1599800844224871 
0.4512100647458728 
0.008194141946888158 
-3.252606517456513e-19 
-0.111366963564648 
0.2952216436852094 
-0.1395020805511512 
0.1918510978624707 
0.08504697836599165 
0.2287599525964213 
-0.8995771653706296 
-0.1516406818105478 
-0.2374770425739641 
-0.2410358496719291 
0.3929033695750376 
-0.7114511098821347 
-0.3567702205567678 
0.05194195692569495 
0.2741246432714484 
-0.1343024572625668 
-1.108770529949366 
0.1432774200656086 
-0.1219227273930195 
-0.1030870355155082 
-0.07041237666386145 
0.0391829863120204 
-0.2840108630218907 
-0.8614938996643681 
-0.2888413519021843 
-0.8112900688154685 
-0.7910893258953567 
-0.06010881532802572 
0.09729198581192403 
0.05657520582321425 
-0.3737501637477887 
-0.01372346276147263 
-0.8291115803747801 
0.3469969608739017 
-0.1345102568393494 
-0.0236084916722549 
-0.1182302746210175 
-0.006102518018580695 
-0.0284273393653611 
-0.247458787965207 
-0.03307369972560987 
0.1462824366103487 
0.08054196963430225 
-1.308031246945786 
-0.001110559020706683 
-0.01380159885240104 
-0.1194832965003167 
0.0400764489605502 
0.9919658662106409 
0.468245213945612 
0 
-0.6758100706681424 
-1.352770530725949 
-0.5101400215225288 
0.3227240209720057 
-0.6917679815300263 
-0.146627053324249 
0.1426216607440942 
0 
-0.2797567055396535 
0.1039609724326113 
0.142024656908527 
-0.08481801613157895 
-0.00392513592872154 
0.9028481479589862 
-1.266632963044511 
-0.2864448612688008 
1.620520719769901 
0.7123444048560944 
2.236369541245433 
-0.2562530334678432 
-0.03393093596098783 
0.1158455532522085 
0.1678528482247565 
0.06416524658783321 
0.02194764721340264 
-0.01043132495914964 
-0.4041220220569118 
-0.1705413430775223 
-3.079160057812215 
-0.0631031759329609 
-0.6464802638144873 
0.342995969718082 
-0.5120681503596199 
0.09907124786063956 
-0.1787070521559788 
-0.4095113999239205 
-0.01808116854267216 
0.2233896319470379 
-0.3842637889295004 
-0.02474939479253668 
-0.185746468944454 
-0.3039522418610993 
-0.1233398492821925 
0.2460043458816197 
0.1336978398513888 
0.3683626861141621 
0.01724402254172914 
-0.07124995706361963 
-0.02407991547007014 
-0.01966235518391002 
0.05192463524660113 
-0.22208838307697 
-0.1169359577648435 
-0.02920151781641154 
0.1441885878917169 
-0.01322124156380623 
0.3719306422262793 
-0.0212362608371624 
0.1875778578388315 
0.001510606357655571 
-0.9665546473568091 
-0.5719167912446865 
0.4313879625135644 
0.05511574490653924 
0 
0.1668260347394978 
0.411929198998311 
-0.4097975320178483 
-0.3547141728675259 
0.0166878302323683 
-0.02472478688249937 
0.5168378134691155 
-0.002727815290709051 
-0.1205324961319143 
-0.1876862202342988 
-0.01401102068083996 
0.4371511439071372 
0.4179405550598121 
-0.1738742041452142 
-0.01239476235743485 
0.02969035126558395 
0.451791736223064 
-0.2079157971854732 
-0.6609463969541151 
0.2731909984756284 
0.05300618536445462 
0.2361204485235016 
-0.1464014595707962 
0.8688712589211245 
-0.3158748419162804 
-0.287279502169981 
-0.07806719907231717 
0.3000118903005605 
-0.7350120732522349 
-0.09007136196918103 
2.096894210513616 
0.1257947855389693 
0.161984466652531 
-0.4175923128774333 
0.547482193469081 
-0.009482050138752487 
0.4531938451372504 
-0.1567909662068673 
0.318672381389783 
0.1580438912379465 
-0.04357753746233534 
0.1274205980057217 
0.6480308013910218 
0.06816036254886237 
-0.0672625976498193 
-0.5532913718374084 
-0.08002966764536504 
-0.1607264191549071 
-0.03162390358114478 
0.06159220055816896 
-0.0596886634141888 
-0.0496104567774577 
-0.5284456625176105 
-0.08856138532840442 
-0.2655829013988429 
-0.2553594429131738 
-0.01722960125649138 
-0.03205415797880517 
-0.1306319675474354 
-0.07268632259797526 
0.2592217684715549 
-1.095511891912365 
-0.3680867066612336 
-0.06196758413431938 
0.0117477848325266 
-0.06532818555900237 
0.04292803932710604 
1.026432234219391 
0.1568797842416897 
0.08602748323207063 
0.2056450283616511 
0.001678579794440933 
-0.0515649064741996 
0.05247403586065803 
0.3399722599144034 
-0.003729359960363669 
-0.5237565044182551 
-0.2705690286466194 
0.5024301597170086 
0.1272878091266598 
-0.09287892300889601 
-0.01015163075470176 
0.5604966948528524 
-0.3208398877864166 
-0.5248853703885322 
0 
0.05648707703199191 
0.2458273550378258 
-0.549820517153942 
-0.08920566754311669 
0.3146082801273303 
-0.1311010294986565 
-0.1534004447338915 
1.210766840108148 
-0.1282320056563414 
-0.02317631611956333 
0.1108678266213488 
-0.0802329191885861 
0.00457932535597551 
0.01013932882849037 
-0.4530449595103835 
0.1101802608460372 
0.03641487605518338 
-0.1032807550222543 
0.501928032532786 
0.0466612869094495 
-0.1325651873622447 
0.1667643577743129 
0.4065870963532642 
-0.06589772769610501 
0.05647079228104943 
-0.1867001556443026 
0.02811457077313371 
-0.4588567854325027 
0.9668037400186054 
0.006471339484762527 
-0.08726206726766916 
-1.001807935240508 
0.1369686573135881 
-0.5365505629762529 
-0.2210619631486453 
0.02697526820622446 
-0.06759864653697709 
0.2334546126078207 
0.9801784570306041 
-0.8583476396407066 
-0.2294964115548025 
-0.05277203049303432 
0.05869833809933187 
-0.126310895348082 
-0.03531149447258027 
-0.6230870108661682 
-0.05922828722691773 
0.03154484989464338 
1.278303434483622 
0 
-0.6307179358033714 
0.03521250867943156 
2.22147414296077 
0.08914739387845177 
-0.3887919613436856 
0 
-0.5290720227196106 
0.3152609071052775 
0.05947157517513831 
-0.5154987925883799 
-0.1550353550746834 
-0.151039911846212 
0.03080673413724189 
-0.1466227507004594 
0.0476480823897749 
0.3314759721799322 
-0.80107986309224 
-0.1173746022240222 
0.1211953890774485 
0.5915337101119138 
-0.2067813562354106 
0.5239482495215351 
-0.08306824471177435 
0.03360411021183236 
-0.1787013309084856 
-0.6322813744390068 
2.870417077857785 
-0.1004939525987873 
-0.8305177517631329 
-0.3072700083695332 
0 
0.09169909688394022 
0.1269064854143644 
0.539517411926099 
-0.8157443955094643 
0.3636453961988518 
-0.1149181419551563 
-1.016166147675534 
0.01895855705519798 
-0.702376485966954 
0.5974701738866124 
-0.2442337474298822 
0.2406687879713199 
-0.8605791749505485 
-0.3375938799342106 
-0.008040992975377574 
-0.1979707096552682 
0.3637127137217899 
0.01970078609618004 
0.2501476859673707 
-0.3377426014818893 
0.2409971983514968 
0.1074775316461457 
-0.04203743444576168 
1.26011810072141 
-0.2127931040084652 
-0.02254539163728268 
-0.1524688457837066 
0.5476969390690331 
0.2215771361912999 
-0.2233750068158338 
-0.006350101286877461 
-0.4371745685015035 
-0.1100016020583734 
-0.3239830755522844 
0.007121929757923249 
-0.3274629339338449 
-0.251230300701632 
-0.1106621787475518 
-0.5037860006172925 
-0.5854148287366284 
-0.6932689087940839 
0.260839365573529 
-0.08596947376501692 
0.6591920531156961 
0.0957621518845449 
0.04817822900947565 
0.0627766860116237 
-0.1310185728405459 
-1.100364969155626 
-0.238216694314502 
0.9383288621215924 
-0.2810758264906105 
-0.1280989461142192 
-0.2072217513517899 
-0.04862333918505334 
-0.1322380088469218 
-0.02711449617301728 
-0.6305263985251978 
-0.2915210546932929 
-0.8656171544035481 
-1.108900063043323 
-0.2524345625023041 
0.3718840421029943 
-0.01683829436654435 
0.188691964582604 
1.091480499742891 
0.07439847876599869 
0.2842637301036403 
0.5170825597198425 
-0.04957861000082297 
-0.029687559596244 
0.793928361894467 
0.4820238160337406 
-0.0440494375947869 
0.02137158453055817 
0.230565064478471 
-0.1387616252124404 
0.003557978585182104 
-0.1688453280185711 
0 
0.02814245846051239 
-0.6466965495107277 
-0.2355345450240281 
-0.1098040693085849 
-0.479138614115723 
-0.09581019629256608 
0.5887254319966274 
-0.580197445099994 
-0.6604339288050961 
0.2290853633262077 
0.7215732140083253 
-0.8634193144720916 
0.06031390243045197 
-0.3437775446948269 
2.992264414866762 
-0.01016150622579886 
-1.103071049741199 
-0.04058314992330498 
-0.9835575599012942 
-0.5679649311251276 
-1.21092139864617 
-0.004947241569557759 
0.09867871867046592 
-0.7849286645554312 
0.1377933686457064 
0.1198760276955661 
-0.4914993258709085 
0.7455774525160572 
0.229014034007579 
0.03057062496097092 
-0.1456760280566307 
-0.01496209455923972 
-0.4469984712498317 
-0.156709639930153 
-0.1206071455200608 
0.9411586503923701 
0.1065827584515551 
-0.1623929395957689 
-0.3299034565536773 
0.3536252882925394 
0.003978831606221929 
-0.6688794166161407 
-0.05718723191411328 
-0.7455441863894441 
-0.237454672854458 
-0.4712627269816331 
-0.1791740508515421 
0.02205969475251196 
0.1119736640921257 
-0.04476882560233494 
0 
0.9342171348641547 
0.07057191688292111 
0.1033707726075773 
-0.2921591556445864 
-0.7023671755008037 
0.02757730557367532 
0.06328601116832906 
1.964012616827917e-05 
0.133388191453019 
-0.6783904313101862 
-0.2848977774816769 
-0.2601157363041605 
0.02088539165678322 
0.1923125578439618 
-0.2681510645566776 
0.02269403651611475 
0.2103942225305331 
0.09361005529555461 
-0.1040809545662352 
0.338693847076658 
-0.03461155564708258 
-0.09327762274608416 
0.02296372563685118 
0.06126102990477585 
0.1260048584706787 
0.01676595685565888 
-0.5442479353401559 
-0.3879253474601505 
-0.457157147577931 
-0.01494530879835218 
0.0285282786204385 
-0.07526916089624541 
0 
-0.4873934756316241 
-0.4045456944030227 
0.0855223860484693 
-0.8509318493643561 
-0.02961825055348982 
-0.9752135020148811 
0.06437801912990393 
-0.2086466324289242 
-0.1369848418234979 
0.0451195991461501 
0.03031162758334041 
-0.3350694693006936 
0.02578630651252255 
-0.07033411043192624 
-0.3333092334526133 
2.401412388291007 
0.08659060928732328 
0.04090725085350135 
-0.005074328668835941 
-0.0330490301980973 
0.08814452425205462 
0.03829281551344309 
-0.09762188166631376 
0.008353974237299626 
1.010223357220457 
0.01371664530509072 
-0.6676989585630378 
-0.1473506990111215 
-0.05038510923636072 
-0.8985940253203595 
0.2244054698729754 
0.189418882816835 
-0.05933821620514997 
-0.2782902359431959 
-7.569884250549811e-06 
-0.01779670623992447 
0.01524246544357354 
-0.2513200655661449 
0.1934057719967899 
-0.07195448416009527 
-0.40170714302251 
-0.09069611708089015 
-0.1858882418903212 
-0.02892692544529511 
-0.1037978364340559 
-0.03062422920176361 
-0.2296786402216098 
0.07275961349228084 
0.03299775188311784 
0.01795775431001298 
0.22186980613444 
-0.004565975471819481 
-0.07496443935089674 
-0.7885934041209034 
0.2023442473222488 
-0.238323066180587 
-0.1464224879855403 
0.2827217098569286 
0.01490174903666655 
-0.3007436298554843 
-0.2534078504270044 
-0.03068406821268392 
-0.3525916733403461 
-0.2041793337281585 
-0.60897425239239 
-0.8255729831078652 
-0.009695928860545716 
0.4377813191744792 
0.1096837087977105 
0.007300133385551697 
-0.1728008348458371 
0.00628372756518363 
0.04522478788225355 
0.007220227531633274 
0.6712305898239052 
0.02941499918698559 
0.1229797943013064 
0.006621094016087382 
0.04103723888136051 
0.283614500098786 
-0.3203096711691716 
0.4945858816417854 
-0.3141883506127793 
0.2056355927694737 
0.1870712857337293 
0.583659347316615 
-0.02288976202901436 
-0.4287867746617864 
-0.0423482618717371 
-0.6132213046057697 
-0.003681613419669814 
-0.3446930392760972 
0.04223088189542508 
-0.003713999278068831 
0.1262972119634436 
0.3263584064702973 
0.02008252367218573 
-0.3227662296706971 
-0.01419925112533837 
-0.151406902641263 
0.00136370045888169 
0.1810699538441803 
0.164544253194422 
-0.2571994245907646 
0.1901359624029369 
-0.08735953462117833 
0.00363064317118714 
-0.3300345752892246 
0.1313888329575987 
-0.02794592963716445 
-0.680007472432568 
-0.016409648643299 
-0.07577754661506605 
-0.008019584787545163 
0.05556070017218388 
0.07530726729628645 
-0.1328893157018668 
0.6039500555470967 
-0.6088778418102242 
-0.5904673143714444 
-0.07413657459998566 
0.01337772950403544 
0.170837991414901 
-0.4916970214300118 
-0.1131804587723432 
-0.3901098206503541 
-0.5026822700633842 
0.3792910887870918 
-0.006836868156011477 
0.1668864670206611 
-0.1783331263403464 
0.04862689945355703 
-0.01885111540995631 
0.01873130493146955 
-0.059397988646222 
-0.01816143313376027 
-0.5621331828123097 
-0.009116303061526401 
0.9338091013373404 
-0.2489839267317584 
0.02504905447565489 
0.01447028064930749 
8.673617379884035e-19 
-0.007483521794373333 
0.06828626070146915 
0.03571809559745091 
0.04609417677948852 
0.2777832285914378 
0.03148756116348157 
0.4515712480358006 
-0.008777475561153988 
0.1169471576399516 
0.002416853037581208 
0.1012650948705452 
-0.03450586435689382 
-0.3700244755918522 
-0.1595587509310571 
1.729068960915942 
0.08944538871134219 
0.3680788941544601 
-0.1718220152146389 
-0.3401692286327285 
-0.3530061752772458 
-0.8288664480838553 
-0.3829707211758087 
-1.673614438710619 
-0.6172807840252994 
-0.01325171992363237 
-0.1002106665945256 
-0.7097285504995857 
0.07390299189743653 
-0.5381901874440603 
0.048341177277873 
0.0868370130247809 
0.1406792679076442 
-0.02581726935674891 
-0.2701972296835841 
0.02935901692319366 
-0.4200213550976878 
-0.006330095433902846 
-0.02506758483563397 
-0.002500120925861129 
-0.03924596734424157 
0.494024725483703 
0.1344399462468026 
0.430094118464879 
-0.1389629090956714 
0.2231403007831261 
0.006160388120638699 
-0.2149358669109299 
-2.168404344971009e-19 
-0.4832049697303701 
0.1139954399167719 
-0.489646720580419 
-0.4918695577738746 
-0.1469169159991436 
-0.3316707712221094 
-0.7044615348304131 
-0.4655097176955928 
-0.8823447384287734 
-0.1277869384415145 
0.1877726467960487 
-0.3223606370232431 
1.022335344615795 
-0.6291023441892296 
1.103753741519922 
0.5433165161305826 
-0.3556035983268684 
0 
-0.4993807037588778 
0.6290140335410058 
-0.1405771969939882 
0.1079049707598453 
-0.2756476505641174 
0.1635077100241862 
-0.1095813225301715 
0.1958114453150843 
0.07252637621453543 
-0.461121023271071 
-0.2658614610137153 
0.04591704739534234 
-0.01211640860894268 
-0.1470177118682206 
0.3573901963605881 
-0.5399066676022662 
0.6737480023078075 
-0.05236050988753829 
-0.02097807393500998 
0.03385226099779753 
-0.08678203500176072 
-0.09108529230891732 
0.06356892514817636 
0 
0.1222609245846906 
0.001576206105155877 
0.06068169975736706 
2.427746593439533 
0.6955287372987263 
-0.9892395459255654 
-0.003142011368029094 
-0.02673836294949585 
-0.008978383833412689 
-0.0369167430743858 
0.6711817630329786 
-0.371811540604454 
-0.2313095016645113 
-0.02172244020809228 
0.1505860210813425 
1.402561000772652 
0.01462011411248924 
-0.2327399066058673 
0.671628866270621 
-1.640279299663282 
0.1998036975307318 
0.08162247694057234 
-0.5659129673853278 
0.2655605423057638 
-0.03040548626242141 
-0.4626988963092809 
1.237379455200004 
0.02666889120144268 
0.2711727900424627 
0.1909924346102811 
0.0214860453959096 
0.9253161745903226 
0.6381451923835503 
0.002326720813557418 
0.004388556313409826 
-0.2549987010269112 
-0.3886692237391984 
0 
-0.3447227757095656 
0.04397985494006559 
-0.02112874125206147 
-0.0007805843731880834 
-0.3699711473706004 
-0.07307070280641285 
0.07310831263094972 
0.09084236192991844 
-0.3200349759200438 
0 
-0.2631908112692232 
-0.6243443652732927 
2.619561176572744 
0.9922238922877702 
-0.1372765389321116 
-0.2750930883500926 
-0.7281708893384046 
-0.05262443889390524 
0.2186705947798326 
0.01906040117062772 
0.1077996257278203 
-0.6502451777051836 
0.2019833620161617 
0.5872502838992396 
0.002159683428323125 
0.01066331214093015 
0.5486100654260481 
-0.008360839245434445 
-0.03001168384785582 
0 
-0.6443970171616125 
-0.1360577707341784 
0.005985896683814939 
0.04819221804493466 
-0.55907278057441 
-0.1009356966573341 
0.309839796260816 
-0.3118269123982606 
-0.0008093160713386024 
0.04571851918416755 
-0.2903736541335996 
-0.09610759669197096 
-0.01458759494296407 
0.1991867252142158 
0.9823633787478576 
-0.09792580211251366 
0.0674982677062976 
0 
-0.2401106422014768 
-0.6803811609355871 
-0.4870596699081905 
-0.6154593159667879 
0.2914642352175557 
-0.02305288558008567 
-0.2384651272457744 
-0.1926559501054517 
-0.1242873297146159 
-1.032736531238607 
-0.318762934725034 
-0.07818218882329697 
1.583319694373422 
-0.7447285621239397 
-0.1698104493092991 
0.04559569232120862 
-0.2404379732173681 
-0.1031122335131237 
-0.1042847602562766 
0.0136707801907958 
0.06066146408770531 
-0.1061860500843795 
0.05857493611578075 
-0.3342137287607243 
0 
0.08441519450493447 
0.5650266513322485 
-0.4021245629466299 
-0.05074284288960337 
-0.4440511641206911 
-0.152091786539928 
-0.2938380131226591 
0.2671233053687988 
0.4701657406356475 
-0.2258556570374358 
-0.03280991820927025 
-0.1853691832300077 
0 
0.525037587886708 
0.2415980811177076 
-0.6556755051554225 
-0.2352474807690938 
0.3142745910767791 
1.162584117674194 
0.0552109847439449 
-0.02872238770112981 
-0.01135173590290715 
0.1755990072725992 
0.1675758467261171 
0.2397098155334433 
-0.6746396366025922 
-0.1233001106828541 
0.001490255431638789 
-0.2292821803380124 
-0.05252982586306713 
-0.09189295248688849 
0.01830876638637237 
-0.409639016377489 
-0.2277123823745369 
0 
-0.3219935459164782 
0.3816338528802524 
0.5526849519701875 
2.416555605749497 
-1.090580336718121 
-0.5280164830574229 
0.04557126435046024 
1.018742206618765 
0.1222770310765678 
-0.1140792991620535 
-0.01716959621334823 
0.8602814066239101 
-0.2397021502471679 
0.03398567291196584 
0.8186811890353642 
-0.1458967041489964 
-0.1771328942193478 
0 
0.2007158022760533 
-0.006375983260936211 
0.5731013872539975 
-0.03543885431718777 
-0.2172734243832277 
0.008496645907101872 
-0.5611628596644451 
-0.09880617054491132 
-0.005050473975351428 
-0.1415294725654301 
-0.0006099864936377327 
0 
-0.05039549264833854 
0 
0.07357580901885045 
0.05230201922087503 
-0.01725374717680928 
-0.09232304029710693 
0.1664522954761133 
-1.301042606982605e-18 
-1.146269761917034 
-0.003340674996034269 
0.03502508290465442 
0.06024037319751541 
0 
-0.9194650204185856 
0.2080351014276789 
-0.2437426895023869 
-0.1967012808741709 
-0.3136355848555473 
0.1409044597146067 
-0.38044987778483 
0.2504080513985372 
0.1309672616283789 
-0.02709295808063967 
-0.1223823471280489 
1.146242500895585 
-0.008878876622462395 
0.1129005514325046 
-0.6526334136763192 
-0.05358994799774252 
3.245666414120176 
-0.2377656164381917 
-0.01351994887617365 
-1.186463887083756 
-0.06565304086205806 
-0.2228599352476803 
0.04169181465912265 
0.05806391187441456 
-0.5009796141073424 
-0.8853468010458924 
-0.04903950143109207 
-0.0860044593900347 
-0.1332691393377287 
0.5375435571981171 
0.07664417829629845 
-0.2434405311006484 
0.3571868815467857 
-0.2854958199416373 
-0.00982698893766679 
0.01087030877975355 
0.1016921236007817 
0.006194846094339854 
-0.00811145968661593 
-0.4441710587943148 
0 
-0.1909013153662648 
-0.8331007494952178 
0.08796076667827052 
-0.5632587330311094 
0 
-0.3428310200018672 
0.6244687078150364 
0.03500641767019076 
-0.4370804804406876 
-0.00181230423662263 
0 
0.1427940208905817 
-0.021846097153883 
-0.02897411576844589 
0 
-0.4838350702217256 
0 
-0.1791220768825033 
1.076959513462414 
-0.6555483806289673 
0.1660148334450676 
-0.6539531222136455 
-0.2785720436602691 
0.1932119129122423 
-1.081708773300356 
0.06248869471159729 
-0.1402751234253802 
0.1090282306836777 
-0.1963706792111228 
0.4013947820159321 
0 
0.007504795465631871 
-0.1341100139464905 
-0.4750164343127048 
-0.1271755980913827 
-0.2766869497177319 
-0.4339988769631384 
-0.04241938631570739 
-1.013003789450427 
-0.04194443178113941 
0.1935117627113973 
-0.02296974289558789 
-0.605184238388801 
-0.4253762748009924 
-0.2744924797055265 
-0.05043075793022279 
0.7051494801856175 
0.2307443666314935 
-0.04532324860338368 
-0.3105090006244455 
-0.1248830803415872 
0.07351747624384326 
0 
-0.2746529661814477 
0.00832685950228702 
-0.3611137361681629 
-1.453663584958453 
-0.2819622726231743 
-0.2427726599979902 
-0.08332833267251007 
-0.6395880650680228 
0.01594449710301734 
-0.5549420572132333 
-0.2171467732098792 
-0.08712714446463145 
0.281365143448324 
-0.03396879749358427 
-0.3149116291037279 
2.451200053452991 
-0.03316061748960816 
-1.413897196641494 
-0.08803564616140193 
2.681714800840999 
-0.301916148637423 
-0.05660588946837109 
-0.7571349628704236 
-0.00325488523136458 
-0.4995879891660046 
0.09434402591212356 
0.02830105461534745 
0.1047670956168677 
-1.239176508536054 
0.04580672560535394 
-0.06616175556952313 
-0.2404117386745119 
0 
0.01403219648162029 
0.02275681803801992 
-0.1657861669398978 
-0.07899587256098654 
0.01308903838562474 
0.3623823147179226 
-0.02277307358030115 
0.7146445926463312 
0.003886106902945261 
-0.4527784689850499 
-0.6034012088587627 
0.008908227344990438 
-0.4889726292282577 
-0.3155974231521665 
-0.3747559496197883 
-0.06404467258087053 
-0.2168094385473034 
-0.2018415847071947 
-0.4950579713118633 
0 
0.5047183433445596 
-5.421010862427522e-20 
0 
-0.956754682703421 
-0.002199887317093505 
-0.6249413097340506 
0.001560801558945512 
-0.1158490302096886 
0.08988516827170059 
0.0170575659248405 
0 
-1.32882084631841 
-0.3011315887982655 
-0.1013544865039118 
-0.05564000469184736 
-0.5384474275582224 
-0.1331392502551502 
-0.005833836704240599 
-0.01094991748379804 
-0.2338296280312254 
-0.2228457239611577 
-0.4112189049348524 
-0.7824003881260193 
0.2803359585016162 
-0.02677282095368931 
-0.9429147364097542 
-0.2027938088807428 
0.1111480565491929 
0.5819762562236315 
-0.507908206898557 
-0.1171528155934619 
-1.293903811280223 
0.007808835539250404 
-0.350459879957404 
-0.01387556089873072 
-0.07231038237262354 
-0.1505110046527207 
0.4164749103705014 
-0.2853489200981504 
-0.0365572448174362 
-0.002065382262541946 
0.006002529713222695 
0.0861643102980978 
0.001665602475696241 
-0.1003650446333248 
-0.5795659311914694 
0.027970988178409 
-4.336808689942018e-19 
0.4021161018805906 
1.301042606982605e-18 
0.2052420996733398 
0 
-0.1407250730431546 
-0.6634109959725122 
-0.00985452362835309 
-0.008786630296410403 
0.07473505334642826 
-0.1100363340505911 
-0.2575798072367708 
0.002851031178679898 
0.1553035241907209 
0.0178243467448711 
-0.07993332268483661 
0.009717383137666321 
-0.5780977441917844 
0.0027153360796133 
-0.1605136225184599 
0.3202997657163633 
1.0961231185729 
0.04170982888061252 
-0.4694822684860354 
0.002744574588175761 
0.02571055426874393 
-0.2369784120240177 
-6.776263578034403e-21 
-0.05746835490559443 
0.02719167491890904 
0.02203767209113893 
-0.1622509356342179 
-0.2918213117162241 
1.047036789629641 
-0.09688686163281714 
-0.08722740947637588 
-0.1680993749784738 
-0.05164875884885622 
0.0757328262455942 
0.02085371628047556 
0.4439294534319428 
0.01942201099135565 
0.2950184697157243 
-0.9062341597539783 
0 
0.01481456368201988 
-0.3310911221047531 
-0.01204845553724481 
0.001718248835891927 
0.0193952222108497 
-0.1519742965976004 
0 
-0.1584442431845597 
0.5672964867661556 
-0.08972819140721197 
0.08238788139398692 
-0.1374139193831206 
0.03405632730037352 
0.6912257500472047 
0.1381002806324559 
-0.4771208633233991 
-0.1324054649279804 
-0.05536269187564937 
0.3548094189189607 
-0.2550007322916392 
0.6522171227425543 
0.9553573685506311 
-0.2325302151483523 
-0.1490557251038021 
0.2214821854461982 
0.2378244056027463 
0.1206326776669351 
-0.2256592245837863 
0 
0.0008965816700335473 
0.01130611477090009 
-0.3136691538886806 
-0.1322703875934657 
0.04147250405283483 
-0.6450653630508884 
-0.1042112291699924 
-0.4230228162015235 
-0.3042578954162422 
0 
-0.5884001153602848 
-0.1734471896245323 
-0.0239629099577433 
-0.1834663681491794 
0.1223342281240888 
-0.1001649531539987 
0.6680350639297118 
0.326504943256334 
0.01071630058797227 
-0.2179083824156423 
-1.777990084097641 
0 
0.5251085536126083 
-0.1783847649496814 
-0.1079802132133167 
-0.2685485142554363 
2.355633469875571 
-0.46870357248534 
-0.4731353123095194 
0 
-0.2642681275423405 
-0.358193089764938 
0 
0.3676447390446747 
0.2247090641385192 
-0.4620261402573009 
0 
2.217448424162633 
0.2312230824714862 
1.189532098153048 
-0.0347430034851023 
-0.1467378709614088 
0.2930074107308651 
0.00765806458553427 
-0.08476127876847217 
-0.1743693504237331 
-0.1788753228591461 
-0.0004421739176495262 
0.05046896502621474 
-0.009307209580329535 
-0.4782239920169363 
0.05790978984844028 
-0.02104815131008306 
0.1886872125643002 
0 
0.05822140699545737 
-0.1028684288780519 
1.736864184227597 
0.1027295567347846 
0 
0.001670618064136465 
0.06678154290277577 
-0.1169072470781174 
-0.4271801053108822 
-0.1408483894140339 
-0.3178041909851278 
0.08534247343400109 
0 
-0.4432915999831688 
0.02185312209636775 
-0.6109338552517324 
0.004211140818921679 
-0.4349910908030558 
-0.7292154152474718 
-0.04304454754584121 
1.949674664186758 
0.01063964699373481 
-0.05311577324170992 
0.2777824721053997 
-0.04825123307904065 
-0.02762790497373926 
-0.01553425700814218 
0 
0.547679978063332 
-0.2352828044139424 
0.6261972680825838 
0 
1.853889320880422 
-0.2672218958528209 
0.1791155296091902 
-0.01968192465274828 
-0.001594914070569425 
0.08996099257771771 
-0.0526105065625961 
-0.03558038703060716 
-0.01548909848928593 
0.0026967694558651 
0 
-0.2313633612547856 
0.02828924432223078 
-0.02804500124690916 
0.06317216251324882 
0.00326272828550171 
-0.1369556494990501 
-0.3744403511385598 
0.1591229632772425 
-0.5416652132659424 
-0.02908322599317238 
0.3601658358252902 
0.2736526786915278 
1.980173883087299 
-0.5804825851351125 
0.1523962816118425 
0.06988018973632404 
0.2341462176894875 
0.1515283977536097 
1.240264916041419 
-0.4043879053644907 
-0.09664126859343444 
-0.5042054349822649 
-0.06002568643203213 
0 
0.06544099476000351 
-0.3209792826806955 
-2.391616318738455 
0 
-0.09731934644958061 
-0.152670989427698 
0.02851441513509438 
0.05437598421204404 
-0.01897738540302605 
-0.8423154857243335 
-0.09432581233938217 
0.005186502033075812 
-0.1474189631908893 
0 
-0.4272605302951825 
-0.3119989338363655 
-0.6956158658373907 
0 
0.5860495037464848 
0 
-0.6855099724933477 
0.3606590458128335 
0.9453370854110766 
-0.06065336556093943 
2.479099863635061 
-0.2202230269186674 
-0.03498954292609384 
0 
0.1071145694977562 
0.3461284027345701 
-0.4475971675091679 
-0.5678240905965457 
-1.084202172485504e-18 
-0.6300978963173998 
0.1522617323586325 
0.02614495288082066 
-0.07140812060209005 
-0.8618605486342172 
-0.03610006311975502 
-0.1823358524498451 
-0.1137168854558432 
0.1207360711012901 
-0.1505026470937925 
0.2517572754873957 
-0.05420567122800955 
0.04259741092405534 
-0.05241137994553591 
0.3037277304119574 
-0.6791595667769389 
0.6657388005663494 
-0.3909053721121449 
-0.6317389854805541 
-0.02079014002628045 
-0.001535556645318535 
-0.2477266270134947 
-0.08071317461259311 
1.07742590890747e-18 
0.01705123164643632 
-0.02995401180088698 
-0.3826927270204852 
-0.2288195255705958 
0.04913596345584186 
0.288023389351711 
0.1448271625640735 
-0.5014757596292706 
0.009600791181316881 
-0.0898565772391046 
0 
0.04249956579739525 
0.07759537098763519 
-0.5039144318707327 
-0.007920948811886723 
-0.3680123089041414 
-0.3046927462810793 
0.02584770760511725 
-0.2600922849326331 
-0.7597658149966411 
-0.01160245574400086 
-0.3833562823225951 
-0.7490766651350225 
0.161791620816448 
-0.07093267283600693 
-0.1581801187615523 
0.7506924883291943 
-0.4917415985795578 
-0.1424814041068829 
-0.06924613709167719 
-0.5453135296939655 
-0.0213642017232744 
-0.003006258299973878 
-0.2572388127352221 
-0.1883799781630099 
0.4373912018399627 
-0.04055062494516855 
-0.03083620536322918 
-0.3988213261498789 
0 
-0.3797359734893018 
-0.1667240550095091 
0.494194785229393 
-0.1480066852164311 
0.1183743500165946 
0.04004921539504167 
0.08810250873958969 
0 
-0.003058221396243835 
-0.07685369174976935 
-0.2451161390579523 
0 
-0.1034888519963117 
0.2185342429037162 
0 
0.05860718016651991 
0.1676934613361493 
-0.1177652313536309 
-0.1402777426385502 
-0.3891862466842962 
1.524363337136434 
-0.07240430855751114 
-0.4879036928352493 
-0.8121244865016793 
0.07336830675238856 
-0.03058661225723123 
-0.2991591003142304 
-0.1856775276159835 
0.126151701097956 
0.328055032267586 
-0.0002215505256116189 
-0.02624286165024589 
0 
0.1041093728461733 
-0.3695288931132402 
0.01029016412836283 
1.190661310030605 
0.1500548180517988 
0.004296650104012908 
0.4806129640027083 
-0.01654410968656122 
0 
-0.1935581606224407 
0.09365968340378188 
-0.2147496775677251 
-0.5147009219116502 
-0.3037117803783404 
0.8543276836949123 
-0.1711124733441278 
-1.301905931489043 
0.04154392352540958 
-0.7404282745399973 
-0.4548065655802691 
0 
0.9558914949506651 
0.1212500570882436 
0.01129734145161453 
0.01449126541562862 
-0.02605368720017291 
-0.01785414823847244 
0.04554349287568707 
-0.1043490135634109 
-0.8177873884875796 
0.01497591313912831 
-0.2246100402507021 
-0.5034169918935634 
0.0176693828117588 
-0.2119720133718496 
0.6386446777925751 
-0.1689486529581886 
-0.01834809275567585 
0 
-0.04019679743678351 
-0.048391734793715 
-0.02638507223585021 
0.3438355226568241 
-0.1825419292202916 
0 
0.3693369189262908 
-0.02291330665812397 
1.577658955378602 
-0.3301472827749518 
-0.06430264725165355 
0 
-0.1504757932220648 
-0.5477968206682976 
-0.8701249918320622 
-0.3261793216405868 
-0.00507841861913992 
0.1212376894879619 
0.3311645250554742 
0.1407968822599278 
0.3762660518044251 
0 
-0.02337333649584283 
-0.01702569273530662 
-0.6967782063498574 
-0.3960655421011251 
0 
0.0472621837335179 
0 
-0.1540389284962443 
0.1839398531994791 
-0.8712031633347791 
-0.4040739642075529 
-0.3158051490829659 
0.0252744177619565 
1.847463977054881 
0.04355546256319828 
-0.6793318516395802 
-0.03662083752272401 
-0.3420088082782073 
-0.1190165457201139 
-0.3828624241265379 
-0.08684156707717777 
0.09696227345542434 
-0.6052103529499578 
0.04905487962797829 
0.008306552027396774 
-0.1474778642519743 
0.3619184016134999 
-0.1477986736493606 
-0.3177816282166496 
-0.7526378914779071 
-1.343843529092874 
0 
-0.4832587860556072 
-0.5044435921454813 
0.06082096903998097 
-0.510236077571478 
-0.05548927189092531 
-0.1390768444953727 
0.06219981758912008 
0.9455829779928058 
0.8832990101829746 
-0.1437440109803533 
0.1017723375428402 
-0.8665166951745734 
0.3772163741609219 
6.938893903907228e-18 
-0.07747238242882541 
0.4254459746235332 
0.02663522069515019 
-0.08719060737725703 
-0.1211468611104158 
0 
0 
0 
-0.006566848826388967 
0.2343473186311912 
-0.670808851436781 
-0.7221527845723124 
0.06057661320503185 
0.04769034711239999 
-1.244836878146231 
-0.005323584925684409 
-0.8059652347125483 
-0.06256898299056096 
-0.07826486402339546 
-0.008680801888440242 
-0.423715989610775 
-0.212404080132718 
-0.0674598493556801 
0 
-0.5300436416046732 
-0.1154756264247786 
-0.2986549242148962 
-0.3513680597459229 
-0.009398785821319186 
1.731171324489166 
-0.5743904945425033 
-0.6020047484713557 
0.2545698196887474 
-0.7847396298020705 
0.4430768432120001 
-0.1606172376858961 
0.01683314174404336 
-0.09436830554195834 
0 
-0.2368329606461716 
0.1997163588019118 
-1.073177599605646 
0.2491680689516636 
-0.2456911053987306 
-0.4133275408621525 
0 
-0.5175611969554962 
0.6096620859863989 
-0.4840366098979337 
0.4011366759345758 
-1.570873550760209 
-0.4873426047753833 
0.02136390033276846 
0.02010669734462978 
0 
0 
-0.02981298479005689 
0.1750244869304052 
-0.04164146292540018 
0.02964468228994115 
-0.005407001354140267 
0.1360032425666631 
1.969375749474041 
-0.04650634457227916 
-0.2922828213435661 
-0.01731769816386341 
0.00292730269957205 
2.168404344971009e-18 
-0.1183813861774237 
-0.2526938049607486 
-0.008411892511106999 
0.02852545958532381 
-0.01311580324084677 
0 
0.1161148240244884 
-0.01634338006593489 
0.3725610113792443 
0.04810569482348897 
1.189184052666273 
-0.4230597428316611 
0.7669933211979482 
0.05226764959744324 
-0.8189938417285482 
-0.02832353559724949 
0.5490008995061966 
-0.003921614213057813 
-0.02369122143225015 
-0.2740536000205092 
-0.007552430182890642 
-0.009175074046510896 
-0.462533716772635 
0.09254756846200522 
0.8712488863494671 
0.3674750913609087 
0.3682614984206797 
0 
-0.01651087930163809 
0.389607564176855 
-0.001590233189079962 
-0.007330224670013819 
-1.056266216431504 
-0.4566147287629835 
0.008529449197120639 
0 
0.01704395201040473 
-0.4416829096248789 
-0.0342351033254947 
-0.3206549082502198 
-0.005313971165427325 
0 
-0.05725016275921067 
0.01250552372330622 
-0.6129965717130066 
0 
-0.4247158597029684 
-0.06759387547315732 
0.1593746429337369 
-0.02375454046999734 
0 
-0.01220149296590297 
0.3585222698891273 
0.169101477730685 
1.719875779135404 
-0.01360877765343725 
-0.1185808593556102 
-0.08339085207494781 
0.1353833887691032 
-0.6594682863652344 
-0.09630757774727447 
0.3652098632064411 
-0.07735185384410499 
0 
0.03112854800516549 
0.546765862664142 
-0.6148039243132982 
0.02821671549058144 
-0.1574867604194345 
0.1329841989019834 
-0.828656385028119 
0.766980289123809 
-0.4458313311909604 
-0.298157581728601 
-0.3679210004698646 
-0.09772402536186965 
0.1215112021562882 
-0.1269363620100296 
0.3706669742939638 
-0.00349604445006956 
-0.1591590661983707 
0.2919419395575183 
-0.00120882688483093 
0 
-0.01465603712501934 
-0.9197516055071684 
-0.1809549913906322 
0.05302955053697368 
1.227002795738971 
0.008898103826886055 
0.002456721440236518 
-0.2527475907615316 
0 
-0.1105966422952896 
-0.103377861459883 
-0.3562589493230989 
-0.5165482225506177 
0.02524446515860614 
1.983230903628391 
-0.363771967767112 
-0.2685410638479181 
0.02467263195208688 
0 
-0.007774460804120318 
-0.1561071902529599 
0.7316193652733183 
0.8644931984138008 
-0.8689198160421608 
0 
-0.399464140468931 
-0.07098281461091606 
-0.3407565041185489 
-0.08403417197557818 
0 
-0.6433224940588878 
-0.01574384953496646 
-0.3871858023285787 
-0.4197977742409703 
0 
-0.4169943393312113 
0.120530286785225 
0 
-0.3505746088294074 
-0.4174943763254259 
-0.252602552245401 
-0.006685459071090822 
0.01127360219962456 
0.0464954504258592 
0 
0.004758373631157426 
-0.1556875705184322 
0 
-0.1491255837170039 
0.03227239289151044 
0 
-0.549998527721443 
-0.1635037154386131 
0.3542384456385025 
-0.1798424806283067 
-0.4757861785143555 
0.03676386727027481 
0 
-0.07581845074037795 
-0.2768264188457717 
0.7992704475006549 
0 
0 
-0.7345512734052994 
0.08207217708295157 
-0.02785463584885002 
-0.0183974317291498 
0.4355540918177226 
0.4881647706119621 
-0.3437746071367649 
-0.1620424979957359 
-0.6545203965659524 
0.01584891348308524 
0.05869380076440289 
-0.8934546580742095 
-0.01133332363894534 
0.2872585141975944 
-0.06626049864648877 
-0.03913079091716513 
-0.005130202803632048 
0 
0.09703022468276042 
0.3391741858280392 
-0.01296359852008457 
0.4345542374361159 
0.1619285360939959 
-0.06756667201945464 
0.2998523954019728 
-0.07322982155748313 
0.001757665613989284 
0.4009384978351124 
0 
0 
-0.0005567089932798835 
-0.2566886961505254 
-1.071940894895364 
0.3924622737715954 
1.136640458932543 
0.3824630102350948 
-0.05389147910349239 
0.09226710214683477 
0.2787972440642913 
-0.6307766348655128 
-0.00904096314184359 
0.1120338309088396 
0.1326725966076976 
-0.6214621528137191 
0.134783545708563 
0 
-0.1016541647519656 
0.01290375431400034 
-0.001231393396298269 
0.1312850657204359 
0.1626097531245439 
0 
-0.0198273389180247 
0.04952440987689322 
1.621414014524308 
-0.06382944021052142 
-0.3261613116573058 
0.01761143566225688 
-0.003099089101142011 
-0.5074856475929083 
0 
-0.1220384217272606 
-0.4960289618486818 
-0.04163478255934169 
-0.003227475878619276 
0.003300956369447389 
-0.5881817860772577 
-0.01609170437167049 
-0.2974015095425443 
-0.1820607081274034 
1.084202172485504e-19 
0.1735473830156831 
-0.3585422278171498 
0 
-0.004326561654711836 
0 
0 
0 
-0.01903926872579746 
-0.001496981419388616 
0.177548501289206 
-0.1162665051830972 
-0.5816571810579733 
0 
0.1635861371010078 
-0.1106879053626403 
0.01320405450428559 
-0.1004441155431183 
-0.1831830856902053 
-0.8404449388133585 
0.3072648449175696 
0.155582277722802 
0 
-0.4405528074800185 
-0.2812884672666565 
0.001612960934169162 
0.1449292507488658 
-0.0533480755650891 
0.2155020128728023 
-0.4603704933397514 
0.01885868816175095 
-0.5065586144464153 
0.3757135929887567 
0.02212386101731219 
-0.08293992830245081 
0 
0 
-0.2294902567805614 
-0.1753554656826143 
0 
0.05040703911610887 
-0.3341263780277058 
-0.01694380332776229 
-0.8261159244525822 
-0.2562986962302571 
0.5298060951009226 
-0.1414894834587229 
0 
-0.8278735017410416 
0.007118440109897604 
-0.3223436846457064 
-0.4104726974638491 
-0.2449245246921211 
0.08353290779027567 
-0.0122965668567117 
-0.01742511190873796 
-0.04402674528068785 
-0.257573627711044 
-0.4007509375900839 
0 
0.09140690054736159 
1.297448198902283 
-0.05240190260832463 
0.02527149868147473 
0.8305255933654188 
-0.2881643981396873 
0.1972542481320799 
-0.9187239661766572 
-0.4091735986536782 
0.2028992809602018 
-0.1612687862263016 
-0.002472546271697568 
0.06575747094149302 
-0.2439879922469515 
0.0509010977759512 
-0.2351202699029518 
-0.6878247592515042 
-0.001779660135568701 
0.01204808127225517 
-0.7114341965758797 
-0.3868435323375466 
0.02817674171039854 
-0.4444776432625319 
-0.05043963877565981 
0.1560018574158747 
-8.673617379884035e-19 
0.1837892631492842 
0.03061158572281607 
0 
0.5021340687131772 
0.007690020639538514 
0.1216987396336012 
0.05819021365371151 
0.09267201038520527 
-0.3996988466493318 
-1.013887008649835 
0.09002530518159287 
-0.001688630604331509 
-0.04843699570484193 
0.1106424795281847 
0.01207285599069864 
-0.09157257803759213 
0 
-0.0526951925810852 
0.01288425944711852 
-0.02802877917473343 
-0.03336342294195335 
-0.300953169199028 
-0.0495006438287881 
-0.1379642045306084 
0.5524997810183281 
-0.0005428111003700932 
-0.07137510632657956 
0.1295663600072407 
-0.04078961740668412 
-0.07972490473276153 
-0.4496583069857391 
-0.0757868884145744 
-0.6409311976789929 
-0.3846953724807078 
0.2390592365865515 
-0.006992153428721668 
0 
1.180171557297618 
0.5105915286884394 
0.2910186644765795 
0.02502149443722201 
-0.0005881517767429461 
-0.2817710689040327 
0 
-0.0009692993420573454 
0 
0 
0.004352404290922185 
-0.01636729276240808 
-0.08758266569146332 
-0.1645888583481477 
0.06337548932295557 
-0.006439332581056957 
-0.1616041069443758 
0.05582482284710394 
0 
0 
-0.02769785909487506 
1.972309393796217 
9.75781955236954e-19 
0 
1.34814117967191 
-0.2170358587187919 
0.002191126601455584 
-0.1601668645837246 
0 
-0.09728184088514322 
-0.5543465614618418 
0.072661464671835 
0.02555741266589354 
-0.0004703833534303292 
-0.8467903840234174 
0.05224629638455704 
-0.1279290509801571 
-0.5554005937138717 
-0.1501180426150689 
-0.8748550951103957 
0.05636635080904472 
8.673617379884035e-19 
-0.2825221040728121 
-0.1997360122422462 
-0.5520601853399444 
-0.3143550650755206 
-0.3607455693190532 
-0.09801148946053041 
-0.0117772644402574 
0.1650261812077797 
0.6545000449610521 
0.04194362771266073 
0.004114113191451777 
0 
-0.59807024712836 
-0.1851193396513446 
-0.1786921891377147 
0.5334052921940575 
-0.07033757314655814 
-0.2774056191311517 
-0.0713360652958578 
0 
-0.07611066037284711 
0.2132517966376259 
0.04390396573040527 
-0.282183759563615 
0.01578132212892534 
-0.3425261491272569 
0.2376258230269127 
-0.008385963822750303 
-0.159352366395762 
-0.5668627922150518 
0 
-0.01089565353631483 
-0.08241088416437001 
0.07663279944547405 
-0.4711946580142047 
0.02137361910357249 
-0.138987868045617 
0 
0.2557024190993484 
0.07352432995903717 
-0.4353294381332816 
0.35237282309197 
-0.8171159191706113 
-0.7699979625065201 
-0.2633506309449434 
0 
-0.03984997123807919 
-0.1430558175008381 
-0.8149692970292552 
0 
0.03404731024462454 
-0.7038411295075268 
0 
0 
0.03730365533915993 
-0.2836126956633785 
-0.6888028574655336 
-0.6424712484855764 
-0.09433787231325316 
-0.2268708783808798 
-0.01752112788115667 
0.007716399555625523 
-0.03392885351583631 
-0.01912771987300614 
0 
0 
0.02252098199753066 
0.5817091833577507 
0.1167123986890255 
-0.1440294936373159 
0.7589430313999288 
-0.2680499537248905 
-0.06200402109203948 
-0.728164863777423 
-0.001647192954072066 
-0.1143873770126283 
-0.4752529393982549 
-0.02726498378278979 
1.552364771203819 
0.06237644999049981 
-0.1974724439182736 
0.02822662934647123 
-0.1396871019131097 
0 
0.08707032374286779 
0 
-0.9028647031137772 
0.2808635364536859 
-0.05462976435593429 
-0.3141373761011166 
-0.01571535457574219 
0.4338782669298792 
2.936212160239619 
-0.2907963963090104 
0.02508503162283632 
0.8796835052157133 
-0.3661267921887812 
-0.6054299842253237 
0 
-0.2416147802867095 
0.06793397433512119 
0.02839596870917146 
0.07820791085911451 
1.431516915737836 
0 
-0.1909544407255205 
-0.002897068003912707 
0.05836320238729097 
-0.002611376411640619 
0 
0 
-0.7554973030105592 
-0.0004482101137783467 
0.1541282185773029 
-0.002155690838578075 
0 
0 
0.05524939875744316 
-0.01443143468617956 
0 
0.00958352520721246 
0.008068023603298655 
-0.02136738993363248 
-0.02616974492564467 
-0.4284439202392715 
0.1630274621696175 
-0.616630874094683 
-0.099063373703989 
-0.9632880149297423 
-0.006439934343048907 
-0.01213873124597034 
-0.01169398028339537 
-0.2270847589118544 
-0.01514802113783556 
3.252606517456513e-19 
-0.5288210921896966 
-0.007962757180033338 
-0.3453181916307935 
-0.2830077897011433 
0.4151400502339077 
-0.06404610549390717 
-0.2322252097395709 
-0.2348506307087359 
0.2017959157391302 
-0.5339652402815726 
0.2896471921696974 
0.003191158548378939 
-0.3870748495568129 
-0.7199850532149676 
-0.7724937831119305 
-0.1440933844857429 
-0.1865248369254672 
-0.3394739710918044 
-0.577268963850455 
-1.263405508216652 
1.05645455256085 
-0.1908814903565128 
-0.1290527442660275 
-0.354739271402137 
0 
-0.6717832505781696 
0.2320909950227292 
0 
-0.4211694505422262 
-0.1722446811547524 
-0.01218165889790127 
5.421010862427522e-20 
0.2305155356886299 
-0.01947863864895653 
0.01825822550458079 
0.003740749627430245 
0.00917024052989591 
-0.07700131696224312 
0 
-0.2794666960328447 
0.02514286916476159 
-0.04015321141833841 
0.009094339126232889 
0 
0 
0.1509649735645381 
-0.01094059667944765 
-0.04758700595562466 
0 
2.449881262058475 
-0.1427359886618312 
-0.3066092751678087 
-0.2426124383319364 
0.3209316054180311 
-0.04638279040417877 
2.280772757871843 
0.1754597331826606 
0.0571708731574996 
0 
-0.2766061498803985 
-0.4269601792876365 
-0.03636697449207934 
1.949497582618203 
-0.2346380463486582 
0.2945809540125046 
0 
-0.3050877018068652 
-0.09325525704564482 
-0.2465661889972014 
0.06134912927009159 
0.4639539531222984 
-0.4816937172582216 
-0.1417683474213207 
-0.4736797252394092 
4.336808689942018e-19 
-0.480008861697107 
0 
-0.8110941719172068 
-0.03666426528627011 
-0.2992868257671063 
-0.1191077229113636 
-0.3315809350398622 
-0.6433926787560074 
-0.01898694261244242 
0.5785161813647308 
-0.2144609640541802 
0 
0.04004934403093902 
0.3026765686607289 
-0.02543277935397514 
-0.1668160849766373 
-0.06259403093411153 
0.2823977406639714 
-0.04442799273228404 
0.002951668194651217 
0.4224031433291587 
0.6138794404597356 
-0.02071844943236939 
0.2282783979276196 
0.006656322938399436 
0.06770766907612837 
-0.07880644261446493 
2.602085213965211e-18 
0 
-0.1077641735950353 
-0.0941388649964091 
0.1390791156682815 
0.02285352146901521 
0.2494208681024475 
0.04545085980250832 
0 
0 
-0.2987087895053649 
0.4180535880826927 
0.4359260497037484 
-0.7998692815684884 
0.01325063962126919 
-0.005037960728597508 
-0.04585899090224031 
1.734723475976807e-18 
0.3243819876124669 
0 
0.1750188753544973 
-0.002198733347432562 
-0.04789525187827774 
0 
0.04717455600408132 
0.4172490990031066 
-0.03326766279283131 
-0.9769991399872182 
0 
-0.3801816350479507 
0.02824536180340471 
0.01194298774161315 
0.7281624538013524 
0 
0.01195159958530141 
0 
-0.3548204548840835 
-0.6420991406406421 
0.5446838837077973 
-4.336808689942018e-19 
-0.086602933460995 
0 
-0.4222296225960537 
-0.04039945880707224 
-0.2137473139354953 
-0.4250696321743301 
0 
0.07385210453828064 
0.0226085914458975 
0.1760491742083763 
0.3381242869689414 
-0.2517979622453147 
0.01155770323773613 
0 
0.009294652662206354 
-0.5864175406000304 
0.01917535079684246 
0.5141983773257196 
0.01752853435977032 
0 
-0.1503398712554307 
-0.5479465837090063 
0.8212308823450826 
0.4812109992940912 
-0.159589529270017 
0.06989694406337385 
-0.05807721462048453 
-0.3411278204655387 
-0.008680143146276281 
-0.01162856763268362 
-0.1941933077249552 
0.004549802828081896 
-0.394032941486402 
0 
0.1143957837718966 
-0.3947476920116355 
0.07842701146752358 
-0.1494649578199733 
0 
0 
0.1402666674962963 
-0.3060856712680483 
-0.578412558631029 
0 
-0.620173104311148 
-0.01282810395488611 
0.1208638515071421 
-0.1098838846222239 
-0.0680933605443548 
0 
-0.01744929971687859 
-0.01803096264502028 
0.1958574482412005 
0.1449551391021628 
0.01731856365467974 
-0.1197969194566052 
0.1570265274402141 
0 
-0.2188301682177185 
-0.5965169124824388 
0 
-0.02368635396703752 
-1.469061671855986 
-0.2419068025968028 
-1.200932657299705 
0.01195590680994581 
1.664250567822126 
0 
-1.460153498120264 
0.3133283298495731 
0 
0.2327233347663372 
0 
0.3553631433352805 
-1.01439201421324 
0 
-0.05366837805983255 
-0.1554422385934939 
0.01558157232246895 
-0.1839836968590794 
-0.08560852361702932 
0 
-0.06584526852937279 
0 
2.062217075461466 
0 
-0.615626726835112 
-0.4310911738725062 
-0.6049925897781133 
0.02410528570474733 
-0.3680332929332256 
0.3199647243550906 
0.06490770531697333 
-0.939514757175004 
-0.0004510307207077086 
-0.3725972331050728 
-0.1512842204487423 
0.6285065420840281 
-0.006940447432767368 
0.3136816855403403 
-0.5037488666080397 
1.881615329955465 
0 
0 
-0.2578183578806062 
-0.2536361165711331 
-0.1002648021868243 
0 
-0.5259865005229623 
-1.734723475976807e-18 
0.02104285165465797 
0.1297074006181897 
0 
0.01322547461464583 
0 
-0.302545647439979 
-0.5087090714441304 
0.01355463819608089 
-0.0375310680295413 
0.2650335427886151 
-0.1348326370498049 
0.5057727258866426 
-0.4713752738795601 
1.033364752698841 
3.252606517456513e-19 
-0.4809860157772988 
-0.1191203278355063 
-0.05934873108381698 
0.753173776938771 
-0.2633429168888827 
-0.6055707454559942 
0 
-0.177502483629615 
-0.6682361255371232 
0 
0.3199938258080467 
3.011054965167648 
0.008674230589932861 
-0.02667510758830456 
-0.118790437364241 
0.09391235651469518 
-0.5030728587378255 
0 
-0.5295064416438188 
-0.008009690711722226 
0.4906149070824368 
-0.3589739693989357 
-0.005217701997328586 
-0.1797883613490855 
-0.8132465719234689 
0 
-0.1969674568771507 
-0.8027228612252846 
0 
-0.0488081016744654 
-0.3160233781585755 
-0.04115501364928421 
-0.2164285438300973 
0 
0.2307537839389665 
2.318451330258483 
1.723012394447664 
0 
-0.446428590785768 
0.8638955607900658 
0 
-0.5376941406097052 
0.178353955794525 
-0.8722336825151344 
0 
0.2135468021780929 
-0.02685127416248081 
0.009644278709461589 
0.03605582737698876 
0.05586889602402426 
-0.07061208493968973 
-0.2264208591700706 
0 
-0.08335487381976923 
-0.7334916060946212 
0.0799395701011546 
-0.08263379901453596 
2.618034667253265 
-0.04137035660297317 
0.5917041386778998 
-0.122980412129153 
-0.1815280699558739 
0 
-0.5242443158702577 
0.1225350449261986 
0.1269595974726457 
0.1347539278582272 
0.6249532224279194 
0.03624525262209127 
-0.4507383294944372 
-0.2616096132734813 
0.02425477233921805 
0 
0.5732136951441195 
0.1841732520426048 
-0.04533778355195196 
-0.9630221930438105 
-0.2715855060551262 
0 
-0.452454024960658 
0 
-0.3789077410265597 
0.1639371668311531 
-0.3795492621266755 
0.09306277162927883 
-0.03330314130594803 
1.197955560644383 
0.07782799667717055 
-0.3359921510342692 
-0.5310863422260356 
0 
-0.02404669757619656 
1.549035090533276 
0.01130988722901969 
0.1331118916439395 
0.4085903398580889 
0 
-0.06717130368634018 
1.623674486577675 
0.5386915990467944 
-0.07265429421094918 
-0.649676313388963 
-0.1967588990791987 
0.2935045415100974 
0 
-0.2465125257508241 
0.03051263106891504 
0.5993770350342317 
0.3205802973175824 
-0.6009076344266802 
0 
0.180884937134409 
0.1503773440139584 
0 
0 
-0.0006613672576774839 
-0.003288903489698862 
-0.4725915175859909 
-0.3024090308451247 
0.9493567387311328 
-0.01725963622853206 
-0.06010253613037694 
-0.5840792160560715 
-0.7763260276365089 
-0.1551828114078384 
-0.1585771313261571 
-0.3593748383215208 
0 
0.1874605484412749 
-0.001508496008754879 
0 
0 
-0.1589237193583427 
0.2601713475768621 
0.007112551044775252 
-0.1105448639754686 
-0.01968444898522865 
-0.04623901818567983 
0.3335275551555142 
-5.421010862427522e-19 
0 
-0.0566001709434794 
0 
-0.5089605204455729 
0 
-0.1145867169007995 
-0.03414828941765238 
-0.06627768520109309 
-0.06629680180019672 
0.0112635335642922 
0.2435504038865302 
-0.6599688022515321 
0.6731081217506126 
0.116992906715162 
0.007745290025206947 
-0.6585691454723194 
-0.02201165787194758 
0 
0.01022992992368649 
-0.2125889116064885 
-0.03934033073964682 
0.02834451967579956 
-0.04565883944147995 
0 
0.1105111412839668 
0 
0 
0 
0.07381060462097154 
0.02748334214145193 
0.7016719476758609 
0.2241010666923076 
0 
-0.5521583441523952 
-0.06437641732030848 
0.5285878083769943 
0 
-0.03758093965103037 
0.08346063764818586 
0 
0.3378441288894914 
-0.1798598155585194 
0 
0.04018582880105951 
-0.5233830969240552 
-0.18106537707713 
0 
0.1784901940729269 
0.06192414830543274 
-0.5874335394204466 
0.07112727578525169 
-0.07411035928584954 
-0.7848997401122209 
0.002625721192776268 
0.06597612999910327 
0.1692318242314672 
0 
0.01672142522992116 
-0.535816636016597 
2.186081608023657 
-0.02950266068301859 
-0.4627687303538258 
-0.009827899283160361 
0.2524514997548839 
0 
0 
-0.5418654543086925 
-0.2647086939264757 
0.1275572968870362 
0.02006115109409689 
-0.2526830958241483 
0.06659615793859439 
-0.3539556904478235 
-0.006039646881454679 
-0.6437270697556493 
-0.3596096325329234 
-0.2094637727747731 
-0.009156394064100917 
-0.08434547337988152 
-0.04088133608530616 
-0.02343774717366278 
0.003298175791962103 
0.218398687214967 
-0.002068316756653565 
-4.336808689942018e-19 
-0.3189428445067875 
0 
-0.3931215101322446 
0.3411650018163174 
-3.469446951953614e-18 
-0.01548207846785328 
0.003997590151842637 
0.05208349435180622 
-0.005543255303417811 
-0.8334541610984869 
-0.3303992619259372 
-0.07692187104596723 
0.01553004224417971 
0.01461772602112929 
-0.003929820812492148 
0 
0 
0.03101596749124629 
-0.1704843716503456 
-0.01812025305887994 
-0.3686400162586789 
-0.14623492510746 
0.007152762899910334 
-0.01778597238833422 
0.06706309934863154 
-0.08625036281976009 
-0.3225513428459322 
-0.5330825980704844 
0 
0.1434905651096416 
0 
-0.04561461833675758 
0 
0.4261277993293075 
-0.1457351722619942 
-0.1418395098966794 
0 
-0.4741274566097792 
-0.4176382309033018 
0.4781218090675855 
-0.2599610844273231 
0.4220252640918843 
-0.292426258373159 
0.1024287117562329 
-0.01404801242613387 
0 
0.1915666046479112 
0 
0.2934385219143572 
-0.294318894496515 
0.1109846590038168 
-0.4563975647485157 
0 
0.697150610376937 
0 
0.506104732722404 
0.0420440051727693 
0 
-0.6659085611953789 
0.0008193746384981184 
-0.2854937567913783 
-0.5712821901726813 
0.0371085117267654 
-0.6776681709349587 
0.1700007638567225 
-1.101381667091718 
-0.395879268641901 
-1.410112989674518 
0.006094085830333913 
-0.04117121049865538 
-0.02670211801990897 
-0.3092623992084286 
0.3670004042399125 
-0.00813376622312177 
-0.009114268550773085 
-0.03238019553969546 
0 
-0.7205183752921634 
-1.336517135470794 
0.3455666787890004 
0.008360879548571162 
-0.06636133492114964 
0.3283145396486214 
0.07961636953886743 
1.30261648183474 
1.580677988881563 
0 
0.06162738518881995 
0.01215206022512573 
-0.02204673770312588 
-0.1873970549862879 
-0.2425912093396561 
0 
0 
1.791828356078579 
0.01679698399963238 
0.2091744030561695 
0.27195590980793 
-0.07385856000668485 
0 
0.3257907302322304 
0.1748103065873896 
-0.1371412073854216 
0.04405259856734851 
1.310490414449337e-05 
-0.05297335930945629 
-0.6974811548624151 
0 
0.03167285943404205 
0.004582589001594771 
-0.6200214019133728 
-0.5116107152974421 
0.6248838632161071 
0.3698084934066347 
-0.3407204142342723 
-0.4210378498480774 
0.08816804121414212 
-0.1632877386673229 
-0.1463004229454153 
-0.5084668531060225 
0 
0.07895156995934093 
-0.005725611191120363 
-0.09028743567970764 
0.5934615800708544 
0.4672365994898695 
-0.09798734490812228 
0.1094911371521934 
1.301042606982605e-18 
-0.3074936520888765 
0 
-0.3876477646652694 
-0.002778121137130989 
0.07517005770151872 
-0.1643221556749388 
-0.0717799304386495 
-0.5212824678768063 
0 
0 
-0.5891284811255354 
0.1988817523404707 
0.004431771246295838 
0.1188236906074616 
-0.07450517333743771 
0.3485452254123282 
0.01407477496652684 
-0.114073172059899 
0.01990644462555077 
0 
0.009112227177749075 
-0.03920520632115435 
-0.3104011992402562 
0.1716532012509253 
-0.3787280603351986 
1.546782091828517 
0.08538931831690222 
0.03718912886047872 
0.05208540808313614 
-0.04421864542240439 
1.136484753027819 
-6.938893903907228e-18 
0.04857061395722705 
0 
0 
0.6849298226623598 
0 
-0.7167945055509817 
-0.07779591500640273 
-1.084202172485504e-18 
0.03257918679005651 
0.2076760870950535 
0.2255561642281669 
0.05481574400475588 
-0.5718385012284177 
-0.03355183087339056 
-0.1897670903946889 
-4.336808689942018e-19 
-0.01766732793872102 
0 
0.2198907490117402 
-0.6300716396230842 
-0.304829035515949 
-0.4491260333482983 
0 
-0.3603337966554199 
0.557186462261682 
-0.0548633668643768 
0 
-0.07685052662331283 
0 
0.08565972436690816 
-0.1985014702528629 
0.04956830091794995 
-0.04709623273797527 
0.1153844702984787 
-0.3833244776603544 
-0.02910148655040858 
0.03407243977098819 
-0.06863947511681134 
-0.1108534189908628 
0.093518775862028 
0 
-0.2701558482152903 
0 
-0.5596285578523136 
-0.2567193826345542 
-0.304216076604775 
-0.4365976621678751 
0.2461754025546088 
0 
-0.4245044352577781 
0.02114710946308414 
-0.1210786926229966 
0.4056223892798926 
-0.941271617831405 
0.05999361145294001 
0.1260895933757725 
0 
0 
0.05539533913429208 
0 
-0.5320292187358903 
0.2420044893547217 
0.134127264061266 
-0.1008466348011648 
-0.3579545787243167 
0.03865199771442802 
2.105769707689724 
0 
0.3338733571160402 
0.1329733516251582 
0.7265220831416253 
-0.8577509399136559 
0 
-0.3379866840896738 
0.0283935856743877 
0.05080169205354428 
-0.4064754914180234 
0.003051939936727719 
-0.1334316464070526 
-0.01856174529586314 
0.5253708605620627 
0 
0.2105309880418185 
-0.6449781338340137 
0 
0.01791488790136263 
0.09140473008578698 
0.2455042327714403 
-0.00728723177948529 
-0.1205859596538433 
-0.5624487054422224 
0.003375567003331058 
0.03668930409951239 
0 
1.722241778468621 
-0.03334584549368126 
-0.01306144305098819 
0.2681286324317487 
-0.339782139110952 
-0.1476599080032371 
-0.003700922748556389 
0.2861262946311532 
0.6343057937182472 
0 
-0.01023239724532685 
0 
0.05174203008996175 
1.084202172485504e-19 
0.006817411701737521 
0.01086505972860487 
0 
0.009337838554026954 
-0.2690003917615306 
-0.225938520160828 
-0.3145792503680392 
0.1169641684544539 
0.01217487420529522 
0.3189705293218961 
0 
-0.004162693995008836 
-0.1238720443455606 
0 
-0.2183455642100392 
-0.07367304162911255 
-0.5736675530460664 
-0.2241221861872275 
1.932603869882241 
0.06438180587903962 
1.734723475976807e-18 
0.6094753117018631 
-0.4215387963121981 
0.07206883539440927 
-0.00868365281700946 
-0.05809365753068974 
-0.02650042639938923 
0 
-0.05850387791630335 
0 
0.1374761337131969 
-0.5536487371239394 
-0.2469489309653251 
-0.4316087643404902 
0 
0.1166889157653283 
-0.2495566724716089 
0 
0 
-0.4063644201492811 
0.1731655933816354 
0.6326369149054636 
-0.02310981629339164 
0.7609065950764785 
-0.02101171937836225 
0.3204413728147902 
0 
0.3535296177932347 
-0.05617066842217188 
0.2537281557588142 
-0.0837801636663134 
0 
-0.03491193198008852 
-0.6252108140477544 
0.114316014552777 
0.01304074578696513 
0.06939738713806212 
-0.005011177326671707 
-0.01507102951554396 
-0.01095478133066646 
-0.01632893945449986 
-0.003634523906462697 
-0.2690976415272444 
-0.2171340354064711 
0 
0 
-0.2002705637975434 
-0.3495157888936301 
0 
-0.2685384972608547 
0 
-0.05060986269529057 
0 
-0.314824074831315 
-0.02685800327595214 
0.04790942354794744 
0.1910372915984555 
0.525020114194369 
-0.3518772433044956 
-0.4368490523596643 
0 
0.04447774120793722 
-0.003508074933110522 
-0.1305037035956262 
0.1953103613107134 
-0.07384224619021111 
-0.05810298589089697 
0.1940460561371317 
-0.064618908142775 
-0.07324393630630134 
-0.5165066979700402 
0 
-0.6313927075931127 
-0.06114527376502326 
0 
0 
-0.1801245449555803 
-0.01007295530156128 
0.008923578617134045 
-0.009381373860493335 
-0.9488182676853024 
0 
0 
-0.7841634967885737 
1.050029513238515 
0.3843702916912993 
-0.05039052599309933 
-0.07377700032680037 
-0.05685225087213327 
-0.6465905587940777 
0.1155921996114626 
-0.280394663186032 
-0.3251008736741643 
-0.1661651509404841 
-0.4561165003557685 
-0.0531193251658376 
-0.8039913388665908 
-0.002844494678229269 
1.484968314672331 
0 
-0.1900513426801299 
-0.09816608874429193 
0.127727951969438 
-0.2066818798050054 
0.02324763597129605 
-0.3790537592707053 
0.1354550484325256 
0.1534064319449427 
0.008791485133488021 
0 
-0.07017291841689573 
-0.1333700422192466 
0.2310393585056739 
0 
1.248295005731711 
0.1063301746355691 
0 
0 
2.168404344971009e-19 
-0.2404408001640943 
-0.2804530551332119 
-0.5600664808529813 
-1.700838470949732 
-1.075869910422985 
-0.1553168781576889 
0.715582425533108 
-0.6302791295624615 
0 
-0.01664801830787456 
-0.1123989260064515 
0 
0.1642757703635128 
-0.6227968001302979 
0.1339053267391851 
0 
0.4219461665352972 
0.2683445500450599 
-0.6048087237419842 
-0.6826330879406187 
0 
0 
-0.2023673721082596 
0.3926136705352029 
0.4618898876998182 
0 
0.5483285300079398 
-0.2707125537744178 
0 
-0.0236291283358359 
-0.2313015477413643 
0.002992088738889882 
-0.1216409737175496 
-0.09624427738211525 
-0.1542111664518603 
0 
0.2862026205725702 
-0.3279167047311453 
0.07831780814544614 
0.9407502637187208 
0.02050459793222897 
-0.08171192477044172 
0.3628095374275641 
0.1699687698086512 
-0.6259946953448651 
0 
-0.2881620914121492 
-0.3789530262589399 
0.1147453747746344 
-0.09076970264616054 
-0.1795740927098151 
0 
0 
0.009632596779833427 
-0.2555157697155451 
-0.391910781690013 
0.01919480875988497 
-0.05186405337780737 
-0.03579172378649451 
0.5241908505327756 
-0.08870379929901424 
-0.0254936158940091 
0.1229827048159582 
-0.8199231921900966 
-0.3217159386827145 
0 
0 
2.006791282969169 
-0.4653153200813332 
0 
0.1220819588367836 
0 
0.1621774520583428 
0.08315966519625141 
-0.09352163385211183 
0.5542532897159765 
0 
0.1687761939242299 
0 
0 
-0.01723908356812932 
0.7374433069573645 
-0.6660592145133389 
0 
-0.001707595833411073 
0.7347598931252215 
0 
0.01281632436790591 
-0.05742495518519006 
-0.03082477798269614 
0 
0 
0.3874068942398251 
-0.8795926330049055 
-0.4215039280486481 
0.3629220797512619 
-0.2138647100838526 
-0.3279534187539825 
-0.001036791836860179 
0.1597849451023957 
-0.004984434692694136 
-0.09827381318308365 
0 
0 
0 
-0.3775747707027758 
-0.003070381578593351 
-0.00729262184514422 
0.08773333015730456 
-0.1523704198171963 
1.997732965248079 
0.004531406177827912 
1.024206027346868 
-0.8296053645929897 
-0.02666277376328924 
0 
0.007382831299350215 
0 
-0.1080528058501085 
-0.2668766631495579 
0 
-0.2931326634925143 
0.07340970607313262 
0 
-0.001361997335738013 
0 
-1.539452356027454 
-0.005486397564544993 
0.01525925957559713 
0.4246152935839769 
0 
-0.1447331024735208 
-0.003830978923668087 
-0.3597603039178464 
-0.3229239429561554 
-0.02771122883674048 
-0.001514199897263958 
0.02420684316782149 
-0.3257442381811256 
0.1217522092271472 
-0.4867452876364137 
-0.2199081175934597 
0 
0.06860743923265294 
0.01837737446621861 
0.04202054071780538 
0 
-0.02521202890175905 
-0.9239103980022674 
-0.5222075778822136 
0 
0 
-0.04131644175859204 
-0.3026459341951152 
-0.110185939161437 
0 
0.1636098498584956 
-0.1291619950054888 
0.1014345746620958 
-0.5705314286552786 
-0.4662989773307167 
-0.03197433697376644 
-0.2619560724266561 
-0.1103177684558676 
0.05551885258610754 
-0.5099920954117677 
1.936203289941549 
-0.1554178330848607 
0.09671044321808396 
0.07983473418409934 
3.252606517456513e-19 
-0.06360462296991255 
0.09452656429098852 
0 
0 
-0.2583971038655712 
-0.1423680756797601 
-0.1939190311649318 
0 
0.9260691110283868 
0 
0.01608488594833624 
0 
0 
-0.4295168560348759 
0 
-0.7483766728153406 
0.07165457157457356 
0.1460165663184396 
0.6571701823265271 
-0.7136816204031328 
0.2463973109086646 
-0.001213837796144278 
-0.01142222945877265 
-0.01326400506091945 
0.4279702324229625 
-0.002996241574085991 
-0.06497545838739958 
0.3090273260271975 
-0.1494147515657519 
-0.4403765432870225 
-0.7840976218265968 
-0.6453160479126533 
0.1246574350665959 
0.02831705191922421 
0.0497120826119439 
0.1490127511297981 
0.006604601249752311 
0 
0.3824190570165573 
0 
0.1290546105247977 
-0.05528289015598651 
0 
-0.4981022495745495 
-0.2007014011082407 
0.9864820206624094 
0.312216887544928 
-0.2428438735853121 
-0.2816184281611026 
0.01522538075184995 
-0.3712868822839834 
0.4605452800112467 
-0.3413760958355127 
-0.02408287751247355 
-0.1304705402725811 
-0.5910999930616504 
0.06402905652962128 
0 
-0.1710398394564917 
0.4288125484792242 
0.1352317621888738 
-0.2650109979067205 
0.1051026849892579 
-0.7239408240233007 
-0.2333830008616329 
-0.009517836462043731 
-0.3376451338045953 
-0.00218946597189539 
0 
-0.09196949589109703 
-0.7276483510118199 
-0.1337328196769254 
-0.07918236214939912 
0 
0.09316057027105798 
0.7744538660583965 
-0.0198306271252414 
0.2121158645823291 
-0.4066128637225274 
-0.002671050841592166 
0 
-0.2688080019374172 
0.009863522721845562 
-0.4141417201881522 
-0.7002645418698548 
-0.544791835037542 
0 
-0.12384397107665 
0 
-0.3835280933435383 
2.168404344971009e-19 
-0.001955245587795591 
0.0621565750276476 
0.2662763444149113 
0.1044714982661676 
-0.2076034093013931 
-0.001521335356404987 
-0.25529573375617 
-0.02163225307092147 
-0.1625046773258538 
0.5681085061757559 
0 
0 
0.005125482304122595 
-0.1094504076748138 
0 
-0.1312782273488176 
-0.5210641196900738 
-0.8525299395403715 
0.07585253619510565 
0.9750524449578138 
-0.2835946824744925 
-0.1229760928351424 
-0.5473557448654151 
-0.4786858770851191 
-0.3778702144751205 
-0.1352471331538142 
0 
0.01887412461591302 
0 
0 
-0.4495290297119327 
0.3869479524592526 
-0.04197634202030631 
0 
-0.2177118160625097 
0 
-0.03851338507422147 
-0.4273695993133331 
-0.05988071035900542 
0.4668578467892985 
-0.3530202922656216 
0.2026116813625273 
-1.70933219038555 
0.03167873614701387 
0 
-0.4727635402979076 
-0.1176629859569272 
0.2480264305261361 
0.01667571686450946 
-0.2124838677393562 
-0.005555657220360652 
0 
0 
0.00448116828602003 
0.192255002770566 
-0.2290202061319524 
-0.4866919468425037 
1.028305393294471 
-0.1902665117417429 
-1.004673068272342 
-0.01116646326662399 
0 
0.005636882119322503 
-0.6591384731141672 
0.008760397077349902 
0.3137025326976729 
1.084202172485504e-19 
-0.06265636307034536 
0.223877427059387 
0 
-0.1951480552108885 
0.06000540802023867 
-0.003232816133482319 
-0.0008765626053388806 
-0.06429083222160262 
-0.06697001007154954 
-0.05782160856389202 
0 
0.1034835676670589 
0.06800789661770462 
-0.1562610224603271 
-0.02790427651979334 
0.3559912585547277 
-0.05600635100313814 
0.03858049511360155 
-0.06449911177964458 
0.0003130711687430714 
-0.01575137840911138 
-0.003849660040315732 
0 
-0.6221726446968614 
-0.3124631509356819 
-0.3977063642371271 
-0.1224476097880897 
-0.0008184928950118344 
-0.2398508950911258 
-0.02510727997733286 
-0.06991655721714142 
0.02014270646229306 
-0.2854222123819994 
-0.1943371239058809 
0 
0.8495436294158215 
0.1996468839048993 
-0.1991900785751291 
0.0005129299023854933 
-0.4305487741588039 
0.1246739556367218 
-0.5066253996340652 
-0.02025382911539418 
-0.7662918956413171 
-0.0122506656591065 
0 
0 
0.1812477539371616 
-0.2684937390549384 
-0.6369557778176251 
-0.2429465274726609 
-0.0164057458741013 
-0.5424497864861337 
-0.1295022398127465 
-0.001900182120781531 
-0.03400913872749479 
-0.6137825995117993 
0.1059894651321215 
0.1125997198436765 
-0.3550628792864798 
-0.06080076078940615 
0 
0 
-0.2064879891364074 
-0.03269963290979445 
-0.004670036309289721 
-0.2266380347317071 
-0.1557889022204059 
-1.0846366046607 
-0.1247989549033827 
0.06436131182269526 
0.006693259406805058 
0.3823007299301638 
-0.102211437325936 
0 
0.01949477965971554 
0.1342711704537944 
-0.04540837046141146 
0.08714103268550433 
1.158195802482958 
-0.317841349806965 
-0.06872845211310831 
-0.7547315555572025 
-0.5498793362532171 
-0.1168144928164319 
-0.204740974481611 
-0.005596976610529796 
0.03167283537965989 
-0.02766744247887325 
0.1379342151733405 
-0.4446762478003008 
0.05919358348399695 
0 
0 
0.003369205355236454 
0.9556334152398437 
0.194235256153652 
-0.1267826410494262 
0 
0.01048103221692158 
0.004898670235222001 
-0.2766204561234744 
-0.001348436816973458 
0.5477807012927634 
-0.1280348984338405 
-0.01049123109847725 
0.2409899498601259 
1.53588445098955 
-0.3864201918540279 
-0.4152802299521601 
0.03972713733497551 
-0.06029919564271364 
-0.3408081822471427 
-0.0715431138243979 
-0.04136369756372799 
0 
-0.44537372323247 
-0.001712755457709518 
-0.373371508061219 
-0.06230390131854519 
0 
-0.01736332992090215 
0 
0.02144891398100385 
-0.003198604540413038 
-0.1564399043803347 
-0.222464856907305 
-0.0235841017026585 
0 
-0.0878104519549766 
0.1543778410730905 
0.05949566816658099 
0 
-0.1806534956895694 
0.1845256270702186 
0.001235159162903908 
-0.02210103502837037 
0.5597312884382251 
0 
0.05439321704461877 
0 
-0.4858496053273871 
0.4071267320648899 
-0.3012415481952194 
-0.4802913476498794 
-0.2454604097507509 
-0.1023191700366694 
-0.3926248994297987 
0 
0 
2.084913028798288 
-0.1837791601541606 
-0.6788942756488593 
-0.3230452309434983 
0.3965531242705982 
-0.2114976095596238 
0.03152582232433711 
-0.4325529362329439 
0 
-0.0005199486320465372 
-0.2719892089577418 
-0.4202727386205908 
0.00498163259838737 
-0.1641846609441811 
-0.2067405579891989 
-0.2071471792086797 
0.07156823909009234 
-0.04834018558761927 
0 
-0.6116187383948058 
-0.2861300346946999 
0 
-0.04496425413571764 
-0.1053728480272079 
0 
0 
0.01838929368588722 
-0.125669360184147 
-0.4339248620008504 
-0.02983851390166752 
-0.2342783388139494 
0.01598145594136738 
0.06627831233630345 
0.03292713890647486 
0.1794999819454578 
-0.1130496564826888 
-0.1861196516200311 
-0.605997756897991 
-0.02219249788338495 
0 
-0.1238827514703713 
-0.2320442312099604 
-0.003317187488360581 
-0.8706250140944893 
-0.09863143543245509 
0.3718874182452371 
0.01055892780261213 
0.04160987288317122 
0 
-0.02230838434086371 
-0.08471664035941223 
-0.3311046520264481 
-0.09035700053789562 
-0.1800045741589826 
-0.3468956892811179 
-0.1820400309757389 
-0.08710678331603086 
-0.01229285611198204 
0.8360529756312646 
0.3392040893539675 
-0.002442515902052501 
0.06715672812347852 
0 
0 
-0.02035409041514797 
0.2186034133176525 
-0.1660271269884309 
1.107332633659194 
-0.434178370740909 
-0.005583327844993284 
-0.6909427941206098 
0.1111159023700637 
-0.6950778287815309 
-0.2016774771606072 
0.01210955229563949 
0 
-0.4669089126831977 
-0.03309651721943546 
-0.2356605226978957 
-0.4171584549407213 
0 
0.2859321980580495 
-0.1413364055410721 
0 
0.03451157929988466 
0.1307382167743434 
0.06041854136601294 
0 
0 
0.1062405180615098 
0.01558289227241104 
0.07592638003263233 
0.2093930296939656 
-0.03958579014451901 
-0.4118530508315228 
0 
-0.4664483320981908 
0.04925223027659496 
0 
0 
0.1020784369418607 
-0.6335751024990449 
0 
-0.8085735928247078 
-0.430520388210602 
0 
-0.2726943533924402 
0 
0.7361317925716351 
0.1274856744362388 
-0.02671780427890593 
0 
0 
-0.08183864212656973 
-0.2988150731922705 
0.008782924895240423 
-0.9422528529837034 
0.02952919809520881 
-0.2868672218537955 
0.0199777249459026 
-0.002476159508810235 
1.649452793171607 
-0.5528798423728161 
-0.1107625923234761 
-0.07243120574674052 
-0.2893553347309536 
-0.0006819667719800875 
-0.2262601817842697 
0 
0 
-0.2642919294075222 
-0.3329930016271789 
0 
0 
-0.3750470977396921 
0.04835022709448779 
-0.002756812964016764 
-0.271308523644428 
-0.07402377845482745 
-0.06225029791475133 
-0.4105969321247811 
-0.3366450223812167 
0.4857972587521509 
0.1880793426320659 
0.496905862013104 
-0.3309823934147001 
0.00521815487699779 
0.3936275615575816 
-0.1694461606997485 
0 
-0.207795926468983 
0.0378195026822784 
0 
-0.1056701884899932 
-0.6694363675955608 
-0.15285720438602 
-0.5962706230354484 
0.146895078183926 
-0.2727935566238735 
0.09856462025137951 
0 
-0.08077907570809756 
-0.06146735179522057 
-0.1294093557696593 
0 
0.08007939464066052 
0.1945409573477659 
0.009889411623758938 
1.866762425920276 
-0.6879615758179221 
0.09831863642258806 
-0.1004701484877172 
-0.01205471944859915 
0.0547060062408949 
-0.04914255364086568 
-0.1317308718612749 
0.2631607068198583 
-0.1734271711630832 
-0.2783539452454276 
0 
0 
-0.1364618413861652 
-0.1464139724078726 
-0.1706442547932246 
0.004050203956983995 
0.5804432041865093 
0.02609265301377714 
0.002374511788803949 
0 
-0.06021751996600424 
-0.1340272890921038 
0.02132625080970973 
0.1865717711898557 
-0.410179713472654 
0 
0 
0 
0 
0 
0.2307445024603055 
0.2802913395583175 
0.0831458191890639 
-0.08542446374611994 
-0.5365559623702288 
-0.4589449593870819 
0 
-0.223901616589392 
-0.4496395351942019 
0.001989783053082897 
0.003189245315729635 
0.3229242540104731 
-0.02775629837552811 
0.2112236637260706 
0.03887778447880045 
0 
0.1830712333479277 
0.02898468345106597 
0.01330958424328804 
-0.09674274317496119 
0 
-0.6823480096744523 
-0.1429649815678454 
-0.09234130243799574 
2.358248004007226 
-0.1358358849420972 
-0.01564184123429107 
-0.02139147970243219 
-0.3622243999383055 
0 
0 
-0.06086191816511748 
-0.06054014891924692 
0.07543748090526847 
-0.3036979407724034 
0 
0 
-1.166035066477081 
-0.0517224290053459 
-0.8688079467005243 
1.696606026253973 
0 
0.195452095014327 
-0.1400061947994251 
0 
0.2058260023229146 
0.07157244358361883 
0 
-0.06750802096929046 
0.5044516628151017 
0.2515329524830453 
-0.08835241178164541 
0 
0.3271570715973015 
0.08599241768787613 
0 
0 
0.2686282708204896 
-0.06595579508138627 
-0.05308298433275065 
-0.2998138766801196 
-0.08140955169220422 
-0.01188970171679634 
0.03837964680000378 
-0.01254178810989772 
0.1863176584955383 
0 
0.06209212842340191 
-0.02516846168643647 
0 
1.221020507017222 
-0.04125120085276591 
-0.5621803453932539 
0.008117913044548909 
0.419417703373724 
-0.2248613597822079 
0.3190713098476553 
0.08274360917730318 
0.1988540775149031 
0.3192230762104851 
0.02638571081903127 
0.9835998642594156 
-0.06416688609543991 
-0.2004407522437252 
0 
0.1807362463762065 
-0.190005056697117 
0.3587795520143845 
0 
-0.1301397956659054 
-0.2900184148650652 
-0.0143465347519221 
0.256139733862894 
-0.4082991310207216 
0 
0.299690732014369 
0.06596021462416916 
-0.1125518770013331 
-0.4944978980361195 
-0.1172859658937464 
0 
0.6009389807515039 
0.3940072594449408 
0.01598375910851126 
0 
-0.072652269258873 
0 
0.066581929260777 
0 
-0.1488794619782803 
-0.3285233020539176 
0.1814517530393116 
0 
0.001297629091704486 
0 
-0.4290000709548271 
-0.3304772648796942 
0.388610673310617 
-0.04340324419349716 
0.03667436226448721 
0.0009180819567951015 
0.02690556289328096 
0 
0 
0 
1.779938218680829 
-0.3119835038384394 
-0.2320722293657238 
0.3918642842430968 
0 
2.168404344971009e-19 
0.7803564102134859 
0.2061004441518122 
-0.09417077732191147 
-0.03242192113782808 
-0.2520132146826394 
0 
-0.2204230455114213 
0.7786936255400303 
0.66564866225763 
-0.2579496183930735 
-0.572509408450067 
0.5000466658802125 
-0.05069400241931903 
0 
-0.1408557121004444 
-0.004482167289725314 
0.5173787059411226 
0.03535339402200331 
-0.0008125048006263427 
-0.3852113727451315 
-0.05136130204751015 
0 
0 
0 
0 
0 
-1.734723475976807e-18 
0 
0.03164648447896988 
0.002069993391028404 
0.2721491305539815 
0 
0.01645541081119934 
-1.273551951985062 
0 
0.07580093613822092 
-0.02246832115648502 
0 
0 
0 
0 
-0.165294414620856 
0 
-0.2909708674134854 
0 
0.7356566428863855 
1.421950148349716 
0 
-0.09742878257126447 
0 
0.08571660260913011 
-0.6851128673823647 
-0.1217592280053611 
-0.01013366939784135 
-0.160925619894928 
0.04154830603308433 
-0.2472113147018232 
-0.07313330770451137 
-0.2559715842915511 
-0.3887778301021212 
-0.2318593999690889 
0.08249510465779408 
0 
0 
1.351767233543937 
0 
-0.01601613596599927 
0.4653194010364448 
-0.2044680980292808 
-1.239127148796543 
-0.6034504224000805 
0 
-0.00755840698300094 
0.02852095596484422 
-0.536388919967298 
0 
0.07217228724499647 
0 
0.02901201491434605 
0 
0.01598700096498324 
0 
-0.1450032609266406 
0.1306615979125507 
-0.1652213652668001 
0 
0.501425107665771 
-0.5670447552045011 
0 
0.5136446234129149 
-0.01993471136612807 
-0.01110836743649231 
0 
0 
0.01272871683571198 
-0.01087417088703366 
2.059984127722458e-18 
-0.02734371983480408 
-0.5032399300990813 
-0.5624771408555708 
0.0833670413887054 
0.1769003270344165 
-0.6315547954021058 
-0.8768393906092317 
0 
0.1162492963451285 
-0.1171582130359776 
-0.0001020295127258544 
0.8333493754864935 
0 
0.253689228388112 
-0.5475541527145585 
0.01316165700955555 
-0.5425014673608083 
-0.7427978386294164 
0.3765672737078031 
-0.2370825446796726 
-0.2358142449587478 
0.1697237223907405 
0.1614381146420384 
-0.006215483873116099 
-0.07195510879628256 
0 
-0.2238287238268933 
-0.1774940097364343 
-0.1468640774069963 
-0.03177573249680184 
0 
0.01176722544772346 
0 
0 
-0.5016647220920206 
0 
-0.01198952613136039 
-0.05113932419073369 
-0.04974322868500262 
1.794764887015101 
-0.09622479232765911 
0 
0.01292065756344323 
-0.03086636115527147 
0 
0 
-0.4223420193115919 
-0.04323699800627552 
-0.1239534263773201 
0 
-0.0052585653195245 
0.1200902442156698 
-0.03987950607694461 
-0.1723904471139312 
0 
0.219369245425733 
-0.02828089612745741 
0 
-0.7385650951671149 
-0.5967627644222258 
0.03498743454046421 
0 
0 
-0.5697445376462097 
0.01429150527756114 
0.1114408548335876 
0.0260437507244588 
-0.01322688980578419 
-0.6148881348903236 
-0.3918011311710914 
0 
-0.3095437120575125 
-0.004398045411008508 
0.3078215146344353 
0.3959555651466558 
0.003523479127506689 
0.234413615643989 
-0.4327117502621443 
-0.08369523378169302 
-0.242950682405678 
-0.1244004891858054 
-0.7071595999658162 
-0.960733387438848 
0.03608868709757861 
1.150041715076474 
-0.204897076059723 
0.2048198310068484 
-0.09324498709084446 
0 
0 
-0.1175592071226993 
0.01535542618255454 
0.4241425843409533 
-0.1677865773620683 
-0.3979917216991922 
0.07610850823855334 
-0.01295304180291675 
-1.070995189561385 
-0.4308024332916054 
0 
-0.6165189756101757 
-0.5376440300971647 
0 
-0.5009674631953611 
-0.1175512167428042 
0.5448484224642476 
-0.1263434951633995 
-0.1276276681985595 
-0.822648136501386 
0.0007860020957008659 
-0.5811639950902034 
0.1139735851448573 
0.008440594179576362 
0 
0.03507846397164749 
-0.07976107881048398 
-0.5069390921271433 
-0.1656199769989143 
-0.04781197526636195 
-0.4975380968924283 
-0.0461299133197604 
0.04747127443812158 
0.132702306770946 
-0.5899500939451794 
0.4216623551046462 
0 
0 
-0.5777439716113976 
0.03741326785491206 
-0.03652713209788082 
0 
0.005097832215137183 
0.05750244484721866 
0.495783060541565 
0.2829895163671524 
0.009834969079007676 
0.304556792902942 
0.1248706633240846 
0.4319637164981807 
0.3043754738175572 
0.7635265108462772 
-0.4547223414570378 
-0.4403289805846974 
1.194291951855543 
-0.03569860379541031 
-0.06516859098000087 
-0.9947032433914358 
-0.2894751245680929 
-0.6609681572601677 
0.4576963514245241 
0 
0.08524772444756006 
-0.2124660843613659 
0.3313260466481249 
-0.5129944201650883 
-0.1047078805045878 
-0.06989086927675106 
0 
0.3361877767180506 
0 
-0.3138160414850439 
0.1133221302181226 
-0.4127981189465185 
0.206508516640838 
-0.2376637355273107 
-0.2548900781283314 
0.002083679746561247 
-0.02004814689787963 
-0.7439466121972369 
0 
0.0742272120510572 
0.1947736930236974 
0 
-0.2138166175124129 
-0.6373418495365255 
-0.09824699432872708 
0 
0 
-0.5350847883117642 
0.01489645903115579 
-0.2002406128759796 
0.01577363956490806 
0 
-0.2220454986637261 
0.3023515624404331 
0.03032084148363187 
0.231234336975769 
0 
0.03628110748754795 
-0.03178531255806526 
-0.4155067580418501 
0 
0.008769849540416156 
0 
-0.2786501335788855 
0.006908791919574381 
-0.01671128251993725 
-0.04033123855726033 
0.008418133009709576 
-1.465571297255288 
0.01795952480717791 
1.380884767526731 
-0.1917103745524473 
0 
0.5938843233467167 
-0.1279442956573086 
-0.02572106347060392 
-3.252606517456513e-19 
0.3971591753441343 
0 
0 
-0.2002551164536855 
0.03438555460623612 
0 
-0.03664253058647386 
0.0767898209132709 
0.1047530966968287 
-0.4216409510087919 
-0.09155082613077703 
0 
0 
0 
-0.07906026141568542 
-0.1759413896386604 
-0.5057861531254398 
-0.3369121480114214 
0 
0 
-0.02175704681289429 
-0.8086955596777107 
0.404695442072354 
-0.1089444706535818 
1.213921446007277 
3.469446951953614e-18 
-1.084202172485504e-19 
0 
-0.01254041193723321 
-0.05353682345519566 
0.06224736086664331 
0.5844014558781901 
0 
0 
0 
0 
1.151845223753309 
-0.4538816691490262 
0.09182147715802597 
-0.02754308933838866 
0.4222964457493112 
0.2956762284606297 
0.1149509719554819 
0.7925095192311749 
0.08511184744027768 
-0.04748233559514958 
0.009891318072205014 
-0.1028934429248276 
0 
0.003201188663601128 
-0.4226278325593217 
-0.1466102792450842 
0 
-0.05923236374403073 
0.6203627969393558 
-0.7414141707175387 
-0.1782417968329073 
-0.2381465971581852 
-0.01209454971757921 
0.09082238568600974 
0 
0 
0 
0.2364866996256134 
-0.09643436433185304 
0.01041617269687628 
0.0582061705148741 
0.04120394175026199 
0.4761565849413942 
0 
0 
0 
0 
0.01336034954513004 
-1.485398250955216e-05 
0 
0 
0.03388088470060369 
0 
0.02626659776261919 
0.05407738243421278 
-0.3507396307011822 
0 
-0.1590539676309029 
-0.1379945101677817 
0.2473955346098141 
-0.08657449764835598 
-0.2562574335179644 
-0.004234020938114912 
0.0645634370759916 
-0.8927382947594238 
0 
0 
0.1387297930945038 
-0.1393921900403287 
-0.03797181964095309 
0 
-0.3699912464761187 
0 
0 
-0.04941775379960706 
0.742675146318919 
-0.04419458569070094 
0 
0 
-0.4448854466412732 
-0.05751999437013088 
0.9566086326549892 
-0.3524693778889802 
0 
0.7477360049346731 
0 
-0.2141970727653182 
0 
0 
0 
0.1357843256122934 
0.874397964063797 
0.6825569739389955 
-0.05994983715197595 
-0.2033788165283602 
0.1409438425158469 
0.2047252595125427 
0 
-0.1091906917910049 
0 
0 
0 
0 
0.2026246660112879 
0.149809114255303 
-0.1848965829841553 
-0.6406739403187587 
0.3834633070185866 
-0.03957920564141475 
0 
-0.2922045940341734 
0.006961672632113426 
-0.04199261158966357 
0 
-0.0172444855527577 
0.8606950115908958 
-3.469446951953614e-18 
0.07485289213871002 
0.08686652908652577 
-0.01060465573975849 
0 
-0.1474835860114783 
0.09603945508800338 
-0.02421367453319411 
0 
0 
0 
-0.1464740125824014 
-0.156697341519574 
-0.09944777777590758 
0.1380150444584775 
0.04370779422441437 
0 
-0.2727709849223244 
-0.0816704573085886 
-0.2984844859135757 
-0.2183805546175425 
0.06697276672869557 
0 
0 
0.1152030454593706 
-0.1726127121059729 
0.1067207788041752 
0.01126328238032447 
0.2833748358839245 
-0.06451206170054542 
0 
0.3471566401196243 
-0.01026720311483075 
0 
-0.004366094146606192 
0.122220211254222 
0 
-0.4687616273329708 
0.02489100180209559 
-0.2161398118076213 
0.2074634605118397 
-0.8019474597121601 
-0.005058959210366523 
0.0448472326726856 
-0.02198070824568399 
0 
0 
-0.2055001641747521 
0.1525296996767877 
-0.1762321539988109 
0 
-0.1407035045063751 
0 
0.1468038937635355 
-0.3142689285650153 
0 
0 
0 
-0.5320312532073036 
0.03245424120135449 
0.05864535163834006 
0.02018836029986618 
0.3388767059895123 
-0.00630570790735598 
0.2838342342813543 
-0.05739591726660889 
0.160960415625324 
0 
-0.6470393083437234 
0 
1.441405043129883 
-0.3762035311527655 
0.005187558690369792 
-0.07929199903765764 
0 
0 
0 
0 
0 
0.2185142961788447 
-0.1916195994081418 
-0.2777620305749053 
-0.04077970131342474 
-0.2490975063692547 
-0.3996073724260282 
-0.2578520888403162 
0 
0.1829327117731825 
0 
0 
0.5747448124285413 
0 
-0.04284483013750039 
0.1220757764077343 
-0.0555929046421404 
0.08331999527712002 
-0.09562467067556438 
0.04838326085735674 
0.04067959728024956 
-0.09843984365114231 
-0.5709903531890704 
-0.07585369861300152 
0 
0 
-0.3008705343822677 
-0.138471536593456 
-0.08396479443554604 
0.7546886717679933 
0 
0 
0 
0.4900836576116978 
0 
0.07114574690716718 
-0.01769435357030528 
-0.5253187853579275 
0.01003133090155485 
-0.0001691146476660232 
0.2225909874567091 
0.1044345251950365 
-0.2409451430316938 
-0.2289220136449432 
0.0216343623406743 
-0.2687200571132308 
0 
-0.08450238764374908 
-0.0006638055820096077 
-0.442793434993615 
-0.6540496449819774 
-0.003091044463304742 
0.3603157082427255 
0 
0 
0 
0 
0 
-0.00349209905808227 
-0.3019671783028615 
-0.01116585205599974 
-1.734723475976807e-18 
-0.08861360543063967 
0 
0 
0 
0.3123716309668001 
-0.2692704704218672 
0 
-0.004497775566783677 
0 
-0.1200855311501792 
0 
-0.1410333853645876 
-0.2342808319367643 
-0.3101463056494825 
0.680381711331459 
0.2087136698145054 
0 
-0.9792526651322502 
0.03178809420007535 
-0.02218706400350585 
0 
0 
0.2364161993421709 
0 
0.2299433512930416 
-0.04622997731999699 
1.786645629882897 
0.3736707177588432 
-0.05229531163466744 
-0.08283283028201578 
0.5604227476216189 
0.009020786312030991 
0 
-0.2468469943757765 
-0.3327040185003544 
-0.3278873555499063 
-0.2529389858843702 
-0.224066211025356 
-0.3413023394542522 
-0.005275358962601463 
-0.1013069746510868 
0 
-0.2290012123239121 
0.07258486847768156 
-4.336808689942018e-19 
-0.08531109814563909 
0.8802046283918711 
0 
0.04399880760723474 
-0.06862328846389036 
0 
-0.1841528745153752 
0 
0.06165690295583202 
0.05046466118470739 
-0.5451465503040311 
-0.2459532414731496 
0 
-0.0126134030887521 
-0.06173950533654355 
0.6875235674611033 
-0.1109782742038144 
0 
0.0342461257961672 
0 
0 
-0.2105076159678086 
-0.2397171976003029 
0.0008188306069324328 
0.3553234765697548 
-0.8311109758157923 
-0.1273760292310137 
-0.4847870713513613 
-0.1990458946149841 
0 
0.01490825703539954 
-0.002904602484686724 
-0.04664454183971417 
0.07724335530664066 
-0.1530994151216955 
0 
-0.02393303944304293 
-0.1466828909425344 
0.1708173199686003 
0.2653292241863684 
0.2723076332115373 
-0.4228873575819897 
-0.08218989947638738 
-8.673617379884035e-19 
0 
0.2383184189216952 
4.336808689942018e-19 
0 
0 
0.1360827075711486 
0.6066490860728627 
0 
0 
0 
-0.2566862324651932 
-0.8291757019852385 
0.3628609416061572 
0 
-0.1808439957207345 
-0.4657496500064837 
-0.07245243525963381 
0.146598439225022 
0 
-0.1795873516557635 
0.01095887178939943 
0 
0.0559033112334279 
-0.3898365921394896 
-0.0004034733806380929 
0.4885035182426028 
-0.2427944329717135 
0 
-0.06241034366059245 
0 
0.06759989153155962 
0 
0 
0 
-0.27331750869182 
0.1845931404894096 
-0.3042551028413316 
-0.09937625773484182 
-1.450812912044086 
0 
-0.02496141457750667 
-0.3245986686740326 
-0.6536998444155933 
0 
0.05991805178240293 
0.1060851754983875 
0.2278564575378544 
0 
-0.03655884972012817 
0.1208201180597978 
0 
0 
0 
0 
-0.1921498445698993 
-0.03389338324559468 
-0.003355872668842208 
-0.02217514842920197 
-0.00489695344013338 
0 
-0.2107744411145666 
0.01565551678497332 
0 
-0.2771142661420275 
-0.1747386642790007 
0.6107354715603099 
-0.4809488080359713 
0 
-0.004988629554604827 
-0.5877246288071214 
0 
-0.005145386405356679 
-0.7251961873578047 
-0.4407721769166592 
-0.2684570206605644 
0.05178384793680881 
-0.1893433634743933 
0.4006584343631409 
-0.2600502095460728 
0.08631030592108742 
0 
-0.3979805283382048 
0.03160930681398902 
-0.0726364072543919 
0 
0 
-0.01319082552660873 
0 
-0.1956894502064559 
-0.3150578429327949 
-0.1393623361646342 
0 
0.4874832098019732 
0.005046151392413566 
0.004444552140632077 
0 
0.1719993544383331 
-0.2045317029749356 
0.06713935384596964 
-0.2396835776833229 
-0.02231190984719644 
0.5785337742637642 
-0.02539273482464816 
-0.09962762785345933 
-0.02166205154580589 
-0.02720759371598526 
0 
-0.01167717756547112 
-0.0351032416434721 
0.1857277157274494 
0 
0 
-0.2081694549207482 
0 
6.938893903907228e-18 
0.1257852080264757 
-0.1198425627455461 
-0.0464496937579222 
0.08016893119104215 
-0.01209011510491192 
0.09251407169414085 
-0.1402359427309773 
0.006087358984637007 
0 
0 
-0.0004295838657673566 
0 
0 
0 
0.01111032841053709 
-0.2794310939086764 
-0.181362580200307 
0.7193187217791195 
-0.7166312593991708 
0.178943200368978 
-0.03361363873815359 
-0.2444830849048049 
0 
-0.004778364152760451 
0.3646777250096742 
-0.1328777006836582 
-0.005531509201896265 
1.027217403005679 
0 
0.0628308004412412 
0.01108470428654762 
-0.3656487165616247 
-0.2313746791214452 
-0.5325052294379005 
-0.1675974672661809 
0.01468996640782593 
0 
-0.2729058283208603 
0.0149980132256293 
-0.09618664998844671 
0.1817898811984149 
0 
-0.03037840944911591 
-4.336808689942018e-19 
0.001598616628268678 
0.03325734880332772 
-0.01881397719793856 
0.04356678281706875 
0.1464831521759623 
-0.04514861764131506 
1.118651673503951 
0 
1.355252715606881e-18 
-0.5381674170235246 
8.673617379884035e-19 
-0.0234675846683804 
-0.3104758758132444 
-0.0318778964272288 
0.2351668751201225 
0 
-0.2052340276855915 
0 
0.2004826054296556 
0 
-0.08207334296959405 
0 
0.2653897990209481 
0.3553067496472558 
0 
0 
-0.1073174945859112 
0 
-0.5284775140378064 
-0.1393640265248497 
0 
-0.0645494854425798 
0.2101990947479385 
-0.6620123509351176 
0 
0 
-0.1594146958411268 
-0.01063092968945891 
0.4034440972192441 
0.002459416788157118 
0 
0 
0.1501224960987383 
-0.7640991573245539 
-0.3599502684380883 
-0.1377576834259142 
0 
0.2426707148766702 
-0.1700674587231668 
0 
0 
0 
0.05111038602711419 
-0.008650164828950339 
0 
-0.05610826078114242 
0.4102162130017993 
0 
0.001072079321299793 
0.5765884609257182 
-0.1524729693376916 
0 
-0.09505865616271086 
-0.7136362723113699 
-0.02355556330496474 
-0.02620634765650643 
-0.5253312546307258 
-0.1492575503675944 
-0.0132258529295057 
0.2918554268273524 
-0.5522886420185148 
-0.5996760419499578 
0 
0 
-0.0147981327951998 
-0.1289818755714384 
0 
-0.1712670428182405 
0.1876381819045838 
0 
-0.9187136762337118 
-0.1302682927341892 
0 
0 
-0.1901929806261475 
0 
0.113554107517864 
-0.2505812526570922 
0.005119183409976291 
0 
-0.1259678189562709 
-0.108355474882283 
0.01158795402292189 
0 
-0.1213820016378328 
0 
0.0123971200218834 
-0.8115992075081254 
-0.0378119062894264 
0 
0.01904122766400827 
-0.291209354553775 
0 
-0.4665458505765433 
0.05279549532350606 
0.02743152710814005 
-0.01126326331641004 
-0.02579838181574323 
0.03457900494175074 
0 
-0.297290220539076 
0.02903751183795799 
0 
0.002592064012921843 
0 
0 
-0.1259562305426501 
0.8362556432011752 
0 
0 
-0.0970505931375904 
-0.06120814725836281 
0 
0.5762748045370009 
0 
-0.008606096456263578 
-0.01378396525082765 
0.1462805210664859 
0.119181321427679 
-0.5897770695652895 
-0.006012098161035618 
0 
0 
0.02567177429905442 
0.1682275387684295 
0.08193007976908062 
0.04330024536411031 
-0.2866221597787049 
0 
0 
-0.2428313472890911 
-0.1721788367984221 
0.0573321673790648 
0 
0 
-0.2610808773897982 
-0.1084526125567323 
-0.03191165685470922 
0 
-0.8417679538280444 
0.06590811616787332 
0.1796481479908928 
-0.008440963219439684 
-0.1100805276690221 
0 
0.5532136608939947 
0.1169104361022919 
-0.6648630498197783 
0 
0.5260840296206517 
0.1354599213521792 
0.3450719724789791 
-0.1224009085379135 
0.3790138287244486 
0 
0.07479219570612031 
0 
0 
0 
-0.3498176832666564 
0 
-0.1070454256592397 
0.1596713106203254 
0.02300981958738512 
-0.1831649739721481 
0 
-0.1142485826899741 
0.08468551162855929 
0 
-0.1641346022631899 
0.4316266670582887 
0.08197973189515419 
0.2298910458145138 
-0.1848624721978144 
0 
-0.225112423929222 
0.2209474208143812 
0 
0 
0.03739203495949826 
0 
-0.0354266870849167 
0.1099886076740989 
-0.5168513612513131 
-0.004767700176957172 
0 
0 
-0.677174363808465 
0.01029186977721528 
0.1539357293849328 
-0.491208418239123 
-0.1052933892845754 
0 
0 
0 
-0.01892117538839761 
-0.1296206390284282 
0 
0.01873145599510971 
0 
0.03737459635218986 
0 
-0.5804279475062085 
0.5944597445420908 
-0.09477481031862568 
0 
-0.2425208719057323 
0 
-0.08048394538033482 
-0.5012854079660831 
0 
-0.07381349601248513 
-0.2226092490053249 
-0.5276324177183266 
0 
0 
0.0003208229720080819 
1.125201826925492 
-0.2630262486831008 
0 
0.02237929765270788 
-0.2544232212080508 
0.07819939698442246 
0.2647029248454524 
0.05471328208517445 
0.1021085757419177 
-0.4853983820838231 
-0.2941760374268942 
-0.4922568521105093 
0.07349061642696809 
-0.3418225220465475 
0 
0 
-0.0799636971513282 
0 
0.1527280209623325 
-0.009073327862844484 
-0.2011487126249993 
0.006899870752312458 
-0.1157617154143603 
0.1070050827041648 
0 
0 
-0.006992421039300324 
0.6292109540097661 
-0.006943014294006719 
-0.7763986435638317 
-0.1363747431308599 
0 
0.03177223961282534 
-0.3272141254035513 
0.01247028490301938 
0 
0 
0.01109035533269858 
0.2407876807236219 
