solver_type L2R_L2LOSS_SVC_DUAL
nr_class 2
label 1 -1
nr_feature 5000
bias -1
w
0.1683907145788404 
0.03981821935563904 
-0.05183789102232036 
0.07467001876151864 
-0.154365151853466 
0.6650091934518585 
-0.07805065650455609 
0 
0.05824918317214078 
-0.3793934117443951 
0.1513775546895788 
0.2127268611667641 
0.08946374225912761 
-0.3318784400824584 
-0.1973183477803685 
0.03698080347243629 
-0.4543140998490712 
0.6221430203578281 
0 
0.5471800583922063 
0.8195731011394899 
0.09759679076747413 
0.04843297117496413 
0.08698755050831648 
0 
0.013755536778792 
-0.4441279503733002 
-0.07295590383582505 
-0.02587137920633594 
0.03078450890881787 
0.3680628007345108 
0.003048784902467546 
1.732422413669303 
0.3660096433983308 
0.558768524106328 
0.3590348717200442 
0.336247763145594 
0.6218482469836681 
0.3437404403426578 
-0.03440631635485662 
0 
0.07671681748059307 
-0.2128884707182557 
0.1096539374337815 
0.05250794505863514 
0.02874786429984958 
0.03604900001821973 
0.1388832467998699 
0.0450809205675558 
1.310272263357465 
-0.03877920760906758 
0.08173085188685057 
0.05790622238590268 
0.0071515539382683 
0.5139206198836503 
0.03345175329901479 
-0.1230530567858068 
0.3082287532577002 
0.008191214116101138 
-0.5007595466298248 
0.1076036363227134 
0.3624923263654169 
0.1012838004950481 
0.0111356090734889 
0.1710140883079579 
-0.6736281312044538 
0.2858880291860885 
0.2425475612621706 
0.4459825275892587 
0.05206198946968433 
0.3618122413751463 
0.2427519364021988 
0.01050258547446468 
0.3002133132042391 
0.3252034070725018 
0.03888192257562887 
-0.5991723297974211 
0.005549480532690625 
0.6888466383839116 
-0.005727002702787351 
-0.1360773776956609 
0.1363899040115601 
0.01164913856005752 
0.03515060991218479 
-0.07106952997114763 
-0.008126011291960155 
0.1549376183751297 
-0.07717734673703334 
0.1116342013106101 
0.05861378037158251 
0.03566254684001688 
-0.4236357559229577 
0.01835625162461927 
-0.2296414874980287 
0.2026371761029635 
-0.444320096043187 
-0.3498044793723192 
0.3843678227431045 
0.0147638691210661 
0.2272238345159466 
0.002111406583436759 
0.08649790380107611 
0.06332844310841138 
0.0336927710416809 
-0.02705628421773052 
-0.02847811659085586 
0.05288742024546358 
0.1220689775531757 
0 
0.4977681082498744 
0.05873743033976477 
0.005684680580146284 
0.001731164943989592 
-0.03051100066231281 
0.1941899256859932 
0.09162627497874343 
0.1006607408192678 
0.04668243609188481 
0.296745193704499 
1.310838052518194 
-0.04178000048095611 
0.2136725310963726 
0.03462924710953084 
-0.07657588915955324 
0.04071680140194842 
0.05431931546303771 
-0.0206085755860787 
0.1528133550329183 
-0.05903307150785573 
-0.02146128622607126 
-0.01962892264361888 
-0.005104745996523125 
0.1058734150879746 
0.2138746753516343 
0.2145396486362222 
0.5252686654439969 
0.008380744811835587 
0.3702379921812587 
0.01498814149134909 
0.1382551242048652 
-0.01554785917606485 
0 
-0.05832919748203715 
0.09145785244038472 
0.04215072924675048 
0.1541992694637474 
0 
-0.03660245464010894 
0.03899040987236493 
-0.04572593249802205 
0.009404183662556194 
-0.0189800709620364 
-0.2038321938716067 
0.1379086472554469 
0.01410191551166721 
-0.008295653002997347 
0 
0.6455806759747992 
0.07469214302204877 
0 
0.03814689891152354 
0.3682597883914318 
-0.0380552156547292 
-0.01891971976233741 
0.02094821740503861 
-0.004097555739177674 
0.09373300109495264 
0 
0.09976442088587373 
-0.1240730454846818 
0.1198728262055829 
0.1396996479748358 
0.2155100259107915 
0.2659996562191599 
0.05054145367799582 
0.081478979961758 
0.428779198090718 
0.6353321833676726 
0.299069267604485 
-1.214692040256923 
-0.00100480579188631 
0.2276636022350673 
0.1508910982378465 
0.001033010647255341 
-0.08072687662117981 
0.007461411920107338 
-0.6300626263935925 
-0.2115748286023367 
0.01553907448837734 
-0.08474804812866076 
1.127519481749469 
1.008653844919192 
-0.235569242862291 
0.01459767565479361 
-0.04585853053786303 
0.05956919308501076 
0.2921617758012069 
0.09660515924736814 
-0.6571845108008069 
0.003399475835091561 
0.002835430715019341 
-0.006917615297621338 
0.008791724771971324 
0.1987861176409396 
0 
-0.04435824497830557 
0.003175700308335382 
-0.1940881847657151 
0 
0.6591851225996376 
0.2579239934438178 
0.01300572201428947 
0.009824639308057066 
0.08447654796442124 
0.6462700295846434 
-0.003457878348895879 
0.9952904997582108 
-0.02464537337740132 
0.02596873658005764 
0.02319762059089517 
-0.01378563893509798 
0.1112835635816005 
0.3251634734342745 
0.003134339610112839 
0 
0.07310393049944083 
-0.09205890437573616 
0.5037007749191523 
0.02680644406512133 
0.0174459542320817 
0.0001465739920868791 
-0.008705868072191255 
0.2916271654166318 
0.487282349339499 
-1.034678055507992 
-0.2689102259563162 
0.146221075451005 
0.347695315096644 
0.005431435699302664 
0.006003225313552544 
0.006165673806606001 
0.01566328564587766 
0.05679574768131777 
0.2942915964987707 
-0.03907580452226115 
0.2517135093040881 
-0.03984054508816963 
0.4521850009347675 
0.4252975996799284 
0.2604627294818503 
0.9854768168518141 
-0.0222209245425728 
0.1038972374797637 
-0.5412943271492836 
0.04726219031379447 
-0.006394447424926539 
0.04269849334726833 
0.1685466246214266 
0.3019535099615043 
-0.09438122078066059 
0.01316026889968082 
0.03305864804948613 
0 
0.1244190138280308 
0.02520247848091372 
0.2305330280887151 
0.007766179362367774 
0.5930161869729055 
0.1848977663371118 
-0.008919439143350569 
0.3435568438237712 
0.05540622311400569 
0.003410786947366357 
0 
0.002368410488151273 
0 
-0.07084083158794111 
0.1982951686253427 
0.1506528802244024 
-0.004667751016828571 
0.3351269120504836 
0 
-0.08920294826573856 
0.494164285498408 
-0.1209734678170824 
1.252198382672294 
0.3133324638115366 
-0.01254250399157099 
-0.01166114132118892 
-0.1269060000755504 
0.6545272408874712 
-0.02365686276594999 
0 
0.02873569918759332 
0.001449385112323599 
0.002248114064797281 
-0.003411054795857623 
0 
0.02676888644273872 
0.0009443997418135046 
0 
0.03372817978681439 
-0.04487387543300144 
0.1805861760637782 
0 
0.3879810836023026 
0 
-0.003690303404020651 
0.02408208564638564 
0.067586281101332 
0 
0.007686243491342934 
0.06233422314130975 
-2.427486151672083 
0.01468577487809999 
0.06536829356437823 
0.09057352320377296 
-0.04873506697648545 
0.7393009139760629 
-0.08173825137260438 
0.07603279091471969 
0 
0.4555427653728246 
0.2003380708947634 
-0.0004929037184216506 
0.6638140412106417 
0.09912522219212438 
0.9078250040370612 
-0.7899524964220084 
0.03086810334761959 
0.01065369869812131 
-0.5268865682724845 
0.2183787189936106 
0.1539532859945453 
-0.04838426900091737 
0.006132223223359712 
0.3244416431024635 
0.1052132959938535 
-0.177727394830884 
0.8460425242583175 
0 
-0.07915694271317257 
0.1602464299952026 
0.1328434722641216 
0.04549245779415054 
0.1358345538900678 
0.003726287046902896 
0.2512794686738181 
0 
0.2632865956691066 
0.1315604890395779 
-0.04176306605628297 
0 
-0.01375916873712198 
0.1433450539195263 
-0.02507033614644637 
0.03197269961478331 
-0.6992331655138614 
0 
0.03337724717603911 
0 
0.04634391147880493 
0.03494539795628938 
0.1419283256753293 
0.02076196722032499 
0.1869375546593146 
0.01992200561568502 
-0.05921988251990416 
-0.01345459468267203 
0 
0.178964195138716 
0.06735005059047679 
-0.3900573674844182 
0 
0.03868262594580663 
-0.0740148575890197 
0.06808677632333449 
0.1498175626988183 
0.04339333765478123 
0.1191044615100278 
-0.01208829439845202 
0.09020395162509209 
-0.1911700925732864 
0.02186016486834094 
0 
0.01072148789505459 
0.2130389799904478 
0.05834294050747494 
0.0042103464800822 
-0.03032422630527974 
-0.08489212856013752 
0 
-0.02744348652313305 
0.3600425302126247 
0.8315842550227265 
0.02429545645951239 
0 
0.009236551863974471 
0.1314707366362301 
-0.02925175987814384 
-0.1668996076887125 
0.8471583736737939 
0.08109127600914061 
-0.04434509807961153 
-0.09174650789804428 
0.228912219428923 
-0.1500723550999139 
0.1143124281498593 
0.5464303471805856 
0 
0.01158462372537845 
0.2036798982793224 
0.5096924955149054 
0.01588540570281727 
-0.09433384668494131 
0.3013936076666916 
-0.009812629438956154 
0.04993525732977374 
0.09664306866473554 
0.1841699047818665 
0.0146949653493441 
0.2202715210973333 
-0.08156425267832795 
0.8721296534646411 
0.5053669092293317 
-0.007654592739576756 
0.1027932662700322 
-0.03373494126574232 
0.6627970171222473 
0.3015499142392122 
0.1688391290892899 
0.04030717096783536 
0.1701228752393762 
0.5211623228990464 
0.06497114543489911 
0.01293505398487133 
-0.1835400283377513 
-0.01075209109051723 
0 
0.549992858777263 
-0.3782622944278783 
0.07336619379891403 
0.1949921155214079 
0.09116013998988483 
0.03388007278139149 
1.026306680907518 
0.135637047088733 
0.01778438978893619 
1.035820249561938 
0.4084705246401621 
-0.07659332620192588 
0 
-0.0006340524454017734 
0.2696565557258558 
0.51270581450957 
0.0164249159865879 
0.2613553035770043 
0.0002600210379564051 
0.1596955351079183 
-0.1071871024507439 
0.02117118729137517 
0.03123823888120492 
0.04600380539839869 
0.5117481382570586 
0.3863254153440763 
-1.651805132182312 
0 
-1.013667791433492 
-0.2844663522765221 
-0.02451222917289356 
-0.008069871312698328 
0 
0 
-0.05532987844305087 
0.02994673940184808 
0.002915895538001576 
0.1674361774142098 
-0.01854250248947473 
0.02863732211651313 
0.09104301898788295 
0.02311514935408134 
1.264710142141523 
0.3165322807193185 
0.1310048308134774 
-0.006141857996321445 
0.3414455671652162 
0.1038355310843509 
-0.006897305213381433 
0.02080855250390663 
0.2742584788949766 
0.6594276760990461 
0.2430881672375616 
0.07438513803846383 
0.000792498371593185 
0.07843162516599532 
-0.2441273478862056 
0.9368587154440856 
0.01938399314203061 
0.06064381215947842 
0.126077033465429 
0.1811163930638295 
0.01971507709157224 
0.02346693112885097 
0.06947688260148026 
0.02626704067482112 
0.06318131956424256 
0.1966240964469007 
0.1399911848717076 
-0.04303675892278695 
0.005898863142544186 
0.2452511636776623 
0.0921206998940037 
-0.03685847504991361 
-1.271464932242848 
0.2580326790011804 
0.1970000522848755 
-0.0274003470409711 
0.1548650207812413 
0.3230510821017112 
0.02875587880506214 
-0.7299631897565509 
0 
0 
0.002596636273555334 
0.1164821871169062 
0.01953046995097983 
0.08224308030942069 
0.2250922158105088 
0.007444920033934765 
-0.3628143761161053 
0 
0.01075731013733336 
-0.001348239078740091 
-0.2093882800203152 
0 
0.004785233096316019 
0.001216725892016683 
0.6109835129164763 
-0.8236836589406809 
0.01837483039220432 
0.01159985211280309 
0.6456663943297696 
-0.01527778537366076 
0.08016411542101212 
-0.008078029380921786 
0 
-0.003674705236829304 
0.03227492773059379 
0.8291291489912586 
0.1112686680616987 
0.3115405159072561 
0.5357555816249433 
0.35205723843299 
0 
0.01784779385558283 
0.008239429986823775 
0.7085001810966721 
0.9907349982499655 
0 
0.4168284057980364 
0.008650839028482942 
-0.01335334172787867 
0.01423568116396678 
0.2273018164384885 
-0.760347471762215 
0 
-0.1064980788224591 
-0.1072904974315121 
0.003565961551009469 
0.03495302951704245 
-0.362962859456661 
0 
0.3374998499253694 
-0.1163049414667755 
0 
0 
0.1946369635054226 
0.01579905054795547 
-0.02652654606068564 
0 
0.1026997948759047 
0.3809852881676526 
0.1497997668131768 
0.005663249608645558 
0.07409290486690298 
1.469008415481869 
0 
-0.1523827551539161 
0 
-0.06009895981936524 
-0.003374574221097471 
0.03461901568305049 
0 
0.2555883554290355 
0.2979254435552673 
0.05894232056019177 
-0.4632885883944445 
0.03139758665725076 
0.1918126667095076 
0 
0 
-1.06545001014482 
0.7992133139189022 
0 
0.05897243559885043 
0.376130494318895 
0.0845722566909551 
-0.01831688530150589 
0.6565319750565489 
0.05364514905415579 
-0.0477258672545077 
0.1149673264000864 
0.04598369316523161 
0.09712649098313171 
0.1509367748966132 
0.004969080537012495 
-0.02107146958394091 
0.007052377548394329 
0.505491831593074 
-0.2102297585871286 
0.0003559004271586045 
0 
0.07582207452789644 
-0.1320445170828308 
0.01195739374504734 
-0.1264138383135675 
-0.3678424498100124 
0 
0.9816236802752045 
-0.09297882609442486 
-0.01099967778118719 
0.1144044948317043 
0.2790581785833813 
0.005688647910584008 
-1.092213912238621 
0.07495209074269849 
0.009711136820071574 
0.1912620564002029 
0.2595379824998381 
0.1358943858355751 
0.3428762040802038 
0.03710633324278244 
0.1137704262116726 
0.3939825695888933 
-0.008345486978004902 
0.3119616969746609 
0.1068012494544077 
0.1912608431028082 
0.8954612938275083 
0 
-0.008388800695886066 
0.1935180910656415 
0 
0.05171599174648178 
0.2542113211397216 
0.02268794776245982 
0 
0.4870737695593144 
0 
0.2074468472918937 
0.2036187666248276 
-0.01108483090572604 
-0.5510041000288127 
0.03695888730348872 
-0.01817649359114921 
-0.05648370174626851 
0.243575145413527 
0 
0.2563098158008179 
0 
0 
0.05652718209071884 
0.3782585461725659 
0.1426149858123788 
0.2790613069445571 
0.14062440467204 
0.05481456337084634 
0.07809964602777306 
0.003797230531864753 
0.5406785557023058 
0.04010634740273841 
0.2406281892608503 
0.03729961390665754 
0.1941377881971314 
0.01772267891763881 
0.1165921178236244 
0.05256174494264836 
0 
0.008785708989009591 
0.004234015780380762 
0.04879575378790157 
0.02403870407143045 
0.02314222412665336 
0.1147624879637232 
0.007518761386702941 
0.0112734863201547 
0.2379416660973195 
0.1723905079912318 
0 
0 
0.01888300809937872 
0 
-0.05509038953379174 
0.2074171550986509 
0 
0 
0 
0.02293500137006829 
0 
0 
0.1153278028645018 
0.1522282883297942 
0.1227018649490499 
0.1402753967590772 
-0.05238757724877433 
-0.6025697885337802 
0.2284469186014877 
0.6746547260137965 
0.04330509893360582 
0.04369600839689216 
-0.02606807494794377 
0 
0.5518795992410981 
-0.01010121784057051 
0 
-0.005219272467004264 
0.4909303146160173 
0.7102534212950816 
0.01583663046269343 
0.002142598516194818 
0.2976861585777312 
0.007645668146163233 
0.1627985797813594 
-0.01823613054468172 
-0.3908317959839096 
-0.04506874827534586 
-0.03064986486593616 
0.2384435987029006 
0 
0.01796086510853008 
0.0916514571366798 
0.05749407966911929 
0.0349200288634068 
0.2686652030334696 
0 
0 
0 
0.2285065952535833 
-0.007278879600821075 
0.4544583820345816 
0.2332856448708916 
0.01654991938829119 
-0.321651953369418 
0.2992968040209244 
0.1083951039442732 
-0.153698730904805 
0.3243016730134485 
-0.150354942617089 
0.02474818378636635 
0.1326487573769834 
0.3140050020993957 
0.3919026570842293 
0.4620224008254402 
-0.0308585289487155 
0 
0.02164849169002236 
0.08001219373475484 
0.01222532657856773 
0.006885535440656732 
0.2896910276510417 
0 
0.4764372159204851 
0.1680153191975945 
0.07230652935816451 
0.1169873423188919 
0 
0.1552170737122556 
0 
0.08209938803597969 
0.0399503374365543 
0.01868673898059042 
0.07878866478062334 
0.4465390899683843 
0.003899339569197596 
0.1653022234941128 
1.304692691610038 
0.3114408703522947 
-0.01174084964845438 
0 
0.0465273791058551 
0 
0.01172504671557836 
0 
0.05311541989352652 
0.7365172985329789 
0.9055428765779159 
0 
-0.1096410560294983 
0 
0.06199452945556484 
0.7667941413270942 
0.08746627669107052 
0 
-0.001047751716795435 
0.02922392401625346 
0 
0.02680546604608775 
0.1385340913959426 
0 
0.01387823874422537 
0.004179617913596032 
-1.300057851170109 
0.8989371036566248 
0 
0 
-0.001138320792193994 
0.345132143239373 
0.1016966584027897 
-0.02888903358399874 
0.0002437489829959499 
0 
0.2513631966747141 
0 
0 
-1.020905660062151 
0.06428712489983034 
0 
-0.7063030545103776 
0.02644786776788181 
0.006815572629791746 
0 
0.005788991760957474 
-0.03059672116599751 
0 
0.1615123169104498 
0.1082521073503383 
0 
-1.413233644237842 
0.5080344533060001 
0.113344934667804 
0.07715526413411904 
0.08558934358967153 
-0.07345275875460867 
0.01284437957936539 
0.01050161467518642 
0.09512558755399959 
0 
0.003386920272652587 
0.5777154364111762 
0.2426277220613106 
0.1152426098197568 
0 
-0.02476659724471028 
0.5225345556332111 
-0.01952450123092093 
0.06361658344807379 
-0.01613191641412564 
0.4732803396494376 
0.008522764222476772 
0.02734096830651489 
0.3985505628329418 
0.03248674460963104 
0.1059737057515898 
0.9943044852180845 
0.5191211673341974 
-0.02829907797848301 
0 
0.08230049916980949 
0.02465249440287746 
-0.02331603044316453 
0.0003137198494359354 
0 
-0.3478758857980983 
0.2550897573428498 
0.006022479385514796 
0.0619778136538019 
0.1607736610090943 
-0.1382972910911566 
0.09198477165391283 
-0.03280399585496133 
0.005123332181029935 
0.4919944922387944 
0.2965677235619677 
0.8697188229361209 
0.1795393799517983 
0.1149949535529988 
0.7550539241534066 
0.0686663071915203 
-0.1396038869470332 
-0.0942040414698168 
0 
0 
0 
0.01288662477382051 
-0.06059499133609754 
0.2652288039142256 
0.006119711536714453 
0.03116085681835979 
0.2566973537186563 
0 
-0.09323123534636531 
0.1927438309618206 
0.1637002111102517 
0.008052322107815174 
-0.03892383978219219 
0.06430893362230962 
-1.281446763605826 
0.2407357326153156 
0.1000573428884975 
0.005105635237324603 
0 
0 
0 
0 
0.7395390482269372 
0.06417104883272379 
0.1495930956157046 
0 
0.2235662481853212 
0.002315043221657086 
-0.06972332160289776 
0 
0.02486531823869964 
0.01223095070172073 
0.1064219514921864 
0.08712373937501132 
0.227915900996719 
-0.008199616699910033 
0 
-0.4816452416194131 
0.001559865494379461 
0 
0.3845574370734242 
0.114639775884019 
0 
-0.02384633450726732 
0.1109573987204829 
-0.1230457023165618 
0.02719244300531324 
0.007226603932963581 
0.06541518378024488 
-0.02667819194871563 
0.03101672347094443 
0.04119875520882806 
0.05054430976645428 
0.5978736840259093 
0.003041719521815913 
0.09153680075076621 
0.161765969974011 
0.2890603885487064 
0.4635002364622461 
0.3126169413450896 
0 
0.04852181664968339 
0 
-0.04072713926592739 
0.06116006080865741 
0.2917157859520675 
0 
-0.08660333525822221 
-0.05499719164057596 
0.003632984848328216 
0.4159027461465046 
0.1105716984049493 
0 
0.2480190509514045 
0 
0.02190654512784098 
0.006863806903387151 
0.004206945022876132 
-0.1572735124664206 
0.01460259903942994 
0 
0.3464965383419203 
0.03892369938312992 
0.1975215203194008 
0.1737796368383994 
0 
0.08794801951067173 
-0.02122918365725871 
-0.0827967701049457 
0.02479714757296082 
0.1389796823348578 
0.0417416001756367 
0.08845937631629733 
0.02820978811580693 
0.008063676596088691 
-0.01299107227231452 
0.08320052269876428 
0.03152899359712499 
0.01480309306657351 
0.06758570098884885 
0.09056054246122586 
-0.01235561677503091 
0 
0.06340293565584894 
0 
0.5077515961233534 
-0.00620147287411128 
0.152628200474796 
0 
0.5159116493342879 
-0.06569659842963511 
0.6216767860330931 
0.07082972224287333 
-0.06207333736210643 
0 
0.02876827397654344 
0.2051534161166953 
0.2310553546763823 
0 
0.289298409679033 
-0.0885077114269909 
0.004266263783961476 
-0.005617660753406912 
0 
0.02768726241839657 
0.1944205960779686 
0 
0.2389808720194738 
0.1580172388922083 
0.1154996672811191 
0.3503035937142153 
0.01351834122262435 
-0.05110310291742695 
0.2717992938411617 
0.151684077378066 
0.02020471554019121 
-0.01572132803650672 
0 
0.002169888270402233 
0 
0.04726749695905053 
0 
0.04800390585668762 
0 
0.04536513907988645 
0.1458393609305363 
0 
0 
0.1575004374514897 
-0.01487949128395733 
1.229338670559858 
0.03693679785464753 
0.01445661618423066 
0.04358226190110197 
0 
0 
0.1209953790568106 
-0.03493660306290917 
0 
0 
0.1481794183003103 
-0.1683138437649089 
0.2903797072693612 
-0.3813756110735015 
0.2327915883170022 
-0.2326332639881957 
0.9577248829412184 
0.09733901405852778 
0 
0.3263525583459821 
0.3481894092937513 
0.009750941447223939 
0.02955423176569516 
0.3032913239869436 
0.01504472023944939 
0 
-0.06263136494100165 
0.2700898544269754 
-0.02308766524275305 
0 
-0.03079189405941109 
0.07322357168883049 
0.1295816067323672 
0.2352366703258647 
0.1140027100521112 
0.3582322589282301 
0.4661398824394652 
0.001114388416682426 
0 
0.5337656514383017 
0.6792985055341244 
0.04841497423151582 
0.5669348363808661 
-0.01561643763158243 
0.01710303609284897 
0.03447256529271198 
0 
0.2244283121402115 
0.2968260221485532 
0 
0.2326390337583639 
0.07065705241377278 
0.476507756852309 
0.3881419731593306 
0.561667255337871 
0 
0.001370278447832197 
0.05615309567434393 
0 
0 
0.09600181038771596 
0 
0 
0.07870182813614385 
0.02579704794236843 
-1.525006001125778 
3.535133528635712e-05 
0.01879491436896253 
0.43091999989033 
-0.07982585315865859 
0.07187215542490862 
0.002024034758763862 
0.3568699409978717 
0.05377824789233404 
0 
0.002448172554875006 
0.2918309891675932 
0 
0.04012925202806747 
-0.1224900143955235 
0.1917307202184077 
0.4867307228529072 
0 
0.0294147672934489 
0.1286478956928577 
0 
-0.1875803833455828 
0.01268116922574926 
0.005239690288063464 
0.03440712444504147 
0.06048882838261678 
-0.003131767599957792 
-0.02147047565765662 
0 
0.0005105002140197266 
0.3373924342308983 
-0.0009180886688734571 
4.953044926674544e-05 
0.03975226555260915 
0.03897649907487932 
0.002575058612746522 
-0.08472592754706507 
0.04314973021080246 
0.4098573068800777 
0.1252089213882426 
0.01344210696418671 
-0.0226776939620539 
0 
0.1988620179081592 
0.6962909032762743 
0.03314222795164622 
0.04203750821278882 
0.4534078975840083 
-0.05626089869518353 
-0.05190091903711214 
0 
0.1538747230446715 
0 
0.03642483683545376 
0.3901688925357956 
-0.004571570873885008 
0.6400339412944086 
0.02207334782270364 
-0.009550152341364446 
0 
0.1250758915269208 
0 
0.02798024360929974 
0 
-0.07790460496946761 
0 
0.2857563383012943 
0 
0.2898413917183228 
0 
0.01276377131244943 
0.414562520652482 
0.002303844473088924 
0.03829430907188722 
0.00424393623561306 
-0.238918043973977 
0.3565014259369821 
0.2093862574436799 
0.1569960450004096 
0 
0.009663696425880327 
0 
-0.1624178934993756 
0 
0.346525136903687 
0.4214970630589681 
0.2471826373064505 
-0.05223951383733813 
0.2892063342640019 
-0.02530585123286871 
0.02312939263720834 
0 
0 
0 
0.2209837711265045 
0.05645197785677566 
-0.04431533038472547 
0.08614036004084234 
-0.0239616453458398 
0 
0.1641414441359811 
-0.4386176077354492 
0.06003821328494086 
0.4331990644540282 
0 
0.05587793196219971 
0.01168813504868462 
0.01956148914577066 
0.007767202270915827 
0 
-0.08368689250326967 
0.003912417632571826 
0.08029648337146073 
0.007313622928268383 
-0.007075966822978952 
-0.004346635467100323 
0 
0.03141018064476879 
-0.0258390686079496 
-0.1004047607114897 
0 
0.4407487196179285 
0.0008553617062479523 
0.4767479191567309 
-0.02633574827996429 
0.3984844347936838 
0 
0.05286445673173881 
0.4807161096745391 
0.1387958211112317 
0.3971863232152121 
0.7481299871090729 
0.1100301582903495 
0.01116800995996278 
0.04004965634343318 
0.02728888546011902 
0.02026417470228871 
0.2728210944230684 
0 
0.001907222816408113 
0.01580850716204948 
0.101359817799628 
0.8896802225780669 
0 
-0.01612632820885828 
0.16598696777105 
0.3039009228908536 
0.03296286069520862 
0 
0.2333917469751423 
-0.002551275819848152 
0 
0.2322559511642338 
0 
-0.002064411778979217 
0.2247398791083436 
0.3291715983575635 
0 
0 
0 
0 
0.1418962609795475 
0.5699630501215033 
0.3804897968938394 
0.03503738566770218 
0.002710379487330176 
0.5943921972900458 
0.1949638043194875 
0 
0.1000106334256782 
0.1542509438677157 
-0.009961169893567325 
0.1035700902448586 
0.01006688899605295 
0.1001864711269491 
0 
0 
0.01044495184604544 
0.166769442107578 
0.00129997709886846 
-0.01855125233941408 
0.1175711276905198 
0 
0.1478462286579778 
-0.01312352980871169 
0.03593301164392335 
0 
0.950605870955581 
0.001625208169530116 
-0.08522870298794552 
0 
0.020979028985308 
0.01222855530849424 
0 
0 
0.2642450574086137 
0 
0.4972653113702519 
0.00619603539865704 
0 
0.0149247916319315 
-0.02598385133402299 
0.2704799652307011 
0.00603548424257133 
0.1540389534927518 
0 
0 
0.09643164581104029 
0 
0.0605102927786636 
0 
0.2485671950389224 
0.1291598481011237 
-0.002808539334347211 
0.01118580992430591 
0 
0.5024080835269359 
-0.03174629391774762 
0 
0 
0.04552778423861693 
0 
0.2348574136967695 
0.03167580884980553 
0.004208167961682638 
-0.02343196950752271 
0 
-0.368829064699354 
0.386426340913449 
0 
0.4109655998758767 
0.02050032456508333 
0.01020270597835067 
0.05832849926605995 
0.3689998904804516 
-0.001063847794462442 
0.01180398586690055 
0.03775872197062456 
0.3096223435508412 
-0.06924329692919498 
0 
0.1383199738581504 
0.01945623978472893 
0.1471940875084586 
0.3219802062310885 
0.02819301912529993 
-0.09725715466368849 
0.003596307914149782 
0.4103852929952598 
0 
0.6077422825561126 
0.4734946303263154 
0 
0.6171906197513409 
-0.003805832051197886 
0.2897891672854062 
0.6122434343517158 
0.02262838404868043 
-0.05427987285307562 
0 
0 
0.01945033527580206 
0 
0.0482213602116786 
0 
0 
0.1047187935685056 
-0.004511932284669908 
0.1792627255413601 
0 
0.1171473136960619 
0.03909627852598848 
0 
0.1190885621969522 
0 
-0.03561570368101746 
0.08104122420450022 
0.007335311841159701 
-0.01424864999883935 
-0.008107593775508204 
-0.0377971399773839 
0.1970665185416447 
0.06907095973108333 
-0.3098645910656179 
0.01976148578766088 
0 
0.09207646875377376 
0.04248586783199287 
0 
0.02065241980437655 
0.02185765198596902 
0.1051909215679944 
0.1006601439540744 
0.06866165900200691 
0.2160244549445119 
0.3444791368917149 
0 
0.04783234372725707 
0.2453961626679909 
0 
0.003921586647355006 
0.09461483906620978 
0.1133040621471802 
0.1498578521140179 
0.09173734678494973 
0.01702740462312998 
-0.02304405892249691 
0.00965504810795687 
-0.1882836983844988 
0.03847996969360605 
-0.1035930067236847 
0.06310765373916812 
0.02169918852873983 
0 
0 
0.1118488526184286 
0.1205973409670594 
0 
0.07639535377709014 
0.0758505316836344 
-0.1443650674976941 
0.01078468227824838 
0.3758323333637689 
0.02170942900213341 
0.06619720109338703 
-0.2930906152541589 
-0.01308329379128333 
0.0005098976536410222 
0 
0.07884342148738366 
0.01166199966769858 
0.1637421755936368 
-0.01929882980151977 
0.3128731462567775 
0.0851692062743036 
0.1347006794021552 
0.1226429204790315 
0.4804370786348566 
0 
0.0699534334757993 
0.3936582394759073 
0.4265174741520738 
-0.1739704351803561 
0.06323484905637719 
0 
0.4056639090949712 
0.07431030795487101 
-0.01390481956192892 
0.04664332149377919 
0.223026935469686 
0 
0.1791235491259158 
0.03594811547515631 
0.03532069434677633 
0.008683683311286649 
-0.01761134961511431 
0.1177516454800994 
0 
0.1188560510586248 
-0.02492740560778718 
0.009796687653172915 
0.7779573294233967 
0.06069514383118223 
0.01984341158654369 
0.03653690087980928 
0 
0 
-0.02976771834357227 
0.258075326320753 
0 
-0.01750810943218018 
0.2471588324165722 
0 
0.009110727884762833 
0.05303846240923783 
-0.1852441030856381 
0.01031107781603871 
0.05303180797025219 
0.05719124546308182 
0 
0 
0.01770770914174389 
0.000352153792497962 
0.134863306499356 
-0.2934025676677398 
0.182597783517422 
0.04770661734154598 
0.01416480136322568 
0 
0.008761260795346204 
4.915663880631271e-05 
0.1027363908897778 
0.2410867969091396 
0.007251221120707122 
0 
0 
-0.004729142167610811 
-0.01731991633823756 
0.08317188806291563 
0.003210214719738058 
0.3228356818701171 
0.3461661796644133 
0.02254143483944466 
0.0136811777128523 
-0.00355008709929195 
0.1997695378282317 
0.02780069265347756 
0.03827443249543938 
0.01009202334510638 
0.01493073989619443 
0 
0.01422506309805775 
0.02072888807518404 
0.1137223781748682 
0.004631233525653655 
0 
-0.3845635413600242 
0.09271573085672258 
0 
0.03224490035479545 
0.01291815029756224 
0 
-0.02804166831096311 
0 
-0.04398591844997899 
0.2223316242085166 
0.4243172470508987 
0.1735976383125926 
-0.09275280578876241 
0 
0 
-0.0007794447747256749 
0.1535881595184511 
0.3032594088022998 
0.0008575706734715218 
0 
0.3726237199447934 
0 
0.009000398958358469 
0.3406389357290588 
0 
-0.004185237892549184 
0.1464193847791471 
0 
0.03181429709496844 
0.1407309801549602 
0.01879920244785304 
0.01599051675905633 
0.02237640264769221 
0.0888038981579668 
-0.1867859703197648 
0 
0.1947871516957844 
0.01265234650820493 
0.4337061111159195 
0.2075229010765516 
0 
-0.01616412161391395 
-0.08416910361196822 
0.007813729401951363 
0.4917946432086591 
0.005735161065189718 
-0.2133611057296774 
0.08193923979366223 
0 
0.00341682666652764 
0.4490178203914312 
0.2446838269269576 
0.2275472451925802 
-0.174258115949868 
0.006709993729932407 
0.04562447454996103 
-0.1079402250250578 
-0.3002389569716909 
0.04585802710144863 
-0.002133804998669886 
0.001332417306667146 
0.09608934307197566 
0.0392085666343186 
0.2039550677591883 
0.3724980983933557 
0.02403878895720608 
-0.01840333972945336 
-0.1244987047531171 
0.05462259768384412 
0.2180261543410943 
0 
-1.561262250077649 
-0.03925312312853767 
0.06060622163344538 
0.0577333422879835 
0.03757716621073741 
0.5963761784065474 
0.3227892926625083 
-0.02853249562924531 
0.8889948313933032 
0.04487564429900512 
0 
-0.005103420272984839 
0.002523504893722342 
0.1599041548147425 
-0.1327177457117498 
-0.009725479944210517 
0 
0.007614897852301473 
0 
-0.04409072425930675 
0 
0.2981826682123239 
0.2276250492882463 
0.02258494477517919 
0.6534881200799599 
0.0296328780897925 
0 
0.1327128803180706 
0.8818590905474929 
0.006941947464809815 
0.007422089840474063 
0.1561932349861805 
-0.2217483528328888 
0.1033476559756065 
-0.0121448337377708 
0.3300080476439366 
0.02014969383123816 
0.004091818340606233 
0.01558491552969857 
0.3753702031789962 
0.3868435430513182 
0.01111956629862741 
0.003847741163729866 
0.3125933727479483 
0.1360831807599488 
0 
0.07094225941537287 
0 
0.02541242922756974 
0.001045841305514399 
-0.2029690224539312 
0.01074803294289553 
0.3700605609457048 
-0.08567847012859309 
-0.2955272748847125 
-0.09065655309449157 
0.005407606899206573 
0.001337488491775519 
0.264423098283791 
-0.05548001928149868 
0.09423240357155037 
0.002546420221060396 
-0.01411409053761564 
0 
0 
-0.0530950154408726 
0 
0.1287774825259632 
0.05378386118633721 
0.1397321835153712 
0 
0.01335666173949895 
0.03009822512182345 
0.03000104111875952 
0.002887431413726216 
0 
0.1401382631485873 
0.08565649437524414 
0 
-0.0594062148106658 
0.2515393587795659 
0.239959374002521 
0.1135143723752936 
0.005334767587598513 
0 
0.132515148658305 
0.1025443428823291 
0.04364555405837223 
-0.1398120591541653 
0.01097649648520195 
0.08661672272823932 
0.02641031569653743 
0.05223466108206699 
0.05369108961310706 
0 
0.2495333367223698 
0 
0.07863753968939757 
0.1692544827408157 
0.0585504610431222 
0.1867140740875839 
0 
0.1236185452132357 
0.00328605105686929 
-0.1858236679978728 
0.07711097067448695 
0 
0.589344443152416 
0.01645001957196312 
-0.03798216717155045 
0.02301523292700871 
0.05004269475713125 
0.03576076797792999 
0 
0.2040386681021111 
0 
0 
0.05171675145832678 
0.02364250353960187 
-0.02957236687417909 
-0.00613746563561639 
0.00609247503909198 
0.1095702141179077 
0.04290993405506093 
-0.02604356481536956 
0.9022685914434548 
0.05436108610549995 
0.4568071749357825 
0 
0 
0.3185452583943146 
0.0646098142700214 
0.003618683824766252 
0 
0.5343249672992201 
0.04295276280254586 
0 
0.02372168872542862 
0.1587997684234324 
0.3361050353411564 
0.2075119494426814 
0 
0 
0.008758049595104445 
0.1543096361545672 
0.1124643137672756 
-0.02305786470603849 
0 
0.1087878399714249 
0.3211723923013942 
0.08818251344490026 
-1.160559930065435 
0.1386129531948522 
0.2581962494233397 
0.100776022067617 
0 
0.1516600554124577 
0.139652815409913 
0.041022006765805 
0.1462001193286589 
-0.7500862302391026 
-0.004680612400596838 
0 
0.008413102705225307 
0.0623467447796048 
0.001059635831258746 
-0.06967066928043472 
0.08252049110408538 
-0.08917589222328634 
0.00132967604336589 
0.007245786090083864 
0 
0.03581901920916836 
0.7772402636616502 
0.03099229372382423 
0.1515603561087028 
0.008824660192775367 
0.4014944913235768 
0.1442419042097795 
0.03875238229097365 
0.1956450655724183 
-0.01108901088355019 
0.199960984607718 
0.08867598518309686 
0.04099295749868825 
0.2793305357934995 
0 
0 
-1.144505976171164 
0.352789128358085 
0.02785041353050099 
0.2322600186200716 
0 
0.1372944279825382 
0.07926920230339549 
-0.3340810680320815 
0 
0.0338125343774336 
0.3310895823027303 
0.07774142759996058 
0 
0.03255455688604902 
0.262985236755852 
0.02057801911179124 
0 
0.1751962972676887 
0.0405387490942479 
0 
0.05946987162758512 
0.0333700336739752 
0 
-0.03481233937945942 
0.01810062825213877 
0 
-0.01565679765049205 
-0.3555600715527141 
0.1223798543040199 
0.4504819311132673 
0.1563326016438247 
0.002088712392312526 
0.01948987448866054 
0.3576624434018175 
-0.03233388878024706 
0.09492360815268196 
0 
0 
0.06229507716734936 
0.0946786394177582 
0.1592498285047734 
-0.01030819347254405 
0.1358301423719312 
0.006031656494423407 
0.08580543999850408 
0.1583208179315957 
0.2397063263596707 
-0.01479969476821378 
0.001672660918976627 
0.4618553227301248 
0 
0.04604961206682594 
0.4777953577458629 
0 
-0.008998997676286291 
0.5755199525296126 
0 
0.03884297053884923 
0.1618197512881477 
-0.08356372749701019 
0 
0.5459676724419567 
0.2290905313054188 
0.3824487135655107 
0 
0.2342797731874047 
0 
0 
0 
-0.4758685861581408 
0.01489982067665704 
0.0005375577965336463 
0.2730625222310124 
0.04840555686847875 
-0.284384808183023 
0 
0.2296092029702166 
0.3355798024438459 
0 
0.6364365931648528 
0.1158160131227848 
0.1446704960734414 
0.1900495182857364 
-0.03750545530613276 
-0.02087329612513816 
0 
0 
0.05840306270107751 
-0.2061474766024895 
0 
0.1178774970413859 
0 
0.06669881644843478 
0 
0.3019362650721943 
0.0214460099736434 
0 
0 
0 
-0.1145341782070654 
-0.5323326089481885 
0.6464698202294916 
0.003677779418550139 
0.01322308953649551 
0.565944874495429 
0 
0.16638177647469 
0.9456300830282929 
-0.01306496223309943 
0.02306463708838397 
0.02789224425809882 
0 
0 
-0.05410889388860427 
0 
0 
0 
0.2263646602152511 
0.1603777094395944 
-0.4150346757346183 
-0.714667155290019 
0 
0.01991794290548598 
0.01079655146251618 
-0.02386098046578691 
-0.01189079339984063 
0.4411614981495589 
0.08859902110228107 
0.0002939093201856022 
0.3322950825724011 
0 
0.3932939506127331 
-0.01260427469903048 
0 
0.2757808647214193 
0.05256358867063577 
0 
0.09083847157754232 
0 
0 
0.311714550328181 
0 
0.03414394942991641 
0 
0.1198237196693257 
0.005605497982537123 
0.2507043913831707 
0 
0 
0.01065223651602988 
0.02050568976899293 
0.4719375150487976 
0.1196294344258721 
0.07381190098923167 
0.02047684493445716 
0 
0.01776966146731437 
-0.03233563535672598 
0.3576123489743459 
0.0853598647382179 
0.148913485077213 
0.03084452605925514 
-0.002196994005809852 
-0.0001908177497767399 
0 
0 
0.2902131235854318 
0 
0.1014866258469675 
0 
0.6209112128008297 
0 
0 
0.5248965208844133 
-0.09683663301481654 
0.06628031446046072 
0.006106487542853457 
0.04852540110386018 
0.00934096234382845 
0.00101584730122843 
0.2040954188399788 
0.3268558533202441 
0.2061915037313727 
0.03626088050933263 
0.2152748732849721 
0 
0.04219738188344896 
-0.03464790789164986 
0.08690072666486848 
0.06093355203563819 
0.01113857179854549 
0.098897595474115 
0.0137894079378169 
0 
0.1347031528643949 
0.2590474814294352 
0 
0.1103458164725178 
0.06539989556302843 
-0.02149066073277664 
0.5610072567129346 
0 
0 
0.05102831618184496 
0.01124673669392931 
0.0009482463984145138 
0.07826129367791157 
0.01401100310544685 
0 
0.02888962448772774 
0 
-0.0634602300008317 
0 
0.002794915923519375 
0.0279986190705264 
0.115647851990441 
0.2413431855317532 
0.1854653463899522 
0.2529534110961066 
0.03615323141544331 
0.080075788273344 
0.193919773903016 
0.1024222681364895 
0.0006720110398159626 
-0.7088370369765855 
0.05576184000921344 
0.1543795771737602 
0.8045699037241948 
0.006034967911980877 
0 
0 
0.02357262943116973 
0 
0.2113989458742433 
0.06716366177023608 
0 
-0.7861216132331483 
0.0631877670924746 
0 
0 
0.001767836113757515 
0 
-0.0002215449629512124 
0.7043242395711722 
0.03663107565844306 
-0.3776586555220986 
0 
0.1134308405106615 
0.7475375545613496 
0.004525508836435958 
0.6769037245649014 
0.07574274657219843 
0 
0 
0 
0 
0.4352307815611212 
0.003174511558823836 
0.6117413720211556 
0.04616849070178088 
0.03580638586062269 
-0.07380340958786887 
0 
0.009175255289461434 
0 
0.723372351582976 
0 
-0.06748906394362264 
0.3113839069017483 
-0.01321382401675299 
0.002268560444753249 
0.1008461168722171 
-0.2706926844061533 
0.1056237268340281 
0.08887033427879232 
0.1345059080808049 
0.008844037611046077 
0.364444369861378 
0.03493226889564494 
0 
0.1653127120239353 
-0.008758109902618862 
0.04346080341973675 
0 
0 
0.5246513732303192 
0.08629012064229205 
0.2450632177755714 
0.6920889386240492 
0.003573224522640762 
0.2990286318448491 
0.205268210627732 
0 
0.2366017305191039 
-0.004956965553160995 
0.09447472637127377 
0.1212889512748238 
-0.04176346785400277 
0.08541679921740583 
0.1727442042091671 
0.0121678172151548 
0 
0.7288816555002244 
0 
0.02237336398562384 
0.4589262341169158 
0.2428821207774326 
0.6407127176559858 
-0.02211360908759351 
0.09311625345795679 
0 
0.1405307925141887 
0.1370309473236389 
0 
0.07560675089405017 
0.1399907142370045 
-0.003754364538017133 
0.07764232375072014 
0 
0.07574055994136988 
0.04017767453228692 
0.06002319114202089 
0 
0.003467706862239831 
0.6902119534644998 
0.3253947652935761 
0 
0 
0.07457936116926596 
0.4034192990688433 
0.03317067018469955 
0.2520857717825795 
0.01038421317714894 
0.1674752585778533 
0 
0.04299229125131596 
0 
0 
0 
0.02053144387823658 
0.1216142479958103 
0.06210798652504544 
0.0006191374564964088 
0.06703937435070352 
0.09058654594769397 
0 
-0.1070156844048561 
0 
0.3883969095621296 
0.06311969627865975 
0.007505905987608199 
0.2418342215143337 
0.5341568923700858 
0.2515522436678759 
0 
0 
0 
0 
0 
0.0009968137174873907 
0.1565576617843014 
0.04984670412220886 
0.03201224264483631 
0 
0.101324265713873 
0 
0.2060938376606334 
0 
0.1763118932128936 
0.5373511106714505 
0.0670134793618367 
0.01977625457422752 
0.002666429198738327 
-0.3986195650713564 
0.02628914511917396 
0.01110008681913472 
0.005395407113026071 
0.2562053267112261 
0.3333335975828204 
0.06468529133859315 
0.008630592981351885 
0.06599628990975107 
0.5601414310508849 
0.05351842417622922 
-0.009441788897098173 
0.09493857922720066 
-0.05901477449019463 
-0.0009042434679652298 
-0.01754801579122073 
0 
0 
0.02125765773082652 
0 
0 
-0.01992928035315436 
0.007456814626776139 
0.07178625613549183 
-0.004858803117677626 
0.4084063917546699 
0.06300995850322469 
0.02188796752386134 
-0.0008121574032905504 
0.00374103332950083 
0 
0.003012285352642794 
0.04445026080653464 
-0.01311424952397009 
0.2007410511799626 
-0.01117022648162656 
0 
0.2365133298419695 
0.4758423485849099 
-0.1892956248160409 
0.04359070537114838 
0.04858826166386843 
0 
0.03336297497587601 
0.06292385153581777 
0.05430573414914968 
0 
0.293574259574382 
0.00598180049195898 
0.610831082276031 
-0.01860880719384416 
0.1409059736121301 
-0.1713245134599752 
0.1979287279639998 
0.2024138189466533 
0 
0.032655909512841 
-0.009394853034064697 
0.05812671322903925 
0 
0.006623461271496729 
0 
-0.002363127705507028 
0.01478189278534882 
0 
0 
0.01793787019603643 
0 
0.08112871704883524 
0.1767993309023448 
0 
0 
-0.363253836129708 
0.0004018675087885782 
0.04779460766758879 
0 
0.006371783815827307 
0 
0 
0 
0 
0.002429139199289391 
0.02700785698020591 
0.01678461578125864 
0 
0.1972238774815031 
0 
-0.1558445709772621 
-0.02720214132319616 
0.0102217987258363 
0 
0 
0.01680389676091334 
0 
-0.1055478501177504 
0.03547352713131145 
0 
0 
0.1646511815042863 
0.4143578852552181 
-0.01710380709166279 
0.1240155232335731 
-0.5483980104235541 
0.346423700326125 
0.008831955100253926 
0.317881999920896 
0.2953930478220039 
0.493931816104457 
-0.005776277871317501 
0 
0.4478792872903966 
0 
0.009008085650268685 
0 
0.1778556500766733 
0.8170738669937767 
-0.306374161807099 
0.3557735507276391 
0 
0 
0.1262803650716695 
0 
-0.6798643344186582 
-0.012946722186813 
0.02511371584657955 
0.3565723906639721 
0.446272353331324 
0.225502690483345 
0 
0 
0.05171521619162018 
0.002928497050556095 
0.1486662366098113 
0.4247894214952834 
0.5174026821789662 
0.08107120306410739 
-0.06342532783986161 
0.01236056401008605 
0 
0.6654922789991045 
0.03357114147569641 
-0.06534170128082699 
0 
0.0626677813634879 
0.04358052122774291 
0 
0 
0 
0.471151051263703 
0 
-0.3575373932107488 
0.007107514819216345 
0 
0.02782237518091139 
0.05864639337892277 
-0.004011395362951777 
0.004914679262372419 
-0.02317534426213981 
0 
0.1285519918233849 
0 
0.006980182267737963 
0.1936373453603861 
0.1510924826547181 
0.2481689513234577 
0.1781148267078503 
0.2999085851116465 
0 
0.003846055659144437 
0.4115644531034746 
0.0305143167779984 
0.01651047564517419 
0.008315133983622262 
0.07971067886831451 
0.2823483753328511 
0.1486668328797185 
-0.01534652278262124 
-0.02093509541679803 
0 
0.4123420767167011 
0 
0.1629604830511203 
0.1698830172444545 
0 
0.02192072423012552 
0 
0.07429093054917366 
0.3018285124294865 
0.05992831391142185 
0.07948116676941064 
0 
0.006202961099117664 
0.2558324189347702 
0.3668885089839167 
0.06487482465206505 
0 
0 
-0.05014916284101766 
0.01689060822033384 
0 
-0.0381178977963378 
0.03975135202267863 
0.2726223346167598 
-0.003870674728354343 
0.01527002317631524 
0 
0.6129248467861388 
0.07092693266970053 
0.001217441130750244 
0.02138891252740407 
0 
0.05723270725808641 
0.1548498690558321 
0 
0.07113260899551767 
0.1822369149762715 
0 
0.0524054813953642 
-0.08104431512283088 
0.0301835762349553 
0.02121828589231742 
0.01418546069751564 
0.002850221288664104 
0.02686888414142907 
0.01045915909020674 
0.03824945580787981 
0 
0 
-0.01395021205148746 
0.8869265984363003 
0.007454807586236293 
0 
0.03596605967052666 
0.03285885523128821 
0 
0.2048639546955184 
0.2557881564166121 
0 
0.002407760130872024 
0.1061678731951449 
0.1200135545266263 
-0.1502596887653029 
0 
0 
-0.001144744925059471 
0 
0.06025198526346316 
0 
-0.03847669485793432 
0 
0.00884450032383313 
-0.0005214802000368685 
0 
0 
-0.02571766650177838 
0 
0.4534954972957228 
0 
0 
0.004863950945058819 
0 
0.009619948402563624 
0 
0.1364567054460012 
0.241698309567435 
0.1164389776690272 
-0.00189706785144153 
0.3166969652192304 
0.1224597404758062 
-0.01432188320911244 
0 
0.6330579090111413 
-0.6027896857531621 
0.008043803375777507 
0.0005694536415538448 
0.6645553156864759 
0.09169183050500809 
-0.003289987885078982 
0.09345629443308939 
0 
0 
0.1281496915785268 
0.003432710128626626 
0 
0 
-0.07165389651677508 
0.003329870913984449 
-0.0310010814459503 
0.003413533540478318 
0 
0 
0 
0 
0.000849193904702912 
0.05661604900436999 
0.0002035260832644884 
0.05546415843034601 
0.264304080138618 
0.4504126402866478 
0.0821778540161833 
0.1212672307850711 
0 
0.009963460254374407 
-0.004287850033415649 
0 
0.3515206165890248 
0 
0.1477736703750845 
0.05910731725004296 
0.5025398132240979 
0.216857751310813 
0 
0.044576557291711 
0 
0.111789604853639 
-0.01344202459748737 
-0.003531912758815433 
0.05772865696963094 
-0.00760303235203898 
-0.01768964219601107 
-0.7317054095075641 
0.01500268507564771 
0.1395442489284836 
0 
0 
0.05641631870051691 
0.3225587853488307 
0 
0.05379243220383491 
-0.1794673000930628 
0.02756404022770297 
0.076233549459233 
0.3149330759482144 
0.02419236515248441 
0.1291358051420072 
0 
0.08194029089456564 
0 
0 
0.7520392032933046 
0.03558806619707085 
0.1524559775139318 
0 
0.0956084780648685 
0 
-0.3639736270641287 
0 
0.02317831700068393 
0.00951714857030616 
0.009983076256110125 
0.211575229477032 
0.5636073225571751 
0.1772399661961652 
0.04344774693096774 
0 
0 
0 
0 
0 
0.1429307479981224 
0.113081755012342 
-0.1227820388018596 
0.003844193102732104 
-0.1482465570511828 
0.06963964646369938 
0.1335581593905122 
-0.007827188254314096 
0.02920370009191234 
0.02465452146001913 
0.383781882583818 
0.003447111761663809 
0.1003023101943874 
0.1224391945906781 
-0.05365597533078865 
0 
-0.07212543507925279 
0.1001819195973569 
0.08521504743837088 
0.05064472119143196 
-0.005777321113457978 
-0.04597237308593136 
-0.3880943692466209 
0 
0.0418047344203746 
0.06740675120370938 
0.08565435961673701 
0.6601068100826618 
7.993861169277654e-05 
0.001485852331370541 
0.3079515207016398 
0.629181661888675 
0.007565742073918169 
0 
0.3544170545393242 
0.003417127347172928 
0.289456909785596 
0 
0.1428964982543382 
0 
0.2511110042219646 
0.08447621669793427 
0.1138624747250056 
0.4116214902001759 
0.0009779477538843205 
0.1879267131116214 
-0.07493647150045978 
0 
0.3461440930203206 
0.112990839372785 
0.07028188751715003 
0.05641246886194234 
0.3212350562156496 
0 
0 
0.3612282413873861 
-0.02308223476973259 
0 
0 
-0.05032352376398612 
0.2731693123961541 
0.01446771872728889 
0 
0.01657053436737608 
0.002534954356395383 
0.1520316901096751 
-0.07092341833130729 
0.1681643403857879 
0.01404714474401896 
0.1318422513809197 
-0.02194092438715107 
0.0135254335237821 
0.03344332539831118 
0 
0 
0.09030956955439916 
0.0289245131893187 
0.003268526653139091 
0.1726479894077196 
0.001300330229174358 
0 
0.09205932431284031 
0.001683839729267812 
0 
0 
0.000212506814098416 
0.1657916617062441 
0 
0.008575421538198909 
0 
0.1611306007972554 
-0.03927550113602274 
0.1429085249487568 
0.282049106625345 
0.08821932246943059 
0.1276376769421687 
0 
0 
0 
0.02342774573143773 
0 
0 
0.03025380008364779 
-0.02947058437927074 
-0.01102149976917339 
0.001666561047098519 
0 
0.2885866457386674 
0 
0 
0 
0 
0.04531836253120124 
0.4347578055667163 
0.3291393148976933 
0.001374780546089893 
-0.02084178263527095 
0.166673804491841 
0.08429267453264651 
0 
0.1704140482428587 
0.00822110077294491 
0 
0.03929230960573488 
0.09998600223084883 
0.5000578763060838 
0 
-0.3453871823418306 
0.1373617046106533 
0 
0.1505893788122277 
0 
0.09296809685186974 
0 
0.04517831621272166 
-0.0183337573065191 
0.04754106629208466 
0 
0.1196986819840344 
0 
0.04319066048756234 
-0.08397348943779945 
0.03629319087813596 
0.03032886160341347 
-0.05941791865424967 
-0.04464097680989373 
-0.03419683314805209 
0 
0 
0.004841234304822425 
0.03576830732734689 
-0.007908152392135902 
0.03499183091161662 
0.1044799074580018 
0.006481977150522966 
0 
0.02066037590038595 
0.497909784118204 
0 
-0.0003209187628939094 
0 
0.02263743433986349 
0 
0.03691650121447062 
0.06045852362168058 
0.3889795407507167 
-0.04447659900020981 
0.06469918062680874 
0.1208017843369593 
0.01714450881582447 
0.2081819093907578 
0.2806077360323386 
0.3235864808870345 
0.000384096763943778 
0 
0.04689064694596602 
-0.004434633816591455 
0.004646822680602273 
-0.002876129922360818 
0.218295116470324 
0.4986974356447326 
0 
0 
0 
0 
0.001548852214381286 
0.07191542786956487 
0 
0.01756854951079213 
-0.006265565947636071 
0.006490795221696433 
0.01506000710671669 
0.1718534889801361 
-0.01432783452144029 
-0.1369511560832399 
0.02595516643970364 
0 
0 
0 
0.008891777731939669 
-0.1591191588983075 
0.1323088298007988 
-0.005080663056638707 
0.0291534083181591 
0 
0 
0.3095578815396375 
0.3642429121725606 
0 
0 
0.03191484088054365 
0.07336735533695923 
0 
0 
0.2150966068119099 
0 
0.02001461092628683 
0 
0.01415844997518819 
0.2801597103581422 
0 
0.00591002548119007 
0 
0.2032795214917353 
0 
0 
0.07590033122972534 
-0.008658168548250505 
-0.02376007636083617 
0.02492199302814738 
0.000215991803018574 
0 
0.01328193444427479 
0.03662185115826703 
0 
-0.08391025679525804 
0.05858179447822608 
0.08723820155731137 
0.06338781588230383 
0.296622703474196 
0.2458192090552271 
0.04612628817715635 
0.2003053515389059 
0.01956410494490064 
0 
0.04554216830414209 
0.005874959050331101 
0.5092752311414851 
0.008083417734507225 
0.2118473271246383 
-0.7083949809346763 
0 
0 
0.002422479137645299 
-0.04446870439141621 
-0.1284371620438616 
0 
0.3661102393310485 
0.2153976826916023 
0.0006069164493785156 
0 
0 
0 
0.006795875419055873 
0.04794747643608439 
0.2333334619864425 
0.04872198002485866 
0.1132708484766738 
0.0351427450824831 
0.05522005753388584 
0.004904264726732078 
-0.01733278803398483 
0 
0.01380210020946529 
-0.002190982532590479 
0.002815930743976962 
0.08852000527094252 
0 
0.2532455227741962 
0.6125822790662689 
0.6642707847492813 
-0.003919075421662267 
0.3039069698207714 
0.02242359925613539 
0.02280054448105233 
0.09988068743124695 
0.03837347956254088 
0.04324445841676311 
0 
0.007951607046720601 
0.1444999790816215 
0.1245730521581077 
0 
0.05777206062375315 
0.4577583032938559 
0 
0.4840141037863731 
-0.04440873086575853 
0 
0.144644378576112 
0.5638685923275633 
0.3571485742947672 
0.1588528456642068 
0 
0.236197590310621 
0 
0 
0.03815274111429855 
0.0061089088073061 
0.01246688226583312 
0.05289100652022945 
0.01016710045518082 
0.007802243806178773 
-0.03383129054612999 
0.001344461080479007 
-0.04228564153299767 
0.2764116568125898 
0.110584487091175 
0.02880641703057401 
-0.01552260167120303 
0.05768019457503359 
0.3664794619678722 
0.03520713968483545 
0.003432794534932779 
0.1043117137280047 
0.1902842707533722 
0.1830021004001944 
0.116120480388917 
-0.001241417435270002 
0.1885192301846419 
0 
0 
-0.008868466865573167 
0 
0 
0.04616417899322805 
-0.00624895545714352 
0 
0 
0.1934300510833885 
0.01383937462326052 
0.3026052770141865 
0 
0.0384561870993011 
0 
0 
0 
0.09168421018451289 
0.1687173907134225 
-0.3419284490894842 
0 
0 
0.00158868664787196 
0.02129213905358342 
0 
0.02142907150148712 
0.08773335799992739 
0 
0 
-0.0002737986735368516 
0 
0.01782752490913907 
0.1204244012792449 
0 
0.8240385452570482 
0 
0.02823574314173642 
0.1264621992769508 
0.4534962536446396 
0 
0.01615328781496269 
0.03320282858903039 
0.2030216487164221 
0.01204395795775412 
0.01193285572391257 
0.1694985904010603 
0.01049740825546843 
0.008615672448419952 
0.03172872160463282 
0.01433761534946534 
0 
0.00573433359370866 
-0.04587142210367148 
0 
0.3095492003914701 
0 
0 
0 
0 
0.8240549199973709 
0 
0 
0.3581937072794779 
0 
0.05729123782907698 
0 
0 
0 
0.004933341917921171 
0 
0.01355789770457101 
0 
0 
0 
-0.0393193579775564 
0.1582973213729479 
0.01648893072994716 
0.01219178058971087 
0.001615792500652077 
0.1368188074826699 
-0.0557551307814374 
-0.03047845637334779 
0.3777765114608472 
0 
0 
0.324085212260267 
0.2180919067722016 
0.03635917640277566 
-0.1067689175095291 
-0.4805710421681218 
0 
0.004462926205942919 
0 
0 
0.00295987481759957 
0 
0.01170689933547385 
0.03243236374624677 
0.0553410282018279 
0.001509954904494479 
0.5800617307245337 
-0.0535614841590953 
0 
0.04287668739601886 
0 
0.09329188254495729 
0.0333634927408939 
0 
0 
0.01064380994111611 
0 
-0.1057848359814806 
0 
0.09323844905869069 
0.002596255155980227 
0.05352393989270796 
0.2592309668171235 
0 
-0.01559448062695237 
0.2495844732607851 
0 
0.01031151344362999 
0.04230601523548563 
0.1465568573711082 
0.008804687282759838 
0 
0 
0 
0 
0.2761094487070483 
0.254522815781925 
-0.05017982773488543 
0 
0.03431865248671852 
-0.03799214231211463 
-0.7263512354738659 
0 
0.07291318232522394 
0.1867980223675181 
0.2290534324875182 
0.02263155301311278 
0 
0 
0.2459433954421606 
0 
0 
0.2782857121313086 
0.1743906123384142 
-0.2507176077787623 
0 
0.1634567387199206 
-0.02223251243565639 
0.01792079268963129 
0 
0.1896634774613234 
0.03998114519847746 
-0.025531521039504 
0 
0 
0.1564193664720231 
0 
0.06662061696788492 
0.01159582843494152 
0 
0 
0 
0 
0.003081176915662654 
0 
-0.05073352094732645 
0.06852995732959762 
0 
0 
0 
0.01672452861684344 
0 
0.1781903163577503 
0.05126093009898729 
0.1440742022941792 
0 
0.0402916461754599 
0.04289917643160496 
-0.02027579442848058 
0.2126058222300839 
0.2927558557646744 
-0.0005514623191953817 
0.02641836088044897 
0.01925320382042241 
0.0102312575635704 
0.04814591755703047 
0.3273219537575056 
0.007215527210158165 
0.003367679458535623 
0.6760089782345396 
0.1002831885785503 
0 
0.220421944964772 
0.007370525486709349 
0 
-0.0429331689285132 
0.008968639365677995 
0 
0.6966608222642098 
0.1063982907620671 
0.1833917001614791 
-0.06056211940077176 
0.07008620841128139 
-0.6500380973444878 
-0.005657251597220718 
0 
0.3881955917039064 
0 
-0.06855688307847475 
0.438604150447894 
0.04000805546902858 
0.07279959191861191 
0.149738370398882 
0.3934388250901951 
0.2598274493698314 
0.7231733259542427 
-0.09000923594579868 
0 
0.5192208961778564 
0.1047673168135913 
0.006285497152657213 
0 
0.01600552162019182 
0.1320155910846574 
-0.01471144037472426 
0.0009196975055266254 
-0.001657348372328997 
0.04094105656819944 
0.06396443986649891 
0 
0.07254709324824359 
0.01481560769065594 
0.007108508116215906 
0 
0.05301999138379931 
0.04847504548683877 
0 
0 
0.1248454604813738 
0.007460166234932297 
0 
0 
0.007344584388927671 
-0.05284064459948 
0.008850908488962663 
0.001967316889795698 
0.2991615391598713 
0.9157514716148174 
0.1069465008943616 
0.04153767668792598 
0 
0.01617669321047677 
0.1520459081885139 
-0.02404191454056921 
0.008587102817176517 
0.0079467535636617 
0 
0 
0.6830368105555628 
0.01520136829243878 
0.1716911004215715 
0.2535700648681464 
0 
0 
0.0174031227898079 
0 
-0.02431716104943592 
0 
0.2579689204919152 
-0.02933032294380669 
0 
0 
0.05209752580579479 
0 
0 
0.01205824630896352 
0.7915495146738386 
0 
0.1902498544668149 
0 
-0.002087460727387662 
-0.01476991778358814 
0.01099492090192569 
-0.0009669467994855626 
0 
0.05440064818027261 
0.09619463193636445 
0 
0.07571765793349415 
0.0627210490375945 
-0.1874340018718024 
-0.0623473558112719 
0.002432415815491573 
0 
0 
0 
0.0008269566705084721 
0 
0.0003522414758043104 
0.0175806659769375 
0.1898930652919259 
0.1663477723460281 
0.00774823365015103 
0 
0.05901724168799505 
0.08765686179750788 
0.1694882941738952 
0 
0.08705075477158707 
0.08606072547869055 
0.01905792987138683 
0 
-0.02077794354107538 
0.0001735752940725837 
0.4347406150172135 
-0.01454211891853901 
-0.0487087458160403 
0.1368683932533245 
0 
0.1531007668730152 
0 
0 
0.01205106953718485 
0.01594106602958788 
0.0209906680654499 
0.2862408531960004 
0 
0.005966668522913847 
0 
0.02837763237576708 
0.0003476638996241524 
0.04521337202106486 
0 
0 
0.0955683993147345 
0.3702582723775374 
0.05331987683575302 
0.03097850265855784 
0.008124732762421294 
0.278934985357336 
0 
-0.008476909916517457 
0 
0.1228401277244675 
0 
0 
-0.005284437803534852 
-0.4575228244456611 
0 
0 
0.01974971783913351 
0.1179643521560639 
0 
0 
0.01776277325980474 
0.04123239762256273 
0.6289543776888542 
0 
0 
0 
0.1854558259583859 
0.01535536966324495 
0 
0 
0 
0 
0.005313731403081331 
0 
0.03355772229312785 
0.01915928020298244 
0 
-0.4593041379282561 
0.01535250630907492 
0.5947793011738042 
0 
0.2175163422649359 
0.490499750824095 
0 
0.1072087364511633 
0 
0.2646106738727251 
0 
0.01004135038593533 
0.119022591920653 
0 
0.04619980510126111 
0 
0.1877272696824409 
0 
0.6029266654678628 
0.09303882099064001 
0.3022618636699435 
0 
0 
0.04075809748997206 
0.00931427644888027 
0.2102610633195283 
0 
0.02064866966538691 
0.01071861028695744 
0.1959093921288036 
0.0008042433024053833 
0.3941323583475414 
0 
-0.00466738428116041 
0.07074902897576585 
0.02765754175728759 
0.09588876182526987 
0 
0.01713859957969123 
-1.747974270806923 
0.2032303336456978 
0.2946944331521232 
0 
0.001183386875664298 
0 
0 
0.02793475184577239 
0.001518660299889515 
0 
0 
0 
0 
0.227020341602661 
0 
-0.02508587008852532 
0 
0 
0.02738432371611956 
0.1351297101984384 
0.0793221610313528 
0.3028435245166933 
-0.08516405871597402 
0.04192561855822242 
0.01612254431696826 
0.0001505049832442561 
0.04623866497272848 
0 
0.2712420868390335 
0.0245395234389343 
0 
0.377748116130475 
0.06638454238960546 
0.2837220356943327 
0.6074704908280363 
0 
0.1480240320262171 
0 
0 
0.2114194043061045 
0 
-0.05689798965655715 
0 
0.101730174567241 
0.006767768442099638 
0 
0.05177838264078507 
0.01891733172826171 
0.4513975506063345 
0.0556567957508993 
0.03292511696562601 
0.0175792070003592 
0 
0 
0 
-0.005876160326639648 
0 
0.04575949606999263 
-0.0999719881300407 
-0.0404779833219102 
0 
-0.3304317454245077 
0 
0.05302806869509697 
-0.1629466298402961 
0.2640413183644014 
0.04183913388208475 
0.1062676644654402 
0.01245316199937408 
0.2453937579378218 
0.05581686246129867 
-0.001364882153902053 
0 
0.0009435877348417946 
0.004046642210358467 
0.1330248154668889 
0 
0.04219318253095099 
0 
0 
0 
0.02935871236453838 
0 
0 
0.01077170943091626 
0.008154645783254552 
0.5501470690994601 
0.1699678508888511 
0.08967054615478424 
0 
0.006321064822569458 
0 
0.3462906998866407 
0.3389625286468091 
0.04446228135794444 
0 
0 
-0.02239006068947862 
0.08897537400046529 
0.01230240014247024 
0.07715546275491622 
0.001959843615192832 
-0.4198680391980091 
0.05626110595154133 
0 
0 
0 
-0.02382681296098067 
0 
0.2118408945670833 
0.04536332717139333 
0.08960180308829829 
0 
0.500545730201327 
0.1086844726948375 
0.1672053264697683 
0.05866004077889049 
0.02936729239490416 
0.2253261505989663 
0.1706118987185428 
0 
0.03498196345391663 
0 
0.01529702549357372 
-0.05001909520066974 
-0.02545615159827857 
0.07436950700614588 
0.002913504572026208 
0.1089122658190513 
0 
0 
-0.3967656844698912 
-0.008715441158193575 
0 
0.02041962560040815 
0.01780764177180177 
0.006337735545945454 
0 
0 
0.1267874901799963 
-0.01411574103984285 
0.07297157340441042 
-0.009334092291488332 
0 
0.04688063651838124 
0 
0 
0 
0.05042344565632887 
0 
0.0110566339310129 
0.3504161737757298 
0.2564388574977045 
0.04642986679513274 
0 
0 
0 
0.02475391529866558 
0.1083739165744098 
0.002754256947835518 
0 
0.004005663135648619 
0.01016512010683508 
0 
-0.02615095747933577 
0 
0 
0 
0.004169150303992447 
0.02419576006074402 
0.002711410451735654 
0 
0.1428812911700434 
0 
0.08066206684772667 
0 
0.01663550870480612 
-0.1478029202605873 
0.1197167160210964 
0 
0 
0 
0 
0 
0.07044841784593045 
0.1320638953468549 
0.1636322505485344 
-0.00262599460826672 
-0.01830289290043917 
-0.2066316935428769 
0.005740358526203568 
-0.03422038704567907 
0 
0.1816116835974868 
0.06169566575623096 
0.01885615249480817 
0 
0 
0.0138828870091358 
0 
0.1396087470085411 
0.3870851884491227 
0.0004077300430231519 
0.06053687594659993 
0.5636440540966343 
0 
0.01315389480345224 
0.1226253948471284 
0.08339702500672154 
0.03824966729082114 
0.02516840871725046 
0.03135041884084604 
0.09083504096982226 
0.1195213960233194 
-0.1830202258196711 
0.004052545402614572 
0.008425900807406378 
0.1313240768623861 
0 
0 
-0.04800117022492117 
0.3206677864705627 
0.1656455062772181 
0 
0.02509393523199348 
0.07872478140432521 
0.0877993709391212 
0.002056880963040421 
0.001534211006790052 
0.02653742780278719 
0 
0.00403511150192617 
0 
0 
0 
0 
0.06735855068232921 
0 
-0.005365162642111101 
0.1720698041645984 
0 
0.04423922606819589 
0.004375452543705398 
0 
0.1345370059284162 
0.0717908546290939 
0.1633779973065399 
0 
0.03376213584276545 
-0.009864897143744363 
0.2070234561183417 
0.03323030541394263 
0.006759498433728982 
0 
0 
0 
0.002422726477745335 
0.6864671145673426 
0.09590542823337679 
0 
0.02178788414826184 
0 
0 
0 
0 
0.1254952545937579 
0.2242240277682123 
0.07290966437430366 
0 
0.1073778067602246 
0.1898993090931823 
0.01475780304606595 
0.3917627446545654 
0.1266543136326636 
0.1907799415205021 
-0.03251413085786052 
0.00222008537388316 
0.02218567864964655 
-0.1593576022122708 
-0.10112490627343 
0.0577246437012546 
0 
0.07808278690829773 
0 
0.5602252984135268 
0.04689578909675939 
0.262513431616071 
0.07477143203051739 
0.2534586135616204 
0 
0.0101172926598346 
0 
0 
-0.01780390692538719 
0.0147823405698617 
0.1264995932409284 
0.001387088553940879 
-0.03336489311351835 
0.07090216631854783 
0 
0 
0 
-0.1158634970653733 
0.00896804415911466 
0.003240903195661149 
0.408285018528203 
0.08361187649012247 
0.1718250954847353 
0.1351731667480865 
0 
0 
-0.009050731055059866 
0.1045859575158225 
0.489549340778015 
-0.002261920084884115 
0.006813372334777189 
0.03265483591571537 
-0.1123583478379947 
0.1945552758146348 
0 
0 
0 
0.1063447766546382 
0.01482395398219159 
0 
0.1598661879745382 
0.5417993794533611 
0.06990686117509566 
0.1638012313115781 
0 
0.09440823576765685 
0.02812519132946658 
-0.1105580684196751 
0.02509354493271893 
-0.02718493598891262 
0 
0 
0.3348762323310592 
-0.0001156850153290675 
-0.004331233574829861 
0.004983673880051449 
-0.0321344004191035 
0 
0 
0.0003838143180368276 
0.08202635603170104 
-0.01834067147255694 
0.3574200174781863 
0.006662333766766295 
0 
0 
0.01369071825558457 
0.09158431292792209 
0 
0.4074439811541883 
-0.007236051362173271 
0.004909274784561404 
0 
0 
0 
0.01268682413742158 
0.01610753508014717 
0 
0.05718235849248936 
-0.02706959878099385 
0.05522699967657172 
0 
-0.04056070403454957 
0.007440912424794855 
-0.009718819444933484 
0.09598033871076478 
0.06369304642446139 
0 
0 
0 
0 
0 
0.05477886903119433 
0 
0.3484756614134869 
0.4095615246774624 
0 
0 
0 
0.2201542563881112 
-0.001235395851897399 
0 
0 
0 
0.05551036521418964 
0.107676103180712 
0 
0.02514267037722382 
0.0913878334418136 
0 
0.0557644996972329 
0 
0 
0 
0 
0.1378021542360394 
0.01049628029821828 
0 
0.1654152513018497 
0.03858615186171108 
0.04726232083989075 
-0.1515165736678176 
0 
0.1507801285652171 
0.008112014912771552 
0 
0.170985017653987 
0 
0 
0.2563086939143972 
-0.5157150353253142 
0 
0.3774708948794042 
0 
0.04972865812107012 
0.04692175493884441 
0 
0 
0 
0.2429129944836173 
0.02121607764057631 
0.05927428410839069 
0.09751643574985983 
0 
0.06171013421568564 
0.1348120848245667 
0 
0.002823459147342292 
0.9185099055631722 
0 
0 
0.04591646055508977 
0 
0.05140054573704689 
0 
0 
0.07868741247028474 
0.3136151543768306 
0 
0 
0.04455958415186892 
0.1419378105758408 
0 
0.04816678877006403 
-0.002214910683713679 
0.001987570638229408 
0.01304987352274344 
-0.1077015382628509 
-0.01533680549670005 
0.1052902978597485 
0.05009577266498445 
0.004252433788900271 
0 
0 
0.00343877103690675 
0.01041727329597952 
0.112038539972545 
0.04201461429469434 
0 
0 
-0.01605750896246992 
0.04817648815330244 
0.02827119554975802 
0.3034147836359309 
0.03080992714522527 
-0.004607517265252159 
0 
0.01617231084226058 
0.001255236602111806 
0.009169361037972586 
0 
0 
0 
0 
0 
-0.1148988703273936 
0.05184422568780047 
0.06621269723008966 
0 
0 
0.006197785465035532 
0.1802260349282666 
0 
0.00372718821098346 
0.1329096051699293 
0 
0 
0.06239112874970206 
0.36868473010152 
-0.01331844937264523 
0 
0.07855265755670557 
0.09956525941810922 
0 
0 
0 
0.3770487422699479 
0.0154246908861639 
0.06843121561258982 
0.5409771575950393 
0 
0 
0 
0 
0 
0 
0.0858429214790305 
0 
-0.1653273211371834 
0.006235013627404885 
0.09254152586480824 
0 
-0.08134501714677143 
-0.009371137306307578 
0 
0 
0.01324299166983048 
0 
0.01039881137545886 
0 
0.5007003593732369 
0.02069258900927349 
0.05076023874610208 
0.00638531963621351 
0 
0 
0.002605044993221362 
0 
0.01982841361456019 
0.001037172223036475 
-0.01181612972973406 
0 
0.01349596650638641 
0.1372819486947512 
0 
0.2745305766443371 
0.01402729781462309 
0.04226078425372495 
0 
0.1497670437012379 
0 
0.07356690774116595 
0.2941706084438779 
0.003825517375247143 
0.2092213064193225 
0 
0 
0.01791065721654497 
0.5926673157535688 
0 
0 
0.1454449660983764 
0 
0 
-0.08787001997253348 
0.06835656477578637 
0.007109979911801356 
0 
0 
0 
0 
-0.03497228953493948 
0.3408178607022428 
-0.2415381505658728 
-0.01825933489910316 
0.1496884509813341 
0 
0.00577780822053672 
0 
0.006040610186117644 
0.002152222334041117 
0 
0.03981422837436144 
-0.0904189062489929 
0 
0.04951039270000313 
0.002605074414556914 
0.1192054905380812 
0.02027075103879506 
0.07043455449540437 
0.2960529600457754 
0.06894852406822505 
0.2302591836344273 
0.5978615453730415 
0.07901352878279895 
0.09347997558246869 
0 
0.6230449654304605 
0.02237749237646011 
0 
0.2869561678592976 
0 
0.251121821120139 
0 
-0.04410779766179521 
0.6966669361861823 
-0.01842434723618476 
0 
0 
0 
0 
0 
-0.008645012962946634 
0.2619796449217249 
0.03206273960242295 
0.0238623736589123 
0.008857051237116364 
0.3141181295574673 
0 
0 
0.0913668596935127 
-0.1081944183182671 
0.01356449946785548 
0 
0.1504349102309082 
-0.09647325912169949 
0.1005375323540153 
0 
0.001572246760590383 
0 
0.1644442085612638 
0.2095757797497562 
0.05610309898879692 
0.1247492593092395 
0 
0 
0 
0.3016900061656887 
0 
0.01320293750907883 
0.006826952379227151 
-0.05554596281996537 
0.03392728278381414 
0.0102312575635704 
0 
0 
0.04027746860652105 
0.08388366923341736 
0.009829607934217919 
0.008283044997849558 
0.02009244963403809 
0 
0.1353760328376077 
0.02321688356874082 
0 
0.3229100440187324 
0.07205137578114143 
0 
0.01367942947283521 
0.01120909105353715 
0.1753799431528321 
0 
0.2261976703979271 
0 
-0.3009241458940998 
-0.08540322634415817 
0.01088766644169487 
0 
0 
0 
0 
0.01059280417059304 
0.0446864857781372 
0 
1.124755185485521 
0 
0.1984630832776949 
0 
0 
0.03230124913559362 
0 
-0.01408685446432064 
-0.008841494191332221 
0.2165505457310454 
0 
0 
-0.006546863798432882 
-0.2784048752092728 
0 
0.03145235305068154 
0 
0.2129963999808177 
0.3376843004569134 
0 
-0.01982571267253624 
0 
0.1149845550778423 
0.1273444706201444 
0.09913029189277507 
0 
0.04511116635827694 
-0.002508628986574255 
0.4139871687789971 
0.001750987761022754 
-0.04428650205579545 
0 
0.06459916479932026 
-0.005947638150615466 
0 
0.009205200606672934 
0.02479694953405594 
0 
0.07033259128977966 
0 
0.0008310005564931206 
0.01141711951572907 
0.3127771998925566 
0 
0.4410996815334571 
0 
0 
0 
0.02996566533535468 
0 
0 
0 
0.03588105105000944 
0 
0.01457926229323485 
0 
0.3406102040329858 
-0.08552595062883815 
0 
0.1049066990063428 
0 
0.3690824871495708 
0.03769696048623132 
0 
0 
0 
0 
0.3343740732984753 
0 
-0.002604240883100342 
0.01542389228967802 
0.07553020180432735 
0.3870467444958571 
-0.02036513321696883 
-0.04586064950324528 
0.2042263383975708 
0 
-0.104862883976101 
0.1237879227062213 
0 
0 
0 
0.3055736257966353 
0.3639474959108615 
0.1126298380987913 
0.2281637403710426 
-0.1555262074722171 
0.571563032337593 
0.02537996012659715 
0.1290285865299734 
0.04226898119670867 
0.5919381178738305 
0 
0 
0 
-0.07581695512621144 
0.08084584242630133 
0.01847274299098615 
-0.06474732782184996 
0 
0.04379241557132463 
0.003469839954891274 
0 
0.02232372831104533 
0 
-0.01471693316891134 
0.01833295016278754 
0.05629377929612749 
0.002093642832017342 
0.013301409047006 
0 
0 
0.03942296147025619 
0 
0 
-0.0782153660476656 
0.1121584090561481 
0.02356299119086953 
0 
0.09919051355586132 
0.0564013150669222 
0.006562283426817518 
0 
0 
0.1937463654967161 
0 
0 
0.4794539002179858 
0.1812334588356526 
0 
0 
0.3634831267300939 
0.1169960251471382 
0 
-0.07090377479629255 
0 
0.0001367186743120444 
-0.1626796004044895 
0.01778553103507024 
0.002823884020546332 
0.3205721624690654 
0.008910387946408027 
0.02056483128187681 
0.03170570517356457 
0.02388617982844042 
0.09000130408028398 
0.1524982996106244 
0.05014963634947662 
0.1158066606189729 
0.01891620987838827 
0.07253336550344212 
0.1677369380070979 
0.002147394452059874 
0.001391908750964547 
0.04389283797905567 
0 
0.0315219451045664 
0 
0.1847683166405374 
0.02885504382345556 
0.03093244346557449 
0.8050353348151174 
0 
0 
0 
0.03939551390063693 
-0.003695253419459487 
0.08551455552575274 
0.01581381267323581 
0.2077572759865389 
0 
0 
0.005891151609349706 
0.008772596314544381 
0.1910906163918082 
0.001215214385813767 
0.002138136083022352 
0.3028229018113805 
0 
0.1669521400043554 
0 
0 
0 
0.001092841995842976 
0.2121216618551684 
0.2639220959162186 
0.05052287595218941 
0.07648723506419022 
0.157891328635181 
0.01307292218061419 
0.05960057516798362 
0.4413937295236372 
-0.5364553922059742 
0.1486670805418073 
0 
0 
-0.1547616093983321 
0 
-0.009555221896937579 
0 
0 
0.03284649398903284 
0 
0.08665328487316781 
0 
0.0292848136236068 
0.04600811447429137 
0 
0.02976101254136812 
0 
0.02569464873624305 
0.02428702737004937 
0.06214935017377961 
0 
0 
0.001470834871656783 
0 
0 
0.04851096778499286 
0 
0.1085169999236223 
0 
0.2356367570357508 
-0.4271302762514035 
0 
0 
0 
0 
0 
0 
0.306421398003394 
0.4644392285290135 
0.08937172043946412 
0.1728473155557662 
0.03151089053387637 
0.007033963704605048 
0.001739045826381912 
0.04816754513300027 
0 
0.002974138093744889 
0.2252472866627002 
0 
-0.07846972303957572 
-0.1613766300688043 
0.4810369867646264 
0 
0.001117682072758641 
0 
0.05162680143039125 
0 
0.008958955771761579 
0 
-0.08196950040089931 
0 
0.2108244520823517 
0 
-0.09248830482718291 
0.09930053868405866 
0.01614781896804413 
0.277324179797614 
0 
0 
0 
0.06915192105231133 
0.003662438277042556 
0.001190010374398742 
0.01827660702355519 
0 
0.4190597407963036 
0 
0.02209531599931196 
0.01634915537899713 
0.00572671964923342 
0.01528677980342457 
0.07233276760048894 
0.1861053848498444 
0.001607699042335347 
0 
-0.03403670729326745 
0 
0.2472528305098433 
0 
0 
-0.02105302041891317 
0.001342635189520063 
0 
0.1345777502193565 
0.02805558529505087 
0 
0 
0 
-2.892708779351024 
0.04348888972931411 
0 
0.01686294106227095 
0 
0 
-0.8337752590389639 
0.2695751621671749 
0.2061763987251304 
0.04039181026555596 
0.03562289855629081 
0.002477978656546759 
0.0884778626514586 
0.1993728102820301 
0.2543680460245694 
-0.07673976683439913 
0.02937553654245723 
0 
0 
0 
0.06887789292347563 
0 
0.01021677841729117 
0.2419115685041326 
0.01358730149787716 
0.004933317941880199 
0.02421686232669431 
-0.05852661640101223 
0.001955350265819277 
0 
0.03597883103093751 
-1.334363228414885 
-0.02887505343215914 
0.003080958490375851 
0 
0.1019891416993078 
0.1617682048657064 
0.2943937701272332 
0 
0.003860254285348652 
0 
0 
-0.02247672341505126 
0.5216286947183555 
-0.01776189686912743 
0.0001054013930163762 
0 
0 
0.01567838357036652 
0.00226608191030885 
0 
0.009116749384522562 
0.008122720881878709 
0 
0.4221132792012631 
0.003417700884815286 
0 
0 
-0.03147547769400751 
0 
0 
0.04419027975485984 
0 
0.04321180738297963 
0 
0 
-0.009812253483844954 
0.01679422066850545 
0 
0.1289018394990087 
0.03123605989978806 
0.421383954078229 
0 
0.1195315275866505 
0 
0.005488351800284959 
0.1448144694954984 
-0.3109524149676661 
0.005836339356941704 
0.01446411737276468 
0.2741094448268396 
0.1001247999503779 
0 
0.07434861102804063 
0 
0.001996327092758015 
0 
0.1343297950428604 
0.1561712819776779 
0 
0 
0.05970411560191898 
0.0004506174306480636 
0.01191376121198849 
0.0449802870860366 
0 
0.1784641038957368 
0 
0 
-0.01405324352337781 
0 
0 
0.1492611243292367 
0.01874692818142664 
0.07326280247038078 
0.1386795460093563 
0.01159381484978708 
0.03049125205172832 
0.01317384038824869 
0 
-0.0147509339825558 
0 
0 
0 
0 
0.04362946345559198 
0.2326242543382471 
-0.4213024070631753 
0 
0 
0.0158314636247312 
0 
0 
0 
0.05280513884483271 
0 
0 
0.0574987122893091 
0 
0 
0.04762784151354797 
0.01945919297216405 
0 
0.05374279835815683 
0.02931555970513287 
0 
0 
0.1849732910047622 
0 
0.2162555987223922 
0 
0.1494954631066673 
0.2405160773624181 
0 
0 
0.05672526134707592 
0.01107733029523687 
0.6953657385956945 
0.2228082603543925 
0 
0 
0 
-0.000453290332547973 
0.02310053637570249 
0.02315173660927206 
0.03242212566736623 
0 
0.05297030532750271 
0 
0.02748042887730577 
0.00404117008150629 
0 
0 
0.0512385906926079 
-0.007640648580515334 
0 
0.02759160727940478 
0 
0.002142909222761895 
0 
0 
-0.004293147416058737 
0.01787001074461595 
0 
-0.04640538437262893 
0.4157114497270999 
0.05202156212754257 
0.009916893471198934 
0 
0.07061629680738443 
0.01983874340345416 
0 
0 
0 
0 
0.2412140200407232 
-0.1403368336448752 
0 
0 
0.04412853302290638 
-0.04831073576758905 
0 
0.2792606141572778 
-0.02486114407338273 
0.04013655730512046 
0.01365433748285864 
0.5479867221412769 
0 
0 
0.04415785928792395 
0 
-0.01843227039675554 
0 
0 
0 
0 
0 
0 
0.03801270324985069 
0.02206306040675341 
0.06219485993572799 
-0.01345095405290873 
0 
0.1734765412113381 
0 
0 
0 
0 
-0.194510861102005 
0 
0.03908802754241957 
0.1793933109794627 
0.004500542190384186 
0.1232262615764599 
0.001339968075465056 
0 
0 
0.08856907648574953 
0.2990214220690234 
0.2088045855346861 
0 
0 
-0.03675777743234852 
0 
0.06531816206368073 
0.2555714770711633 
0 
0 
0 
0.02916828258627792 
0.01218041091996504 
0.3243700490625989 
0 
0.08660584951078018 
0 
0 
0.2817293774420785 
0.1250426203108744 
0.01800559008145488 
0.01809820764589933 
-0.07213541243705232 
0.04093278191180466 
0 
0.02158927709248867 
0.05356937611200473 
0 
0.3393431532440238 
0.07511614178502467 
-0.06029912132083834 
0 
0.0310160446562446 
0.03076252506389481 
0.06688004193398643 
0.1160770464731673 
0 
0.00395416516917578 
0.09787211855990169 
0.07935966004905062 
0.03660414133035546 
0 
0 
0.03766528562407477 
-0.0006127250339635851 
0.07296684598478696 
0 
0.01408067998810503 
0.1231552918657858 
0.242067803614976 
0 
-0.17393937754204 
0.07182193303766402 
0.7557660676526031 
0 
0.002869210595555442 
0 
0.007274051667480792 
-0.02464417710556704 
0.05170404780288758 
0.009093698732081722 
0.005339413043769909 
0.1743190270241055 
0 
0.005836339356941704 
0.03490737562609646 
0.0378664688202294 
0 
0.09881350349158929 
0.03398952749311578 
0.04894593257761253 
0.1769645060447836 
0 
0.05977273330208483 
0 
0.1379455131994233 
0 
0 
0.0378750798912077 
0 
0.03220337188609024 
0 
0.4088688169668835 
0 
0 
0.2678707848312127 
0 
0.008494753358251424 
0.06602174567242476 
0.6795765340016777 
0 
0.0001786416840838455 
0 
0 
0.003046033673107656 
0.001283326689858254 
0.1843958007221538 
0 
0.04048551058061419 
0.07039760745830875 
0.1179442010370811 
0.009722335978659053 
0 
0 
0 
0.2531165913473109 
0 
0.1862072655071502 
0 
0.1082429893226709 
0 
0 
0 
0 
0 
0.03447355471963995 
0 
0 
0 
0.0582118499435705 
0 
0.05003857184988927 
0.01578231596247913 
0.01430180699023778 
0.2754196934994457 
0.1376021727774426 
0.1546532829366526 
8.486656848200864e-05 
0 
0 
0.005849538507024458 
0 
0 
0 
0.002306826658454138 
0 
0 
0 
0 
-0.07626981479715439 
0.607108272430158 
0.02915864482013628 
0.01281012563826098 
0 
-0.07469323040819568 
0.006472113270869039 
-0.01366111375448668 
0 
0 
0 
0 
0.02793533282961964 
0 
0 
0.2385306875848198 
0.1326731137561991 
0 
0 
0 
0.3433474193191152 
0 
0 
0 
0.001258951846434324 
0.08693257981971428 
0.0338916308410003 
0.1478972517298962 
0.03561060075678765 
0.3636622933405961 
0.004508985460356756 
0 
0.009476559735940171 
0 
0.4156907096370241 
0.01243243606956215 
0.04023681773061415 
0 
0 
0.09752937872201252 
0.05276792854952311 
0 
0.01121106963289476 
0 
0.004110767181384309 
0.0409702300428709 
0 
-0.01457667414255067 
0.0200016158716651 
0 
0.1817028476380282 
0.09403444561681842 
0 
0.0003446857184742813 
0.0163168896644352 
0.6271170412221736 
0.06861747243836276 
0 
0 
-0.02086967034292546 
0 
0.01902086012246647 
0 
0.1441612240906861 
0.05792030420987443 
0.008235499355764789 
0.05622315167645369 
0.08762301763079222 
0.02567871015323199 
0 
0 
0.05958952471916919 
0.1114301768818905 
0 
0 
0.06878259134087358 
0.02115980227911567 
0 
0.01436916539884124 
0.04266315547301364 
-0.01325773739486878 
0.02106734888205302 
0.04936565610507657 
0 
0 
0 
-0.001299635155243463 
0.07313188484699884 
0 
0.4550201372192637 
0.006708437043309148 
0.009138452230580647 
0.002863491721396452 
-0.06514590456301704 
0 
-0.00120105820285048 
0 
0.05169999250631923 
-0.1232249536362028 
0.1119044797703459 
0.03905464066072348 
0.0124927543347006 
0.1088341879990214 
0 
0 
0.1968253961384005 
0.05321873503661692 
-0.02607576585643709 
-0.003905304173186485 
0.002527623493031401 
0.1556655148197764 
0 
-0.04144273235354155 
0 
0 
0.3058108035613834 
0.003772127417442057 
0 
0.03984378724139331 
0 
0.04699675267639068 
0 
0.0438826933718913 
0.1267918650782445 
0.069206423146168 
0 
0.1975069329764629 
0 
0 
-0.01591438076389605 
-0.004266422807205857 
0 
0.004706160313468669 
0 
0 
0 
0.1916050012517019 
-0.1266535894112963 
0 
0.05496413731220819 
0.0266129041074451 
0 
0.09565618733868161 
0.0413939059961121 
0.04559484358243858 
-0.01868132937274882 
0 
0.02007041654622745 
0 
0.145412250509319 
0 
0.03847322021047834 
0.01428508766052568 
0.001958445003636797 
0.005727835727372552 
0.004475176441070226 
0 
0 
0.3623369370750384 
0 
0.06762839632681954 
-0.01700691978555573 
-0.01205252154218319 
0.04131071637901365 
0 
0.08427243221052737 
0 
0.01499990322320419 
0 
0 
0 
0.005944542817259883 
0.9181076999449719 
0 
-0.004495366676010487 
-0.1338150599993717 
0 
0 
0.05878179397251113 
0.005981532768027827 
0 
0.01364412344052394 
0.02337956459030486 
0 
0 
0.00366888498805301 
0.05365421814240758 
0.05167951751620127 
0 
0 
0 
0.07710251300747463 
-0.007065959869017209 
0.02010210577916407 
0 
0 
-0.7459340177675867 
0.2420940674843028 
-0.001373154100980285 
0.07703042981092315 
0.009976498240921946 
0.04233527069790444 
0.4899788767892008 
0 
0 
0 
0 
0 
0 
0.1197828374324813 
0 
0.004270607136380593 
0.1823210996563982 
0.03182950546499001 
0 
0.0904492626221349 
-1.173965767438504 
0 
0.006163948023592769 
0.04984812961986435 
0.03363326922923397 
0.04392168793520949 
0 
0 
0.02382846496581585 
0 
0.05957689924338644 
0.01451162266758267 
0 
0.02796372528550764 
0.08150407120044247 
0 
0 
0.06209270154893223 
0 
0.03251187950699292 
0.8398249651970137 
0 
0 
0.01313738720982975 
0.01089012320394827 
0 
0 
0 
0 
0 
0.1192649583633311 
0.06239040293697499 
0 
0.0314774191304746 
0.03418662893138694 
0 
0 
0.02243199810596966 
0 
0.1519788754496824 
0 
0.03442209168591272 
0 
0.007724436154077721 
0 
0 
0.001487679767241961 
0 
0 
0.01671584246919246 
0 
0 
0 
0.007749951183422501 
0.140782659539693 
0 
0.0040238043437113 
0 
0 
0 
0.08582872511012096 
0.05725406022925777 
0.052798360156402 
0.007260794996616219 
0.01415335139478959 
0 
0 
0.1057565017875637 
0 
-0.5108624225963826 
0.04023578001302406 
0.02251637507442519 
0.00396134541113867 
0.5089681910767966 
-0.002012581301099863 
-0.05994794232612196 
0.01241773178842994 
0 
0.3952624049282528 
0 
0 
0 
0.3494662139239682 
0.0253718259396293 
0.3908512270880313 
0.1419054928008186 
0 
0 
0.147541442254909 
0.03332514200639141 
0.1473016067673423 
0 
-0.1479430937159515 
0.01930487782901736 
0.02655076856161253 
0 
0.2777086995136817 
0 
0 
-0.03703691231511193 
0 
0 
0.003463505757211657 
0 
0 
0.01589934452487811 
-0.002662576921891688 
0.04940529175287292 
0 
0.03603575291246713 
0.05293519893805708 
-0.001528129716103067 
0.01305527823171716 
0.3506242427420391 
0.1734546668623774 
0 
0.06828714417613566 
0.2368540168022094 
0.02383438444742077 
0.006258058506477221 
0.1017494798253577 
0 
0.003135759214524211 
0 
0.01855516234859292 
0.004523081789694723 
0.01098086221059646 
0.02784173812298931 
0 
0 
0.09812615237102533 
0 
0.02939201478957306 
0.08250033055774539 
0.01515801763056457 
0 
0 
0 
0.5883557377694386 
0.5181183980089104 
0 
0 
0 
0 
0 
0.2815819214006935 
0.2575000412615138 
0.04722507565621076 
0 
0 
0 
0.0003506259850493173 
0 
0.424655326792743 
0 
0.08870393074727777 
0.1827971380826555 
0 
0 
0 
0 
0.05027344455667865 
0 
0 
0.1499461466884779 
-0.07355083592615849 
0.00386255559890785 
0.1305195367493255 
0.0215281844059756 
-0.02059432145660085 
0.01449206982037217 
0.06629828642524886 
0.07517901874709168 
-0.260860739139167 
0 
0 
0.07549332646691329 
0 
0.001743687251900297 
0 
0.01197051238317798 
0.3709770887613166 
0.01772648409519528 
0 
0.03904556459157349 
0 
0 
0.005427433996288877 
0 
0.1422478725958937 
0.2246415242563402 
0 
0.0175495249157213 
-0.1342664426843681 
0 
0 
0.3333576428322215 
0.1258203995270837 
0.3708049344677681 
