solver_type L2R_L2LOSS_SVC_DUAL
nr_class 2
label 1 -1
nr_feature 5000
bias -1
w
0.1001472850951886 
-0.2145755506722772 
0.972605566380557 
0.01433576846833533 
-1.208790579810518 
0.05014687238012906 
-0.8802491402230798 
2.487494821888731 
-0.8696888634939297 
-0.5195804403281907 
-0.5074724816327862 
0.4075580960114688 
-0.366396152870219 
-0.1664546313658007 
0.1059373900145215 
-0.4796881181121981 
-0.01087377521838008 
1.098736771958548 
1.452040518244778 
0.228455201432501 
0.7468973824098259 
0.2988877405728018 
0.2631872573192724 
0.3991134090273848 
0.4029721048154097 
-0.230817323990204 
-0.3556013854179171 
-0.4785603881534346 
-0.008343392236035214 
0.1377522350100928 
0.4212638790559484 
-0.07277461774428647 
0.9714555929908604 
0.3753057595215955 
0.8249151683793055 
0.4762358719746591 
0.4412849063252106 
0.2495537957319525 
-0.2705565371904647 
-0.05687360625913751 
0.1046355011062155 
0.1468215252513968 
-0.5391881357504416 
0.3003001755064122 
-0.9529675003526725 
0.3241607322627615 
0.7654916963219377 
0.1149014325417003 
-0.14552312923202 
1.739905850169989 
-0.8301103776157066 
1.388519922395146 
0.9387944262889116 
0.3549798247592391 
0.6335607085449156 
-0.1549280114522692 
-0.6957105893895477 
-0.5318517636547651 
0.31102243212744 
0.4036942742585646 
0.3663503614340441 
-0.3604363743588583 
0.425639569408051 
0.232864023802826 
-0.804200314959404 
-0.2994073723350537 
0.124308650252266 
1.63510516400045 
0.2262296417287068 
-0.2707486340115267 
0.2544120656263305 
-0.3812306441243324 
0.1225834108263698 
0.1284716283031567 
0.5799346353361283 
0.1851170225265628 
-1.322140289509407 
-0.2008949286248665 
0.7985462521891266 
0.1558629506447008 
-0.3087584986799531 
0.05417035785433363 
-0.161671873695316 
1.785622961514203 
-0.7334847387155898 
0.04270150119721096 
-0.07489759583587544 
0.1806661400561441 
-0.2622318133297541 
0.09299505888606932 
0.1116251426527109 
-0.5246314885622821 
0.005495175018519226 
-1.126109782592235 
0.18439361830837 
0.4027962620448595 
0.02279906901526903 
0.6999164718522161 
0.03836479282355104 
1.192546982517178 
0.3600453254400763 
0.04591738736455016 
-0.4158865081476442 
0.008105129528878405 
0.1982206015583642 
0.1538046900388134 
-0.1429300557049601 
-0.06219348645607768 
0.06556940495195784 
-0.02173124331691719 
-0.36811715947533 
-1.317359772744704 
0.374565194989992 
0.4576064991329351 
-0.8563798233583194 
-0.1658311307059048 
0.2723359289636199 
0.3215890119234072 
0.2610234388438887 
0.406580037424257 
-0.3587351502570995 
0.557377050920856 
0.08076605218048809 
0.5535394491497307 
-0.1559402605237251 
0.3703068326489359 
0.0004355138653865852 
-0.03165340788447222 
-0.005285869932739086 
0.2954437328815037 
0.07246542536287083 
-0.02837275955217275 
-0.3730891690852808 
0.09252764710369585 
-0.2048307160095549 
-0.5405430605119339 
0.2189456233096614 
1.390577090175183 
0.06774854824836807 
-0.7638744221704344 
0.2040071856646445 
0.1200783502277475 
-0.8196261386797662 
0.008120092001940093 
0.3355287598881111 
-0.03842682694261439 
0.08393064982478141 
-0.277945786712094 
-0.6433608136165072 
-0.5603273383132571 
-0.212332614920512 
0.08793169852969772 
0.1195606635606527 
0.6023364183344697 
-0.09453008920917229 
-0.8080401671734397 
-0.04752987409084033 
0.4997195637457864 
0.134883867469999 
0.1787689408551981 
-0.1684729333859552 
1.403971686446782 
-0.008258109895775296 
0.05742028304964789 
0.009475107276101555 
0.106310359060323 
0.7246965522899635 
0.0359819594589597 
0.1878361744772749 
0.2398546586706622 
2.599027708776708 
-0.142195036958053 
0.3365161280275814 
0.5290668895049022 
0.1061806859171109 
-0.8446411940651394 
0.8486808775145206 
0.7072357664151478 
0.3110354709504675 
-1.477516523569023 
-0.5732299054310297 
0.501922474539224 
0.2951411542223319 
-0.01035795326961254 
-0.242752515341787 
-0.008056292489845931 
1.301187123345893 
0.4386886351839384 
-0.2255306292202064 
0.5170771476402368 
0.8242797357640026 
0.7682060781400226 
0.3008220678133401 
0.04265391503246296 
-0.1908493015454539 
0.1512476215278527 
-0.439951750083365 
0.8411045551147643 
-0.002644125477233402 
-0.08721498784176931 
-0.4386353478535853 
-1.946814189012666 
0.01523498046585627 
0.1239064068420787 
0.1030351982999079 
-0.05605719584838569 
0.009018164360461879 
-0.7450489419708067 
-0.06103863012824538 
0.67034447077432 
-0.1571677915877399 
1.406295492787308 
0.07035563979003 
-0.1263608490299777 
0.2741727122928616 
0.03980080132426594 
0.4931536855813529 
-0.7026002637133739 
-0.1380772258564384 
0.3684876727617534 
-0.6768727887249875 
0.2784234924349536 
-0.3147408725968139 
0.07175156772456384 
0.3306979823222807 
0.02743298811757746 
0.5333262250702884 
-0.03571920850253861 
0.4994724398945968 
0.2555465303615608 
0.1453917519741487 
-0.01054196186862764 
0.1896309045010373 
0.5234961771305482 
-1.711655668839182 
-0.3754113514670697 
0.2229123512849128 
0.6953673460614949 
0.3629678829453043 
-0.09681234270565799 
0.002290117350534404 
-0.001423342127164619 
0.2065885609445848 
0.4083219271299783 
0.06529123371488862 
-0.4376573163127029 
0.2433109668359712 
0.1746549899572715 
0.2695452600938499 
-0.5119388419493645 
-0.0869042249101286 
-0.2496030667406985 
0.7198921430714388 
-0.4067989435885831 
0.1192377117888695 
0.2514348944754965 
0.2228083801612358 
-0.7443611129740278 
0.1169870911501468 
-0.5269102716159761 
-0.02112632067793713 
-0.6285983595637044 
-0.4662308258537554 
0.2692099545794757 
0.03615156798346419 
-0.09780014861910216 
0.4258438053132425 
0.2585620549067537 
0.1975265256165377 
-0.7209981231690468 
0.04643247114337697 
0.2289137452646116 
0.6724820559489637 
0.04606190374122861 
0.281504044365224 
-0.6229930784652872 
-0.2068584587514292 
0.04864541708362495 
-0.3792867211172813 
-0.1820758962254946 
0.1468377835457727 
0.2230967045161154 
-1.503037717306648 
0.3384957440774795 
-0.6027484582369124 
0.8119705624051786 
-0.05597245305373534 
0.6027654989531286 
-0.5802754737954691 
0.004368050629502157 
-1.300512239940835 
-0.4542526798455949 
0.4828743123187106 
0.2142275445974125 
0.6217796508231884 
-0.2003903491734199 
0.1770522909404554 
0.4786248527644693 
0.8335154741465339 
0.0450363285125008 
0.7373149584945136 
0.3813209137459965 
-0.5252934735226124 
0.6729447545007483 
0.2128727686820781 
0.2512722359694027 
-0.4023146758339746 
-0.6243732406970299 
-0.2082279722962987 
-0.122078793311368 
0.01223161051039962 
0.1208335683837347 
0.5443990807247916 
-0.9435971117949593 
-0.1458803352073929 
-0.4141878387903847 
-1.064534425285655 
-1.568322164323455 
0.5048120220360295 
-0.2619543542278183 
0.6908128125311062 
-0.2855233302704121 
0.5594275769307476 
0.2697335955220396 
0.1972076658145489 
0.4316729469329083 
0.1973214614118155 
1.146303472920485 
0.3962801141310583 
0.01327746585589044 
-0.6125881181484681 
0.3162537630972139 
0.6040074193566165 
0.4982460412677021 
0.1636424181217695 
-0.001141816644013936 
-0.1498275985164739 
0.3537483649968654 
-0.3515548816008721 
0.9029290677355153 
0.0716154349709123 
-1.740947266538589 
-0.01358488995276183 
-0.1463245193115772 
0.1204131255027418 
-0.297551344880541 
-0.8205048858269067 
0.04340599408220473 
-0.1890966591301288 
-0.1972383192211949 
-0.2813072364174924 
0.644279329457517 
-0.06645220130041071 
0.1128479712478175 
0.3432051650623428 
-0.02458803110880312 
-0.341473540620334 
-0.2764599144353728 
0.03584093331673296 
-0.3560135340560429 
-0.334432020336011 
-1.351334852024604 
-0.1629997616963795 
0.08119805368294836 
0.6812343892148403 
0.1281013521435251 
-0.07685332668832882 
-0.1413436708390295 
0.4495970575085965 
-0.4589586606563215 
-0.2817745139117533 
0.2072438486005694 
0.7052408077827959 
0.01636214160630703 
-2.122441373360207 
-0.3360415310739053 
-0.1744813842103374 
0.2010446944304247 
0.2264423471416506 
-0.02755701321055582 
-0.4964566762535582 
0.1868456367250437 
-0.2821615696507338 
0.002498541109718859 
-0.3716184951085188 
0.1818865962602745 
0.25400465198164 
0.5868576512510219 
0.2386028873981731 
-1.135671965391873 
-0.2267393536916417 
0 
0.198456034595493 
0.2351955945088452 
0.6089316262395511 
0.8665505415770729 
0.9683589400385544 
-0.3082590572852379 
0.06536950278790095 
0.05786161727659517 
0.05373421526514677 
0.828627503621475 
0.3149693205310363 
-0.9493926799070742 
0.5576836521931904 
-0.7754993962441394 
-0.100328695794611 
0.4105434238725286 
0.3444751120534124 
0.09833473240083973 
1.462258625173054 
-1.430015091687952 
1.109643385240737 
0.1855606739984408 
-1.428740010195409 
0.204094606558663 
-0.3093460837068349 
0.2603656319089186 
0.01674427931319962 
-0.05193938638261138 
0.2334152810096639 
-0.01268358212936284 
0.2232511367797582 
0.3474596718041629 
0.4790418602791428 
-0.3231764412587607 
0.01736575880817741 
-0.03709936762271274 
0.3883140490179074 
0.2699571089806609 
0.008527747613553896 
-0.6909577684199847 
-0.6847214570885103 
0.7376338313437619 
0.05326748290863042 
1.06724702596336 
0.6455515861846453 
-0.06920247299083998 
0.4396178801943428 
0.05651939895944567 
0.2049301050898958 
0.2292968444244875 
-0.9835564638868197 
0.2139281520674309 
0.05433576095555344 
0.9235369794707911 
0.4830022367691578 
0.06327477617088864 
0.5357495329431107 
0.007084017634510527 
-0.1940110237479235 
0.01156009113552726 
0.1241131455933617 
1.277227988679636 
0.8003724404736093 
-0.07344460202095207 
0.2768591324418336 
0.2305947989371338 
0.01854164725604874 
-0.06038309339621035 
0.25188218238577 
0.02745801717115258 
0.04607877596152752 
0.9163048183906944 
0.3358753443116667 
-1.46990473996975 
0.1585786368319873 
-0.277342943165283 
0.5692076648352046 
-0.6632509475973034 
-0.419029887381991 
0.8730792657959174 
0.3457818975639012 
0.2795822765409465 
-0.3886891973538579 
0.1100625988346663 
0.2894039063358447 
0.08361787930963617 
0.1623452431802872 
0.1190956454577525 
-0.02236285885611773 
0.2812037489877908 
0.4166867592832627 
0.04435541800337756 
-0.2050426512567258 
0.3898495145441243 
0 
-0.04238841724762964 
0.02640889776433073 
0.3142610698393836 
0.932219563111249 
-0.8809536914058553 
-0.08326233509381657 
0.09460500312429093 
0.04953944568757711 
0.1752673676326128 
1.32434324420038 
-0.5506235011489075 
0.0995717157777441 
0.03392268891819296 
0.2230639570371713 
0.1009866510018423 
-0.6545778174898248 
0.282909379334773 
0.01788633691712918 
-0.2804423467570999 
0.1695416302851995 
0.6213518529383825 
0.006666398261729196 
-0.01532873930266375 
0.2147401168108043 
0.5898667194482671 
-0.003630679722743061 
-0.4659320567972476 
0.06099159498150142 
0.5758594455210745 
-1.667488369670413 
0.1599859165118082 
0.2027301650373808 
0.04910229953211027 
0.5042262102388263 
0.05506120510494063 
-0.2419672293817919 
0.006303927075289651 
-0.5280782005866486 
0.04768311551240465 
0.09683221670998357 
0.221914655240051 
-0.183717171317025 
0.2084347451138505 
0.01218796353959025 
0.4554248877166381 
0.4715088068411694 
-1.153670349535744 
0.1145551397201718 
0.6685633300362666 
0.03256954117190029 
0.1414256882097304 
-0.3559246192107221 
0.09046626849780412 
-0.2743316662088731 
0.8355743853440208 
-0.8107498721709275 
0.008686432819770251 
-0.169496774174498 
0.2732895180346069 
0.08116146977138533 
0.2118911014352491 
-0.0740598186869228 
-0.03154466009435648 
0.1979950172565114 
1.045301860073781 
0.5382814622596347 
-0.01520981688891348 
0.06141782574877817 
0.0772570819728825 
-0.1376586610444507 
0.7385988772189535 
-0.02946045872983655 
0.9658613044109242 
0.006917766894273484 
0.7672469713578947 
0.1491215868498567 
0.5466933564253339 
-0.9414037022377333 
0.004135229085432975 
-0.2614116642080964 
0.0655303051061694 
0.2022699663757793 
0.1289385487888085 
0.7064227363134157 
0 
0.8287351508225405 
-1.39873994174292 
0.1268841166414628 
0.4072636628873262 
0.5146124947076519 
0.402914898426074 
0.2266772352660942 
0.015965977583969 
0.1027569775152377 
0.2070847783564044 
1.114236724105116 
0.1234837942896099 
0.3893352429162097 
0.4030339345420092 
0.4055307801521649 
-0.3988456218666841 
-0.1576667885506983 
0.0511190317614733 
-0.1413536083985114 
0.1967701237471029 
0.04533576972923353 
0.5910951476823753 
0.358589181541238 
0.2799922177828226 
0.5450605302797442 
-0.01501172958768321 
0.2257402203052936 
-0.2352051459685429 
-0.02293651797893508 
-0.370939050567418 
-0.3021300510527217 
0.2260096708245447 
0.2282463178225444 
0.01984739546825453 
0.1116989033866131 
-0.2206919511432572 
0.33974742256131 
0.2305975690417963 
0.08506833364559906 
0.2651965297323594 
-0.6412218355144065 
-0.1901028952407887 
0.1804196265196104 
-0.1425779257746656 
-1.159376940961208 
0.08993895652948249 
0.5347870381005485 
-0.174159411492754 
-0.1865258072835007 
0.05188588208542462 
0.1570911611305111 
-0.4007055744519903 
0.03029092199446769 
0.4091923764514707 
0.3604004298334595 
0.01889058634783006 
0.1270892469754116 
0.3778754329301647 
0.04553415038012091 
-0.1944775718950954 
0.4341130152636414 
0.001592297084900374 
0.6717596272525036 
-0.4216286325361785 
0.2836621780434997 
-0.3167550965220835 
0.2014622955982233 
0.4448284421022574 
0.2512000332252272 
0.3548761057449383 
0.4970608740543996 
0.3599003767763317 
0.06697682699946926 
-0.210250459391346 
0.6669866103294892 
0.3544560504739949 
0.9500192781527784 
0.05347171756224355 
0.6676852409751683 
0.4412058881784092 
0.05340135379429301 
0.3401925998217777 
0.6877270034559492 
0.3062303987132043 
0.02553678368862838 
0.07638510026273117 
0.00037237087238519 
-0.2632470369291202 
-0.03338280941520439 
-1.530583033098305 
-0.6078683491000507 
0.1306095309994483 
0.01167987033238186 
0.3592375675347179 
-0.8736450445817755 
0 
0.7320687182984552 
0.009072945810964602 
0.3410287426543567 
-0.05929345264921949 
0.1439324851375577 
0.2879591960960918 
0.1163295132606628 
0.3395637459251502 
0.04154460223818082 
0.2011338636958792 
-0.05504330834050745 
0.7703155411838973 
0.3020002532078049 
0.3017883345105679 
-0.2860106204449802 
-0.1889239314605003 
-0.3471947255201827 
1.691944271192238 
-0.01097590560963718 
0.06981328056631572 
-0.2021028964720956 
0.143836803009897 
-0.181828732038137 
0.474479041531303 
-0.4319531724270627 
0.8739537777955282 
0.391548802160202 
0.01522663546746437 
-0.1190730354523931 
0.01299037730922636 
-0.1238112938464226 
0.1910673956823011 
0.2120842309876348 
0.6704891342926103 
-0.2335510204915367 
1.230929149194945 
0.3484722674353226 
0.4297843534873473 
0.01723429989440125 
0.179561645830904 
-0.04877771358471317 
0.2019751228211287 
0.3364202605654283 
0.3679586893633773 
0.04679747187136329 
0.2537459882089226 
0.1485764929464769 
0.2484768123074847 
0.3673736189037388 
0.1568463786488581 
0.2775283952803608 
-0.3693991877742976 
-0.0288377134958025 
0.09576594921560505 
-0.1733110871126167 
0.005220512106117551 
0.06064504292935252 
0.2492511394491019 
0.2692327439045594 
0.3545590615017961 
-0.1099580706867032 
0.3199183989751934 
-0.8769267294991713 
-0.229921604966677 
0.2014080325587446 
0.09576078014392383 
-0.4120499794651715 
-0.1560709296864002 
-0.7149392138250431 
0.5595419095152643 
0.2096310793065175 
0.1613879453237374 
0.2152393279246506 
0.3064873170445163 
0.2135805416065712 
0.219324366736425 
0.04987947850240571 
-0.04574989231467529 
0.5138441473193741 
0.365882338883215 
0.07587462970702287 
0.2471083529275533 
0.6192745679864776 
-0.09346594515238071 
-0.4699506315080876 
-1.012975075600488 
0.4153147265169857 
-0.6587231123283914 
-0.378308624171751 
0.1697250908054795 
-0.2805320882134076 
-0.1647156190629453 
0.3151689154274231 
0.02553161146055098 
0.2698873756966528 
0.1324443734743369 
-0.02395169309245677 
-0.5056799560583162 
0.3739236659632944 
-0.04247523602283131 
0.3160588185029805 
0.1901804969905143 
0.03300974659262694 
0.2539369381884848 
-0.07085478273162514 
0.1820731022709912 
-0.2559668173719951 
0.002611746109060916 
-0.2920245050361457 
0 
-0.4517073102987847 
-0.004970549760601005 
0.2070418038720479 
0.2982570257276244 
0.8795453926676515 
-0.01686693100650226 
0.0709112122197076 
0.5373222298526188 
0.3712809065245927 
0.305404180393094 
0.3622261283297736 
0.6953295415788693 
0.6005089126691238 
-0.1034847676202253 
0 
-0.05205719670775938 
0.6985723080562825 
0.599716165215223 
0.9450164231666548 
0.07733632482968016 
0.03812784595327601 
0.1873511117084246 
0.3101460022499112 
0.4609872821956817 
-0.002672501147734682 
0.2283329974917085 
0.01631703202400891 
-0.03782248096741021 
0.01145031525835114 
0.9806437361193304 
-0.002246510418150938 
0.05138747302160494 
0.09404796295762195 
-0.389486015229543 
0.6052690690252244 
0.02915741066592076 
0.0005202482159044273 
0.5736270970102197 
-0.2377920678302318 
0.07999275976583876 
-0.09594378011503656 
-0.1142437780744314 
0.0448659836259214 
0.8783060040900305 
0.08778564035230921 
0.009613289316379416 
-0.003154435950518474 
-0.2966125578796612 
0.02806183913950534 
0.09955626134630551 
0.04794274713810254 
0.410361332054697 
-0.0241361710472803 
-0.04661563078894935 
-0.1511610848779481 
0.009371338642125245 
-0.03928676170386515 
0.3053479068220827 
0.01770525626039784 
0.3251462016324139 
0.499604982966992 
0.03914877095447269 
-0.1329849198161427 
0.1846799869907846 
-0.1269112160165112 
0.02648106626239773 
-0.02332065341958245 
0.2115608167518261 
-0.2512731073177772 
0.02230171582723248 
0.2574415219278989 
0.2049900867834039 
0.5013902185665837 
0.01972481733647129 
-0.3954686197955314 
0.02596539673617396 
-0.352172231176923 
0.7633298874365317 
0.5206541508244482 
0.5066378816946988 
0 
0.04429392993674795 
0.2889176546282023 
-0.04557805519155533 
0.4385890772067731 
0.02128693995397328 
0.9523908270620444 
0.3370828323897093 
0.09845759040226565 
-0.1737765946943567 
-0.4627757242385531 
-0.06005087509935431 
0.7378120123081743 
0 
-0.2633615227844338 
0.1942027982992836 
-0.2486152706327887 
0.5293421103799846 
0.2583300841608351 
-0.4308770236179695 
0.3070812260152704 
-0.3878719034763734 
0.7521815479328388 
0.357455649005451 
0.02987542601531641 
0.607815435724765 
0.6822573791886697 
0.0727963120925112 
0.1264986060801082 
0.1176470237684063 
-0.0380734195371872 
-0.2523225396512984 
0.02832824341644656 
-0.1135419653731766 
-0.2611753347428037 
-0.1071195143650047 
0.2437583409617288 
-0.3142643507161516 
0.06316758545211323 
-0.0791731359354071 
0.9255101746366503 
0.009405331889425859 
0.3385071307546398 
-0.1304531859878768 
0.05195010113695638 
0.04295707297665121 
-0.09109696846603969 
0.1479009342579023 
-0.3171779491239372 
0.3626696092143339 
0.05257652574405849 
0.1368287194345243 
0.02427615800291616 
0.2093494086418056 
-0.1614026376389873 
2.167585179681672 
-0.001000926089185267 
0.1334889596610873 
0.07288426472054542 
-0.1281900886794389 
0.3141963320327924 
0.3426290204107198 
0.09720333593054738 
-0.1450020458754836 
-0.0525700478861707 
0.01664115717631487 
-0.656344547536391 
-0.1352149992190635 
0.1128621294574401 
-0.01172274108381705 
0.01326522572344198 
-0.7644528872359061 
0.1473334117507667 
0.005812357706237981 
0.3891477922444379 
0.1393018326041345 
0.05113393348988003 
-0.1826254152017407 
0.2392774101977469 
-1.491860726167926 
0.01498676056422974 
0.02049033457720234 
1.191000867526036 
-0.05699299936114084 
-0.1721074605524334 
0.1861249337029987 
-0.3347046952425745 
0.4303347239609414 
-0.1220248848011988 
0.3468210326177807 
0.3033791422492552 
0.09257359165241988 
0.2280241771769448 
0.294104003126672 
0.03892190261840374 
0.4761842967180638 
0.3706913667821548 
-0.0156004575523166 
-0.1329155135164853 
-0.01350365526293903 
5.421010862427522e-20 
-0.1511426815629809 
0.03921168315651649 
-0.2014476261811653 
-0.1412825130201067 
0.284930868478952 
0.05456199611373255 
0.3392836604591784 
0.147125207545335 
0.1230767704184946 
0.3303799783879761 
0.01107061858886976 
0.3198641244496987 
0.2829025209634559 
-0.1809491467300828 
0.05059134380498279 
0.5662691229973461 
0.07040852526529259 
0.04654074461673246 
-0.02505171877593707 
0.0961235619802029 
-0.1669660639810854 
-0.07102575858899286 
0.1992666004874484 
0.02935390490432289 
0.1921278084380383 
0.01440673532265458 
-0.176788796163783 
0.03959677060956433 
-0.2947019999271537 
0.739748692970173 
0.184544378666709 
-0.1161947324492253 
0.1115036490185014 
-0.101692966848558 
-0.2175224097062227 
0 
0.02590721660567637 
-0.39819160505769 
0.3076126874348079 
0.09888274584391592 
0.2176215776686242 
0.126029644918134 
0.5685679721845964 
0.5138011320152773 
0.6382859245406901 
0.8288335893555874 
0.0328895606319613 
-0.7204489370893593 
0.4621813882242252 
1.009821137710574 
0.1396422110948458 
0.1462245500056007 
0.4754479226990948 
0.1526382239693883 
0.142543860404329 
0.161847284785898 
-0.1228651416942078 
-0.06005096488940709 
0.6911439254349954 
0.227226202183707 
0.07559579421738268 
-0.03177263964621887 
0.1541515037423607 
0.007559488438467083 
-0.8321265016437005 
-0.1544880820329508 
-0.3685556442150441 
0.3029882204370172 
0.1945185937100313 
-0.4993968049928817 
-0.01478107836115741 
-0.4516016953081363 
-0.09680130589890611 
0.03167795394755805 
1.694661368729425 
-0.0746363427725194 
-0.1309634952881283 
-0.1149210285274993 
0.6722853874306123 
0.164107163495775 
-0.3315462773807992 
0.510251990129337 
0.07594187698852736 
0.5186349605146592 
0.4499060453627157 
0.3869032088471679 
0.04348737726404559 
0.822998856089694 
-0.04418114643146991 
-0.01313558532173536 
-0.1456744198974121 
-0.004990942938509281 
-0.05291809495734866 
-0.3359094537884529 
-0.5007648673600451 
0.3681462334975845 
-0.6010756191457196 
0.2226010910864087 
-0.3672768251764977 
0.1850049051591016 
0.03313823081965013 
-0.04854786883196451 
0.3029164868323621 
0.06332732447110315 
-0.008934862671567076 
0.1333651629075203 
0.1218560939345045 
-0.2458367238428714 
-2.311363918887021 
-0.8238165386598996 
0.2038769827536184 
0.07927549075561496 
0.06438882649710034 
-0.1886098143866761 
0.5009648624459065 
-0.6119905254992041 
0.4813019792017625 
-0.1182581400876542 
0.473748706949487 
0.1107397246654229 
0.2731973683278209 
-0.2779759245907784 
0.4767433224301435 
0.5008822240841303 
0.006950798454921225 
0.03580682181980343 
0.05190900712450156 
-0.002427520233693071 
0.007708542055173694 
-0.8480647434627727 
0 
0.3695092176960149 
0 
-0.267641025763276 
-0.4068530780636562 
0.07301615924772813 
0.2139997287161754 
0.3766183130819584 
0.09585362600506254 
-0.006789117170274254 
-0.0482073016205524 
0.01010122714219288 
-0.04533988257882716 
0.2094063068473113 
0.1797386781336664 
0.8964070312590048 
0.3892783699755872 
-0.001312148048033558 
-0.2803728460567688 
-0.08738382131777976 
0.02877596728788379 
1.18934093236147 
-0.03608243405822035 
0.09955945390661387 
0.3401496177823034 
-0.113325711950402 
0.8362770446341201 
0.02825624541580407 
0.4382750276353674 
0.004880001702592566 
0.129030396326884 
0.09003205435166434 
-0.2099712029953269 
-0.1363795943187953 
0.1671147556923543 
-0.01506896588503175 
0.5903370167855903 
0.1597078952126519 
0.02406664095254164 
0.2019755785671043 
0.107803035957194 
0.1264840734555189 
0.29798431380103 
0.001496016794907417 
-0.04766625826786655 
0.05491372135965105 
-0.07436277121911482 
0.3520503246278811 
0.2347022193696598 
0.1849206785190632 
-0.01987256060605097 
0.382116515168162 
0.1150282332603281 
0.1266423665772624 
-0.5557293514033608 
-0.5437839253785707 
0.15442500797983 
-0.1282180570128612 
0.02385065981209741 
-1.286675121858524 
0 
0.2068979887206771 
0.03985677767510275 
0.6377478847549215 
-0.002006573492308864 
0.3979320867852136 
-0.1601078926073022 
-0.6331422317260652 
0.3624208107500741 
0.2180786774635058 
-0.02215215500384199 
0.1703096256882126 
0.05991199098147978 
0.05943229575094215 
0.1976541120803662 
0.1014310995870999 
-0.49608975965938 
0.1002268498337231 
0.1640164519767033 
0.3327970826132109 
-0.006037854952564124 
-0.1763553151615204 
0.3093929249619343 
0.008577883037200709 
0.04368744375042908 
0.008484021947497098 
0.03994411552408876 
0.02182079871408642 
0.1355064829690452 
0.2278040654499154 
0.1946078886200271 
0.1733674416172982 
0.3086547690263207 
-0.0402817535428581 
0.1989985303518597 
0.3493539629871211 
0.07641940519699496 
0.4707939620930314 
0.3564384978460286 
-0.2482735230700646 
-0.002846449553950968 
0.0636630962516448 
0.3158855567989672 
0.435654828032128 
0.3694462142502508 
-1.344401362753009 
0.4832672371553724 
-0.1679214047642333 
0.4132358861911956 
-0.01047458896574893 
0.006757981799831877 
-0.4471942864651715 
0.1202216124725028 
-0.1130487719706254 
-0.9094520037677315 
-0.06155334905090092 
-0.9372651306041774 
-0.0236751764624734 
0.3411841259890532 
-0.4048472842136807 
0.1673306427794581 
0.2653965930191023 
0.4177249379244203 
-0.08539894915343822 
0.0268496928692137 
0.1039169204753343 
0.1860868752293584 
0 
-0.006922581869161184 
-0.9367741153256558 
-0.5776409591069034 
0.0662042410034069 
-0.007596837818283332 
-0.1991286368667032 
0.4293949704523441 
-0.3660650430689406 
-0.8970385659382933 
-0.2658291401858863 
0.2355726443131339 
0.1113702861193079 
0.08499774606639957 
0.6138566159889153 
0.03809321433759513 
-0.4116736637675573 
-0.02227999109341281 
0.06826002473867961 
0.6575324872266874 
-0.0005202889348729527 
0.3863489380750317 
0.6265257850931447 
0.5042671686087054 
-0.2126841679762186 
0.09158709586298969 
0.002969793264806756 
0.4820824448764563 
-0.339826504008688 
-0.0002876408649889727 
-0.008418589571611935 
0.1883464561949935 
0.627421382122855 
0.1492404209647416 
0.4580620594090954 
-0.6124167118089241 
0.1591789894148126 
0.09633630988130368 
-0.003119097758726795 
0.3372723745343356 
-0.1131108779710903 
-0.01735231855896291 
-0.470631133655737 
0.3437635552617292 
0.02223407089172818 
-0.1160569007957918 
0.379149898726335 
0.5843004709810251 
-0.04749462469464511 
0.2461557358376552 
-0.1771107707090872 
-0.2228952285279426 
0.1833534065492476 
0.9153278516181298 
0.06194455169963186 
-0.2491578301728121 
0.1754109823522781 
0.009703621998640779 
0.184454892531943 
0.001521971786112508 
-0.2779457459533786 
0.1987625579607563 
-0.7111792207708986 
0.08540305608343311 
-0.3456721747125211 
-0.1607897989391355 
-0.002028550116992423 
0 
0.0533386924457046 
0.6109244958035609 
-0.4947578517559769 
0.280173823090884 
0.369851340005145 
0.006915979044146947 
0.2492446440468611 
-0.03738070229928192 
0.1055940978757307 
0.05379214263029616 
0.1540661598524541 
-0.07163631059691659 
0.1493676464595677 
0.1705607608091381 
0.6440284040505928 
0.0005497920010624363 
-0.8100971986543282 
0.02189410061249318 
0.1331382795855368 
0.06952458212973343 
0.1382940550250562 
0.2730370745528252 
-0.4027587759659452 
0.01271183400632091 
-0.2805961772507943 
0.07372250547181269 
0.0035209021510898 
0.09307419930069924 
0.0785316768142571 
0 
-0.3034423449768141 
0.09035934084695398 
0 
0.0491046440956104 
-0.1377657610285112 
0.08382801673482941 
0.03463220260096521 
0.1743610570269423 
-0.5240601687665972 
0.3525552856318819 
0.003451668132854544 
-0.01901396021674805 
0 
0.1101111201858393 
0.1103118674049288 
0.2423326650755804 
-0.1019725942887227 
0.3425906655822761 
-0.007869295210158818 
0 
-0.0677613175103183 
0.0998142791553121 
0 
0.1486951013986812 
0.372489945879542 
0.1199131311087162 
0.1927044995074301 
-0.8815484283632046 
0.0003395028253853628 
0.01664839818552799 
0.08504330004855673 
0.1766158498740036 
-0.01519159272399716 
0.2513155331901123 
0.1734081582821514 
0.1297729865897109 
0.3049364426526458 
0.1748456440407188 
0.01420037535924279 
0.1305207944546742 
-0.01428373705063094 
0.3949489116468332 
0.08578015413450134 
0.3312993251370042 
0.03960304275547953 
0.08556391832346505 
-0.1425087330738792 
0.3782434460180914 
0.425619723119358 
0.1496907647489332 
0.0007646468603505366 
-0.1462688578802515 
-0.06913434767103624 
0.0001869346549136526 
-0.01176913655591907 
-0.02338416765112229 
0.06768104103465462 
0.0004414284478615658 
-0.3196190171797184 
-0.2451331950736863 
-0.2110581432640646 
0.08312353494878011 
0.2997914242204255 
-0.04706053355936961 
0.07322025366375449 
0.2631499563030545 
0.09068643606401759 
-0.1458864569451927 
0.09626669521379069 
0.01933586178592705 
0.3453904317363823 
-0.01338823599247422 
0.04681552882102324 
-0.7776594311779861 
0.06878518418427583 
0.2948426820929397 
0.6020456985544959 
0.1491374180465214 
0.006939583977641008 
0.02956414391711163 
0.2982172232801757 
-0.0299184185946771 
0.05361073461013285 
0.06766680222499626 
-0.06852752497082953 
-0.1778558109417079 
0.01271001732135573 
0.3821299447608109 
0.2188017302449899 
0.003769445323602018 
0.3222064054551751 
-0.1830575351848294 
0.04812526787990357 
0.1186378769216252 
0.09968593988149384 
0.3757517897421411 
0.0424876620291008 
-0.1197010635466622 
0.3120666317528074 
0.07691631939450892 
-0.3941658509300597 
-0.3411951309141638 
0.2122330055088679 
-1.388925719211225 
0.08322902235303332 
0.09099059234268965 
0.01346292973209771 
0.04453629740975074 
-0.09149506055918961 
-0.09367299526934693 
0.0202835546870112 
0.265520958642235 
0.5763064438098621 
0.09314643935659532 
0.1311539258801221 
0.05297091057963087 
0.1187479646142031 
-0.181657312993712 
-0.1604510704883832 
-0.341241999736479 
0 
0.1061573493660104 
0.06288650734360465 
-0.07071173004821366 
0.3297855022044979 
-0.1286572078520623 
0.3087682497411302 
0.277398634504173 
-0.1263194248977762 
0.2724449832622017 
0.138127388648156 
-0.6440684981811364 
0.6575731264405124 
0.5272946367724343 
1.244152536145435 
-0.4610215545211259 
0.09540561947851417 
0.2576109172904681 
0.5146391600649571 
-0.5720723073575799 
0.0132598272370199 
-0.09587426953672208 
0.4961327876956829 
0.130195693476183 
0.1943627513591801 
0.4584112970037435 
0.332780400863833 
0.00191682650081157 
-0.2494211899224367 
0.220732621838503 
0.1952159044279972 
-0.1467089657044921 
0.03082540146809046 
0.044082511566236 
0.4387228699530962 
0.09275720448690968 
0.1161010289314231 
-0.2156676040079099 
0.03372781999183509 
0.007746529967513613 
0.05987624963321116 
0.1089261562171283 
0 
-0.4296629366487824 
0.2017275432286974 
0.003150296983958685 
-0.04148780858757768 
0.04017966692169662 
0.05074832930386815 
0.09906967541345735 
-0.03983293870806879 
0.0001208917192400766 
-0.2260943106282187 
-0.2490448237074885 
0.1371187562738509 
0.05447511941568631 
-0.1973915643545421 
-0.510091587859193 
0.3169098785960044 
0.2424761423112288 
0.004665284302313709 
-0.01386685291125186 
0.1295242934188993 
0.02723108490927778 
0.1080947006181359 
0.4110899457724574 
0.09186788449173833 
0 
-1.270392324233272 
0.08184784343481455 
0.01900371536944495 
-0.09211271420417648 
0.5769924921409206 
0.2817093622660191 
0.1678699622379601 
-0.09089830969572689 
0.05461629985763443 
0.01572429416234982 
0.2025551924600235 
0.3237727919746244 
0.7082098860068665 
0.02508891910099706 
0.0035891246499659 
0.04853318557934184 
-0.004598677370542338 
0 
0.04791331845895619 
0.4020986257433197 
0.4091131338454547 
-0.6144430641748599 
0.3170573220739939 
0.4002155280643361 
0.2529167825162105 
0.3724059856159238 
-1.794899437585486 
0.1094662599075432 
0.02309801768047285 
-0.2746834478203358 
0.1726493015240512 
0.02658922383630026 
0.08984582493487245 
0.063854646215738 
-0.06026621632205186 
0.2447580624879131 
-0.5588803533113393 
-0.7965260778862246 
0.3954710102863435 
0.1586221552913801 
0.1324396238344779 
0.2615886282340599 
0.4911370573305761 
0.2145434321928236 
-0.2690212904676706 
-0.01216048238710481 
0.01711040529761747 
0.09376354673849779 
-0.3411065438086094 
0.1218304252193509 
0.2349099261534593 
0.06946566815976189 
0.04321185308497248 
0.4327188292926089 
0.04581805357108977 
-0.007287167281306589 
0.1127845192538646 
0.1745766683709049 
0.2394721563879932 
0.1142948818514837 
-0.02479619410143942 
0 
-2.088822224612554e-05 
-0.1144273649497071 
0.06364636463040325 
0.4651188316154366 
0.2983088068846437 
-0.3665359481472505 
0.05909516057073404 
0.01343045374172491 
1.355252715606881e-20 
0.2462986587475273 
-0.125603920422016 
0.09032355189103583 
-0.6233681568536765 
0.3983468370741013 
-0.4372994396901101 
0.2533885451549638 
-0.4056632824018323 
0.1481363247492244 
0.5420919935602874 
0.1873360519946245 
0.1317747375887515 
-0.09501992582675922 
0.1316475461835202 
1.133255075806624 
0.05549280544612929 
0.1051894055142641 
0.02055841546716472 
-0.07301229634122498 
-0.06940230894701485 
0.03718839143721699 
0.1299925469678911 
-0.1422535713989519 
0.3099264624824981 
0.04999540820721602 
0.8722546988712582 
-0.6768598638714803 
0.1028413240941299 
-0.5262710443521847 
0.7779317428251817 
0.02086950967608725 
-0.0349301093378335 
0.255118535317042 
0.07046074323176083 
0.01989070577581848 
0.01876877524007611 
0.07662203324928672 
-0.4200357700315047 
0.1569036427950942 
0.009224020470721548 
0 
-0.009297850119885032 
0.4236861444653623 
0.3327737170157088 
0.4478661600266028 
0.2459158806154344 
0 
-0.1688075369928949 
0.1017440005498371 
0 
-0.0667076287489861 
0.5572998166443105 
-0.01129187031661371 
-0.5607448824240785 
0.3891124268037762 
-0.1527681153536265 
0.1155630255027479 
0.1775133528689485 
-0.03219668872885225 
0.007069587216036852 
0.192098512438984 
0.0257461346808595 
0.1737992441947296 
0.04369449459917463 
0.4591058703324918 
-1.837392399239862 
0.1866310969101529 
0.157793799946622 
0.01289510400224272 
0.1902273688331709 
0.006128512552149893 
-0.7881645501333228 
-0.2634607944711992 
0.3116995216062463 
0.1455163678565324 
-0.0734595620271877 
1.350859544354488 
0.2548271637115059 
0 
0.2562994057833613 
-0.3938798766941978 
0.3016643590096098 
0.006777691714851211 
0.1298129880957326 
-0.003720402096644351 
-0.1106956158431611 
-0.2206624445915011 
0.1175102710730755 
0.1282509341834458 
0.3674207816518002 
0.3527256825670145 
0 
0.236253219777299 
0.2944847416393901 
0.09493243651040885 
0 
0 
0.09289533080559059 
0.1128027640947089 
0.01327606568483252 
-0.07166484839921852 
-0.0278952524601654 
0.3259201326667526 
0.02210661136619346 
0.292436876575368 
0.004765922744536295 
0.04292945468933804 
0.4495216754501689 
0.06187957407654439 
-0.2514525068229593 
0.1178868981855813 
0.03176322457083795 
-0.1006320388073043 
-0.1991009529119652 
-0.7242688839445688 
0.06990552127157332 
-0.006420144946729966 
-0.1021615315719131 
-0.1113894182223845 
4.336808689942018e-19 
0.02171580284933559 
0.4556575906366888 
0 
0.08448330213793891 
0.4323868054631302 
0.2520190137887177 
0.001393592400392129 
0.03107757058281568 
0.2902169981597888 
-0.08296645824934729 
-0.07284740045851018 
0.02506300564133902 
0.07599115735998978 
-0.2830682513741325 
0.02011482748532977 
0.1732797160274429 
0.009149892588459782 
0.01052558952723783 
0.2853115665660646 
-0.3614514769317115 
-0.0631993528790344 
-0.5405581938239586 
1.73821910378254 
0 
-0.2806545423890472 
-0.1983599184604689 
0 
0.5269433544561276 
0.1173670454851422 
0.02998399750992123 
0 
-0.3079909019694156 
0.06889281559014872 
-0.02545794796772182 
0 
0.3570881740649856 
-0.231214217732572 
0.0566545644481458 
0.1448822643490538 
0.1009980649865889 
1.109911604917523 
0.3058607174805731 
0.1073948055966 
0.4291417112073045 
-0.07280483712013786 
0.2324657249937323 
0.2196926455987701 
0.08459622790458997 
-0.02711194483336854 
-0.04739357886143415 
-0.7260672527925844 
0.002783164785261528 
-0.305397044298328 
0.1483380319547876 
0.06637452115075967 
0.3344175332632096 
0.03199551214871872 
0.1637194155747018 
-0.3072205993049533 
0.1725008558189704 
0.1260796807302158 
-0.003861578527619261 
0.08100793280571435 
-0.09844253263048905 
-0.04232853667205612 
-0.2110274923835847 
0.346029810910216 
-0.1553269213483748 
-0.3871031846967724 
-0.2531031632630681 
0.1717486391217086 
0.4020015966005905 
-0.04758734018634367 
-0.2974394500794345 
-0.1046470580714552 
-0.6525741588917745 
-0.1193748340154396 
0.4090601489570471 
0.3902462196570758 
0.3352612374637967 
-0.4537068122204023 
0.2194228561793308 
-0.4097786136560803 
0.206331029815611 
0.4905830488438358 
0.5346865763891269 
0.1704698779969616 
-0.3882295548341851 
0 
-0.5692359486250298 
0.7293468289608244 
0.1281115013406527 
0.2121244589262407 
-0.2009774935573737 
-0.3233858888565816 
0.3056881053315555 
-0.01271099332019972 
0 
0.5557705705570243 
-0.3463075943128193 
0.6416965155927528 
0 
-0.00244220432637579 
0.106761180415891 
-0.1752959706261693 
-0.134362174278701 
0.2056534346980972 
0.7166161947812028 
0 
-0.0430522127295291 
0.1756986011093894 
0.3968881883343557 
0.04141095747358305 
0.6878474687464251 
-2.168404344971009e-19 
0.08226115304532862 
-0.5354310008276263 
0.2500810463717103 
0.5949003288354135 
-0.4604478930370527 
0.2740065969868648 
0.02331505730131244 
0.0988187524785723 
-0.123299341392711 
0.1148468186393707 
0.000204249211877543 
-0.04217263135842287 
0.6496399313110587 
0.3678577480262625 
-0.0009646684603268807 
-0.2051451633825432 
0.2780148740277983 
0.03050936041517978 
0.353582415617358 
0.2449452510351924 
0.02075881067089308 
-0.07726355237218126 
0.3649693749060107 
0.5362670306456946 
-0.009332296695866268 
0.2360608807092257 
0.6580772034655709 
0.05551069421768265 
0.03206625214913828 
0.2773191102365338 
-0.002628855277136365 
0.03746118922277965 
0.0494813584262191 
0.08596251649677968 
0.1722273293176223 
0.3455982868789608 
-0.6358400922708433 
0.5807421530042121 
0.004160616219310778 
0.0662907552587851 
0 
-0.01860754673968744 
0.08824997917287412 
0.07184074242327396 
0.1929739900591428 
0.08813865628108436 
0.1793698865116275 
0.2252295701490185 
-0.2635282828082439 
-0.06755164897954964 
0.643665172389792 
0.4714393600840576 
0.06826355400777319 
0.283347982669336 
0.2336944776384169 
0.3727203881237718 
0.05114763715017681 
-0.03244807132580012 
-0.005895441984133765 
0.05292890844418784 
0 
0.1417495032968442 
-0.05885957194391311 
0 
0.2773464127043134 
0.398796814513882 
0.09678792015315438 
0.04973930257098439 
0.03429979366221012 
0.03023195924279064 
0.02763608855694964 
0.02568906537022594 
0 
-0.4802505860730653 
-0.8398215361931354 
0.09650714846431073 
-0.03187718516191138 
0.02817965688169871 
0.5635098036076185 
0.1386195906670485 
0.07349036093322589 
0.6252395170261735 
0.005323743088479041 
0.1437849745855236 
-0.01314028440868627 
0.07506743298418596 
0.012400777000726 
-0.3861308152900748 
0 
0 
-0.01488170895149614 
0.2572166515720812 
0.2167131450100502 
0.1831685513332795 
0.1170411192977524 
0.6074763690795612 
0.06492973608101398 
0.06663150979916221 
0.008467539139766809 
-0.1193968707555978 
0.4892918708318604 
0.2436232523456832 
0.01232059403606111 
0.1114451620500424 
0 
-0.1097652843768168 
0.002353737462846027 
0.02828218562048769 
0.4987506025215931 
0.03440667874334582 
0.0652237370083993 
0.1847728257084755 
0.003579874615671687 
0 
0.7785112282930153 
0.08162243014271031 
0.004774732962659982 
-0.04168871025975585 
0.0747399097892168 
0.2763000137465362 
0.05336076964263026 
-0.005994991648079391 
-0.2456634050850062 
0.1292250130684715 
0.7879100933440235 
0.3093486278259439 
-0.1408533877824923 
-0.1395987974423291 
-0.02401768423709612 
-0.1454422259045603 
-0.1195818282233721 
0.06878411367345298 
0.176278165180176 
0.4546591868916369 
0.09181364300752164 
0.2227535930433824 
-0.1532565913234501 
0.03016812584530707 
0.03388086040655959 
-0.21835443513376 
-0.04986088359456342 
-0.03379066429179357 
0.2983723400477641 
0 
0.4208159735617714 
0.01050696940752521 
0.1218800519194329 
0.05662387214340013 
-0.008162302217276745 
-1.222686676786904 
0.07587045515055392 
0.07924458056005726 
0.5155635466635892 
0.3429671858451901 
-0.04189102238356783 
-0.02324918104698027 
0.2105428849125943 
0.09678408152432581 
0.05212489983918816 
0.0272419147046829 
0.2165993215916123 
-0.08575432337605872 
-0.6885515588775734 
-0.1508003526161572 
0.01140202259556134 
-0.157300862846877 
-0.08002984275253512 
0.03508278196999379 
-0.5545363241029001 
0.4836435226739415 
0.001361064901996399 
0.1924176192086338 
0.218139232931984 
-0.8447232886503978 
0.236401452194217 
0.1937683212366846 
-0.03486900954067959 
-0.06466938354393258 
0.1473216670451895 
0.1411002376501474 
-0.02441193293941676 
0.036604428916196 
0.07031339488761042 
0.2555537115021963 
0.032651060602478 
-0.159112668215146 
0.04145450644095044 
-0.01996760037665907 
0.2585781196455081 
0.1425091078146203 
0.615494855313159 
0.3091437162056083 
-0.028850057049662 
0.3043631077519487 
0.1587358351624358 
0.09584765512395091 
0.02269114548557503 
0.01073576390944111 
-0.1579307667228553 
0.5877576593827777 
0.2284234314211843 
0.1101530194141365 
-0.2042533784998612 
0.02811061462700401 
-0.4819476826314176 
0.02381899831612192 
0.01464122562689145 
0.3340944714208851 
0.0367586865713533 
0 
0.1070122630049345 
0.003411932456445358 
0.2648001339613629 
-0.003241117739341706 
0.2312338300377208 
0.001036760975607439 
0.1607086480212799 
-0.3339650313844488 
0.12951710523341 
-0.2318587008881737 
0.01353059988020164 
0.246859729472312 
0.180276806184938 
-0.0941122722959659 
0.05913351060999367 
0.2082121419513031 
0.0270914329230558 
0.07862472885423626 
-0.1153638858523388 
-0.01116395007145276 
0.4746837382063814 
0.2254248471431355 
0.5446238630807005 
0.08636565317323802 
0.3180997493013507 
0.01024651351313266 
0.1700639541745154 
0.09597834889601882 
-0.02619100069161867 
-0.002060098082547204 
0.007825058014534736 
0.1741974280828057 
0.006226072074645653 
0.2321471716711372 
0.03363639698715563 
-0.04577855280803483 
0.0006906378077807406 
-0.05930397328065604 
0.3111150629534651 
0.1371497272203969 
0.05100414097886043 
0.1158755074643968 
0.050072397718796 
0.1898475827979903 
0.09957996659975081 
0.01181128615977814 
0 
-0.005319612091030523 
0.5079876418258364 
0.8095187445441065 
0.9466791520148528 
0.499214035470558 
0.05358785782867501 
-0.09045733271553286 
0.2668501690448956 
0.3956155213012169 
0 
0 
0.008473405840513162 
0.3588469437222845 
-0.001188720090068811 
0.1102410684972397 
-0.1483259402184701 
-0.1512638023602026 
0.03880849438310888 
0.002273236983283172 
0.08309266569014927 
-0.01088161167657422 
0.2600604741288181 
0.1601261111894083 
0.08570401466335129 
0.8406356806776621 
0.04374352854491886 
-0.1297332056485825 
0 
0.303286072528935 
0.6295579193285281 
0.05576080142730217 
0.02985335308159079 
0.02104766112833149 
1.065256179633099 
0.1263816446827459 
0.01591590302803247 
0.1158482185787599 
0.06587140475642939 
0.7130091264710668 
0 
0.002920563865049841 
0.3032992412524289 
0.1921068853325408 
-8.371701760037486e-05 
-0.7454579687855408 
0.4018758866085745 
0.5029008610471457 
0 
-0.1702599185499377 
-0.03977974339328839 
0.2336601911115363 
-0.02738196202430897 
0.04697273503827291 
0.03067802165562113 
0.008816482668064358 
-0.06769914241284126 
0 
-0.05952637756488622 
0.2974901541485067 
-0.5144818988964047 
0.06387463479556492 
0.4801784627034087 
0.3234671988128378 
0.1732010225481278 
0.06204121664977966 
-0.05345479731714332 
0.02011686387293745 
0.02028769592876628 
0.1431592744605007 
0.2011559076138249 
0.6599996955816897 
0.5739055050321659 
0 
0.07803463181861486 
-0.06277125504165998 
0.7362698503653933 
0.03650398428887233 
-0.006116486327341392 
0.305034177142703 
-0.03695391156877035 
-0.1266168857703915 
-0.08769212942064181 
0 
0.2455016501932397 
-0.02634007909037973 
0.03638560918381026 
0.1749937977356244 
-0.363447605599116 
0.05565391427168852 
0.01042681564290959 
0.7651160530634747 
0.3461665189612363 
0.0973276358413247 
-1.301042606982605e-18 
0.06965791201526507 
0.619548935113877 
0.2066029541069087 
0.01043159807560714 
0.03183888578572484 
0.326928011692919 
0.07817349837843583 
-0.08721496826575577 
-0.007973310578411805 
-0.1023767600598356 
0.2168881750383504 
-0.1748075834670667 
0 
0.05367873294392163 
0.1826576500057819 
0 
0.007473910857537992 
-0.11778166772862 
0.1658344139125849 
0.004831437196925415 
0.00099926948636997 
0.2725436303459587 
0.5004396044521764 
0.2404582572532603 
-0.02039261193969902 
-0.6851827861149196 
-0.08120512858414679 
0.142895474556463 
0.02250569087448255 
-0.1254031924398501 
0.003911569275152019 
0.08680299851191321 
0.4523509561008986 
0.3769796532926469 
0.3475194355248037 
-0.1977281479976384 
1.11254001788305 
0.1891486141534552 
-0.06831140228826862 
0.3687604889773272 
0.6046457384078492 
0.2610913993594892 
0.0635335416331375 
0.1945063823070787 
0.0197792313216198 
0.3940583768841542 
-0.1382853450553863 
0.06840879909607726 
0.2623558985966326 
0.1774044173633664 
-0.1210268917539634 
0.1270429898426148 
0.1279803473115727 
0.05398999435076766 
0.008349316327841817 
0 
-0.1530735075639282 
0.2371444010847408 
-0.1550449212399076 
0.02663406742477237 
0.03165950020677059 
0.02302792046487651 
0.007005982504244501 
0.03092018312858043 
0.0664122457352239 
0.07597095917897914 
0.09968372306660643 
0.4372860632179817 
0.3452920267231691 
0 
0.3467194443266346 
0.01961553487245217 
-0.1702010148169477 
0.01947286785476545 
0 
-0.01606597525988206 
0.3903979890660338 
0.01778514673902212 
0.1012195790071205 
0.559436281805886 
0 
0.4722157440195685 
0.3906938552730865 
0 
-0.1662096007038396 
0.1351254506568911 
0.08743710576067369 
0.4198457357481793 
0.02630658868394955 
-0.002711121613130756 
-0.1886101207147572 
0.7139456516574648 
-0.0614144825775965 
0.08117549693535493 
0.2669826929392319 
-0.08943821533375812 
-0.1710377296472487 
0.4500374606943019 
-0.3201806831499624 
0.168781411755837 
0.193999879668853 
0.3647770555531483 
0.0426035042749821 
0.04639554697310872 
0.4472109950544481 
0.1161052135192746 
0.4188942549193613 
0 
0.1248399777636937 
-0.02425362171711059 
0.375805716558978 
-0.03598869378816608 
0.4691285715053478 
0.1456578578709001 
0 
0 
0.103827549106457 
0 
-0.0836418150719233 
-0.2212213627893287 
-0.0492054311767759 
-0.2167478851574287 
0.5607354585539571 
0.08523772811922142 
0.003163681066995147 
0.09493035381887033 
0.3185362423032645 
0.01595353391020443 
-0.7154433826814788 
0.09128850070884674 
0.2016222469655012 
0.1021160188840792 
0.0349755303301052 
0.01229184138476331 
0 
0.03262833654776507 
-0.005216556699706192 
0.2062837465202013 
0.8367277910713342 
0.00488409300498657 
0.2750368099007805 
-0.8452525470987885 
0 
0 
0.3378427876331893 
0.3462623456627342 
-0.517615448445462 
0.1482077833046959 
0 
0.8755066450753614 
0.7902189186317974 
0.008940397103891329 
0.143021211229042 
0.1627153474767886 
0 
0.09452111080191165 
-0.05879401865017037 
0.08926221716733326 
-0.0705220508214606 
-0.05856195674489748 
-0.9932642828084244 
0.3541148697565818 
0.3326571284986993 
0.002184382033321877 
0.05136428370312743 
0.01695363731476034 
0.06615962333279624 
-0.1063866502452821 
-0.5680704358864725 
0.093155838003636 
-0.6692897469195694 
0.1187319641625402 
0.01296592229883332 
-0.01875786738082186 
0.06169061917095013 
0.7307952475431867 
-0.01109762572717767 
0.2665187149076615 
0.1466410721705983 
0 
-0.2606826123981156 
0.1781262000381054 
0.1544313225236174 
0.05276886549459484 
0.09889230036493149 
0.3043237437203627 
0.02308434952788056 
-0.06596538733067132 
0.4195772127149996 
0.01741669652058396 
0.08323625832547979 
1.084202172485504e-18 
0.009394928392778562 
0.07720460079439284 
-0.1345161324276033 
0 
0.4453022056288244 
-0.4038530926391583 
0.0742592625167086 
-0.02273462418246844 
-0.05105132766783518 
0 
-0.1225537648901219 
-0.4321976167441727 
0 
0.1770052904146648 
0.0369351659623064 
0.0915080885112471 
0.4778477002732059 
0 
0.1750555031401763 
0.3499563807325836 
0.1252000925635075 
0.06061004180525264 
-0.3556370985504897 
0.08107308733475013 
0.1724126132216116 
0.07760833001036752 
-0.03263532694496764 
0.4501912181701371 
0.1898665372379764 
-0.5715856819267864 
0 
-0.7159969238452628 
0.05439746391005801 
0.5232021241877175 
0 
0.006197500673078622 
0.1544203346516514 
0.04135542841556505 
-0.4921742773051343 
-0.01554578982985193 
0.0239285615687547 
0 
0.1837418984536451 
0.2649223671552888 
-0.00209927195820175 
0.08726834289654965 
0.01558876176633127 
0 
-0.01516840910212847 
-0.01573675893093621 
0.6400932135949873 
0.02043213377953362 
-0.009307122475328496 
0.05634809481959224 
-1.234315781915425 
0.03757285760184689 
0.2322117052718912 
0.143046640070055 
0.05419851130919212 
-0.004027949804412876 
0.1281039507521871 
0.4290541122738285 
-0.007705833966016606 
-0.1164233382026726 
0 
0.04463301035192333 
0.2323300833861469 
-0.1755227273204369 
0.3154912501671358 
-0.07439356096149406 
-0.2326870132444245 
-0.06071549928446256 
-0.05912457738806817 
-0.1462443178977325 
-0.1062817816160588 
0.01587349104206176 
0.3646884466276075 
-0.4199436534668523 
-0.01156313385443916 
0 
0.4131776784683008 
0.1483566213411461 
0.04781692593880758 
0 
-0.3848938406880999 
0.3854332726015456 
-0.008417120285158061 
-0.7046479105199541 
0.05191243556187795 
-0.6734319603391657 
0.03051335269002536 
0.01023769594822745 
0.08361255867095208 
0 
-0.347791911189222 
-0.0169583277037083 
0 
0.427584849981318 
0.3163469461809421 
0 
0.3363222157310742 
0.09551558599379342 
0.05878178755370277 
0.1937141832030933 
0.09083501407046912 
0.0377010819685837 
-0.3641520947492343 
-0.07125537631665622 
0.002585658498743911 
0.1737913367259734 
0.1640730559525386 
0.1889952577714609 
-0.06788312912401445 
0.7084757193007116 
0.12147168054086 
0.02272460804428759 
0.309483888353318 
0.07114241726168274 
0.1601543779972347 
-0.02156389714743991 
0.1230040244790577 
-0.09473473818630014 
-0.05187062492095538 
0 
-1.738624206751414 
0.1109302470524781 
0.454562862828795 
0.1985705840631974 
0 
0.2568847281903936 
0.5782962612383942 
0 
0.07174950120220895 
-0.08200896393815543 
-0.05229893794035209 
0.197403494890687 
-0.1430596756074152 
0.0277525709129253 
0.1282503506556802 
0 
0.3976980945858044 
0.0009267826901785715 
0.00968019077007046 
0.2074210661919232 
-0.317685926426242 
-0.7656047236217 
0.3202980882012703 
-0.2566046438733881 
0 
0.4466897463256769 
0.1767612813120057 
0.1122279142036432 
0.04497348970448357 
0.2381469364129812 
0.2704665664646141 
0.0841235630329997 
1.195358300287119 
-0.4176042930883341 
-0.01332414220159134 
0.0203967300788575 
0.01433725742449404 
0.2749135671344496 
0.2793138577018429 
0.06196766887590895 
0.02041241364176329 
0.05182637725568758 
0.1016575838308223 
-0.280512434088154 
0.002522297550788832 
0.08417567240303628 
0.0117966775528668 
0.09166675706898912 
0.0363803651671667 
0.3340705108830663 
0.03314992263260348 
-0.3229165458882372 
0.06732863691660192 
0.07695160854063594 
0.0002522014522452989 
-0.3855417780590675 
0.2550071339597295 
-0.4501371012677118 
-0.07214185072193358 
0.09807135090118049 
-0.1152660346831234 
0.002020607831647546 
0.01669330501060702 
-0.3910003087715485 
0.1595288302487224 
0.2380715332518487 
0.02835883921565914 
0.09200054418101306 
0.0598987079097315 
0.05006143640608078 
0.2083487910770998 
0 
0.02785535836391479 
0.08290608533244148 
0.009572167400340921 
-0.01755717452993521 
-0.1999287272025797 
0.4217652714451408 
0.02550794153606608 
0.007388305878870557 
-8.673617379884035e-19 
0.03251264959125255 
0.01188839745372225 
0.2103955303398764 
0.1158012586948843 
-0.5087770052669315 
-0.03200044486637446 
-0.302251554083989 
0.3313735396339199 
0.2039389054942905 
0.5018346341297205 
0.7339888421044639 
0 
0.5676519683728835 
-0.02936441744505624 
0.02156535766119958 
0 
0 
-0.001052953401979728 
0.08583572109396524 
0.006414052464046624 
0 
0.2208108656107626 
0.05374866920356985 
-0.01786418934502946 
0.2155173858403844 
0.5044408499102012 
0.01517029629498284 
0.3199058999270786 
-0.1192936377010908 
0 
-0.09235850828799165 
0 
0.6138159997965461 
0.02671838522364456 
-0.06070124737057188 
0.05782942664728635 
-0.4491054774674965 
0.02946225394258234 
0.06343057011710972 
0.06057514847614081 
0.5432844230088805 
0.001475613816675702 
0.4580552193773224 
0.05218062393894535 
-0.6252925518740299 
0 
-0.0068671809133359 
0.05199169634412829 
0 
-0.02866295854447171 
-0.2278800699569503 
0.1559831181839557 
-0.04235375002649199 
0.06130616798298447 
0.004116598019812114 
0.01599714348518554 
0.2117615036336251 
0.3236844214829171 
0 
-0.1140991637562714 
0.0521565116603521 
0.01352383489049534 
0.0254161717505344 
0.09524445511788157 
-0.09974896097961422 
0.0498421983868881 
0 
-0.002589094996836503 
0.6231647278618774 
0.004506758874530403 
0.1479170964236347 
0.2910306713095765 
0.4754389422205701 
0.1050954063310106 
-0.06192563841157535 
0.3949503713035754 
-0.1485114031486607 
0 
0.2107865347450492 
-0.3986692750596132 
0 
0.05302464328153075 
0.02639863752008854 
0.2374599071015336 
0.3364475628663137 
0.2943357853704548 
-0.08657042605417195 
0 
0.1335665615882262 
0.04603999724101149 
-0.005989022789950121 
0.072127547924178 
0.06438402192689682 
-0.3210945350043286 
0.07794065038597361 
0.03460745795688482 
0.1105433800278551 
0.4465766593242665 
-0.01499298120985134 
-0.2022159914784018 
0.00842327076794216 
0.08946384465565105 
-0.5259441148426948 
-0.03228001496495828 
0.3657187315198215 
-0.4419090878577439 
0 
-0.1130925754692973 
-0.1444423960072861 
0.06325174421167334 
0.0509095392294145 
0.008846234761856621 
0.06710387167824301 
0 
0.2689910823257174 
-0.1699993321876254 
-0.002338469601048307 
-0.251390777651757 
0.1617154278919439 
0.00552918251050293 
-0.04519163388284637 
0.003838760166520926 
0.03782257057493228 
-0.1645761595734797 
-0.03131930905827722 
0.06557528241760188 
0.3029509319680666 
0.175712600167622 
0.06231106801657908 
0.1852003875985351 
-0.05803986844548119 
0.03146575536448869 
0.09331913510295338 
0.3643949924909228 
-0.01954307944162496 
0.1855148274913695 
-0.5489502051115557 
0.09804933332350328 
0.4192925795886107 
-0.02594404351488491 
0.01392116788650898 
0.01648037076929044 
0 
0.03931488606884811 
0.2708224311332693 
0.5432555780401703 
0.06169649920249852 
0.2572536621993178 
0.0372949194469971 
-0.1185025822162416 
0.2435464040967893 
0 
0.1067965562914243 
0.3409051159189112 
-0.0796026445884274 
0 
0.01107172050278706 
-0.01315785142054561 
-0.02422435116031226 
0.3663624798532877 
0.09014263860494927 
0.09922698854149926 
0.03737717184682809 
0.6877609545140746 
-0.01661951485591261 
0.1761374324878033 
0.1238752890529283 
0 
0.08971137435039925 
-0.4223988151728453 
-0.05239147213463568 
0 
0.2590891784069365 
0.04724736021542342 
-0.122594196764921 
-0.01377618424738237 
0.01102572187738134 
0.2179442735756554 
-0.06824689671952248 
-0.0080606792328996 
0.006306474807278706 
0.2762298714559833 
0.0142889716095964 
0.05595458451769404 
0.17958862294291 
-0.06282412195050642 
-0.1211098135596968 
0.08032252709927444 
0.1059459840995859 
-0.002125401116219446 
-0.08012589016606404 
-0.09360825187571434 
0.3275253176653175 
0.5624114416776647 
0.009701429772629739 
0.3443179987653587 
0.4869286542502234 
0.150298601246017 
0.160906654580917 
0.08124395019774348 
0.09325741445174962 
0 
0 
-0.02993767189541557 
-0.2182105556522062 
0.6083951068634057 
-0.03277690601809675 
0.08893577082559867 
0.5555932790186443 
0.001794535096423146 
0.6581265753754847 
0.06898408442221736 
0.8482179235381294 
0.07306201453148525 
-0.03660120867758666 
0.2763925002488743 
-0.04659962896927382 
0.07590791661402529 
0.0009657465455868274 
0.02934393891836809 
0.0600711183883293 
-0.0006073483629503515 
0.3538220660661566 
0.151095898067985 
0.06670258530726063 
0.236128729488172 
0.4511624345905757 
0.1589808527298039 
0.1718096768083224 
-0.2390678912282203 
0.005619252305103807 
0.01449322236051473 
-0.004683693394271861 
0.0145197295293461 
0.2215318116482901 
0 
0.05738559876320211 
0.3594991270206682 
0.07167027380709534 
0.006110021457074429 
0.05161914896301893 
-0.03086737425967434 
0.1868524409715013 
0.06248254460764516 
0.03743355218899476 
0.4590073346399413 
0 
0.05148749584858502 
-0.02266235640151449 
0.0315828267239389 
0 
-0.158969143619513 
0.01108618192358506 
0.1014466491276331 
0.07613524671446037 
-0.3078229573652844 
-0.1488015380033181 
-0.07034801186757536 
0.4436385039921443 
0.1916400045808225 
0.1734315780749006 
0.008656585857779652 
-0.2382429326323169 
-0.01103831119886039 
0.01760196106347466 
0.0249678174241898 
-0.02112896129307738 
0.1112003240054362 
-0.09199118590179371 
0 
0.01345096558897586 
-0.5976161008417855 
-0.03673742291064314 
0.2356670426319581 
0 
0.1437386651549615 
0.4035229420630259 
0.1963945429606041 
0.04721462046231571 
0.1775625730841928 
0.009485573836845233 
0.7824277799504654 
0.1369783047832804 
0.05140047625113234 
0.3367699107491702 
-0.089158750406616 
-0.1481326549720036 
0.4227156141522703 
-0.1515004927000454 
0.03772419749215881 
0.08880911440049914 
0.06486134780413659 
0.2057847037607534 
0.1509979659995602 
0.004096943322003808 
0.03274356664227518 
0 
0.05809638846231283 
0.1127662338647716 
0.1855440976433685 
-0.0321824777298913 
-0.2488059942327556 
-0.6224305264741133 
-0.0007721627796133363 
0 
0.1939424108166174 
0.005568985288904906 
0.2713499453558702 
0 
0 
0.1112538930597693 
0.09428973157567992 
0.02346213021325001 
0.08519994365832691 
0.3184834118063173 
0.06766763942049511 
0.4448121217922134 
0.7184755702304465 
0.02080812759185136 
0.03410371290554047 
-0.2544450050332936 
0.3567055953893423 
0.1715608588575477 
0.0196256993951237 
0.02641692165076653 
-0.5869159183227396 
-0.4197763198162844 
0.03644149991828876 
0.1357741947787914 
0.1396118398732103 
-0.5295543919171846 
0.007877842896789519 
0.05331486036792185 
0.2850431790185987 
-0.8349479142927319 
0.02534693199679913 
-1.338624122522969 
0.00979520748356507 
-0.1055493694241907 
-0.0242008575433756 
-0.1464555132512854 
-0.03220050291594335 
0.1816585011001482 
0.02402782226084621 
0.559532373114503 
-0.05492837883680152 
0.001006167241932679 
0.3539677216285109 
-0.08195048531497573 
0.3938933490492686 
0.203926999056121 
0.01859922059908591 
-0.1454240117637719 
0 
0 
-0.02301944535446783 
0.01731897066061086 
0.009850231820448948 
0.6217609134813256 
0.06531433580503207 
0.03057700129634352 
0.3359513646586852 
0.06038870833436264 
0.04869229790596592 
-0.04277377496302356 
-0.05375912684391491 
0.7888235140680072 
0.1122320556144665 
-0.1975961211486027 
0.01190425031072949 
0.6484345066565753 
0.03309778125052754 
0.007121967125127003 
0.4343084215008949 
0.02762136734192541 
0 
-0.06582777897220887 
0.5199034734056616 
-0.09858892559799759 
-0.1058165979555036 
0.02451757556350403 
0 
0.1517794749691844 
-0.01809168510769557 
0.05499653778172588 
0.4516349932164583 
0.03583175425687354 
0.04555258375349586 
0.1244997645890869 
-0.2976472290244761 
0.0208466618525785 
0.01566488040981275 
0 
0.5991520835983791 
0.1385264672886576 
0.01359948860746305 
0.00298153174417569 
3.388131789017201e-21 
0.07698413074578483 
-0.4953429494643986 
0.005359356802884726 
0.138078195258602 
0.00589303051423011 
-0.01024025000695733 
-0.006796609849590495 
1.734723475976807e-18 
-0.0176111637461898 
0.2010314320223991 
0.004073704164374754 
0.2165955449432661 
0 
0.3080093330208479 
-0.05721286551077016 
0 
0 
0 
0.2296401979577455 
0.1609995530483701 
0.004391796064087503 
-1.053749138568649 
0.00288274457673726 
4.336808689942018e-19 
-0.03901745285647557 
0.2157293522950162 
-0.1066451887559923 
0.05862979406977663 
0.1579156525040113 
0.02388359862490078 
0.1049305812391362 
0.04700182453894212 
0 
0.201495964342846 
0 
0.009942000371085044 
0.08258638781889525 
0.04117381054210085 
-0.2019200677678425 
-0.03480967659452409 
-0.08913850476559744 
-0.1903199103105186 
0.04953445230983456 
-0.2394696916644395 
0.4584076966639646 
0.2364524830819877 
-0.1734040471583321 
-0.04711812326594256 
0 
0.1449948567962472 
0 
0.547684887508192 
-0.09407218310892128 
0.1934510206699417 
0.001176690357194959 
0.008443356595523923 
0 
0.1918643990460819 
0.2025273275700883 
0.1044624857807444 
0.1959826921583804 
0.001929520870829237 
-0.01275973621312137 
0 
-0.0298797855813145 
0.0208399196961843 
0.2353418953416883 
0.0465974106214593 
0 
0.2232765554615997 
0.124009063746101 
-0.02201891856693896 
0.2331028681995011 
-0.8965794808839801 
-0.04970943455497898 
0.01730795012095743 
-0.5472867075473052 
0.02877634237603861 
0.2276414997590715 
0.2611895644902337 
0.2489817138198382 
-0.1767465268959468 
0.08656986052786063 
0.3182774007396397 
0.09118669162815508 
0.002123860324015917 
0.1700589180784853 
0.05550169605240401 
0.4232187069208169 
-0.1026105133269161 
-0.03882549903309554 
0.002051515321008235 
2.168404344971009e-18 
-0.4268560801130278 
0.1866953931324713 
0.07090768913867639 
0.02166475917426958 
-0.01474947972459665 
-0.07107561151540735 
0.1121842005860533 
0.3392140406599722 
0.1613685968652686 
-0.02728284242873225 
0.8452465819906646 
0.1342829152671109 
0.05544136883498362 
0 
-0.1210245965817138 
-0.5606582544226101 
0.1195082885108925 
0.2645639125020393 
0.154159028196815 
0.3864247102778922 
0.4778862053141022 
0.0170831129605565 
0.02913147595205251 
-0.08252240544765817 
-0.1430182520351982 
-0.401692573478283 
0.6411030278974246 
0.13705769483184 
0.2795060957349372 
0.2340846786723767 
0.4291665895574865 
0.1372729959059116 
-0.2529573161913835 
0.1428731215765553 
-0.4122680136336267 
0.1411639761874958 
0.09384066813942318 
0.05535284599216642 
0 
0.487466519545618 
0.01830420331474257 
0 
-0.1170794763416997 
0.07301836669264129 
0.4841486243640699 
-0.06002820128469381 
0.01469538030494729 
0.2767342983244905 
0.2313445745324009 
0.07613911160241299 
-0.3445851768729458 
0.01714034348188544 
0.21414913148695 
0.02877863455505644 
-0.2809156264170893 
-0.02929812996559225 
0.2009696079375265 
-0.01571831415766848 
-0.3075963617056999 
0.5688712424287767 
0.04562703979725512 
-0.5310541934824216 
0.1869678073712643 
-0.03928381149108094 
0.6750416965871746 
-0.5720325430842594 
0 
0.006821598458790851 
0.2027494365421033 
0.1539897917451591 
0.2478193418510508 
0 
0.02483869403948897 
0.09393554574711174 
-0.1601176896838207 
0.01527236485341338 
0.3888024077696087 
0.0654875404746581 
0.3524420184299255 
-0.1525373334760936 
0 
0.1177851239487548 
-0.0003432746847388487 
0.1313206401335171 
-0.01094936039333279 
8.673617379884035e-19 
0.2141543592865397 
0.005691683433700554 
-0.03723785155713931 
0.2221255027035214 
-0.0984691294112181 
-0.05118134812977958 
0.1681668412291025 
0 
-0.04273659907012525 
0.0412043079404829 
-0.3208768829952422 
0.06455574164887767 
-0.09317815313851327 
0.1521979138759334 
0.05649387373224846 
0.1842760304630891 
-0.007494864173175747 
0.05716925190822599 
0.001721489164783391 
0.04466697026818767 
0.00468966804467614 
0.04926944769708531 
-0.0603723041476847 
0 
0.190988427790105 
0.1159144955464684 
-0.1437490627544159 
0.5137026395803456 
0.0173068733037232 
0.01331452077733014 
0.0004145999740017795 
-0.05685936960741984 
0.7833832621064176 
0.04584733630254485 
0 
0 
0 
0.04656181041693987 
0.6038643156172661 
0.3262709511601394 
0 
0.0100073954710448 
0.1127743779306668 
0 
0.1326389684790583 
0.2922780525804518 
0 
0 
0.4762261782970713 
0.2307897740232935 
0.4615924925542015 
0.1588363233487107 
-0.06154027546576087 
0.09932464204307727 
0.05753992106922953 
0.4737636809597666 
-0.05584240932728964 
-0.006240631349224387 
5.3878409660065e-05 
0.08109458407968567 
1.412016303729919 
-0.01648750360505453 
0.5079596705333614 
0.005789768715923957 
-0.1122716237181892 
0.2068646838101862 
0.0852660653276168 
0 
-0.005442953667397746 
0 
0.2469005839549009 
0.042461930925095 
0.2876674247991688 
0.02628184233022344 
-0.2197138288420017 
-0.004884716491125892 
-0.0006163654237074901 
0 
0 
0.01123205709000169 
0.06442675339968948 
-0.09109548571053558 
-0.01250458392167286 
0.4856577513578923 
0.01821514482191246 
0.164437570720507 
0.3351496653158206 
0.01725294788550395 
-0.09899392210257743 
0.004616689463395395 
-0.7414040334087678 
0.2390738383511518 
0.004995254588194905 
0.2673835771663549 
0 
-0.4830153049414695 
0.02255365876777373 
0.1181401204783152 
0.09131951847061399 
0.0266339103837002 
0.09987802258087201 
0.6427700771888907 
0.065401589079384 
0.01419265115280285 
0.1292952203963949 
0.2782011996930248 
0.09709439902228896 
-0.8483814943042811 
0.07486443939523198 
0.2921988200273103 
0.04956478378425098 
0.1815908564181822 
-0.2373767592444075 
0.02553732156431451 
-0.00429232068931422 
0.2367825472989892 
-0.1377182545184026 
0.08008633053534979 
-0.05180614641917233 
0.1652678268554652 
0.1718523188700093 
0.002801608641172391 
0.04338964415569793 
0.000230041848142483 
0.2177259043420514 
0.06859294713220881 
0.88570524845219 
0.05951456895282164 
0 
0.1728817177725632 
0 
0 
0.08972634909532783 
0.07108366535989943 
0.1253869559055421 
0.002013621753020357 
-0.009244644130962277 
0.02172031846289595 
0.4611127791620466 
0.08817807368633068 
-0.131237952874437 
-0.07198630103599775 
0 
-0.3277824411774349 
0.3291872109386733 
0.004658221293122122 
0.3351974410917115 
0.05385897818770578 
0.1451297994812106 
0.0431995216008177 
0.1843150951752034 
0.1767758709354049 
0 
0 
0.1144129371619431 
0.1477168359369513 
0.0008387264727719424 
0.5844337516743988 
0.2392425118361328 
0.07681508002391256 
0.1353653939027878 
0.3242431775711436 
0 
0.3655481113408975 
0.2123627043036344 
-0.007585679027950617 
0.159665985857502 
0 
0.2102752416106433 
0.1331174085566621 
0.002165606055780406 
0.2221971292590683 
-0.01603065554344521 
0.02155097003874128 
0.04407636971102548 
-0.1197159998204291 
-0.7841465493210242 
0 
-0.4674211204742888 
0.02245396810473668 
0.08855219714319491 
-0.06536680382067329 
-0.01437214450784991 
0.1307087487395127 
0.3184540644486055 
0 
0.1343959541238474 
0.05371178740602441 
0.05275331347293016 
-0.2444150423765944 
0.2713566811678575 
-0.09597678483289922 
-0.2084258190367155 
0.1602110459702511 
0.04453252378042678 
0.01075268989791614 
-0.02821437939123803 
-0.1117004033255256 
-0.03019331528073217 
0.0005708526197945907 
0.07282632557172682 
-0.01342033557628552 
0.3496224624793725 
0 
0.02603435410964246 
0.1102118894258384 
0.1406028104698105 
0 
0.4623284153400357 
0.01966009653654572 
0.1160540899793684 
0.09301627974904175 
-0.4540947275508314 
0.2326923088033018 
-0.04433453145722234 
0.05106600885654024 
0.02287794180782568 
-0.2619959433637108 
0.0450333080035672 
-0.5629148667027358 
0.1201354431996952 
0.04476431300315438 
-0.1100760314991807 
0.04231789680116826 
0.03913954430547649 
0.06745094837289746 
0.03933292636627975 
0.2544824393443798 
0.1317536828874682 
0.04077496829605706 
0.0111504248181599 
0.09289461824782221 
-0.001245298285712297 
0.06689533612149563 
-0.1597358752068342 
0.0480129530456086 
0.2619542255247476 
-0.01958677237011961 
0.532673532132669 
0.004016329925708414 
0.1044826368074899 
0.07192464765932355 
0.5653032130992004 
0.1731580533799716 
0.06367316119916405 
0.2854800432977748 
0 
0.07694487831492834 
0 
0.05258685692399007 
0.04758730129385469 
0.01919564327977215 
0.02867176657748139 
0 
0.1591948835488308 
-0.3459812895488981 
-0.1600672161030298 
0.2633614508615931 
1.254302757035888 
0.04025681922003511 
-0.03244232593933193 
0.04211209486415822 
0 
0.02359813047039021 
-0.5111770989479525 
0.05532596676565527 
0.0413458459264073 
-0.0897831513848511 
-0.2864339440336496 
-0.03194536478736804 
0.03818225882432866 
0 
-0.05013748347780746 
0.1127656977310854 
0.04880479655472115 
0.007890882690698972 
-0.007869299411935248 
0.1990600604156519 
0.02626049079494994 
0.009719241517153853 
0.07014755670672326 
0 
0 
0.003014134003725071 
0.158501094058867 
0.00844260098085906 
-0.04339294940887354 
-0.2013333834738088 
-0.1635265339528501 
-0.336811454947119 
0.1333850796687655 
0.01619330440708017 
0.02707012876066361 
0.2664825146227937 
0.0004026569375163064 
0.05108884530857077 
0.0355904699329983 
-0.03151434531246424 
0.07562220332600002 
-0.2483141002418561 
-0.4033959701682143 
0.07180094097422894 
-0.03414872458121319 
-0.04631520163694183 
-0.005803015851150798 
0.03227175956094377 
0 
0 
-0.07952035659040201 
0.20001111905951 
-0.1132510111815865 
0.08875207503480723 
0.1240835068946016 
0.02310119133965821 
-0.3622403580758445 
0.2290692950158477 
-0.04024144785995537 
0 
0.1134012383884449 
0.04463321682392061 
-0.00730951206503799 
0.0852027561836986 
0 
0.07251284621595241 
0.2096193873127553 
0.234911122177249 
0.09310127383159326 
-0.106147929729044 
-0.3607071501166634 
0.3430040446840082 
0 
0.0917079167555916 
0 
0.07094230093738643 
0.2070634176138469 
0.00837595519922836 
0.117230372452727 
0.09741020681076057 
-0.2646202891239335 
0.06032728043519196 
0 
0.06332296759064301 
-0.3618969238285967 
0.01992566204179757 
0.3538640882166929 
0.1292016738962988 
-0.02050530084488269 
0.04018154118517368 
-0.3409220673533883 
0.05752320142361654 
0.02504044421008626 
0.04797512151555574 
0.05600327574287485 
0.2647188575953982 
0.01323461345071843 
-0.07929187238713391 
0.04619802952779192 
0.1150904198116969 
0 
0.6123184012136602 
0 
0.09375407447962503 
0.2964830176256319 
0.1823811373065117 
0.1505413535444285 
-0.07821268282352493 
0.07009578471625702 
-0.1534895481184211 
-0.3867792913946502 
0.0005836845163939361 
-0.08922216868636795 
0.3937509126496581 
0.1072519705171535 
-0.1681374146283463 
0.04325609652236947 
0.4968774079306859 
0.02517423096139006 
0.01445745815836215 
0.004518027186825962 
0.1521099029673365 
2.833649396755789e-06 
0.04607789026333654 
0.00152133859134028 
-0.1780408478926759 
0.4527924124525373 
-0.08176521624976096 
0.05104997448150215 
-0.04786625452036854 
0.004364245051644262 
0.004677843154075697 
0.7265744434087295 
0.0007967217260079693 
0.3079086608018463 
0 
0.07415659809152232 
0.07974543114702005 
0.02210796747310783 
0.2355865524450663 
0.220013213751534 
0.03044709839652007 
-0.2709061144223431 
0.05080107637185069 
0.02453174859622033 
-0.09202710531107726 
-0.124662728805504 
0.02929419439801574 
0 
-0.5853207002600724 
-0.1205803924769759 
0.04534766084114464 
0.03933095157779496 
0.1593540008810294 
0.122524978583417 
0.2392678546850927 
-0.753670744250882 
-0.2817543756400954 
-0.3391176181201685 
0.01146966023879922 
0.04288353383482383 
-9.324138683375338e-18 
-0.1164753902932049 
0.04898203812529813 
-0.2171508115776538 
0.2855451268877268 
0 
0.01347244409034812 
0.01727418681478463 
-0.4497432445343554 
-0.04197291670967506 
0.07125538129164107 
0.1981959197971868 
0.05176416079607653 
0.05833899372609539 
0.420515221792927 
0 
-0.1218900396509698 
0.0187498887514099 
0.1159822033313717 
0.457458453357775 
0.6363344620013568 
0 
0.1278881887057613 
0.4132678248090991 
-0.001422177576225501 
0.005328154851442547 
0.05750641459494141 
-0.0359711810020367 
-0.3050907288689391 
-0.6887369314841585 
0 
0.08586562015835132 
0.03808430127830314 
0.05375478897833427 
-0.1543269194104671 
0.3654182351619172 
0.1671098241000041 
0.1219557067789999 
0.1398474892649299 
-0.09310014468611479 
0.0961043770894125 
0 
0.1784858947073301 
0.6413562270168844 
-0.2639247670131206 
0.00646766331072374 
0.08893628308760418 
-0.3840710805619534 
0.002115167960128109 
0.3502475251321492 
0.01962675952649766 
-0.06129258762976647 
0.174719235514717 
-0.3126813764254564 
-0.07100837916658097 
0.008285848990055231 
0 
0.01466527417764894 
0.01406901411853189 
0 
0.1948766243009546 
-0.004038171952402122 
-0.06073223507923384 
0.06281744714157883 
0.04370234963612264 
0.03600831888924509 
-0.01192594296910651 
0.04859379163269312 
1.734723475976807e-18 
-0.1021185413548053 
0.1294306002860199 
0.03514211921225808 
0 
-0.0313918537038957 
-0.09445647147115892 
0.1288464954239824 
0.0615751077132551 
0.04336082166335334 
0.04174130917026069 
0 
0 
-0.003185475950665324 
-0.009936875410322572 
-0.05099585781805732 
0.2213446506038001 
0.4568532824558665 
-0.3499761896742474 
0 
2.168404344971009e-19 
-0.07510150951782753 
0.03219500387566245 
-0.2152682706606748 
-0.001379537011320553 
0.02259697325028506 
0.05669282026874279 
0.008333522817095602 
0.05024293398743961 
0 
0.1651023390971735 
0.08992152936209162 
-0.2616266957857387 
0.006299682554204824 
-0.07027623141234114 
0.132914152245812 
0.2139091703925869 
-0.1177987517016838 
0.306174298116533 
0.1700248410426685 
0.08191783518079601 
0.3157008737914714 
0.1352928456376884 
0.1439493470933624 
-0.05715737471658035 
-0.3084038768228936 
1.127662325481569 
0.1268437090288759 
0 
0.07399300499642726 
0.1306272476721407 
0 
0.2969883546489206 
0.1151571991469475 
0.003631488091071579 
0.3726551596993797 
0 
0.2304783379452506 
0.04535996197514129 
0 
0.004102900532648307 
0.1251594288227587 
-0.160415166749215 
-0.1646232566890322 
0.06325467709995333 
-0.2789294107972824 
0.001035421562964171 
-0.1521414481424427 
0.0005720926213473557 
0 
0.3608928501460247 
0.007178741351850067 
-0.2902072558202196 
-0.1723139547665173 
-0.1590286818534933 
0.003563259855785649 
-0.1127238357076205 
-0.03873254261052855 
0.005652788785969749 
-0.2301401130056884 
0.2342581132417905 
0 
-0.05858873020923897 
0.1962261476974431 
0.1954403691371864 
0.09110742835602303 
-0.1833904575501132 
0.04177723323915818 
0.2720507281970846 
0.8528983925938407 
0.3498150442034648 
-0.4707610416269694 
0.07434863404976194 
0.03897784078320294 
0.1191315258210335 
0.2514360730426324 
0.1089385291801658 
0.007764485076733034 
0.005018242120367258 
0.1579852864162674 
0.03377235349888618 
-0.02408538052632118 
0.7290293439724975 
0.01032149436164097 
0.1547558632550272 
-0.0009319450371106398 
0.3280527572341788 
0.3004267136614363 
-0.005795383955492466 
0 
1.13841228110978e-18 
0.01244118523899724 
0.8377102330521419 
0.05467573036470953 
0.02286099599154195 
0.01868762738825454 
0.03782249574525982 
0 
0.08721434961398158 
0.03525491868722919 
-0.174729162700405 
-0.2416778061866794 
0.02253169247175863 
0.2205675431884752 
0.1925456475324477 
0 
-0.07126927325639004 
0.02669584117787251 
-0.0188552793457025 
0 
0.06586496036944577 
0.0771560947625269 
-0.03422598372127261 
0.4217864408845193 
0.107683474173048 
-0.01904154735135472 
0 
-0.01797902171507652 
0.03035497536538614 
0.1067397571088132 
0.09561036709620815 
0.1109565258933462 
0.2337332186868637 
-0.0001787059856682047 
0 
0 
0 
0 
0 
0.05239644097435022 
-0.01079685049051502 
-0.3024336938637871 
-0.5241032635583126 
0.2714942021948794 
-0.009269525255842067 
0.03743589253615788 
-0.1761386318974486 
0 
0.007382043562236388 
0.002611848162696347 
-0.2459928643094247 
-0.01178182664281655 
0.01231565901690951 
0 
0.04444850420596384 
0.07822058550822082 
-0.003703825454133671 
-0.004316653496045363 
0 
0.03367808024574195 
0 
0.1825143867632067 
0.01405024120108979 
0.06755938836121586 
0.3816630096414557 
0.3479770257384969 
-0.1749091416235313 
0 
0 
0.008312314779444189 
-0.06010445456069062 
0.09440386562678947 
-0.4034810146699656 
0.01023356198596391 
0.01954096506499263 
0.2225233496996004 
0.03308964124429124 
0.2504828841782797 
0 
0.02676966603468332 
0.04233768361459252 
0.2328398052640876 
0.1416929227466117 
0 
-0.01322188304259308 
-0.2120622676610356 
0.004192656106673052 
-0.09956238577827238 
0.2719455114294163 
0.03565776628265893 
-0.5494534109491251 
0.7575085447637357 
0.06306954479364665 
0.1590067732457656 
0.02721834412375413 
0.1840278868229681 
-0.1602034430879768 
0.04795795737178677 
0.2845744247340388 
0.04305948633088174 
0.1689295078320645 
0.07554994884649081 
0 
0 
-0.03379629849632195 
0.06764140672053121 
0.02985370604559594 
0.4119310123371951 
0.2160950723318109 
0.116215656114098 
0.570530610876707 
-0.006165190341126595 
0.07899462567333916 
0.02909685496124971 
0.09729599283292839 
-0.2852631226971591 
0.5361241539923874 
0.01060460252923783 
0.08663814005582506 
0 
0.3374330788662754 
0.03430060560132502 
0 
0.2885500833157488 
0.006811627370110932 
0.2231631667910201 
-0.04244876168853507 
-0.2221313203749281 
0.1424883012677384 
-0.3091648269962625 
0 
-0.2091994374249879 
0 
0.008417541125302909 
-0.2120035523756711 
0.1650958131463102 
0.1029927881664319 
-0.08048152020794939 
0.02722095508613503 
0.06295085452485651 
-0.08384224071786867 
0.01043947969145536 
0 
0.3817140754647908 
0.02282997717279557 
0.07878360168753543 
-0.00171908189744632 
0.3007333760837085 
0.04996009409456138 
0.01829871235780759 
0.01939727933341789 
0.4212368921370379 
0 
0.06870847402757307 
-0.06270629376927882 
0.1734536760280404 
0.152961329403803 
0.3447884525321248 
-0.1786931848164664 
0.006477138380356325 
0.2490994608693121 
0.09364638913476493 
-0.1625059519457095 
0.2291927720054077 
0.1157282996307722 
0.01204098579529423 
0.1084947769815039 
0.1272613922157403 
0.02785583841701293 
-0.3077149924142588 
0.1464134468792278 
0.05417804787393708 
0.09461125080083607 
0.0007732267297302607 
0.05101747381242299 
-0.4624136569305262 
0.159994908747587 
0.02318217968349805 
0.09947891622067456 
0.3015167808281819 
0.2668915232408202 
0.3452843409035032 
0 
0.1157604794005389 
-0.1394787342346387 
0.2315141050498224 
0.02248175308513213 
0.6010627675641065 
-0.8024783590270761 
-0.209164360950808 
-0.01137261677857071 
-0.1248714243551337 
0 
0 
0.2297865423204192 
0.03197880208949749 
0 
0.2249333588317805 
0 
-0.7175765574901501 
0 
-0.02059672865375527 
0.01081024520610902 
0 
0.05106645526847634 
-0.01140990486867299 
0 
0 
0.0239052342252414 
0.02277778466114629 
-0.174580789008712 
0.128150540688656 
-0.1184757625892743 
0 
0.1246909220027187 
0.6108004945044633 
0.1301656005441799 
-0.0445117235428141 
-8.826359526605728e-05 
-0.1898120753599387 
0.07507727324234499 
0.01682136361892098 
0.01864414355567759 
0.09224069220706907 
-0.02881329340871386 
-0.7643602640595101 
0.03825491574260247 
0.2199616404801855 
0.02628902417405539 
0.06524688337135802 
0.3269599795057735 
0 
0.2125948481174873 
0.7742823845295214 
-0.005964626025553811 
0.00570935255529441 
0.1006593497185038 
0.1465769113958349 
0.1483253500518111 
0.3183457613439449 
0.1557262232929154 
0.01718201776390963 
0.01873035915917862 
0.04736588148636886 
-0.00809522757761647 
0.2778335185918415 
0 
-0.04677821101415225 
0.03188945734626758 
0.1052100837527195 
0.01302929953829068 
0 
0.03686368341111597 
0 
-0.1056699858204261 
0 
0.1222424682574009 
0.02223432262750385 
0.1517816703716729 
0 
-0.02411475652655553 
0.005765493179569395 
0.001484590774776076 
0 
0 
0.08523488437621003 
0.007036118027842751 
0.5150145784860954 
0.3647059721736663 
0.5696558787702735 
0.2011947323920087 
-0.2530236129286376 
0.2456009884394687 
-0.494642497380662 
0.7027800751210936 
0.3938729332658863 
-0.003619019327367913 
0.04360230159335203 
0.06033924101815619 
0 
0 
0 
0.1212684382493562 
0.01319157405597608 
0.1058061450839304 
0.2603548148024595 
-0.08808657338814638 
0.09223552269933508 
-0.04863432642132404 
-0.3274877384894286 
0.2920981201383351 
0 
0.4439321969686797 
0.1399317026909887 
-0.01947781997446634 
-0.05939005405647668 
0.03686722387324776 
-0.3707581663437134 
0 
0 
-0.1634444509907745 
0.001053285437091202 
-0.01981160199553192 
0.0011889631069443 
0.1334416046690885 
0.203895973002268 
-0.05860568338950675 
0.08949709765679606 
-0.4727639019081806 
0 
0 
0.3794649608919423 
0.1061511094485194 
0.1453123764031455 
-0.305439583705335 
0.02073799967618627 
0 
0.08074190343609637 
0.0141086614684127 
0.05195828320400999 
0 
-0.140987172160247 
-0.01011543756223031 
0.07268944217286727 
0.2077217464293536 
0.8120936224051201 
0.2959469282214958 
0 
0.01951254380804347 
-0.02276165608242549 
0.00050652090640717 
0.1290208211282477 
0.1693235597436588 
0 
-0.3872310458367056 
0.06389189541990818 
0.05479491344267244 
0.3070562443616165 
0.09171437425231731 
0.05377644941395785 
0.6241682250507317 
0.1288758218427778 
0.1087475637619239 
0.3508485445884133 
-0.468454408705935 
0.06666533495971583 
0.3426447194258472 
0.1946488396959838 
0.3052736986929936 
-0.001865619326660424 
0 
-0.07678651790680752 
0.04062542497662969 
0.04364883935603052 
0 
0.2955791703000372 
0.2027418776424635 
0.4219657160048816 
-0.4033240796860509 
-0.2722653495771831 
0 
0.01715992799765573 
0.1583505120492613 
0.033289040140955 
0.3550431704347649 
1.517883041479706e-18 
-0.1090231022030835 
0.09781962640087992 
0 
0.11712881744797 
0.0616285574184802 
0.1782411363239764 
0.02283523250435925 
0.001316461644030735 
-0.02853189699164178 
0.1155341271006435 
0.07461450491379917 
0.3421794494359816 
-0.06065376136977659 
0 
0.006435570602989082 
0.6050230516320757 
-0.04359164974631335 
-0.01636678173949539 
-0.3045670299985424 
0.318588481333132 
0.2712538574763055 
0.05967532503700995 
0.08089074133551759 
0.3054955680916502 
0.7374176811624903 
0.4194148150068915 
0 
0.2542808397405064 
-0.001194469044283082 
0.001033087223876281 
0 
0.05728452141049017 
-0.1018710058517347 
0.03996070004937644 
0.4790330989372664 
0.01356273229439918 
-0.3994118072603393 
-0.1185144639349494 
0.01215647820320364 
-0.3994118072603393 
-0.01274193613076719 
-0.05651717433837653 
0.3183457450886046 
0 
0 
0.510285303488496 
-0.3426435782802492 
0.1311251790212487 
0 
0.2595462396401765 
0.01716129522958904 
-0.2828494483732281 
0.2406442804114971 
0.006607411773092121 
-1.324642760312747 
0.6989541816803412 
0.1635239578056157 
0 
6.938893903907228e-18 
0.01712347437604065 
0.2990300649907861 
0.06744870579684423 
0.009385071590541751 
0.01503249639485988 
0.04479075919364533 
0.1576543761120788 
0.2524216287589691 
0.008313212886046854 
0.01201454239111101 
0 
0.5514564534898242 
0.09245627367278386 
0.0005419290116048241 
0.007406203277790548 
0.4301807508571657 
0.03208792595611314 
-0.06226614540779654 
0.006851591897191598 
0 
0.0369368318294889 
0.04832166347699612 
0.003125871683192821 
0.005080494539630911 
0.3620002349070274 
0.08833145335267965 
0.2979368521920638 
0.1759737599894979 
0.05376904736504353 
-0.043906054578674 
0.2146330449455403 
-0.1388134042473798 
0.00907563370203235 
0.004429626152855502 
0.003293147652481464 
0.1398976274659605 
0.2941567376108791 
-0.08429027555167913 
0.008266056028757695 
0.06718353471471789 
0.7146779360382324 
-0.1354238022717072 
0.005515379154268761 
-0.009801299125926652 
0.1445461052175914 
0.4747185242775232 
-0.04863137244895255 
-0.1774469454546415 
0.197095370828868 
-0.01031869131042401 
0 
0.03056344116365963 
-0.3276557443766281 
0.02501623104830939 
-0.03089681499105091 
0.03681473047491921 
-0.04452228267680367 
0.0007960575292867102 
-0.09562260025389399 
0.5477156032380086 
0 
0 
0.06810199055793802 
-0.1724428641705115 
0.06732426779679196 
-0.03856994271204704 
0.01436419525796053 
-0.3724395432196602 
0.09036804173797042 
0.2787658093619163 
0.1898221275011107 
-0.135641811569074 
0.007092110219993376 
0 
0.01273387515779918 
-0.005483371925027276 
-0.06609092456902667 
-1.141111730519554 
-0.2529612545716717 
0.004202351994253161 
0.001661612162505087 
0.06096530319527661 
0.1434528680743892 
0.0139191562849682 
0.01351811102567164 
0.004891433973265825 
-0.5966925134938257 
0.1312550509531822 
-0.14022432677224 
0.06317640235718427 
0.3740765765839271 
0.1859990746656618 
0.02433053415803117 
-0.07038380083932869 
-0.6318269192353007 
-0.1174599530692314 
0.1108099119705024 
0.003234185165975594 
0.07141617218392288 
-0.3728184496902988 
0.248691271524784 
0.03097218224728973 
0.09524157763488708 
0 
-0.1680521683609129 
0.04709295957679114 
-0.1424366607126959 
-0.25239942847546 
-0.04037675369545814 
0 
-0.0670587302158949 
0 
0 
0 
0.005643246266685772 
0.00765746644048222 
0 
-0.07400320319272259 
0.06709105814113839 
0.0120175762931679 
0 
-0.03665081916448943 
-0.006289346696016473 
0.001473578720304767 
0.08175168790970176 
-0.06406746446694261 
0 
0.07799857614148158 
0.161382318957361 
0.4190441851532344 
0.08282130785591207 
0.1434582430345045 
0.02773344189900244 
0.001760938984320233 
0.2578079611523446 
0.08871025912724728 
0.4967666278303464 
-0.5628804076689977 
0.09992580389442308 
-0.524376430529279 
-0.07267900731572229 
0.6043559215119149 
0.07979417632332499 
0.01098796250477737 
0.08342282123876391 
0.02931173628578623 
0.09976750012279945 
-5.861467994999758e-19 
0.008775712057664014 
0.09118638665029578 
0.02670572058075917 
0.02206861888165649 
0.02815532149063499 
0 
-0.5077643689886782 
0.04699506635638061 
0 
0.04119294125174675 
0 
0.155798552584734 
0.04035925719775027 
-0.04893580634691417 
0.01610131478368424 
0.04609144083364673 
0.03157976638454953 
0.06638342187512174 
-0.606046011297649 
0.07137397516785303 
0.1767395158785247 
0 
4.039591671312396e-05 
0.002312972873434982 
-0.02919749525622191 
0.7374704532785765 
0.01809235930412518 
0 
0.002477521851343468 
0.05501297478283705 
0.2002469475236442 
0.1204044381354552 
-0.1988359521279658 
-0.2402171523875857 
0.04177861809122973 
-0.015518727371368 
4.87890977618477e-19 
0 
0.02899778862194576 
0.3014475868385469 
0 
-0.006422825950511517 
0.329178973367761 
0.00236555672417432 
0.007957942709910957 
0.3448861238196226 
0.01125526567797464 
-0.00173646130607028 
0.124195701769765 
-0.04635264439609874 
-0.02743553019898891 
0.02397696136657476 
0.1667603052731783 
0.07636638664947432 
-0.05840126144301543 
-0.2063763309252521 
0.0227539952836283 
1.165517335421917e-18 
0.02152303086096819 
0 
-0.4875319708602573 
0.05564121820741266 
0.3623752693647925 
-0.1998595575036952 
-0.007306119545299779 
0.02052113522078675 
0 
-0.08581198173658142 
-0.0129870402096888 
0.04802167971091526 
0.02562215366833703 
0.07624424191000748 
0.07775646692789941 
0.3039323985340622 
0.05417137655984824 
0.05116103006829403 
0.1273823795103158 
0.07544146396138669 
0.2200464780946553 
-0.04888067837193513 
0 
0.03527575139888908 
0.1343579711834966 
-0.03113265857514946 
0 
-0.01474405656253438 
0.006983745746073264 
-4.336808689942018e-19 
-0.03809200964791332 
-0.002699626179243353 
7.589415207398531e-19 
-0.0989997048633728 
0.03777902451879187 
0.01438163918193966 
0.07591345655538109 
0 
0.00330460412918206 
0.2899570513668304 
0 
0.004449351017157403 
0.08117724920879561 
0.1065880567087812 
0 
0.1023521018855178 
0.3972330148107714 
0.003049291047457357 
0 
0.0149820203633165 
-0.1677705097212165 
0.2862440964171593 
0.04500337430605841 
0.02234216343127303 
0.01832654981188016 
0 
-0.6145285551579066 
0 
0.2761479724683555 
0 
-0.6641940456713845 
0 
-0.03317053638346026 
0.005125672427649935 
0 
-0.01474872452866489 
-0.05480758638115101 
0.1070133482237348 
0.1565517504271183 
0.02812809552966505 
0.08122746292883951 
0.1699330453680965 
-0.2552483805568435 
0 
-0.2205654820701737 
0.1622895333296729 
0 
0.00427195434034937 
0.179244904059718 
-0.02597545442305128 
0.1294384232684793 
0.0104553304329608 
0.02167446031497152 
0.007599895410848331 
0.1027886426044883 
0.01208585413202549 
-0.03858663472476726 
0.01840244686597971 
0.4496875073301813 
-0.1956431463769326 
-0.3896537958291108 
0.03327680403074566 
0.003113831830220211 
0.07842978429716567 
0.003501963849489944 
-4.336808689942018e-19 
0.1158630462279467 
0.006832441577421237 
0.5785431154666578 
0.001601602238993892 
0.01875805003921092 
-0.09163291237997362 
0 
-0.6342190865896516 
0.09376790026122425 
0.09594576231133795 
0.203732889374293 
0.03869956035253455 
0.2373828173394815 
0 
0.06771283946105708 
0.03309476084544877 
0 
-0.06716226471741425 
0.02394434275531998 
-0.06648036746380284 
0 
0.02036138992120623 
0 
0.0041380971014063 
0.03451354062315802 
0.09840116404763019 
-0.05917745073559492 
0.05519814285372611 
0.06711302688130526 
0.05331168222714916 
0 
0 
0.03527732521436563 
0.08838656032828673 
0.2808719298384828 
0.001856654576379513 
0 
0.128968725841374 
-0.01110405284795742 
0.0423748300863816 
0.18175705357777 
0.1254183528133715 
0.6091594505872434 
0.005957696094304535 
0.08440515711721944 
0.0101736800452145 
0.4647112230754211 
0 
0.4209503092143894 
0.1648401486844221 
0.02983672689678621 
-0.3086963181544011 
0.001192157897663494 
0 
0.1172065631383179 
-0.03587517842573577 
0 
0.3337631043639998 
0.04198228485287456 
-2.168404344971009e-19 
0.109685554103301 
0.01013692148589564 
-0.02977481294678025 
0.02761224088585376 
-0.05947716147646222 
0.05112607860238601 
0.03052833868144609 
-0.01300383624234177 
-0.003302437743714857 
-0.02370337937364165 
0.09110602342443673 
0.5100743704868463 
0.03216194712642903 
0 
0.5078781681263809 
0 
0 
0.02682031831276846 
-0.4439073967104476 
0.003094565114736079 
0.02832277515195231 
0.1151692000171618 
0 
0.3231775931374678 
-0.08478845482205191 
0.2442193650408754 
0.03478910633665015 
-0.0499004796860159 
0 
0.009921794358753242 
-0.104323521877656 
0.01078291316028708 
0.01354207513893504 
0.01114258139351195 
0.07639798398129784 
0.1070684212899127 
0.2719734264621732 
0.00738416038255016 
0.1739878394634821 
0.3579025289840528 
-0.09973106057986718 
0 
-0.06936822378650458 
0 
0.3474905579204353 
-0.02940605575330063 
0.02506566147450787 
0.005410069645655969 
-0.01752997421389553 
-0.1140491591964781 
0.2593455934225482 
0.2423442290438278 
0.0538733840608249 
0.04513838568345398 
0.2254841651063884 
0.2859225901494207 
0.02504900868607576 
0 
0.2929015472762751 
0 
-0.2003993920636288 
0 
0 
0.3243837841748174 
0 
0.00334797256894671 
0.0369680810217911 
-0.11826289429915 
-0.06144879229998018 
0.1801259318318535 
-0.04195727975569 
0.1089066366090426 
0.2632606854532623 
-0.2764259455843741 
-0.01032968894424664 
0.0229787653011867 
0.2276151401978673 
0 
0.3385877472420004 
0 
0.03372217205170074 
0 
-0.05129975026993577 
-0.0240518176949219 
0.0473351809041315 
0.003670871952650082 
0.07407187288957927 
0 
0 
-0.04483268466578261 
0.03816405307421349 
0.008192289858132525 
0.08155870924207757 
-0.02678868835346977 
0.287567482581886 
0.1587482830917529 
0 
0.5236272805405147 
0.007653409136673205 
0.0687542659089788 
0.01325094072807075 
0.2246483554294702 
0.5082103455663176 
0.1541638347031766 
-0.3111018959893248 
0.1068783890011263 
0 
0.02320700031209006 
0.1656830921787505 
0.03592710439779798 
0.01174479326930148 
-0.1151601584900388 
0.084618441868953 
0.354135136861398 
0.01735747671176854 
0.1658106428530666 
0.00190975420485043 
0.3918413047916982 
0.9744035494541143 
0.008750851401408072 
0.02881909276651556 
0.1436201295628902 
-0.1813377594075975 
0.170285442155427 
0.0818755024328323 
0.001097629135903724 
0.04679076888625607 
0.2891297827804025 
0.002850289131783272 
0.02761219074483671 
0 
0.2981766003510984 
0.03565980878863519 
0.04410364003368065 
-0.03669510365160965 
0.5377936251941794 
0.01698706847628825 
0 
-0.09480820857956024 
0.05475837749767396 
0.1055046975010433 
4.005349282325845e-05 
0.004828966100181401 
0 
-0.07172824524279298 
0.0286406720906099 
-0.02312878073551177 
0 
-0.1484068294974503 
0.0893110210530267 
0.2479508853475116 
0 
0 
0.5143389134935894 
-0.0879352921529015 
0.05150875761895037 
-0.08143404335212644 
0.1131648573056686 
-0.2259792022997469 
0.2690483904659289 
-0.0822615303416732 
0.09246993131487613 
-0.2430291487388176 
-0.03447760141768382 
0.06987414875549829 
0.02597597666813027 
0.0506533435244642 
0.1092197116415415 
0 
0.01123460111490766 
-0.004980121826667545 
0.001261508431790738 
-0.06037656459776327 
0.04413723296859843 
0.2710020834496473 
-0.4800121540096796 
0.04303976912977764 
-0.1837882125300164 
0.3631328970323796 
0.8822668330180453 
0.004764743566496487 
0 
0 
-0.2934302242641872 
0.006346478689246138 
0.02308942573511836 
0.2358699551672741 
0.002496778683980754 
0.004999203953229584 
0.01552047645901165 
-0.1160842236171531 
0.05125939674013173 
0.07036495833193922 
0.03021117257052491 
0.1191322634931656 
-0.002615236850025823 
0.001031235892854518 
0.1473387811033817 
-0.1343948193995634 
0.2087170692161225 
0 
0.01681569940245966 
0 
0.225956486997319 
-0.3645987185341957 
0.05394985962548372 
0 
-8.673617379884035e-19 
0.0545722227359183 
-0.09645156598745407 
0.1129073364467612 
-0.02223915302196925 
0.03934812678358256 
-0.1172627408751102 
0.0006879815176790102 
-0.1686826480058638 
-0.02650059230185806 
0.02467704419439085 
0 
0.09553790719384103 
0.07873687810066743 
0.01209759285266613 
0.08722799495225421 
0 
0 
-0.002570931813348262 
-0.006127920403068009 
0.06275586516660178 
0.1241206780563231 
-0.1292520681666469 
-0.156323624790881 
0.1662352572929748 
0.02094627758479795 
0.1789270360939988 
0.003776077922691082 
0.06775353087373054 
-0.3079396822393894 
0.000166548142619464 
0 
-0.09873854295376107 
0.6538954072415273 
-0.01257934936199733 
-0.08161421149064761 
-0.5951016774051739 
0.01799730122280593 
0.08057345553994004 
0.1444536282436426 
0.01871376732010486 
0.0007043353147099714 
-0.06265417348308668 
0.2129777674527178 
0 
0 
0.04895011136260524 
0.4895377556594354 
-0.2221976496885019 
0 
-0.03116331927304034 
0 
-0.1068789036543014 
-0.01563899489855576 
0.03945149836226341 
0.002427002456196335 
-6.776263578034403e-21 
0.295312860917447 
0.3720719758208824 
0 
0.2983781754048928 
0.09314343255142246 
0 
0.1274084708668218 
0.08583343309590606 
0.05164266661013177 
0.01911778582127488 
-0.04059719480055665 
0.001035882658540122 
0.03679874376092195 
0.3969963187269692 
0 
0.4418905501421948 
0.107192318629912 
0.0912052241695335 
0.002941057825165088 
0.5706866193777478 
0.179060165542084 
0.005941440515769307 
-0.0331879223190776 
-0.3591458367915946 
0.04402595839721636 
0.01910429384053906 
-0.05788070558931838 
0.106569208605501 
-0.1077599634840161 
-0.004338658454175088 
0 
0.2316039710714244 
0.1335223510376944 
0.1539053616337681 
0.06163402553628282 
0.5281078919295047 
0.05315667159173197 
0.089180358694453 
0 
0.4399207304259144 
0.02206471585727418 
-0.03013070167104693 
0 
0.06349985994420998 
0.1871449545382956 
0.2155528803383902 
-0.05420206632840989 
-0.1253373819665435 
0 
0.01992389679575884 
0.1823467698209033 
0 
0 
-0.09198203664063702 
-0.01353435141930405 
0 
0.365711496532464 
0.2133202309630965 
0.1097284349235695 
0.001723712906109842 
-0.02389227780909748 
0.00161882117662693 
0 
-0.02372395556732089 
0 
0.1053135741524702 
0.01231646515739986 
0 
0.8487408290645243 
0.5932036938044087 
0 
0.4772330050703305 
0 
0.4321940848358704 
0.2554138127752658 
0 
0.08613491559199797 
0 
0.01163195779211144 
-5.421010862427522e-20 
0.1693263739094139 
0.5286402282779734 
0.1082827414060929 
0.3578991918200864 
0.03761888554745271 
0.06577834050653157 
-0.002513974737619324 
0.6184883845609981 
0.001003004520991868 
-0.01698174535094603 
0.4998329019669377 
0.01364214417311909 
0 
0.07195381586147187 
0.146743889039337 
0.07681425173017874 
0 
-0.05673778917967368 
-0.02000577127709563 
0 
-0.03467933893047828 
0 
0.2352487744589896 
0.4188759533646502 
0.6221468616849959 
0.01116102543938627 
0.1445443082256254 
-3.177372785309124e-05 
-0.2023171003931626 
-0.9983340589098358 
0.2403252646119786 
1.680513367352532e-18 
0.2565159966571303 
0.04271169175059759 
0.2393793697312311 
0.09417101798775333 
0.03533802624831375 
0.1792715219824549 
0 
0 
0 
0 
0.4153119357939326 
0.1727944599223786 
0.06838761207226321 
0.1868396067969708 
-0.04549622622330205 
-0.09024203407439663 
0 
0.0244764655820202 
0.06198251250857571 
0.0002466286235517884 
-0.1070170129354661 
0.1512832154857322 
0.01033532649351628 
-0.2171496882210542 
-0.3879463926619714 
0.4186568444614406 
0.3882493215778061 
-0.2217683750093712 
0 
0 
0.7829226091521602 
0.007299019491531698 
0.05200092297963497 
0.02941133035987269 
0.005924358942906128 
0.3278888152752746 
0 
0 
-0.09296772318387705 
-0.1925478515298978 
0.122291517040209 
0.2283493560861008 
0.1187690246412088 
0.01046664072825566 
0 
0.0559376331016493 
-0.1181965406783458 
-0.2156255443084237 
0.01934479579644846 
0 
0 
-0.01533429678833345 
-0.007653422649530051 
-0.4223064544738957 
-0.6168563651307887 
0.001650971481808786 
0.04912757115488384 
0.2229721831011888 
0.00887829351750599 
0.1200774991698779 
0.259527513068943 
0.1875702218873682 
-0.2233835283556991 
-0.3426943156632097 
-0.06026684929811418 
-0.01990026807515892 
0.09826428479220338 
0.03148915329418683 
0 
0.0517375007497484 
0.05323435602608426 
0.01305789166773841 
-0.008199145642670878 
0.09811971205409589 
-0.2625344516813262 
0.1018411133839622 
-0.1316965171273057 
0.2034458964980723 
-0.02785605304038768 
-0.2017811927837191 
0.2547766764624856 
-0.1494565412064887 
0 
0 
0.0180517283857743 
0 
0.1190129448676026 
-0.1701317817662884 
-0.1513904267422558 
0.07400141516564283 
0.076581379835128 
0.07006535446832013 
0.03402235463602206 
0.006738077179654652 
-0.01048880752826768 
0.07785872710977607 
-0.2069982384347629 
0.04586101431348416 
0 
0.006953398696146021 
0.0923916714684634 
0.1731984693682577 
0.1448218234339794 
0 
0 
0.3001454433319692 
0.4455197099747876 
