solver_type L2R_L2LOSS_SVC_DUAL
nr_class 2
label 1 -1
nr_feature 5000
bias -1
w
0.4195194297792978 
0.09869340579928662 
0.2317322359008237 
0.2195334164514884 
-0.166284270989085 
0.5913472416045803 
-0.05142278790445164 
0 
0.003197278470903356 
-0.003094548208354939 
0.1083563761095497 
0.3688725203613409 
-0.2223198873282179 
0.05555145938729543 
-0.3592455782011906 
0.0799025598590357 
0.1873551700651433 
1.457866516307455 
0 
0.6379199088128182 
0.6021525296544237 
0.5117322838157499 
-0.01939003373122718 
0.09311225162052568 
0.1681000629626359 
-0.3606072933675253 
-0.9114170468069616 
-0.880630142210783 
-0.004475828514700673 
0.02067685629403997 
0.5856481025260143 
0.003364784170162384 
1.240577647605692 
0.6886475482768515 
0.599052702329837 
0.3173608254292694 
0.1255003780154244 
0.5337950600018205 
0.241458296762466 
0.2609533500677496 
0 
0.2924658835301837 
-0.5274638885316204 
0.130752416243692 
-0.8210079479327146 
0.0657118150629981 
0.02538625603233109 
0.1558915972141428 
0.0624919749658104 
0.3700674140618379 
-0.2108451033089154 
0.02280908325102811 
0.07077617996905827 
0.0496013090461458 
0.009048429844349544 
0.1821072956756265 
-0.1982532369360403 
0.4432870921865753 
0.1437995595325865 
0.3428898113738209 
0 
0.1732421148305231 
0.1826963768231493 
0.02016977458428525 
0.03826941031050397 
-2.969634962981148 
0.3771652123995654 
0.04936828082457767 
0.002531306782957602 
-0.02013698380658079 
0.5171150499107894 
0.06367785842088615 
0.1499911870313445 
0.1542124811946461 
0.2402414129549179 
0.01424550466696414 
-0.862352156647659 
0.02425383045027317 
0.3531776849205415 
0.04715542852028907 
-0.01035211873226733 
0.1109354095663203 
-0.2271117038819573 
0.1600364272699024 
0.003762297623585103 
-0.004158258604287533 
-0.6218113937743671 
-0.02525616886973927 
-0.06482640522934045 
0.4190347542256151 
0.06420269698012653 
0.02885900535883626 
0.08548267893220099 
-0.3314497493946014 
0.1726988297296841 
-1.263552364186328 
0.3319587440136618 
0.3128235171247665 
0.0009576764583580571 
0.1545591282443952 
0.001450061090448633 
-0.05908314772424283 
0.3645396570020735 
0 
0.009884767528268638 
-0.3346888864499779 
0.0616384700031983 
0.06269210673580766 
0.01094184015518296 
0.4027828612618458 
0.07123425156755527 
-0.4230505094223888 
0.1549756358586923 
0.164095273012947 
0.01953269724568948 
0.1728037033282786 
0.6345644229100933 
0.02069407962425461 
0.06653514335870314 
1.004382889586194 
0.184695528155718 
0.01524679945945637 
0.065510044248627 
0.07878468476740665 
-0.1606793016466935 
0.198299187736766 
0.05613782916952954 
0.3070721905462184 
-0.005639176286847643 
0 
0.08190628290888598 
0 
0.0199094582204221 
0.3164776809901987 
0.1132028815793961 
0.4102447416317246 
0.03015729163458881 
0.08722300633930469 
-0.02160341877609937 
-0.6542728552072904 
0.01840869743766359 
0.1403151676509473 
-0.369868872762256 
0.02541863283580119 
0.1076099588645377 
-0.006388436062198749 
0.0006681012113842861 
0.02113266141332545 
-0.3214223289361181 
-0.4744804843104792 
0.03511441792751668 
0.05467119923660893 
-0.3082106622943646 
0.01562723183029556 
-0.09716222678795923 
0.1174646263749464 
0.01000763397171116 
0.3845037634802342 
0.2123806695970631 
0 
0.4752043705861507 
0.04327133834242816 
-0.1838233536231157 
0.08022194726939444 
0.0007172167575506871 
0.01186237694364013 
0.1559847604659506 
0 
0.05966031551832282 
0.2076848822350333 
0.09134878583906079 
0.07994747552938454 
0.3561833687212141 
0.1938893524484637 
0.04587491262959537 
-0.4091213619000667 
0.6793785020338862 
0.4519614371530301 
1.713793077434024 
-1.36098964909672 
-0.07771043025515091 
0.03368153447529879 
0.05289066588044319 
-0.01708947552718891 
0.1821236076062723 
0.005255890406663413 
0.0441726073687647 
0.3925387142263777 
0.01759169422571273 
0.09216369500478681 
0.2455529168738659 
0.07556438392002235 
0.1231408015468382 
0.02989566181103024 
0.05038320674953067 
0.1036151536418977 
0.5871647328059243 
0.7658430129503915 
-0.1412452685754986 
0.002399208930055338 
-0.04813379535803865 
-0.3423570532101993 
0.002990240101948389 
0.06035350260086838 
0.08409001778240435 
0.0652560257538876 
0.01687984058119792 
-0.2945004729799579 
-0.05454259403727786 
0.4214082238816649 
0.07264694548089744 
0.01113429646202724 
0.03271133501171993 
-0.00723191666367348 
0.3203368793274763 
0.0001749528100447835 
0.4461614218583175 
-0.2024676524340963 
-0.4444190066934889 
0.1153935479258491 
0.07378444106309168 
0.1922096479489555 
0.7921307433329393 
0 
0 
0.1524968928031673 
0.4245225489490433 
0.3372731585182079 
0.005930557775257336 
0.2588873319740179 
0.008160932416576609 
0.2166658798580515 
-0.1396083786607842 
0.0779608307808807 
-0.7026839266964062 
0.06120232724991607 
0.1598994232472452 
0.2173976105252698 
0.003354315322567693 
0.06604820323978464 
0.1629479315174772 
0.03560140848284977 
0.02652973957854234 
0.665200684176383 
-0.03188774731161161 
0.1076748112195135 
0.1296897161194313 
0.2227632894776122 
0.4364510391982331 
0.1995091577488582 
0.3695926903601141 
0.1301646388483829 
0.1446686117018046 
-0.6008704316395369 
0.01235223361706438 
0.4462269634506175 
0.0187379266395457 
0.395875578146619 
0.1486679474731989 
-0.06727323844952163 
0.03752827416555712 
0.04717278489615984 
-0.1070750303113762 
0.1875212254754709 
0.08966638717097748 
-0.05285618166463229 
-0.03225190893489532 
0.4969683392916875 
0.3502220519120873 
-0.06001866598328164 
0.07541659833737503 
0.007001377087995975 
0.01458142063876573 
0 
0.1367238539100691 
-0.1100416935984705 
0.02101969246901357 
0.0421798820279842 
0.2664870259083962 
-0.2384890518135991 
0.2233993810979412 
0 
-0.3621627261248265 
0.6929406387194096 
-0.6137045599361398 
0.7711194426444259 
0.07155928719930102 
0.02327047975266167 
-0.01546662093173808 
0.06357174666408878 
-0.548301631141107 
-0.2099877709206157 
0.07778757100727499 
0.05660971007014159 
0.07482184357697225 
0.1604336299682027 
0.005240575252686639 
0 
0.03002143865015438 
0.2588685879340329 
0 
0.1995134271527103 
-0.006711453091035653 
0.1753280743576799 
0.0981217329553818 
0.4189494010462281 
-0.04448144631473833 
-0.4735375379750755 
-0.0007658776595837937 
0.01871836453942491 
0 
0.1260055904878313 
0.08127275316018276 
-1.238634804307458 
0.005997061665997405 
0.2970912629724579 
0.03779951808239192 
-0.5049399117540811 
1.228544143610774 
-0.3848891828655365 
0.1097449092333217 
-0.1262597834822595 
0.3181489587025257 
0.1590675744659282 
0.08200629969637617 
0.5943436561085467 
0.009367338490753444 
0.08102401303448793 
0.02242116991926978 
0.09829634083734008 
0.02905528318797165 
0.1561100639271688 
0.1765489115290136 
0.09120590194945376 
-0.05247102191510823 
0.09071912674706788 
0.2454759673980824 
0.08683267966393801 
-0.0003496433207007695 
1.178365215553316 
0.008704552582068575 
-0.2593306638839825 
0.08886339241056189 
0.03796358809700175 
0.02907632787349665 
0.08941750163774133 
0.01179568591750236 
0.1319294018280558 
0.01220323550345936 
0.4828197237365606 
0.09045398193302512 
0.1237828004439381 
-0.03279506785427237 
-0.006301093797512439 
-0.2998229460295963 
0.001712074555451638 
-0.01896720352896178 
-0.2404126242283764 
0 
-1.080149047601473 
0.006642914250983052 
-0.7044568669251052 
0.07234369278539998 
1.074376050815061 
0.09299613373427085 
-0.06077732099212435 
-0.09730521420737914 
0.03741315796466001 
0.07025266256060551 
-0.03258789987279621 
0.09747113977128832 
0.01022851162469848 
0.3057041784612878 
0.02517968994679075 
-0.4723388624929327 
-0.02301541654105103 
0.07347546492506267 
0.08443586392037999 
0.0142525442424617 
0.05601779839015474 
0.1045492773770883 
-0.01594291175817177 
0.152277434199565 
0 
0.3703408342719768 
0.01824898934480458 
0.2181864226623731 
1.330760901193476 
0.1113124653328822 
0.07773492442363117 
0.004155777370389253 
0 
0.06055999479076372 
0.1732771397437102 
1.030612508717286 
0.2075177474539703 
0.2348064916585269 
-0.05337779553971106 
-0.02289497082786161 
-0.05811945052473227 
-0.2188216109602171 
0.5075714153769738 
0.05085441606784382 
-0.2493863819095898 
0.1334801398841178 
-0.008682359260385681 
-0.01460784903752926 
0.0519904712607752 
0.1905659283508322 
-0.08361445439153699 
0.06726792131233018 
0.1847998769296719 
0.3019521800570459 
0.1824629314864475 
-0.2604471872915185 
0.3045892227643618 
-0.3180984829936624 
0.1089679662365101 
0.04156542859015184 
0.5192178531471167 
0.2042004459513006 
0.1234964642711606 
0.003273214065256878 
0 
0.3486620836188647 
-0.1374229443902323 
0.01606377583287801 
0.01122575539203837 
0.08387105363930845 
0.06337218411007253 
0.1055541153777287 
-0.06295406534033481 
0.04736976553284517 
0.48198805644385 
-0.01402046268425563 
-0.05967024853913367 
0.02456666123912585 
-0.04173484956094259 
0.2033343431901966 
0.01997916237452167 
-0.02503300897067621 
0.0338578562642762 
0.01431697259273581 
0.06457216174249489 
0.03040318763837565 
0.3220315716845543 
0.08436515194673762 
0.0899534499709933 
0.272878235314834 
0 
-0.03271888359551463 
0 
0 
0.6274705760316627 
0.5013298493122256 
0.01738524716972566 
0.2809254891066144 
0.6122980135567567 
0.3041869025492853 
-0.01156173933323024 
0.3800606646181205 
0.04527746521323704 
0.04240615226506253 
0.4510580067783457 
0.2935682779222412 
-0.4950431467357035 
0.06594438227271554 
-0.05106288645686477 
0.7216092194208259 
-0.001525884769262896 
-0.008058136518903164 
0 
0.03977958171242727 
0.01256413128010028 
0.0618658246914783 
0.00469437539879456 
0.03756551153789995 
0.2171445955354241 
0.3631459534767488 
0.2149402188102781 
0.03202499146526117 
0.05801755929156226 
0.2782741041648532 
0.1500840947609753 
0.0257613899117417 
0.3305466700007473 
1.465757432385266 
0.01630070271297188 
0.003227954439963423 
0.1636326711187791 
0.1386313769288411 
0.1395056279011511 
0.01338432117762953 
0.03561523348083138 
0.01163446138269235 
0.08457412222588058 
-0.01911109419304165 
-0.06911570050414739 
0.2843071571375522 
0.6578043035383747 
0.02295998821627544 
0.02469754805232199 
0.03649989001917384 
0.08563865661164531 
0.01003933544512798 
-0.002035267147381146 
0.2782194308525024 
0.8946491671198569 
0.05635884218968732 
0.01223267503967422 
0.1672085044104204 
0.04033526794942011 
0 
0.02913002175257135 
0.2848861160956739 
0.02821828560182751 
0.01667357584490602 
-0.0002577432844388617 
0.1388812682060862 
0.0005086896794893923 
-0.06437821732504402 
0 
-0.04066797843882407 
0.3236338688012729 
-0.2052590671762904 
0.001359619414194463 
0.02240304930175219 
0.07098181164318143 
0.01289845480215707 
0.427588180443956 
0 
0.03132661956596825 
0.03322930929664174 
-0.1790501564193923 
0 
0.04754609538336595 
0.09923038624379144 
0.4505901524896134 
0 
0.02608835355407151 
0.08996931799700648 
0.3996967307750272 
-0.2862302282318814 
0.02167089184016186 
-0.02808923131235417 
0.04225913277976268 
0.029747523280937 
0.02700036997725362 
0.8277796618802941 
0.02746890436190128 
0.2688455448682088 
0.5237246018928441 
0 
0.002266771667979999 
-0.02172726997213883 
-0.03601852101069125 
0.1372382199435214 
0.07835676432682012 
0.008884770632854231 
0.2879240025250346 
0 
0.02592378689274203 
0.2061506001333115 
0.02973087472310677 
-0.09035369189786166 
0.03034348219894618 
-0.4292860035464486 
-0.004858676905224131 
0.03306282331654854 
0.0186415798695557 
0 
0.909983382943059 
-0.003337517360305414 
-0.01821650729965511 
0 
0 
0.4703757480245926 
0.0473378809579322 
0.1301926956439677 
0.03185308741806362 
0.2275023943067959 
0.2414976931490127 
0.2881642033497913 
0.0104815084591161 
0.02748931623981943 
0.4594449066784204 
0.08376963745958435 
-0.1324934235125891 
-0.1019739913652297 
0.002182634058289264 
-0.02175210452541337 
0 
0.01104601153166413 
0.000134355446674025 
0.1483740163744215 
0.07594244373480695 
-0.4303223552506629 
0.1362347455547866 
0.09377703240078973 
0.001791138123878338 
-0.02237491995816578 
-1.15241273342798 
-0.01916491049111894 
0.02456695776302605 
0.053108262470393 
0.01913672487146463 
0.1287634332668399 
-0.0481236916835058 
0.3514112378594886 
0.1476772002883558 
0.005489546623005498 
0.08249442089557335 
5.335146395181803e-05 
-0.04229795457105892 
0.003436548423140517 
0.1288021388457528 
-0.007322184117444938 
0.0901552700585289 
0.204256478107475 
0.1388278252221467 
0.07929028769184338 
0.001057360310951219 
0.08495460984197971 
0.06064030850644481 
0.03666186400280606 
0.01397861794295696 
0.3136093899126625 
0.008281503550832951 
0.03809083916632236 
0.1371569388986622 
0.03527740256345164 
0.234973103763772 
0.4855426703892451 
0 
0.1078268453017407 
0.258117521821262 
0.09084409047637643 
0.218845749718798 
0.1217377103905394 
0.3107252869370868 
0.4489640645794122 
0.2766781197580966 
0 
0.1084974853741801 
0 
0.5011469452646458 
0.03909464088844357 
0.1515822912158063 
0.0159097136969405 
0 
0.02080842165228943 
0.1733936396219404 
0.01819532449377905 
0.1012788623659702 
0.00453303939615405 
0.05677307516775208 
-0.05641511888720932 
0.1107754675139958 
0.03693714292865717 
0.1662304500836885 
0.231809300532794 
-0.1379929697614299 
-0.1663239290376433 
0.02017091634154873 
0.006792560380242759 
0.000506252673851501 
0.3447495978460118 
0 
0.1665057118966638 
0.01426136126555701 
0.08042420319509135 
-0.01024671968112016 
0.0972408214584323 
0.07558540707187367 
0.1566615635084922 
0.08395460892656324 
0.06097009547335542 
0.1774216377247392 
0.03207512931867659 
0.1558096791795931 
0.1271885862031196 
0.1751854559141625 
0.01499684247420495 
0.4125395868708154 
-0.1206092205653589 
0.7755812476827294 
0.2257265497101721 
0.03028897572565941 
-0.7801722162279953 
0.02868162754303737 
0.07631920316483634 
0.004137173038093845 
0 
0 
0.9146317483554057 
0 
0.001091485742444498 
0.2085374762010447 
-0.01387977225282773 
0 
0.1276706368395297 
0.06170018837893397 
0.05847714628598998 
0.04079938980011332 
0.01283740712384493 
0.5527414820410003 
0.01840912694071651 
-0.1902002273715601 
0 
0.04053225329839194 
0.04392485840928563 
0.112606330964486 
0.1374020091380143 
0.6482642271641507 
0.07583221360150949 
-0.2502975075974163 
0.05175188868981725 
0.3657336713306708 
0.01784061398878975 
0.01213324357101642 
0.139879837674707 
0.02770117792683623 
0.1938930017174357 
0 
0 
0.003405934863933167 
0.0749802059871995 
0.2679531849305224 
0.031320464397873 
0.01558269176500382 
0.04885497586414463 
0.01603671418033921 
0.111674862307155 
0.08914392859668327 
-0.05757720788783591 
-0.2527762759897285 
0.01662358279645379 
0 
0.4471223313530016 
0.08317102621828075 
0.08913960580026689 
0.1314298632305895 
0 
0.251675114769031 
-0.1812338717741095 
0 
0 
0.009619579014125404 
-0.2547379662235481 
-0.0128101852636521 
0 
0.02679528351964178 
-0.1059560717984964 
-0.02314364192849406 
0.1527972902392092 
-0.01019356850088902 
0.05541307039343327 
-0.1206511646292425 
0.04573591200766298 
0.1151344083847064 
0.2744087416526311 
0.3873430609251866 
0.6482528593891826 
-0.0102647619726687 
-0.01356743441342182 
0.001882074107715695 
0.0952642485649413 
0.0109903499733666 
0.05973803205219765 
0.4601469891051726 
0.1402833566207258 
0.2109080934310147 
0.1560677491796933 
0.01447143862668171 
0.0007792614285341616 
0.04550345571195102 
0.1578071230538889 
0 
0.1046878366446563 
0.18347789906311 
0.1498941869846273 
0.1686848037543828 
0.004678834640815479 
0.05754974599287437 
0.05664082430544905 
0.4005039421493467 
0.3183748294850371 
-0.02951003687357417 
0 
0.02823741383229422 
0.00271367546732877 
0.004916421251636788 
0.7898005701066541 
0.03649677041994739 
0.3520131604979855 
0.1846699660737949 
0 
0.0443909002158971 
0 
0.4036716381096024 
0.1626801832382213 
0.01958325506122767 
0 
0.1188315917249965 
0.8227912038420462 
-0.01205459052713168 
0.05405979397521968 
0.1883639571640071 
0.005645951942878012 
-0.00864346736462447 
0.03196819264809087 
-0.3941820158190946 
0.4228841783693257 
0 
0.01126466546725573 
0.5628452800450766 
0.4049294747722847 
0.1340396573059172 
0.2624259234000672 
0.03571255193901101 
0.6827675730715028 
-0.1544004540269543 
-0.1511812335369604 
0 
-0.4943808671057124 
0.0172520646048584 
0 
0.3380521466628826 
0.03088735483379731 
0 
0.001105167002930926 
0.09260801136474721 
-0.02062599869721367 
-0.01173835597667788 
0.2001278857891023 
0.1599431435217994 
0 
-0.1505545128280781 
0.3331561297405984 
1.011675483938897 
0.85556679664653 
0.01700629652512818 
-0.009815826220733643 
0.05230466602962488 
0.002039088307983 
0.007961589988931345 
0.01946924254031657 
0.00407754160961754 
0.05229808526839014 
0.1706903367438861 
0.0797298584696752 
0.004763520517684704 
-0.0442705481692966 
0.3422200826011947 
-0.1602057593950226 
0.1073373772492922 
0 
0.03723752174288653 
0 
0.01384792015093658 
0.148008551201313 
0.1775414404653187 
0.1121621135488289 
0.06355804522432858 
0.1625189734779698 
0 
0.07014959577758718 
0.02906002696240369 
-0.5163372124143194 
-0.003745392864605063 
0.0239073101909397 
0.385253203973431 
0.1056013151680237 
0.5282792132143692 
-0.02474667396184358 
0.146027621870219 
0.0841609657663938 
0 
0.002939831790246458 
0.2537679239520333 
0.003141528654046954 
0.1786371113763562 
0.1355725712898221 
0 
0.3103292845818029 
0.0513102181455965 
0.3116466003379568 
-0.4977932273861161 
-0.01036179582438738 
-0.01370104027668613 
0.09581528163415426 
-0.3102290243730504 
0.04308889014178093 
-0.01240657484169757 
0.2005159742666512 
0.3290991038081619 
0.07286553274145173 
0.0115498682006522 
0.01955077346378836 
0 
0.01203456691058903 
-0.03383166851437562 
0.2378109432239955 
-0.2104611520620848 
0.01783290591104088 
0.06915409029258222 
-0.6691170129166084 
0.2412011616438465 
0.1448640561984368 
0 
0 
0.05274915316126155 
0 
0.0618688181648137 
0.2214085757904384 
0.003226434586896657 
0.1333963245852503 
0.06419947167133459 
0.2418369909699713 
0.0167108820897707 
-0.05676088355159371 
-0.06818075390887643 
0.07755155609767102 
0.1908789339165188 
-0.3750392808892343 
0.1449208296864301 
0.07246983923141519 
-0.09373246189059312 
0 
0 
0.06844111415387877 
0.007851231502177572 
0.1617647279243456 
0.03633007129176087 
0 
0.07468903831412403 
0.02444604661241807 
0.249938202800944 
0.6446623209173624 
0.02783899479902588 
0.005080587433887491 
0.03658060830701318 
0.08062970610211652 
0.03979095202162243 
0.1042298525279941 
0.0227926102761174 
0.2512554411026703 
0.2478841707686721 
0.240249392802576 
0.3465306031564262 
0.121698241734443 
0.2037132409214998 
0 
0.03298070854184141 
0.008978968767038928 
0.03706175653414279 
0 
0.02093309974358163 
0 
-0.04276166905107093 
0.04585222639304849 
0.3485238198302857 
0.4640475146309174 
0.08698508404088266 
0 
0.03250693677105324 
0 
0.04727164904291038 
0.001311017710629724 
-0.1082128154866793 
0 
0.1038551538334034 
-0.05935507312249896 
0.00596369212993191 
0.1484475983810389 
0.03101363637578769 
0.1253963972255085 
0 
0.07245011762546104 
0.1854279208078601 
-0.01295055550008218 
0.0949749918715332 
-0.002798848438605157 
0.02459247116203546 
0.008184642080853368 
0.09308082540954134 
0.02594411138781575 
-0.007026043683200955 
0.1085652394649261 
0.09712261036805674 
-0.7177390259441286 
0.08202636152195668 
0.02756158554294653 
0.05944264884936989 
0.7198712825590459 
0.02304635214302623 
0.001493625067725806 
0.009713017899454267 
0.03395052728561198 
0.01501655731077403 
0.01455829206420041 
0.07307761431975919 
0.009022779178382361 
0.2780080755339364 
0.006135401856277845 
-0.06406046897122954 
-0.05660081064428634 
0.1910564050954524 
0.0918687292044207 
0.01296770852328481 
0.3596132748713877 
0.04326414339562513 
0.1557205082907531 
0.04770573714158904 
0.02202290790260326 
0.008658217532029151 
0.04957660202668557 
0.3234272058642738 
0 
0.1742800485993645 
0.1116260973424846 
0.2204610965246631 
0.1911105994206641 
-0.02532344636401191 
-0.02048135304519789 
0.1155775462623052 
0.2411995342423583 
-0.003658803071218358 
-0.003156044702697623 
-0.01723334430427236 
0.02368202272701626 
0 
0 
-0.02200444150551487 
0.02019625877722993 
-0.03438385482695967 
0.1777007996336429 
1.018511933097484 
0 
0.06026827865939201 
0.05952122522409285 
0.008067132598076194 
0.02173776767829773 
-0.01260585137880355 
0.005690599044674279 
0 
0.09239663276959743 
0.0007035202709356803 
0.3116202047488075 
-0.3323622686863579 
0.005491058272349124 
0.1144282995637616 
0.1117277048083616 
-0.002866546174529971 
0.06779933801620031 
0.0868637047962782 
0.436710727303628 
0.01712470639232887 
0.0005230914853880653 
0.08643341785133786 
-0.05516895493675369 
-0.004826416200891439 
0.4437568344000784 
0 
0.02872391281651807 
0.199117515363883 
0.0746218272591186 
0 
-0.1710890864844959 
0.02569422693556002 
0.03723860261962985 
-0.0407902916092792 
-0.2477737611177059 
0 
0.1270327690715174 
0.0787864623193508 
0.01516533912931223 
0.5323824818739324 
0.4272492255089 
0.01786393656862315 
0.1147095123554102 
0.2131453363496772 
0.09869375288796567 
0 
0.008654403178151556 
0.003689138424881958 
0.00317107792176244 
0.6759746140580457 
0 
0.03256542668065263 
0.1490454133554254 
0.9714425390047385 
0.1412954302969925 
0 
0.1766918405643245 
0.2654306290003972 
0.04863958243614787 
0.02794145867933894 
-0.07864478584460878 
0.0588700558863024 
0.1475927068897677 
0.005903804667961914 
0.009942467563278184 
0.0006153326869614065 
0 
0.1349024632738337 
0.1059202296096201 
-0.1307050210954599 
-0.03137539768615223 
0.0007742893867625622 
0.1915379388077014 
-0.009095121808461549 
0.1702232676410315 
0.005950459468279978 
0.3045677004710796 
0.02761906423115201 
0 
0.001343794794145877 
0.1349997864277118 
0 
0.1020992976783806 
-0.09789943430717686 
0.1113673668503084 
0.08950077218119999 
-0.01756899402473189 
0.1800670604585438 
0 
0.04047454613460547 
0.05269326003836293 
-0.007603006989129201 
0 
0.001086849118334433 
-0.004323322048809235 
0.004345607041370923 
0 
0 
0.01181755609901209 
0.02112670600535724 
0.005901948768780977 
0 
-0.1403663661623679 
0.0459927475037856 
0.06611746267269694 
-0.1257737287810182 
-0.04026492633128305 
0 
0.1438267878740602 
0.03583739677171283 
0.03447581397789932 
0 
0 
0 
0.1009082178854299 
0.4934910401698235 
0.00959937977936747 
0.1918858034218863 
0.01359791008849387 
0.001266213585178095 
0.01391782640853447 
-0.0372070236648495 
0.05860767004361651 
0.07830841884876208 
0.05181177601922958 
0.2206703527164152 
0.01122803129452759 
0.0006950678009481223 
0.02291023841026667 
0.1324040778718222 
0 
0.0009064442416079314 
0.1555088968710621 
0.2601168981856986 
0 
0.3402366554113589 
0 
0.5963763965230912 
0 
0.02609642768365316 
0.1595040211119176 
0 
0.005439964769241192 
0.2005356601672894 
0.06443858407615152 
0.1366642272179612 
0.1624694992867907 
0.194205280897761 
0 
0.4824487721682912 
-0.01993857982068379 
0.01938721747913781 
0 
0.2165426657987634 
0.3811011474504384 
0.2714614191551787 
0.1208393660225761 
0.001215390985669183 
-0.002062069954406884 
-0.01456113581455815 
0.08652757546106712 
0.0008020549184056193 
-0.01228239252209639 
0.1185908862857568 
-0.2138389185921672 
7.181960013559619e-05 
0.0598679169109619 
0.3909239166416112 
0 
0.02535870890325326 
-0.02209426398656051 
0.02250970585867745 
0.1444123205475171 
0.004192434089590554 
0.06440141610150651 
0 
0.1306087786654466 
0.003640084504152126 
0 
0.04731396882372817 
0.06053797043434118 
0 
0.01063373613236664 
0.02760351661385648 
-0.01594057152682766 
-0.009764103577381205 
-0.006251790400780369 
0.02036731969410654 
0.03439957509938864 
0.1663128454325848 
0.09481122580088484 
0.03152226325336588 
0.3408866769967055 
0.06935709345732816 
0.07231853356142542 
-0.07745785525828705 
0.01057745943555954 
0.2409533002586079 
-0.01709714243327909 
0.5614083912166595 
0.4161969119958924 
0.07478804545428373 
0.06747371333611103 
0.04398725239876657 
0.04711692905820568 
0.006799357816631643 
-0.1363582882888114 
0 
0 
0.001276305795220455 
0.1267953024880118 
0.00262360483586324 
0 
0.2950008226641613 
0.2498885069634668 
0.000455696338010225 
0 
0 
0.03618166676491734 
0 
-0.01183685937741403 
0.09474462814171394 
0.1980363873095049 
0.1757467075863876 
0.4293555611170223 
0.5513354345973275 
0.005424172769291137 
0 
0 
0 
0.1240842148546717 
0.08702667816343812 
0.2451231919508161 
0.0271576578473246 
0.5572657120246785 
0.009138427176019513 
0.157838353922377 
0 
0.1371144917652635 
0.09232454041965617 
-0.03762008831420595 
0.06206230874277648 
0.05524650519865743 
0.1456308509705902 
0 
0.3260823154019214 
0.02914717022864995 
0.533363832816792 
0.01279237177358145 
-0.03268059888629005 
0.08751783675524397 
0 
0.05501083086130728 
0.00797541336658548 
0.2306099118926765 
0.01525935464557552 
0.1662350468789143 
-0.00190077982320431 
0.04229779459440276 
0.003568415166634309 
0.05326718603436745 
0.01148197041667729 
0 
0.0247252350902071 
0.1216261717628916 
0.3912651324891323 
0.1429332421164669 
0 
0 
0.008919866556754972 
0.1304929597849125 
0.122194714873521 
0.0269584440600735 
0 
0.06774734118259348 
0 
0.04863894694427118 
0.09466065982355977 
0 
0.01309672256236941 
0.05783423647665481 
0.4193815660569022 
0 
0.7837953454261249 
0 
0.002546259763630764 
0.02900351956612857 
-0.008915370640814005 
0 
0.02861447833466104 
0 
0.1600497897289929 
0.05203667033792166 
0.3263357715948516 
-0.06208103544327985 
0.5011347273318414 
0.06538538053816834 
0.08880135058752134 
0 
0.007835938288117825 
0.01808418600541232 
0.2411919933108031 
0.1672045649273967 
0 
0 
0 
0.06261561906897248 
0.1463510971422423 
-0.0004034210432129204 
0.04351085067026538 
0.05732906896607364 
0.008790955833265281 
0.01475642534449137 
0.02238005981557921 
0.0604497070530059 
0.04928810182537852 
0.1833623247941658 
0.5444812990552371 
0.626801941932871 
0.0359044281144001 
0.1451037603802939 
0.0446368764657895 
0.2270462833590224 
0.07960587533268007 
0.5620395600951916 
0.2817909254838209 
0 
0.014885815103603 
-0.05301545561789869 
0 
0.01579265621833972 
0.01629033309829233 
0.09160875909802306 
0.0005029325238519545 
-0.007159432071286292 
0.02681843536390363 
0.01937249552058156 
0.004330140733668561 
0 
0.2138851036611864 
0.01253800552329885 
0.07088776498908896 
-0.08711039434672274 
-0.006660781194555696 
0.0493053436920078 
-0.008735070817390453 
0.04529402281412037 
-0.0081286285404388 
-0.05779027686144991 
0 
0.07337214223001047 
0.1946058357004104 
0.3567985528199068 
0.00343004381579516 
0.6238051868910953 
0.00974788620829087 
0.003183935561003104 
-0.01983999287822273 
0.03563406480920088 
0.04654268240337922 
0.05682843114388608 
0.05170421915884087 
0 
0.00537974943771794 
0.2149066991215522 
0.08680992039897871 
0.02872982997407559 
0.09296905393732245 
0.01441707530683508 
0.08555939022421442 
0.1414765715321009 
0.3540863029721036 
0.08138997800669558 
0.01519848953700996 
0.08157612409755209 
0.004008824898513518 
0.06064134350921755 
0.1454909217748764 
0.05241169920851878 
0.06669073939271636 
-0.4112985807739385 
0.01278695840391534 
0 
0 
0.005712544220574746 
0.02524182059190029 
0.00595046611046357 
0.0888168025749452 
0.04858296734179093 
-0.005075926105778943 
0.004677623205661912 
0.07845019894561599 
0.09189603942949881 
0.04984624473539449 
0.01296731523157004 
0.01446378863713949 
0 
0 
0.1361788242867747 
-0.002821874193946802 
0.2534483566664576 
-0.1047115932131274 
0.03014162315553939 
0 
0.01971887247085504 
0.0001101224124899897 
0.3133461493880455 
0 
0.08803153844621334 
0.1434671662219093 
0.2752790504541531 
-0.08220369858574579 
0.07121073766657092 
0.6385936665531146 
0.2957558724630576 
0.1265774682101717 
0 
0.006042776501627948 
-0.04839015384057745 
0 
0.2509944645361111 
0.137894468856768 
0.3596014819201285 
0 
-0.01823929050264357 
0.06803292483090198 
0.02579307924618793 
0.0870786010032288 
-0.00464124670012295 
0.02186880346653629 
0.04319369844527099 
0.01975438554612134 
0.2674503439136684 
0.1339798588246146 
0 
0 
0 
0.02145884905621833 
0 
0.01273922137376028 
0.07489388688692046 
0 
0.01479571974793974 
0.05292027790967429 
0 
0.06703276765092449 
0.01685612188317332 
0.8097839966097168 
-0.0447146103255521 
0.1301113093447812 
0.0009501930912309166 
0.001917127747581688 
0.01280676739022075 
0.118357216726818 
0.1141664634052804 
0.04904452406136063 
-0.02904106374291522 
-0.09918727819288427 
0.004303740150392017 
0 
0.00790825993750572 
-0.114929604808821 
-0.007319041497178159 
0.8728039133158809 
0.004634290469329581 
0.02421200535236535 
0.134811874539629 
0.0832583479353103 
0 
0.1976493497253299 
0.1230652725519023 
0.2433007174908976 
0.002729119701605237 
0.04288801036491338 
0.2362210983610269 
-0.02517375467009232 
0.006672096616575458 
0.0143992698482215 
0 
0.002192525481710366 
-0.0111512832826453 
0.1888033275255934 
0.02343889181360663 
-0.01211256705880962 
0.04170653820676317 
0 
0.1906523976188452 
0.00439601038343843 
0 
0.04230143961750319 
0.001118103868447161 
0.02294276540106414 
0 
-0.3254567118589873 
0.1691056632362618 
0.6337596468953315 
0.01523527216807812 
0.01150225699945187 
0 
0 
-0.06623527641652775 
-0.3906330936120314 
0.412240173059692 
0.1126359248978148 
0 
0.2459275204396278 
0.01311703294927398 
0.7092662145602591 
0.044965971435302 
0.003171871487274988 
0 
0.01216543196135868 
0.002154315325493534 
0.1129792861819701 
0.1087040665917388 
0 
0.003009835494976572 
0.0271501485501997 
0.0377088408315273 
-0.006226788979314341 
0 
0.07464349300457364 
0 
0.2885988399919163 
0.02807269425439775 
0 
-0.05267149176013429 
-0.1786175048799815 
0.03911314310318434 
0.6545177910767224 
0 
0.06172797002059452 
-0.1073718895221683 
0.006110318806477563 
0.356641458086412 
0.3134449492549726 
0.008679108465374874 
0.008109366310760221 
0.009872912493018689 
0 
0.1210275968972509 
-0.07793679824198077 
0 
-0.03177735445150984 
0.03599196689101835 
0 
0.166638802057722 
0.09302867981300397 
0.004551220256862099 
0.336655603146042 
0.06823427787228795 
-0.01533970349906776 
0 
0.009106340591243618 
0.07685844713130693 
0.2451213772768177 
-0.6859847707941329 
-0.1746389190536984 
0.1004245741962064 
0.03776761677628888 
0.4582210740940661 
0.6910582721063377 
0.3725401212375389 
-0.02933038957130499 
0.1971206923830656 
0.1110681278783904 
0.03899970616683235 
0.01958656697959655 
0.09037381107014553 
0.1148695213695638 
0.03152240704827915 
-0.001127761015199003 
0 
0.006582643301587346 
0 
-0.04482951506402909 
0.03971960261983534 
0.1768132819947663 
0.1057459327470906 
0.005801354609895561 
0.2315062216968348 
0 
-0.04380326280978483 
0.1099145763815142 
0.01029125784382729 
-0.01090202162060067 
0 
0.008750330691858293 
0.1144981238733387 
0.03390285173645048 
-0.1296962385236972 
0.1942239204586635 
0.02532379096713303 
0.01344614695255047 
0 
0 
0.37652743667945 
-0.00119373414366076 
0.002488442838816473 
0.09561295529850676 
0 
0 
0.05447685072585182 
0.01650768054642959 
0.1228176782979837 
0 
0.03521369731722563 
0.03526254829757619 
0.03813201029166675 
0.01687867900795948 
0.1989083002900203 
0.003391251328079186 
0.00130221089748632 
0 
0.165615672498745 
0.001659196871138969 
0.06052962639530152 
0.01766145485333613 
0.0371939901705498 
0.01031978291053446 
0.0547716389899626 
-0.006753268995687351 
0.003921564999833584 
0.1359064192391322 
0.2887336939639537 
0.02567663869862741 
0 
0 
0.3607186850501657 
0.799497518532629 
0 
0 
0 
0.06163885980099169 
0 
-0.9224640130601571 
0.09367071093331152 
0.1934983510489507 
0.0556224912197097 
0 
0 
0.2334627796895007 
0.1933114485031041 
0.04876709980826621 
0.0821071719412152 
0.3369961913088364 
0.01823678706783526 
0.1252769144154335 
0.02416838521653587 
0.09110927722281316 
0.03292382033586892 
0.2999052156791804 
-0.2900891598756326 
0.0530063654834502 
0 
0.0005229528411528016 
0.03555768535820265 
0 
0.01456559501408533 
0.335344664482768 
0.1220904853469252 
0.03758169098065557 
0 
0 
-0.003954854678039472 
0 
0.04139215950331152 
0.002147630443041971 
-0.134708887864472 
0.002358686528881646 
0 
0.01247060417686874 
0 
0 
-0.1883866179380706 
-0.003755428791643216 
-0.07061243947470126 
0.05759848438774661 
0 
-0.08333558983404619 
-0.06216893356863777 
0 
0.1698482361118414 
0.04138160267035344 
0 
0 
0.1761049616679872 
0.1103833915473169 
0.05077155763061017 
0.5612528162207756 
0.008339791632423304 
0.005097162312352674 
-0.002875587989727198 
0.02304320910669107 
0.007641811299143539 
0.1421014905330856 
0.0563522786859999 
0.01586957729002847 
0 
-0.2131962501388628 
0.119560530228759 
0.008893465512951795 
0.02652305208079658 
0 
0.05029660078248261 
-0.07694614739536675 
0.10568835681574 
-0.1129582971157783 
0.04475994546491367 
0 
0.003195492696595381 
0.06935711155407234 
0.03996529562227724 
0.06266592628491933 
0.02860685886597684 
0.1019275837116745 
0.06610810394227573 
0.02396354528555576 
-0.006553917421420474 
0.01287199726660127 
-0.0518144775529813 
0.01447501818920018 
0.1248300953115175 
0.2290567410264882 
0.2557936542222355 
0.0233605462309496 
0.04220322807755118 
-1.005677519757153 
0 
0.00053513021917647 
0.01594189180689696 
0.01624200982256946 
0.211983049651993 
0.9337662375564142 
0.06606588599218965 
0.05036859059790167 
0.1319460812695646 
-0.0168341216656127 
0.04456057288566858 
0 
0.2025599829892089 
0.3014570126757328 
0 
0 
-0.08135324936536029 
0.1786041857654739 
0.01565361544830026 
0.0869527224706436 
0.002097723844677813 
0.1254426058680023 
0.01190045755629959 
0.1166331681521629 
0 
0 
0.3236503650676821 
0.1097632962241909 
0 
0.02508088788319597 
0.06898359250742074 
-0.05111411273140612 
0 
0.0935280333447812 
0.07255465778566982 
0 
0.007948419868161445 
0.07348634472071149 
0 
-0.05607305665262959 
0 
0 
0.00627648050583784 
0.01506621619351232 
0.01044779063134655 
0.2555371659711797 
0.0518584762486294 
0 
0 
0.003293080336107699 
-0.03626142913813491 
0.2730727450804185 
0 
0 
0.05234737111478457 
0.08010016081148758 
0.1362614211289444 
0.07585162701098232 
0.06068418163123684 
0.5342098141758198 
0.05240105976225304 
0.1320857042666257 
0.125365827191792 
-0.1959959639191917 
0.01630195494753428 
0.1923284596236504 
0 
0.4401560106967093 
0.003338695216134818 
0 
0.001850665829312472 
0.003913094568629441 
0 
0.04713089481321144 
-0.08001054588654723 
0.2978149110672802 
0.2309213482233684 
0.05003975750470029 
0.409207732376827 
0.007451245986376412 
0.008535174194434617 
0.09781143011435264 
0 
-0.01162146069531112 
0 
-0.0006368192084093174 
0 
0.03125765739185943 
0.5664875357193059 
0.1192854126178792 
0.0199516515832621 
0.01872710717959818 
0.043969172218611 
0.01329693641618289 
0 
0.1913867223953483 
0.09079296590185514 
0.1576960277001823 
0.09175697198336623 
0 
0.04342709822738252 
0.02862654325944118 
0 
0.08745338151378226 
0.07148006989302781 
0 
0.001021798426286369 
0.0007117365133376988 
0.895635068542905 
0.0205679224994158 
0 
-0.009853374369672764 
0.006204277304936014 
0.00483955601124714 
0 
0.06280002755138463 
-0.0746320579726141 
0.2421495935107889 
0 
0.006057943944687525 
0.232047831415968 
0 
0.01118259267899655 
0.3990568502234522 
0 
0.06830523406012298 
-0.0001432930309808825 
0.0002454247009997049 
0.003133307483396863 
0 
0 
0 
0 
0.05953149189638662 
0.1679599122237578 
0.1330546906726575 
0.04923092120427794 
0 
0.1203093740715247 
0 
0.01561828860390952 
-0.001090527342778103 
0.03821357257511941 
0.2463545423152732 
-0.1155785373976675 
0.2607729445945755 
0 
0.1816550123158245 
0.00229218827187144 
0.001180160408249026 
0.02316888673017376 
0.008841169527371804 
0.05379919204040978 
0.008547694389621515 
0 
0 
0.2794373684432752 
0 
0 
-0.05115250997757099 
0 
0 
0.703126322010001 
0 
-0.06529460075184246 
0.01565895916648229 
0 
0.1703949257361505 
0.1367352783788452 
0.121027320330297 
0.05251440724192769 
0 
0.04415212638921204 
0.007565706183819076 
0.2673137903797403 
0.05737152962392549 
0.03861608397150797 
0.03124664362842693 
-0.01636892731712611 
0 
0 
-0.2251193910003386 
0.2050492911859298 
0 
-0.2072545774510389 
0.7546321949433706 
0.1986936249275636 
0.2511124109386373 
0.806227029104938 
0.02863175655951653 
0.2293930638601118 
-0.03926621065838966 
0.04319881200013944 
0.4314472634053884 
0.006078889685953274 
0 
0.02339020778609746 
-0.03532753034210508 
0.1826488813682074 
0.02937925844501924 
0.1503193516793122 
0 
0.03676138450588644 
0.0267923302015954 
0 
0.1477716929928619 
0.01616392210828976 
0.03486676802342454 
0.03528807604494322 
0 
0.1259794782254899 
0.00927688567503176 
0 
0.05577586624763076 
0.05256479050945839 
0.09302777192517744 
0.04646770296511916 
0 
0 
0.01663389139601792 
0.01000312806877258 
0 
0.1923544440109372 
0.01048616304101229 
0.03305589115396915 
0.02255297560621931 
0.05163127978449888 
-0.01284373441091273 
0.02016524259309766 
0 
0.07976233705262906 
-0.0507576306525326 
0.001752245766279652 
0.1146126377261786 
0.1662464136051782 
0 
0.02287886563671395 
0.1043385812582583 
0.006205971653765148 
0 
0 
0.04069672552324374 
0.1186051392871876 
0.1795658208157895 
0.05140252863779744 
0.009254280029122484 
0 
0.3379323229369967 
0.2567153506264966 
0.1101969254113136 
0.009013934521240897 
0 
0.0225946691929276 
0 
0.01717262118262964 
0 
0.01707146168085682 
0.001500676496175989 
0 
0 
0.002824628916462536 
-0.01229146381343519 
0 
0.03128797685925266 
0.1519891886519056 
0 
0 
0.07649742154188363 
0.4987189033130319 
0 
-0.2532594393523717 
0.9346580989048386 
0.03770056069301871 
0.008952794818437675 
0.4516527268041237 
0 
0.07346920534105868 
-0.004597312580794963 
0.0314250776017093 
0.01570448510432754 
0 
0.6047793969954213 
0.001046955887138735 
0.05705948382460603 
0 
-0.1674209793284731 
0 
0.05289133963325864 
-0.03397487468629948 
0.1669016730017334 
0.0612605250180602 
0.1084874274177445 
0.001949478085244023 
0 
0.04000761339448793 
0.0452612069374282 
0.0579412203632963 
0.3172602411372403 
0.08379000706060168 
-0.05840495819497664 
0 
0.8748422588170927 
0.003116500871832446 
0.00363407728308876 
0.1799417275640384 
0.01448349035316802 
0.2395747628279052 
0 
0 
0 
0.01962380590219787 
0.01702084255426851 
0.03718635673093269 
-0.02493845653092536 
0.02630321307104824 
0.06181192276177576 
0.02717870064100406 
0 
0.001069519055102547 
0 
0.01605958301622967 
0.1575033266467346 
0.1790010765356503 
0.3586970306842753 
-0.0313764252969911 
0.1120741752167293 
0 
0.08340380478369497 
0.001874182427022793 
0.04468158327589727 
0.157444650636677 
0.02826315887220804 
0.008911318209753173 
-0.02477455198979759 
0 
0 
0.05402709118265515 
0 
0 
0.01823594567072279 
0.3187693479914332 
0 
0 
0.0009605887196232444 
0.02884311279542409 
0.01548111437958789 
0 
0.09435435890688333 
0.1197097624875633 
0.05470851230127443 
0 
0.001596240597456135 
0 
0 
-0.007130184216142033 
0.00082378119366999 
0.02170003728036351 
0.1662855508834054 
0 
0.08794196286024777 
0.1657784472771899 
-0.001026223358408808 
-0.002166070608239588 
0 
0.02425323320207248 
0.0709618632508284 
0.04428175196681022 
0.472921922524893 
0 
0.2199526230034826 
0.2461101780502934 
0 
0.02770742968526715 
0.2173320162673847 
0 
0.02911865478775014 
0.08493331915404588 
0 
0.08178870361307621 
-0.01520378353269645 
0.0750377503635505 
0.3929286570667461 
-0.01329116971159002 
0.01414142659625139 
0.5739762569416004 
0.03288766385616867 
0.009843558903713381 
0 
0.007264736668182352 
-0.4786350417916856 
0.02636413509242489 
0.06667744535315599 
0.5078993784869666 
0 
0 
0.07963266436752041 
0.02200045817195008 
-0.1942120716511796 
0 
0 
-0.06981430479204957 
0.03285810478610299 
0.04155761645890976 
0.01444979919172485 
0 
0 
0.002988798986660044 
0 
0 
0 
-0.01741371756299778 
0.005902454181000805 
0 
0 
0.188550124741589 
-0.06481468231173383 
0.2913491531281555 
0 
0 
-0.03968637477683641 
0 
0.03405851633223158 
0.07633480779591791 
0 
0.1743981108107602 
-0.002745590906693087 
0.1148503959356718 
0.3523134335029524 
0.01960795839516915 
0 
0.08034857058250605 
0 
0.0272235323549853 
0.05669644147404195 
0.2923190853394133 
0.01083585609978923 
0 
0.02215346959698791 
0.1608713307839984 
-0.00540740522110185 
0 
0.01095479214628738 
0.09749619412963537 
0.07818010192040982 
0.4671803053704066 
0.004603842222024081 
0.07140280900602566 
0 
0 
0.03635316242923247 
0.09044923087935534 
-0.003485238658211712 
0 
0 
0 
0.002185436675610706 
0.007945294843023329 
0.0255538036629346 
0 
0 
0.006594140808776384 
0.05766345419239428 
0 
0.01257467150759238 
0.01460415038592271 
0.1324288441683237 
0.005239612270460242 
0 
0 
0.1601620131908719 
0 
0.02952010082649435 
0 
0.6936949878950676 
0.133178509575123 
0 
0 
0.03686050024932516 
0 
0.6276002660235162 
0.001051399440592993 
0.00789222266199815 
0 
-0.06942969863311764 
0.01005595470040322 
-0.1268728357036134 
0.9174926657147163 
0.1078577457729034 
0.2903415473779645 
-0.150810892536674 
0.0560648652175544 
0.06326518370981614 
0.01170340347476628 
0.006898055680930569 
0.210328269817536 
0.1207500605952569 
0 
0.10004906131388 
0 
0.05493022443997671 
0 
0.005585698805588409 
0 
0.1358158578413005 
0.5266140221871162 
0.009133361210709786 
0.08314031511276369 
0 
0.4541167018387362 
-0.02468442815054383 
0 
-0.03796278528374645 
0.09923441297193408 
0 
0.1268777017531554 
0.04469549466403915 
0.09164791730358024 
0 
0 
0.1437802932688973 
0.1074259568870364 
0.02888580632264378 
0.08727339621361205 
0.002794563236657474 
0.07732889326701348 
0 
0 
0 
0.01473030596070743 
0.0005440454869203671 
0.3568357748746364 
0.01332264394543132 
0.05914743320674024 
0.05165577819954347 
0 
0 
0.01275800579598247 
0.07968332719034124 
0 
0.02072392910426111 
0.02361683297193296 
0 
0.03504080186871183 
0.03835937631950967 
0.02263877457358091 
0 
0.03434706669831777 
0.007290402336154993 
0.09722248985315504 
-0.05978750393612264 
0.001623613636323536 
0.04053998227812085 
0 
0.1538259735009301 
0 
0.05519572284411444 
0.03440763766556065 
0.002761592779713772 
0.2253768392639152 
0 
-0.01087986041111552 
0 
0.09954633011337438 
-0.06130419930577757 
0.2311316631192398 
0 
0 
0 
0.2078377398160934 
0 
0.1081667802401726 
0.006546502753032697 
0 
0.0073808342008154 
-0.01891913176827988 
0.0673090879577283 
0.02186433067437289 
0.336077633503521 
0.02193626863374048 
0 
0.02781428474953944 
0.03133329571411116 
0.04626571882404859 
0.03392023373837023 
0 
0.001090539400779177 
-0.1536407136510658 
0.0005791343879496804 
0.2995037713921371 
0.1181777938327169 
-0.0001223209286230348 
0 
0.05181444055635615 
0 
0 
0.004640265240060055 
0.05936609712941335 
0 
0.1061099500426685 
0 
0.05092605555504077 
0.07743718955253133 
0.01757991008921955 
0.004622132916797446 
0 
0 
0.02166653957095857 
-0.002296500289360287 
0.01691259056231013 
0 
0.01756999828349966 
0 
0.2324564314428655 
0.02632809900757138 
0.1289920611428944 
0 
0 
0.02875954530914218 
0.05928078876225842 
0.02150715890967613 
0.01741293369419607 
0.002580933930728861 
0.04028625915538293 
-0.7145371293836758 
-0.05987641493943958 
0.05577333260876048 
-0.2596666801468167 
0.0337474584031729 
0.03704786784244379 
0.04791717989904688 
0.189190002578581 
0.1082908419360088 
0.1526059140328798 
-0.003227378060144935 
0.001131978685555353 
0.4116288549434069 
0 
0.01997277758221346 
0.01080805462729277 
0.1158718959183519 
0.001919537283499715 
0 
0.02284313837745752 
0.0451328268505443 
0.01541882605150728 
0 
0.06606177634745973 
0 
0 
0 
0.4324485670310085 
0.003275374091552549 
0.1839055201579158 
-0.04673682711958138 
0.04214005060156117 
0.03285885519743008 
0.399611807548816 
0.05761694452818798 
0.008931772960091816 
0.00266041260774277 
0.008980659933105159 
0.02778512460212259 
0.02496903885603814 
0.1599499064169754 
0 
0.3479055197023472 
0.068243364820175 
0.5746300486471253 
0 
0 
0.01716925954962298 
-0.01690904693480343 
0 
0 
0.3144646348202342 
0 
0.05640694362124722 
0.02508635629537716 
0 
-0.1960656095249927 
0 
0 
0.04612732359311074 
0.01962036067110829 
0 
0.01509862635615495 
0 
0.2261582694834788 
0.08122567542002185 
0.1669571791599924 
0.004007552323500692 
0.02094240218756634 
0 
0 
0.1580060280937856 
0.03816832617788755 
-0.09377841917928914 
0.0006869995508095796 
0.1123149751702977 
0.3439687753984408 
-0.09537705342765694 
0.03390963773768726 
0.9731641544327478 
0.01306623222478653 
0.01811991679432771 
0.04528898474744279 
0.03605205989300844 
0.07412593293082405 
0 
-0.5177703975032515 
0.0007740238409482554 
0.735042664936973 
0.1560052717355961 
0 
0.11956883569313 
0.1186522011227248 
0 
0.01357953976100735 
0.008051786815646533 
-0.007024164460041006 
-0.003406320649984633 
0.004452841900183364 
0.006262163360593018 
0.04327663227642592 
-0.1953937854080386 
0.005003734412024338 
0.4751910003223773 
0.2017504772025858 
0 
0.04934017500291635 
0.1922142464251363 
0 
0.03935167710388243 
0.0487457614264739 
0.02508731844224173 
0 
0.1540816369821251 
0 
0 
0.08077269600112894 
0.01230144089030448 
0.06152160823469847 
0.0664041962502526 
-0.006801652971687173 
0.01249372902384438 
0.01652375014436428 
0.02410075610107242 
0.003381608707886462 
0.4321632756986729 
0.05749879053788165 
-0.04801350432767912 
0.1521473171781393 
-0.1721919426241716 
0 
0.2327130739394485 
0.03389989633688252 
0.02597311433315919 
0.03440386625736697 
0.7744283168252177 
0.01434302384443889 
0.001875595661658944 
0.00854886390953207 
0.0006699869017668664 
0 
0.04194331473468661 
0.03131777437668241 
-0.001519032760868695 
0.009458564172256687 
0.04075528492206012 
0 
-0.04593482537639607 
0 
-0.002714858314008073 
0.1794267988447198 
-0.04000493216552319 
0.2616974513416447 
0.002727981216048036 
0.3230304966248151 
0 
0.09101222507397413 
0.004883472750889394 
0 
0 
0.7854392919041292 
0.07754614642058461 
0.146431712534399 
0.005672143061795956 
0.08303724528472274 
0.03963062366641057 
0.6398081552272229 
0.1312428864941052 
0 
0.0101936534329641 
0.001955410576194392 
0.3370101672562352 
0 
-0.02503162633823336 
-0.1649906097673428 
0.1145934225928802 
0.64454744356385 
0.1936075487083148 
0 
0.05890363225601157 
0.3057842920251649 
-0.05836581244897383 
0 
0 
0.06195974759544944 
0.07747904806646692 
0.005848618151059064 
0.5397140407702899 
0.119759820718493 
0.02250168917449766 
0.1484098382803119 
0.01313566912524388 
0.1721888546261919 
0 
0.002887062115240664 
0 
0.01101290911361446 
0 
0 
0 
0.09885945613688947 
0.01753312876562535 
0 
0.5066398102436749 
0 
0 
0.2346633510810127 
0 
0 
0.01106374578604188 
0 
0.1331510791076632 
0 
0.09496629731238762 
0 
0.001123267315750488 
0.0445672427679564 
0.07443073551713046 
0.511377543008422 
0.04120100422338407 
0.1075021777673133 
0.1791411216601413 
0 
0 
0.01996543590434393 
0 
-0.0007045211167518452 
0.01228856751919357 
0 
0.001620550848945916 
0.03125971092007847 
-0.02586357207851874 
0.1275012044010064 
0 
0 
0 
0.06332171108920059 
0.0666795408908082 
0.3788359254912529 
0.1155882094347986 
0 
0.01488831326914495 
0 
0.06351386743186954 
0.04975517411846993 
0.07750668339007895 
0.006956157434765041 
0 
0.1410888319684055 
0 
0 
0 
0.1503179182983009 
0.09838285662152634 
-0.05339006215017775 
0.1157722905354248 
0.0382366881027425 
0.007834534773791568 
0.04288039299469015 
0.01711437202344119 
-0.02840554527994708 
0.01805344709282522 
0.05608376048438095 
0.02924805643385102 
0 
0.002055242511039652 
0.002384173978652379 
0.5533989203284767 
0.08159193544074099 
0.236331318565137 
0 
0 
-0.9464042511407705 
0 
0.1414259849421116 
-0.02696606106999543 
0.0001118508103642417 
0.0513542668908688 
0 
0.02340660742895782 
0 
0.0001323070319218336 
0.01119212192932292 
0.03538124395904418 
0.01934908677950322 
0.01240258831155849 
0.005369182868444141 
-0.05021156392676511 
0.007386022139229933 
0.05110075996780312 
0.244398038903978 
-0.01461311041873917 
0 
0.04349801278484966 
0 
0.005968249445631789 
0.06329034636882885 
0 
0 
0.01281617372518825 
0 
0 
-0.008751676167982562 
0.01621323519872523 
0.006899002034388649 
0.5741776264030136 
0.0001904129776824367 
0.07188007444813022 
0 
0 
0.01147634241841639 
0 
0 
0.02929928825957853 
0.03816848814948326 
0.06211810902913983 
0.003920695526152188 
0.02029819882740758 
0.01643659628994862 
-0.04637076448265783 
0.05645695826881718 
-0.006779570905854786 
0 
0 
-0.03831369726525655 
-0.9239525088241706 
0.3576622066797743 
0.02116006376066112 
0.0579414547866148 
0 
0.06096430165875961 
0.1088504011810949 
0.2541377928456189 
0 
0.225891912062561 
0.007387048338391886 
-0.1352413719209257 
0 
0 
0.0645889056958049 
0 
0.2563955501342733 
0 
0.0881577561955221 
0.03176554981346028 
-0.1001071697922341 
0.03597769733223445 
0 
0.03313216089672077 
0 
0 
-0.05153641840601172 
0.05392835703246879 
-0.1511748772206234 
0.02332208317819025 
0.02136750881241137 
0.009880136703561094 
0.04721447802051503 
0.01273473836514459 
0.01769106607324875 
-0.05190284970416904 
0.08787485846590917 
0.05927751886633544 
0.0266982496194713 
0.2228297554367574 
0.0121242497723125 
0 
0.0325483956314101 
0 
0 
0.213614306179493 
0 
0.6979863835972255 
0.002027914895067468 
-0.01376139033795027 
-0.04518101303791983 
0 
0.3756121755046465 
0.5584347958755443 
0 
0.1067996529474206 
0.01174503837012113 
0.009533447513829726 
0.1198656487836555 
0.002407555510706291 
0 
0 
0.8385671481457105 
0.006983708315450348 
0.06759598610213585 
0.03714074537528793 
0.01589763678960993 
0 
0.009249407353341312 
0.1662654843504439 
0.003631039026038784 
-0.0432914141602686 
0 
0.009980802921876072 
0 
0 
0.01362837903902411 
0 
0.1113482248120518 
0.0003981646672110671 
0.2902229463333248 
0 
0.03049045623045558 
0.1159515266225974 
0.01300028763843413 
0.08306200925060707 
0.01258172216923941 
0.1395841523270544 
0 
0.02408726300205963 
0.202037153803885 
0.03263162029698671 
0.3249799187662158 
0.2602425630072445 
0.03258461428551432 
0.03081937642879188 
0 
0.01517465041551527 
-0.0588048996538965 
0.01344085956030368 
0 
0.1525806259165118 
0.01011704283760469 
0 
0.0569514769820187 
0 
0 
-0.01612372609321357 
0.02662867277476494 
0.08311854480414779 
0.02926301879835991 
0 
0.3172555032086338 
0.01254882615603322 
0.03585017386716675 
0 
0 
0.01667507765822553 
0 
0.01004020203609334 
0.07428173762071097 
0.2485653316550551 
0.8006236032745853 
0 
0 
0.01655373618403674 
0.1488492236015012 
0.8977095593101011 
0.003515705333328879 
0.05161875301455421 
-0.02260375000094753 
0 
0.1728660030777741 
0 
0.0942049056856904 
-0.004790324467016735 
-0.1693226146476641 
0.03498071417420762 
0.08267845635568725 
0.0204403072319243 
0.1612557086021724 
0.087171780889155 
0.01151696081864018 
0.06240943322850914 
0 
0 
0 
0.07635463893492256 
0.1498073477843398 
0.1471571626274311 
0 
0 
0 
0.06489956743312614 
0 
0.004867641801809379 
0.071641389886252 
0 
0.01382729165071796 
0 
0.01143713051653134 
0.05599040653247873 
0 
0 
0 
0.01031281231741193 
0 
0.08592868456460323 
0.007052515446863248 
0 
-0.002816714062041716 
0 
0.1393629842036793 
0 
0.002161359812721156 
0.06992495768567569 
0.01862060984747506 
0 
0.003991112269668199 
0.05113446805887999 
-0.01177498651661705 
0.03873393559832786 
-0.01023378978571145 
0.03674810962191239 
0.2216575848991434 
0 
0 
0.03745864454072092 
0.005362657060074607 
0.1033354419205662 
0.3109423182202162 
0.2027519553606769 
0.0001547016063006065 
0 
0.02074996321961902 
0.362712056986715 
0 
0.002359943840231533 
0.1946436483737128 
0.1720277820141066 
0.1732877318858073 
0 
0 
0.08048119699701665 
-0.170640488307543 
0.05595140783787694 
0 
0 
0.572024778549701 
0.6361660050253084 
-0.01651937686234848 
0.01178617216898768 
0.1921838224928638 
0.005548559205045847 
0.08000494495492225 
0.3431558487308264 
0.2808188207911737 
0 
0.104599223349077 
-0.002501902836374439 
-0.003199726572133428 
0.01685241499808214 
0 
0.1043160460306851 
0.004093883232369828 
0 
0.03044833473389232 
0.04744046848009501 
0.002925961357091584 
0.007716949906379802 
0.1619332663014824 
0.02640515454211365 
0.003781236031188907 
-0.003816004729373121 
0 
0.0135158746947623 
0 
-0.03278295373586074 
0 
0 
0.05265329489539017 
0.2269013393316268 
0 
0.005490188729602322 
0.01016836371318787 
0.07249439944798669 
0.1401666378968689 
0 
-0.03079317431441506 
0.2080154775787744 
0 
0 
0 
0.002285368225768201 
0.002194726355990997 
0.8235732393164298 
0.01045106146552729 
0 
0.1997069880906669 
0.1216323997552214 
0.0762156192493305 
0 
0 
0 
0 
0.02541972619422166 
0 
0.1826640898107159 
0.0826289020075632 
0.002021295069713496 
0.002838492007626549 
0 
0 
-0.1879320658409172 
0 
0 
0.104045045552453 
0.1031618051870689 
0 
0 
0.02658283434947899 
0 
0.06640265498437189 
0 
0.2082744303572252 
0.05081782470021751 
0.01069978979296447 
-0.007195295870408638 
0.008464735226207888 
-0.04846009574360144 
0 
0.01857964130135092 
0.01683079869412367 
0.01214862592039153 
0 
-0.01940745748656507 
0 
0 
0 
0.06009628803184577 
0.02528737177551733 
0 
0 
0 
0.0384028208037373 
0 
0.06450634664172841 
0 
0 
0.01067286690716643 
0.07517618465321352 
0.06809649938925251 
0.005674955627868935 
0.2428438062445408 
0.4944264220015577 
0.005689524772213224 
0.01680018909466854 
0 
0.01221216793873749 
0 
0 
0.01904524591102273 
0 
0.001591686225436158 
0.04748571177282163 
0 
0.1468937598314183 
0 
0 
-0.05169400817777813 
-0.005352520056124935 
0 
0 
0.03369990411471713 
0 
0 
0 
0.2292151742076864 
-0.5182806102117311 
0.02241614656474491 
0.05506966803170775 
0.0922972339703684 
0.06098318267911593 
0.307125812805005 
0 
0 
0 
0.05550197031550645 
0.244679649770713 
0.2853813930257046 
0.05259847224252752 
0 
0.4508205611679083 
0 
0 
0.6021106472865101 
-0.01582580337118383 
0.0772051845219936 
0.008849753159547115 
0.1219133684553725 
0.0192669135784725 
0.07174193605824167 
-0.005635750266849494 
0.01019412050165961 
0 
0.0008220740926591912 
0 
0.0001327630335493359 
0.001791314630948147 
0.09370112480005528 
0 
0.5436187645195518 
0 
0 
0 
0 
0.059595969760867 
0.03291136501889041 
0 
0.01858539348612971 
0.003242700202229692 
0.001334034470854622 
0.07505491477689213 
0.0412184436751847 
-0.03692531773548462 
0.002424605302461466 
0.04562969817376593 
0.06289461268283555 
0.003488106176384765 
0.006211562581225712 
0.04533094942412008 
0.008084174954992166 
0.6903639528952615 
0.103354763097726 
0.3037585708745646 
0.03361489559707313 
-0.01464755809301097 
0 
0.03413788362896128 
0.2159054856930187 
0 
0 
0.2844920396413831 
0 
0 
0 
0.0564755804974883 
-0.336817646884631 
0.002459892606273877 
0.00600872630878084 
0.3323257702108353 
0 
0.02073443928066319 
0 
0.0182311223414897 
0.0670690061949239 
0.001354978340873234 
0.03458304784094862 
0 
0.1001401828948038 
-0.02299276494202782 
0 
-0.01573426506901802 
-0.01492624583470359 
0.02338203788064592 
0.02103312098701962 
0 
0 
0 
0 
0 
0 
0.03466800788763436 
0 
0.1041670294955934 
0.0910201266471416 
0 
0 
0.1972039774721505 
0.02678351679034503 
0.02512868384874198 
0 
0 
0.6869610006441359 
0.08698169874293092 
-0.01075061574429511 
0 
0 
0.01361112156109222 
-0.01701590512860442 
-0.1870932461594126 
0.1706666899907807 
0 
0.2698128420620424 
0 
0 
0 
0.2376737428806932 
0 
0 
0 
0.004805292914240365 
0 
0.0004401587973678313 
0 
0.024149767751813 
0 
0 
0.1545134773828235 
0.01869804700284406 
0.08137584151706509 
0.08431895283838051 
0.05416887006803332 
0 
0 
-0.01467526280474014 
-0.1588753093906574 
0 
0 
0 
-0.001474864808839259 
0.005521289992326243 
0 
-0.006637285279371906 
0.01717620126583598 
0.02929038447305145 
0.4048289830464407 
0.01075639983757416 
0.5847088036186965 
0.01760685304976657 
0.008678036661875095 
0 
0.03820415160114366 
0 
0.0591335468219256 
-0.003229197152816496 
0 
0 
0.07380972058941333 
0 
0 
-0.007342185318295238 
0 
0.006983150985079177 
0.04532755345291065 
0.2648589679905698 
-0.009426744795750721 
0.1054625351058096 
0 
-0.05843159087036222 
0 
0 
0.2061577389500144 
0.0005607275371132601 
-0.2431041245462376 
0.1023092506200723 
0 
0.01835949483144377 
0 
0 
0.0184775140383658 
0.1040671073862061 
0 
0.01990404952764555 
0.01391226927877613 
0 
-0.9180402476259648 
0 
0.02649049845692664 
0.008067240888749978 
0.06880449396984424 
0 
0.09381805964433867 
0 
0 
0 
0.2834843871724243 
0 
0.002102984829198115 
-0.5381946809141404 
0.1861455859948046 
-0.03347380496130239 
0.3233329626832342 
0.01354064764179063 
-0.1655434161427502 
0.2646169803523497 
0 
0 
0.09570838263580217 
0.05153365340756261 
0 
-0.0323129452714684 
0 
0.0391540849457868 
0 
0.401044425279489 
0 
0.1930005042684419 
0.00162263895747676 
-0.02250264207117114 
0 
0 
0.195298090084524 
0.0154181923183335 
0.1067700593819163 
0.0581359672164154 
0.1846837542713526 
0.102802727409855 
0.01367139210121886 
0.07564580113854551 
0.05589781692258974 
0.03985392844583421 
0 
-0.002871378304451287 
0.6601430245140366 
0.00886991716747031 
0 
0.1797584831914462 
0.00386558256184345 
0.1756373664396927 
0.01188851457427321 
0.002977794791300429 
0.2155034902444125 
0.001364973146455672 
0 
0.06508696363964218 
0 
0.03075512784138647 
0 
0 
0.02036402665033368 
0.001279035341947713 
0.2036669499495389 
0.006721926919920227 
0.008811938304200975 
-0.4152077143185072 
0.02170288350642368 
0 
0.4762057851034713 
-0.2486941946892856 
0.004391261240436297 
0.1609562344286739 
0.2415653833640735 
0.02646191696437193 
0 
-0.01902817273772407 
0.1532177902767686 
0.03573016561803567 
0.04628355107773032 
0.1495002538596099 
0.01795798861955872 
-0.05487719603999101 
0 
0 
0.02201238498864682 
0 
0.001198442245763389 
-0.00758344652664002 
0 
0 
0 
0.0312164817292684 
0.3453857881276728 
0 
0 
0.001985340057629801 
0 
0 
0 
0 
0 
0.04907273824965757 
0.01899276266577886 
0 
0.02340992775599832 
0 
-0.08815540641738942 
0 
0 
0.04185888322310685 
0.04740248504384847 
0.05199440340470929 
0.01900862256468784 
-0.002131567791070625 
0.03021090657306483 
0 
0 
0.06950266073044592 
-0.02413605752922213 
0 
0.01943858185877618 
0.02449607229953522 
0 
0.01573790166257117 
0.07306219530077514 
0.1269808663109083 
0.0112156140548733 
0.2598754278184736 
0 
0.003456321813554915 
0.01322733607486229 
0 
0.003319824663058993 
0.03486096882045062 
0 
0.007714626216908806 
0 
0 
0.04991379616151917 
-0.02207990090969365 
0.02692962403527001 
0 
0.01235915346316029 
0 
-0.007741451518171906 
0.02198224365432562 
0.003511199052924751 
0.2428547841372095 
0.0025727317715822 
0.05818037736789828 
0.09361793356224289 
0.01826352646072927 
0 
0.159254176844234 
-0.009248521284601102 
0.02990529628311684 
0.01877388926236457 
-0.2751395140198027 
0 
0 
0 
0.003985593843925087 
0.0266759702478138 
-0.04034446511442143 
0.003351012933590381 
0.6726761169979563 
0.06902955352570123 
0.2519251437831634 
0 
0 
0 
0.00592402553228966 
0.009126637462328453 
0.03175978100748697 
0 
-0.006752596768029101 
-0.03673401645627584 
0 
0.01341353419847822 
0 
0 
0 
0.4347010936784795 
0 
0.01972157190265341 
0 
0.0842420754983482 
0.01815127029141061 
-0.01822367698148685 
0 
0.04628664874954933 
-0.008887183206981003 
-0.001574627754750533 
0 
0.001455649154410391 
0 
0 
0 
-0.003727723049174581 
0.03444908141726791 
0.004679692432889907 
0.05472600263942355 
0 
0 
0.001239638090215089 
0.08281784384995755 
0 
0.08949552387615096 
0.1109767557411856 
0.07121480390747112 
0.1049414386402688 
0.01856331902964846 
0.02089237838756809 
-0.003929188557019745 
0.05862851745928704 
0.009036325933479486 
0.003367306780071346 
0.37216860226121 
0.2745764740895629 
0 
0 
0 
0.06285027392945336 
0.06098783502922218 
0 
0.04858838382751594 
0 
0.05430504685947536 
-0.02395544264974784 
0 
0 
0.1125827507118167 
0.04241503966432173 
0.04534525478641741 
0.001065138926584493 
0.2299652885815889 
0 
0.01462004415959662 
0.02681786183612668 
0 
0 
0.007976624447202403 
0 
0 
0 
0.05356229546487379 
0 
0.06505694172725501 
0 
0 
0.0003894348789606628 
0.001186538949500458 
0.00948462107296765 
0.0180441715290592 
0.1148193812369765 
0.01955447499254892 
-0.006151569796830731 
-0.0118390732474123 
0 
0.07221222805363325 
0.4485685730054197 
0.004069794252575743 
0.03467022903925474 
0 
0.06977017181069053 
0.000787058798037644 
0.05960296943899153 
0 
0 
0.03099785240226884 
0.06797832390368896 
0 
0.0364289022856145 
0 
0.01524718138982771 
0.007500910142504295 
0 
0 
0.3872921907305388 
0.1073839307644532 
0 
0.02676909753430828 
0.5026346920035023 
0.002726677554142557 
0.02661070942964069 
0.007965113089387951 
0 
0.007599328255144457 
0.05138016709420996 
0.02990347310647942 
0 
0.09419335405486438 
0 
0.06880275292496879 
0.004912092190213122 
0 
0.0002193993778071904 
0 
0.01177041828742781 
0.003834648122450947 
0.3089362624784469 
0.04745970892059877 
0 
0 
0.03164124658157089 
0.002218630098068633 
0.03493507914984549 
0 
0.04310179187674613 
0.05559660831765156 
0.05777453002905006 
0 
0.386019819620591 
0 
0.02251909749813108 
0 
0.1345318693097469 
0.1385001846446278 
0 
0.09869790027204976 
0.04885140614052456 
0.008009294695930213 
0.06175273738013019 
0 
-0.007677763330575267 
0.9549630695793577 
0.03681488833916845 
0.1508071410864891 
0.1763828510221954 
0.1024320287341288 
0 
0.2750037103146469 
0.1457192339098574 
0 
0.002403823589518604 
0.01235639619483985 
0.05897716846527472 
-0.05044437283277366 
0 
0.002233003314554189 
0.003609901657265613 
0.01663480084351339 
0 
0.004007895576691923 
0.259457306260432 
-0.04072579184701234 
0 
0.04689408486786852 
-0.03340597306436208 
0.005565926585837793 
0 
0 
-0.008380095863806707 
0.0006130959912757871 
0.02876083675344408 
0.0009151287324579987 
0 
0.01717553713287201 
0 
0 
0.07055573661464866 
0.02953589090527197 
0.02015921410093047 
0 
0 
0.04996926146936746 
0.02525525200601911 
0 
0.006420513188902876 
-0.07057384122216664 
-0.0079449826154436 
0 
0.03858131933707311 
0 
0 
0.003832911111813018 
0 
0.05002233406725161 
0.0269676527984712 
0.01046534033245899 
0 
-0.008897959735699394 
0.009245161121870987 
0.1535716433480094 
0.1378166903685319 
0.003208491901839279 
0.02270258723449221 
0 
0 
0 
0.1258203317629404 
-0.003888971507329557 
0.0848879442888533 
0 
0.0009577411906123808 
0 
0.018147916379041 
0.01349048953670639 
0.3110087288161619 
0.005426051259941616 
0 
0.01513286455062583 
0 
0.006045647364343765 
0.03187405991095124 
0.02858727928004326 
0.06846657726454485 
0 
-0.1449249585761116 
0.0358994273438405 
0.03374614115244036 
0.04055652299658103 
0 
-0.0160983857944231 
0.106434444703098 
0.01822797794031093 
0 
0.2887482914564875 
0.03441694063522394 
0 
0 
0.01070319034068126 
0.07813668208666363 
0 
0 
0.1260103669678146 
0 
0 
0.2390661884583994 
0.001866484331086556 
0 
0.153816133357572 
0 
0.2529777604230683 
0.0122380813946429 
0 
0 
0 
0.04393141021824769 
0 
0.02007275265867599 
0.04772360941606266 
0.02160572506193949 
0.01915015000520223 
0.02773078059868779 
0.007439377018358452 
0.3179856338009519 
0.04829686716634485 
-0.005522952163292463 
-0.02054830846894414 
0.03516869722037003 
0.005805763574205015 
-0.01586172506403305 
-0.007419005720374415 
0 
0.08725741984510378 
0.01679462902113203 
0 
0 
0.1740864168253704 
0.02661545589487724 
0 
0.04484944475430245 
-0.004821840421336057 
0.004917135303824531 
0.02404016562898603 
0 
0 
0.003795031138932632 
0.0854540820804727 
-0.04237329117719337 
0.005843806074796024 
0.0596322092878026 
0.006951733250224761 
0 
0.03600769811696865 
0.1419632163071954 
0 
0.1611299661166506 
-0.06752996186757571 
0.09592252990239325 
0.007595479417935323 
0.4044508744377291 
-0.006308194219246997 
0.05115786111862789 
0 
0.03843518984397643 
0 
0.0144883942086617 
0 
0.02099479464903455 
0 
0.01107514151751869 
0.7110225862418491 
0 
-0.02171436242943375 
0.1029800029033005 
0 
0.08376657692077444 
0.1592932547906639 
0 
0.1742179243535337 
0.02200332968442014 
0.04480857365445187 
0 
0 
0.05755523608718059 
0 
-0.1487412824174906 
0.006973034224263734 
0.1095750692703273 
0.0007235675344353053 
0.0008187139321553889 
0 
0 
-0.004472324810073629 
0.01005340894478099 
0.1013870756553048 
0.04551667843243046 
0.001402641503493383 
0 
0 
0 
0 
0.06544897520702413 
0.02673942252386214 
0.005055309385097328 
0.01406900645189323 
-0.01372476638860046 
0.06640229629060489 
0 
0.01858341083733865 
-0.0249554038614453 
0.002301200061491961 
0.004697301924001944 
0.09061287542250381 
0.005666062111288894 
0.02434961933791996 
0.03315612241148626 
0 
0.008161541069984651 
0.03749796689205166 
-0.02047641955501021 
0 
0 
-0.004200427080836794 
0 
0.001016694461861358 
0.5659599563623651 
0.01282044448998656 
0.06277970356399362 
0 
0.02882610337353692 
0 
0 
0.1554223686725398 
-0.003811088473975948 
0.04310244653745727 
-0.2976429478923131 
0 
0 
0.04497421334405392 
0 
0.006293690500385355 
0.4152935113576096 
0 
0.01366359432449541 
0.01992703009727901 
0 
0.07139426366786174 
0.01868555787585067 
-0.04439048390377134 
0.006097465417962995 
0.03856926236263555 
0.08997927452339008 
0.01521463217283783 
-0.02860249040688603 
0.01082026230390755 
0.05386268582374066 
0 
0 
0 
0 
0.01034627394871915 
0.1255548751394873 
0.3096238559707976 
0.4314295604142876 
0.001216692668369378 
0.008388740580135749 
0.005635437208883355 
0 
0.002244363284238601 
0.3404871495431226 
0 
0.5757690179509866 
0.01455252046878079 
0.1001099017590525 
0.004229500543072887 
0.03007208033500707 
0.06099979776725981 
0.05354456024012325 
0.156064383644151 
0.5215979762231677 
0.1324186279185854 
0.07057621443487556 
0.7235823079443694 
0.0438935659494302 
0.1680939807718369 
0 
0.09624222529367772 
0 
0.07053935806092464 
0 
-0.09090877261612118 
0.1734689258652227 
-0.009511842068157632 
0.3370501518082608 
0 
0 
0.2242331595634102 
0.0169915920213942 
0.03216145852528098 
0.0396363913519155 
0.02529531882701909 
0 
0.6160368311520918 
0.2077441300572611 
0.0007386297880290636 
-0.002941579307916907 
-0.05367886660704591 
0 
0.01668325514491233 
0 
-0.0258205142763191 
0.001996960388199992 
0.002871853201336838 
0 
0.00494613104293946 
0.008644626355240582 
0.05666697770763347 
0.09122152671040884 
0.03496477316769692 
-0.05244513279856376 
0.1068408198491785 
0.0006717360315335073 
0.007080836802003465 
0 
0 
-0.009451931987913388 
0.07405951640039443 
-0.0006858992740048156 
0.004123825650865861 
0.01641471673545658 
0 
0.02155345455320489 
0.07977418251854054 
0.05273404145853237 
0.01567764419827579 
0.2643928453900158 
0.007229538591032513 
-0.01064179200074924 
0.1498972218937077 
0.3185735012714331 
0.01260250682361888 
0 
0.2188789594581206 
0.1409930364787651 
0 
0 
0.09123057925568875 
-0.06519634300988592 
0.1776287865238082 
0.08503082139628364 
-0.3300998847133631 
0.03617079385394249 
5.626592096933599e-05 
-0.02141947076662653 
-0.05134831155867214 
0 
0 
0 
0 
0 
0.009937650277617092 
0.002035064308175209 
-0.01291215770319529 
0 
0.01203998431050267 
0.0905538198211351 
0 
0.02769770742339595 
-0.008893780042124464 
0 
0 
0 
0 
-0.04015236126252026 
0 
0 
0 
0.09885329233913266 
0.4871733834484847 
0 
-0.01085623712600926 
0 
0.06965408155657268 
0 
0 
0 
0.07863951535829003 
0.01476279235049121 
-0.02932112065609825 
0.02106263673113727 
0.1162251555774465 
0 
0.01758314532213653 
0.08564915057621443 
0 
0 
0.4577748021984244 
-0.004692585731798518 
0.02826781414576884 
0.2122700427388795 
-0.005985769226893245 
0 
0.005104039080023878 
0 
0 
-0.03231063414737217 
0 
-0.04157216588933472 
0.002599768221330937 
0 
0 
0 
0.01521278657248646 
0 
0.002454883456220141 
0 
0.006178685795187184 
0 
0.0632416166822974 
0.04611109380370835 
-0.01296736150387065 
0.05650753040073977 
0 
0.02258756124540316 
0 
0 
0.002114787064218021 
0 
0.006118976057680572 
-0.000426184112278602 
0.01719134572292055 
0.04425871464877517 
0.0129323947547136 
0.02507506445305522 
0.03423503906198279 
0.004754244504950869 
0 
0.0103720470070725 
-0.1445457758608132 
0 
0.3585896883582081 
0 
0.1247330937367509 
0.0118848455793904 
0.01848477507549856 
0.007333686617857827 
-0.02595899209309754 
0.0114240862644707 
-0.005188733834446713 
0.05847354192772787 
0.04350659168559091 
0.1288423251775933 
-0.3872476549140086 
0.04824284880390487 
0 
-0.04146285667629979 
0.01886970466249395 
-0.01189539202969134 
-0.03728929676072167 
0 
0.0210248990618936 
0 
0 
0.03703560770517213 
0 
0 
0.005375962560767043 
0.01890402976707068 
0.4702259325925869 
-0.0553764003103052 
0 
0.001941838370089683 
0 
0 
0 
-0.01578862342679384 
0.05643578373859292 
0.06155263490245459 
0.02155258230397762 
0 
0.005800008805096535 
0.01124823813244687 
0 
0 
0.08629697267111772 
-0.0002215268128111647 
0 
0.01686168055894167 
0.321894776518012 
0.01058975665695566 
0 
0 
-0.04480079450614007 
0.004927604292124923 
0.1092702405075566 
0.04476960258574152 
0 
-0.238236791186353 
0.01248855340950374 
0 
0.2510944307302034 
0 
0.01580560559035064 
0.2388570114914741 
0.02038554107561938 
0.002327151847340178 
0 
-0.3156802470467834 
0.01804646643780536 
0 
0.08767927671065021 
0.04216490633883044 
0.04881588313285952 
0.3384016299133543 
0.09421422350253664 
0.229377510037639 
0 
0 
0 
-0.1165749576885026 
0.003052536815835191 
0.2007700170178573 
0.05675193604676471 
0.03663897862609537 
0.0716798135207249 
0 
0.038973352857113 
0.04186119165523523 
0 
0.07082520737209641 
0 
0 
-0.01119381286068344 
0.0225773525927459 
0.128499479818966 
0 
0.04298402588270159 
0.1704421055164248 
0.001485933705245838 
0.04773777037164215 
0.3548677316334812 
0 
0 
0 
0.06087388788712168 
0 
-0.05289291627569878 
0.005884640247508728 
0.005587543825076863 
-0.006001243931887427 
0.04266436333529342 
0.1552919800064905 
-0.2886972399821929 
-0.2427250375521799 
0 
0 
-0.02363670794143591 
0.01875205699880638 
-0.1105793155605349 
0 
0.007805869660784532 
0.004283417438183795 
0.02090627677437463 
0.1081987987777736 
0.006107059741932385 
0.06036644585487511 
0.04269975976933845 
0 
0.06036644585487511 
0.2069537788086476 
0.01632276074089096 
0.04705140332954262 
0.4011713041068479 
0 
0 
0.1447219274135704 
0 
0 
0.08164201940068938 
0 
-0.04574136669814224 
0.06438502261324963 
0.3543806882485326 
-0.05063847687785579 
0 
0.01718833834007246 
0 
0 
0 
0 
0.001127677734916868 
0.01933279211630145 
0.1074787236264 
-0.01047473834318469 
0 
-0.003096200597430772 
0.002310628522710973 
0.01055376833719258 
0 
0.01500184868582565 
0.2167237185364927 
0 
0.02103391669560852 
-0.007491265250550863 
0 
0 
0.004979648038338061 
0 
0.0005057620746914276 
0.00145606418108492 
0 
0 
-0.03510886259997079 
0.03692474597994864 
0.006298169473648868 
0.1040044552996475 
-0.2397985727953994 
0.005627272604419381 
0.2090528064029631 
-0.3304692407563114 
0 
0.01738792936704452 
0 
0 
0.01177453397477212 
0.0008025070601962551 
0 
-0.4333945041563602 
0.2473888030648899 
0.0002451779286155461 
0.7480119962967671 
0 
0 
0.1063543749802539 
-0.01251668000963113 
-0.07066430812027727 
0.002779206640974644 
0.2987745422027861 
0 
0 
0.02760164503130735 
0.0300789208029359 
-0.01825521725703756 
0 
0.06138854839305025 
0 
0.067480407977534 
0.02271339385888456 
0 
0 
0 
0.1513155941640685 
0 
0.007183839037528538 
0.01504817476914699 
-0.009003416449533353 
0.007181208994699411 
-0.01015720343096407 
0.05502744086207544 
0.1328722640466657 
0.003417564785399269 
0.4475473791883723 
0 
-0.007788648563391193 
-1.496301181405752 
0.1231346826937719 
-0.08472195110055665 
0.01612059314884162 
0.4090327958172094 
0 
0 
0 
0.002518762413689386 
0.01570359519940399 
-0.2100015734212775 
0.06098353281274754 
-0.003265063927031508 
0.02770333125951203 
0.101533033924604 
0.1436787167462106 
0.06739628400002819 
0.07839270959113973 
-0.04679499602429351 
0.04242192348713725 
0.01776745629175467 
0 
0.03130806289439619 
0.01019195846932619 
0.009596450560154405 
0 
0.003840579297482227 
0.06563103351772166 
0 
0.05005215253381948 
0.3246096519216372 
-0.04065263798504178 
0 
0 
0 
0 
0.3136400658851369 
0 
0.009642525341822533 
0.09467685981905519 
0.008261205759732668 
0.1505419451061721 
0 
0 
0 
0 
0.01147280146716684 
-0.01667932579338116 
0 
0 
0 
0 
0.03906876947993502 
0.1674659739044942 
0.04380239945885887 
0 
0.08163504701365426 
0.01110271519331306 
0.3166902301920047 
0 
0.04784667065709679 
0 
0.02748124302951171 
0.02541599483136111 
-0.2029843079989392 
0 
0.4360677887804245 
0 
0.0391345562208583 
-0.005021662531434453 
0.004465436517100514 
0 
0 
0 
0.1688165628482383 
0.2057853636210703 
0.01786692216341048 
0 
0.1629595988472925 
0.002855366126848282 
0.1987167029460888 
0.01025872289566023 
0 
0.07083314420283179 
0 
0 
0 
0 
0 
0.03133358839396472 
0.02858497489080286 
0.1513937186971286 
0.006385574509979998 
0 
0.05117309053919446 
0.47875407403173 
0 
0 
0 
0 
0 
0 
0.003976969311418208 
0.2135992561807614 
-0.03484496435879323 
-0.01174118623180794 
0.02070412431183449 
0.04611754201495458 
0 
0.1741514868833004 
0 
-0.01983760946882345 
0 
0 
0.05114172778358737 
0 
0 
0.1130065855324989 
-0.01381822144345741 
-0.005928845010960093 
0.03447871261295448 
0.04774449858146092 
0 
0 
0 
0 
0.2570509287971622 
0 
0.1010925808877436 
0.08034881396366064 
0.001385602974945491 
0 
0.02597307227815789 
0 
0.2090254799746922 
0.005647156999145852 
0.00632486797495586 
0 
0 
0.05168792781849367 
0.0659187529265586 
0.05549513136580945 
0.01161279113506959 
0.01039378503417169 
0.0005819748178863218 
0 
-0.0005522128407757457 
0 
0 
0 
0.1150547372037871 
0 
0 
0 
0.04244185192148779 
0.0004005620101040075 
0 
0 
0 
0 
-0.04468148847434543 
-0.001402912349686644 
0.0229857036892096 
0.01963487248859693 
0.001694824015718819 
0 
0.04115084258236671 
0 
0.1684819949684853 
0 
0 
0 
0 
0.048539156714219 
0.01904733292035814 
0 
0.01683604263314421 
0.008058978372641431 
0 
0.1021816658873851 
0.0003940789681295642 
0.07900094379117373 
0.005062660799852489 
0.06956287882208662 
0 
0.5096287987165259 
0.07720701947823291 
0.007943260053647531 
0 
0 
0 
0 
-0.007841086009068481 
0 
0.1139829805523724 
0.05259803797864602 
0 
0.2178143602421355 
0.03586179647839369 
0.1501045887040929 
0.001177324073903076 
0 
0.06520918281675205 
0 
0 
0.04174712841839656 
0 
-0.0008932574006471505 
0.0779812840214035 
0 
0.01866326951047227 
0 
0.03262292253266712 
0.03446156106928768 
0.1819840908884197 
0 
-0.01403650482287662 
0 
0 
0.01160153899568022 
0 
0.0006856123196276971 
0.1181994869504636 
0 
0.003517437361038322 
0 
0.05889122747242253 
0 
0.3332755030512473 
0 
0.007474568126961031 
0.03455163331593471 
0.001800809305737884 
0.5823879486562493 
0.007056127900610495 
0 
0.01542862979328315 
0.08533787630027749 
0.01708547679259689 
-0.01355427003379824 
0 
0.004834903585076968 
0 
-0.143745258770979 
0 
0.03904846910804207 
0 
0 
0 
0 
0 
0.005970581894754204 
0 
0.03516102117575332 
0.008666067083167903 
0 
0 
0.0007354516368477496 
0 
0 
-0.005925887461121692 
0 
0 
0 
0.004493663281726254 
0 
0.009968903408026688 
0.01410245070204645 
0.2132490676706398 
0.1839023445760081 
0.02462411647509733 
0 
0 
0.001203165540149552 
0.05005042594261216 
0 
0 
0.3271230028329559 
0 
0.2788937795860801 
0 
0.376053977711856 
0.1105984394892071 
0.01880072168766556 
0.04586025532443113 
0.04628347601093527 
0.0554214292486687 
0 
-0.01677969034399355 
0 
0.1379117264670943 
-0.2027059169355368 
0 
0.06069608491872523 
0 
0 
0.02529482195896127 
0.2581163950544663 
0.02033202081064484 
0 
0.06494468544276276 
0.0650685298312636 
0 
0.03438648722551708 
-0.005513962274924946 
0 
0.001464657854434787 
0 
0.02563464588299582 
0.09689074046041028 
0.01907341788386888 
0.06050795379285467 
0 
0.03062749443865152 
0.05275111959306145 
0.4352810613149324 
0.2236412415978468 
0.001520941894727767 
0.004567857227274479 
0 
0.003102083305898909 
0.007446262463577337 
0.0596763147714582 
0 
0.01018245973090717 
0.06625674440816487 
0 
0 
0.009444123718554834 
0 
0.01749197312780799 
-0.000861059832567194 
0.002459987002186949 
0.02016607389431826 
0.005973104902131541 
-0.01100286294996826 
0 
0 
0.01091151195372791 
0.1363004148578198 
0.07050680011789066 
0.04838827617869207 
0 
0.01515639100078759 
0 
0.2992303778555656 
0 
0 
0 
0.01472551440932834 
0.09513378010993835 
0 
0 
-0.003390306581668492 
-0.05583867558500797 
0.07976128994956742 
0.03588945629536096 
0 
0 
0.03976551764203086 
0 
0.01474650547383733 
0 
0 
0 
0 
-0.0409751618895234 
0.0003800126604847085 
0 
0.07613345000400273 
0.06504487873668796 
0 
0 
0 
0.00527481290199255 
-0.01911010777107406 
0 
0 
0.04083860723704293 
0.07340774753094027 
0.04724783320950054 
0.04018344939892118 
-0.007810023835601512 
0 
0 
0.002573203310217718 
0.07079638171895007 
0 
0.3113146532111906 
0.001756472222042947 
0.05582518024016737 
0 
0 
0.01428149026721312 
0 
0 
0 
-0.004751823675413839 
0.02324189096166235 
0.2243766556783425 
0.004104615179401639 
0.02409529905340624 
0 
0 
0.03011086260711792 
0.007045393712709236 
0.002101619908075964 
0.008708016049534978 
0.01809239325267579 
0.5028607245089385 
0.0160341301900418 
0 
0 
0.1457255175970714 
0 
0.003102317280087903 
0 
0.03051332137491047 
0 
0.275716089629864 
0.01236758980135023 
0.01076957076552524 
0 
0.001586473609813322 
-0.01625697282355413 
0.02983007990237017 
0.1002418080209488 
0 
0.004488389609810557 
0 
0 
0 
-0.003372760674624377 
0 
-0.00717904599703635 
0 
0.148541183033932 
0.01617783475351093 
0.004398129721121854 
0 
0.002818288648391648 
0.005198393796474816 
0.0589717455612038 
0 
0.04993298137780817 
0.09431144580851303 
0 
0.006169703415384653 
0 
0.01331372258867235 
0 
-0.02383796956206852 
-0.02453159807906364 
0.03211507973871194 
0 
0 
0.01922596143742251 
0 
0.01356763335608392 
0.1021296720801478 
0.0836158185273458 
-0.02508112227043955 
0.01241156909330231 
0 
0.007669245372996822 
0.04087341590635798 
0 
0 
0 
-0.1640048615153367 
0 
0 
0 
0 
0.01356794176586296 
0 
0.4367896440592681 
0 
0.06743066382611361 
0 
0.009005662819963635 
0 
0 
0.007226564765614291 
0.00984364980725112 
0 
0.6368545540026805 
0 
0 
0 
0.01004062002524227 
-0.05373193107683637 
0.005596157628359852 
0.01529316856756411 
0.04147908023043922 
0 
0.03537196098282239 
0.01447902860858676 
0.1172392428616063 
0.01877027755259074 
0.0044420242285502 
0.05549219659747789 
0 
0 
0 
0.03348955261530649 
0.02153993928679949 
0.001720848963786516 
0 
0.3221294512810987 
0 
0 
0.02316520093315187 
0 
0.00632864933834019 
0 
-0.02309822221904955 
0.03994915587375199 
0 
0.1742097203239785 
0 
0.07435454068720504 
0 
0.009489680629836419 
0 
0.009810301093456104 
0.05679866975524511 
0 
-0.01010583051820076 
-0.02850138439836062 
0 
0 
0.001116037517931727 
0 
0 
0.0347784621884549 
0.03338487488293097 
0 
0 
0.05188021125290485 
-0.02597628312886463 
0.03555599337491717 
0 
-0.4039522702915341 
0 
0.03951444283343614 
0 
-0.02256370468978038 
0 
0 
0.008298244000494663 
0.0605512833392506 
0 
0 
0 
0 
-0.00372950249519158 
0 
0.008134816285319785 
0.2189101821060502 
0 
0 
0.07216854051167176 
0.1069962573098921 
0 
0 
0.06367220728553064 
0 
0 
0.004024602663918532 
-0.2071179286047616 
0 
-0.006658721873331293 
0.04401275042813904 
0.005284929630283255 
0 
0 
0 
0.0001607744863540012 
0.01379350976493195 
0 
0.1011465245620464 
0 
0.0006940512639105098 
0.0007453652736182454 
0 
0.006249188073607771 
0.01098704228375808 
0 
0.06783487072061753 
0.04059818150297072 
0.007838562899200895 
0 
0.0126422350978502 
0 
0 
0 
0 
0 
0 
0.2368073587868526 
0 
0 
0.07606889322536979 
0.007649218192713288 
0 
0 
0.001725467252517542 
0.03288551126840222 
0.009042589767926514 
0 
0.07151834405105323 
0 
0 
0 
0 
0 
0 
0 
0.07777099680727696 
0.1051486603492762 
0 
0 
0.008471615219301161 
0.02474442727533288 
0 
0.02025823019594818 
0.1231230501729454 
0 
0 
0.07800971458919517 
0.169464793097954 
0 
0.0328506433827341 
0.00876890585718814 
0 
0.06424150713988104 
0.4210776266868881 
0.01174054451015443 
-0.05639391595460556 
0.03462220925847172 
0 
0 
0 
-0.0249064605815693 
-0.04320184373033191 
0 
0 
0.2036006026752731 
0 
0.04535863716599346 
0 
0.01671944895982583 
0.004234737238719803 
0.2279788430400234 
0 
0.09116970775852373 
-0.003532600565091879 
0.4914922328889405 
0.1759026847313063 
0.01088935403388697 
0 
0.130727710727794 
0 
0.1056080229031067 
0.05837101702984358 
0.003794742527921676 
0 
0.04127608542422065 
-0.07251225995088575 
0 
0 
-0.02293367658180788 
0 
-0.0175354821770325 
0.0145996422757656 
0.007031517742319697 
0.0005794495251850909 
0 
0.005218282790371672 
-0.0421312371578261 
0 
0.02573266269927458 
0.1175873814068767 
0.009054268194945751 
0 
0.01318135983586905 
0 
0.01096325438737439 
0.437205842791727 
0 
0 
0.01131756461513374 
0.004210702181681122 
0.01360049430061386 
0.00791829150814336 
0.06265262412262121 
0.000492054544088449 
0 
0 
-0.04239441409648389 
0.008773806001602059 
0.03464683666748172 
0.09431299483682912 
0.01478032900373046 
0 
0 
0 
0.03051888110205317 
0.07973180475182265 
0 
0.03086605248019795 
0 
0.001019490789070562 
0 
0.08806521695392761 
0.03287759246342207 
-0.001971106553278356 
0 
0 
0 
-0.01824957017108644 
0 
0 
0 
0.02862407498683285 
-0.3103535222555723 
0 
0 
0.001491691776646005 
0.3820818331625997 
0.0504177798019701 
0 
0.01280618709233968 
0.005059544492011745 
0 
0.4208541258268408 
0.00569113505941638 
4.504246036588425e-05 
-0.006819432469390176 
0.03707807079981908 
0.05086632049716504 
0.04215587388666171 
-0.0288463233021042 
0 
0.008224352171505647 
0 
0 
0.03193112923925 
0 
-0.007660191791630177 
0.005689050942165894 
0 
0 
0 
0 
0 
0.2583527672389309 
0 
0.05565478937760639 
0.1161454885340394 
0 
0 
0.2110123790590652 
0.03025971308521051 
0 
0 
0.1136865717331833 
0.2002259146813399 
