solver_type L2R_L2LOSS_SVC_DUAL
nr_class 2
label 1 -1
nr_feature 5000
bias -1
w
-0.3661465492526817 
-0.3400931815211641 
-0.1210985224697053 
-0.5737079722893779 
-0.09525943564850908 
0.2858487496176569 
-0.08499790624106125 
0 
-0.328322069393381 
-0.2189707311960055 
-0.06420660928453734 
-0.1169150272715754 
-0.08926862158277621 
-0.08682394105586663 
-0.03319828440888038 
-0.5935855464463066 
-0.09850421087750889 
-0.3354084405722932 
0.01305283637970694 
0.3497652781982638 
0.8773260968551602 
-0.0204414590006524 
-0.04960026213925467 
0.05613122788376663 
-0.1626155701106376 
-0.2468139491812857 
-0.7410084006154904 
-0.2290621651925784 
-0.02542640641829644 
-0.03357633623331056 
0.6412369579908153 
-0.02911905046642979 
1.269240077972025 
-0.4876376658833443 
0.1092500039368868 
0.5912384597736278 
0.2445418412387351 
0.2770962039230487 
0.1726314101200372 
-0.04774411381820446 
0 
-0.2454727543378978 
-0.3432326483541976 
-0.1211592629160636 
-1.708037604278517 
-0.1493602454549828 
0.01797607126484262 
0.5471372648189352 
0.06051189313304346 
1.259236803001472 
-0.08664380517981946 
0.1755537108960599 
0.009265707892973516 
-0.02246438509898458 
0.2923698753055331 
-0.3271815690544808 
-0.03217770460696832 
-0.3659660164636561 
-0.3129623212628594 
0.2222212811006299 
0.006878551667806621 
0.3685115439768487 
-0.1688283715476832 
0.003539091925581198 
-0.3213871413622442 
-0.02539086170057468 
-0.04587782191266321 
0.273463455675155 
-0.6586285724680145 
-0.02439657199358049 
0.3308546482844242 
0.1914219847323654 
-0.4032900969345996 
0.2901265096245912 
-2.748983359065276 
-0.08854574828333649 
0.3485508603531618 
-0.03218495743895095 
0.7333802377548555 
0.008634758315604955 
0.0003486716828536029 
-0.02305041595428773 
0.06202740351129647 
0.1254118089478461 
-0.1822613860022075 
-0.2728370221600943 
0.6301665954948205 
-0.1797272578469394 
-0.2854236785271073 
0.3047184586414722 
0.0924594695506183 
-0.07839948885148182 
0.005004303349048576 
0.3711033093502763 
0.1987775269054116 
-0.004679528184755644 
0.3286155403591972 
0.5930665717616017 
-0.7689717282743994 
-0.2240524348825717 
-0.02224319233423367 
-0.287276167620767 
-0.268999443564428 
-0.1307555970335912 
-0.1199193455407427 
0.01514110868176898 
-0.04278419013757565 
0.005934958349397437 
-0.001209316767683895 
0.1379628409650031 
0.03714992372273124 
-0.02667112599421201 
-0.0003945344016749045 
-0.3194214607238454 
-0.01823451944791935 
0.03988856105172166 
-0.03485784055350611 
-0.03164293423799182 
0.8160374960306123 
0.7594791263754453 
0.1251279891911342 
-0.5037954745993998 
-0.0303599133260739 
0.007784063560627578 
0.1410523991970896 
0.3025363173627498 
0.1066705227445574 
0.4367529227374811 
-0.01009973308069789 
-0.1246031777449429 
-0.03348950906671979 
-0.1163179513932261 
-0.2815911822806467 
0.2097602770930977 
-0.961736990388689 
0.601906906584797 
-0.06682772148298879 
0.4687120987055292 
0.01885962789970039 
0.09004755360712616 
-0.04624030005476858 
0.1597871453999298 
-0.1016265301538736 
0.1023269775442443 
-0.1827899167620434 
0.220768973156654 
-0.01940796572798953 
-0.002701899334067918 
0.2244616682262375 
-0.01991070716149493 
0.004752649134063966 
-0.06489706333110598 
-0.06770692399249514 
0.1942469785336435 
-0.1148107562134224 
-0.2436993329906692 
-0.01330893501164936 
0.2728654523341705 
-0.2506886803838804 
0 
0.3062338527543945 
-0.2079328848816267 
-0.1587178817819792 
-0.6228628106182283 
-0.1582916408772882 
-0.01442874686194147 
-0.2682748928046615 
0 
0.05042677396036969 
-0.2305674343450589 
0.1033008824880509 
-0.1227042445344945 
0.3607558405643639 
0.2734189542060538 
0.02701136935700913 
0.01399958529629795 
0.5460373463056183 
0.3756598574095466 
0.2989937534562848 
0.03093790496745761 
0.001263625404574945 
0.04863284153248815 
-0.1728574876961148 
-0.1089593142596197 
0.3957396644807641 
-0.0002048420254221785 
-0.5617703638049091 
0.1983678403464501 
0.02790095673807612 
0.036481842814785 
0.2658944706766749 
0.7784733638976244 
-0.09642376430713147 
-0.06631178992504853 
-0.0737742442588048 
0.4151521708285231 
0.6478780722038645 
1.039163789508423 
-0.5639221027369407 
-0.01347247616982548 
0 
-0.153264648563603 
0.009095160579056181 
0.06928997979919213 
-0.001327632890354485 
-0.03686976979937438 
-0.01534617698226218 
-0.136857264575509 
0.005226079810918727 
0.3724982544707464 
0.2975844115095456 
0.08892654379369164 
-0.07550730965540089 
0.007585568183920007 
0.41075514134331 
-0.01679768205126397 
0.7719123744831488 
-0.003789297860978624 
-6.036246105288814e-05 
-0.07002035434278966 
0 
0.2575697615178182 
0.5226582938719322 
-0.01167753061887997 
0 
0.07590948413597735 
-0.1179291998837876 
0.1957403291176225 
-0.005151682365612116 
-0.1240233928701537 
-0.06315079746469895 
-0.1186864910251913 
-0.01161985886913157 
0.3369083980358975 
0.1683548798198878 
0.03370158973232469 
0.04882069850641638 
0.3326784508469313 
-0.02271825160761767 
-0.03230532937670029 
-0.1233008258236855 
-0.01115020184440271 
0.01997153503454545 
0.3673928868638432 
0.07400804545685405 
-0.4120210195750993 
0.07445386479698357 
0.2444605327457665 
0.3642207384233733 
-0.159103354586698 
0.8287563996472257 
-0.02246131450202318 
0.03245313350629738 
0.1700736412256052 
-0.04206743558105513 
-0.0195517003450863 
0.0107472761119805 
0.1584428228785166 
0.1049725817750925 
-0.273922788043283 
-0.087538106632636 
0.001344299638716868 
0 
0.1179673656128098 
-0.04100322699272974 
0.0781553358638138 
0 
0.3639583304384161 
0.2157355948192787 
0.01119460973618676 
-0.05452266096930052 
0.04329091161392196 
0.008866236021564573 
0 
0.02437887238090852 
0 
0.05008166077644623 
0.1231507001043376 
-0.08087265357088823 
0.04965286025601785 
0.3784986825254292 
0 
0 
-0.4996827675400174 
0.02013208421985928 
1.35220045635702 
0.3940973476221328 
0.07641747432206354 
0.01074101947663732 
0 
0.3484778442354028 
-0.2164575066025433 
0 
0.008937358833529641 
0 
-0.06601557686775912 
0.006839921849893389 
0 
0.007085642526511809 
-0.1682543001332214 
0.0002819927035799094 
0.4220854946708013 
0.008932967692819784 
0.1691310475355381 
-0.003755170048682912 
0.4458243838636719 
0 
-0.2611642430759357 
-0.08748961094425484 
0.05308264199678289 
0 
-0.006251809651532901 
0.02416226043901799 
-0.0417398291004439 
-0.08107108085187739 
0.07301016895964789 
0.08079130227293171 
-0.141605988856803 
0.5668641597855086 
-0.1080574071949987 
0.3521953980009578 
0.043383326202779 
0.3225573523058199 
0.2196603447353132 
0.003960360703003304 
0.8834267390134032 
0.1513396374339725 
0.354178859078092 
-0.6851061044447356 
0.1430892773366776 
-0.05696392764718802 
0.07515481252584093 
0.4564207016611561 
0.2113093716845918 
0.002048313822225353 
0.1087225214545155 
0.2910776845666857 
0.06970871077376849 
-0.5088401164749452 
0.6789494764928885 
0 
0.003023654197555251 
0.0613719231053986 
-0.2239983087645545 
-0.1225689398180443 
-0.159136425512601 
-9.664610676893282e-05 
0.2039955404685177 
0 
0.1096136577099665 
-0.0476557385188135 
-0.007399031604385689 
0 
-0.1217379656247501 
-0.004512885766277643 
0.004322884011356293 
0.01959255774804233 
0.2831666505953155 
-0.03718768071761819 
0.0471798651026666 
0 
0.05723880041342875 
-0.2965007305201643 
0.1300448842727234 
0.003094779048212281 
0.2611634126120372 
-0.03769484895383268 
0.04458284009184114 
-0.02765131583573609 
0.007512672173099807 
0.2959095114472375 
0.03802441355516937 
0.3847320446267375 
-0.08399476952867244 
-0.1053905269930109 
-0.007876356377930079 
0.1190383143773395 
0.2574509395252552 
0.09055899094522821 
0.1830992303467386 
0.0232658395847011 
0.1119813019208213 
0.1008980219666589 
-0.004155440837579292 
-0.07203766790246213 
-0.06567673067988827 
0.06595757264342653 
0.1010455132684937 
-0.1720034626051067 
0.1306357314963775 
-0.01576329056825299 
0 
0.02834577983443855 
0.2128492231996272 
0.665604096489584 
0.1690249936775188 
0 
0.03459256774607208 
0.000641019785692308 
0.03348874304705311 
0.06256484673594261 
0.4091506814705687 
0.08857540591402209 
-0.0307199713085092 
0.4375828350295948 
0.08948607280051715 
0.02706350088418846 
-0.2595482872838751 
0.2668062699846011 
0 
0.1003321699218266 
0.2396183975416449 
0.4703410719870106 
0.0121716337766887 
-0.0958628042531833 
0.6157082938689028 
-0.4416960445275178 
-0.0398708816574337 
0.08785255110667775 
0.1689982347415423 
0.1829475914459245 
0.4713222302421823 
-0.02658746228770605 
0.8909624101251338 
0.08011064965611699 
-0.05536354248700032 
-0.01488919204566466 
-0.05477499159276411 
0.7531251214375052 
0.4124806466731398 
0.5004271748020788 
0.01941578096718809 
0.1901467358182461 
0.1180535273954431 
0.1273909182595824 
-0.3372762632092121 
0.3146793165962169 
-0.01533624749777257 
-0.3434265276981359 
0.5742117790965084 
-0.1302715263599919 
0.05009332362220533 
0.1425303191496217 
0.1157778674836491 
-0.09273314857528275 
0.179427569550733 
0.04637710952841448 
0.005231368236063967 
1.079773278837854 
0.3853654333935443 
0.448369547920681 
0.005442644255653684 
0 
0.4276532707054662 
-0.9304627619503426 
0.06845654651004937 
0.2427916127540614 
0.01995209286702792 
-0.09009113788683737 
0.0546523474795884 
-0.02083762545029748 
-0.05597703372854278 
0.03251877374273189 
0.6237003665579777 
0.3032589162055379 
0 
-0.002911185902140271 
-0.05405206924734102 
0.3347224716158797 
0.006117528308389613 
0.1739239952048317 
0 
-0.06768222916743308 
-0.01916581474816838 
-0.02117838487543952 
-0.0243420538544334 
-0.0145503573433505 
0.4509793869525953 
0.01375462549164706 
0.1879938148818164 
0.03038055094170654 
1.139013793150025 
0.4375558651275741 
0.2383001630359648 
-0.2399751037649318 
0.2953548375240985 
0.03585012341346611 
-0.02540011207588684 
0.01451940979830866 
0.3467641389569214 
0.7824301927978392 
-1.02221459089579 
0.05913962280088036 
0.0168483567462465 
0.0314133609261389 
0.07379622325576546 
0.930101570801801 
-0.1353648069744406 
0.1850300160828423 
0.1004378270710763 
0.0128258645884577 
0.015292286989852 
-0.04759656417936348 
0.09237253781580983 
-0.05771062483291971 
0.03359400916218791 
0.3552817488438187 
0.1713523379240147 
-0.04803776610038583 
0.05961248900426932 
0.1883510917404636 
0.1153690364596596 
0 
-0.007763952872673533 
0.1094307152020927 
0.3822313850164918 
-0.03210760800420435 
0.2008448355079378 
0.42239205997137 
0.1970362239968505 
0 
0.005513418138926561 
0 
0.01389799950556172 
0.262061357389478 
0.01053599574470707 
0.07951580980562817 
0.07545513125245373 
-0.06483755421918246 
0.1135820938071014 
0 
0.008760628882582304 
-0.2157506422906634 
-0.1182558796930293 
-0.03531107591541343 
0.04442376821038508 
-0.0294235597444668 
0.5448441859324753 
0.01950219867218842 
-0.2033020418732484 
0.05588758616948607 
0.5708278954511525 
-0.009350525597665752 
-0.03978648855954244 
0.01113562822311759 
0 
-0.01590415417965971 
0.03067056471680576 
0.4773611957336396 
0.09545511906032612 
-0.3313839751057323 
0.7415165516141745 
0.6475873904968954 
0 
-0.05947884533666492 
0.002921972924577486 
0.1787094440928494 
0.5683079486218535 
0.02478739823658509 
0.6436204648415792 
0.00338170747621427 
0.00976975339784707 
0.008631802549886044 
0.2124026878099463 
-0.05798331056660429 
0.01851806624701862 
-0.05389789676211703 
0.04495550390714658 
0.02281266990324213 
-0.0007429739812214071 
0 
0 
0.3511434901987479 
-0.04190222832571088 
0 
0 
0.09496994550060171 
0.006633438917397451 
0.1364126469816597 
0.001939937223752807 
0.003751580835607741 
0.5059385454389573 
0.3930442128226246 
-0.1955349243643011 
0.06136652653016611 
0.7300477380474696 
0 
0.07104479067142813 
0 
-0.03995141990846455 
0 
0.0766503968260332 
-0.001545519433828798 
-0.1659446825770528 
0.1119941161846022 
0.06414904100423817 
0.1363142349653302 
-0.2827966121700698 
0.0638294133186257 
0.0009999302429431246 
0 
0.1099514063789556 
0.2306932418639352 
-0.0401005639444217 
0.1990456553681128 
-0.005410959865617218 
-0.2711597437172745 
0 
0.5483803722326988 
0.4127163260221288 
-0.1304269739608762 
0.1122652837442994 
0.02479884762643217 
0.0116108822638416 
0.1271123943715354 
-0.5856187693167501 
0.004052636095848201 
0.04219919444932443 
-0.0635618724507121 
0.1403047101501222 
0.1549077088775145 
0 
0.01392502711307933 
-0.1097180772555719 
-0.06707183078116859 
0.08861813677301243 
0.3376518995137946 
-0.2099316428158607 
1.161961427545112 
0.3236420930420309 
0.03423136193270755 
0.3534495118330085 
0.3587227501780801 
0 
0.01563460769150438 
0.07681906726520274 
-0.06138811266904082 
0.4885410461507103 
0.2739507978632406 
-0.2330633058618481 
0.5411645817403271 
0.0851118536338356 
0.001988379907031097 
0.4707404942913552 
-0.06563595424620447 
0.4562142721198666 
0.08104533514458462 
0.1807433269424951 
0.769130805069182 
0 
-0.02726716133661964 
0.3339152396056718 
0 
0.2224671009753965 
0.3937068938667795 
0.1335411759503707 
-0.1569511684138789 
0.2555384556423929 
-0.02136051915848326 
0.1879085440654334 
0.2964902909065843 
0.1706721979889306 
0.06865555722006754 
-0.0353941384227346 
0.05096205790371221 
0 
-0.05181887250717906 
0 
0.107482253038254 
-0.001501006007464488 
0 
0.03563812950612708 
-0.04671944348356513 
-0.07918145364945156 
0.4198605609367565 
0.04720415791022416 
0.07473718592834605 
-0.2199059093811152 
0.001162996029566375 
0.5973244074845416 
0.2735262638828461 
0.2134586344327005 
0.001534044196533394 
0.4044278102572332 
0.001517807397633953 
0.2256597211178435 
-0.02148345039298259 
0 
0.1071221215286708 
0.0159537554943656 
0.02817011260974036 
-0.006967919255756969 
0.05391756138157948 
0.05619457574976787 
-0.006728234420638579 
0.02190068583803794 
0.2806032577261184 
0.07583944215516425 
0 
0 
0.004255472959895185 
0 
-0.0527473826073865 
0.2063230828399722 
0 
0 
-0.04504736173022926 
-0.01641460900773373 
0 
-0.06118329807488058 
0.1617047346173413 
0.1455821598835449 
-0.559452978564612 
0.179038774255348 
0.395425176725429 
0.03004857087766725 
0.1823894571966594 
0.3455936623499115 
0.0275227426858617 
0.0237483146680007 
0.02397685884697223 
0.0037638380675208 
0.6323769722487519 
0 
0 
0.001801403959897074 
0.3002092414981614 
0.6010848811388385 
-0.01041994145441125 
0.002613457593634888 
0.5282175359322882 
-0.1453265123800192 
0.1720791035249019 
-0.02014829933684765 
0.01365015019213871 
0 
0.02777208278075344 
0.06178637972770994 
-0.03077225431604068 
0.05673447076900695 
0.02767018174287288 
0.023590408522836 
0.01365062074189463 
0.1197643251164514 
0 
0 
0.0207702516609604 
-0.02939800917285047 
-0.05617919166682045 
0.2720327487218746 
0.1817477925632324 
0.03788439079656809 
-0.01790958027136639 
0.5200675230338236 
0.1340614507632097 
0.03981043896653191 
0.01848459391545276 
0.04785800183165019 
0.09788705911948861 
0.01487065667575162 
0.475370583867149 
0.3799451844362088 
0.201764843378024 
0.3012690696015556 
0 
0.06278993453354061 
0.04768358462771636 
0.02269232932707217 
0.01254884636681249 
0.1622364030758202 
0 
0.317292508246639 
0.2214929410435808 
0.05028657510557071 
-0.1624577756991068 
0.004770456043013239 
0.02356487219550327 
0.00854047053352661 
-0.09424407987992672 
0.00103340604809169 
0.2289048535263761 
0.2112862098697389 
0.3530469207292354 
-0.05800919775909957 
-0.02918677845158223 
0.9602228359765552 
0.3496514677198448 
0 
0 
0.04121883027125348 
0 
0.01487943839261659 
-0.0388986547308023 
0.1192445620963992 
0.9135889064849398 
0.99664993140509 
0 
-0.05111047328046294 
0.006357119748167589 
0.04503221809807341 
0.9125498171585731 
-0.00950736489783614 
0 
-0.02184172209166541 
-0.1587227553065804 
0 
0.2324219672597239 
0.3503899175926541 
0.0380264325876818 
0.0444385277832982 
0 
0.3251463830104473 
1.255520757609571 
-0.01250803194988966 
0 
0 
0.4908726670043692 
0.1041870909378499 
-0.04706706651687759 
-0.006691913662401764 
-0.05366419612012958 
0.2577337610240224 
0 
-0.005850556486402071 
0.3066018199512989 
-0.1198305977594643 
-0.04107867535551012 
0.09479093897006322 
0.004580643525410081 
-0.03416725218148016 
0 
-0.05289058207733519 
-0.009034630269158702 
-0.1518049968642343 
0.1344696063974453 
-0.02713930518392764 
0 
0.3214787416689323 
0.4709651840623377 
0.03134453764706477 
-0.006287979603888229 
-0.08999824029850338 
-0.06832517283337902 
0.1861165447034738 
-0.0584072457312735 
0.0566234443969628 
0 
0.1506537310588857 
0.5284357182595982 
0.240523063692206 
0.1619964578741132 
0 
-0.03048260959075986 
0.4127673403113113 
0.001532818692811866 
-0.1584599269519527 
0.004841011215799456 
0.4034911286982193 
0 
-0.05893209361830912 
0.1255178026833274 
-0.01089445068153115 
0.2209634243773371 
0.9172579409530399 
0.7181279109593977 
0.002517317438784045 
-0.003017598751177638 
-0.9065804097712122 
0 
-0.01646446459058192 
0 
0 
-0.8765316795550343 
0.3850317894876649 
0.01306047577140246 
0.1442592669558075 
0.2747959780628195 
-0.06157585054824835 
0.03733824001279854 
-0.2323506485731674 
0.02808625738414336 
0.3831177881490211 
0.0383728820525229 
1.031807483981541 
0.5556086230052689 
0.02716711896181545 
0.510557573766877 
0.1236577095789395 
-0.9350800729938493 
0.02952996189596917 
0 
0 
-0.5183533662660786 
0.0009421936429316775 
0.311337600030358 
0.2505156202130807 
-0.01202595463244708 
-0.01020021944242222 
0.2879036048988756 
0 
-0.001767676156141437 
0.1342070161892673 
0.04615874787409961 
-0.02125181649134064 
0.001423655224437388 
0.008685574138482557 
0.0462745537068666 
0.3251608068847082 
-0.05431011045631341 
-0.08821793202609061 
0 
-0.1388931234761004 
-0.0441159694627713 
0 
0.9075212284885931 
-0.0113439243599082 
0.1386530120782292 
0 
0.4110931260808298 
0 
-0.02727219111817209 
0.002920168222121607 
-0.09807330715569094 
0.0661403462371512 
-0.6058188102438654 
0.1805530023836994 
0.09426992013652302 
-0.05940351506459087 
-0.03945578078812643 
0 
0.01366609256565593 
0 
0.07973687006653368 
0.02913625985735487 
0 
-0.1101328488336118 
0.06164288853678837 
-0.3455975093518664 
0.07360473829886222 
0 
0.04833058415954943 
-0.007476914701633697 
-0.1644525778960816 
-0.01474811638822553 
-0.01555218347687493 
0.8736388548999248 
-0.02825704812026866 
0.244496083170868 
-0.08866646558022492 
0.1659679468510016 
0.3398633851309513 
0.1046258025036567 
0 
0.1730140999700729 
0 
0.003069760548784625 
-0.1974409760809986 
0.285322606559026 
0 
0.07230133499594563 
-0.1442461033813841 
-0.01950984959938636 
0.4609011244197927 
0.0376412014224275 
-0.05666297378007306 
0.1137624211982012 
0 
-0.006056361777087839 
-0.09675335898358013 
0.005062816521354857 
-0.03577830780668816 
0.01891005301411228 
0 
0.2234597324916266 
-0.1324917752717633 
0.1194992121597116 
0.1257299217126508 
0 
-0.6260458228271283 
-0.0416950603868074 
0.005065728521671761 
0.07130428785367737 
0.2366029632872419 
0.00623957267306741 
0.0468618137630175 
-0.04746502612937865 
0 
0.001618758201273334 
0.01493320700987413 
0.02445782194524157 
0.04145072509909682 
0.02950372349049298 
0.03128175571759446 
0.04571768541763107 
0 
0.300521641680308 
0 
0.6689260243096234 
0.0108978999848754 
0.1930983268076852 
-0.06481691469762368 
0.4497979936454061 
0.08431204202932222 
0.4532234371046936 
0.001529245611298029 
0 
0 
0.2522842494349417 
0.1278685256934085 
0.05297592176566029 
0 
0.08350202114619139 
0.456819145559081 
0.004849368634102168 
0.001527985540316937 
0 
0.03571489865823853 
0.07427753378735806 
0 
0.1279705715181333 
0.2285578042045446 
0.1411710574784682 
-0.07306225610867229 
0.01915583642931587 
0.07377692170615431 
0.009805395893874904 
-0.1985623796740441 
0.06871087817745788 
0.02736313441212235 
0 
0.02311124297087956 
-0.01739750660392928 
0.1438946553270379 
0 
0.02428812503448259 
0 
0.07538787375691409 
-0.06853188745736033 
0 
-0.001851460019803969 
0.3913700730835371 
0.01759810928746097 
1.26621067750871 
0.1306361127016925 
0 
-0.01168058776542828 
0.03215549403156745 
0.06061538348750372 
0.0717770231828293 
-0.01848553889979233 
0 
-0.228447983722677 
-0.04512353697392098 
-0.09056870680706669 
0.2225553084748822 
0.08417097662945902 
0.2939857331469069 
0.3342521365600599 
0.6077813509891831 
0.04332406042996322 
-0.02362194659325281 
-0.3916106818429448 
0.5137003936923062 
0.006463006037395218 
0.04755971589369208 
0.2571018074656199 
0.02234578714151481 
0 
-0.06185100800776054 
0.2924109557840794 
-0.0224754235968723 
0 
0.2735888953526783 
0.2230057165594349 
-0.002881685653913875 
0.2010314385300419 
0.2150179896420763 
1.207663419876402 
0.5366612300706197 
0.2835819141916509 
0 
0.4169451914210496 
0.6276305910052222 
0.1255197179038466 
0.5763532321482162 
0 
0.02621665221942668 
0.07321983616079625 
0.01198589546379542 
0.1771714901340916 
0.24423384884668 
0.00131841331392373 
0.2596317541575955 
0.0940546427784119 
0.9551321797567129 
0.44564364827349 
0.6505552272366086 
0 
0.008766137676687444 
0.06166944513495914 
0 
0.005822708571940752 
0.0408215427416616 
0 
0 
0.153971791138085 
0.00505844025957666 
-0.007170882771260903 
0.002070766592483748 
0.002708436245378744 
0.4643745681333022 
-0.1501685535007951 
0.2475661852888241 
0 
0.1567711466117556 
0.05209390919481811 
0 
0.1394758949415066 
-0.008897077801201379 
0 
0.09600158971806357 
-0.1607155452881903 
0.3180150647397044 
0.1912806685905846 
0 
0.3139357591640033 
0.1259822721427216 
0 
0 
0.01087843486653698 
0.003460937596435662 
0.01910089792052879 
0.09661775271854499 
0.0001444946468149959 
0 
0 
0.1065409785169454 
0.3955312783158594 
0.01621998604675699 
-0.05387756971845863 
0.02209725315421891 
0.210204240022609 
0.3579214545513033 
0 
0.1132306560481642 
0.4319880390836176 
0.03519940324991917 
0.040029587580542 
0.007179118195723002 
0 
0.3104963048512923 
0.5485787997282465 
0.005473491988479629 
-0.3202125983129314 
0.4435852909254998 
0.03398262248687822 
-0.01023554770021698 
0 
0.1745812417991586 
0 
0.08741307463237663 
-0.03418438999406909 
0.03874939899903201 
0.06342644697734573 
-0.2660097488535505 
0.01197633038757079 
-0.003301926509541979 
0.1154132964478032 
0 
0 
0 
0.03146709599292293 
0.00742059692788712 
0.05643575058897519 
0.007339399118270556 
0.2342113463686414 
0 
-0.06353911740291858 
0.4056302352774137 
0 
0.04742207038815514 
-0.1272875908552298 
0.1745750141301149 
0.4666231991766931 
0.0690558573551484 
0.05009509739726072 
0 
0.3933617897895978 
0.004869102373462675 
-0.006593991652873103 
0 
0.3109066321777505 
0.4978760062050056 
0.4810596377310017 
-0.001435683155781018 
0.1844367191173424 
-0.1253026550800023 
0.2794795363443815 
0 
0 
0 
0.2415068754396879 
-0.01889540208740597 
0 
0.07432983217218531 
0.002710360743556476 
0 
0.2186252040125511 
-0.04262789587731646 
-0.0289484065646474 
0.5131447698183701 
0 
-0.03947428699371711 
0.01815272602225116 
0.1095544818738503 
0.1294718238431911 
0 
0.009779041710155078 
0.1344573117420441 
0.217578336925372 
0.02016680735192528 
-0.2155081326008404 
0.001232555605468217 
0 
0.05522961920768119 
0.03402619894835837 
-0.1542282712660065 
-0.003839895214781858 
0.5287313080364181 
0.01849532508961954 
0.4604098391392889 
0.01958061384733344 
0.4234993638430576 
0 
0 
0.7735066378064285 
-0.11864230220362 
0.2488133670351208 
0.4889882865260649 
0.08207071621998509 
0.193890608039606 
0.005194324643416749 
-0.1344150340999296 
0.008203134825788674 
0.07719431382628991 
0 
0 
0 
0.06867348065067985 
1.048615778422483 
0 
-0.3875827575276023 
-0.06279210468909023 
-0.3813601574698512 
0.04261209140097675 
0 
0.1774047530512381 
-0.04703142212983062 
0 
0.389373869641356 
0 
-0.1409313094510747 
0.5052583648281045 
0.2717904638572476 
-0.05995341363522916 
0 
0 
0 
0.2345439245966392 
0.6849288094017359 
0.256716074630809 
-0.2125831676224527 
0.03724628855203101 
0.9921895342120747 
0.2914700280254503 
0 
-0.02412568932749483 
0.1667660284249776 
0 
0.1235966673899351 
-0.04189678143686393 
0.2337030485731429 
0 
0 
0.05922140331333844 
0.316253276597851 
0.02226657166910829 
-0.2534565048232274 
0.1150811263073107 
-0.04433419849795302 
0.1495196492665708 
0.02010180804382274 
0.1361729220590909 
0 
0.9271598911675603 
-0.05672971203119752 
-0.1026198003144781 
0.07949569667309934 
0.0231415238957661 
-0.04293132285507418 
0 
-0.01527442189149652 
0.2439615204079552 
0 
0.3883846087692999 
0.02635391122809965 
0 
-0.006016628881530622 
0.06484392541774883 
0.2510204216856875 
0.06118607744198902 
0.023329250636957 
0 
-0.1381627391407951 
0.2861122401120859 
0 
0 
0 
0.1952143766180874 
0.13377991235457 
0.06355650439890127 
-0.06170660839203698 
-0.02719872978901863 
0.5447956447300746 
0.006199793476289872 
0 
0 
-0.03194074663604476 
0 
0.182414725625219 
-0.02154524432723261 
0.02299276456099437 
0.01453755359298069 
0 
-0.01520533700530976 
0.3064253558199401 
0 
0.1439023373868585 
-0.09540462714671441 
0.04586465709365298 
-0.004923810246419325 
0.07782485168427766 
-0.03099677868691518 
0.06495990353539967 
-0.06638741530388582 
-0.07981007262409663 
-0.09460972314752017 
-0.07235031192982913 
0.07231535611626434 
0.01500762282425144 
0.2272374449346815 
0.7221461651878746 
-1.515360296026968 
0.03870517579741063 
0.0341249874755278 
0.3777583727683503 
0 
0.234482234682837 
0.203064653784208 
-0.04053848000918817 
0.3285150547203973 
-0.209422257815978 
0.1654162401001527 
0.5083456289459429 
0 
-0.02907896469354405 
0 
0 
-0.02344381563492681 
-0.1607457363024665 
-0.06428794124787424 
0.006089490520287824 
-0.05423997839795453 
0.1470943532254154 
0 
0.1895122573740169 
0.004238775322179512 
0.09174722083434177 
-0.03673413082467116 
0 
0.1709462555444692 
0 
-0.03443617139145605 
0.1330758555573741 
0 
0 
-0.1059235733676302 
0 
0.09250368534812092 
-0.1181527709667059 
0.1869079084643004 
0.003880353682220124 
0 
0.06370572505006489 
0.04977028910013709 
0 
-0.4773959442334287 
-0.04987740149482213 
0.1068474922188563 
0.06114354020950649 
0.206707649223889 
0.160814587227101 
0.09894655523934712 
0 
0.09197414626637959 
0.2660219118613111 
0 
0.02351474574249228 
0.008117433703134478 
-0.1561999066813417 
0.2552398629070782 
0.05283098165059119 
0.03103188648376637 
0 
-0.1972826802690244 
0.00802975165179173 
0.2604651934732372 
0.001811751100184461 
0.4575811245598919 
0.04495357715791079 
0 
0 
0.03904791925272415 
0.08645062586012271 
0 
0.04572095982847016 
0.149721831563972 
0.07460218898907198 
0.02301685818166677 
0.3819785383516743 
0.05769947411758441 
0.02584832092519033 
-0.1760618914669623 
0 
0.03756696567964304 
0 
0.1317434897145188 
0.007269222616101345 
0.3816792908599662 
0 
0.06750750585678704 
0.1304033161129336 
0.1025191289506667 
-0.1231939373179453 
0.6590559843435221 
0 
0.08704628816497258 
0.5726620619814033 
0.2604400558697373 
-0.1479650228933254 
0.03831780360879464 
0 
0.408790831439471 
0.02125620934857975 
-0.0009525320001752885 
-0.005474101499277192 
0.2055360813048219 
0 
0.08751887714702369 
0.4157260399990066 
0.02047120850220841 
0.01472677996995379 
-0.001156369828523345 
0.05973113920463203 
0 
0.192681261395493 
-0.09407408789261829 
0.02943876503078683 
0.5924651621247874 
0.05190475580196999 
0.03349723166423189 
0.02821572567858435 
0 
0 
0.05721636481862796 
0.2109224416576709 
0 
0.0196582125809103 
0.2658089993825468 
0 
-0.1105188806555305 
0.1086056653233749 
0.00144958076775016 
0.002138905900745832 
0.05237399797698489 
0.03978605056242471 
0.1036848365715015 
-0.3459364723065654 
0.01628769412478327 
-0.1736632728742901 
0.0140783131238914 
0.008202745400656911 
0.1734260501905698 
0.07300784553600884 
-0.0499459128588422 
0 
0.03934969932429604 
0.005908833407981437 
0.2240480395046624 
0.100598850777722 
-0.06659736100878627 
0 
-0.8092244533158063 
0 
0.001012142863353546 
0.05902973881186856 
0.005042744566309884 
0.2716321773728816 
0.3519096940757377 
0.04605565759342374 
0 
-0.07238543159316579 
0.2484698119957836 
0.0162732572145514 
0.4770539516081818 
-0.004402733962052983 
0.2178931013771588 
0 
0.03084877175100095 
0.02859914624129685 
0.07141439396427861 
0.03017177528570318 
0.008037817614081722 
0 
0.2086657330394133 
0.001166986432434725 
-0.04320338421499659 
0.2110431228682452 
0.001044903969225873 
0.00863545333303966 
0.0002794024690352515 
0 
0.2365313773830875 
0.5242871600481795 
0.02453482536195658 
0.02075879882861257 
0 
0 
0.001366017265679875 
0.07183156686146552 
0.5548640454023054 
0.00798060310271843 
0 
0.3769058650049233 
0 
0.01911687544913092 
0.4994066903152279 
0.01410937442089015 
0 
0.1258436056930519 
-0.170025780846767 
0.2339783344780835 
0.1681846246344034 
0.05930987489292737 
0.06639930315287002 
-0.08098188360966196 
0.1070639609034801 
0.006811740506519137 
0 
0.09065901029268159 
0.007372402117727865 
0.0659364075036767 
0.5676302246950681 
0 
-0.02617714742134364 
0 
0.02538990193646383 
0.5751279462022025 
0.007204075007842879 
-0.1249292064215057 
0.09544744876664306 
0 
0 
0.08644393225180645 
0.04566440266411249 
0.4021312920076534 
0.01185197744173364 
0.04030192634854123 
-0.0155200911278444 
-0.03210959640505341 
0.1206159700857659 
0.2124532175916854 
-0.02319176203059174 
-0.07854232408238195 
0.2765229240668613 
0.08459595429613179 
0.09653924626608512 
0.04163239449819445 
-0.2695371790350859 
-0.186863760942789 
0 
0.005163540501011558 
0.09715471484192742 
0 
0.09085416422330213 
0.0441354956884373 
-0.1666962026866052 
0.04334320845147262 
0.2086854997789085 
0.4930649493707859 
0.2241310353195645 
0.001515441483818297 
0.260571405312134 
0.04370863274987943 
0 
0.005599559869317303 
-0.005929434578277842 
0.09475979789755004 
0 
0.01063360287165696 
0 
2.123020543309284e-05 
0 
0 
-0.003861807250164326 
0.4289699057770591 
0.08555215693012505 
0.005491240459779939 
0.4928917429078885 
0.02245103626984373 
0 
0.1828688199459339 
1.140733316555154 
-0.06507157051743323 
0.01476369435968731 
0.02976643814484269 
0.105106036108865 
0.1423113728957165 
0 
0.3284828337236779 
0.1935502653611982 
-0.002773501336052972 
0.004628900190831427 
0.5307444205993054 
0.2841985635571964 
0.003277022074366504 
0 
0.2587759044524809 
0.08379486313422355 
0 
-0.07056240755840146 
-0.01355327246295399 
-0.09360294296771175 
-0.1224836273961031 
0.1267377087179981 
0.04961624843744503 
0.4347937357052247 
0 
0.1628356161067666 
0.01566800518243221 
0.004750646596148332 
0 
0.1520837024423776 
0.0548240799949525 
0.02756886399932237 
0 
0.01288054336998828 
0.003256690128738651 
-0.1096245163365903 
0 
0 
0.09458051925398829 
0.02821573908771566 
0.1379159891334568 
0 
0.01553488269313344 
0.3095219046352614 
0.1294742461495808 
0.06355905647412223 
0 
0.148795661957595 
0.09129194958404796 
0.03927583569408322 
-0.05649568546165062 
0.3250442220573609 
-0.4330854019460146 
0.09171210976352087 
0.002798079752755266 
-0.0909509777840242 
-0.2934951732912681 
0.08449094081775071 
0.06463577087544854 
0.09118269653160853 
0.07995705086489102 
0.5943277524381657 
0.02931285533856702 
0.02310923052522162 
0.06164020450851575 
0 
0.004027665985007486 
0 
0.01208218813695564 
0.264721718493269 
0.04549088202764592 
0.1946221755502421 
0 
0.1062067751486546 
0.00331623400298797 
0.1367091057029771 
0.04448844323998231 
0 
0.3936048708318144 
0.02712256024775797 
0 
0.07035105869264505 
0.04903132638779616 
-0.1460300072242235 
0 
0.09604621406007312 
0 
0 
0.02862499326365374 
-0.0310376832613582 
-0.06980627383303548 
0 
0.01934837338047573 
0.005046557391768504 
-0.4072937941626931 
-0.1970095803951442 
0.7626842600264905 
0.1563701304485948 
0.216095107975575 
0 
0 
0.493039432678904 
0.08744582563477939 
-0.02511325589437554 
0 
0.6894209606408879 
0.02884997415907645 
-0.8067177993237418 
0.05039615157578521 
0.1541231361188886 
0.1522618087282233 
0.1985081204919694 
-0.03015228838302024 
0 
0 
0.0867152599822875 
-0.005962648700066298 
-0.002645512997772732 
0 
0.2493369097989579 
0.1178195633485916 
0.08326126194711636 
0.07493940241872946 
0.03843775052825371 
0.4998637411202222 
0.1486845872766065 
0 
0.007007910517408789 
0.171562529137485 
0.06027041560479016 
0.04359449352668932 
0.1408443639119419 
0 
0 
-0.1890119021155904 
-0.03140409850948401 
0.06444574821040612 
-0.1316507569938641 
0.09452780817068701 
0.07555475919738197 
0.005972011760334756 
0.002194120111343257 
0 
0.05403092008153948 
0.4374133771834195 
-0.1429089458592054 
0.1640153666997052 
-0.04542827057489843 
0.300880751714135 
0.2181584049167286 
0.2054278764784159 
-0.2619020452026013 
0 
0.2681128916910868 
0.09136517565194761 
-0.004209480763023071 
0.1778982391911045 
0 
0.0196786063028629 
0.01145542866534524 
0.2442244314901627 
0.01747594316410893 
0.1527908711865769 
-0.002702584600036553 
0.03823986993607534 
0.05047526661343904 
0.0666245318068142 
0 
0.01441974218422482 
0.3169636641452419 
0.06995529647213601 
0 
0.03708573701104816 
0.298711795458856 
0.0176179443057129 
0 
0.1784130106907598 
0.1926398376360548 
0 
0.1718149545318861 
0.1839181173317344 
0 
0.006706652099185574 
0.04161171874629749 
0 
0 
0.04803566003685861 
0.05451894667183103 
0.4128132157245397 
0.07148832584920051 
0.006048838439779535 
0.001498079301653545 
0.2841486699825193 
0.05408770501030194 
0.1016215278236109 
0 
0 
-0.04412293870411495 
0.0004776575565054592 
0.00225917186418223 
0.04391710193472177 
0.07595976391459278 
0.002478973449603442 
0.06930701277145515 
0.06012594378726169 
-0.1564215863259559 
0 
-0.01507683550066924 
0.5563330192741115 
0 
0.03332034840755121 
0.3150560393422751 
-0.01939523281936115 
-0.005622220340112667 
0.7114504692073644 
-0.06822522184986937 
0.03687038980641665 
0.1284408347893149 
-0.1412066934350835 
0 
0.4784095673931 
0.08091818414822857 
0.2713527308469985 
0 
0.06594757911212686 
0 
0 
0 
0 
0.04955683444704959 
0 
0.347415330016855 
0.1009776534910529 
-0.002946014878433005 
0 
0.4419020505603253 
0.09320747116515417 
0 
0.1691186227059789 
0.2301728304593389 
0.04680741631167991 
0.1059076072845947 
0.008139298234378041 
-0.07166002877589789 
0 
0 
0.02663477715775322 
-0.04057068043379729 
0 
0.2938867079570425 
0.003233401734694153 
-0.0608978994896896 
-0.2433022877282316 
0.3572619757764603 
0.006261741839308062 
0 
0 
0 
0.09756933004255092 
-0.4146882169922336 
0.6906219594084574 
0 
0.01528985570591558 
1.126811397376076 
0 
0.1572666120999758 
0.8793487910295315 
0 
-0.1042282784602777 
0.02547945933522263 
0 
0 
0 
0 
0 
0 
0.2587360354201759 
0.1376239400382897 
-0.9153318809917477 
0.2971505320419016 
0 
0.005478901502429098 
0.1285371057464223 
-0.01412924814465906 
0.01374110347919543 
0.1983863127443582 
0.04157133120587077 
0.1535770031759208 
0.275657680492741 
0 
0.3632841987093116 
-0.01122788713436896 
0 
0.5473372722587717 
-0.4325423938489411 
0 
0.01774097132942942 
0 
0 
0.3831332755078469 
0 
0.01084393623247028 
0 
0.1900810758302514 
0 
0.1518460557165462 
0 
0 
-0.08484377195999465 
0.00134951258755452 
0.2577511452524426 
0.1826713373677546 
0.07214222248786908 
0.2466782397617819 
0 
-0.2623535653341471 
0 
0.1349729295979357 
-0.05555318422152119 
0.1184109966481887 
0.04941255408597528 
0 
0 
0 
0 
-0.04693812532804093 
0 
0.02262325306575872 
0 
0.8150893373968304 
0 
0 
0.2812347189041946 
0.172124645183267 
0.03108731544106424 
0.004396808409904132 
0.007513033679544232 
-0.06441162135496789 
0.03362903686259845 
0.152175257886545 
0.126556525220084 
0.111661808197038 
0.0005330136838612667 
0.06048838855853557 
0.006893271861677933 
0.05423366378306273 
0.07248368089032513 
0.08063750085497305 
0.05338834319738301 
-0.6473220304526424 
0.08160176705037608 
-0.1079530696292351 
0 
0.1955900162783492 
0.4131378304656901 
0 
0.1064369865604978 
0.06080941623162589 
0.02422260165033339 
0.5058132623887659 
0 
0 
0.03886719413855785 
0.05336556441636763 
0.04432440347530248 
-0.429442842594875 
0.004890399758535944 
0 
-0.1972239951876427 
0 
0.03648127360853044 
0 
0.03156236139967968 
0.1440485046511448 
-0.004743416062975448 
0.09415964883838429 
-0.243009111027236 
0.295564391260104 
0.03952866122205571 
0.09499072127474452 
0.1524881714380087 
0 
0.00764100497320795 
0.02015877506839593 
0.05787760116429466 
0.1836662406135764 
0.4349188718694501 
0.02671221690455396 
0 
0 
0.004333661985870168 
0 
-0.6082600995617063 
-0.6187852670677595 
0 
-0.02509160595960471 
0.03259242692224465 
0 
-0.01155240749572906 
0.002700196855121993 
0 
-0.003337239444207417 
0.6902071800674543 
-0.1996940265820281 
-0.05435693511601804 
0 
0.1164295857353193 
0.5119218694044614 
0 
0.5936748827557531 
0.02511524639273266 
0 
0 
0 
0 
0.4889911211856887 
0 
-0.6287182110015015 
0.04841097176125362 
0.003034850349734965 
0.03636937259122625 
0 
-0.3008430461801477 
0 
0.7666004090985195 
0 
-0.01409421996847631 
0.2593213509377824 
0.1019040895409779 
0.008238593211306277 
0.0529151006678196 
0.005127388661842223 
0.09056202537141485 
-0.04383241141774868 
0.2364001255994644 
-0.325948426625037 
0.3882461250741876 
0.04167309783896821 
0 
0.2938594774357919 
0.05004907597672984 
0 
0.001731903587379833 
0 
0.5669284234896795 
0.01534885853969782 
0.1261359754181034 
0.5545417656071775 
0.03340134407243071 
0.3376572451301513 
0.1973968374621033 
0 
0.1058801456719185 
-0.01645536784929023 
-0.1555966584010532 
0.1015890625260054 
0.004445130167418537 
0.2848664392090305 
0.3877062603736923 
-0.008475701411206722 
-1.211699396080238 
0.5764534052166488 
0 
0.009196508658514038 
0.5630140936544585 
0.4306074882845584 
0.748186414979215 
0.03189118064741427 
0.06044008727143591 
-0.0274787169703507 
0.0993284246343502 
0.02530241604269156 
-0.03769409778528468 
0.1937932165215214 
0.0750149815458202 
0.01124621108853869 
0.1091964342042971 
-0.005269226308322049 
0.1238281691214208 
-0.01235905379372039 
0.02984553323251171 
0 
0.007387159509120461 
0.4628051196285771 
0.4242736964185497 
0 
0 
0.05782388153765936 
-0.4693213251923871 
0.04647833838977955 
0.4232462472524496 
-0.02774554893381723 
0.164668087637274 
0 
0.006348330265750911 
0 
0 
0 
0.0267495277696822 
-0.1404948873126126 
0.159988138858417 
0.009106501004437082 
-0.06660520098385918 
0.1319519593828909 
0.004487893843288395 
0.01530115682959653 
0.005906877140342872 
0.3133118554788585 
0.1430106108243874 
0.02886456588889823 
0.166149932932727 
0.7276647973843329 
0.3508430282745476 
0.001825275127085011 
0 
0 
0 
0 
0.004478686236677693 
-0.06621421248010015 
0.1974823341394976 
0.008034891821963167 
0 
-0.06829276170586424 
0 
0.2063351281549012 
0 
0.1142226989373577 
0.5004217347298524 
0.07230337753325145 
0 
0.1358946910685706 
-0.5450152379708979 
0.04915459490764178 
-0.04767133750683641 
0.03259863249033953 
0.2142484506678815 
0.1928498278841737 
0.1270109488865132 
-0.005402721298669887 
0.00156879792987874 
0.2125369158224501 
0.01031558834179275 
-0.02272782085493382 
0.07377541636313292 
0 
0.02641946174996807 
0 
0 
0 
-0.01384228893621136 
0 
0 
-0.01987697405959277 
0.004942439477606715 
0.02252779567192317 
0 
0.3534321885739997 
0.1766170274366282 
-0.3016159905417286 
0.04042445575853412 
0 
0.001791663073584859 
0.005589564421382553 
0.1271587552515583 
0.02817989274735991 
0.2889261972181184 
0.1823101470768111 
0 
0.154111107016904 
0.6811301268375211 
0.1563364880869978 
0.05908324957110021 
0.1587015275418107 
0 
0.0331347816585429 
0.3643907859064786 
-0.2335259134198955 
0 
0.3498667562454704 
0.06180387414636029 
0.6602685984527522 
0.07059438120632695 
0.2043656132852478 
0.1182212500125762 
0.4229167579925753 
0.3390355345069332 
0 
-0.02494707036614629 
0.01173184451620008 
0.04131800702386682 
0 
0.04228656177378403 
0.0009526965512958636 
0 
0.07340363838770558 
0 
0 
0.007420218752686016 
-0.005166631516236501 
0.06642878768932511 
0.2069552625479872 
0 
0.01625002733977142 
0.09962515090851266 
0 
-0.3935764298721992 
0 
-0.241954001087983 
0 
0 
0 
-0.01534537304843815 
0 
0.0495085012105117 
0 
0.003635828207014571 
0.1510120072166502 
0 
0 
0.01185559424457991 
0.0139419142596365 
-0.003782344685179333 
-0.004764466372895336 
-0.0007456704291515341 
0 
0.001535080345444311 
0.1165992445834355 
0 
0 
0.156923148154793 
0.5561327482575764 
0 
0.1720907096196301 
-0.05511219596850175 
0.3747198953572611 
0.002803594717556041 
0.358874064328659 
0.3764278352159784 
0.3923123012875488 
0.1381724308362567 
0 
0.2518100586886116 
0 
0.002020987720873001 
0 
0.05968308395511025 
1.021498545451758 
-0.1111844324707946 
0.5028561697483274 
-0.01813096615231812 
0 
0.3988746186004352 
0 
0.00897544058751704 
0.01001661145022143 
0.01798217244457616 
-0.01088113618104831 
0.1428068982817467 
-0.1494766393032364 
0.05722420379698905 
0.01440583285140653 
0.1648271880359997 
-0.006654532120877478 
0.1047505452555473 
0.6304275727747872 
0.5842585027467291 
0.2723616761294461 
0.004279273736232404 
0.01381631001732207 
0 
0.9928177485177082 
0.0615132960683473 
0.04108816174769016 
0 
-0.01136671102414568 
-0.009717537420969438 
0 
0 
0 
0.5107892804787809 
-0.4899149263598936 
0.04757643078634157 
0 
-0.02361376379429106 
0.005311107367249362 
0.1823528339681054 
0.02000467076612103 
-0.0737172944793847 
0.0462602400815505 
0.01867167369854805 
0.1439327370815885 
0 
0.005247400391102342 
0.4041884531019946 
0.08762233873495529 
-0.4786641587474942 
0.2834064618642591 
0.2604432670815199 
0 
0 
0.6129979273712043 
0.05404335728822184 
-0.1469138290078157 
0.01132334405245706 
0.09913198710494477 
0.094673933161614 
0.03768445258130478 
0.001432868687788841 
-0.007852441385323157 
-0.03381724321047432 
0.3397547548734505 
-0.03819111463712099 
0.1553591714557827 
0.0843943039108879 
0 
0.03536115740011421 
0 
0.1427661899304303 
0.09077528325073998 
0.1257247837293853 
0.03856579977866679 
0 
-0.01562283448120174 
0.2175312070982579 
0.375631942446864 
0.07346464524379204 
0 
-0.02056387887193516 
0.02072292949060388 
0.005398079753338335 
0 
0.1711288963147781 
0.04132507105052792 
0.2210259679877244 
0 
0.004088500637797768 
0 
0.6122727903051119 
0.07224128112466846 
0.001033569883937041 
0.07317928797406849 
0 
0.05105199729469578 
0.06506138597706992 
0 
0.04186964831215916 
0.04905302032027307 
-0.06428204085283551 
0.06891619607680161 
0.03122660280686395 
0.006057877705096811 
0.02834290057473493 
0.2286843925107822 
0.0002222604619476792 
-0.7436666678337457 
-0.1207556178046478 
-0.06750000020221932 
0 
0 
0.008108093520715419 
0.5411626441326457 
0.0290548574493612 
0 
0.02342617703438976 
0.04876298018994678 
0 
0.3465587473431077 
0.1402905548177619 
0 
-0.06218997318889614 
0.2256929762392326 
0.1649626285299446 
0.1086097015284102 
0 
0 
0 
0 
0.3172184163529512 
0 
0.05818812944243542 
0 
-0.005225689270599987 
-0.009935572483222355 
0 
0.06185979416707225 
0.01340584982895864 
0 
0.5498014032218093 
-0.07008166239150532 
0 
0.004634887294480911 
0 
0.01615627017400902 
0 
0.2838804170752244 
0.2763988645155304 
0.1582754897979755 
0.03357931281278419 
0.6895881561611535 
0.103894118817663 
0.006538067558001513 
0 
0.4606026078800682 
0.1623129094295326 
0.06943182746222062 
0.001119739810432087 
0.6424950207458366 
0.1667321143652627 
-0.02526572120438727 
0.1048537103135745 
0 
-0.005242090206513353 
0.09356202777368978 
0.02818209138154759 
0.01419719138561981 
0 
0.09754262283462883 
0.003365477482496803 
0 
-0.0454825552355005 
0 
0 
-0.05217192100551944 
0 
-0.02193230775133705 
0.1040802871880545 
-0.05604645880456394 
0.03077217676499599 
0.2715314750094996 
0.8342105959060897 
0.06201725859030627 
0.274174030883691 
0 
0.03630430394099862 
-0.4551331491190846 
-0.003803373068161905 
0.2711147411268052 
0 
0.2330325224358871 
0.2329360005700498 
0.7412989199966342 
0.5075459094979858 
0 
0.05463791768086809 
0 
0.2263375077713046 
-0.005502573954730599 
-0.01216685429231739 
0.04208709527632912 
0.05580145935712621 
0 
0 
0.03118748930980349 
0.329665239136257 
0 
0 
0.08700194464877854 
0.199908735088853 
0 
-0.0006326352907555319 
0.1358549528878391 
0.01900125200318956 
0.00125662049466912 
-0.06114142739478522 
0.1405603991444268 
0.1230434302173756 
0 
0.1454892949049741 
0 
0 
0.8424157157899571 
0.09314395038554941 
0.2922928653524931 
0 
0.06819080450776924 
0.02547502316542256 
0.004636751020606547 
0 
0.02975347855232438 
-0.05561001906287651 
0.01920815745812912 
0.1431046531300344 
0.708045587028736 
0.2652288696637482 
0.01532184870373244 
0 
-0.1330294559598949 
0 
0 
0 
0.2086442731947566 
0.1355308887457874 
0 
0.03322960972814966 
0.08940131481310096 
0 
0.3080752228133914 
-0.002451950938645423 
0.05824547790302388 
-0.0183854883606555 
0.5084017961232399 
0 
-0.005930441513849857 
0.05771162087072247 
0.009425477529629666 
0 
-1.043698869986034 
0.08930335390461232 
0.3310530185474942 
0.09084221342057336 
-0.05830664888435588 
0 
0.1417716804448118 
0 
0.1182638792651744 
0.1628485183993908 
0.0228825256746749 
0.5992153454516715 
0.01465623272524734 
0.008820496511147746 
0.2358388869594029 
0.8620220834984822 
0.03198495905145261 
-0.001957311056203415 
0.2863288172589494 
0 
0.1925184135258032 
-0.8530963805117883 
0.09515810963294288 
0.006710892084052034 
0.3793349837700543 
0.05192959820616951 
0.09749346970534251 
0.4669015794157836 
0 
0.08343119888924283 
0.06056695275467126 
0 
0.243923524675224 
-0.01986881510814727 
0.04591168183345747 
-0.003455093978987129 
0.3198560824395814 
0 
0 
0.3807259233733764 
0 
0 
0.008053093189661409 
0 
0.1686845774985824 
-0.09535735532460933 
0.006366187393098605 
0.168751326289362 
0.02454877205931565 
0.1561638702836807 
0.0723422445689587 
0.1690259348335017 
0 
0.07153892997886895 
0 
-5.444083695640631e-05 
-0.004408500573530913 
0 
0 
-0.04603873907172945 
-0.002416815232409027 
0 
0.004049053173802346 
0.00303543909788659 
0 
0.06548437962660095 
0 
0 
0 
0.02964183341737776 
-0.04849926867047215 
0 
0.03146870965788749 
0 
0.2514387487604172 
-0.03233124792874077 
0.08257369108499001 
0.1993388035090059 
-0.02112274511262625 
-0.05396939316119556 
0 
0 
0 
0.0571782016721122 
0 
0 
-0.00352383144012181 
0.02051597725439849 
-0.01512997312329685 
0.00269809626469964 
0 
0.2051306252781321 
0 
0 
0 
0 
0.0260463505780156 
0.3905045952353512 
0.3668313062295445 
0.04727024169172124 
0.0207188876272084 
0.115896149105322 
0.0785688407663747 
-0.01612143049376545 
0.2138512594367568 
0 
0 
0.02306212858627955 
0.04134868543638639 
0.4035716588581449 
0 
0.04718540165240022 
0.1383603084095884 
0 
0.07744648579489874 
0 
0.07051911588751844 
0 
0.06757898506820706 
-0.004467000261693586 
0.0345613580108623 
0 
0.03493169735897884 
0 
0.05138135171505688 
0.007925087911089639 
0.02977010404020199 
0.02717914074175272 
0.1533534362247175 
0.006677207081133585 
0 
0 
0.008608941748816299 
0.03680214898635727 
0.008969013964414419 
0.04435230106430304 
0.0338697607461115 
0.11207294009782 
0.00437455382516605 
0 
0.01031288752276946 
0.3211433165589729 
0.04565185490441993 
0.003742739302877405 
0 
0.02579212251925606 
0 
0.07909954540782513 
0.04303001707625678 
-0.02004471671988247 
0 
0.001786705387931645 
-0.06325655427156728 
0 
0.1483846991349242 
0.3311901487650434 
0 
0.003564290153404724 
0 
0.09007901297675572 
-0.009691990820375439 
0.08719040776137617 
-0.3874986467872835 
0.03348637013122845 
0.5699271104527571 
0 
0 
0 
0 
0.03346354335981564 
0 
0 
0.008143962847507829 
-0.009559982527915359 
0.0668534739291619 
0.0854763592095643 
0.1733021983562648 
0.0009931962747051213 
-0.01001479022750556 
0.2805582930809725 
0 
0 
0 
0.04081960367342255 
0 
0.3310780692758981 
0.0160654140378217 
0.06650387306359311 
0 
0 
0.2881222485278164 
0.4038459101671198 
-0.03973069319681067 
0.006401309613218414 
0.06614257360528202 
0.1506533421608678 
0 
0 
0.3120271238317968 
0 
-0.0148026753094113 
0 
0.05636533051120687 
0.4271724708200018 
0 
-0.02361827353533364 
-0.009065483076147846 
0.1620512876779475 
0 
0 
-0.1459612064416532 
0.006992773199951781 
0.002357927135364331 
0.02754683254497194 
0.05167333928931066 
0 
0.003151794406017211 
0.0838803218855171 
0.001682458244082497 
0.09237852995895554 
0.04474295870274236 
0.03189707988423864 
-0.2281834439129602 
0.1581882158530092 
0.4911889250821087 
0.03224744583429238 
0.3501679443097455 
0 
0 
0.02764689084050824 
0.01453617283877689 
0.9141616711300665 
0.09418334894614562 
0.1401112888507841 
0 
0 
0.05656819315699688 
0 
0 
-0.02085554368857598 
0 
0.1956800284661612 
0.131897820659108 
-0.09901548467546162 
0 
0 
0 
0.009604719175244648 
0.1245756662422018 
0.2405746780633603 
0.03726743054246084 
0.1316087151679496 
0.0816657510424918 
0.03338129693713666 
0.03035058587253775 
-0.005614999528068329 
-0.01603239283970335 
-0.02689002517413235 
0 
0 
0.1027117078302344 
0 
0.3751741221434396 
0.4949291263493583 
0.7665548653062495 
0.1348507719547283 
0.3005411733519661 
0.1757035437457984 
-0.01620120865186832 
0.1885800359649063 
0.2831671592302563 
0.01880293452321864 
0 
0.0003632771317880141 
0.1069720826773217 
0.05071550431538277 
0 
0.1464569908584615 
0.4938012899597624 
0 
0.5472781720313591 
-0.007168980407924535 
0 
0.04670501365366225 
0.4836405297180889 
0.2242499628131867 
0.2397617295056744 
0 
-0.1605567901497055 
0 
0 
0.04147085574825336 
-0.1540647440936069 
0.01873994742591269 
-0.001099174270701655 
0 
0.03085203966963873 
0.03772988717469584 
-0.02202420955139651 
0 
0.4397125196283325 
0.1661023002755242 
0.02009485495561631 
0.002120955375101384 
0.01800957474816097 
0.1993325282678238 
0.1343825815882364 
0 
0.2532060511869662 
0.03162888998721303 
0.1550649810873725 
0.2291605682848207 
0.001962407975286607 
0.4466327562633086 
0 
0 
0.04133037859379159 
0 
-0.01402087460921733 
0.00285390138713826 
0 
0 
0.02224512382043589 
-0.07251384754961424 
0.00602691165714532 
0.2549085367858977 
0 
0.001397162430466552 
0 
0 
0 
-0.5538389155777131 
0.6415612519137615 
0.04306218423405594 
0 
0 
0 
0.06432788180701665 
-0.03538124844075465 
0.03982942740745098 
0.4198481028967341 
0 
0.0448668475835545 
0 
-0.02033225036325032 
-0.1108659290029511 
-0.239756988801951 
0 
0.7830420074577892 
0 
0.005330817146405365 
0.03544582888362618 
0.3073142932165127 
0 
0.08547481332181817 
0.07615077742336571 
-0.03296228912567169 
0.002595208650495357 
0.02027339204649409 
0.05371771167388181 
0.02827283304550212 
0 
0.03424754837663203 
0.01441186829812334 
0 
0.0169339299255953 
0.01309911419018915 
-0.06310941975132253 
0.3536564773508474 
0 
0 
-0.2343931240839236 
0 
0.1229828330341987 
0 
0 
0.3929494188362786 
0.04493148404963316 
0.006358230160934677 
0 
0 
0 
0.01858881374351918 
-0.0289771631086989 
0.01222791814532365 
0 
0 
0 
0.02418063783743025 
0.305482162073474 
0.03537620411978773 
0 
0 
0.1099114438736695 
-0.002881615396992197 
0.000783692098469518 
0.224525137671942 
-0.1179593721994582 
0 
0.5599465415834211 
0.5821601578589437 
0.04951302825468815 
0.1168265864781608 
-0.03291112636070511 
0 
0.3712205450656034 
0 
0 
0.009421718033847233 
0 
0.003394101857172633 
0.2700134365732053 
0.06638208933225243 
0.006343953688261699 
0.5732179113959923 
0.02171302372954445 
0 
0.03789518172733677 
0 
0.149177239855919 
0.00685675401986582 
0 
0.008749229713687462 
0.01160225454515827 
0 
-0.009451616893429727 
0 
0.1090050478935744 
0.0053779968139231 
0.2301912010567921 
0.4501609857041551 
0 
0 
0.6424381162029467 
0 
0.05535703360985917 
-0.1349787931961959 
0.1307111537019194 
0.00310441695194535 
0 
-0.2399239651539623 
0 
0 
0.2067059712935549 
0.02114275533079513 
0.001024378626380344 
0 
-0.0134157067490783 
0 
-0.05818126031419272 
0 
0.3771394769615151 
0.323540137494419 
0.01179698065569617 
0.01749398385688019 
-0.00838908811285366 
0.001367096785278686 
0.2150025243024181 
0 
0 
0.233765359005998 
0.172502493336541 
0.001577134104822421 
0 
0.1493492574328108 
0 
0.1430172033633544 
0.01557042918133772 
0.2177978468711118 
0.05135773938960202 
0.006279129891416065 
0 
0 
0.1514455423654599 
0 
0.02472890820456372 
0.01711120390666744 
0 
0 
0 
0 
0 
0 
0.06776796537155451 
0.02725719273421489 
0 
-0.289584487224755 
-0.02477436038471129 
0.03340627522444423 
0 
0.02190242417126774 
0.06604296585742704 
0.3594253361611563 
-0.01791447404562603 
0.1003140315703148 
0.02857717084980053 
-0.07941433171471124 
0.05534873182066795 
0.2174529474334228 
0.01211644195023949 
-0.122533381471362 
0.02493248660410454 
0.02173122296419029 
0.09075529596863652 
0.179216153590451 
-0.05241908243073336 
0 
0.7253401594605644 
-0.06137659680458868 
0 
0.285070689390745 
-1.1166801330011 
0 
0.004792898059629765 
-0.004644208322121807 
0 
0.5996204218655982 
0.009847196860160581 
0.2626413941600042 
0 
0.05420934275664049 
0.3215874080142398 
0 
0 
0.144876840874909 
0.003852457590150821 
-0.1114996915969907 
0.3998251832071665 
0.1085337504939152 
0.2118944019527734 
0.06916149331121224 
0.4382903254310574 
0.2540395225712572 
0.3639433999851004 
-0.02326746289869703 
0 
0.6369280293172471 
0.01100561357703323 
0.02164925755490939 
0 
0.03470991164070292 
0.0651512085655879 
0.0952439490832747 
0.01001933607030189 
0.06583297127292514 
0.07303219395599973 
0.1233174072581011 
0 
0.4129959934137165 
0.01907721454901051 
0.03376142337302349 
0 
0.008837343362236823 
0.08254782799213937 
0.005351204180637991 
0 
0.4626122156357147 
0.01117062060693309 
0 
0 
0.05199094108277125 
-0.004844953487500619 
0.006226891875110049 
0 
0.1972792474872053 
0.9046142271960516 
0.04706449639108883 
0.07289073797175652 
0 
0.02538696072646228 
0.219712570755512 
-0.04196280123439858 
-0.01017797974368305 
-0.06098212971983424 
0 
0 
0.638168168512902 
0.009966573468208595 
-0.4164794783940375 
0.1595693389469149 
0 
0 
0.01183809337537933 
0 
-0.06190316844334044 
0 
0.01918752151129323 
0.03704181419589063 
0 
0 
0.04314289406500937 
0 
0 
-0.741043614452408 
0.6287777936847136 
0 
-0.03179098421370301 
0 
0.006480939158193625 
0.02574009209593177 
0.01892031097869582 
0.01397977141173124 
0 
0.03903372298181814 
0.09269154959069811 
0 
-0.1305861876787359 
-0.04581744562760789 
0.1236071587848794 
0.03072456095841059 
0 
0 
0 
0 
0.002704352045679157 
0.0004008882290136375 
-0.01499868280625374 
0.00048568599291889 
0.1606943169347934 
0.1122734245367084 
0.007517512148884973 
0 
0.03489149719607953 
0.04936444333179783 
0.06113260670245243 
0 
0.1035965540004904 
-0.00258987244661205 
0.03714895036069046 
0 
0.05411658601128784 
0.03806539546542516 
0.5490953942385776 
0 
0 
0.2426696829804527 
0 
0.3393519667462473 
0 
0 
0.05846458757349146 
-0.2554451579676288 
0.03401544376765765 
0.3270723384889613 
0 
-0.006061911907517394 
0 
0.003926570004317602 
0.006958771199881039 
0.0568180806535366 
0 
0 
0.04841080062652958 
0.6059587837275257 
-0.007558088018402962 
0.0828224837002888 
0.0001523831084276608 
0.157532216269275 
0 
-0.02102965909061188 
0 
0.06450644660639362 
0 
0 
-0.0412162798758799 
-0.04782525176007743 
0 
0 
0.1390098842003848 
0.06670478775130823 
0 
0 
0 
0.2701239456073544 
0.4848113163492567 
0.006381791535250874 
0 
0 
0.1494804570167488 
0.06790535531571734 
0 
0 
0 
0 
0.03870653889427471 
0 
0.01220585038535227 
0.00622783272236732 
0 
0.09257003364889174 
0.01782505007918735 
0.1818737676739018 
0 
0.2572229701982548 
0.2803258735965697 
0 
0.3191922151410785 
-0.02070811952448797 
0.04273703703348487 
0 
0.3593344663478878 
0.1875808314898842 
0 
0.05732977029665578 
0 
-0.002957976826475344 
0 
0.4729025870519596 
-1.140498863644956 
-0.2220877370755956 
0 
0 
0.02291219366579622 
-0.01073008981286542 
0.3181763594615825 
0 
0.01437848127749875 
0.2880748170388415 
0.1407302215357565 
0.004793049962805071 
0.3696702456473294 
0 
0 
-0.05259580621488431 
0.005192161530284588 
-0.2142631109921388 
0 
0.03861974672105909 
-0.002423303972597173 
0.05032595626766489 
0.4168066961858677 
0 
0.0078006319651157 
0 
0 
-0.02950903588596712 
0.02741922719302683 
-0.08910624003147465 
0 
0 
0 
0.1476557745624181 
0.01365392034744985 
0 
0 
0 
0.2258431394789415 
0.07602181543668739 
0.07228616876633351 
-0.05482927642307935 
-0.01766177978502549 
-0.04380028544774071 
-0.01749817182175267 
0.008365869185897098 
0.04770706415132077 
0 
0.2700330972761972 
-0.03705251042935527 
-0.01413885270840306 
0.382069272140871 
0.04645646562489095 
0.1746011336229945 
0.2284434737983194 
0 
0.1303981251213205 
0 
-0.03287928623518229 
0.4578850776969607 
0 
0.1173252277740786 
0 
0.02428881139171581 
0.007863429304163404 
0 
0.07520084952181322 
0.0242837486357371 
0.567199724244568 
0.04934665292600786 
0.001364178038446458 
0.08575855563413112 
0 
0 
0.02086246303063975 
0.0164200655253284 
-0.1265947354125481 
-0.212115608069662 
-0.1143535533051711 
-0.03981319678188251 
0 
0.006381301920744112 
0 
0.08957062259142307 
0.59109701400406 
0.3856605312146985 
0 
0.0898792027704902 
0.01784087822211781 
0.1088748424437173 
0.06783370393762736 
0 
0 
0.003227716566507736 
-0.01322213390717069 
0.08996211593697484 
0 
-0.1156683292578926 
0 
0.03599988554030211 
0 
0.02290549996335942 
0 
0 
-0.01889553088946627 
0 
0.5868919788937914 
0.1466784390642395 
0.2661330074750797 
0 
0.01650712400583607 
0.03249431881477443 
0.2037052117853822 
0.1581206645522778 
0.104721564458064 
0 
0 
-0.02943684670532623 
0.09940262823643138 
0.04215527046785057 
0.08039024228153452 
0.01100497278961988 
0.005334682875103527 
0.02950983137593954 
0 
0 
0 
0.07087997037747583 
-0.07282224729416512 
0.202512503324502 
0.07398266308541299 
0.08694425174820999 
0 
0.1305465509394856 
0.1332575191453337 
0.1229208700485482 
-0.00141912785048528 
0.0101846442925013 
0.2448464039235922 
0.09156117103237227 
0 
0.02863196522390885 
0.02770300417998242 
0.0282352733875603 
0.01778658766467809 
0.01574419985129331 
-0.02762605519594651 
0.007930390074121723 
-2.233737000595927 
0 
0 
0.1296929302329735 
-0.002660557267183637 
0.1456587616191125 
0.04619372279406839 
0.06914745832055648 
0.01366369412964379 
0 
0.0014394402316329 
-0.2238241001838044 
0.09368093269505277 
-0.04652476656733876 
0.0109726840903372 
0 
0.01903697976549507 
0.006992752562668302 
0 
0 
0.1187167731973683 
0 
0.02174390922602636 
0.225361243850005 
0.3807747812265553 
0.01620684669533578 
0 
0 
0 
0.1325558724761927 
0.03184234680713122 
-0.003944089590016766 
0 
0 
0.09713138935477116 
0 
-0.1369820355131601 
-0.03984860217438418 
0 
0 
-2.724059152993988 
0.0701019075560628 
0.03673212017578693 
0.06244977469201969 
0.07575295902404959 
0 
0.1003580643800454 
0.01202023636046115 
-0.0126033307813491 
0 
0.1167742579992528 
7.997123293312666e-05 
0 
0 
0 
0 
0.03817299592140046 
0.05134658522334895 
-0.2245886986321065 
0.03391470221067985 
0 
0.0003186407674985313 
0.03994578649468863 
0.04453205353258607 
0 
0.08223590982704994 
-0.1620077058910594 
0.02441831364103029 
0 
0 
0.07008828799122417 
-0.08560539652417795 
0.1366310230594847 
0.1727818118879312 
-0.07560860437439532 
0.104422832094237 
0.3098969810439856 
0 
0.05189939507208269 
0.1787565471444906 
0.2860447223113444 
0.05055786111248051 
0 
0.1335593259790519 
0.04695261029503022 
0.0407103644871431 
0 
0.008788435402644686 
0.01244639247253205 
-0.1820309483576575 
-0.100678091484794 
-0.04921748373297929 
0.02559097264747417 
-0.1781775359841212 
0.3066193071518299 
0 
0.006087851962562867 
0 
0.198101117007866 
-0.08045699437125188 
0 
3.835506801259797e-06 
0 
0.04751451915801444 
0 
0.006211886768922955 
0.0009468957895832512 
0 
0.008468275169947463 
0 
-0.6646276230274257 
0.06358274838622255 
-0.03212805212004017 
0.09552779193066892 
0.002537442859739517 
0 
0 
0.2203371881471872 
-1.235180330006216 
0 
-0.02800973506985277 
0 
0.2642541837107021 
0.006209656590869653 
0.01231855694623928 
0 
0 
0 
0.001382403698006566 
0.5566425116239075 
0.09306643961593145 
0 
-0.01152486361276322 
0 
0 
0 
0 
0.1266527020595392 
0.263521847479963 
0.1621825375708672 
0 
0.178630620804034 
-0.03316526200435109 
0.0249919014249859 
0.1372087023003324 
0.0008344498558748234 
0.07049710923630244 
-0.01259665970438161 
0.03556352987127647 
-0.02097320533487916 
0.003488844581203998 
0.09286722198901462 
0.01327706507909952 
0 
0.1090489102414236 
0 
0.3209012641453669 
0 
0.3602177978447474 
0.07321897816663656 
0.3385294381516457 
0 
-0.6231004874426851 
0 
0 
0 
0.3662596564407097 
0.08638725288752024 
0 
-0.03434839155198455 
0.1040964164995293 
0 
0 
0 
0.01906074346217156 
-0.2634696699522816 
0.004498178234535853 
0.1888885772177192 
0.08895533411330547 
0.140929312824035 
0.2682347424308086 
0 
0 
0.0441239952302917 
0.03171232632065105 
0.3150706629344045 
0.02746272272388497 
0.01941793494193942 
0.1024054548060398 
-0.1214723441006118 
0.2773999228421889 
0 
0 
0 
0.112521797642623 
0.07955392447480872 
0 
0.07315172627389543 
0.2160045357396187 
0.0688607093563534 
0.2283366583572303 
0 
0.2702092068111112 
0.007307353080062436 
0 
0.03148974733584653 
-0.02111447117267332 
0 
0 
0.05346824966476796 
0 
0.05344295563529759 
0.002226006505159345 
-0.01244954412745619 
0 
0 
0.01041121029855764 
0.02555739603732081 
0.02979538119055576 
0.4015901611307383 
0.03011916144203367 
0 
0 
0.0137391075339167 
0.2826484528180783 
0 
0.1064508958708505 
0 
0.00731534102970159 
-0.005270001796184299 
0 
0 
0 
0.004046959595355865 
0.01390128810684457 
-0.08747113243544517 
-0.01522138929686052 
0.1875421391966557 
0 
-0.02566992549641915 
0.07124417322745634 
-0.2327444710764643 
0.04903308308544541 
0.05660048833784934 
0 
0 
0 
0 
0 
0.008507246107028903 
0 
0.2029437090265078 
0.2321696217376523 
-0.02483718485409425 
0 
0 
0.2270035755776802 
0 
0 
0 
-0.03655585645482919 
0.04966100126284237 
0.155403007340015 
0 
0.03433042466569351 
0.002359079758992389 
0 
-0.008831184992604282 
-0.001158536789235921 
0 
0 
0 
0.1487341895839357 
-0.03405834579188008 
0 
0.2586011708266479 
0.03573955164721285 
0.01014366724880878 
-0.01385377121534891 
0.006295627895391205 
0.110952414500577 
0.00526624942262163 
-0.01805132503058539 
0.2247822876544574 
0 
0 
0.2925211944766067 
0.0915219545236548 
0 
0.3630501543969417 
-0.04417865789196787 
0.02345444729830943 
0.0009002117814032902 
0.001814997753266173 
0 
0 
0.3265528758580147 
0 
0 
0.007067881484499683 
0 
0.04362035791971142 
0.06608593452510102 
0.003418201210251121 
0.01467500094654573 
0.8304820694952586 
0 
0 
0.01933350983458561 
0.01660784353400158 
0.04062890939509617 
0 
0 
0.07201948396813142 
0.09213953378319803 
0 
0 
0.02586842456326085 
0.09087053210136216 
0.04896251861576369 
0 
-0.03548951596344281 
0.0625026806116436 
0.1933362040873033 
-0.02292167559302806 
0 
0.005934564274786711 
0.05910498871427274 
-0.04232488462043368 
0 
0 
0.006170559233841747 
0.02212632095978989 
0.03852306526211498 
0 
0 
0 
-0.01089986193536373 
0 
0.288725687505782 
0.4701139232012875 
0.04379523408011585 
0.176008343259717 
0 
0.07558413660997426 
0 
0 
0 
0 
0 
0 
0 
-0.0106769056689836 
0.0492552824737062 
0.08450202736490008 
0.008343668231295608 
0 
0.02117743141572875 
0 
0 
0.09114208151220496 
0.1766318916102369 
0 
0 
0.0506237494395834 
0.2883079061804061 
-0.2699700222821377 
0 
0.1211436308675044 
0.04541144525482683 
0 
0 
0 
0.4824579615601142 
0.01153642432517023 
0.004490356883841965 
0.1650236708042825 
0 
0 
0 
0 
0 
0 
0.08309852367149066 
-0.005592140219737011 
0.09879805015292061 
0.1091489675261187 
0.3674949942408476 
0 
0.01033319760979261 
0.01982871014223946 
-0.01891403295523961 
0 
0.1066267270888376 
0 
-0.02734087893771901 
-0.001730470519756735 
0.4125474756195042 
0.03632818934127276 
0.01734773089997539 
-0.02318182069960262 
0 
0 
-0.09655279433229946 
0 
-0.07989727671248288 
-0.04318523727838626 
-0.004495700030709322 
0 
0.04028621154367253 
-0.3085616641025916 
-0.01377245233907982 
0.3780187796126899 
0.005787204020655033 
0.01423790892807567 
0.01063733120938728 
0.2647164571470768 
0 
0.08046854048715905 
0.4031704823594316 
0.005410995768608251 
0.5129827181468689 
0.01347099139406173 
0 
0 
0.627964530444076 
0 
0.02673266322344909 
0.05000312254384 
0 
0 
0.01780521682002455 
0.1570168090907954 
0.03550211291781735 
0 
0.03735809542728111 
-0.01379830729813659 
-0.02437870273934163 
0 
0.2666723829204469 
0 
0.017256051074468 
0.1237808659777897 
0 
0.04038265710260178 
0 
0.02190520299944887 
0.001497229618106754 
0 
0.04142515818830771 
-0.1176443569196548 
0 
0.01168059474090892 
0.006741910011044194 
-0.02382819797778326 
0.04215046913531596 
0.007013453015859116 
0.3156185875448684 
0.144020278295725 
0.426259659667436 
0.6904868302197001 
-0.04226259784717167 
0.1913089617006506 
0 
0.600456652203008 
0.07023786867671662 
0 
0.3160798677704517 
0 
0.2664796628947927 
0 
0.002441722081890527 
0.3683364423059314 
0.1002553704213072 
0 
0 
0 
0.004880840785442953 
-0.002047720066721109 
0.04500744728438296 
0.405392620464276 
0.04506578381827134 
0.005297473354265361 
0 
0.3998544825284577 
0 
0 
0.069289902797978 
0 
-0.02450957674627834 
0 
-0.1026401157395807 
0 
0.08024579367065546 
0 
0.06567568858164125 
0 
0.1636734883222723 
0.2026192876274269 
0.1071836724475503 
0.07409004634352739 
0 
0 
0 
0 
0 
0 
0.001999261293843646 
-0.1430999748776579 
-0.007373658113329298 
0.02318464916995211 
0 
0 
0.05307556177857079 
-0.1409185549114631 
0.09628969754190739 
0.0009052011022646408 
0.008389224905536549 
0 
0.09426465844605221 
0.006107003468214506 
0 
0.3180206274072839 
0.10439930590695 
0 
0.04292983608241751 
0.02156709819651736 
-0.02556531314895584 
0 
0.1807245640199787 
0 
0.2646760224384475 
-0.007929858858418392 
0 
0 
0 
0 
0 
0.02249914908474176 
0.06457931571927655 
0 
0.7819802959626246 
0 
0.1312363947226047 
-0.01545099343104979 
0 
0.06860795387331509 
0 
0 
0.0004926334752369285 
0.176604478485785 
0 
0 
0 
-0.2600991436176962 
0 
-0.04623726145460121 
0 
0.1758854494232353 
0.3283172039173389 
0 
0 
0 
0.01679382830312285 
0.05971550271719968 
0.03192422664504472 
0 
0.03365452868211621 
0.006932803715595966 
0.4750837122920915 
-0.05768605383782014 
0.07955567639415562 
0 
-0.000311487808312326 
-0.0822835870623367 
0 
0 
0.06724800177279702 
0 
0.02312705182301032 
0 
0.01474027505106773 
0.009069453778315584 
0.4177207160601224 
0 
0.4285752592810954 
0 
0 
0 
-0.003431296434610079 
0 
0 
0 
0.03939063067854018 
0 
0.00110649947461111 
-0.04048252802277105 
0.4216177301214424 
0 
0 
0.1196753991470105 
0 
0.1991441950593799 
0.0634145219845386 
0 
0 
0 
0 
0.6101105737100343 
-0.0230971735756989 
0.01731405638668802 
-0.09478788970453129 
0.1193280462230971 
0.1401852513106791 
0.02283454209894242 
-0.03579294572751723 
0.1259302521248641 
0 
0 
0.04238743857624955 
0.01708751263443796 
0 
0 
0.2445629604797253 
0.2553345173605305 
0.06737996367192316 
0.2193098323310546 
0.02591259663481276 
0.2038065373241461 
-0.2165867221277464 
0.216251018367134 
0.03066204506049984 
0.7452796459584162 
-0.01405170166582399 
2.253427113789047e-05 
0 
0.0483264229286211 
0.03634963073307851 
0.0408257767420067 
-0.2488954586613334 
0 
-0.3577335414191541 
0.001636544830094331 
0 
0.0115027602097933 
0 
0 
0.007099778677534259 
0.1183221006322324 
-0.05551780995148835 
0.08991580476699212 
0 
-0.55584350040177 
0.03219408915229183 
0 
0 
0.01090032195790376 
0.04319250537229495 
0.1068334472841485 
0 
0.02144826605974298 
0.003020187410868506 
0.003235501370035701 
0 
0 
0.1892136341195188 
0 
0 
0.3772733164633575 
0.2888543239863724 
0 
0 
0.4067739876672624 
0.2540151551100733 
0 
0.1016591858656648 
0 
-0.01728697160905268 
-0.0295051671219279 
-0.0004399242812295418 
0.03391752017701861 
0.3314173726160252 
0 
0.03766907191346743 
0.01229054627289678 
-0.00124088137274962 
0.06567807831570194 
0.1405602335340654 
-0.705856007882104 
0.1977783149556096 
0.005649658759235394 
-0.1151619744591812 
0.03178641210115443 
-0.05628612339445129 
0.005214481076473293 
0.1874527731860847 
0 
0.006738633067393815 
0 
0.05742110577204302 
0.04245155084279842 
0.03043444306915054 
0.6332557872234896 
0 
0 
0 
0.01399926192653725 
0 
0.2187270983970269 
0.007774738956864409 
0.4182632391924695 
0 
0 
0.01749182760532574 
0.1290519485094789 
0.1824199851666164 
0.002836748063109696 
-0.1417551375212019 
0.4133895845419189 
0 
0.166997792154322 
0 
0 
0 
0.01456423466237705 
0.1675840507771377 
0.3227332674795217 
-0.004970115504544955 
0.04432266356445588 
0.358376461847946 
0.0224386325138752 
0.04327602975522231 
0.2860339870453126 
0.1990122950371175 
0.1654568270177914 
0 
0 
0.06578525076265525 
0 
-0.03835486412836116 
0 
0 
0.02762533004175498 
0 
0.2146859435704436 
0 
0.1817739485953688 
0.06897104182982494 
0 
0.1817739485953688 
0 
0.007310318850254895 
0.04557974117631776 
0.004163865787111424 
0 
0 
0.003782568556020325 
0.02840287339179883 
0 
0.02113553614684827 
-0.05707506642940514 
0.03046748902984739 
0 
0.3247253619283175 
0 
0 
0.04420118139529529 
0 
0 
0.01167862168234633 
-0.05403197280006593 
0.3998692321659684 
0.2722599211611715 
0.09943341461059127 
-0.02962713453765967 
0.03846632278601842 
0.007266775922967953 
0.005569161878145231 
-0.04472599701087496 
0 
0.08857843910551157 
0.1569247489622871 
0 
0.1581286583953488 
-0.03194474366993931 
0.2872547892059842 
0 
0.001946679920586278 
0 
0.1017855361607496 
0 
0 
0 
0.1416684298783792 
-0.01624551082255339 
0.5903079273876323 
0.001519532796642577 
0 
0.06893044408755433 
0.02010652854736227 
0.0157181419523407 
0 
0 
-0.05836535335374761 
0.02171682030414724 
0.1000750676597123 
-0.3241126366460326 
0.01316119593234329 
0 
0.4509288662344429 
0.006654029585382218 
0.0484344437688423 
0.001622908781701502 
0.02157825804334459 
0.09546507143491997 
0.03293848724543944 
0.08901100082460499 
0.003034042900555506 
0 
0 
0 
0.1326791400101791 
0 
0 
-0.01765009816079431 
0.009505267165291631 
0 
0.1804464605353529 
0.01555856918712033 
0 
0 
0 
-0.05958438565489588 
0.08563813719706637 
-0.1123193398760941 
-0.05340762902680808 
0 
0 
0 
0.1292247949604989 
0.01600086967008715 
0.03765523193128986 
0.01748102754569022 
0 
0 
0.4011435739458913 
0.3071716499122241 
-0.03552518603874229 
0.04747861440743974 
0 
0 
0 
0.00778084459175606 
0 
0.02170046921234991 
-0.2174430527378738 
0.006637354401325323 
-0.0123949295522445 
0.03188134801601681 
0.3124893378890513 
0.1382890960453101 
0 
-0.01315321689553864 
0 
-0.07660157869645004 
0.02623847143027676 
0 
0.2308415342899546 
0.05958892994363991 
0.2492851060914036 
0 
-0.009918156974530756 
0 
0.00518525855879142 
-0.08127203894644053 
0.1913721742386701 
0.01345461939107702 
0 
0 
0 
0.07041676920662042 
0 
0 
0.007229370600858971 
0.4279885613497553 
0 
0.3399828921656234 
0.002207146327005173 
0 
0 
0 
0 
0 
0.001541520947258736 
0 
0.07370374679016913 
0 
0 
0.001786825044497014 
-0.01868578956624212 
0.03907218625831434 
0.07307963908878733 
0.0195212344144818 
0.7506454226020713 
0 
0.2073339939746512 
0 
0.1290089999794067 
0.1313643845586244 
0 
0.02199130468862292 
0 
0.3024098388870574 
-0.05243886769496273 
0 
0.1508193901719322 
0.01546236743849456 
0 
0 
0.04045294640994447 
0.2651504778949994 
0 
0 
-0.05587777782131446 
0.0192216101199856 
0.005007260142377578 
0 
0 
0.06387145448288101 
0 
0 
0 
0 
0 
0.06005357069132158 
0.0605364484447099 
0.08588351361821071 
0.1250530705573275 
0.04680037614756914 
-0.1030451546714557 
0.008493753412819624 
-0.02038025656150392 
0 
0 
0 
0 
0 
0.05841746291789398 
0.01346553712943083 
0.01187532129049744 
0 
0 
0.006197261448047388 
0 
0 
0 
0.05484073737841499 
0 
0 
0.05813957377630916 
0 
-0.07872483452533399 
0.09133341191769109 
0.03095119515232575 
0 
0.05166879664529549 
0.04216786764814037 
0 
-0.003657928026494371 
0.1382984549614072 
0 
0.1594541583476515 
0 
0.2776744799874352 
0.1100045947744071 
0 
0 
0.05308432162837144 
0.02431898907494312 
0.7270765858165767 
0.3271030253187139 
0 
0 
0 
-0.006311190214687724 
0.02300822820360663 
0.03109965408131228 
0.01295392088582343 
0 
0.1550023419290352 
0 
0.06738816642070822 
0 
0 
0 
0.04020699277568112 
0 
0.005878745654461281 
0.04204184199528625 
-0.9726503636601801 
-0.01414216496243837 
0 
0 
0.00898040751491444 
0.02566492866549418 
0 
0 
0.6383910170222731 
0.02703942400903292 
0.02133194840779145 
0.00192497173581616 
0.0249988644049086 
0.04561748850149407 
0 
0 
0 
0.01324493623885236 
0.01810006443154055 
-0.006521424413959753 
0 
0.008581220668653024 
0.05618511933392648 
0.1925536645753057 
0 
0.3362095491414653 
0 
0.1440849745944682 
0.0163742310240216 
0.3927028469459043 
-0.04324407051189821 
-0.03108252088863361 
0.07107133144648917 
0 
0 
0 
0 
0 
0 
0 
0 
0.09720553053312064 
0.05367115885836156 
0.04378601947394355 
0.03294855346539746 
0 
0.2366457858912365 
0 
-0.8992790374072774 
-0.008981425339231365 
0 
0.01558736380319998 
0 
-0.03543887222837791 
0.1765928135960477 
-0.3333899351872052 
0.04016258086260186 
0.00706163116976617 
0 
0 
0.02339126677691997 
0.1725476209336452 
-0.2035142740871431 
0 
0 
0.005474881378801518 
0.03876175161696867 
0.04905706688197691 
0.04869852352546959 
0 
0 
0 
0.0828299984927332 
0.2101184976022491 
0.2081104474849621 
0 
0.08367273742936869 
0 
0 
0.1147930802843146 
0.03136268755517507 
0.03093693440821449 
0.02234277906232271 
0 
0.04949892909254819 
0 
0.010017185227241 
0.04756748120314088 
0 
-0.1003008096257495 
0.2603905292687638 
-0.007752489912723329 
0 
0.07094933543218356 
0.003744285062121864 
0.002119995413163594 
0.2142969690172521 
-0.006142536926631865 
0 
0.1268736414003427 
0.2217316867842131 
0.0197183779832608 
0 
0 
0.009991391736424805 
0.00376422001255139 
0.1045451815182311 
0 
0.007807264568421192 
0.1276961684105826 
0.003573182515140272 
0 
0.02087907126443572 
0.06249817611076943 
0.9521282908332145 
0 
-0.04570502328651126 
0 
0.006581588584597644 
0.02482868556668508 
-0.04422129299187443 
0.003328155448221291 
0 
-0.4777436168197016 
0 
0.02962734472287102 
0.006461550159245769 
0.05596688934155546 
0 
0.06424584167289681 
0.03422981797742732 
0.06106131071192691 
0.2135702512524983 
0 
0.02337688027680219 
0.00254215691878565 
0.2386450505067852 
0 
0 
-0.07261864880859592 
0 
0.02465699429689749 
0 
0.7091250241648408 
0 
0 
0.4997089789429627 
0.001971152182390021 
0.01943178481034667 
0.07864388132448469 
0.7185054233649104 
0 
0.003233400638796732 
0 
0 
0.07106205588518186 
0.0711911171392399 
0.2515523449979018 
0 
0.08300835208037201 
0.1786407315146981 
0.00597430907454532 
0.0885841478961624 
-0.01709807669842268 
-0.01310856882491586 
0 
0.3628684572552726 
0.002541919012106364 
0.2946388111059255 
0 
0.002352129092517682 
0.01024759458717424 
0 
0 
0 
-0.03648394373930954 
-0.3095678822437375 
0 
0.01746867932210969 
0.01457623934422658 
-0.0395340666201258 
0.006927897326960543 
0.01120219102671802 
0.002920484475907617 
0 
0.1407652004149781 
0.1613772697122438 
0.05774716816812293 
0.0005810495885352898 
0 
0 
0.029694348326612 
0 
0 
0 
0 
-0.07957254319394237 
-0.07911604038678309 
0 
-0.02974138110010739 
0.01127997009468847 
0.6202194285738977 
-0.0357325228774456 
0.009537549126024515 
0 
0.09627642891902728 
0.006798418040488264 
0 
0 
0.03990452428754886 
0 
0 
-0.02914082622827998 
0 
0 
0.3236917003083393 
0.2849808110288123 
0.0006055154741536874 
0.005506903909306259 
0 
0.4244702625713256 
0 
0 
0 
-0.05935979072680266 
0.09580252614382312 
0.03875782274321445 
0.07713601574660564 
0.008887399166654068 
0 
0.001183114050062858 
-0.6435732420755923 
0.00470696156537114 
0 
0.3784848327666671 
0.003503689818893616 
0.0508485398504086 
0 
0.01135285043806535 
0.1215921454841208 
0 
0 
0.02381234685430786 
0 
0.02335201747725868 
0.0929567775084511 
4.192140981833744e-06 
0.01149259109016046 
0.01557311107972445 
0 
-0.309971626351229 
0.1077933064558135 
0 
0.02480136022344276 
0.06823144272425151 
0.6980585563762822 
0.07958908597648863 
0 
0.1931987138434202 
-0.1191683572821992 
-0.1132331611213395 
0.02401393026478121 
0 
0.1867754934597978 
0.139866982696438 
0.003605537982559803 
0.02366309553062356 
0.2136954540873134 
0.0156486327237676 
0 
0 
0.002286047423115835 
0.008943658824886243 
0 
0 
0.000961823195564989 
0.1122033171735953 
0 
-0.01772275177269381 
0.03282154549033013 
-0.04209150316323763 
0.02486153560365889 
0.1660927290465181 
0 
0 
0 
0.01096096594625282 
0.206486441209274 
0 
0.3521670347707423 
0.01007934435566088 
0.003527111433382615 
0.0006942654203556986 
0.09346293383960541 
0 
0.0374169857739586 
0 
0.08190608592259223 
0 
0.01662043871571105 
0.02282304910206159 
0 
0.1204600865210735 
0 
0 
0.06596550389127134 
-0.01521382355472238 
0 
-0.0659724043167971 
-0.002808756532613502 
0.09914764129944856 
0 
0 
0 
0 
0.2421264882145378 
0 
0 
0.1487101844834707 
0 
0.04179241761333996 
0.02113120677537863 
0.04658578902475372 
0.1948083640005961 
-0.002748846513235611 
0 
0.02757144515687237 
0 
-0.2000633779286614 
0.01226084075914219 
0 
0 
0.00155319855683939 
0 
0 
0 
0.006655324353031833 
-0.06559091746794757 
0 
0.01919785636480771 
0.03386573894931862 
0 
0.007422343695431086 
0.006900817411428882 
0.07097869572163219 
-0.007785246616411914 
0.008264913586876902 
0.00423510257326353 
-0.00999655797339649 
0.1079950849976392 
-0.03480544551204028 
0.007624103749411777 
0.0009899848956797953 
0.01514850140281602 
0.2493268730221222 
0 
0 
0 
0.02517798280560492 
-0.00979995343167351 
0.06035940862471448 
0.06007485223743003 
0 
0.08588647353658074 
0 
0.009891062583046064 
0 
0.06094264114201984 
0 
0 
0 
0.00244601515160759 
0.367691019722587 
0 
0 
0.09679198821087263 
0 
-0.1747470646362422 
0.01265270792405671 
0 
0 
0.07153336330659446 
-0.04312588993639607 
0 
0 
-0.03972519163146493 
0.0708407190638172 
0.01475887355325708 
0 
0 
0 
0.07093749284157033 
0 
0.002513467248146345 
0 
0 
0.006203713592898915 
0.4514904365746463 
0 
0.0508860989980217 
0.0007561895277852351 
0 
0.3262703778499588 
0 
0 
-0.005569421983814916 
0 
0 
0 
-0.03047049267010777 
0 
0 
-0.1718579545765323 
0.03351051756442232 
0 
0.1161975329812089 
-0.1196938035669511 
0.03339553264743422 
0.008774529058200982 
0.006306269702877045 
0.08388210200443214 
0.003113328403119987 
0 
0 
0.001039858709397132 
0 
0 
0.008956885285534739 
0 
-0.0490888017925606 
0.09892285933180436 
0 
0 
0.1305431971280934 
0 
0.05974676124707835 
1.026501848520675 
0 
0 
0.04405232958018251 
0.01249749914526672 
0 
0 
0.01392073753565971 
0 
0 
0.3165966550007894 
0.04021849428381216 
0 
-0.06730358179158473 
0.07276592070029436 
0 
0.001420537882927842 
0.06375878793046996 
0 
0.03310148830457976 
0.001830095523119479 
0.06546818882462821 
0 
0.0289975077048954 
0.006801158616079265 
0 
0 
0 
0 
-0.05409831392431653 
0 
0 
0 
0.005622048495064073 
0.1434185010188827 
0 
0.002085219639481106 
0 
0 
0 
0.09057228317470463 
0.02711365994508447 
0.05221978415791587 
0.003102131804081722 
0.02111947966812067 
0 
0 
0.07166688140303416 
0.03199805767784025 
0 
0.1341211360028077 
0.008680861362561505 
0 
0.3077497827996137 
0.01909717414706738 
0.02599217478665669 
0.02692935496776303 
0 
0.2689243121109818 
0 
0 
0 
0.2447839118930448 
0.06963130023717931 
0.2688304863839106 
0.1596169976644914 
0 
0 
-0.3067564014761779 
0.03466557478039455 
0.635131715930517 
0.001923646391133523 
0.06662592323948024 
-0.01135346201829538 
0.008533624769651809 
0 
0.21654334049212 
0 
0 
0 
0 
-0.01496276118868141 
0.003937185002869165 
0 
0.01526223225099676 
0.01812471818605015 
0 
-0.005384148607177359 
0 
0.01330766652116644 
0.1005776527339138 
0 
0.08031295325573423 
0.1774804177656139 
0.03122543570386232 
0.002494170744595044 
-0.02482014123312645 
0.1139345970797252 
-0.1258796177540517 
0.02344444464112673 
0.06461951916702299 
0 
0 
0 
0.02012529279080474 
0.01476267370159441 
0.08781222123681789 
0.1208179421575623 
0 
0 
0.1633801620499352 
-0.08375944610050587 
0.1000538962397403 
0.1608049506227656 
-0.05678677281661476 
-0.138757178392159 
0 
0 
0.5752936974741186 
-0.05297882488752741 
0 
0 
0.009833084414142953 
0 
0 
0.3120565943856273 
0.07536556419044996 
0.01151196653583565 
0 
-0.1938006379640215 
0 
-0.001439508724335192 
-0.1051745847752136 
0.5127280302005625 
0 
-0.01492712124166024 
0.1029601913125555 
0 
0 
0 
0 
0.08595291207511568 
0 
0 
0.04445824713036139 
0.0296388430133716 
0.005102020696046619 
0.08485205306334245 
0.001605604180187075 
0.09310035070384139 
0.1123104926054327 
0.05179726674560618 
0.2406074998056202 
0.06624216618491058 
0 
0 
0.007233146420662175 
0 
0.0002157534416068112 
-0.003148600850440227 
0.006259850398524018 
0.8077134008581742 
0 
0.04797673966204098 
0.008024514521018608 
0 
-0.01164641170890226 
-0.003988343426481462 
0.01206695174580398 
0.07071934263003984 
0.1630783338521062 
0 
0.06962548391572469 
0 
0 
0 
0.2619933826505814 
0.3754214514524017 
0.1694725372249977 
