solver_type L2R_L2LOSS_SVC_DUAL
nr_class 2
label 1 -1
nr_feature 5000
bias -1
w
0.2780087571860958 
-1.261401400761865 
-0.3093768634848525 
-0.6934904276583711 
-1.654433224148794 
-0.6428700911972751 
-1.459070174686277 
0.2599808538235505 
-0.1573936555699678 
-0.6755120292873815 
-0.3898337121191487 
-0.02005642552861748 
-0.04025030929369449 
-0.6377720507218853 
-0.3015372890836175 
-0.9916004070165327 
-0.4299468798435179 
-1.174679878165726 
0.218693195941941 
-0.02699460891291182 
0.104380733070682 
0.5277084869494756 
-1.253479782320171 
0.03707903275686716 
-0.381223292148935 
-0.7534181702642266 
0.1565730464863759 
-0.07468424100683564 
-0.02469881040341549 
-0.2649730803656545 
0.1446123825527213 
-0.6206172054339659 
0.4115939785069749 
-0.8061619036247534 
-0.9652899311093368 
0.1226848548455403 
-0.4427533191436093 
0.4398307857484786 
-0.1479457136293478 
-0.4396838660533308 
0 
-0.06911993345504226 
-0.1234747490206311 
-0.05439404168582346 
0.1232484647704918 
-0.04362197396033374 
0.0146210139174053 
-0.319600054506308 
0.09185404684195173 
0.4945440797672635 
-0.5094392222353479 
-0.00267699393305337 
0.2561158120509715 
-0.5075773151405855 
-0.3135791144126163 
-0.2726541321142957 
-0.4185850002553289 
1.020199029408843 
-0.2019549386672482 
0.6080678676819052 
0.05890665335587692 
0.1118806916926185 
-0.5080206421243382 
-0.1448080408344028 
-0.4555429062301823 
-0.4940685792822232 
-0.08776801503906348 
0.2248961667081288 
-0.2701287554777834 
0.5100398786323778 
0.7114661570216168 
-0.29205886106941 
0.03658977723565364 
-0.2243373526164002 
-0.04368055118936356 
-0.6885547909781533 
-0.7272776301447776 
-0.3220409164796807 
0.6006023004971884 
-0.1452807764255916 
-0.8609808302138084 
-0.2375458498470743 
-0.3663186905993082 
-0.260540612442546 
-0.6124414963008529 
-0.3817323845325813 
-0.5490844515852424 
-0.6054149561612876 
-0.1404042760902041 
-0.1750697292571335 
0.04057988366808741 
-0.739288754646682 
-0.1246094868011824 
-0.4944735143762341 
0.02834921804452725 
-0.6474401766574281 
0.2876933876464112 
-0.5382762437278084 
-0.2587797008751593 
-0.5855274405543138 
-0.262889568615727 
-0.6256144004427503 
-0.5590236324813123 
-0.2484897119946992 
-0.2431172684068014 
0.2373209503314416 
-0.3475291175473038 
-0.8172195027206273 
-0.310265162944422 
-0.2493343220889326 
-0.08638335767498241 
-0.1416297295072348 
-0.2984302301071328 
-0.6777637376323337 
-0.2311722281770142 
0.079641279750179 
-0.223292829688528 
-0.2177521485764497 
0.781592114662214 
-0.954257865609447 
-0.1131407856279275 
-0.5199100447943358 
0.1105559415562396 
-0.7630137057740853 
-0.5649338884342006 
0.04462558005917423 
-0.1279277795574961 
-0.1045053442587954 
-0.09525773942730076 
-0.1993187079203335 
-0.1198508894854895 
-0.1074697358366599 
-0.2092653252475066 
-0.01980658692197763 
0.378227291517919 
-0.6510392686122726 
0.130858233987999 
0.2753582716288611 
-0.2311574958537465 
-0.1997989908225104 
-0.09993985158828493 
-0.06801794110385173 
-0.6353149450187022 
-0.1551742789697561 
-0.6831604090742662 
-0.5719164969250378 
0.1353010463439325 
-0.1746569951698594 
-0.3129693433893412 
-0.4576260392938727 
-0.6359646721597422 
0.0422414978053977 
-0.4724186784086385 
0.02806417097477517 
-0.3387276128526361 
-0.4240906132139776 
-0.1211048529922047 
0.08694062430578711 
-0.5512639179075609 
0 
-0.8446546073273744 
0.1732919419453459 
-0.3653636725634152 
-0.5302392085199163 
-0.003340461356290281 
0.06676332748997862 
-0.01924844095777626 
0 
-0.1172529068061222 
-0.3004879475911053 
0.2561061026191895 
0.2316374098333208 
0.2026076016089414 
-0.02864379234561974 
0.3489594265610624 
-0.5508872749783016 
0.01573557786185572 
0.08971430162886271 
-0.272602823462159 
-0.4187312992436536 
-0.1071086538538243 
0.4345402407146807 
-0.2341379359664739 
-0.0864208881594479 
-0.002882166121946332 
-0.3548123378277123 
-0.1926426484145673 
0.3696865235981694 
-0.161840680271019 
-0.4410618837694684 
-0.4047223509883953 
0.04916755432626271 
0.0383197532419694 
-0.03328697361465652 
-0.2851645486560921 
0.3224926192833349 
-0.7334398712029004 
-0.2416555951213384 
0.2174378515428979 
0.6672658905341724 
-0.1732848774325187 
-0.9336648390729454 
-0.05613577297467552 
-0.5059569965415667 
-0.08030218180447118 
-0.4084073268467946 
-0.1651029590782274 
-0.5539001645833874 
-0.5323610781740263 
-2.200458288106305 
-0.6136395489811962 
-0.09147323822650179 
0.6925706383891522 
-0.4284945634960348 
0.378701296593877 
-0.4365063330382354 
-0.5017605403718988 
-0.2497854824950357 
-0.3904288067159475 
-0.6155506674401567 
-0.3795106199191575 
0.3962777213206993 
0.2124777277588244 
-0.01638711369739103 
0 
0.5716553239788684 
0.2036948798995349 
-0.8841603736018893 
-0.4237282346314505 
-0.8808379287898229 
-0.271114874358527 
-0.1708579034286011 
0.1592730192291859 
1.429355898479155 
-0.2462492307245496 
-0.4431201925411773 
-0.0419521832911959 
-0.1006312783944203 
0.09766214256932292 
-0.2309939534568452 
-0.6871350675145742 
-0.5657511643913479 
-0.1552019841594308 
0.5919201789273578 
-0.2848112188800053 
0.2203071002115329 
-0.2556633844981972 
-0.4391006871142937 
-0.2111944387676375 
0.03706762895123617 
0.0882000370527478 
-0.01873775337781693 
-0.427422625140111 
-1.099202663040918 
-0.4686755889641213 
-0.8184247475271763 
-0.02520440673655776 
0.2853292892826702 
-0.3483151960682799 
-0.3324623816641248 
-0.1987391794206073 
-0.2186346859218971 
-0.4740102056154347 
0.2014137503863827 
-0.4755017154476718 
-0.7385791065324081 
-0.1545068602996304 
0.1655054433794536 
-0.1005740374676036 
-0.1833533894682974 
-2.410450574768602 
0.2430254270252339 
1.116684172877111 
0 
0.1676147353182356 
-0.09128375290799949 
0.0989932701065776 
0.06264636621827575 
-0.27637899325136 
0.3781756760267936 
0.09757150955709679 
0.01678541690981447 
-0.1360634518345662 
0.008389342696539716 
-0.6118910990996177 
-0.05953210017528564 
-0.01427011891932702 
0.2467201482979384 
-0.11394930791516 
-0.07103868104492934 
0.650986393801775 
-0.2427181882894247 
0.003214552661058808 
0.5077327461781768 
0.03864114579901744 
-0.03482152435199273 
-0.193389805560103 
-0.04286082838284801 
-0.03977570929908363 
-0.6624353301502859 
0 
-0.4834154067793915 
-0.01837939818434197 
0.4491917048168029 
-0.3146333999692201 
0.1982866308347336 
-0.05727827598389685 
-0.2841360919622004 
-0.9582232111729037 
-0.04610613236599066 
0 
-0.07869993652861976 
0.132542903398819 
-0.8536227038218509 
0.008415570693826065 
1.790911330025688 
-0.1192487817244232 
-0.4143898194895177 
-0.004528823489982782 
-0.4299896062870826 
-0.07268197085485607 
-0.2723098257275872 
0.09182429885662645 
0.06233977829360326 
-0.01511625505834031 
0.07691849583910151 
-0.11124854254003 
0.08523139111242797 
0.2288028281384157 
0.2967448541947412 
-0.05464383086210119 
-0.3587938460464075 
0.02150592693447284 
-0.04902488425943296 
-0.04565591556643052 
-0.2022232243905988 
-0.08389140486592257 
-0.1127626759569311 
-0.4432401118244546 
0.1497721563386063 
-0.5562048198518039 
-0.7518894777227961 
-0.05725239467134458 
-0.2129417573205535 
0.4553771206290502 
-0.7108074518699958 
-0.1767195046411031 
-0.2521186145370169 
0.1412431427598955 
-0.2393827987071565 
-0.05426776483010719 
-0.408438153015198 
0.0917269587559174 
-0.6265533546798898 
-0.681224749462949 
0.003874395073751529 
-0.2839117971195413 
-0.2199646123650124 
0.005108231881693764 
-0.1156904333896974 
-0.1393264148768901 
0.4510749400862906 
0.6655587442879014 
1.19864578429447 
0.433380496197953 
-0.002320217799642729 
-0.06505124698710203 
-0.1409801967018403 
0.6705727879913004 
-0.1099263091140916 
-0.1769458883561377 
-0.03901040668385392 
0.2522631547263499 
-0.06592643619012185 
-0.9954581402149673 
-0.2580437443008131 
-0.9909907120689578 
0.09835149054377922 
-0.0377642637843564 
-0.03617362366635825 
0.1445324180626086 
-0.1298809415863605 
-0.1804803617058079 
-0.2245578757013904 
-0.02343713727774597 
-0.1217516623822417 
0.8959917743497184 
0.6030594271735074 
-0.3321355405997353 
-0.3867678748674271 
-0.1193832633964138 
0 
-0.1334021449950593 
0.1062075431102996 
-0.1188643527781835 
-0.2839957873315043 
0.1768003550634009 
-0.01908658272895118 
-0.2800756115545414 
-0.0008514863307833567 
-0.2654334291610351 
0.05479713262006215 
-0.09042496363922589 
-0.1044256378907346 
-0.05471295422529328 
-0.6520658660057178 
-0.5212692556749426 
-0.3333168280875872 
0.06592486870930911 
-0.1201674679635159 
-0.213254493477043 
-0.3598167980201905 
0.581884640961557 
0.4492306624409213 
-1.081246762540764 
-0.04089525729131177 
-0.377386235869789 
0.2470534816350585 
0.02448158585938042 
-0.1756899030028434 
0.06750279031109092 
-1.101177658752453 
-9.486769009248164e-19 
-0.02349743646829311 
0.04842481703491198 
-0.3721457246174681 
-0.7555568679587187 
-0.2713273941858719 
0.9591504883016074 
0.07026376866359456 
0.3390933348810413 
-0.1757325548203145 
-0.4292910599142468 
0.03107459059505032 
-0.01985210371174473 
0.7326678063393456 
0.1669830724183761 
-0.06459442027718008 
-0.2054608764779971 
-0.1437990257427167 
-0.3693076123242872 
0.01088531352715414 
-0.6562021440376866 
-0.08224032314102066 
0.05478505102052875 
-0.6612070688866769 
-0.07863365443370143 
-0.4593438615115699 
0.08288484013713907 
0 
-0.3163731754022928 
0 
0 
0.3801218266195956 
-0.03844391308393642 
0.4389496517469874 
0.01942127724333045 
0.810187357214711 
-0.4269340996417988 
-0.1067307379613136 
0.1710100958425092 
-0.02874678289794526 
-0.06593294462783339 
0.2512439970612002 
0.1755053091229834 
-0.5696863419953557 
0.008412683465067522 
-0.1172872224927349 
-0.8326583688610387 
-0.05209029937567237 
-0.4253837869074067 
0 
-0.6445550121748288 
-0.06423626472925491 
-0.08894458382904999 
0.07716977440085429 
-0.4513422945411116 
0.2918281140308691 
-0.889480469802724 
0.09053948805801268 
-0.05384146854487264 
1.423219570003611 
-0.1371948401878481 
-0.0963913596533154 
-0.3231861595549418 
0.3171248583417722 
0.119282589273411 
-0.3674427715038164 
-0.2140178096881031 
0.1307309398853884 
0.3509936369559213 
0.2268390414450678 
0.467377161173712 
-0.1628880127425185 
-0.01932562689816462 
-0.2077129387062845 
-0.04371949464979068 
-0.2801406564649719 
-0.09499762237116287 
0.6169692034150173 
-0.0794631122228638 
1.833259354970681 
0.4025733109061271 
0.01199978244861263 
-0.1285116145544075 
-0.1379340712068101 
-0.2495701236936347 
-0.009477468819375875 
0.09349817010586496 
-0.0772592949534416 
0.2883358831211565 
0.04842440239255358 
-0.2651082683706865 
-0.06278578212265702 
0.201363978956528 
-0.247633237257522 
0.01989942566139912 
0.1829286033845271 
-0.149953846343905 
0.5821042077467726 
0.239318056260881 
-0.07020180159463317 
-0.1377275317227707 
-0.01566017496348963 
-0.3148480171423647 
-0.1827899418352368 
-0.05210249404048709 
-0.2557731528546543 
-0.1604168127788634 
0.01909001380299062 
-0.01995136530152981 
0.02311381589399226 
-0.4518345896933007 
-0.2898688694114669 
-0.04662240468232343 
-0.06796141543426522 
0.03234997132732783 
-0.09143723859537979 
0.1796407178063655 
-0.07092789419396384 
-0.5004235165518973 
0.3645085700125691 
-0.4095719011491177 
0.02187214472091641 
0.07663767768749399 
0.04557574248061032 
-0.3805134185908595 
0.1112254139147661 
-1.326160120614579 
-0.1018528200888963 
-0.2973214933381649 
0.01880684192250447 
-0.09226020999715213 
0.0001328046803341414 
-0.3651476175113251 
0.08862009768554512 
0.1705014250775977 
-0.03304147811154282 
-0.08368424522442926 
0.5789869167623828 
0 
-0.08986092030437613 
0.7481697459905562 
-0.4273513516689982 
0.9467075466690758 
-0.04749180966622345 
-0.5173631773331168 
-0.6383970124584543 
-0.7909816838816199 
-0.06174982943090127 
-0.2305763667865779 
-0.01580176246741264 
-0.4988648228974151 
-0.03630223533687026 
0 
-0.006058947037701446 
0.03301622409911979 
0.9586824737607176 
-0.2860288756331173 
0 
0.1235232240317186 
0.06751896500069142 
-0.0397474165164259 
-0.1725556019054883 
-0.03273313875433291 
0.7523231701854287 
-0.1092980224909319 
-0.5307451640098455 
-0.1916854761275726 
-0.05035849968556482 
-0.2367525464970364 
0.003540475559516424 
-0.185907162836674 
-0.353279144355847 
-0.162377385497104 
-0.5433532760105576 
-0.2004911533133381 
-0.4302907834447427 
-0.6216106159728668 
-0.1062973430474742 
0.1134563976433641 
-0.8368666650354132 
-0.01986141530428831 
-0.1449926919012739 
0.5336248716136777 
-0.08510334988811993 
0.3336443427354361 
-0.09969603345586898 
-0.121767134848309 
-0.2037880195924894 
-0.05536670968224205 
0.02312177504686813 
-0.1436819646801057 
0.271224469087802 
0.1900333771390514 
-0.2361029235570506 
-0.3479606536803315 
-0.3364715611512994 
-0.03531934525832148 
-0.184271169436784 
0.02313191157767891 
0 
-0.09916773802523242 
0.005436809875082429 
-0.3090611703689105 
0.1885036043113745 
-0.2825383771060839 
-0.07556572132059393 
1.233539245911754 
-0.223091184902461 
-0.2043565366474538 
-0.1135019953047422 
-0.07091823658890206 
0.05460891151401395 
0.07023389772417897 
-0.3399804767243925 
-0.1341510485477575 
-0.5712041572238798 
0.06071123598414767 
0.3830370189587819 
-0.04923511799210436 
-0.1700200254343522 
0 
-0.03879327010403277 
-0.1850998854386883 
0.2318394820026159 
0 
0.2816287801710434 
-0.01679026369690341 
2.168404344971009e-19 
-0.3720116039606933 
-0.01256769717102999 
-0.02544625253963868 
-0.06675659493892809 
-0.01903837179053023 
-0.5721046303414967 
-0.1469290089177486 
0.05039814224404073 
-0.003122599316080509 
-0.2049003812797147 
0.2111305429639397 
-0.1528440279214073 
-0.161027762428166 
-0.3990350434317975 
-0.02610320727594467 
-0.787016925794694 
-0.9151343186764487 
0 
0.3338979486257768 
-0.1299387397830692 
0 
-0.1257203714655965 
-0.08912345719171898 
0.06816312993205483 
-0.8383939674454249 
0.1416814324422565 
-0.02486963598315892 
0.01696529133372606 
0.07024180393106387 
0.4443380621123706 
-0.7616334798108706 
-0.05635714591369968 
-0.008254549020603821 
0.02440463413850343 
-0.1292730834428394 
0.997609891301508 
-0.7777613264509913 
4.336808689942018e-19 
-0.3340038426406358 
0.07993958263763995 
-0.01071557504972199 
-0.1259059245650199 
-0.6672335322051792 
0.01036374298880293 
-0.1080053909249358 
-0.2675768187418847 
-0.02215130973061371 
0.08670547847434798 
-0.02020401508911978 
0.1904713776256787 
-0.09042268748022524 
-0.03489294719151333 
-0.3420773350850119 
-0.1098080509712582 
0.2199797056760414 
0.04066075558749012 
-0.1346048989712413 
0.2388188363867178 
-0.2232210166486397 
-0.03546520838273642 
-0.003789918072047594 
-0.2384438857468112 
0.7369382803396362 
0.04222921204609076 
0.01442178146961475 
-0.1271732206665012 
-0.02074881218291875 
0.001694963805559359 
-0.3009938316662215 
-0.2249967122548464 
0.1338063640457409 
-0.1643960602722689 
0.2196441775484829 
-0.1153322641297904 
0.02836113419383709 
-0.01388717422865125 
-0.6206247876229334 
0.3732586935243742 
0.6855282595039461 
0.095775287504599 
0.1549657854374058 
-0.1456050305629695 
-0.02324720298053178 
0.3709322976732451 
-0.09260680042417256 
-0.7276781155614457 
-0.03856869691375781 
0.4014699632499458 
0.4304410495246984 
0.04147357899294105 
0.1152463488759481 
0.007701338007027554 
0 
-0.02481611514096677 
-0.6916172152282301 
-0.08642632397731324 
0 
-0.4372437668957327 
0.3387420593609595 
-0.1826055053249153 
0 
-0.4109640909459977 
-0.268330335151057 
0.1619749915677252 
0.4133337919223506 
-0.2678654815882196 
-0.1550796510908479 
-0.1754885390285453 
-0.09335658364452037 
0.1856810393519331 
-0.06190408634452811 
0.1487146026998994 
0.2779215141691165 
-0.3835526356677947 
-0.09822565674241099 
-0.3283609688098978 
-0.1416079638075742 
-0.1952207672596172 
4.336808689942018e-19 
0.07449120859289685 
-0.01014646043039495 
0.03288317771123913 
0.3702596143125994 
-0.4930774541914369 
-0.2530822624397704 
-1.883274878169408 
-0.1404868135647473 
-0.2396712475621206 
0.1355061188997452 
-0.120825056934605 
-0.1982018108957216 
0.06599952401588131 
-0.01487764473161399 
-0.1573596992859568 
0.4252450851357065 
0.3375277384889845 
0.2905786344278662 
-0.362518104050172 
0 
0.3721759084286676 
-0.02700981275041178 
0.04506013154270167 
0.800305217658653 
0.04773144060578784 
0.686632267391573 
0.7911690406530865 
0.0002554810209720007 
-0.3096391147847308 
0.01382834050488829 
0.5173039062945481 
-0.07355377284311676 
1.416978563018726 
-0.03775004026549061 
-0.4219702968765079 
-0.3971732237855314 
-0.6072203778397606 
0.2287815214264755 
0.7776529289131453 
0.02766843736762113 
-0.2416164874434242 
-0.2133883842078902 
-0.6616543173491629 
0.7169337199549022 
-0.004986784436332705 
0 
-0.09065895115837183 
1.070498175948682 
0.1028679840917424 
-0.1784499514279548 
0.01240064610811692 
-0.06388300656517476 
-0.4878543656778309 
0.008852767679053878 
-0.128642140800912 
-0.7376706199312816 
0.007667881180991015 
-0.2191768242026645 
0.02300143169640497 
0.1556286181357758 
-0.06364387324123892 
-0.07272582505970787 
0.1045154174776655 
-0.5282418932201987 
-0.2305972313854955 
0.1210737243558609 
-0.2504053124564221 
-0.5232291310802234 
-0.9924694874624741 
3.444609956550453 
-0.006584430635593967 
0.105508903757724 
-0.06924350718645154 
-0.465254472867213 
0.0831388566703459 
-0.06523774425339368 
0.1620504686872285 
-0.074493138077676 
0.02706116576636832 
0.01042085034202096 
0.1472639287859312 
0.2060967324493134 
0.007923259310349314 
-0.0533518577567384 
-0.09129337954262084 
-0.2547215630362855 
0.01280884551159908 
0.07796678277804932 
0.03575105482085385 
-0.06324906466443454 
-0.3042243683505405 
-0.1775774863010136 
-0.1781354809783228 
0.09304147382924899 
0.2550728444078543 
-0.3917737166870671 
-0.276165114719259 
0.219390570534127 
-0.476731060364731 
-0.09676201172495794 
-0.01606970640198435 
0.8142378844198216 
-0.0003711680543022482 
0.05520262398872192 
0.1220029563719813 
-0.1251669701791041 
-0.07454421410253058 
-0.4032780317434602 
-0.3861068135083818 
0.9354444324107242 
0.1934237744124553 
-0.02741754991337702 
-0.1542792476014701 
-0.1975177083795212 
-0.1547155686964466 
0.45293503430232 
-0.09980881403115542 
0.7407982766550231 
-0.0008719712252856347 
-0.6373479595445087 
-0.1075213763632312 
-0.1078937124477199 
-0.04738308274530177 
-0.4780532765716977 
0.03574030784692116 
0.02844697852566724 
-0.3641960752092093 
0.2027096086683866 
0.1850315443579635 
-0.3510633204871131 
0 
-0.1815907820271581 
0.4917137078136568 
-0.1473664743631613 
-0.45956657964118 
-0.04100786752692174 
0.1853902578860255 
-0.02900306679845672 
0.1138707773012548 
0.2664700069478445 
-0.007040616952899536 
-0.2517216923454218 
0.00852119988276925 
-0.09847508289951938 
0 
-0.1132341010150444 
-0.1509670835831663 
-0.1748686641941413 
-0.01860489391898989 
0.05043518415105622 
0.2103988223810064 
-0.141454207777958 
-0.05679795258685891 
-0.04507198618625002 
-0.3372289603271023 
-0.5549128031183155 
0.3072544380156983 
0.02408227821362867 
-0.0009559760819124118 
-0.02148364085100791 
-0.2424481313609706 
-0.2502716683180053 
-0.2958815687412363 
-0.0815098768190502 
-0.1215564963261492 
-0.1582528610336734 
0.1922043528135736 
-0.005297912540515563 
-0.405334016796462 
0.007798211890780393 
0 
-0.1890662308886139 
-0.07019548372011924 
-0.1415733054328208 
-0.2333310699543731 
0.2688372900952571 
-0.01601629518509916 
0.2158169515246193 
0.1188418924481351 
-0.1606619456210552 
0.05496161638679967 
0.397846974110323 
-0.01952368332228368 
-0.03696074436127238 
-0.2180348736774056 
-0.5607671526789954 
-0.05392306938011113 
-3.794707603699266e-19 
0.1842125534789369 
0 
-0.5324674845446078 
-0.1261296377802417 
-0.3022118535080833 
-0.4171673273664714 
-0.2213893148386561 
-0.04235538110827002 
0 
0 
0.2474261530000391 
0.6155047413473991 
-0.4205832466389305 
-5.421010862427522e-20 
0.2830128054470105 
-0.1746186321319674 
0.01838751004544829 
-0.1375985217167891 
0.1014343644818824 
0.21152610377311 
-0.1597523518841636 
0.5157715637866667 
-0.2422446175218295 
-0.260899036897499 
0.005197070870109754 
0.0591409425803484 
-0.1561717770697519 
-0.001381337546981183 
0.009423816472735569 
-0.1544248113535897 
0.2171828229832718 
-0.1173088174337855 
0.7273812563485518 
-0.3082726254551053 
0.1432684375503285 
0.2845665829662497 
-0.05443761332792049 
0 
0.3479162660240432 
-0.00382791527807619 
0.01782354095557702 
0.3015456057073723 
0.08738267174123326 
-0.3234555520636214 
-0.2309447710159532 
-0.1205820965890917 
-0.1159489516637256 
0.01919766944075834 
-0.4754677710755507 
-0.06417358560222707 
-0.02273622590458309 
0.08958729618597001 
-0.09856018299142315 
0.001839816050360712 
-0.03541628569824046 
-0.1617622118295755 
-0.3102197556149 
0.07913361699658332 
-0.2335907242109237 
0.05524996894452854 
-0.1255364016294159 
0 
-0.1553991651763459 
-0.01116044725500623 
0.08645530074368801 
0.1652105546169266 
-0.03808991271747585 
-0.1459288690438931 
-0.07164392067442922 
0.1826716597038409 
-0.09633551933814911 
-0.07075467683948908 
-0.01084027736523628 
0.3013803174919095 
0.07302552601798805 
-0.03463595112107132 
-0.004970137169613311 
-0.06112742654869124 
-0.3113342233225992 
-0.1209915965552429 
-0.1038203995120563 
-0.002464530062804479 
-0.01308251276774686 
0.06278621050942328 
0.1592667203914181 
-0.005894246473642954 
-0.04733500614566587 
-0.3413476573809857 
-0.26575717777326 
-0.2549644270007827 
-0.2790883784177625 
1.049339735932345 
-0.217172397471223 
-0.1036374367155045 
-0.02116436040536963 
-0.05103061419192555 
-0.397571008949517 
0.03879487004358861 
-0.173941385715735 
-0.6184248944248878 
-0.4124711531450069 
-0.634117446060201 
-0.02294851467842586 
-0.03683653982457785 
-0.2775434534730212 
0.5509548117238955 
0 
0.005190344094836842 
0.1067375541228174 
0.4423383784176053 
-0.1302317724789025 
-0.3733280889649168 
0.4203083604635001 
0.01040511179786288 
-0.3354913719442877 
-0.260165384618431 
1.067192428189132 
-0.3955899672684608 
0.09318861333923109 
0.09036087061065755 
0.5696656581673722 
-0.1236996425020092 
-0.06569704750159239 
-0.06268460327925279 
0.2660604152314107 
0.1839848747019856 
0.1619295083921028 
-0.05603629235321947 
-0.1729845504764388 
0.01091517972236445 
0.1432842984743808 
-0.002216001985493974 
-0.08663526533248941 
0.3617208923429602 
0 
0.1536132758412632 
-0.001408354315678015 
0.2728504234937602 
0.043585454705775 
0.2358520254556978 
1.002586341634162 
-0.1477887012551552 
-1.064801546396535 
-0.02872336289197974 
-0.3743706744990389 
1.187621426293548 
-0.01668923600436156 
0 
-0.02207095424196455 
-0.4620300837790159 
-0.01019578118251731 
-0.1907883402178357 
-0.03798770764273422 
0.2270518684359669 
0.1477847503397566 
0.5816868169997325 
-0.2236142516668499 
0.1540926016431015 
0.1557113293438883 
-1.045600427390305 
-0.03977042287632448 
0.001435502329403903 
-0.01941081393514658 
-0.1055710923207143 
-0.266089981087669 
-0.5267684691290909 
-0.04820511367800207 
-0.01105141085177327 
-0.3495311363035989 
0.05026730448452525 
-0.02742029005205296 
-0.03054143221917245 
-0.02883828641926754 
-0.008289579370677886 
0.02604909763409146 
-0.3433073700096985 
0.01437031858033138 
-0.140464081184152 
-3.252606517456513e-19 
0 
0.0511281680277397 
0.2853936751209116 
0.008120819715154699 
-0.2374255117104179 
-0.4201537022169897 
0.5446850108098956 
-0.5115428259832374 
-0.5914024024612166 
0 
-0.2719286590681397 
-0.008695321442640425 
-0.1828407384377173 
0 
-0.5196278645551178 
-0.03893190517160856 
0.267128723815654 
-0.1014178055195917 
0.03336425805841322 
0.004179602188510644 
-0.9035490803331019 
0.3103367891661668 
0.05423896415783061 
-0.1507389142472933 
0.01935583881039442 
0.1054798623034669 
-0.01051951085550011 
-0.1638757881667387 
0.0548194129812969 
0.02282061836948431 
-0.1894641020507755 
-0.08042630368292293 
0 
-0.3998494269557616 
-0.02950933472263229 
-0.1062659678587448 
-0.0006506813602050182 
0.1441705468323481 
-0.06635918016001979 
-0.1469114508265587 
-0.2490496232228061 
-0.02456796820830797 
-0.05009570176550163 
0.1196539534136519 
0.06463475442739448 
0.4813481446312676 
-0.2549128361846479 
-0.0730859714019516 
-0.1757018143316402 
-0.2350989844872057 
0.0247050955634745 
0.2996139066534916 
-0.1530247343574617 
0.01780759039430881 
0 
-0.06209346132724709 
0.1454946223836023 
-0.3788478553540039 
-0.2910038721841003 
-0.006096316859899541 
0.1321563762732055 
-0.05807627191464364 
-0.8507572769012051 
-0.3371273698067007 
-0.009248222889683449 
0.06606882668006894 
0.2044731803703967 
-0.07003538245275699 
-0.3771392669813399 
0.7568606708467811 
0 
-0.09709223334596638 
-0.02687733234144012 
0.2958163879401191 
-0.04676849461304476 
0.4409418475563704 
-0.4817117562224844 
-0.383294974335151 
-0.03517190917439755 
-0.1123795595112816 
0 
-0.1656710544418963 
0.2507529872031649 
-0.07600440431158245 
0.1439508590880542 
-0.1761857778000048 
-0.05650217928068885 
-0.0007586809357580345 
-0.3620506818160283 
0.8367273669336758 
-0.7406664672821803 
0.5841380993377923 
0.1153715527795722 
0.2782449771351764 
-0.226230090713943 
0.1288928877217134 
0.2267211591711143 
-0.06409528296145768 
0.1509135908109639 
0.3420160869836968 
-0.1906499729633053 
0.3015970552248537 
-0.3555387314776609 
0.06281488309302397 
-0.2218647425756535 
-0.01402991101161048 
0.06122039496553048 
0.6775387557584795 
-0.7637971408473402 
0.02896880291775828 
0.01397491889602725 
0.1600251482329379 
-0.05042632979385036 
-0.4254884816338915 
0.0379547793242227 
0.09766864962804472 
-0.01908750261144311 
-0.1992138271125163 
0.02707653429505072 
0 
-0.2909960904028491 
-0.03433569877073144 
-0.09440649514729424 
0.2019679927918249 
-0.07416209118616734 
-0.05666885163153881 
0.3691392081697459 
-0.2276654884382716 
-0.0635439280204636 
0 
-0.01017381600687734 
-0.802623891320383 
-0.03688030123838298 
0.1944736241825588 
-0.1998862727231379 
-0.3040708422719686 
0.289605125060477 
-0.19597501308306 
0.07995329713626713 
0.4660298571793675 
0.06164878748312169 
0.0197226283611402 
-0.1102795516927904 
0.2430527509752478 
0.066000001751015 
0.1589658042257608 
-0.09368014029053877 
0 
0.07403863263055133 
0.002947653284232429 
-0.3730265915638459 
-0.06775978043741912 
0.2635735286691764 
-0.07974304207077497 
0.04960502515415769 
0.04283558209355219 
-0.2995260189859711 
-0.08897579204001783 
-0.09682380843762504 
-0.1016924185001698 
0.1264572248888464 
0.1086359070972137 
0.1952544042940459 
-0.03468305493856251 
-0.155825564383996 
-0.9480324065643803 
-0.09059830130929002 
0 
0.6121703583427064 
0.1070773232176933 
-0.009717414380255552 
0.5350424114127527 
-0.1627092511628506 
0.1846592650212134 
-0.2081800549031755 
-0.004776416977055843 
0.05972117184457359 
0.007935769214704107 
0.3346748998952206 
-0.09079134167872679 
0 
0.01570842483923535 
0.6445514709415285 
-0.152688838297469 
-0.6074734631645403 
-0.9390735208271199 
-0.5338914855102544 
0.05220445425939084 
0.1443161851418501 
-0.02343493257050697 
0 
0.3291057385442505 
-0.3955038541614783 
-0.1445974889065368 
0.3128098402269427 
0.6537969629393244 
-0.07615033160377989 
-0.01928697795037934 
0.2032526794791995 
-0.4364507387909063 
-0.005617850669388077 
0 
0.1365299322554364 
-0.04942677378377133 
-0.6432851229253149 
-0.2586433191980487 
-0.133581526676653 
-0.1124919902712374 
-0.3973984587020876 
-0.0309354197296085 
-0.367423238913991 
-0.2880558728354406 
-0.2635483844876618 
-5.082197683525802e-21 
0.03201055074827183 
0.1677657311680692 
-0.386409077872459 
-0.01064552690087632 
0.02732336923461288 
-1.726762253239922 
0.2609892553587723 
-0.3966645512804525 
-0.3714615528746291 
-0.07472090276560232 
0.1894321386789574 
-0.4303377501782374 
1.525092507818709 
0.1179890550334688 
0 
-0.1739775321185266 
-0.6495851695544369 
-0.005328600055890762 
-0.3735809166340116 
-0.1420503141300167 
0.6104868356025518 
-0.06082427548212016 
-0.004213646535588837 
-0.2092324512897998 
-0.05714193798671498 
0 
-0.003655969930799084 
-0.3999386538695162 
0.1163331237912013 
-0.1344863660354815 
0.01145643580913737 
-0.03045124595481502 
0.0253844416697679 
-0.2663367167764156 
0.1607735912257046 
-0.01421418850686969 
0.03242918346669546 
0.05817564963299489 
-0.05022322743993701 
-0.3190538366621188 
0.4459822673367358 
-0.02138170982951137 
0 
-0.01450191495413506 
-0.241063094171941 
0.02306362988404274 
-0.4736567332830305 
-0.1197938691318163 
-0.05711983301551157 
0.09560107794483541 
0.01516851842072187 
-0.0512893571459725 
-0.2113743779921211 
0.1919086572849715 
0.117263301368937 
0.5526890723509021 
0.002928852752362012 
-0.01878194084745684 
-0.2811376335132867 
0.51953556069809 
0.1071872982229845 
0.2002967997056499 
0.05099183041012437 
0.02746272083560746 
0.4806422900695828 
0.3096700773839899 
-0.1453026826770974 
0.03863855134094524 
-0.02062125397328738 
-0.01584354681908769 
0 
0 
-0.09173354117785931 
-0.1792396466635038 
0.1641902014244877 
0.2013448697957105 
-0.3021143492361829 
-0.2352113383562382 
0.01780433940536215 
0.9365165682583342 
0.1584118239578662 
0.01064728565761573 
0.03596308836317695 
-0.1764811483403595 
-0.008381568585441888 
0.02145989927297355 
0.1620578339443376 
-0.0127491775302419 
-0.2001423177058518 
-0.0177122426898157 
0.01031447067479063 
0.004235852033870868 
0.08483435376000578 
-0.9007267613538222 
0.09838182833319047 
-0.1317085697898121 
0.2995696011734115 
-1.242355844063279 
-0.09025074936077605 
-0.2424595411383957 
-0.1411203398221717 
-0.2803771218497548 
0.03712736749716634 
-0.3589325701937888 
-0.07073860219478205 
0.2448662741264999 
0.1371111571944132 
-0.0888854711632531 
0.03513835444205648 
0.03826973010878924 
-0.2004951782124838 
0.002512852849109956 
-0.150707731118871 
-0.07848605532203681 
0.2649149214942975 
-0.2328655468682115 
-0.2624345198570333 
-0.3738977984999698 
-0.007770990368251312 
-0.04837093275914974 
0.01434011657451833 
-0.3572261228077188 
0 
-0.01261793455015964 
-0.006851862229003685 
0.3374371387761927 
0 
0 
0.1755837114049462 
-0.002840427404873532 
-0.1299322813418863 
-0.07445504810869605 
-0.03239598983499389 
-0.1371065088665532 
-0.09275523870244627 
0.180271347157765 
-0.2838728757378654 
-0.005414813093340009 
-0.002456084626508179 
0.242029277366197 
-0.01136213520692117 
-0.0314636005317296 
-0.003748490883999744 
0.1045251730922018 
-0.0163946182664664 
-0.1253764223515959 
0.6394351219648764 
0 
-0.2591310059697934 
-0.03189354604411399 
-0.06966203705718758 
0.121625015663093 
-0.05915055358341292 
-0.005312331021778837 
0.07644822948713173 
0.07659192942745156 
-0.02129466279501703 
0.2951383451300825 
-0.5947841843262951 
-0.2549750879368822 
-0.3763964584714992 
-0.1012610795848189 
0.4866762438210966 
0.1553901129620656 
0.5350335626563573 
0 
0 
0 
-0.007895893618530044 
-0.08150361776492475 
0.2465084409978561 
0.2909402199237087 
-0.5554640381474899 
-0.01722420479455857 
0.456104128645875 
0.2317750344543216 
-0.6528828903318857 
-0.384284429343911 
0.003132394961017397 
0.0957844350987449 
0 
-0.06651667136284989 
-0.008804598775572974 
1.036774213855709 
0.4354194351540994 
-0.03023516513947233 
-0.6510729022224054 
0 
-0.1729870673566463 
0.2779198474495417 
-0.2758146474533408 
-0.1199941051724273 
-0.02162936079161907 
0.0541897139301056 
-0.3963414305214844 
0.489904484647347 
0.02035471745669119 
-0.02022714882877552 
-0.0269653513185703 
0.04812390975344279 
-0.135722066900767 
-0.203570966370733 
0.496375288604298 
0.1185898873095558 
0.1465480096077526 
0.8984658153083406 
-0.1555439109340359 
-0.05932533207590718 
-0.2617130358295163 
-0.2774158074432587 
0 
-0.04040487499371234 
1.590420915563247 
-0.02319331266900402 
-0.4118539979567801 
-0.02556085336826289 
0.0138010194454999 
0.3741334886558862 
0 
-0.3300818622821827 
-0.05214015794620425 
-0.002828735867213721 
-0.04568624908424924 
0.1747499015238951 
0.4048068089660896 
0 
-0.3472158640665681 
0 
-0.43227763346363 
-0.2100907187397456 
-0.02313275205581938 
-0.01719353569021295 
-0.4346061786685838 
-0.2677882532545869 
-0.1963889997660584 
-0.03945731910868711 
-0.002885193562045946 
0.222961139708401 
-0.03075743147174353 
-0.1211504242290381 
-0.007047054808655476 
-0.1522952221213796 
0.07347742407614617 
0.5797744503428636 
-0.9496164369142542 
0.0006591794639568997 
0.1314316487346965 
-0.4345509654153074 
0.005644548004555057 
-0.6214506034628475 
0.06849697534397274 
-0.1003947695902422 
-0.1740387103967121 
0.1696928489479164 
-0.05571217151951372 
-0.01914077575499782 
-0.2479205853004115 
-0.08024243299311164 
0.2199452625208962 
-0.0448041334197369 
-0.3308086840507206 
0.2621994442457215 
-2.222614453595284e-18 
-0.2134545736158441 
-0.2133692565994202 
-0.01300013557871142 
0.0751838665410923 
1.035722377772896 
0.4460929003067731 
0 
-0.2565606623530563 
0.07717871343094812 
0.5772352509001097 
-0.04960599892087598 
-0.07992882253756156 
-0.06281834143656907 
-0.263735051269962 
-0.1724305855027425 
-0.3262589013613763 
0.3403205360992689 
0.06396954023027439 
-0.1908862926994664 
-0.006941274031108609 
0.01100559210415826 
0.2714268260616193 
-0.3801478824463392 
0 
-0.06468265475172322 
-0.08665814257884685 
0.1127275103016225 
0.2423372789677402 
-0.2578883379898774 
0.4565472090669295 
-0.0747575930668804 
-0.2706615321171464 
-0.6895981461387963 
0.1357210843823164 
0.02699147337017677 
-0.3381329558498029 
0.1722599643864337 
-0.05290621009295838 
0.2419067213106764 
0.03053530959491545 
-0.538953044405181 
-0.2111009212839481 
-0.04241708095989935 
-0.2393819113719993 
-0.1247576330604643 
-0.03292745731244823 
-0.01418557471943685 
0.04194680271963309 
-0.02822914784516458 
-0.05194648560148821 
-0.5768954391123974 
0 
0.14331457904088 
0.4170594076249908 
0.3171692105035453 
-0.003359771030839949 
0 
0.01354969585363629 
-0.008558742880111315 
-0.007074862414027365 
-0.06532100352590388 
0.1208876893799008 
-0.4080562261724243 
0.438847729516606 
0.01436657134748916 
-0.2623290929353088 
-0.3558509453968309 
0.2690144326968702 
0.0458472981376968 
-0.3481789234029563 
0.9662218441815152 
-0.06188661684726857 
0.06898958452787121 
0.148058860650722 
-0.3496760670507503 
0 
-0.4495026989819806 
-0.2421977848570886 
-0.2216509505810722 
0 
-0.01292132920922171 
-0.07854310874551217 
0 
-0.01783234961087993 
-0.1464743543168361 
-0.06488779988941296 
0.06527108242532377 
-0.03379613695591219 
0.04481555629121182 
-0.007347692459921451 
-0.01601607624516379 
0.03105367748411387 
-0.1525817033887771 
-0.2748472745995263 
-1.734723475976807e-18 
0.007141841897488613 
-0.0009421923990200822 
0 
0.1235721159889804 
-0.5820755316253806 
-0.02780023723560691 
-0.194041305860465 
-0.3400845044925092 
0.02580919323173316 
-0.4662459690958858 
-0.1209253594409001 
-0.005242400277783148 
0.1694993652814141 
-0.2670917383854636 
0 
-0.04831712560461782 
-0.5231186408763004 
0.1862811861080633 
-0.2650824432363132 
-0.01787053534591701 
0.0193058109963998 
-0.07853272838747653 
-1.067529412598622 
0.03038744327046804 
-0.1631884608952768 
-0.006375950744158522 
0.01268862073775274 
-0.4402602473040519 
-0.05425221763843065 
-0.1003839293810515 
0.2104170732159101 
0.2927755207900922 
-0.04126310286267327 
-0.009515361253575813 
-0.07919164742617021 
0.1570364956197683 
0.1064882475033812 
-0.07284788360399826 
0.07203466195165016 
-0.1151387403703247 
0 
-0.06836371195337844 
-0.1264421975190651 
-0.6225421363524867 
0.1276364822764998 
0.2833935092980231 
-0.5894740756077089 
-0.009422468161229911 
-0.04098906273147141 
-0.1371719910682158 
0.05960226678024313 
-0.3761896829739072 
-0.4129537716966355 
0.01254477162736589 
-0.3797624861657476 
0.7710724937714962 
0.3463900478512554 
-0.007283786253477986 
-0.126240914617018 
-0.1194489291398264 
-0.3462648880838723 
-0.07159481468261372 
-0.01349358861515997 
0.6532298511593951 
-0.01281814126991932 
-0.1723909819149065 
-0.06610044443405995 
-0.1381202423476858 
0.1280230008464596 
-0.3655760511620462 
0.1252762240172785 
-0.2786380504166512 
0 
0 
-0.02943766950298307 
0.2400162749280694 
0.01043355504337495 
-0.1231006073020372 
-0.0663066853679221 
0.3327536050009169 
0.1951272417235293 
-0.3311544437721273 
0 
-0.01376337039565297 
0.2728478079790767 
0.2478555023369587 
-0.02690495428230403 
0.002860420561010283 
0.05391038387786188 
-0.1912630446962806 
0 
-0.01124066697380828 
0.0637144088288535 
-0.01516731225718168 
-0.2709363712440757 
0.2776599252996201 
-0.1522695829006254 
-0.1136728338000853 
-0.01139403715649073 
0 
0 
0.3219254400799097 
-0.2841581556653037 
-0.03479857410314542 
-0.1583986220818417 
-0.5955675009022807 
0 
-0.3362591127222027 
-0.1959165884516781 
-0.03222517124534643 
0 
-0.2229487365388092 
0.180098300284642 
0.4806600234904185 
0.2628179840815967 
-0.0389016853270008 
0.01302518748471238 
0.1681819212544239 
-0.04183648884068162 
0.08879550336091933 
0.2034760939188548 
-0.07018490057609157 
-0.0517653884750824 
0.184274998237444 
-8.173867941003998e-19 
-0.01370305417849182 
7.912698206258071e-05 
-0.004772178242440648 
-0.1886540454592353 
-0.006290020827921366 
-0.09966919036431375 
-0.1467851796073186 
-0.1814491016381146 
0.2504921541085287 
-0.06178205017935499 
-0.6664779880414539 
0.2575060654790717 
0.908747144819724 
-0.2412110225927081 
0.7711186226407883 
-0.007575102262096265 
-0.003205687483243367 
0 
-0.03856435721738351 
0 
-0.007463287901774694 
-0.8885532271253596 
0.04680529462083156 
0.0566141248941598 
0.4452714509592435 
-0.08703668023943124 
-0.06837046318683296 
0.06093071585681373 
-0.2616330888394391 
0.2928891437397319 
-0.06680113544251508 
-0.1054432342360602 
-0.1809334223372906 
-0.01943114742477215 
-0.01332444318169114 
-0.1342271495696531 
0.2492896349205767 
0.07368603557467512 
0 
0.1833170795336153 
0.004296729463293173 
0.02596004912468424 
0.2043979622147952 
1.162769536934746 
0.05758667171995797 
-0.1783284768235442 
0 
0.02222823932028112 
0.09899341602848852 
-0.170746873366824 
1.115631096616301 
-0.01356093850647515 
0.1955171542457044 
0.1740560624497879 
0.6235093699098173 
-0.1044123828279997 
-0.1405927003942465 
-0.03920716954503412 
0.1186721053593947 
0.2526111287887013 
0.4268366683393704 
-0.06653963318646498 
-0.02287954464237814 
-0.03284915892934656 
-0.1153007174467511 
-1.301042606982605e-18 
0 
-0.1390453090375544 
-0.2098595565174088 
-0.001454708174147445 
0 
0.01275721355141707 
0 
0.0480363293965002 
-0.07115568720085397 
-0.2510132008823303 
-0.2764732109386385 
-0.375116178912453 
-0.0417923794001572 
-0.01423093438292459 
0.1710140357589092 
-0.02352263452011973 
-0.07482458903012362 
-0.1057484087749215 
-0.09746953802957857 
-0.7031356528919184 
-4.336808689942018e-19 
0.01166475291172577 
-0.06376786683148256 
0.4481595598447872 
-0.05480148965496556 
-0.004993923142489615 
0 
0 
0 
0.2619787708720034 
-0.150769707464348 
-0.04978169218219134 
-0.05567817978360171 
0.1050252791400751 
0.1386783755454773 
0.3166114755541093 
0.08392629240603647 
-0.0600193964195214 
-0.01773243467539574 
0.1226172386025257 
-0.0640307667419335 
-0.286001008510919 
-0.6255585999066352 
0.1240928924818134 
0.1393530337600482 
-0.1851546257681291 
-0.005917911734983477 
-0.0682383508014227 
-0.01801128318771803 
-0.1044556038140557 
-0.02203356371217697 
-0.05047335809644262 
0.003089238561226221 
-0.115144402979829 
0.3859293933803713 
0.005548667917808762 
0.06553864725207378 
0.04063905726963622 
-0.4690158318616665 
-0.2124769043256624 
-0.6746851473409209 
0.03043197509166752 
0.1432503943630518 
0.03686831616624216 
0.09855221537936762 
-0.065978985057147 
0.3018569656004511 
-0.05674491233420809 
-0.006828798712596528 
-0.003604610825682659 
-0.1538816837512469 
-0.0266195745027453 
0.09673629568307968 
-0.3907180953720605 
0.02275883930973565 
0.1525691764402178 
-0.0316479994611416 
0.008413120363603003 
0.04454725137354953 
0 
-0.1102103172105109 
-0.1721625755043006 
-0.3233908657693093 
0.01884935508960189 
0 
-0.006190886260397536 
-0.04010236084957558 
0.1077206295183972 
0.03568236558101923 
0.3432560014418092 
0.2820915614897103 
-0.08177106867748318 
0.8212290253754186 
-0.5272969012532192 
-0.01461598506858569 
-0.1095567306973531 
-0.002509695646689143 
0.5451822765174005 
0.1148973946065479 
-0.005252047005972032 
0.05572135209441648 
0.2504148361008157 
0 
-0.5084850506291896 
-0.06479869879891526 
-0.06251196904479978 
-8.673617379884035e-19 
-0.1011700410584677 
-0.03238410092449692 
0.3353725615525013 
0.5291339583127691 
-0.1569759154233275 
-0.2448154959063137 
0 
0 
0.3833776424799885 
-0.1282418472715506 
-0.05443731657706779 
0 
-0.4633383772216917 
0 
0.1908594633176617 
-0.16950162771057 
-0.002456942837088997 
-0.03714369486675784 
0.006177981506684303 
0.05629941834357286 
-0.1823923803459451 
-0.7275360880712786 
0.1683194520334138 
0.05188149559669537 
0.1158029110215447 
1.301042606982605e-18 
0.000515463921528378 
-0.08797663256775216 
1.13841228110978e-18 
-0.1076058363902722 
-0.1583435304594534 
-0.00597403809731854 
-0.1831855725738277 
-0.1025900092317174 
-0.4555068225362898 
0.005147430039300995 
0.04041973146728163 
-0.01625825735604174 
0.2395992163232191 
-0.1237199574101181 
-0.0450379427345218 
-0.2469231025847613 
-0.5955524869884496 
-0.06681722766288498 
0 
-0.1899708571919276 
0 
-0.05669120680319977 
0.2908530484657819 
0.07941617545474546 
-0.1653680980306688 
-0.4451716208584569 
0.06561814981863281 
0 
0.004214773124726449 
-0.04708647973557399 
0.1258498814709161 
0.06723676429304148 
-0.004396913974406088 
-0.1270551470013395 
0 
0.1024665339424177 
0.01640182303660949 
0 
0.07078612097254389 
0.0002761562220355723 
-0.1867611960868 
-0.0001138212439267545 
-0.002259711711893387 
0.8891027509129209 
0.2107360278431174 
-0.08720563030137574 
0 
-0.5622592965306158 
-0.2158191095889575 
-0.05586152586685072 
0.07429455177433242 
-0.07625752573908841 
0.05717293505782736 
0 
0.01601955994680027 
-0.2073916346427257 
0.04020057746804884 
0.5131708227934894 
0.04162046319103051 
0.1410334139222545 
0 
-0.2625169708411221 
-0.0005986034966820717 
0.05223800625454597 
0.03200168378625753 
0.04076433768103135 
-0.02126439344254609 
-0.009193318871948549 
-0.02372603989770499 
0 
0.174043442404177 
0 
0 
0.003817195088732126 
0.4997428357932424 
-0.03035253671986015 
-0.01964190921075228 
-0.05426912994559924 
0.3281748433190341 
-0.5173584920841717 
0.02773026978460364 
0.1488351942520225 
-0.06868154643891178 
-0.03773051903515889 
-0.01310905093004802 
0.01089902276740861 
0 
-0.170774261921519 
-0.1024097957398008 
0.4545094163648553 
0.555464489106084 
0.03860684939171012 
0.3470150816577527 
-0.3098800578505144 
0.06369613155838265 
-0.1127792787828754 
-0.04079654484154777 
0.4386623681353529 
0.2038121959839051 
0.02371988572590493 
0.001537212541395582 
0.295645267401667 
0 
0.3738311008252949 
0.6029847712339903 
3.469446951953614e-18 
-0.1844567770323141 
-0.1016569912301939 
0 
-0.01221833483079302 
0.2585838301855262 
0.01271932994487051 
-0.1720913910603454 
-0.1015485633208694 
2.780938385166351e-05 
0 
0.07260804230278264 
0.1584410010006433 
0.5874502062730302 
0.2336742513899766 
0.01951344721187472 
-0.002790897041871365 
0 
-0.6355889779156507 
0.1035532694157578 
0.1153306316779535 
-0.009737103597014808 
0 
0.02630656885930657 
0.3484181426936467 
-0.09384713107006465 
-0.04127475728242368 
-0.0002186078130451477 
-0.001783256150246645 
-0.2876453023297759 
-0.1057773016243555 
-0.05482531563547891 
0.06984553748439583 
-0.003291325251730871 
-0.005735272513710607 
0.05367817512930977 
0.05370100841405736 
-0.04559628552690473 
0.02939767275111695 
0.06193048335264177 
-0.04017971038523004 
0 
0 
0.2467848637437679 
-0.2350002383259351 
0.08957241089417634 
-0.00635306848804063 
-0.01547900567836512 
-0.02865020672206237 
-0.006283546429854382 
0.1207911541177948 
0.01786306659037994 
0 
-0.0573981614689256 
-0.1378824851288608 
-0.1787274837903698 
0.3394013015476868 
-0.7111766015937724 
1.239200291788222 
-0.1667695650041388 
0 
-0.05381506084687241 
-0.2536072087081332 
0.06719919052395236 
-0.1220684010607986 
-0.01408232667740858 
0.1466932104168657 
0.3782829282522416 
-0.08220444535400752 
0.01508421219523192 
-0.2223922505731029 
0.07052483266967587 
-0.0001187778260759062 
0.7376904138756876 
-0.03422340225468024 
0.0675062357038012 
1.243044320875579 
-0.08916440053464021 
0 
0.002649554794248362 
-0.07557648191610832 
-0.004062568874666823 
0 
-0.09985358680328407 
-0.03507075759513101 
-0.01981169462851815 
0.1161540206812969 
0.253596918043535 
-0.006165465856099592 
-0.3708135679062288 
-0.289001626004793 
0 
-0.3550164055076208 
-0.04475071749341869 
-0.1681620602531022 
-0.03188366387461754 
-0.01792788482396811 
0.006644981307081282 
-0.1375017642163935 
-0.0237532965368488 
0.01791156917058612 
0 
0 
-0.03000523476870087 
-0.007684898174011792 
0 
0.005810805147053609 
-0.005407001806034895 
1.470037545879148 
-0.241803957351448 
0.07196408487076561 
-0.1738093564688214 
-0.04467113712459125 
0.04855152639612642 
-0.1431371450313095 
0.07233851506330773 
0.05458894074795056 
-0.09330352795730709 
-0.3849584886005209 
-0.04313295898717615 
0.3523484494228205 
-0.03033345256596849 
0.03811740412571553 
0.2915441204003897 
0.2494792325718747 
0 
0.01846681426849071 
-0.6793545662670181 
-0.5483740822358023 
-0.0765524010628732 
0 
0.02242571902988244 
0.4360287192138368 
0.2383026252400517 
-0.3330409390910828 
-0.06633704476572966 
0 
-0.02171943582936739 
-0.4614219927279014 
-0.005010382944072194 
-0.03891451617705866 
-0.7117647981982549 
-0.05234823656298782 
0.3676384449510174 
0.1714825124577933 
-0.3672575323376416 
0.01388950069806726 
-0.01380800396300787 
-0.4046776806188555 
-0.01082733543183976 
-0.6364274790034676 
0.03440490967328295 
-0.003436755500345853 
-0.09248760094484398 
0 
0 
-0.00129669454184234 
-0.002366079542459584 
-0.03700206047393142 
0.3138106418804963 
-0.007541306358172019 
0.06163961323580577 
0.0128781757159084 
-0.1081644589486076 
-0.06634888136756846 
0.0659024446144529 
0.002498789778888353 
-0.04907228121576804 
-0.0705629812965924 
0.01071069085623019 
-0.1312006220463969 
0.03165449856326163 
0 
-0.02581527572870217 
-0.001358898188149149 
0.03056788137093091 
-0.6037597678259082 
-0.0549097695406207 
-0.04112797092366241 
0 
-0.02814575989031817 
0.002417513715591508 
-0.05493885587425566 
0.04169211286198465 
-0.01723911578383169 
-0.1365862654054313 
0 
-0.2370314329354023 
0 
0.1502474028791602 
-0.03032445466931219 
0.0005683674774288871 
-0.1205256963717174 
-0.02015124645053115 
4.336808689942018e-19 
-0.1874277232227613 
-0.02824559964565699 
-0.2123862201307153 
0.4055617304113444 
0.05548855250180351 
0.1257372805031418 
-0.006162817567492215 
-0.4430376965130653 
-0.07301980654291448 
0.1901968072519489 
0 
0.2463697036489774 
0.01356266982202276 
0.01070808746353495 
0.03061482427202466 
0.04889896950893739 
-0.02235046160475695 
0.2346507318722693 
-0.03102736915030864 
0 
-0.2217679448981501 
-0.3449978139684592 
0 
0.1292688287932278 
-0.08382660318291092 
-0.04058370626471587 
-0.07281556736790785 
0.01525536506213208 
-0.886073700326708 
-0.1614116190269602 
0.4287078019774593 
0.05109393228122854 
0.2579937517980068 
0.0164737250005294 
-0.0267912833317754 
-0.2306073087093662 
-0.1260640303838043 
-0.1316789042966516 
0 
-0.05842521105067876 
0.5068527423011231 
-0.1360412706817541 
-0.0371030336948928 
0 
0.04301046411890284 
-0.01394629685355099 
-0.2338964895586446 
0.2964443494702319 
-0.1639727902763177 
-0.03504852033532534 
-0.1827145226152177 
-0.1817664958220829 
-0.02038283207275587 
0 
0.01011886700883319 
0.05497866805391869 
0.07922022609198487 
0 
-0.3387641086995246 
0.08100282215339502 
-0.03777443241965434 
0.14820815663917 
0.0733128090221869 
0.07016038984139376 
-0.3216917528122691 
0.193519380877225 
-0.01046111647656783 
-0.001749595839388573 
0 
0.1804432927073858 
-0.0289707382037761 
0.03451331255016522 
0.02621359754999649 
-0.4268066997516775 
-0.05574967964162845 
0.2633372124996921 
-0.2298188642557354 
-0.3897698742212617 
-0.04907037404849852 
-0.08285866294208179 
0.01416572512806989 
-0.08815537028310415 
0.02161428843776321 
-0.0046344092635662 
-1.17405410894156 
0.3483441733856205 
0.7904521660111287 
-0.01189986554530366 
-0.3402481848797652 
0.1669181727012126 
0.2120930205053903 
0.0008280577210970255 
0.008409879478890634 
-0.4624773899377122 
0.05663427646575173 
-0.04615990716998392 
-0.2360597396908986 
0.01627206277774336 
0 
0.190574833662866 
-0.01259556759596938 
-0.04151222349544454 
-0.00497642714975644 
0.02439711370028402 
0.1925196098779244 
-0.0594581746342381 
-0.03002948747070178 
0.1313310260560145 
-0.5292630620701638 
0.103319839271075 
-0.02300816746998323 
-0.03548901305415262 
0 
-0.07874870752995131 
-0.02370834124358506 
0 
-0.06612261702824107 
0.003026903103213255 
0 
-1.20217243834606 
1.264329796892515 
0.05151275168427726 
0.1769786946642075 
0.0454904548614865 
-0.002546909354057975 
-0.04270792950243258 
-0.00719256428912705 
0 
0.06825978645515453 
-0.1377841403609706 
-0.08701093289988211 
-8.131516293641283e-20 
-0.1117595151710803 
-0.7294361755951013 
-0.03662830108048916 
0 
0.6760365174012757 
-0.118695601452067 
0.05340154749515221 
-0.08720566959229629 
-0.1546108896963353 
-0.1477309183844606 
0 
-0.3077408850940737 
0.0340826196123678 
-0.4482331105426618 
0.1700887101184064 
0 
0.1184192258678552 
-0.06310559510038526 
0 
-0.1320141779015943 
-0.2809541010974977 
-0.04789257708631238 
-0.03587444949757766 
-0.07655506266790781 
-1.24078018817393 
0.1775321094092839 
-0.008582574733456598 
0.029033584708264 
0.5056548819203753 
0.02654659639478902 
-0.003594614189828357 
0.001802627070922121 
0.06444778449308476 
8.809142651444724e-20 
0.1092294621253019 
0.3934230137348104 
0 
-0.01705575234522999 
0.6120802538167744 
-0.03295590041888061 
0.0128548109443794 
-0.02171355057680578 
1.81551498718432 
-0.1289870323001447 
0.02833951896813795 
-0.00704455480416941 
0.7082239364309098 
0 
-0.1950861257940887 
0.2594714860850596 
-0.1417230493766048 
0.1365551806903653 
-0.2910371516227294 
-0.05120811136393548 
-0.1022455728519788 
-0.009750164782942447 
0.1233885932006214 
0.03292777264561276 
-0.04580519642156303 
0.02264468067127154 
0.2399264361548526 
0.03989503082567788 
-0.1835875641461264 
-0.01578859653824879 
0.03107042665652305 
-0.03201477142711647 
-0.09883859226884961 
-0.03470983851324968 
0.1083067305031506 
0.005688162648255604 
0.03430692363393637 
-0.00883299003341652 
-0.03237979545423609 
-0.3426166261958244 
0.1361510652656469 
0.1761745085588488 
0.08775474626265907 
0.1902448453524192 
0.7964831609128927 
0.7623706350379246 
0 
-0.003271235695990714 
-0.05374339640987986 
-0.00702921641745722 
0 
0.4268207544750007 
-0.2698183075545568 
-0.04034455480074833 
0.0124645689099106 
0.07597382244815683 
0.01206767622970818 
0.0135827546095986 
0.05619967671552833 
0.4080220673993625 
0 
-0.08912702755295246 
-0.4111587348529861 
0 
-0.1105584840959224 
-0.04205665170649858 
0.04315490898571151 
0.9156096431637093 
0.08758674651131249 
-0.004495431175800931 
0.05473807601775885 
-0.305121582116393 
-0.08375131927704398 
-0.121642796793853 
0 
-0.0498630821936264 
0.3948008352501552 
-0.1106712017469301 
0.0009091035766706731 
-0.2675961574512639 
0.05264375267104087 
0.2471908214858273 
0.3494990479485938 
0.0007032714617720513 
0 
0.0348648551094416 
-0.001638246432892826 
-0.143139234815392 
-0.05189384373701119 
-0.003137934236852345 
-0.008209469237067436 
0.03826417332261885 
-0.09677529133280048 
-0.02148829015344539 
-0.8850005929888188 
-0.02330140096430896 
0 
0.2936238950587912 
-0.04519143133607515 
-0.01234958752017911 
0 
0.1244618764926508 
-0.03016514724156314 
-0.003575706720155552 
0.07387826421119695 
0 
-0.01462531346036759 
0.01354231367890671 
-0.09031573509613135 
0.6848690512281855 
-0.2260035370664286 
0 
0.04481869549864792 
-0.01052760318300145 
0 
0.4884032434722545 
-0.04884774042055851 
0.02477489666921672 
-0.04245744132484153 
0.08968864645097527 
-0.004315950586347191 
0.0005752604786226892 
-0.003662514009024785 
0.3380013490761609 
-0.01152807748311079 
-0.0369044417238865 
0 
0 
-0.1162725210226794 
0.5452928852053562 
0.2345938455021014 
0.004824540056866192 
-0.07379530083374954 
0.6186661863007489 
-0.0317929153982216 
-0.07838469134112483 
0.2038401894356399 
0.02482811563185441 
-0.09744601888649926 
0.08362909498189466 
0.04234771186387184 
0.03592995197479169 
-0.2630560467741365 
0.0148547590918533 
-0.1498643277574876 
-0.04748997899348352 
-0.08862151927079731 
-0.04123963988154859 
0.01488396152410034 
0.1019973195954129 
-0.02970004548831546 
-0.3162644120955244 
-0.005621713061207694 
-0.07017176791281056 
0.282533680548348 
0.05943186014474566 
-0.05167980316051879 
-0.03579048999529773 
-0.05248706959504741 
0.004431732794670693 
-0.08898925247435775 
0 
0 
-0.5314316122857013 
-0.06323367901758628 
-0.3102935313314812 
0.03833742518795843 
-0.2445982571476703 
-0.0563211352657184 
0.01410829609134196 
-0.03079245345437928 
0 
0 
0.03137196949470865 
0 
0.06672725317571986 
0.3424027417836294 
0.08420042904421501 
-0.03098783521874729 
0.006190083023638123 
0.1792407216566297 
0.267288700700626 
-0.01138184887827477 
0.1319428264799986 
0.1187308487327413 
-0.01929108398982019 
0.08142167843838112 
-0.06027323081904259 
-0.06157927425511422 
0 
-0.06696574332778799 
0 
-0.0512321121781156 
-0.3140249268567107 
-0.06921263279798157 
-0.02394725416450835 
0.2529896012436052 
-0.0452773787216604 
-0.04100533292685708 
0 
0 
-0.06292526507660243 
-0.09155837704105305 
-0.6306752972429548 
1.29181553363205 
0.09129631741062919 
0 
0.3497773994602549 
0.02443075854411358 
0 
-0.01805184050606707 
0.06957829400268581 
-0.01700022497111365 
-0.01748990988515506 
-0.3247705153165447 
-0.0008436062847519696 
0 
0.2465026264791339 
-0.009194437416494786 
-0.05655465171764406 
0 
0.2772157976409187 
0.5187796579679644 
-0.1500127400706609 
0.08654526907976788 
0.005959206456010992 
-0.1024688676831217 
-0.4916988213887469 
0 
-0.005886211783777624 
0.2844224299946105 
0 
-0.9243199395646585 
0 
0.1255975554357411 
0.9372163766242834 
-0.1160432820413931 
-0.5103842976840941 
-0.01941708696063248 
0.08624316568479024 
-0.003316470809538027 
-0.008391616552784063 
-0.04161148754871941 
0.4941355962993827 
-0.1555013493541637 
-0.0008355149627564349 
0.1971283081021469 
0 
0 
-0.8587193444603038 
-0.05896894416010163 
1.103897649777352 
0 
-0.001366347998867531 
-0.0962083743730567 
-0.5112948003845894 
0 
0 
0.06083985392404204 
-8.131516293641283e-20 
0 
-0.445577135513654 
0.01763487877937468 
-0.1276466206881135 
0.09619474125477379 
-0.05098383723018724 
-0.08275600838290167 
-0.1562030283401833 
-0.2546291715106258 
0.5722661928251148 
0.6001483250291682 
0.2164887062869638 
-0.0337835165758916 
-0.1083877683518781 
0.4482534358731205 
-0.007547050608952039 
0 
0 
0 
-0.01585302256092648 
0.1840869214912786 
-0.04423064952217201 
-0.005016162318783507 
-0.2999518961216688 
0.05944695758594195 
-0.04696852881760259 
0 
-0.1610579882546198 
0 
0.009876711312165559 
-0.06681394908828693 
0 
-0.05638675446138381 
0.1406345920688266 
-0.07183475282037348 
0.1040572984513417 
0.03667337568884912 
-0.06936456091172158 
0.1315294801750006 
0.1695932230648836 
0.06609893297429173 
-0.05136038760682567 
0.03253914228676558 
-0.101918037854244 
-0.0006478592134231698 
0.02817295292745914 
-0.8160496218748083 
0.3876584884634854 
0 
-0.7848567196538409 
0 
0.001972686862896254 
-0.006756151063479153 
-0.06970212513060836 
-0.3346668433559614 
-0.01784976927428105 
-0.000228514345427661 
-0.1865361764172908 
0.04370574575458116 
-0.1790335449060001 
0.1250123069107937 
-0.08550789776739258 
-0.03136160629778718 
-0.02264081007094034 
-0.1883812766415825 
0.0561459405822016 
-0.02367156626598957 
0 
0 
-0.1402359008791524 
-9.974659986866641e-18 
-0.003769685956031446 
-0.03319558841104759 
0 
0.05307250972619842 
-0.08894014445851038 
-0.1291001059489401 
-0.1722517896697655 
0.2568257827942855 
-0.01258087883678453 
0.05405380378123178 
-0.03199103115134884 
-0.06003880209865224 
-1.061642038615183 
-0.1106181863008388 
-0.2865641868628213 
-0.1487998989757054 
0.06137413751710194 
-0.2321567344112272 
0.136338604648822 
-0.02139599167295362 
-0.01035630343266056 
0 
0.03153789838265589 
-0.01626841411789069 
-0.1316014424331813 
0.3316084570195418 
-0.3485260198524152 
-0.4063621107552848 
-0.4417086261768207 
0 
-0.009236241537468305 
-0.01671510911103476 
-0.2533988933431017 
-0.03848736640975779 
-0.06816607910366548 
0 
3.469446951953614e-18 
0 
-0.1024049217003302 
0 
-0.005114719697101003 
0.1069500722235936 
-0.012687364969148 
-0.004997858851041273 
0.2277982292924548 
-0.02824428507081534 
0.6212008338091911 
-0.3342696646053233 
-0.05799744096244579 
-0.02433111494052559 
0.08852599857032036 
0.05609603253004818 
-0.03552460277630653 
0 
0.1633174176703298 
-0.2373613653463708 
0 
-0.170569616209891 
0 
-0.04144224094677394 
0.1929898250895756 
-0.2340875098225709 
0 
-0.02197420802758755 
0.2163928236768508 
0.1106483666380265 
-0.4912636404570312 
-0.2567096779029901 
0.1042551287509025 
0.1039476941573019 
-0.001796639760554563 
0 
-0.4492730753088105 
-0.0845551417185994 
-0.1176265057447998 
-0.2569002147918154 
0.9162231673763033 
-0.3654781379358099 
0.06183862211332241 
0 
0 
1.734723475976807e-18 
-0.006091600748316457 
-0.05653727537985259 
0.0792523372137805 
0.06881209962042824 
0.009302413395313205 
0.006987127229266108 
0.2577817076547036 
-0.08408030989924774 
0.08280051199528599 
-0.094769233982766 
-0.007287968721585307 
0.7839002179898845 
1.065547524579559 
0.0331841332984965 
-0.04754704020084635 
0.2350878588762507 
-0.2259510679371325 
0.257599448582953 
0.1315206653800421 
0.003953728902718503 
-0.001775795212342986 
0.2608796360336827 
-0.08370416315543372 
0 
-0.1015801373548394 
0 
0 
0.07936328113303272 
0.04315271425296762 
0.02930487202690988 
0.01059927651850646 
0.01379878974523209 
-0.005143214002506728 
1.47878662750317 
-0.02320877366997227 
0.008099780682734198 
0.1703837058834175 
0 
0.3345004684411595 
0.02701089243050735 
0 
0.03669024936535539 
-0.01759154722152426 
-0.04056714370448841 
-0.5408496528428554 
0 
-0.02101886677434097 
-0.02214613635290992 
-0.1421963172348402 
-0.2037346175969353 
0 
-0.1125493455297975 
-0.2976427196195575 
-0.006556059293630782 
-0.01961909515979636 
0 
-0.3522265804145409 
0 
0 
-0.1306954035115843 
0 
-0.1179043346009989 
-0.2170288102313436 
-0.08421724341382698 
-0.02501735949355357 
0 
0.2419995621669209 
-0.007154830143911725 
0.273984284626458 
-0.1295788954992362 
0.2874392525566253 
0.02521823733058712 
-0.0206226975684145 
0.1027539655898817 
-0.7122350891531372 
0 
0.04098229785601464 
0 
0 
0.0622218003550041 
-0.2971765688414042 
-0.1394164703562875 
-0.07066233876920629 
-0.02057221439546762 
-0.1893950302485995 
-0.2178869305614664 
-0.02046709023981587 
0.2972896479578496 
0.02898958830981299 
-0.06487579298055113 
-0.001137459203098749 
-0.05237797407994809 
-0.1112618660116226 
0 
-0.5793953631051989 
-0.04040539287172773 
0.0231446922473522 
0 
-0.01236474017480969 
0 
-0.1220024107565146 
0.2829555269172479 
0.1441274373391757 
-0.02211668316947274 
1.046032620661419 
-1.387778780781446e-17 
-4.336808689942018e-19 
0.02997321810329528 
-0.1177200610579234 
0.01470008995225335 
0 
0 
-0.1263692681919842 
-0.0802430705855784 
0.05349888229064452 
0.159710697464665 
-0.08795370399277767 
0.2218777481404609 
-0.317904878643571 
0.159841755923805 
0.004775977771166594 
0.01645669636835162 
0 
0 
-0.1330895224118367 
0 
0.4787237552573685 
0.01760004672609368 
-0.05630199118571352 
-0.03248142104144341 
9.486769009248164e-19 
0 
0.1600401573743341 
-0.03172744779211491 
-0.0002367725799862137 
0 
0.02510989208344268 
0 
-0.004599947464494893 
0 
-0.811139874278946 
-0.170347484410548 
0.360616138084769 
-0.6993432356335633 
-0.007467588481077998 
-0.1024940170470284 
0.4661837239790064 
1.734723475976807e-18 
0 
0 
-0.1292983155216927 
0.1466357431401723 
-0.0761238021018466 
-0.1563385525203509 
0 
0.0003052302352847222 
0.2905770016349781 
0 
0.01796812395421908 
-0.04238148252288741 
0.1885923066973703 
-0.2171767843115094 
-0.01284035938055019 
-0.01949771049896146 
0.03911873569407143 
0.01479541120601889 
-0.1601060755066015 
-0.2674226967246049 
-0.04157059238165722 
0 
-0.002647234794826515 
0.007229789720622541 
0.345357834678174 
-0.02376370655222378 
-0.1225783457105195 
0.009217930843349551 
0 
0 
0 
-0.196291485004848 
0.613451318601189 
0.09569618434995077 
-0.02388594633578308 
0.6818304568303432 
-0.0540400376404059 
0.01239282175632474 
0.3203369739769312 
-0.009395433091393488 
-0.01357191707204369 
0.03885058718792092 
0.04372279624066176 
-0.1692839674648342 
0.05861777943380765 
0.6872607627724443 
-0.160759348500993 
-0.3026479471724035 
0.6400805958131882 
-0.5435524442862152 
0.004076555087732597 
-0.006826540185918798 
0 
0.0430353856726531 
-0.00304250906374761 
-0.01474808930043092 
0 
-0.2364785514750142 
0.007626571953893114 
-0.03619096263547742 
-0.01709825570844075 
-0.02553426396764943 
0 
-5.421010862427522e-20 
0.003082041404125508 
-0.1240634127197525 
-0.007001324764883366 
-0.1226413156699645 
0 
-0.4161465766683348 
0.05365806781922021 
0.1017727667105772 
0.07177295127320787 
0.2382231070978492 
0.1139354848324452 
0.02106651136391254 
0 
-0.3232933902701836 
-0.1469186559687002 
0.2463102713196869 
0.2689092907662081 
0 
-0.001132729300698852 
-0.05983441459585151 
-0.1342920662739203 
-0.001642019276466349 
-0.6981545693369184 
-0.4945609517070442 
0 
0.05562103326133721 
-0.1687233876721657 
-0.05213120709773142 
0 
-0.02237670302460633 
0.002054364181877325 
-0.007323767395621504 
0 
-0.02705414251864883 
-0.02342732246364138 
0.5923777616439198 
-0.003707372361235931 
-0.3156694436893918 
0.009744366109635118 
-0.05954828419340431 
0.2064460797404888 
-0.01559006090992353 
1.023083010201583 
0.1432463418010749 
0.6809368421042228 
0 
-4.662069341687669e-18 
-0.004601087542264791 
-0.1203780144858708 
0 
0.03851614196925254 
0 
-0.2275789209207464 
0 
0 
-0.09136653141247171 
-0.05095951721869445 
-0.05460002250875963 
-0.01294469574953024 
-0.2625170753659474 
0.1163257170804211 
0.03288987496703349 
-0.1412817333920346 
-0.2534280772353127 
0 
0 
-0.0904788006070128 
1.301042606982605e-18 
0.04597759694270648 
0.4822832281984838 
0 
-0.00795906511593068 
-0.02982609657214204 
0.4010345884288 
0 
-0.01857449431254002 
-0.07807848496851252 
-0.01092131827191351 
-0.02995100060311774 
-0.396397333602669 
-0.02930340236450324 
0 
-0.009067405568342825 
0.2428481801074138 
0 
-0.3433511034004061 
-0.008642558315314306 
0 
0 
0.02220091009742851 
0.6728596063648397 
0.1582193499073673 
-0.0009024332288301684 
1.13841228110978e-18 
0.2967524982954251 
-0.06135652781657521 
-0.5905152871238858 
-0.1202182342656757 
-0.8655663395096819 
1.511951611096951 
0.1244374382795426 
0 
0.022549228548256 
-0.01303169818436825 
-0.03537308015011239 
-0.1238066378694623 
0.001900996604347132 
0.1123289779314616 
0.008985448007315409 
-0.004829361985937474 
0.0149023245413559 
0.1510248016660716 
0.2177729901705777 
-0.3348883150369455 
-0.2727492158463021 
-0.2273561697918226 
-0.2093748153252757 
-0.1731675562128129 
0.160111747782503 
-0.1111129369836852 
-0.3582749015747198 
0.2975024670606782 
-0.01791070687771502 
0.01537318768004283 
0.118427447882486 
0.006720329759122302 
-0.002591781613155831 
-1.036950523065815 
0.1680222158951468 
-0.008899152491539632 
-0.08539446762779446 
0.1263330819325842 
0 
0.08858106457884284 
0.01758196475618348 
-0.3358123010281767 
0.2449347466017159 
-0.03989844713525559 
0 
-0.08743535628283226 
-0.03595498450406567 
0 
0.1813072830628197 
0.0491460084091863 
0.5700344231132181 
0 
-0.00236276122902915 
-0.001264289323888203 
-0.02946067807183507 
0.1996083046360202 
-0.0355077671413962 
-0.01491485911910592 
0 
-0.6042418590922028 
-0.07151971892158118 
0.234416506520591 
-0.1548904448309378 
-0.2270725619904377 
0.2057298647418893 
-0.2257503215802263 
-0.02618250801078617 
-0.003265855582613113 
0 
0.3113183052954356 
-0.1187952142612443 
0.1048071197117486 
-0.01801044424565654 
-0.002430476336415187 
0.2507421821432553 
-0.1614051122055575 
-0.1168782676821599 
0 
1.269252271071282 
-0.07087310706652893 
0 
-0.0231051825148389 
-0.06026696735792675 
0 
0.03043210065315403 
0.0009305980914447015 
0 
-0.5143457525806258 
-0.01599640866337921 
0.4471762415961641 
0.0833422583002963 
6.098637220230962e-20 
-0.1503129384620519 
-0.002262993327617224 
1.626303258728257e-19 
-0.1806854791744356 
-0.1682542332914073 
-0.05636554636324387 
-0.1104772588471441 
-0.506654458207116 
-0.1193186454569801 
-0.01019153844310811 
0.07010533588898354 
-0.01314853630068612 
0.004871492002242205 
0.1716243483363517 
-0.4016150369674432 
1.409462824231156e-18 
0.06284342097129259 
0 
-0.01901584936645356 
-0.2522095980237705 
-0.0004390818333390959 
-0.008429566179006453 
0 
0 
0 
0 
-0.4376071101737293 
0 
0.02206930884617789 
0.04118337996393684 
-0.0006341066288230376 
-0.03104568119838506 
0 
0.05421657119955926 
0.2305763936911442 
0.9698709237229178 
-0.02338734171662078 
0.1283969899451287 
0 
-0.02424835845731361 
0.4005209586327935 
0.3076744437192324 
0 
-0.4652014689670768 
-0.0415085184378569 
0 
-0.02765844247054691 
0.06361122313413999 
0.0685518820822858 
-0.0008177455986778205 
0 
0.02658905664245633 
0.8417925844364771 
-0.05952648054144494 
0.07918867982678578 
0.04926064613294697 
-0.01636219296760071 
-0.05895063881628312 
0.005441251459320173 
-0.06588200816321926 
0.5336786271570856 
-0.1223051253297134 
0.05374654262246525 
0 
0.003717279834331444 
-0.2729794923074571 
-0.02512797216675354 
-0.0403115177319161 
-0.002392105959159053 
0 
0.1851842692476931 
0 
0 
0.2575626239524452 
-0.01686011591183427 
0.007246185920468492 
0 
-0.01864213813352789 
0.05479400682813701 
-0.04272408274452941 
-0.05918701026608275 
0.02604197545874766 
-0.1638214741252896 
0.004317455566005937 
0.0002457585824800488 
-0.0516789534750793 
-0.01872848309124996 
0 
-0.02306479265725997 
0.01928618965252663 
0.0212180053623561 
0.06765815227163514 
0.0004411775719250747 
-0.001984607480443829 
-0.0002323847158706642 
-0.003285596820291535 
-0.007946011096955773 
-0.02073269472721438 
-0.09452606067059952 
0.02659562700681514 
0.1323651363645946 
0.1980228864399802 
-0.1142257874458209 
-0.003436951255757518 
-0.00336334826464637 
-0.3208971754541067 
0 
0.2284184691788768 
-0.4069022541722342 
0 
-0.002846036047186476 
0.07257931595664406 
-0.06741799906413291 
-0.1608259870672081 
0.4825609448734066 
-0.005581848414800074 
-0.09232538004971144 
-0.2404751337152261 
0.005018964113438317 
-0.07905077759681825 
-0.02026225133399682 
-0.02183119656809281 
0.3468828488257673 
-0.001461703350314869 
-0.1343198429491776 
-0.1258094159914698 
-0.4572830136610366 
-0.3757525317431229 
-0.2637337249913677 
-0.1199254634932682 
-0.01893949146920601 
0 
0 
0.1173742099744323 
0.07348704959686539 
-0.002655651578314001 
-0.05513297515321753 
-0.07765198452691842 
-0.02904342300255067 
0.04780257935960702 
-0.003023297946127511 
0 
-0.01627519578510802 
-0.08556250319956575 
-0.08280869349585672 
-0.2936833163491521 
-0.0002490012432236058 
0 
0 
0.07692981872246919 
0.04507212464483819 
-0.02651701085459759 
-0.2790051066263006 
-0.1309966757067712 
0 
0.03002879887619058 
0.2186192883503407 
-0.1923090769512019 
-0.08664856226626293 
-0.06077135450984772 
0.3179590424090096 
0.04984336164635104 
0.843531069956646 
0 
0 
0.2732425275372855 
-0.1491563330773057 
-0.002394182496302297 
0.04124359130778251 
-0.03568846693826801 
-0.4027121278145169 
0 
-0.02969991695931301 
0 
0.001624041599881518 
0 
-0.05405934857168607 
0 
0 
-0.03645007823653367 
0.3190407471453629 
0.05386698675853775 
0 
0.1378464289780244 
0 
0.0476857443465108 
-0.0674767873497773 
0.2809292570316314 
0.02064628066893518 
-0.001564793557561533 
0.2477941689850603 
-0.02898235421671978 
-0.01542621936558469 
-0.2131603599713326 
-0.03570557491754801 
0.1342906705464568 
-0.04849474704831358 
-0.07499950900090593 
-0.2110508380746203 
0 
0 
-0.06602076360369345 
-0.03945214264217548 
0.6073516778278248 
-0.01441592775579677 
-0.05938508592585063 
0.009181470088888217 
-0.1116233554553964 
0 
0.0858445478993459 
0.01377345510862576 
-0.0610251988817018 
-0.02707683428584946 
0.5891227460151199 
-0.1369622709098217 
0 
0.4643015718178846 
-0.01346768147506252 
0.214724517561768 
0.1104283283400687 
0.4546302246963269 
0 
0.01018932069747286 
0.09398599452045632 
0.04682872986997742 
0 
-0.08451570470332918 
-0.0408003140293843 
-0.2870322943160627 
-0.009523758771907755 
-0.00635171384121841 
-0.4659949507112544 
2.602085213965211e-18 
-0.009433237073622966 
0.05882437425229606 
0.09045245523724893 
0.281371901192117 
0 
-0.04171898596009819 
-0.111590915155701 
-0.1418662793327908 
-0.1753159666453947 
-0.2763762784625742 
0.08258435221012955 
-0.2138216482459434 
0.2745083191548258 
-0.03505497182991217 
0.1007382322757903 
-0.0523205985313156 
-0.05200736902768578 
0.06057458664575324 
-0.04563475517048944 
-0.07295792166334238 
-0.06668606363457089 
0.1098318730017376 
-0.3351656952163042 
0.0148244235041887 
-0.02850554344126302 
-0.007641314169277802 
-0.02823483429834074 
0.5277783760316552 
0.07978149902603314 
0.167632192564764 
0.1077238056074793 
-0.5075296896214038 
-0.02501316514905698 
-0.3923458034020215 
-0.1154328939085995 
-0.02309958180960003 
0.01484382755570494 
-0.4049958041917265 
0.03353618902029638 
0.01512281635145557 
0 
-0.00217997991380674 
0 
0.1061470756991181 
0.596902579495611 
0 
0.1829375316865803 
-0.1404766417497383 
0 
-0.03028011475862752 
-0.006606422272544273 
-0.007119616134801273 
-0.009189029861816909 
-0.05516021818446425 
0.03065974114876721 
-4.336808689942018e-19 
0.06291657259601306 
0.07557725382409305 
-0.00242603399451039 
-0.07137379258541096 
0 
-0.02586654328608035 
0 
0 
-0.01710367712028123 
1.01679516079863 
-0.04710850754993201 
-0.006296949412647876 
-0.002485627041272713 
0 
0 
-0.06589753928447997 
-0.07432137482781756 
0.5121992460130299 
-0.07964963831297837 
0 
0 
0.02235789269187562 
-0.03161736748701095 
-0.04403394944789831 
-0.1193768114874588 
0.08532288141427047 
0 
0.01772045130445858 
-0.202093280523523 
0.0003953965192857297 
0.01251757791082911 
0.02331428984520414 
0.03655609277399756 
0 
0 
-0.005371189124002693 
-0.1033279941087905 
-0.1050302740814092 
-0.03445622392206982 
-0.03077684510172851 
0.7280517163135724 
-0.06173808989239777 
0.4927336252774138 
0 
0.4938746637725622 
-0.08743300572509606 
0 
0 
-0.01072497545323954 
0.03972335987204045 
0.1954511825488661 
-0.06142169836639498 
0.6929829540363476 
5.421010862427522e-19 
0 
-0.05209746718352693 
-0.1034424065655693 
0.211921346876533 
0.06100742673985429 
-0.0367968885332085 
-0.03664203743026913 
-0.3652728803337207 
0.03529518516612003 
-0.1319502755665015 
0 
0 
0.008110922022524433 
0.03112381369327445 
0.05220442033238469 
0 
0.01104902789978091 
0.2921977331632051 
-0.02123044716124231 
0 
0.321892350997789 
-0.03690525401969464 
-0.01983417823235765 
0.1599180710470942 
-0.06627083673912143 
0.2914016135585144 
-0.02498416842724852 
-0.07960101130525878 
0 
0 
-0.7156978025707935 
-0.2243732785565385 
0.001549805151428583 
-0.347239167868768 
-0.1792274597564973 
0.1112923483350438 
-0.1202966771992969 
0 
0.4188610193698381 
0.1793469087365917 
0.07800241422553333 
-0.03121982156281849 
-0.274463941363535 
0 
-0.2231888304849284 
-0.007468780663773689 
0 
-0.2014244785884046 
0.4976605502334102 
-0.04227173196497778 
0 
0.1118878157704053 
-0.05080062296717906 
0 
-0.2897067716757354 
-0.009368651845277309 
0.08026013370404586 
-0.0353220101052925 
-0.02510375693244921 
0.003250648596857965 
-0.01365214643319178 
0.3782494541217464 
-0.00155952770466181 
0.01503334901520734 
-0.09446991710038619 
-0.005095644549458654 
0.03159392727084515 
0.3089083279784546 
-0.1807508073957218 
0.02738504016536154 
0.0006964725194013832 
-0.004654620557857669 
0.06372768786015434 
-0.001048433220021741 
-0.2268078995686884 
0.0002693631730130499 
-0.1233912882705615 
-0.02241041484649906 
0 
-0.005453810929913165 
-0.02153331778499313 
0.06696946208044864 
0.2106298879414564 
0 
0.1328639143563302 
0.05298958344392082 
0.07803083482682216 
-0.07791607298963292 
0.0627216565349534 
-0.0001200541382850569 
0.01983643686990016 
0.01130267300973514 
0 
0.3826770422963544 
-0.2285531956569736 
-0.3033131981298584 
0 
0 
-0.1883351321304972 
-0.004392364422574176 
-0.009738158467076242 
0 
0.04164771840121268 
0.1849340076624145 
-0.002013537169142548 
-0.2135929373508847 
0.1459790705829536 
1.271832601759976 
-0.004133550511099866 
0 
0.2424790445089553 
4.336808689942018e-19 
-0.02681712644441665 
0 
0 
0 
0 
-0.01093476378814178 
-0.02489587761107741 
-0.4617465410276778 
0.2089706952654466 
0.09507670068160851 
-0.003406750694530547 
-0.07845014293694237 
-0.3086644036090235 
-0.00303842787216446 
-0.001685311263207883 
0.354883858826523 
-0.06534442471109617 
-0.01077306700597925 
-0.07781428489142564 
0 
-0.03180901312367992 
0 
0.03400405062434113 
0.0431742499559126 
0 
-0.08215422471296033 
0 
-0.3116186854924897 
-0.1996260245314084 
0.03457356475068191 
8.673617379884035e-19 
0 
-0.0829543230411211 
-0.02929824572554796 
0.9615448300504039 
0.05620691385274828 
0.01295513957400289 
0.1235906528979505 
-0.2810508154533321 
0 
0 
-0.2822841182571338 
-0.1254963663890504 
0.02849220697218385 
0.003329851968260725 
0 
0.003398722890300874 
0.03213981391632891 
-0.6000235864794543 
0.2221044165303474 
0.6691373653294924 
-0.0004654576091067642 
0 
0.001147148712710427 
0.05897717509259368 
-0.08559937597936308 
-0.03390624017113516 
-0.0006678617853950775 
0.2458915517252863 
-0.3275245908337455 
-0.014257102476147 
-0.05448203249027624 
-0.03145136070480915 
0.01972167493876717 
0.2960995245366106 
-3.252606517456513e-19 
-0.6652945432332072 
-0.3791956563558808 
0.1346952331397353 
9.75781955236954e-19 
-0.04117200722058974 
0.1285691119924365 
-0.06851147067112377 
0 
0 
0.6690854534946173 
-0.01900456555727093 
-0.02688704407008774 
0.07275006638790323 
0.04762222800841256 
0.1155868102709185 
-0.2874918312746827 
-0.1331907885351529 
0.07216996721745128 
-0.04667511777764102 
0 
-0.1488726365976261 
0.2305412368221512 
0 
-0.1902812969350174 
0 
-0.1291097690294514 
-0.005974099977034106 
0.02249277051742157 
0.07059127265481047 
-0.1175667004877988 
-0.06377567779613502 
-0.3404513460022182 
-0.08822051555420199 
-0.0005654691522569817 
-0.2695041296010616 
0.006930322819253347 
-0.01761317523733108 
-0.06000288514358228 
0.004914533319416412 
0.02952538913486446 
-0.5182005192904952 
-0.1149258290722104 
0.2909308846388621 
0.001781694501391782 
-0.01289852569093825 
0.2699416867850164 
-0.5395318135203034 
0.4969528069945733 
-0.1874246762193522 
0 
-0.03667644292751279 
0.004889099768453074 
-0.08560090845365818 
-0.1169341901778555 
-0.0563380443034712 
0.07244408065215102 
0.03686251196056348 
0 
1.192622389734055e-18 
-0.07106272556440328 
0 
0.03175204605241482 
-0.2469442614236294 
0 
-0.1264041119606793 
-0.06134048833683028 
0 
0 
-0.09610621660967165 
0.2532218483511813 
0.209096680905499 
0 
0.1932122221011806 
-0.02549811790552124 
-1.084202172485504e-18 
0.1352168792009041 
0.1230792087642879 
0 
0.1440315514061223 
0.06794626401933725 
0.1066756126660885 
-0.002235414408889537 
0.2207163128025732 
-0.09519208638422079 
-0.02593973305658035 
0.01324506448639335 
-0.01007491363200394 
0.327664163875209 
-0.2987533333513021 
-0.1563593994909134 
-0.02048662830186119 
-0.4077521440162081 
-0.006182027385752862 
-0.03663349882120979 
-0.008593635166892211 
0 
-0.01113127790410729 
0.3376723074565393 
-0.007126111792349387 
0.2101720047476964 
0 
-0.0007925161740547605 
0.08617772375849607 
-0.03300400055690986 
0 
0.009044228465863734 
0 
0 
0 
0 
-0.07269790048032293 
0.04002177540602816 
-0.02048291540666347 
0 
0.04905174756142353 
-0.4302609563089641 
0.7067995065470405 
-0.1466508506570689 
-0.01528794747753563 
-0.2632024807771949 
0.7776308756456691 
0 
0.1476229103103248 
0.0871951850669628 
-0.03886754907848448 
-0.3406018412407754 
0.06482638268846568 
2.168404344971009e-19 
0 
0.04568761624117448 
0.04583017101513508 
-0.007280332321567145 
0 
0.01305151785180774 
-0.01884657711614784 
0.1010288168151599 
0.1950916039940755 
0.06053130147223524 
-0.02979104818208647 
-0.01776919899563687 
0.00583216095153344 
0.09640172160104435 
-0.09233160356689733 
0 
-0.03753667489092043 
-0.02084897485270476 
-0.1061278364752218 
-0.001315536728670276 
-0.04146738414638688 
-0.08408938306283617 
-0.1678218574176621 
0 
0 
1.018448410081903 
-0.005557122746151301 
0.05474005223666745 
0.273159508560505 
-0.2531840797363444 
-0.02036774177470128 
0 
-0.2645764892811586 
0 
0 
0.03655790682221581 
0 
0.2784508384046361 
-0.08506012428665978 
-0.1094910830700245 
-0.178275572001675 
-0.4982694120234046 
-0.09953653668433586 
-0.003249569511982622 
-0.03529617700228548 
0 
0.01633857943769516 
-0.07364578830735111 
-0.0001276085686817501 
0.1719775060522046 
-0.0809989844405465 
0 
0 
0.8604024478218385 
-0.9096864854912551 
-0.5693492280046129 
0.05733703177509381 
-0.1833642684225858 
-0.01684160377905165 
0.2348071353910379 
0.2016367501479389 
-0.8397843084488567 
0.3149410527489802 
0 
-0.05647889797093431 
0.06599271901034767 
0.06753387393122436 
-0.05418482504080631 
0.1127012111954827 
-0.1393666506460965 
2.710505431213761e-20 
0 
-0.6321421845963567 
8.673617379884035e-19 
-0.1669397013016855 
0.06559012647258765 
0.03977048980303996 
0.3139361999565155 
-0.01517809414563885 
0 
-0.3174146920711129 
0.5069779828355561 
0 
0 
-0.4128127282466413 
-0.02504986321636578 
-0.2161810040171736 
0 
0 
0.2352357699379888 
-0.05929026624674547 
-0.0130098607452428 
0 
0.2634354961402902 
0.006552308470656091 
-0.2180343364363519 
-0.1375810251504972 
-0.1756303440241654 
-0.003122076538704864 
-0.1000409674776272 
0 
0.06134434944508532 
-0.005440095276200829 
-0.1423396371876353 
0.003612806520536832 
0.02705341145849612 
-0.3989086353231231 
-0.06078792371434983 
-0.09626063023809428 
-0.1449192457179228 
0.02394165743436255 
0.005460612529349515 
-0.4874230283148361 
-0.01043208815722923 
0.08283126085176057 
0 
-0.6215042351158432 
0.1457758755910718 
-0.08460804011590529 
-0.5336634506909864 
-0.1695859992780039 
-0.07176921197837303 
0.01720346548495528 
-0.02908026987422182 
-0.02643929627823868 
0 
0 
0 
-0.08629693062302904 
-0.02779397791005949 
-0.3002213767361061 
-0.3203606195594274 
-0.006529062832284266 
-0.01047901483251843 
0.4099311816168743 
-0.1193457998484405 
0.2246527258676166 
0 
-0.1417064448715686 
1.115421297697626 
-0.01983019464853648 
0.001273483070208684 
0.008741898479509236 
0.01485517539983266 
-0.1295585252595785 
0.1648825855022989 
-0.01308929474364545 
0.00492640451737101 
0.1231784350519792 
0.1908368116810889 
-0.01947760100012292 
0 
0.03727816477035854 
-0.01802502211419057 
-0.1571449978593626 
-0.1456036974884995 
-0.3581179791967056 
0.1575703216468914 
0.06519733890082967 
0.05476730205758944 
0 
-0.09447208727309525 
-0.6217424216382818 
-0.001934572346129472 
0 
-0.2305177377112031 
-0.2023041148937278 
0.06406880388996616 
0 
0 
0.02099542693994179 
-0.01718879376129302 
-0.2371186486980351 
-0.02168366209903687 
-0.03772927699012756 
0.03259657030672405 
-0.06141238456401848 
-0.03864890476456938 
0 
0.01209510114082033 
0.168563471603802 
0.3988508346870026 
0.01722052424140016 
0 
-0.3370812506324596 
0 
-0.01020957400654484 
-0.03637519038064481 
0 
-0.07552214914619397 
0 
0.1636508837780905 
-0.09070582692551597 
0.02038890049538253 
-0.5484729671824599 
0 
0.619463368701324 
0 
0.06572384350714816 
0.006706950673353628 
-0.0152101037651937 
0.2057784240758041 
0.001725484186480747 
0.003664364148764215 
-0.01977173091427806 
0.2250972425052904 
0.2038029356485239 
0.01255913827426661 
-0.02146041500217322 
-0.04346292369977056 
-0.005747051896202485 
0.2869240012489859 
-0.7334311361888411 
0 
-0.0005545332296085435 
0.01971776467586269 
0 
0.03112104935701502 
0 
-0.04264132425256326 
-0.03201362706660998 
-0.3209823671341794 
0.02169453107717813 
0 
0.07204154513231677 
-0.03705023308003642 
-0.1691443541876204 
-0.002238642850735629 
-0.5884501548407152 
0 
0 
-0.06169756601470262 
0.01969556450450496 
-0.1389872019175227 
0 
-0.001323265685734357 
-0.06712129604876441 
0.07158267981951814 
0.02367292551656526 
0 
0 
0 
-0.9790077663242951 
0.1036319196142293 
-0.2156665007719532 
8.673617379884035e-19 
-0.2458788139770169 
-0.02172287466206975 
-0.01199545018848293 
-0.07837157895737878 
-0.2493409227832257 
-0.005375190982323236 
-0.0326176300116189 
0.02947834993096578 
0.07425907817740707 
0.07273178969818632 
0.1775596097724211 
-0.001216430552668862 
0 
0 
0.0811554079173611 
0 
-0.3098188584252556 
0.2770830235436212 
-0.01773848824912406 
0.2037393830811904 
-0.1125899957840823 
0.1971290275824801 
0.01036104631034336 
-0.02762628101540662 
0 
0.04952475275380872 
-0.04490453558446091 
-0.1394277257192475 
0.08369516206410527 
-0.02149762660535932 
0.02434238448682447 
0.4931176138349904 
-0.0248058742169019 
-0.008675871418856151 
0.1634946662477167 
-0.05475011158390867 
0.09294308618345865 
-0.2335398872661465 
0 
-0.02058692326035792 
-0.005346816705440967 
0.02446596013328043 
0.05443377871747361 
-3.252606517456513e-19 
0.09135838053902851 
-0.5501398156670403 
0.3479091488800791 
-0.009912911535914833 
0 
-0.0120071945934846 
0.2174727250799475 
0.02508032805560237 
-0.1376924689451159 
-0.01783345269737693 
0.09093756285069415 
-0.05446245815804113 
-0.03891431010641755 
-0.4911351644043477 
-0.0175114402102366 
-8.131516293641283e-20 
0 
-0.00160988552781118 
0.7784007409701131 
0.2074132152705672 
0.06892437193939709 
-0.01496673986654829 
0 
-0.2592954640176415 
-0.1638822747096118 
0 
0 
-0.07386508506743023 
-0.1342681586862175 
2.38524477946811e-18 
0.009466151449085176 
0 
-0.00687309229947677 
0.2341296163153374 
-0.01473821490399658 
-0.008739393971333284 
-6.582470433122773e-05 
0.001343384597035771 
0.009362629242496739 
-0.04997327093675336 
0 
0.463645336979234 
-0.0478515157093102 
-0.01622255847607964 
-0.08712312342147431 
-0.07384771002907659 
-0.04044637853930174 
-0.1636606822189706 
0.009802924920204542 
-0.07459354460445808 
0.208417870721228 
0.2584802981017459 
0 
-0.008996900107280055 
0.02097134981729531 
-0.03121908342478504 
-0.04347059679349285 
-0.1968924869303442 
-0.1275092186065256 
-0.05175312165500951 
-0.03463111684797206 
0.6524280149776868 
-0.0719569995527907 
0.5978261326485865 
0.1250790630854026 
0 
-0.08058409876035003 
0 
0.05880398937993666 
-0.03493107836165682 
0.02091518030377092 
0.0797892330435329 
-0.03267677112475388 
-0.2370290392040189 
0.3752968231762831 
-0.4338295750796167 
0.08221692962237588 
0.04494057259118791 
0.0107986466043289 
-0.04907149941206194 
-0.1244545173433231 
0 
0.05642873414557813 
0 
0 
0.08514489759800013 
-0.2324126470915711 
-0.08882412548678252 
0 
0.05494998640335784 
-0.001748703016371088 
0 
-0.01218555622751973 
-0.1620217054768794 
0.009552539916593479 
-0.04998305135840988 
-0.2465579357013679 
0.0396193208249434 
-0.03514300890487332 
-0.04361719345606519 
-0.05436477295728742 
0.01293982294641083 
-0.1159801358200934 
-0.07536016233036874 
-0.02311724585859291 
-0.02422979514276641 
0 
0 
0.06182355957660053 
-0.56462005348811 
0.01052621043947903 
-0.002861494434196626 
0.01525795069332828 
0.009949100382681104 
-0.0296378488583961 
0.1793960866580557 
0.1220921367890456 
0.6754016217577953 
-0.1181536815706385 
-0.0385008637037515 
-0.1308762282315886 
0 
0.422458243489326 
0.1497490765114336 
0.006706622784510756 
-0.0001847069735703778 
0.04702317136114481 
0 
-6.776263578034403e-20 
0 
-0.03139396212701492 
0 
0.006660504694836186 
0.3573793671095071 
-0.005504339066986322 
-0.01992343770124063 
0 
0.02418585119774248 
-0.1282896479898324 
0 
-0.0259341950107688 
0.02784280836827784 
0.00580974453767013 
-0.002070438069436208 
-0.03445412391339501 
-0.004504537170163725 
0.2742406585185015 
-0.1849624543084891 
0.02446373542902885 
0.04409790789498857 
0 
-0.09679158589101657 
-0.2079467856167427 
-0.02370742392192828 
1.786767484700049 
0.09919240256058372 
-0.1605474677929084 
0 
0 
0.00925833313161384 
0.08708432759937022 
0 
0 
0.05290088190157267 
-0.114279535082183 
0.01742501620856373 
0.1384012308054924 
-0.02767745228583991 
0.00838492462351411 
0.04935716327741577 
0 
0 
-0.002361320436953041 
-0.0155940282392725 
0 
-0.006548040219927734 
0.006346494241909932 
0 
0.2175799990595532 
-0.0709515740616254 
0.01144576373297884 
-0.164565793802728 
0.03797514934773673 
-0.02252997436000349 
0 
-0.4827210594010647 
-0.00748121386708796 
-0.02607213602188279 
-0.03035050921043926 
-0.01773008307430748 
-0.01004365702023978 
-0.2270384332417506 
-0.21476880789379 
-0.04339635895617908 
0.01713629053332602 
-0.02639160674287727 
0.02798200142590415 
-0.02417605303738184 
0.1888226064844704 
-0.1427766927980051 
0.08822170448177172 
0.01052682737708773 
0.1016515920052771 
0.3838769940462961 
0 
0 
0.02788634325377673 
-0.01793655933880298 
0.1305309832069872 
0.1251719933901385 
0 
-0.7287815377610066 
-0.001290676934184896 
0.08899160775208724 
0.2850620040385526 
0.6233393723210745 
-0.5387902059268799 
-0.1084396622292579 
-0.02272927751832874 
0.1770987130019417 
-0.003962108516086564 
-0.02765944532711277 
-0.008782699633559677 
0 
-0.01169529560575382 
0 
-0.001717671973019403 
0 
0.02629140632045488 
-0.006763661951882213 
0 
0 
0 
0 
0.03170704186201721 
-0.01659881434560012 
-0.2914080070407128 
0.2721012924093454 
0.1332225760422976 
0.5506009529802165 
0 
-4.336808689942018e-19 
-0.02300351246795226 
0.5797988591782788 
0.2126477706578819 
-0.03931522480943169 
-2.168404344971009e-19 
-0.4506880338660528 
0.2470338667372122 
-0.1007289213526108 
-0.06417842137311108 
0.2670610605613955 
-0.1711959870838643 
-0.03957755373195045 
0.02436411021280192 
0.1231344981358472 
0.05241572454028359 
-0.03233501825359631 
0.008358890075375285 
0 
0.03022599781280946 
0.01616311543252769 
0.01303070358567205 
0 
-0.0658648996398299 
0.004921391664333656 
-0.06111254275219323 
-0.0291081662857756 
0 
0.09749517304065358 
0.07979804965304367 
0.009410948356043241 
-0.004572679981973824 
-0.09886863465643839 
-0.1203549430248874 
-0.1022724220662604 
0.41465165835514 
0 
0.1612803754842711 
0 
0.132777423770553 
0.724621717300255 
0.2994916531540531 
0.1965872884284934 
0 
0 
0.06375311303516649 
0.2884449027992881 
0 
0.08042616822959694 
0 
0 
0.2302230420086223 
-0.2057264824249173 
0.02134790389391373 
0 
0.1493851128428939 
0 
-0.03229213776727306 
-0.3496538610555721 
0.008317147139141489 
-0.08032402659972174 
0.1381423911840624 
0 
-0.001707241369567135 
0.2543606375062189 
-0.02890899921832017 
0.1000430506860652 
-0.005542118964091515 
-0.002450763796200663 
-0.0007627033621242932 
-0.03309019471874827 
0 
-0.01978882979782171 
-0.05018080548175492 
0.1647135015190888 
0.8605295867057283 
-0.4438999230580951 
-0.1994818816880128 
-0.1928192897200602 
0 
-0.03156614128208654 
-0.02167877390365477 
0.1137638295127832 
0.6063528112707359 
0 
-0.03106971100726157 
0 
0.01306017312149461 
0 
0 
6.938893903907228e-18 
0.08161263023065812 
-0.0189770466012207 
-5.204170427930421e-18 
0.01544278415254185 
-0.009792073341460827 
0.02787316208684988 
0.9936345563106777 
-0.02981300725798914 
0 
0 
0.104734757760573 
0.4829314030773404 
-0.07903101417280317 
-0.2988313554011685 
0 
0.0261446738469518 
0 
0.03142782559395123 
-0.000523622148163913 
0 
0.5944758704566658 
-0.07776486115575913 
-0.00702015784980806 
0 
-0.1548831490116503 
0 
-0.2307617719949954 
0.07933988988188792 
0.4734410255181605 
0.3734546572675996 
0.0489401096535247 
0.3897986476258437 
0.09237850542530646 
0 
-0.005513607250001743 
0 
-0.02118156549193374 
0.009025700685536032 
0 
-0.371492442348702 
0.01341873897047282 
-0.06652570876839009 
0.3345753280922975 
0.004290926786536011 
0.01024705633664203 
0.02258326378180617 
0 
0 
-0.05951068088077306 
0.168470924214527 
-0.06004207177123125 
-0.01144493209630692 
-0.02031373873450286 
0 
0 
-0.0931021572195295 
0.02163351473558916 
-0.006948534415444726 
0 
0.1285888241184049 
-0.2226571387893267 
-0.02077509896455442 
0 
0 
-0.009711270162752382 
0.08791760467693491 
-0.02289941693471312 
0 
0.2349982017389872 
0.06686842536736409 
-0.005146748759662685 
-0.1187952130762886 
0.04075545992479167 
0 
0 
-0.0158116792461635 
0 
0.04980016862112792 
0.02603295227971454 
0 
0.01006681807716825 
-0.007879883679900838 
0.003821488317863692 
-0.1483520381408894 
-0.028500034459854 
-0.06734872911277974 
0 
-0.01019317250185453 
0 
0 
-0.001417598964174593 
-0.1547502810746481 
0.3613524203442285 
-0.06164499862112272 
0 
0.2550506189366749 
0.2533944479392148 
-0.005593686820245829 
-0.007661344511157749 
-0.07765864792279874 
0 
0.02915327999792896 
-0.05599263873988784 
-0.01920692288048654 
0.06589389628734967 
0 
-0.0002544840960290646 
-0.005458736186809565 
0 
-0.1201939668744395 
-0.01016070258676404 
-0.02176396014394367 
-0.0994709622067739 
-0.02832411986966105 
0.01405536298202833 
-0.05585113841590567 
-0.0001375926445990358 
0 
-0.03361118787986628 
-0.04318837791546973 
-0.1467453830199738 
0 
-0.011109379808905 
0 
0.05745265786926061 
-0.1042155128290507 
-0.07803576229597567 
-0.8853917959544165 
-0.2257965139922764 
-0.08365556105326774 
-0.03808173311279635 
-0.02833474345474404 
0 
0 
-0.03688110745745991 
0.06139734354241834 
0 
1.335729562095647 
-0.08970610031460649 
-0.4684393092372138 
0.08789254753071589 
-0.1084523953837656 
-0.1269154878640875 
0 
0 
0.1156913776793349 
-0.1269164441875619 
0.00847730407844436 
-0.06476496379836769 
-0.04369784214494042 
0.05661612643321726 
0.3096620372513305 
-0.3985647343069964 
-0.005777360226334913 
0.001263522319534329 
0 
-0.05423423890084657 
0.05183047831335087 
0.1728532199455708 
-0.009685060007647643 
0 
0.3059845978704217 
-0.8915190471029731 
-0.06242117262538759 
-0.02199232735838387 
0.1287650501928282 
0.03657537594751091 
-0.6291930619967953 
0.06754602606105325 
-0.005983454070150926 
0.05903816952163876 
-0.2598030103541708 
0.04313852234861627 
-0.01952214791344439 
-0.3984100079714446 
-0.04075235061226015 
-0.0004293994408768393 
0.326969368696939 
0 
-0.1399357901299511 
0.03504764947812262 
0.02741519101253301 
0 
-0.250850921307977 
0 
0 
-0.1549549425689555 
-0.03275901472588326 
-0.01104305568370091 
0 
0.1908953596870724 
-0.2932876610146013 
-0.06783197142895733 
0 
-0.03816834712311319 
-1.301042606982605e-18 
0.1216685832858246 
-0.09879210459871739 
-0.0024337609451257 
0 
-0.1009287744984917 
-0.07033392823447066 
0.08982742263800939 
-0.02914756477256097 
0 
0 
0.0346201812580316 
-0.1677818619692476 
0 
0.0001625007189843009 
-2.602085213965211e-18 
0 
-0.0002363255651349838 
0.05899250182572754 
0.02949796310465375 
0 
0.09224666851246695 
0.5735743542609839 
0 
0.002207840623227954 
-0.351163771800386 
0.07365126468076141 
-0.01889419744282987 
-0.02470836335618084 
-0.03102369225690155 
0.04150164031210482 
0.01128353992950633 
0 
-0.2847540484222427 
-0.3076807299036972 
-0.0678429542856703 
0.04653883930304176 
0.2928732476639344 
-2.78504433057214e-18 
0.2927414375500967 
0.007167685634089639 
-0.1780430000750075 
0.4522884561725475 
0.1143123536449814 
0 
0.1013167130065186 
0.1422364743827265 
0.002526723574457395 
-0.0309750801674564 
-0.01108148070710382 
0 
0.01591998396560912 
-0.01130219851817704 
0.0223327474348825 
-2.168404344971009e-19 
0.07398955874842567 
-0.02088439930820987 
0.04726307758061808 
-0.2654537012990031 
-0.2389774199992673 
0.1754206884175951 
0 
0.0284302648891385 
0.06756693961862742 
0 
0.3734507525485828 
-0.03838805412352311 
0.0106701676019148 
0 
0 
0.05220919394364047 
0.03855592305919259 
0 
0.4453459206504747 
0 
-0.5574262263088717 
0 
0 
0 
-0.4446447851988005 
0.4137676764681704 
0.1773979645526837 
0.01061989077123047 
-0.04632627598139787 
0 
0 
0.281409107518189 
0.03984553197749344 
-0.01538496958947946 
-0.006215306605733406 
-0.003588226700753339 
-0.04865959051321246 
-0.05270395428484267 
-0.3196844504011571 
0 
0.006031106072511775 
-0.3400816555173385 
-0.01216063172418279 
-0.03797160297528638 
0 
-0.05527200762662687 
0.01553364127817118 
-1.734723475976807e-18 
1.734723475976807e-18 
-0.6436601267940006 
0 
-0.2508106123429563 
-0.007679152595060666 
0.3664187508156194 
0.1355678352082008 
-0.03146433938635727 
0 
-0.5830755948346643 
-0.00253273926889635 
-0.7349830821940161 
-0.1787636669341087 
-0.1571952291829584 
0.1165742849850344 
0.1118660187854353 
0.06749239199830065 
0.331417922109111 
0 
0.1561648132671409 
-0.00594635298211166 
-0.01209385386305585 
-0.01509878424596534 
-0.07633963104082306 
-0.005351608722635195 
-0.005685929613866976 
0 
-0.3599593041584335 
-0.04606073984371436 
-0.0005641761671715479 
0.1406542589225702 
0 
0.1109063577938008 
0.02984923427122947 
-0.2207283027277949 
-0.1382040217954849 
0.04727536758423959 
0.09020844747472656 
8.673617379884035e-19 
-0.03972784635112755 
-0.00969084494909027 
0.09091228322705712 
-0.3863498248306962 
0.1029307051736018 
0 
0 
0 
-0.002070483501152801 
0.08300396139070908 
-0.1258271138521385 
0.008663187185050695 
-0.02195981516296989 
0 
-0.09927255853401926 
-0.1122539722091379 
-0.4492373418833936 
0.1705405237316346 
-0.02424950285559555 
-0.00466246561708315 
0 
0.04923066555756737 
0.1128108476931785 
0.6795368273794589 
0.06188886906055703 
0 
0 
0.912569288512612 
-0.000425911859397313 
0.388024038582873 
-0.01418924415704761 
0.04438935096148491 
-0.03689600597983445 
-0.4587953440560366 
0 
-0.05261871779618328 
-0.004364913647927507 
0 
0 
-0.1761900639970702 
-0.01955295986232514 
-0.02745181774620857 
-0.006309058471499757 
0.08191063422216047 
-0.03596114977455352 
0.01518111835215717 
0.005351493866566004 
-0.00553748178551852 
-0.02348262190453335 
-0.008696371495936632 
-0.008791152659423491 
0.06925507689720144 
-0.02724475274057143 
0.03737308023579369 
-0.1929763422163807 
-0.01055558893391102 
0.03446830505267574 
-0.3778164291723001 
0 
-0.002656895906114396 
0.01702489441059122 
0.006977850922151737 
0.02632828329785935 
-0.002987556370475901 
-0.009228865496543646 
0 
0 
-0.1809219380208025 
0.01489852618390972 
0 
0.00436295412382373 
0 
0 
0.1024843467645133 
0.1649353177831136 
0.1648948089051133 
0.01696952595545638 
-0.4720529272309489 
0.2614918196211833 
0 
-0.07474927236485915 
0.2051815181525889 
-0.02354462484097092 
