solver_type L2R_L2LOSS_SVC_DUAL
nr_class 2
label 1 -1
nr_feature 5000
bias -1
w
0.1855350343114477 
-0.08723546420871346 
0.03426817823606651 
0.4547965440163222 
0.04791571404727613 
-0.04072393372831009 
0.08017362293067444 
0 
0.1203158015564536 
0.3009316124568082 
-0.2668349535000797 
-0.1878046568774184 
0.03546329893959889 
0.4277169745782765 
-0.4128049886065195 
-0.7292753188299789 
-0.431322565370215 
1.231433277996561 
0 
-0.1610899962507768 
0.7415385893217823 
0.3579710595656164 
-0.3499129635413118 
-0.07756694637573405 
0.2872541057464775 
-0.1125619816066168 
-0.8844979906711733 
-0.1243629747477487 
-0.08321961453239661 
-0.08211976106797536 
0.07678267230819689 
0.1327348654193426 
1.339354992590918 
-0.3450351776912719 
-0.8167996547303388 
0.0832299550725169 
0.6390213523714945 
0.04927888799463318 
0.159134739264535 
0.3154906968165701 
0 
0.2368190891876185 
0.2820130869231283 
-0.08054910105518107 
-0.133270457613524 
0.1413884341902725 
-0.08538064834718978 
-0.1078434166146298 
-0.04187718331238308 
0.2033891576198311 
-0.2418032953816845 
-0.01450085725683365 
-0.1800646700837147 
0.2129417669554859 
-0.1255226070617142 
-0.06076204081427778 
0.02411757771755999 
0.02706085952497497 
0.2333311891692465 
-0.3425701674185956 
-0.03256602402706418 
0.2012116158219583 
0.4545588817260705 
-0.006027288886365263 
-0.8881526141121543 
0.03577960612683455 
0.276877115015826 
0.006695177023165407 
-0.8381485875749324 
-0.2414568762072449 
-0.1631080939379024 
-0.9931935789568634 
0.323152625213233 
0.4503640745708252 
-1.090456079571342 
-0.1711918923024363 
-1.150305028185735 
-0.4442875015063805 
0.1329254007362318 
-0.0183944205268397 
-0.1339716485064334 
-0.3764579592462057 
-0.09228474370764449 
0.1264650031874797 
-0.3650983539080782 
-0.07678621632004964 
0.2566176997797617 
-0.08120301421608236 
-0.8034259456949282 
0.4129876619432807 
0.0009334403115276877 
-0.1095579927565994 
-0.009204801204816255 
-0.8802774979195981 
-0.1984757270118411 
0.01506921348882778 
-0.02410777920299307 
-0.3961616297544491 
-0.4841589091165784 
0.2814643157495454 
-0.08011497337013837 
-0.07673363991252236 
0.3295473765278036 
-0.1735273074691833 
0.01823132752348145 
-0.05602755987925996 
-0.03582980750812699 
0.09556637473179297 
-0.03326824220463969 
0.4466805926578515 
0.07395178187166315 
-0.07109641528770391 
0.2989413074410872 
0.108806857362944 
-0.02992043872655897 
-0.08942780581356183 
1.058004378351323 
-0.1913491601134023 
-0.01040121530982617 
0.9188521606831213 
-0.2791159945442021 
0.02347229268347176 
0.1613000062264414 
-0.02047421435984721 
-0.1147516278090747 
0.3084572763905308 
0.1068590053238328 
0.07968311834961893 
-0.1007356253596593 
-0.3897346930977227 
0.06659819506337733 
-0.1678463256902795 
-0.4624475331042823 
0.3376855114279317 
-0.3046866735377677 
-0.7124369804747651 
-0.1004065508233418 
0.3116372087383197 
-0.07815577690863459 
-0.1173580883773776 
0.01683944301988021 
0.2961246277320986 
0.03187303576372237 
-0.06672693787321646 
-0.6821668641861455 
0.06440333271712023 
-0.2497707948435912 
-0.2021277674255525 
-0.02994311218483422 
-0.01982020096553746 
-0.2704269611083219 
0.06211011515552296 
-1.118821713343398 
0.03346854828310235 
-0.03949336852047232 
-0.07890224037584237 
0.03957768394388553 
0.3781211056617074 
-0.1110133614240441 
0 
0.001099934363352919 
-0.4890156131856609 
-0.05521789180640331 
-0.3173040089690947 
-0.2309238536316381 
-0.2410201198487526 
0.1027044454002266 
0 
0.05726685400296597 
-0.08927635128483667 
0.229514348176407 
-0.1230391491892012 
0.08973064809818217 
0.1088785933883754 
0.1660103431244549 
0.1028648724838479 
0.9291412385962589 
0.2937070004568043 
2.22212408964857 
-0.1156026824192894 
0.01284027326068444 
0.07653359163225179 
-0.1295630354217706 
0.05938174314771211 
-0.3139888170217783 
-0.06913064630045687 
-1.694926872223353 
-0.1378984588582665 
-0.2784380154438031 
-0.1033404046109682 
-0.2903572363943371 
0.05368344648884004 
0.1775072469851286 
0.1295195510251404 
-0.01897123556669062 
-0.09744965558243517 
0.704423645090441 
0.8054128415570934 
-0.7060057049606251 
0.004389107459951054 
0.03722407980733631 
0.008159872078751275 
-0.0181017331577744 
0.04058885202811108 
0.2424116933800335 
-0.1660439434759525 
-0.06447184132918538 
-0.3925020109192764 
-0.02462464682038155 
-1.382131571778002 
0.1086274579172806 
-0.1833248599751605 
-0.3517855329624271 
-0.06866067109850132 
0.2283475271017371 
-0.02562795988396418 
0.2216034753382805 
0.03679331207407603 
0.1949545019104513 
-0.09878640733517094 
0.2406635712893213 
0.3399443901915181 
0.1100065500205811 
0 
0 
0.1878299039777706 
0.36442798823934 
0.318463526003587 
-0.3217226754037161 
0.08758290796815751 
-0.0002971350350272541 
0.2631316239218021 
-0.3472489284095652 
-0.1232817072176498 
-0.6393920338022264 
-0.3642172883395711 
0.2535009770811782 
0.2571051848526855 
-0.04810995793617434 
0.03155186495615572 
0.01062622309311431 
0.02864022328003982 
0.1269791901172603 
0.3370935762303705 
0.02366586753505744 
-0.08127270231911315 
-0.0004601705317955366 
-0.0925183047402838 
0.5909219344822415 
-0.04779376010114628 
0.454352348640364 
0.2035230423024087 
0.1692160089722934 
-2.588258258771516 
-0.3648493591207692 
0.835691974379598 
-0.1013688970626682 
-0.1998949724283933 
-0.01391291662775463 
-0.0002464366069124934 
-0.03616017607034724 
0.02431411842068553 
0.01213611713647062 
0.3757114235418706 
-0.1924744427208255 
-0.6343404876947828 
0.1525022260219613 
0.4412622481513434 
0.1297322973842874 
0.006653040627012817 
-0.3652495049334925 
-0.04448473467304637 
0.01229251686346894 
0 
-0.03508854306546094 
-0.0376221371291069 
0.003725320817689608 
-1.132553591906389 
0.02642178674199066 
-0.05362296833047868 
0.2906242330236495 
0.002497385708612472 
-0.04138160990441092 
0.5309066925857548 
-0.081315212403654 
0.6261688876735358 
0.1770541113548925 
-0.04554641407278869 
-0.01988314731063733 
0.0824008038239553 
-0.5463361802693349 
0.07298523438725882 
0.3882797418326486 
0.03976550450674324 
0.02892350356222748 
0.1285787369961878 
0.1891907418797432 
0 
0.01050020279325118 
0.1887096334684248 
0 
0.1973882177413628 
0.0005879313921942445 
0.2763294792960224 
0.1509850369361112 
0.5250056062625214 
-0.02217770481655901 
-0.1100647774575008 
-0.4036091800132479 
-0.09521187119992991 
0 
0.1962892271502522 
0.06289049558044225 
-1.004625158894028 
-0.1209494574901741 
0.1760566061602427 
-0.4885494875124778 
-0.03364564634420227 
1.20882849863217 
-0.4609878825779113 
-0.3016340638447279 
0.04669364136066814 
0.1732170283899704 
0.1165000122566965 
0.05985909643536898 
0.8532464751469628 
0.01690737600022147 
0.08514151970181488 
-0.01856859416893395 
0.08154315378632609 
-0.004146118593937119 
-0.2148111429614312 
0.4535960020418566 
0.1644587431993061 
0.05118136872738001 
0.05107806324575889 
0.4866492806949068 
0.06191810828135852 
-0.46010958894579 
0.4236787978188086 
0.01223150207562329 
-0.3606666133560481 
-0.4223519480616389 
-0.07630904217324169 
-0.2414983955579354 
-0.1389482625697768 
-0.02409715946372074 
0.08931421980723755 
0.07485021870710845 
0.3931213140139239 
0.002599267978286758 
-0.6447711952906461 
0.009329903592923525 
0.08539412621900301 
0.09082242169512922 
-0.1357911604225057 
-0.1668119691533214 
-0.2976546030535366 
0.05331461315469837 
0.5977084321145567 
-0.1795728338005465 
-0.2562918566208526 
0.136496158387056 
1.932412790820881 
0.1727306956485744 
-0.8014167940169447 
-0.009210014240625725 
-0.5439144969813622 
0.02654786582800532 
-0.06352904723229336 
-0.1311501981526698 
-0.01201465093393504 
0.2359486128335913 
-0.05307026218934991 
0.02381669803907755 
-0.3226275524304806 
-0.09573351512456497 
0.03813368745257995 
0.04861084110996716 
-0.03108348880381864 
-0.03712117305250071 
0.06860333671136366 
0.0915322644443997 
-0.1119771761620424 
0.07295765415060046 
-0.00482542171558705 
0.01289439743732326 
1.989166751247147 
0.04835029804799026 
-0.1884257120336229 
0.08914288756459826 
0 
0.1097465106652074 
0.1346215357046278 
1.243248130170129 
-0.02213151904102195 
0.1870971185052188 
-0.03951995638883483 
-0.2306489558428677 
0.03593210673169271 
-0.4880209520994749 
0.6293827746043895 
0.05505252312113271 
0.004253087902499963 
-0.2295603022307654 
0.4753780199306728 
-0.02195386427308081 
0.2066980471076689 
0.3960829676026729 
-0.105864762869097 
-0.01797803378700122 
-0.07976297002467658 
0.4290799595094837 
0.08326533572212047 
-0.0649464697205579 
0.5360937200111506 
-0.2297833546785262 
0.1735641627985523 
0.1493000850978681 
0.7829913180104396 
0.5763722933356119 
0.03023725153971354 
0.007334280346693158 
0.006758437220683388 
-0.2441366227606458 
-0.2082367489413263 
-0.5217953808824499 
-0.07443548403378267 
0.4543688584056972 
0.2925970096693617 
-0.341934697904457 
-0.8153030794665916 
-0.7233791341441288 
0.02861723984572171 
-0.1823027934431269 
0.206642135173592 
-0.07670424111085478 
0.04300329695119146 
0.2458721462308434 
0.08836475731154578 
-0.7594081602496477 
0.03521376277247618 
-0.0915631067672735 
-0.08134081359551812 
-0.1068244019195311 
-0.957562789440988 
0.07564474005270255 
0.1724053263414854 
0.4490406547512825 
-0.004987507228930949 
0.2358608576954944 
-0.004787178253721453 
0.1288976692501105 
-0.09945054141005583 
-0.3231324216476241 
0.1025033145402295 
0.09530371805453151 
1.25281227962645 
0.2182734788914972 
-0.1544132393515053 
0.3933601064390526 
0.1903563775427514 
0.02736947907745271 
0.5504349538798539 
-0.004691529415226748 
-0.1437972841928942 
0.256536859638711 
0.05659981771018011 
0.1086959244437275 
-0.1848012011745678 
-0.3368473632987045 
0 
0.02444038305702143 
-0.007692927038330835 
0.03196504547649423 
0.01155713843859809 
-0.1607894008363602 
0.01574252565756881 
0.4576577483069386 
-0.1414678959821535 
-0.0251913701846297 
-0.05269397944854212 
0.4618012457740163 
-0.04237542972810758 
0.002041919461500106 
0.1289392742233675 
2.023693237939765 
0.09795457085783793 
-0.1428931224125727 
0.03919659814265956 
0.1168571149733624 
-1.249120221512956 
-0.1158531951203252 
0.04933657949661075 
-0.02005856206100776 
-0.2643019465581081 
-1.02722151654312 
-0.170992646299382 
0.3453609554127974 
0.7156413115538531 
0.2354378666193309 
0.06344782930333633 
0.07311359145884 
0.05477223577730273 
-0.3254926269080399 
-0.03075277588673259 
-0.3425719605324181 
1.376238521851778 
-0.02539795118005248 
-0.1536828552130067 
0.2096886776482819 
0.08178240563007924 
-0.488522116704415 
-0.2180483028516169 
0.3808841995153361 
-0.5928654287549947 
-0.165508909459539 
-0.5667102399207369 
0.1754337721624179 
0.05052547905452703 
-0.01761112138663402 
0 
-0.0005884728972383748 
0.3741725797746392 
-0.1958743666379853 
-0.03610596945501313 
0.01628083553406625 
-0.02946171682583341 
-0.01765634585764831 
0.5141058512479761 
-0.0006173846048301016 
0.0638066234024485 
0.3091277852332539 
-0.04540576065614495 
0.03864178680632108 
0.09500528449566137 
0.1490429805479681 
-0.08892451878918728 
-0.01841467635070302 
-0.1359156589349982 
-0.03276830141306455 
0.5469853885798205 
0.05266368537761694 
0.004124777137603421 
-0.08154556014809827 
0.0460358985413617 
-0.003450548950090559 
0.01401490650197308 
-0.7449151052673701 
-0.1211441229233639 
-1.815414483196989 
0.3301153339048811 
0 
0.008841218361021048 
-0.07469630705734535 
-0.01587268821516221 
0.03948046610301943 
0.1007677386243521 
0.06035615765051266 
-0.7374978403921695 
0 
0.2045756080457181 
0.0915741397233724 
0.2632879525604949 
-0.9838001632046235 
-0.2497285182099342 
-0.0316510462789165 
0.03704381414000314 
0.214512014797663 
0.02602286213400808 
0 
1.57585377570936 
0.1211825464211647 
-0.02590308454519205 
0 
0 
0.1853018207693522 
0.01644920704460653 
0.1880186943877611 
0.03840194337911519 
0.3020887925498612 
0.5801136829878414 
0.4972160498889437 
-0.2111921283343055 
0.01363256289561327 
0.442673458046016 
0.1709014395168288 
0.02265955415153494 
0 
-0.5144997767426772 
0 
-0.02328253200779723 
0.0325559278046413 
-0.1627376901046354 
0.338427857275043 
-0.02035852368511106 
0.3017875077400112 
-0.01341739414214708 
-0.2637654965194652 
0.01962809157436825 
-0.004205461870834937 
-0.06281906152249611 
0.1396520007420567 
0.02583593836185455 
0.04989975340326435 
-0.0492502487415245 
0.09652967956337678 
-0.006640199350616462 
0.04566022144509101 
-0.1100234881147137 
-0.05381943242403336 
0.1612894852917844 
-0.02572860736875689 
0.03266318343818039 
-0.02479441115827589 
-1.329450235904379 
-0.1432550489706354 
0.02647071397381407 
0.2249356219544697 
0.08175312553156405 
-0.1105089366522113 
0.006240277624436675 
0.06583569441383216 
-0.1628249734841524 
0.05987635319650608 
0.1802521752423212 
-0.2644795384122766 
-0.04195643842309362 
0.07588752607686031 
-0.001975382272462692 
0.1393678182643817 
-0.3181945257539525 
0.7344443896010008 
0.03722501362213821 
0.1369797335024687 
0.09054513056745798 
0.1492089669845869 
0.1704219137392932 
0.2862740180287822 
0.2209683090687926 
0.4522105374277545 
0.1638108315910726 
0 
0.4012473597092697 
-0.0284894814964284 
0.4716027412265971 
0 
0.2017327778257939 
0 
0 
0.3183140635850797 
0.02744578615407132 
0.0584152588618345 
0.003622455488431348 
0 
-0.5227991925269126 
0.001199534452653587 
0.1573501288512262 
0.142991185878849 
0.1010056609392032 
0.2447228276444994 
-0.1182166028902559 
-0.3911260873617711 
-0.3474480693030192 
0.01927972935718756 
0.000608616717680015 
0.6745709333940059 
0 
0.3273687336763671 
-0.07799664934091319 
0.1027865787115699 
-0.06468591449790427 
0.1051069432109303 
0.1610687538366107 
0.3250082521901257 
-0.03299750851345795 
-0.00434540409858107 
0.03542164198439787 
0.03965872341257818 
-0.6543253606257439 
0.09211046999116182 
0.1004002099613208 
0.0363924945532428 
0.07029370034713442 
-0.01900115553454004 
0.8035466442365967 
0.0785559230644876 
0.09255539129792323 
-0.02629111497320737 
0.0443685904888452 
0.1004213987365871 
0.008518067983913361 
-0.5682599535458615 
0 
1.305130474550768 
-0.144499278493416 
0.09505361812150043 
0.1225281170776379 
-0.007071766220618227 
0 
0.08284151175855188 
0.04333142576608606 
0.2857629232403891 
0.1517286312227808 
0.02034232149754815 
0.9365501935412531 
-0.01234095889213172 
0.07563444119844386 
-0.01490974250811981 
0.001622538801872642 
0.01850058056880321 
0.07453202629745166 
0.06649448232709679 
1.06075329547014 
-0.2995658908496464 
0.04562482896014443 
0.1695988276433716 
-0.2204543701700915 
0.02673833836042363 
0.04221002347486155 
0.1076901865552545 
-0.2815983064912403 
0.3216685309818166 
0 
0 
-0.3057075148553968 
0.2805281747215613 
0.3714058684218763 
0.006835070368104357 
0.02796189351548879 
-0.1245423448321493 
-0.03818498864626352 
0.05541339759579308 
0.04509369761183671 
0.04443674561214277 
-0.05009847944726547 
-0.0544748832461132 
0 
0.3020735998470981 
-0.04593001249728323 
0.1144363919437017 
0.2179733179849109 
-0.007400224153175845 
0.2297354199893386 
0.03406850719157106 
-0.4974350511897703 
-0.001309913126745089 
-0.2899500118382023 
0.09625698663544291 
-0.3810619598001422 
0 
-0.008492009066406247 
-0.1651029980898052 
-0.5978679584453426 
-0.6758343793895588 
-0.5446533976642396 
0.2540921223466984 
-0.04332992559125642 
-0.05438124951454566 
0.3548296800066035 
0.1275783044990829 
0.1582377595881058 
0.6949020573718225 
-1.616304168967293 
0 
-0.2420407693773103 
0.08285784818301331 
-0.0240114643999511 
0.004380088888710727 
-0.3709164548586312 
0.1688251584494166 
0.1842046462291181 
0.1550565552545516 
-0.2037871413276867 
-0.1459477665771529 
0.09227360456802591 
0.07242674190965433 
-0.06837718922381857 
-0.04142580343074692 
0.3266650707756282 
0.07540276866472191 
0.5565353519252823 
0.008998257351490777 
-0.008640182745424326 
0.01460643007310616 
0.2649239031041464 
0.1669131206798127 
0.07304267442273647 
0 
0.05244837730692434 
0.00573311684198413 
0.05155625339433148 
1.302889995103431 
0.01281725278258452 
-0.410024597209158 
0.3427838972449235 
0 
-0.05867003579281092 
-0.003706409029136686 
0.5243884525742405 
-0.6180675550156237 
0.02824443508623148 
0 
0.2963611063751816 
1.461764869412515 
-0.01663312098550755 
-0.3019941326594164 
0.5076230275579623 
-0.02604032186910806 
0.01832325489029267 
0.08108420121179735 
-0.3414107494764227 
0.7650012883155586 
-0.04879968543364624 
0 
0.8161413743439154 
0.4318103756814209 
0.2043436693374338 
0.1072787418510166 
0.01239170168740363 
1.314952738046879 
1.602325626854143 
0.06828445891599837 
-0.09630038207151694 
-0.3146786392288464 
-0.1210521097497556 
-0.01513751084242369 
-0.388194123776388 
-0.0710029002031331 
-0.06242013745183531 
0.0003301255631061126 
-0.02883965074000403 
-0.06878825742267076 
-0.008424135404583559 
0.2035054310597485 
-0.0530553283986552 
-0.340922991305642 
-0.7044901694435901 
-0.05415739560207415 
1.924218631552956 
1.041564277120615 
-0.1438519814011551 
-0.247292886183045 
0.06076453041357657 
0.06243064965828714 
0.09999446191682082 
0.01054522028748146 
0.06276862833637435 
-0.01292744969251647 
-0.07880593403085111 
0.05229042773636204 
0.004972258774515612 
0.002925068010010599 
0.9032229866660901 
-0.006814650514622262 
-0.1643086819623621 
0 
-0.1229499406906284 
0 
0.03956031578931959 
0.3026235284483621 
-0.07133187969171031 
0.03791968216201944 
-0.399147005881224 
-0.05809141388041753 
0 
0.03431921226196716 
-0.54389111723072 
-0.1892293678771548 
-0.007756456840716024 
0.04570903477390741 
0.5522065123990225 
-1.08226669613385 
0.4518848640746154 
-0.01875056149463866 
-0.460282706277102 
-1.132283311931228 
-0.1650697624786924 
0.07749410874826707 
-0.1715930297884186 
0 
0.3063819629704184 
-0.1069763962912737 
0.08261832469340487 
1.112236855078535 
0.1978994562102299 
0.5898925553557194 
0.8694045649412594 
-1.04817673217059 
-0.2152954817133868 
0.1858289838381784 
-0.1135515901472249 
-0.1647654709214698 
-0.02652472591319562 
0.5319719350864318 
0.7031749596469197 
0.06595004099388757 
0.01838832915331244 
0.2931885603944833 
0 
0.05818035632848546 
0.02028363470530669 
-0.3818412639389879 
0.0650174183084604 
-0.7897262082161324 
-0.01431944581906054 
-0.1345664762884089 
0.08547606849440378 
-0.01645201539402125 
-0.07482834127808055 
0 
0.3269790571896258 
0.01767984319678103 
0.07744059393489949 
0.3686176406346063 
-0.4031835916615376 
0.2533693216932772 
0.09184278622125266 
0.8620231463538222 
0 
-0.1146946423616733 
-0.1193268263415927 
-0.0246347306820292 
0.1358586540878131 
-0.2260617933810853 
-0.1878791721531399 
0.09276856463769956 
0.001310854390245501 
-0.004920457333570235 
-0.03665187432237763 
0.02251009527722473 
0.02350823530062081 
0.3654170088482573 
0.06871596912086234 
-0.1302744714776252 
-0.00728905847575213 
-0.03443009397765834 
-0.1766308839574544 
1.268888429589661 
-0.02161563659779683 
-0.3606528401194674 
0.0388352905123107 
0.2177264216939237 
0.03362975399494217 
-0.3687863738419389 
0.03762820989315088 
0.4406741628273164 
0.4914297212075467 
0.1512367539640475 
0.6046241017704064 
-0.07869012336410314 
0.07806437010355538 
-0.000676729551614443 
0.1396558798364252 
0.01412893862653564 
0.1677565129617317 
-0.01055987609583322 
0.2253201075331801 
0.00421855794626543 
-0.8109558669293765 
-0.04512748881451965 
0.006795650214800001 
-0.2164226755567045 
0.04513189084065392 
0 
0.01894738740437628 
0 
0.0329922702968184 
0.05822561975146765 
0.001058361025411244 
-0.0679534734044156 
0.09479259025893422 
0.01530036014341494 
0.04507380591786864 
-0.02024025148730717 
0.03127358571626047 
0.1140983600459118 
-0.02555612574538191 
-0.2108578005857318 
-0.06571893612000718 
0.001382114065058304 
0.01810462409397617 
0.08593540222697393 
0.0002521612196651757 
-0.1096236658992903 
0.118548917713011 
0.07938830302572898 
0 
-0.2369233938404881 
1.090373646973731 
0.009547615472461435 
0.1038588014478477 
-0.1482994404674455 
-0.04938039569641536 
1.233893265523572 
-0.2872206187603377 
-0.07998949220830312 
0.0008964053967556741 
-0.02973127446553394 
-0.02606967893817311 
0.02297303000056201 
-0.05069493848295983 
-0.09556698012798297 
0.2275293377590165 
0 
0.007299460074354603 
0 
0.6423399043770461 
0.09560207142164556 
0.2588155154747354 
0.3962153471717683 
0.02100660951467294 
0.1063480098980142 
0.04358992970167018 
0.1311915656902531 
0.008463759454720964 
-0.03304302278688491 
0.08802958655992876 
0 
0.06842839851700008 
-0.4067651358944818 
0.1107198210677123 
0.02296709654632526 
-0.03673983468471371 
-0.006762636104254046 
0.1371770494596385 
0.09096603384715915 
-0.1854993663866712 
-0.1405934354601931 
0 
-0.2265022765533962 
-0.05321713367496334 
-0.0375957664175842 
0 
0.01872518855428827 
0 
0.5470470735209363 
1.038049168866536 
0 
0.06067320027023989 
-0.03411484190684806 
0.03060958871996742 
-0.09128882348361159 
-0.004703721017325527 
0.008802982266975944 
-0.103174485549311 
0.0342719472492715 
-1.214815808123715 
0.5399091543855565 
-0.0009635710242089859 
0.006601347577844324 
-0.1001737250468782 
-0.4792031451017091 
-0.4550850128453811 
-0.2815603516986629 
-0.1329705605561366 
-0.9102902085540006 
0.3222150342471878 
0.2748938716965714 
0.06976884558026586 
0.01069259171026569 
-0.9230654140077309 
-0.0827945070826594 
0 
0.01119344572741104 
-0.06118696651420983 
0.003978760294500089 
0.01654720985458304 
0.06523622871855436 
0.001474530065680632 
0.04580225966574442 
0 
-0.2086318948032088 
0 
-0.03784971010711209 
-0.3812624814307323 
0.2343488611034985 
0.1474256546013275 
0.3119421287593002 
-0.04950881321733307 
0.002222386290841052 
0.1710369225993471 
0.5203687076322673 
0.01421038236943347 
-0.250870200728703 
0.001962577816877197 
-0.1131515447152857 
1.227851344019919 
0 
-0.08454205201778067 
0.4267869547695385 
1.571085316105861 
0.5887136581731636 
0.0442912119216558 
-0.5101177041177825 
0.3273873881414622 
-0.1369116744147293 
0.03257373886153331 
-0.006877539152648369 
-0.001451085574427526 
0.2128679355786195 
-0.06292754381149979 
0.01081159344727959 
-0.02007450133163833 
-0.01059016866978033 
0.2969107754109247 
-0.006233600045020507 
0.07977969847224826 
-0.05698198228032986 
0 
0.1898111078293312 
0.0009093943413780118 
0.1801550821223384 
0.009204969242851656 
0.07116903477785923 
0.1087042774239006 
0 
-0.002905774842067984 
0.0651124513535177 
0.1564738202875746 
-0.1034450434946202 
-0.3317050069361443 
0.2483228015564727 
-0.9986872429209745 
0 
0.0161453047298822 
0 
0.004142753125654269 
0.102730548372811 
-0.02147432672075295 
0 
0.03368931049886591 
0 
0.02577042638438402 
-0.0174585944653001 
-0.005607313883741792 
0.002151668855371016 
-0.01057313480715217 
0.1844906777156663 
-0.005839178517258253 
-0.04032980024385176 
0.1517693672214102 
-0.2580294885952402 
-0.008418456137041742 
-0.1022588726774487 
-0.1482752999552277 
0.2074586001465396 
0.07767825504561515 
0.05313562829928432 
-0.02104322819289307 
-0.02162522224782183 
0.005316559970482533 
0.3540271493948304 
0.5622720566236343 
0.03082456290605429 
-0.1814874950626024 
-0.02267072627815737 
0.002348648126937458 
-0.04649956173811881 
-0.007789010414565802 
0.02420845569724085 
-0.08321107427686865 
0.08590236109525681 
0.4763190222510858 
-0.05333172946952019 
-0.01182662558927039 
0.02900676603511872 
0.1439350173732151 
0.003020609234183663 
-0.08817757124064436 
0.2878528046657735 
0.3670744763028574 
-0.004805165364823196 
0.2611905202280054 
-0.004752586184710744 
0.4143406156450312 
-0.001597974202678459 
0.00580678739858582 
0.07024034619862982 
0 
0.02535558281215496 
0.1811354340502349 
-0.08038820277073747 
0.1016096054275839 
0.008424270560887508 
0.3882674261939472 
0.000105984307178529 
0.294537498977108 
-0.1423917594382174 
-0.06630558965305838 
0.02277684452668193 
0.1968239961327188 
0.3563815570182111 
0.5985906454018083 
0.161552988402644 
0.06833432453038625 
-0.06637167419468454 
-0.03053608170333195 
0.1164376957166047 
0.00596676860568989 
0 
0.3243497300811978 
-0.05685477559660222 
0.01781966051750263 
0.01110741772101584 
0.5154788650710459 
-0.01202785272355427 
-0.07585182135653835 
-0.03298279167173681 
0.01698017817066574 
0.358397944691927 
0.02187901590566965 
0.01009798755257086 
0.05199332718618997 
-1.850239911285049 
-1.526859511491531 
0 
0.04306676036707054 
-0.02949094536893258 
-0.03013632395980396 
-0.02167603435807645 
-0.08149635938110199 
-0.02414419137982419 
0 
-0.05846345807698171 
0.2721796378684436 
0.0009391579981726655 
0.2148082059697761 
0.0624531293243048 
0.04993916776426358 
0.3266817976988903 
0.1533627234665315 
-0.2745828772674789 
-0.0002246003036264886 
0.001968849893831241 
0.196835968324215 
-0.1050836546556965 
0.8522536985141617 
0.6801136835444735 
-0.05785071392501187 
-0.3864606758865139 
0 
0.001262928936583078 
0.009893859255891075 
0.02119303236385384 
-0.06112997401793067 
0 
0.002367367757251102 
0.04161987529158669 
0.003865316085367558 
0 
0.294269290238111 
0.3491105398538417 
-0.4017230458834486 
-0.03226339440395955 
0 
-0.2321722506153537 
-0.06220715777701807 
-0.0006194009019324942 
-0.5061995439157587 
0.4668061757889757 
0.09165309698397114 
0.6616050609011371 
0.4733702389785489 
0.009570059754147936 
-0.005569177834644511 
0.0008207186365732576 
0 
0.12430102664323 
0.09354131056612346 
0.07763033830362549 
-0.2282824406594222 
1.133014184041423 
0.001419504910553619 
0.1779787904487077 
0 
-0.06711546048588332 
-0.1270612048203962 
-0.06150508233234249 
0.0618504533503715 
0.04968279976797418 
0.08904259538413144 
0.009314720537226453 
0.834668798486215 
-0.01898791481600196 
0.9619819074204873 
-0.04168327933483972 
-0.09145136147266987 
0.2888901835454153 
0 
0.06806470178082426 
-0.01482117309037985 
0.2605767214372949 
-0.2134063053858781 
0.2276256488310027 
0.0004625094390587874 
-0.02336411547144809 
0.02923736906572758 
0.1699593544839559 
-0.006406296239832496 
0 
0.2037229417335168 
-0.1893034683189717 
0.6464547021281999 
0.1381048436720463 
0 
-0.01732266018044611 
0.04493177484511712 
0.04100421919571277 
0.2330468862207203 
-0.4419286559233786 
-0.00900995212164671 
0.09943447248087776 
-0.00903439614987973 
-0.1642026355123132 
0.01243248612239185 
0 
0.009974872715445011 
0.1356777757144597 
0.5289434241077916 
-0.09275950387999288 
1.590940587873969 
-0.03148624751009919 
0.01387870985039004 
0.0378850832079286 
0 
-0.01044001849756558 
-0.02482442331528065 
0 
0.0002978659313360964 
0.08251852727057718 
0.5402299508178631 
0 
1.47366786170238 
0.03110276543314172 
0.1288352765946744 
-0.05538491680790566 
-0.01986208563002189 
0.05800978504610892 
0.02652018887031405 
0.1575822752145212 
-0.184358875372558 
-0.005844460958910316 
-0.03442965032211892 
0.07215672535582407 
-0.278824991998804 
-0.01247543480913395 
0.08229065238268207 
0.1378453956940174 
-0.01037974147915776 
-0.02451087509177681 
-0.02728677801479967 
-3.916568112140098 
-0.1215694480825868 
0.3107556616337391 
0.2055983972573143 
1.166441655684419 
-0.9822113674944177 
0.1399861513531903 
0.141541461822355 
-0.008877224860631073 
-0.0134050103908914 
0.7366674751931996 
0.5258470550221888 
0 
-0.1821174928615193 
0.001694085094997305 
0 
-0.02491749513344159 
0.008298951362478537 
-1.49594141951121 
0 
-0.02730213477210938 
0.0814515552197661 
-0.0432250506241625 
0.0604399461174803 
0 
0.3136882620451426 
0.01130464980103438 
0.008831932916528845 
-0.08007367601848998 
0 
-0.006723965032057534 
-0.1720073536574122 
0.1079320171984782 
-0.004646443445672823 
-0.1167270792617019 
-0.03948677167465134 
0.0598810193833748 
-0.240095918427115 
0.496960521600841 
0.006049758436455516 
1.543617744848315 
-0.05121128798853045 
-0.0167901812061878 
0 
-0.1203200929734023 
0.1585079538417104 
0.06676702148129189 
-0.1731003665252646 
0 
-0.1316643094351412 
0.8790733245159164 
0.05057411115137613 
0.02404067806907603 
-0.1683230497639276 
0.02432850138614273 
-0.03721794137003233 
0.02380902734475611 
0.4265490039390445 
0.09766663932060451 
0.02748739858190785 
-0.1171297884524621 
0.02838145063281698 
0.1031182934762049 
-0.2752214773026514 
0.03935979995098264 
0.2677947713604431 
-0.3362585953317281 
0.06101258069263797 
0 
0 
-0.04610650250464129 
0.06325935564229748 
0 
0.08087306644364625 
0.1763065830609905 
0.02808668606999019 
-0.5446172041495794 
0.02431513227133064 
0.2816597431758633 
-0.1204544640317995 
-0.4507790301107498 
0.003138517865806566 
-0.2494391115415477 
0 
-0.0008334370111632745 
-0.03554019809421365 
-0.1066763670102026 
0 
0.02548070159048594 
-0.02374052521226467 
-0.004252789838271833 
-0.2396346966521461 
-0.2393502981977661 
0 
-0.8717076745975161 
-1.656470033662905 
0.1440707912587689 
-0.09832008862475969 
0.1285724911221385 
0.5291987514397978 
0.1699869614257388 
-0.489851518454247 
-0.2354042430137779 
-0.3293314199184292 
-0.278135102076036 
-0.01331649509065122 
0.3626366382654068 
-0.3219048067600653 
0.21439919490202 
-0.05698860028889104 
-0.05195894478997499 
-1.035371311219723 
0.01298752085873472 
-0.01561814713941764 
-0.004432014571339264 
0.2627222137423722 
-0.1665059676673883 
0.08306708368711792 
0.1191603796879216 
0.1733099684827319 
0 
0 
0 
-0.1697471600040553 
0 
0.001429278595284222 
0.2404423265010557 
0 
0.01678439112449368 
0.07009736342130943 
-0.611973716564936 
0.01500413610558835 
0.01961294039654781 
1.778008000584999 
0 
0.05921348512345603 
-0.003727864336311894 
0.02829003151299497 
0.282462560394149 
-0.07832978651003926 
-0.01806574363799815 
0.1181411061464009 
-0.01831530965876304 
-0.007428594613231369 
-0.02349260189087719 
0 
0.03501580459422753 
-0.4678100775843468 
-0.02628584637384056 
0.9401398982367009 
0.06204748905104868 
0.0256773812030625 
0.1391041560063724 
-0.01614811739868302 
0 
-0.232576513139239 
-0.006259490183103938 
0.4171186397460165 
0.05362930702038501 
-0.000385384287805322 
0.3459833571112845 
-0.07868629850897074 
-0.5186682400700731 
0.01013166113171891 
-1.573024594235937 
0.1092394770814485 
0 
0.2806955088018044 
-0.03007412082498178 
-0.134171278950646 
0.04398448058226205 
-0.005234894995580039 
0.1154584335731147 
0.01635552483140865 
-0.06744598182535066 
-0.7584839542000604 
-0.1131873407635184 
-0.03919498215422192 
0 
0.003102003445450651 
0.378034910297527 
0.7840633595425051 
0.02158752480997703 
0.1608778128630034 
0.02768937271515775 
0 
-0.1259814333369288 
-0.07541019264349454 
0.4239369549815419 
-0.2700700205731134 
-0.03770127449607764 
0.267073413358864 
-0.03259406856777922 
1.080043913308559 
0.4885650119984295 
0.005641405345349585 
0 
0.07864261875200873 
-0.007320382325997312 
-0.02446754080963976 
0.1046669468951262 
0 
0.001075079533950526 
0.02634463628041826 
0.1040619943557602 
-0.005296476516885987 
0 
-0.6422762803938006 
0 
-0.4877372174247611 
-0.1934112889488347 
0.01598053110793715 
-0.004324311442455701 
-0.000471365835690533 
-9.712208618230115e-05 
0.3844938622733071 
0 
0.209007525470908 
-0.458573362301752 
0.0458415910406163 
0.5692504144097011 
0.2943743023083725 
-0.7528247851470892 
0.0009545381294656549 
-0.007202630909468197 
0 
0.02079493346079613 
-0.08008749249284944 
0.1182441478015055 
-0.2297637510341557 
0.03942935031171599 
-0.009617006362219373 
0.1388345680122404 
0.5108643619932794 
0.02052434878551634 
1.098611656335179 
0.0196054448802757 
-0.01284840968697716 
0 
-0.03146863439038457 
0.046420645552843 
0.4646494613326339 
-0.6925195721339586 
-0.03247293458598183 
-0.1144928171696187 
-0.02497286594218188 
0.4626440705413218 
0.7635096950927764 
-0.2713974968783011 
0.02547967606813194 
-0.7419322897031128 
0.003253377246688148 
-0.003350105162350662 
0.01398227600345611 
0.1426864200700021 
0.1320061144462666 
0.04232802109327274 
0.01267189665323227 
-0.008743774849674131 
0 
0 
-0.2701753274709673 
0.06693360176399475 
0.2577862667731953 
0.07067806316370241 
0.01702373378831424 
0.290142583883981 
0 
0 
0.04824332788198604 
-0.02411958345893755 
0.04364485561840664 
0 
-0.1632854833911864 
0.1008459543577005 
-0.04738861086363635 
0 
0.3231764324782724 
-0.01357457468865537 
-0.01700365176895361 
-0.03448707133463894 
0.005356204318259453 
0.8011732209483086 
-0.4241429223596888 
0.07489560685512815 
-0.1241848467127918 
-0.2455981513345206 
0.164262545775813 
-0.04431700833820659 
0.01419263860229435 
-0.02006694554426848 
-0.03387913343802274 
-0.2776200420444619 
0.04516350098539727 
-0.9850260374451194 
0.119910821722749 
-0.5547889789821486 
0.002828610789672188 
0.02994719978448281 
0 
0.1974905287117036 
-0.2733341559286412 
0.1077588642335476 
-0.1374201391765917 
0.03893576685242633 
0.02692548620558907 
0.0101388102072756 
0 
0.062728698868094 
0.186785008706454 
0.6029917578344207 
-0.4568109697254324 
0.0529258231579068 
-0.07221884168293108 
0.7913906413257707 
1.245092774163537 
0.08630828187312757 
0 
0.001692784333311663 
0.0552111193106642 
0.005851534310297524 
0.02334433742624942 
0.0327121061640177 
0.3197133041515898 
0.0544641282685758 
0 
-0.01338001564201812 
0.3137862573453554 
-0.03004118463099147 
0.1128911129616484 
-0.4950494893030547 
0.4401177756350222 
-0.390323931760485 
0.06457972712525779 
0.01823473017523074 
0.003405914747982786 
0.05514685764894529 
0.7592588959481209 
0 
-0.06412265255391277 
-0.1589163646177112 
0.04813802695952935 
0.03671904875581318 
0.03638731091950829 
-0.01898565888484246 
0.5403026180983176 
0.1804367244561584 
0.06694095100024898 
0 
0 
0.03585617823038053 
-0.0006454841748572639 
0.3136290044769859 
-0.1273378037311173 
-0.07976412607096657 
0.002835611795040318 
0 
0.01475596653700601 
-0.002465611626664367 
0 
-0.02804484106105681 
0.004529953179236965 
0 
0.04289350798042868 
0 
-0.5024013558039317 
-0.08595213938705977 
-0.001254998717487745 
0.132497517065427 
0.1864962048229761 
0.01437624523015747 
0 
0.2256910596591935 
0.357254850701206 
-0.0308468795637763 
1.078894812254224 
0.1857739563404192 
-0.1481761606866507 
-0.2102671214523686 
0.04677859408546162 
-0.04939688748731545 
0.2481683365502732 
0.2296399879816139 
0.04369606152733652 
0.01399753693559948 
0.02802080342112414 
0.307450670623774 
0.02367463286335564 
0.07771087394306442 
0.001021546799651935 
0.07630278387110428 
-0.8544611781930282 
0.1224923278867132 
-0.009448743607727721 
-0.111387793364979 
-0.3002188618630124 
0.0060178864587422 
-0.0148081499191559 
0.03829592721328284 
0.134452584415083 
0.1115908829794639 
0.1166344359677579 
0.1042577888833599 
-0.001355363709707938 
-0.004886416429045339 
0.1471869468935813 
-0.3578754376023835 
0.2307429516359392 
0.1083415443218034 
0.4912105636998663 
0.1543095199659271 
0.006498012865773203 
0.07307533374053281 
0 
-0.01162311361864567 
-0.002917594336736694 
0.1274216711950353 
0.005126916095052012 
0.3596783512225421 
1.175530417504716 
-0.5301990758423152 
-0.01685421670007196 
0.2656071089091437 
-0.02919807735235917 
0.006447544806906087 
-0.1383601669357481 
0.09711929199839625 
0.1125871175860242 
0 
0 
0.1237840757426476 
0.2559697713730025 
-0.04838463434716359 
0.003241813652696919 
-0.03918785841315154 
-1.422498367094979 
0.05203005427397493 
0.1016228552638151 
-0.003026548456164355 
-0.04997104272172146 
0.5916947716147382 
0.4019540530402154 
0 
-0.03875141378868855 
0.01943601523324359 
0.006340070810666405 
0 
0.2309172830651569 
0.03057514316219303 
0 
-0.07169176879367684 
-0.1510944108222303 
0 
-0.01566290990895623 
-0.1670993551080915 
0 
0.1491578939716872 
0.09553839969057562 
-0.002741458615050036 
0.1907165733956253 
0.2104848446824601 
-0.05300067400515093 
0 
0.2744496181314977 
-0.1731325573138877 
0.4220350308377305 
0 
-0.04964047016502562 
-0.1211479236501596 
0.005045749500867417 
0.04550346895546787 
0.169437469735383 
0.3338046018190969 
0.8313730724918077 
-0.02717771720750605 
-0.05398210492360052 
0.1166117009001681 
0.03201664483037973 
0.06393417476502372 
0.1373004039060591 
-0.002546789907195411 
0.07618389718453517 
0.03690575744200841 
-0.2185810424185199 
-0.001063891085487481 
0 
0.01639229269334116 
0.04195571595515373 
0.02942305147312184 
0.4889130878928186 
0.2344192116658848 
0.1968753515111204 
0.4195198340196777 
0.01008643935457205 
0.006393137484480045 
0.08905958554957191 
-0.003114255282092283 
0 
0 
0 
0 
0.07095473310936506 
1.120942935105117 
0.1192694496536097 
-0.1392703615022557 
0.03202994890800721 
0.106283293998281 
-0.427786385885687 
0 
0.4750523792375038 
0.06818403451919845 
-0.3193601146450188 
0.2000497571180566 
-0.01237279262619939 
0.1118445124052066 
0.04590601581373308 
0 
0.03846732707398714 
0.1246561208714985 
0 
0.01676614306511624 
0.01987882932307356 
1.628848626272849 
-0.007424480179488966 
0.0002043171648016852 
0.0612391126111389 
-0.02605694249735873 
-0.08325331091693465 
-0.02843684734942721 
0.02752481743414658 
-0.5262287308878971 
0.6115083871785546 
-0.004622443181394575 
0.001336644632168687 
-0.2241696076190464 
0 
-0.3624231966008447 
0.7142248153297257 
-0.08519812415716722 
-0.1269877944379954 
-0.002707476761534255 
0 
0.01364324277043378 
-0.06414607298359867 
0 
0 
0.0272509580310934 
0.004945062738706063 
0.1653600714750494 
0.3296047090519199 
0.01642866707617447 
0 
0.1429186881985793 
-0.05286225053422295 
0.003133355762973336 
-0.00892540711255688 
0.02063019581880957 
0.3671338980398048 
-0.02246032494912866 
0.08948346006928247 
0 
-0.0672898394186681 
-0.07506504997016848 
0.001418788267407981 
0.08361655206756 
-0.03369665400134277 
0.1418981547907942 
-0.003673820468294942 
0.01432506225547592 
0 
0.2313376094619869 
0.02372960242341294 
-0.006068883976489149 
0 
0 
0 
0.6015101048884212 
-0.02849380893588586 
0.05600249966869275 
0 
0 
0.07563471125189572 
0.2120105906235789 
0.2497872885540539 
-0.2148628557907469 
-0.004673183899879956 
0.08337296117963407 
0.01803475264911521 
0.5364340677617656 
-0.6435108551167833 
-0.09048026847711739 
0.03691655243045248 
0 
-0.02542127688966023 
0 
-0.002519138687363091 
-0.06830755680270637 
-0.04808711083855702 
-0.05852681180467979 
1.138574406521909 
0.5280576189308768 
0.160245848896539 
0.9261360099331 
-0.02232499289095204 
0.6439076250615663 
-0.6566788973607547 
0.01627590426371963 
0.3923730890166829 
-0.1603583788148036 
-0.04080149611850627 
0.08881332870221392 
-0.004434574897755339 
0.2816263434899514 
-0.03088222447284604 
0.02330005484582787 
-0.00527697979544214 
0.01652771183546518 
0.1730096522553619 
-0.08909072455957961 
0.2818902361176706 
-0.8326341282465163 
0.0359068370527817 
0.1880386555514761 
-0.003119507259753552 
0.2149395233825238 
-0.03975403267852447 
0 
0.003675033534576946 
-0.01552541452262208 
0.01370084601202715 
0.1983555835078919 
0.02497190948172082 
-0.05003224188077895 
-0.01871026386638742 
0.02297742416868515 
-0.02102917409757091 
0.5338084513054879 
0.06049859031626485 
0.01052701045498418 
-0.2331299724792891 
0 
-0.1769363703109666 
0.08449031446848217 
0 
0.1636790864695124 
-0.5603048273636729 
0.04200096980965336 
0.1251916797731715 
0.02405840484362215 
0 
-0.03695955307327232 
0.1835120556119777 
-0.0428592625834219 
-0.1265319401334989 
-0.0104197841385281 
-0.005078103668203842 
0.3043110544389405 
0.3140319605619549 
-0.3113903596977136 
0.01169132230063254 
0 
0.7973090203022983 
0.5141543301700436 
-0.1279152660745716 
-0.01898602974176554 
0 
0.07794721656344999 
0 
0 
-0.001816900386721969 
0 
0.006475903324915508 
0 
-0.01789085332004092 
0.01460526181709228 
0.1868929848920259 
0.004591691948334167 
0.08885023459055919 
0.4177081402614993 
-0.02462888506204261 
0 
0.1509603833697638 
0.8894194251661609 
0 
0 
0.8916778641695973 
-0.04866270606277819 
0.01144216681962781 
0.3279409710749132 
0 
0.04597292247106027 
-0.06130124127982364 
0 
0.003610304383276517 
0 
0.1038119992242607 
0.001925530013945499 
-0.03923645038688076 
-0.03858904967922096 
-0.3711668173042265 
0 
0.04617221750183141 
-0.01248231370657074 
0.3098850987546583 
0.1281054352306558 
0.0262206372829392 
-0.03403611046820575 
0 
0.005264519741052276 
0.07001610883567615 
0.1171531012154314 
0.6952809412456281 
0.1940995725837679 
0.02170754408393013 
0 
-0.5369902461806233 
-0.007372902629157281 
0 
1.170745651628201 
-0.1387914382584623 
0.527115025580759 
-0.1747078103209308 
0 
0.0009898975161441415 
0.2064098901843054 
-0.2249693804405173 
-0.07006410390960617 
0.006180349271836118 
-0.5919583278353296 
0.06953467152768865 
-0.01533422870790853 
-0.03273238453930657 
0.008055545712255816 
-0.001127005035632217 
0.009221502397046312 
0.03891466265009638 
0.0759094141930175 
0.4267577415715498 
-0.01574639282128014 
0.1813164630369611 
-0.005319316776152043 
0.155675723589673 
0.0236294465183693 
-0.001790971025810266 
0.02177561206875197 
-0.002921516874125154 
-0.1189166624523152 
0.01205583838088209 
0 
-0.02489458559348514 
0.1045806676365286 
0 
0 
0.01119726827545538 
-0.7872189837180293 
0 
0 
0.007013847067672797 
0.09429040934715321 
-0.6352850589095311 
-0.01814630399250303 
0.15836013402756 
-0.1368304362539915 
0.06020349427811928 
0.003664976400750318 
0.04868914554749428 
0 
0 
0 
0 
0.07556541247669686 
0.1212879212459194 
-0.0501370448876213 
0.1477549093733902 
-0.03776321704099928 
-0.009591966995637092 
-0.3202131727134805 
0 
-0.08364713790766376 
0.4050900046121556 
-0.04387824962199258 
0.902390960811019 
0.01290064162448217 
-0.2723474765434309 
0.1072087576505133 
-0.05044618431924821 
0.2016512143068296 
0.06032670530778524 
0 
0.01531004970407651 
0.138443562359708 
0 
-0.05918387184894788 
0 
0.108330013661647 
0.9426432895707603 
0.06916622700206035 
0.01406693400219544 
1.35132071927138 
0.1379212048585026 
-0.05402909096496933 
0 
0 
0.1881590523783894 
0.02561357953138268 
0.05442981902870337 
0.9208436561933795 
0 
0.0727435176326907 
0.008863066888739862 
-0.04320765687945314 
0.03078588870180156 
0.004912953389908356 
0 
-0.1761442109290391 
0.08127813817506123 
0.0195192869963985 
0.03357389092714012 
-0.1042974487668658 
0 
0 
-0.01313115605150883 
0 
-0.1513054076776843 
-0.005168761984636952 
0.005983094735017676 
0 
-0.008344966062178161 
0.1821980413145716 
0.00503275828636616 
0.2501103980154981 
-0.009791325872293104 
0 
0 
-0.0221593992935094 
-0.03369071468200806 
0.1295921213858094 
0 
-0.02525625663829092 
-0.02264575989762468 
-0.1366909692246211 
0.4108734951769636 
0.08864923052197755 
0 
0.1141744965623081 
0 
0.04807383805959455 
0.1020265213341554 
0.2494321201520672 
0.004748096195218365 
-0.6768846662722345 
-0.1850543626051527 
-0.2646929369283891 
-0.05274617484079018 
0 
-0.04585771992998525 
-0.007534212377700363 
0.1478809702683903 
0.5121871091477006 
-0.0827439404514258 
0.1318453356297958 
-0.02341419947703919 
0 
-0.4471326914361627 
0.1291331547418574 
0 
0 
0 
-0.03807382035025784 
-0.01489036516745664 
0.007484031382715795 
-0.01587765309189579 
0.00491996183855344 
0.01187543229597059 
0.0102007019208157 
-0.07184942032634251 
0 
-0.2930187775982881 
0.04965046058512693 
-0.1204716807053529 
0.03487036238028591 
-0.0003883155975094229 
-0.103059898941552 
0.01709112423757748 
0 
0.09050557155355257 
0 
1.226299061074448 
-0.004381603645326287 
-0.01904552737064358 
0 
0.1344973392790638 
-0.008806487296891919 
1.053013103560572 
0.05100040876912462 
-0.005372392539776853 
0 
0.02264446646732992 
0.0003587742022485944 
0 
1.10514607302962 
0.01133887411075324 
0.5485332063014559 
-0.001879143026750242 
-0.01130449296711524 
0.05334006306904334 
-0.06719384658965619 
0.01713853065593633 
-0.3403279007738415 
0.06146606440359275 
0 
0.1541808044787984 
-0.0006603696386785523 
-0.2966623215095907 
0 
-0.0403400425488301 
0.01939627773096606 
-0.04964766606290591 
0.2796925784545503 
-0.1458896115449984 
0.02753042796836668 
0.01134586236455306 
1.015837421146406 
0.1000563864527027 
0 
-0.01269875788460824 
0.2501521393291545 
-0.08749144391135837 
-0.02053770000857133 
0.01092755662739001 
-0.4175350980607473 
0 
0.02475925100715235 
0.1907881605448379 
0.251857927304447 
0.1519583891194972 
0.3447786337797484 
0.01523211923395815 
0.05665749922298597 
-0.03208533864638324 
0 
-0.01932008746949442 
0.02281396460231219 
0.06541361673038315 
0.3682554660960097 
0.01574361396109838 
0.008834883106418768 
0.02401540641843981 
0 
-0.01462087448813858 
0.02419740319787296 
0.1474978292729401 
0.1976476385084733 
0.076835334691676 
0.02401653517635377 
0 
0.04749712784845874 
0.02032779675197464 
0.1045667799838705 
0 
0.2143468271915708 
0.006474955035081185 
-0.02816923242653829 
0 
0.02677989995728015 
0.09196729803298696 
0.04997535204594034 
-0.5642491655913111 
0 
0.1590137047556224 
0.006912372750488165 
0.02055224120539985 
0.3187492374652774 
0 
-0.001283973513337465 
0 
0.0924545211731697 
-0.8173789292718229 
0.3996161317126815 
-0.03664094241716657 
-0.002439732627956183 
0 
-0.1452135497527677 
-0.01349688050370734 
0.01179360353266822 
-0.08648216350233452 
0 
0.0009515735777881954 
-0.0002735270318524887 
0.1070547304918523 
0.07878863948968837 
0.05166631896062614 
0.009586482153406448 
0 
-0.007707323448586548 
-0.05846192816835442 
0.04152131248006086 
0.1577441733588892 
0.0001294760022996512 
0.002943386162513905 
-0.1849760378515689 
-0.1201566154180619 
0.2200864603175126 
0.1155200607203429 
0 
0.00136303510992338 
0.0107549879320342 
0.1318677854143057 
0 
-0.02693494270428861 
-0.2624390632029127 
0 
0.06893563465216994 
-0.0237536959857625 
0.06659962524072231 
-0.3596556088460495 
0.02300952227485242 
-0.1138214573505822 
0 
0 
0.03728132504167441 
-0.0739047943918488 
0 
0 
0.01236229256549646 
-0.0350994957159468 
0.0245915488250578 
-0.08630036328646938 
-0.1905647731270134 
0 
0 
0.03890617873643176 
0 
0.105613167317585 
0.01918951953810524 
-0.07469418013904522 
0.1309459276956115 
0 
-0.008476895316334693 
-0.0873035280279111 
0 
0.07989708591044084 
-0.09590639789515845 
-0.02237669398371049 
-0.5767947222163607 
0.09034436266544699 
0.4378190066128115 
-0.02277302451620189 
0.0045292032907039 
0.2191069434039261 
-0.01303515778352407 
0.1003469790555444 
0 
0.1418447009350975 
-0.04310898391162693 
0 
0.05580440877202728 
0.03710521989351943 
0.01639442400140738 
0 
0.05267640976761191 
-0.01420388732598528 
0.03267080812298058 
0 
0.865982194521842 
0 
0.1651962291464497 
-0.1840590044378477 
-0.1533573374036479 
-0.07611481416314683 
0.3515884050170249 
-0.001121342789619245 
-0.06645529269919254 
0.003320947655857783 
-0.1118057319455315 
-0.9568168734369445 
0.02335405788345653 
0.4354379512464268 
-0.005077831997961993 
0.07063070263718478 
0.05229027056135259 
0.7593766032659651 
-0.00600602469843163 
0.00233370935441413 
0.0746082086500979 
-0.08454140684126595 
-0.001491528346773274 
0 
0.3472399310177466 
0 
0.06266069330886014 
0.04038558087940653 
0 
-0.05188660826881229 
0 
-0.01570767330329767 
-0.008029818341331842 
0.0250759058386711 
-0.03300254717224158 
0.04865030750211032 
0 
0.3395954206266474 
0.1167027965874037 
0.307718004467065 
-0.02506401062177386 
-0.213947930029923 
-0.04968366053260424 
-0.01275746318379405 
0.4869844226917868 
0.05455596482639243 
-0.07946055765327019 
0.015799063607637 
0.08302888152911402 
1.016155424136846 
0 
0.05517826394686516 
1.174757837602333 
-0.02292502804058572 
0.03982719283251938 
0.1307111982976661 
-0.03589265992666509 
0.1347275844774319 
0 
-0.06683347846817542 
-0.02315041058811152 
0.7804073703631026 
0.4097820398691838 
0 
-0.09374063302389095 
0.06496019203541994 
0 
0.02802477318169735 
-0.8680485791948317 
0 
0.10632156983682 
0.000507529330868995 
-0.02858222754997724 
0.03747561477897326 
0 
0.08899380370251139 
0.8758436080163519 
0.1494038569979958 
0 
-0.2707309328258322 
0.145785288534735 
0 
-0.07314811644947032 
0.01518135738621956 
0 
0 
0.1068754418872092 
0.0003657248833432601 
0 
0.1639953074922351 
0.01080727920414719 
0.3056969180101757 
-0.2503532220925112 
0.00805286086768978 
0.1126792929485682 
0.02005788283594302 
0 
-0.004810326052709105 
0.7807844011682159 
0.08186964326800368 
0.08932334628327929 
0.1668611684056374 
-0.2025016455355981 
0 
-0.263072373480561 
-0.00319070987956814 
0.007126278174404158 
0.01589176292047231 
0.7368708228030839 
0.01529835383310778 
-0.01482835363207686 
0.06324921602804813 
0.01540782037604611 
0 
0.2683072389368932 
0.08847167511217185 
0.1102697505825703 
0.00623237211053581 
0.04748470229279551 
0 
-0.0914344896319301 
0 
-0.06061599293338654 
0.09609286153219213 
0.05957523153507366 
-0.1644545422533702 
0.01200701859685514 
0.5622176994238312 
0.01950127470127646 
0.1050417850763652 
-0.1921296799317391 
0 
0.001702000802144591 
0.7149340375302072 
-0.115030239788587 
0.06108768276590679 
0.03879077339508239 
0.04992226402964216 
-0.06746801576351302 
1.208022185185316 
0.01893591738613595 
-0.002777180406321291 
-0.05391191186981054 
-0.1132774959791 
0.2313433876129038 
0 
0.009101572233064847 
-0.01220005141839544 
0.02602887877719122 
0.7645757165659219 
0.5196617674257583 
0 
0.1539036127002795 
1.015109503277555 
0 
0 
0 
0.01417934604624422 
0.06938874450532231 
-0.05346487824371331 
0.9921085166632226 
0.0715040067346948 
0.1100908860715244 
0.1452953636697798 
-0.09033364994787201 
-0.05281952360388587 
0 
0.02017275515499492 
0 
0.08897349396341749 
0 
0 
0 
-0.06470870938103582 
-0.01482268726572773 
-0.01019601097254929 
-0.1335033395667562 
-0.01262521646337193 
0.02662023463235716 
0.1549418444851192 
0 
0.002384742552659408 
0.008405840574392479 
0 
-0.2518924105685977 
0 
0.2065086787868192 
-0.004411304367402605 
-0.002481521426076942 
-0.02807527207720466 
0.3028496985194885 
0.8113362450660716 
-0.1405325291509645 
0.132446210338135 
0.2771195272905874 
0.009896424462081707 
0 
0.009176941317707417 
0 
0.007703524171327995 
-0.02424559150821451 
-0.02084936335180161 
0.004447752339136049 
0 
0 
0.370792898026142 
0.001208164058997248 
0 
0 
0.1013810214353141 
0.02843568193003954 
0.9281459186754398 
0.005355631185842919 
0 
0.03212345876915482 
0.0230231073992883 
0.01321190207334997 
0.004906954728350264 
0.105313169775056 
0.07001577240161405 
-0.0006602293605318867 
0.197787093474936 
0.008363335039494591 
-0.1908383580097961 
0 
0.03273916513411377 
0.1964468435725565 
0 
0.225027705797577 
0.0379044086547021 
-0.08870045894122496 
0.01693077880970117 
-0.003893691739587884 
-0.2669497442588732 
0.01651382445148865 
0.09640323830678939 
0.1750265755879211 
0 
-0.001125365955926127 
-0.2820707642178594 
1.188996731816657 
0.05366838207616708 
0.1540937028375777 
0 
0 
0 
-0.0249202569222734 
-0.06052967113240277 
0.03495065320957075 
0.001488174018015469 
-0.1452123690580488 
0 
0.006739062712864295 
0 
0.001204047304979628 
0.0213031325856749 
0.1411684216995676 
-0.3949470670645208 
0.003582812836007239 
0.002112901369840455 
0 
0.04265328398369603 
0.04351832720585172 
0.4144550922778242 
-0.03933642674367629 
-0.03959282621482812 
0.120503779945503 
0 
0.02208564659835972 
0.2824710182834538 
0 
0 
-0.01015927100972756 
0.03469067408151614 
0 
-0.4367964026439247 
0.01039170113450077 
-0.0110401537402663 
0.4675856688221819 
-0.01942379204775846 
0.01697660170375377 
0 
0 
-0.01341933846783936 
0 
0.001467182880819516 
0.06421784822961418 
-0.002020118421282508 
0.03257114112021348 
0.02697603560164018 
0.005170597301081778 
0.0003822666725605562 
-0.04628793118840237 
-0.07006313768388422 
0 
0.02245331391457118 
0 
0.04512827164719221 
0 
0.582064719998012 
0.188051040277972 
-0.009158699947969463 
0 
-0.01938190146338352 
0.2026463092559331 
-0.0906856945979401 
-0.07937234288284467 
0.7379955924393758 
-0.01938870244612606 
0.07610448186823993 
0 
0 
0.2917081404596315 
0 
0.03306001072597774 
0.01608252368339015 
-0.03456203404469287 
-0.05152778233198833 
0 
-0.1201962832284435 
0 
0.1761017367613364 
-0.01652489962910638 
0 
-0.07757182428046229 
-0.009967542430590361 
0 
-0.09003099043268512 
0.02493587477073033 
0.3498894951431464 
-0.1129333456372195 
-0.4801613913983395 
0.0446077117496068 
-0.007953315446423938 
0.0127019446237369 
0.0653752086553008 
-0.5092737225573208 
0.06732300122081686 
0.01905428175005724 
0 
-0.007835441360949682 
0 
0 
-0.08270515201238995 
0 
0.9652490475976994 
-0.002171088349024271 
-0.05988406289237585 
-0.0652850778511796 
0.01762403188731126 
0.6658093936272481 
0.917321383726407 
0 
0.180411798041038 
0.02169555349552422 
-0.08594071640202713 
0.3724470514812112 
-0.6900093136493441 
0 
0 
1.275243617508623 
0.04999239355323517 
0.02649751647508026 
0.05883426388179147 
-0.05334418824084564 
0 
0.05011328628193356 
0.4285654727534535 
0.1257914870431559 
0.02265260104282084 
0 
0.05947545122928032 
-0.002397788492282716 
0 
0.1050817637481905 
0 
-0.7157846702248239 
-0.2418420255714864 
0.5569228697946733 
0.07665346214629414 
-0.8179374366751051 
0.1829226223819547 
0.0926016963548557 
0.06571577184716659 
0.00897050864926296 
0.0555561364361152 
0 
-0.03954458663244839 
-0.6743330964065843 
0.05130444687596955 
0.3367570055237813 
0.2989786764172177 
0.003050687056817812 
0.01180677468747321 
0.005076480019416559 
-0.3238165916833126 
-0.02384089180105044 
0.01724255738767373 
0.005135591049441996 
0.3068292071971678 
-0.0703702717496508 
0 
-0.1674189504417783 
0 
0 
0.03673154895883427 
0.08207878249727482 
-0.126910290651375 
0.05798774596854832 
0 
0.4946107986518768 
-0.0644912998937292 
0.03454473051710967 
0 
0 
0.02374303957236657 
0 
-0.5484924988954203 
-0.120959592491883 
-0.4621803196708645 
0.1603461599280323 
0.07215415761607076 
0 
0.01285249781345541 
0.1498740989798518 
0.7807878250409022 
0.005746762564675724 
0.106985130953527 
0 
0 
0.2924243594935381 
0 
0.02799119975122403 
-0.1719099956989867 
0 
0.007321399541659476 
0.2302093148853319 
-0.1429548714745339 
0.1178053883815373 
0.1370297966926969 
-0.02019994558274122 
-0.1144920192739141 
0 
-0.01770132787929799 
0 
0.1614684027827883 
-0.1538098909031211 
-0.1226724604591032 
-0.01614014528461858 
0 
0 
0.1411009185582776 
-0.007788288101184233 
0.03086231558127646 
-0.3769237159028938 
0 
0 
0 
-0.01887394438558689 
0.03055931430176857 
-0.6114094667989665 
0 
0 
0 
0.04086385468188591 
0.2439608181999595 
0.06798088859684946 
0 
0.04564281036810419 
0 
-0.03265809359499756 
0 
0.02247471335298735 
0.1861469970283234 
0.05054085693074843 
0 
-0.6151633505393171 
0.0586874515530779 
-0.0249573136900038 
0.02658864640419113 
0.1355360859335527 
0.09843408016749045 
0.2961315643650451 
0 
0 
-0.4154987119632261 
0.01175381101889927 
0.5560508736100134 
0.2111959710938374 
0.2895189211962478 
-0.03460085929601589 
-0.005014161521301899 
0.02172224791838194 
1.118293003345855 
0 
0.002920666554206914 
0.1384878391919924 
0.3332880792992718 
0.02648020662016951 
0 
-0.08076826245523956 
0.0004800941078127443 
0.1169260181496707 
0.1005622380326798 
-0.01435123313172409 
-0.04098753821568797 
0.3194150094325164 
0.6855489220465547 
0 
0.002874833738090256 
0.310344512194784 
0.01067089724040423 
0.01059003309546224 
-0.2044325888528248 
0.2708658743812656 
0 
0.09562944968023906 
-0.1102454247288166 
0 
0.2627768645403291 
0.002637942749827826 
0.3966793385275478 
-0.001353622104632086 
-0.001599653782818193 
0.05730509893512385 
-0.1032339136226901 
0.01690080418120801 
0.03726240569065706 
0.2738092678677043 
0.112739473117633 
0 
-0.04551336368550048 
-0.03078727872898241 
0.07940703654387446 
0 
-1.039892942060306e-05 
0.0170410434154092 
-0.02662000048376607 
0 
0.6120678404402811 
-0.001773654559350648 
0.04010677307151832 
0.03838860065464501 
-0.6360808269607244 
-0.01049120614205349 
0 
-0.004829198623326907 
0.4712906514579758 
-0.02952572564604901 
-0.1146125438556115 
0 
-0.1267887470865004 
-0.009631958295560605 
1.597370833624307 
0.03297131016646022 
-0.01812317170018693 
0.1022935428910872 
0.3265464039369676 
0.2137119509844045 
-0.01613332097819217 
0 
0.03975699320687021 
0 
-0.09039793456084649 
0 
0.2358758750939106 
-0.1200102646794169 
-0.02624420081066667 
0.01169282300776707 
0 
0.007118723898460595 
-0.02632217356831925 
0 
0 
0.5473572218844989 
0.05297330292907419 
0.2090327772893382 
0 
-0.2278266578048745 
0 
0.1474431422893315 
-0.002742184500492188 
0.3809930536452912 
0.1203049499105279 
0.0004596254469377385 
0 
0 
-0.05123956712180411 
0 
0.07461157699441751 
-0.04292212976853078 
0.1021832486738833 
0 
0 
-0.07585707177756104 
0 
0 
0.000532745363307904 
0.1316753175892783 
0 
0 
0 
-0.0150970504175584 
0 
0.08845829755797592 
-0.01238424032342933 
0 
-0.006978506830475716 
0.04942042549636772 
0.04972695324026673 
0.05509693643880546 
0.3354144445988649 
0.9393233710864838 
-0.02420944150771288 
-0.1730858700288732 
0 
-0.005708023954433466 
0 
0 
-0.07756100941966793 
0 
0.008448498506396692 
0.1477066442096775 
0.02242057842919733 
-0.03610602416467448 
-0.2217457743526435 
0 
0.0696886086333554 
-0.02525387355835029 
0 
0 
0.01256081168424006 
0 
0.004430528692853971 
0 
-0.1866566141745103 
0 
0 
-0.1828003206791168 
0.4576243360163375 
0.05846139331992455 
0.1858392255153361 
-0.07327272492943075 
0.02241339041662476 
-0.08328152855398552 
0.2307616605568581 
0.1464251229078914 
-0.5591488503460311 
0.04434111746497799 
0 
0.6885927950563603 
-0.4100935479389304 
0 
0.8422325960375299 
0 
0.1081620900834225 
-0.5604068073432817 
0.1011237273989681 
-0.01598591628873046 
0.0212453167399898 
-0.1749390909394116 
0.0344570522861966 
-0.3489893079885356 
0.004364944694041094 
0 
0 
-0.003323292767674227 
-0.1138800366096605 
0 
0.8801731169436864 
0.05901082160748097 
0 
0 
0 
0.06979150805484 
-0.1071062437832982 
0 
0.01464675900899831 
-0.2213307104163558 
-0.0060762520647858 
0.002230871416001177 
-0.200731226975779 
0 
0.00441334823937387 
0.02197390640635936 
-0.1338722147026121 
0.1303829594276822 
0.02824587550617116 
0.1377539387441499 
0 
0.3422719363220286 
0.1752019171171841 
0.2746452360963549 
-0.2294999635499324 
0 
0 
-0.9290877308155947 
0.1490988447947594 
0.04220018932710322 
0 
0.3190939964641194 
0.1726350559676608 
0 
0 
0.08316425071183529 
0.01498468493225939 
0.008095255128414273 
-0.1393331516706217 
-0.1826974196861621 
0 
0.384123010743349 
0 
0.0284242384567587 
0.8663497275908558 
0.0007644232174591481 
0.01894799655675085 
-0.08959683771635374 
-0.06317272929040363 
-0.00613353458105023 
-0.01544459436443681 
-0.3231679636958043 
-0.2778647132406287 
0.04921870931775823 
-0.02286112915637421 
0 
-0.0008387439973078206 
0 
-0.03681336263555039 
-0.02861044483077599 
-0.06535197197675252 
0.08419347190609447 
0 
-0.02641308756199102 
-0.126171766577988 
-0.6599434491388545 
0 
-0.03684951689418138 
-0.004143810098230987 
0.02466668842041789 
0 
0 
1.065396114654647 
0.2010010634543416 
0 
0.01458640043373739 
0 
-0.02494543457062225 
-0.1180389023349297 
-0.0008855285015134578 
0.4109894368936037 
0 
0.1357641048187576 
0 
-0.07659617064243728 
-0.01151146835473064 
0.5293769764271985 
-0.1871352621907822 
-0.00593401101160405 
0 
0.3200440115680025 
0 
0.002710878953661605 
-0.01197689932799095 
-0.0002534833492776882 
-0.02816778101848392 
0 
0.2788776055204567 
-0.002060214642029889 
0.04069534157837817 
0.0751481663658547 
0.1387365136461083 
0 
0 
-0.01448988297522613 
0 
-0.1575099332351846 
0 
0 
-0.0006253976167204006 
-0.05138379250144925 
0 
0 
0.02634452151250897 
-0.1029503071722687 
0.8008428976644919 
0.02390933228861449 
0.7585565760355087 
-0.001794623538812729 
-0.0191649967664121 
0 
0.04034900030316498 
-0.01172422657451425 
-0.02012374432318734 
-0.2278543273632755 
0 
0 
0.08134028993774489 
0 
0 
0 
0.008674508762274552 
0 
-0.01198351197890366 
0.7016730876898583 
-0.006522705911376402 
0.1743355269023315 
0 
-0.01870623747581333 
0.02784381931166289 
0.01251942280659516 
0.2385909770528029 
0.03984356608736232 
-0.1104419809326391 
0.2248860839276347 
0.02918736213527712 
0.01098910222245997 
0 
0 
0.02222316267195776 
0.1180840446134924 
0 
0 
0.1115062314623657 
-0.03807571779432761 
0 
0 
0.00651178426767279 
0.008585445618859482 
0.1279394164379831 
-0.006185348388648878 
0.1704365537381639 
0.05416324309010822 
0.02509703885875749 
-0.6738799843297549 
-0.2369126304416385 
0.01147578290987637 
0 
-0.4119679306097 
0.0422335426811427 
0.01561247485921652 
1.30527795246519 
0.04222796772882345 
-0.1046395826733039 
0.4514051650290186 
0 
0 
-0.02442331206345626 
0.001198520537067928 
0 
0.03465675200317981 
0.01541936527977326 
0.2448806240859746 
0 
0.6223598932286002 
0 
0.02608222195606583 
0.007051946934844396 
-0.1147301467905295 
0 
0 
0.2220979619757937 
0.1134903760368838 
0.08765815679818935 
-0.2988529829547264 
-0.1170839459716645 
-0.04477934347108791 
0.04043314311717974 
0.03232656820406872 
0.04501987291081241 
0.1021911480436773 
0 
-0.01431451585550978 
0.5633439074025921 
-0.02046245427337226 
0.0058209900598018 
0.1139714673014378 
-0.05642550421705051 
0.1716926625263306 
0.04983134513677219 
0 
0.1841445378026985 
0.03609359099084236 
0 
0.1603847668428921 
0 
0.01602093642910076 
0 
0 
-0.1468469200604363 
0.06554234866585447 
0.2988882830087498 
-0.1602579680748867 
-0.0368529910399719 
-0.08980103011579878 
0.02121545050037011 
-0.06965346749874392 
0.1671619797366594 
-0.1093537903088466 
0.02349286970202701 
0.3500356404782596 
-0.1753256722807523 
-0.02677452156600973 
0 
-0.2406083019325759 
0.2230681370007039 
-0.126842310219509 
0.5099250438327303 
-0.6138188333071035 
0.02806653570734182 
-0.04220214284499179 
0.02071454349054139 
0.04879562590151749 
-0.007034908141395523 
0 
-0.01257284394878812 
0.0714496057753832 
0.01629299930005235 
0 
-0.01318897344269545 
0.1189974494238563 
0.7120734404024781 
0 
0.04422506035350767 
-0.06600892454097432 
0 
0 
-0.07235870682817926 
0.02218395824391981 
0 
-0.1609816639612585 
0.1850648020997408 
0 
-0.1955499223521058 
0 
0.1023370097429921 
0 
0 
0.219236323474455 
0.001030313910899341 
-0.02968615304972885 
0.01515340136569355 
-0.01196114732514139 
-0.02563429188928497 
0 
0 
0.1123819013797003 
0 
0 
0.008297728567715549 
0.0544517781298592 
0 
-0.1116999792373181 
-0.1438682645908962 
-0.1086858310585055 
0.01404048466317871 
0.2524430507837324 
0 
0.003363062105349771 
-0.1585654177415765 
0 
0.02345915093332217 
0.0271982585054203 
0 
0.006235396893480936 
0 
-0.0125915675502784 
-0.02097808146390594 
0.02564279078641196 
-0.1452138605123761 
0 
-0.02746745927481407 
0.002897327997687786 
-0.0211435369981033 
0.005817770092793613 
-0.04348266437028105 
0.2926929672859217 
0.09252580564931166 
0.02840692772115178 
0.09537897481188759 
0.0440554640717128 
0 
0.2033904147141954 
0.04804114773394817 
0.01465578344934264 
-0.03629804440723415 
-0.01329251738278055 
-0.01563018618264083 
0.005222573071368643 
0.02281956980594895 
0.0152185231433648 
0.1434732691922783 
0 
0.001344145070564205 
0.7802102516486723 
0.1484902228849664 
-0.1014589017100307 
0.03192588391822458 
-0.03011479366636213 
0 
-0.4701934193140113 
-0.01013735676977337 
0.1065285524437148 
0 
0 
-0.00385424644201301 
0 
-0.840267244103911 
0.0258322471571053 
0 
-0.03547049217784365 
0.5063832482787605 
0 
0 
0 
0.074089694231481 
-0.03298899152081379 
-0.005527816305808298 
0 
0.1532152213425481 
-0.3212060146525659 
-0.05929038466092469 
0.1833498996640116 
0.0008212175623331107 
0 
0 
0.003774677615712754 
0.0002559021907692198 
-0.009522502642565626 
-0.9959922283784605 
0.1300597811891009 
0 
0.001750833989450866 
-0.01178707049000558 
-0.008065737741611703 
0 
0.04994769481994477 
0.1527668519060681 
0 
0.3565635977485297 
0.05752100084730274 
-0.05071261626033206 
-0.4489056510223711 
0.08720207366977586 
0.0224466110465114 
-0.4324953021477265 
0.1815534109357757 
0.1249214588176704 
0 
0 
-0.005848681687549032 
-0.05214190778265684 
0.03426117214856874 
-0.07566365601343936 
-0.02603932830540558 
-0.01902755131037769 
-0.08253901987136611 
0 
0 
-0.01985366678063447 
-0.8995356162762663 
0.05507934920597374 
0.02871236960613663 
-0.4476952415334969 
-0.1094549051918665 
0 
0 
0.06932400655498176 
-0.005127136255330378 
-0.02851412992387935 
-0.6743976161611899 
-0.005119592539932438 
0 
0 
0.02561140733226951 
0.0110085802643105 
0.04808627184911761 
0 
0 
0.002647226037866013 
0.02565456865833064 
0.02704121206031504 
0.05723215468939389 
0.5975330041419521 
0.02063069900425336 
-0.06281384030580192 
-0.03994742891928527 
0 
0.1717698521257316 
0.7954741213391782 
-0.03327653841217043 
0.05870131212332329 
-0.05841745213590543 
0.07165507988544353 
0.008923051067549859 
-0.04276753029310321 
-0.03032440908536447 
0 
0.02017159201741904 
0.3301102087105487 
0.02661500738842697 
0.0459779459019193 
0 
0.00440969108917357 
0.01160341441248472 
0.05706250554667861 
0 
0.9718388710537721 
0.2756123024722795 
0 
0.2572856107567675 
1.115376611438498 
0.004062473087965626 
0.00696335712358701 
0 
0 
0.003012185521055443 
0.04194120775383995 
-0.0704068013269693 
0 
-0.1607873944971932 
-0.007470345725668584 
-0.2075561323426245 
-0.007613578340226091 
0 
-0.1999347692780654 
0 
0.04685699410467512 
0 
0.1507348540094368 
0.05386314052956524 
0.01320481761335331 
0 
0.04410045068556468 
0.06196642749676427 
0.08826983037559205 
0 
0.3259494360565722 
0.17449909678641 
0.004956254231360977 
0 
0.5328569928549168 
0 
0.007456634502075714 
0 
0.2390603330044461 
-0.08262324234933774 
-0.01312269349947969 
0.0403682421376776 
0.01796229782697972 
-0.01642968655922585 
-0.07645609851484558 
0 
-0.02689811846599641 
0.9589077848348163 
0.1109785103270446 
0.237557974972102 
0.2219132096169312 
0.1458091442104492 
0.02561306822159364 
0.6683981921103384 
-0.09716654859181004 
0 
0 
0.09700158736389587 
-0.06617483536055863 
-0.05527313513280613 
0 
-0.009019947510523083 
0.02152042418040439 
0.01341541626648357 
0 
0 
0.2130941321246979 
-0.05330435497274347 
0 
-0.1184151771791289 
-0.03781094931980794 
0.03214247707669272 
0 
-0.007395292931699988 
0.009869767205353038 
-0.2008363038756836 
-0.006894112642776482 
-0.0964376416648343 
0.009491067318247491 
0.01432595374167522 
0.01320031812441989 
0.1606878603704498 
0.009430769986697573 
0.05756626174265987 
0.008158755797179378 
0 
0 
0.01674291191324828 
-0.02086540603858715 
0 
0.06968051935518818 
0.02278661634037802 
0.05991855090907347 
0 
0.03841424269964287 
-0.1762009617468314 
0 
0.03985487678717414 
-0.01130863607631622 
-0.2220597668984117 
-0.2270626329487209 
-0.1441015463249852 
0 
0.01244690118981654 
0.04704086411273289 
-0.04858356532920061 
0.05669661714078635 
-0.01320275092501525 
0.00668600956115765 
0 
0 
0 
0.08313680297901897 
-0.02955149696089871 
0.5709018256390573 
0 
0.005050486629138696 
-0.3734256894584861 
0.04297823078968996 
0.2430885422471063 
0.4214207899299201 
0.0002334621716102367 
0 
0 
0 
-0.009933773670191746 
0.129544622405869 
0 
0.09131353934274913 
0 
0 
0.1025156378712406 
0.047243988002648 
0.09349940123459914 
0 
0 
0.1815201257126922 
-0.1337956291153685 
0.00440390066171309 
0.4247879469369611 
0.006933602502242877 
0.005311646498126979 
-0.005342926321319176 
0.03415936393276558 
0.1558647353065381 
0 
-0.01022802149807733 
0.06648612582207584 
0.002647795990449885 
0 
-0.1731964803392702 
-0.2074130882523889 
0 
0.1741847173586725 
0 
0.4956271913698533 
0.04335212394384516 
-0.01072064351157917 
0 
0 
0.07885136052952679 
-0.05967131499362092 
0.1718589764157278 
-0.001626785173099892 
0.02597439213555961 
0.01109023482040764 
0.08774564010824804 
0.005974272935433162 
0.6141643136487748 
0.151907146228455 
-0.00930063183960916 
-0.0009395133365500054 
0.1284195599498883 
0 
-0.008625304702173028 
0 
0 
0.00698183285339038 
-0.01359510490756282 
0 
0 
0.2466708735334991 
0.1086881143551331 
0 
-0.3823046781218914 
-0.01916863036129307 
-0.1790460499911355 
-0.005010954713809898 
-0.04725703536420825 
-0.07351018760338392 
-0.03659228407332133 
-0.1154454738035055 
-0.1508122789398603 
0.006330407232145559 
0.133170871772254 
-0.009280064821474622 
-0.009219313036730438 
-0.04518957322886333 
0.2115528187499831 
0 
0.4489118360120591 
-0.3906044109292208 
0.0312160919031503 
0.002614104246413062 
0.9248038031224314 
-0.06436772075907742 
0.1306457907051213 
0 
0.01147205281684578 
0 
0.007957745318552926 
0 
0 
0.03078987277337106 
0.01199734472057803 
1.315360782602519 
-0.4283374611231723 
-0.286198535659252 
-0.4963070210637961 
0.001435017587620144 
0.129581382453745 
0.1257073689523348 
0 
0.2120232604319311 
-0.1777093252367019 
0.02213876313099061 
-0.006571636802739717 
0 
0.1427516474100506 
-0.01585975232623077 
-0.04836661663853515 
0.01473176156550882 
0.1673268793618725 
-0.03143836820564674 
0.02590851831174419 
0 
0 
0.1059801033365894 
-0.00256919254338251 
0.1777300954455684 
0.3544768319445151 
0.01341704471321393 
0 
0 
0 
0 
0.2061234284199305 
0.005248480680897095 
0.02439396252506505 
0.07069357632257429 
-0.1096450751482645 
0.09132008180791799 
-0.004785934990129557 
0.02770474703196733 
-0.05559724533942563 
0.007390098519799364 
-0.009123816269722 
-0.1309195768286474 
0.02546218319910333 
-0.08933907634342904 
0.1051332835126255 
0 
-0.1557003323511179 
-0.009757254092797554 
0.01312095972619275 
0 
0 
0 
-0.01396848069089639 
-0.2057885094049375 
0.9364370585347837 
0.01443209824576974 
0.09278507414903625 
0 
-0.2002438724655553 
-0.02845016572749789 
-0.01403780556126554 
0.3089935330725543 
-0.02790695342855624 
0.002173972896910235 
0.1453146019150997 
0 
0 
-0.01340997880865256 
-0.01275253221750582 
-0.01112422148158682 
0.6203344235271248 
0 
0.02526149915438254 
-0.1395724134331006 
0.0140291979852892 
0.04223372946294291 
0.06399159240793023 
-0.01125178240150405 
0.05379314731578795 
-0.07707913015019584 
0.1049541999036425 
0.03957372688467559 
-0.01880544764240084 
0.08772658172529568 
0.03878283503901515 
0 
0 
0.03977292739838189 
0 
0.02570853192163004 
0.1020492477500919 
0.1118668568789944 
0.2643086403441464 
-0.01442827070401818 
0.0002240795633738566 
-0.04304571902500672 
0 
0 
0.019191280105075 
0 
0.6603397243926041 
0.115506179133598 
-0.03179921884550125 
0.03055687012467411 
0.1116039968780229 
-0.01765709594036673 
0.1567740763051197 
-0.1864461183919905 
0.4442337702327354 
0.1306823523516221 
0.1800445397189443 
0.6803915118830498 
0.2867592252522158 
0.06683248955494206 
-0.002288893049427656 
0.07680818327555251 
0 
0.1356989451049648 
0 
-0.1921762206990388 
0.2156152464739036 
-0.01059515302637891 
0.3188156771156077 
-1.226681141152265 
0 
0.1327818453044923 
0.0867143149936218 
0.02089854459655632 
0.3077346883267837 
0.002149370197870497 
0 
0.7012904294761358 
0.4982312362432547 
0.0006904751798013989 
0 
-0.02531263271588087 
0 
0.05198873735447502 
0 
0.02142132103566893 
0.003935465507644661 
0.07846135892448557 
0 
0.005206923827838527 
-0.002079252654703507 
-0.06691027300114254 
-0.07386347199615828 
0.2712663437127065 
0.1487252755557611 
0.1164735798896342 
0.0008075607296036609 
0.01413733314523634 
0 
0 
0 
0.4128906231250643 
-0.07805911989308581 
-0.128659993750123 
0.1085238020945138 
0 
0.01256027257582869 
0.2467533153482837 
0.04420333454808777 
0.01966086351038111 
0.1683719393857392 
-0.1423996552012579 
0 
-0.06595301506013899 
0.6615950442636006 
0.08671025087436247 
0 
0.09438810536140464 
0.02818384701127795 
0 
0 
0.2758309428375337 
0 
0.1496354002723226 
0.04288898786510206 
0.01177509414126296 
-0.0709124641705748 
0.01430319948682379 
0 
0 
0 
-0.001391598292602328 
0 
0 
0 
-0.2195295163358761 
0.002163829271236485 
0.06063857403310005 
0 
0.04873248203054811 
0.3474648143668338 
0 
0.09153154532118367 
0 
0 
0 
0 
-0.0002537515063200727 
-0.03427613499233752 
0 
0 
0 
0.2722685139460638 
0.9532471515165502 
0 
-0.008846956371351425 
0 
0.4167853697702455 
0.07543618387169901 
0 
0 
0.006141733629301853 
0.04367121958508849 
0.4015555317121041 
0.005915893805133062 
0.03795456151321101 
0 
0.02668547118712989 
-0.1959083193118877 
0 
0 
0.9975833621497751 
0 
0.2098433664558226 
0.2207269339015205 
0.008694261655941215 
-0.03709167997482036 
-0.05995224198433059 
0 
0 
0.02415453430170615 
0 
0 
-0.08520612236810898 
0 
-0.2081478127193076 
0 
0.002722816830380982 
0 
0 
0.01646362762295136 
0 
0 
0.1466567056552084 
0.09457362669677091 
-0.025675597995833 
0.07257401310089497 
0 
0.07990764720640739 
0 
0 
0.005016880802705625 
0 
-0.0002524292797297692 
0 
0.007865309469125201 
-0.05475162687578894 
0.2342173690816802 
0.1207788288338833 
-0.07837359178116587 
-0.04221185885469315 
-0.008923331676160134 
-0.2860288088944415 
0.09323091845581408 
0.004180734874529513 
0.5267398034139283 
0 
0.1337726832342382 
0.06145277361250539 
0.01041618635382084 
-0.009481079194213825 
0.006877086857367289 
0.03372420374654354 
-0.1520530211513968 
-0.006569367709901738 
0.03165290634043187 
0.1101235924784943 
-0.02981633169483038 
0.02408531245338481 
0 
-0.1081472500536479 
-0.3066142389925823 
0.01615354893905603 
-0.02411438470833278 
0 
0.0642410367452186 
0 
0 
-1.177806628579024 
0 
-0.05374315475443509 
0.01073696223750751 
0.02830677417783431 
1.089325646631397 
-0.1131548751167232 
0 
-0.02187027318840974 
-0.01470077275792703 
0 
0 
-0.6024975134548491 
0.1588868042301565 
0.1770015580984609 
0 
0 
0.01711728936810029 
0.00658326950812445 
-0.01788581135253263 
-0.01496565078810421 
-0.04182466291170255 
0.003246072349618604 
0.01126801497393729 
-0.3376037525812429 
0.2245423542924096 
0 
0 
0 
0.02771739983237757 
0.03248684730584026 
0.03453555437908884 
0.05054071910217534 
0 
-0.334542986937051 
-0.03179654459624809 
0 
0.1577491940579764 
0 
0.04719746600672742 
0.1978943296861991 
0.004757991323442212 
0.1239154616915269 
0 
0.1094756813315871 
0.04315939588416944 
0 
-0.4743043305745981 
0.05262434199379434 
-0.0001704169025860489 
0.493829181548909 
0.3772908628665429 
0.2484772817319222 
-0.2126297809195681 
0 
0 
-0.03622132653048864 
0.0455650888703857 
-0.1120697895214079 
0.08579313819270783 
0.1196323274109897 
0.07121967229788355 
-0.1690252093438823 
-0.3254932924914115 
-0.02602924003086005 
0 
0.003221378153758854 
-0.07417394314484083 
0 
0 
-0.0311332720984821 
0.2181425468901704 
0.001089369681550161 
0.01243558100705116 
-0.284261791925616 
0.003653108406158607 
0.004443067372113672 
0.2002318233725771 
0.01078483858466386 
0 
0.02036938578971251 
0.1556026500842948 
-0.1501225358556804 
0.0005626729356680677 
-0.1730889883468826 
-0.4350722025416469 
-0.003200532369749959 
0.01003552062602516 
0.1229477630546133 
0.07142418616775005 
0.2029141233554885 
0 
0 
-0.05996671375781761 
0.02050778360625407 
0.02760879744211427 
0 
0.0120751667201928 
0.02684272122169399 
0.08089387507243567 
0.02273468023260911 
0.02771444776108978 
0.2193038653065109 
0.03434615638059101 
0.02792630490393834 
0.2193038653065109 
0.484761138682142 
0.02651178047004117 
-0.6152538126066265 
1.011925458962972 
-0.1355397363452339 
0.005495421138025967 
0.1423552468826865 
0 
0 
0.1420626768400138 
0 
-0.1187002823537294 
0.3703527131595333 
0.01914483312615609 
0 
0 
0.06053067386733115 
0 
0 
0 
0.02304877685927379 
0.01072648263840282 
-0.01920378721545521 
0.3196376707579874 
-0.0620385339710052 
-0.01120428956816184 
-0.02510467987048133 
0.007663737227586991 
-0.3591381513666746 
0 
0.09101261378412787 
-0.02302855880917196 
0 
-0.3317822957939348 
-0.6491591569699854 
-0.04446265968258371 
-0.05109938204466319 
0.002756198049389912 
0 
-0.05647193160949424 
-0.009934197851134263 
-0.002716777718493799 
0 
0.01228454565752793 
0.2345660711036198 
0.03432896673072761 
0 
0 
0.0698456307541231 
0.01203716980786301 
-0.1082397836648079 
0 
0.0415255193655587 
0 
0.03163986354905583 
0.04239673810364654 
0 
0 
0.008857285966090114 
-0.020850924127382 
-0.00490157129653134 
0.9690659012146353 
-0.05425022623352353 
0 
0.03695591843773162 
-0.08782554387283345 
0.1447941159172131 
0.0004847271005196909 
0.3332655147412846 
-0.007749639249707311 
0 
-0.05199584946488016 
0.03050607459651783 
0 
-0.08178699394508508 
-0.0228514862562176 
0.01011711944676431 
0.08047058683624739 
0.1139566762253074 
0 
0 
0 
0.1397704346486389 
0 
0.07997595574074934 
0.03773184218482822 
0 
0.0392175342813316 
0 
-0.05161797036341754 
0.1900784912586252 
0.03199562962808014 
0.9280098197608219 
0 
-0.1397007805155169 
-0.0169794719261621 
-0.04719540897428896 
0.1747339317516261 
0.00505255336887604 
0.2624360865327801 
-0.01351394004586978 
0 
0 
-0.001415037198590972 
0.08819069316282746 
-0.2234629099468086 
0.06639885830661085 
-0.01598695722080513 
0.1399618332036806 
0.6090783548369032 
0.0201140636575799 
0.04438890791277871 
0.2832874399311163 
-0.02888172306960891 
0.1300814884519089 
-0.09133185311725045 
0 
0.09894874166943667 
-0.1204792627418472 
0.09489338777264177 
0 
0.002691414562986469 
0.1874228337581682 
0 
0.1297027612345106 
0.3897147225682336 
-0.04462227879568907 
0.01739313406908604 
0 
-0.006826692388016697 
0 
0.1367879497734054 
-0.004847419988805586 
0 
0.1308671313130918 
0 
0.1584078984242664 
0.009722485198163688 
0 
0 
-0.04347935499362981 
0.02017686569399822 
0.001105141250069458 
0 
0 
0.004994242579831498 
0 
0.02877868708585774 
0.1696799473254456 
-0.03939019075776721 
0 
-0.2797299811203701 
-0.02686172582114714 
0.5238115252512321 
0 
-0.2168372107225348 
0 
-0.02799332995669101 
-0.4522622642372176 
0 
0 
0.1535643028949901 
0.006678061438766804 
0.06366339823726636 
-0.009595740162019504 
-0.1222144557902971 
0 
0 
-0.01683659610445843 
0.03406600935756662 
0.07354079930517422 
0.03982748071556787 
0 
-0.3549567314109387 
-0.2070365328821311 
0.5846128672142878 
0.006340436872313753 
0 
0.09641406589475816 
0 
-0.01790331059831724 
0 
0 
0 
0.1303957563893746 
0.1277277249632563 
0.1083665951228227 
0.3120612764152477 
0.008882212665157256 
-0.0166323483394121 
0.1349227739814331 
0 
0 
0 
0 
0 
0 
0.09723388099984771 
0.3278045273462038 
0 
-0.08844258314335995 
0.06217737985941256 
0.06804437498347489 
0 
0.1928424821824787 
0 
-0.01372949166129042 
0 
0.007449100138676283 
0.0465700906391693 
0 
0.005767425550759645 
0.1300026786525455 
-0.01147122752349174 
0 
-0.06562948481268309 
0.03023460031267508 
0 
-0.04150387631098594 
0 
0 
-0.602026244553251 
0 
-0.004887821657111721 
0.1324484889183922 
0.02916410752046274 
0 
-0.03131812954632587 
-0.01017922422832075 
0.4751597674584376 
-0.0277493250833727 
0.05964953579738929 
0 
-0.02779540610194315 
0.1277254965617123 
0.1168519655281859 
0.02044572656039994 
0.07247390402699407 
-0.04488407768377672 
0.01372037140136025 
0 
0.04915744876236352 
0 
0 
0 
0.1259651141829477 
0 
-1.309371465052046 
-0.003304619194819579 
0.01181391921579662 
-0.01887703656425602 
-0.3844008744698183 
0 
0.01976643539402311 
0.001685267463314664 
-0.000779860417020181 
-0.02878603485433481 
-0.2013112238683471 
0.03209755637533176 
-0.09105158366752708 
0 
0.08267116839890733 
0 
0.1780952180787881 
-0.2168770828359 
0 
0 
0 
-0.1639146590764027 
0.007942394722342394 
0.004760182036059512 
0 
-0.03093721413700235 
-0.01343764843814877 
0.1333031272168797 
0.01313702953352831 
0.1276445409328443 
0 
0.038937426875381 
-0.005624982199428353 
0.5189260981026805 
0.1427150245338053 
0.01228770061733281 
0 
0 
0 
0 
0 
0 
0.07663339378378337 
-0.09059034459127364 
-0.06982525278463546 
-0.02203758890722787 
-0.06231797143714066 
0.1090127675258793 
-0.02735032920149057 
0 
0.323274760160722 
0 
0 
0 
0 
-0.07102113950522146 
0.1438928236995345 
-0.009781566588735274 
0.01709017323851159 
-0.001320525297954312 
0.04692617666248523 
0.02001618339021782 
0.08688413389581937 
0 
0.003727584297918819 
0 
0 
-0.04503382547296007 
0.01155785859898787 
0 
0.2286519354373133 
0 
0.02250565055268489 
0 
-0.003188055281786082 
0 
0.4867962581892092 
0 
-0.2005589167111673 
0.07201813154801621 
0.008786626757134651 
0.4274063074876144 
0.1785154954373951 
0 
0.04404597591161406 
-0.04368039252564652 
0 
0 
-0.01752865497322625 
-0.0001109215640547187 
-0.02152795491076534 
-0.17422496982371 
0.003950178162114616 
0.09033869630614759 
0 
0 
0 
0 
0 
0.04800048783803382 
0.0212643900035355 
0.1519373130614011 
0 
0.05687914581609391 
0 
0 
0 
0.07325018938352867 
0.05261607742406627 
0 
-0.01290352608779309 
0.003124764198914751 
0.01646590950012707 
-0.006939852234581324 
0.01596816699563941 
8.475234446456321e-05 
0.2997501245167512 
0.1807746482851065 
0.0118413954731611 
0 
0 
0 
0.1902713396778763 
0 
0 
0.325197408460094 
0 
0.3398866401839848 
0 
0.56286846510482 
0.2663121528635762 
-0.02412262197419992 
-0.07071330757045093 
0.2563584901015828 
0.04359759588242447 
0 
0.03285047712056249 
0 
0.1723216122322069 
-0.04232138103236021 
0 
0.1649484656810719 
0 
-0.09054261373884021 
0 
0.2698185778917073 
0.01139032754614232 
0 
0.06489637298483425 
0.2623918486378679 
0 
0.02024026697902553 
-0.03718606502049303 
0 
0.0008262999014746608 
0 
0.07372776247084772 
0.2379384800691264 
-0.2315449288422168 
0.007742399629979232 
0 
0.07465684258168723 
0.06475816671569419 
0.8281387553987939 
0.3257961151199852 
0.00282113331751266 
0.04348247346219382 
0 
0 
-0.1868025282178644 
0.1015760382217925 
0.0009343711114943358 
-0.03931082928768356 
0.23179266362308 
-0.006853274130693237 
0 
0.02979459391775615 
0 
-0.09220237929495065 
-0.01027752814275741 
0 
0.0404303711707006 
-0.009901758205121243 
-0.0217858571939988 
0.001610742490990004 
-0.01236212402690741 
0.0085175361935964 
0.1664693309705212 
0.01870119434999133 
-0.02782952253180345 
-0.03853267525397238 
0.01306065978287131 
0 
0.353471769413411 
0 
0 
0 
-0.1261646403158691 
0.1562630454985462 
0 
-0.005805657844277332 
0 
0.05524033999212051 
-0.1749120480743834 
0.2192161095335025 
0 
0 
0.04988548270161798 
0.003620689282162362 
0.020796055583399 
0 
0 
0 
0 
0.07929639466530732 
0.04349869548617189 
-0.03983771852984193 
0.1790348752694568 
-0.07727779795619598 
0 
-0.001231410638015058 
0 
0.03610779061715498 
-0.1009661247645618 
0 
0 
0.0135474486347851 
0.06881942510439254 
-0.04801719908196513 
-0.01152582873239747 
-0.05025719500418914 
0 
-0.008990974922167928 
-1.068328629100291 
0.1830954082481273 
0 
0.3899119528545931 
0.01909181786865201 
-0.1040097892668745 
0 
0 
0.02581862959338856 
0 
0 
0 
0 
0.000268037013400114 
0.01010804351769765 
0 
0.05144134507125237 
-0.01188601076728431 
0 
-0.1350046247527556 
-0.01265221761100559 
0 
0.04275290653347366 
-0.1153179269522525 
0.6091826949853419 
-0.2554316782091778 
0 
0 
-0.02625526444787067 
0 
0 
0 
0.02129385755921655 
0 
0.6004095905458047 
-0.1843836131919632 
0.128431438044512 
0 
-0.0465413854223137 
-0.008861880419489232 
0.09540291435474214 
0.05267017602658969 
0 
0 
0 
-0.2859890063308921 
0 
-0.02621506940113301 
0 
-0.00569309552963188 
0 
-0.1193065034885812 
0.02662531357489193 
0.004676413315799394 
0 
0.007793922748254675 
-0.347689452995551 
0.0153775230567919 
0 
0.08036494331325597 
0.3957002645048928 
0 
-0.06322527498388311 
-0.02332217835286042 
-0.02120990879778179 
0 
0.01111930362750104 
-0.02101821712952944 
0.0349636617481676 
0 
0.005719230638864937 
-0.01144940694024345 
0 
-0.02220793110843718 
0.08286667341935566 
-0.2768805020755435 
0 
0.05821480132880588 
-0.004517984645811907 
-0.03476955375768442 
0.06018337070592777 
-0.01643405900857591 
-0.00535783024640644 
0 
-0.02445149223172854 
0 
0 
0 
0 
0.03256331854310975 
-0.1151844244531819 
0.6112237908945272 
-0.008934343667617571 
0.0675491194286886 
0.01086083817046861 
0.06269183691609123 
0 
-0.02478622094975302 
0.04312339657733884 
0.01810021459788802 
0 
0.757462230813667 
0 
0.01226834888230752 
-0.08759308090116599 
-0.08447484833381212 
-0.06469214312645706 
0.02297819714661876 
-0.08117189936574874 
-0.01297766169239232 
-0.008820126307480214 
0.08900978036407468 
0.03561597045446976 
0.03750092112738295 
-0.005707661488368621 
0.0008901928250102614 
0.1096931085098835 
0 
0.01207906018999293 
0.02201295704843333 
-0.1290024908749304 
-0.05260484908155739 
0.05081730699253083 
-0.009221419220588127 
0.7843187411154496 
0.006946508356490002 
-0.007859364396503244 
0.02962086358425762 
-0.002114659817754216 
0.09406278456733864 
-0.0633832349058145 
0.004802442003283398 
-0.1723028801651351 
-0.007242003499565369 
-0.044510693629358 
0 
0.118247510323431 
0 
0.001655114559939787 
0 
0.1024265527044712 
0.3363730020744587 
0 
0 
-0.02104092343202789 
0 
-1.030060594898234 
-0.1735077048363301 
0 
0 
0.02648719601411152 
0.1393304224507998 
0 
0 
-0.1639479200864241 
-0.04049139773598854 
0.04740488680693956 
0 
0 
0 
0.0215083005167356 
0.02606194384850963 
0.0756751878841251 
-0.1179696777517826 
0 
0.4545960137135341 
0.107002613086099 
0 
0 
0 
0.003428005032390094 
0 
-0.0727016191706313 
0 
0.3031184084609597 
0 
0.01133077062254515 
0.137619966831919 
-0.003721387110781236 
0 
-0.03186119225570536 
0.08350868749791281 
0 
-0.03852912401422565 
-0.08696449512384334 
0.003918421130882563 
0 
0.08923174995518891 
0.06872173906733171 
-0.03298734231896294 
0 
0 
0 
0.07694323375148931 
0.006886429818180841 
0 
0.1466505289139964 
0 
-1.160660033871922 
0.003933715692441969 
0 
0.01201833508576163 
0.02531942187623142 
0 
0.0671686311314988 
-0.4826795640790019 
0.01212574100872901 
0 
0 
-0.01440659977895269 
0.02778458415535079 
0 
-0.0716837964935417 
0 
0 
0.4102783107535181 
0 
0 
0.07326284694118793 
-0.02272554384299805 
0 
0.01106577726238614 
0.01754079702400577 
0.03936078837696819 
0.01307278632945355 
-0.0663939872584695 
0.1317239047493444 
0 
-0.05960458046412322 
0.02920122184824509 
0 
0 
-0.009625708580027464 
0 
0.04254731541588074 
0.269911603547828 
0 
0 
0.1334312863449442 
0.1080911024568865 
0 
0.1987660546444711 
0 
0 
0 
0.02714100247774895 
0.1005145680592466 
-0.002101397745928977 
0 
0.1130923532163358 
0 
0.01606072119583444 
0.639184960243132 
0.07918320896603917 
-0.05352769261809079 
-0.1005179349978103 
0 
0 
0 
-0.01812433673976027 
0.002398930002564545 
0 
0 
0.9258325694023459 
0 
0 
0 
-0.01493004316660275 
-0.1636541325375359 
0.2617773414616849 
0 
0.02262639906033611 
0 
0.4791872136008143 
0.07244274537155296 
0.02657442763575131 
0 
-0.04372293848186662 
0.009987583603610246 
0.1376723801373983 
0.02689335151382975 
0.01227675246279784 
0 
0.01963639926617104 
0 
-0.03040246983162076 
0 
-0.3067354754912617 
0 
0.01087537201315695 
0.1332848746733531 
-0.04111164793778976 
-0.02908019199143139 
0 
0 
-0.5147658119322648 
-0.08619550446964845 
0.1321194407706647 
0.08035188659012873 
0.002837469897844429 
-0.4903844875863916 
-0.1159544431596583 
0 
-0.3722128822300831 
0.7064785708231343 
0 
0 
0 
0 
0.07535631408945832 
0.03497786723324939 
0.009503265236383642 
0.06633371862596463 
0 
0 
-0.06958448606005918 
0.00274957731348953 
0.09204242784304917 
0.02884089065061939 
0.2392375854530127 
0 
-0.005038227822381143 
0 
0.07125344106184825 
0.2386304767630438 
0 
0.05778077249559061 
0 
0.00341495910157858 
0 
0.3147948481230672 
0.1377047872762708 
-0.1048398858470571 
0 
-0.02921678783395851 
0 
-0.002398899681051672 
0 
0 
-0.01427591400612753 
-0.1772162833840144 
0.0006598884540908573 
0 
0 
0.002366619984807013 
0.7556468872150824 
-0.1270353297404491 
0 
0.01778831222160088 
0.02057289319823019 
-0.01119534020870875 
0.04070323504789954 
-0.03031675245481838 
0.01733672865371079 
-0.128467405315774 
-0.005102316112232798 
-0.01771479657896728 
0.1361094398196622 
-0.04821494546649981 
-0.007717714766092735 
0 
0 
0 
0.1246519231760607 
-0.03572490746197141 
0 
-0.2169618586980241 
0 
0.05154403024913053 
0 
0 
-0.003862167077867869 
0.2967314406408863 
0 
0.05112745165225887 
0.06339168991004353 
0 
0.002524711552545304 
-0.1785419122469031 
0.0009975251167376779 
0 
0 
0.3574424481659598 
-0.01666656030074554 
